{"input_size": 133, "net.0.weight": [[-0.05401219427585602, 0.03869570046663284, -0.08303673565387726, 0.055273767560720444, -0.05067622661590576, -0.07811354100704193, 0.13343310356140137, 0.024071771651506424, 0.027226263657212257, -0.02265489287674427, 0.05192101001739502, -0.09933290630578995, -0.08208468556404114, 0.036003146320581436, 0.04360584542155266, -0.07718659937381744, 0.026408644393086433, 0.035393912345170975, 0.02481098473072052, 0.02526135742664337, -0.010410740040242672, 0.10010971873998642, 0.007760846987366676, 0.08008840680122375, -0.03222135081887245, -0.005209311842918396, -0.08994432538747787, -0.08333076536655426, -0.08365613967180252, 0.01579948142170906, -0.08175218105316162, -0.032514698803424835, 0.04872235283255577, 0.028133710846304893, 0.06082240119576454, -0.06911716610193253, -0.031877338886260986, -0.08606582134962082, 0.039960332214832306, 0.05103534832596779, -0.050163183361291885, -0.05418933555483818, -0.0776885598897934, -0.045263487845659256, -0.041667792946100235, -0.046022336930036545, 0.023973312228918076, 0.06946083158254623, -0.037902284413576126, 0.057679884135723114, -0.017380259931087494, -0.0453663170337677, -0.007720744702965021, -0.15150335431098938, 0.004123024642467499, 0.03580421954393387, 0.015795690938830376, -0.1315198391675949, -0.18758434057235718, 0.005936258472502232, -0.0464567206799984, -0.01975477673113346, -0.06558916717767715, 0.0503203421831131, 1.4094811376708094e-05, -0.1069459319114685, -0.036847177892923355, 0.007653913460671902, -0.11664996296167374, -0.16079971194267273, -0.08476641774177551, -0.06932199001312256, 0.0005877654766663909, -0.1281183809041977, -0.029795343056321144, -0.06458713859319687, -0.05988665297627449, -0.0398971326649189, -0.04239996522665024, -0.07198218256235123, 0.01131539698690176, 0.04771104454994202, -0.04327302426099777, -0.03367352485656738, -0.0660724937915802, -0.07105278223752975, -0.05035509541630745, 0.008766264654695988, 0.0666235089302063, 0.041090019047260284, -0.06107474863529205, -0.07245146483182907, 0.026930812746286392, 0.03248845040798187, 0.052968766540288925, -0.058662205934524536, 0.016198212280869484, 0.05591750144958496, -0.08989199250936508, -0.0010090682189911604, -0.035698939114809036, -0.08132919669151306, -0.03931523114442825, -0.02287684753537178, -0.08581564575433731, -0.08003326505422592, -0.047080062329769135, -0.06950565427541733, -0.08287252485752106, 0.05875084549188614, 0.030524471774697304, 0.17956821620464325, 0.006069247145205736, 0.02232789620757103, -0.07188661396503448, -0.047818683087825775, -0.03073853626847267, 0.047769900411367416, -0.0791773721575737, 0.01501926314085722, 0.023612242192029953, -0.1883421540260315, -0.09733979403972626, -0.11071758717298508, -0.06326474249362946, 0.03765451908111572, 0.037761587649583817, 0.03099871054291725, -0.057361312210559845, 0.028438910841941833, -0.013414374552667141, 0.019385304301977158, -0.03515017777681351], [0.002239146502688527, 0.07422719150781631, -0.06553604453802109, 0.07781822979450226, -0.08131086081266403, 0.0014560561394318938, 0.017683953046798706, -0.04242348298430443, 0.05244499072432518, -0.03358106315135956, -0.027293140068650246, 0.012416188605129719, 0.02626628614962101, 0.08593520522117615, -0.02049410156905651, 0.04502337425947189, 0.005302507895976305, 0.01703842729330063, 0.06597703695297241, -0.05184199661016464, 0.02925470471382141, -0.06406563520431519, 0.048211343586444855, -0.04460059106349945, -0.002352511277422309, -0.0067301588132977486, -0.05338209867477417, -0.06987906992435455, 0.018497126176953316, 0.03790513798594475, 0.057191409170627594, -0.0008121796417981386, -0.01561236847192049, -0.018380654975771904, 0.009925497695803642, -0.00032107747392728925, 0.07950125634670258, 0.07445386052131653, -0.0075437650084495544, -0.06104256585240364, 0.0036135544069111347, -0.010130993090569973, 0.0006287952419370413, -0.017418934032320976, -0.08329859375953674, 0.06469286233186722, 0.05378459766507149, -0.03897562995553017, -0.05545975640416145, 0.06607131659984589, 0.028395183384418488, 0.05882649123668671, -0.03868476301431656, 0.008148671127855778, -0.002085775835439563, 0.014359666965901852, -0.04926438257098198, 0.05357065424323082, 0.028532113879919052, 0.036796934902668, 0.010411904193460941, -0.0454721562564373, -0.06493929773569107, -0.07050509005784988, 0.016843320801854134, -0.027957431972026825, -0.0353640653192997, 0.005739008542150259, -0.003923915326595306, 0.007066589314490557, 0.011269369162619114, 0.03070526197552681, 0.040721599012613297, -0.04027212783694267, 0.03718028962612152, 0.04732951521873474, 0.05222572758793831, 0.03079167753458023, -0.04502083361148834, -0.009589584544301033, 0.014694674871861935, 0.05154735967516899, -0.02913103625178337, 0.08108413219451904, -0.02680085599422455, -0.06305431574583054, 0.05557052791118622, 0.07901165634393692, 0.00820743665099144, -0.04748764634132385, -0.016168177127838135, 0.06099453195929527, -0.03502548858523369, 0.04072686284780502, -0.08582790940999985, 0.042294904589653015, -0.010532045736908913, 0.0020572419743984938, 0.003557157004252076, -0.06672047823667526, 0.0675615593791008, -0.06408489495515823, 0.0365760438144207, 0.059738513082265854, 0.0061187450774014, -0.03867536038160324, -0.06109244376420975, -0.0030521959997713566, 0.05154544487595558, -0.0181915033608675, -0.045904241502285004, 0.039642419666051865, -0.01616634614765644, -0.005973404739052057, 0.07187892496585846, -0.0754213035106659, 0.035929612815380096, 0.03983747586607933, -0.05602051690220833, 0.03767155110836029, -0.041984669864177704, 0.040157679468393326, 0.07571396976709366, -0.04882185533642769, 0.04841866344213486, -0.010379581712186337, -0.0056368401274085045, -0.08394742012023926, -0.046882566064596176, -0.04129989817738533, 0.013190113008022308, 0.026043519377708435, -0.09622817486524582], [0.16482003033161163, 0.11166805773973465, 0.04930073395371437, -0.06957901269197464, 0.07986720651388168, 0.050025589764118195, -0.005031184758991003, -0.011707544326782227, -0.05691893398761749, -0.0397733598947525, 0.024656513705849648, 0.026105603203177452, -0.0069208452478051186, 0.003579465439543128, -0.05010420083999634, 0.030876845121383667, 0.03651440888643265, 0.011324443854391575, 0.02761402353644371, 0.013000094331800938, -0.028255419805645943, -0.017086541280150414, 0.030362268909811974, -0.10149538516998291, 0.03219403699040413, 0.08601000159978867, 0.07657740265130997, -0.09479602426290512, 0.03669705614447594, -0.003155385609716177, 0.011885222047567368, 0.002825779840350151, -0.029454298317432404, 0.03021523728966713, 0.07264332473278046, 0.034227967262268066, -0.025825895369052887, -0.04142088070511818, -0.07618778944015503, -0.0826134905219078, -0.0015772442566230893, -0.08770495653152466, -0.00982149038463831, -0.07468932867050171, -0.11662518978118896, 0.06633743643760681, 0.0031243672128766775, 0.014851427637040615, 0.0648794025182724, 0.05656396970152855, -0.09775813668966293, 0.049699049443006516, -0.0838388130068779, -0.049373701214790344, -0.08359082043170929, 0.027489889413118362, -0.046968791633844376, 0.08082211017608643, -0.01094695832580328, -0.04150472953915596, -0.07781928032636642, 0.002827929798513651, 0.037570398300886154, -0.07142197340726852, -0.018651530146598816, -0.07034981995820999, 0.04554937034845352, 0.0791245698928833, -0.045613843947649, -0.08680400997400284, 0.011658445000648499, -0.04135590419173241, -0.0319182462990284, 0.020200036466121674, -0.05718149617314339, -0.09290681779384613, 0.03241679072380066, -0.014959415420889854, 0.0024392574559897184, 0.056705325841903687, -0.05183401331305504, -0.09992942959070206, 0.0631924644112587, -0.0532243475317955, -0.039221663028001785, -0.03981738165020943, 0.015437405556440353, 0.035899560898542404, -0.030106564983725548, -0.05974172428250313, 0.001642146147787571, -0.012502730824053288, -0.023141557350754738, -0.05703462287783623, 0.04735855385661125, -0.021989766508340836, -0.08336058259010315, 0.08350975811481476, 0.06039818748831749, -0.025408344343304634, -0.04867396503686905, -0.07549910992383957, -0.0008439424564130604, 0.007854349911212921, -0.026063768193125725, 0.020087705925107002, -0.06395481526851654, -0.023523490875959396, 0.07974456995725632, 0.03997379168868065, 0.0005424729897640646, 0.034588705748319626, -0.02616995945572853, -0.09007632732391357, 0.09186429530382156, 0.0820031613111496, 0.011845528148114681, -0.06248662248253822, -0.03991154208779335, 0.08239786326885223, 0.03521979972720146, 0.068573959171772, 0.039469778537750244, 0.021376965567469597, 0.06742365658283234, 0.02711932733654976, 0.07970681041479111, 0.00817413255572319, -0.001520046149380505, 0.003524040337651968, -0.009629513137042522, -0.01184806227684021, -0.05438818782567978], [0.047971442341804504, 0.0036391173489391804, -0.08201786130666733, -0.05295374616980553, -0.07065748423337936, 0.07453963905572891, -0.10600917786359787, -0.08160728961229324, -0.1084609106183052, 0.040836919099092484, 0.07325151562690735, -0.07364582270383835, 0.011041151359677315, 0.05210774764418602, -0.08520900458097458, 0.1143217459321022, -0.002000540727749467, -0.024459924548864365, 0.0016468050889670849, -0.05660348758101463, -0.10902497917413712, -0.06498946249485016, -0.026931149885058403, -0.0037051988765597343, -0.04795015975832939, -0.05661137402057648, 0.00447158794850111, -0.02149553969502449, 0.03325842693448067, -0.007652797270566225, 0.15313419699668884, 0.08174537122249603, -0.006354324519634247, -0.022978823632001877, 0.09178293496370316, 0.001389360404573381, -0.03271521255373955, -0.017071379348635674, -0.07587791234254837, -0.03180534392595291, -0.08400359004735947, -0.1068224385380745, -0.07178214192390442, -0.07299825549125671, -0.1105143204331398, 0.0650286078453064, -0.03366896137595177, -0.034959521144628525, 0.09915085881948471, -0.011370696127414703, 0.04644518718123436, -0.02677268162369728, -0.060855209827423096, 0.06221573054790497, -0.03462040051817894, -0.07378646731376648, 0.01916842721402645, -0.01815253309905529, -0.04891585931181908, 0.015440106391906738, 0.03259941190481186, 0.03384804725646973, -0.0935850515961647, 0.02851453609764576, -0.052868686616420746, 0.07936272025108337, -0.010932563804090023, 0.015342459082603455, 0.1090303510427475, -0.057467516511678696, -0.07096081227064133, 0.007754738908261061, -0.04337697848677635, 0.03275592625141144, 0.0519026555120945, 0.04596022889018059, 0.04000227153301239, 0.08127851039171219, 0.012307330965995789, 0.002151264576241374, 0.016401369124650955, -0.05946784093976021, -0.016751065850257874, 0.0206402987241745, 0.0649191364645958, 0.06759380549192429, -0.006959982216358185, 0.021007956936955452, -0.08752341568470001, -0.037391297519207, 0.013799326494336128, -0.01030503585934639, 0.10189088433980942, 0.07981876283884048, -0.014269784092903137, -0.003487411653622985, -0.06738552451133728, -0.04330236837267876, 0.0324866957962513, -0.005306328646838665, -0.0077207195572555065, 0.07292939722537994, -0.09126365929841995, 0.01662604697048664, -0.005481294821947813, 0.024127746000885963, -0.04344872385263443, -0.052334025502204895, -0.00911578256636858, 0.053083907812833786, 0.041181329637765884, -0.08671243488788605, -0.06772924959659576, -0.10827906429767609, -0.08547485619783401, -0.01967945694923401, -0.04369141161441803, 0.05616781488060951, 0.020331071689724922, -0.12263577431440353, 0.08342631161212921, 0.018402988091111183, -0.208430215716362, 0.02507862076163292, 0.02454536221921444, 0.027024343609809875, -0.014516361989080906, 0.017561396583914757, 0.05161331593990326, -0.04806489124894142, -0.015718670561909676, 0.05032923072576523, -0.012815486639738083], [-0.02891160547733307, -0.08312144130468369, -0.049417976289987564, -0.035417139530181885, -0.08457162231206894, 0.052702829241752625, -0.06791319698095322, 0.006559461820870638, 0.04802195727825165, -0.019309401512145996, 0.05096353590488434, -0.025891797617077827, -0.09968718886375427, -0.08761411905288696, -0.14138223230838776, -0.04608239606022835, 0.08284617215394974, -0.07269234955310822, -0.025324063375592232, 0.03841457515954971, 0.14602352678775787, 0.07005147635936737, 0.07226729393005371, -0.02945709601044655, 0.06810033321380615, 0.05389520525932312, 0.041215475648641586, -0.0762176662683487, -0.17951515316963196, 0.12774008512496948, -0.020066017284989357, 0.04937523603439331, -0.0284759309142828, 0.0283774696290493, 0.025928311049938202, 0.015872491523623466, 0.1347796618938446, -0.0017755859298631549, -0.0063559673726558685, 0.12980413436889648, -0.041847966611385345, 0.07520387321710587, 0.029078803956508636, 0.04836056008934975, 0.010315797291696072, 0.013832462951540947, -0.032278671860694885, 0.012304508127272129, -0.03212052956223488, -0.010300986468791962, 0.009904231876134872, 0.18338851630687714, -0.023267896845936775, -0.20487643778324127, 0.15492454171180725, -0.0052477335557341576, -0.14405371248722076, 0.05641821771860123, -0.031990788877010345, -0.06501104682683945, -0.018216805532574654, 0.0023408830165863037, -0.05368302762508392, -0.0102540897205472, -0.03260483965277672, -0.04304070770740509, -0.09827050566673279, -0.06319710612297058, -0.09850414097309113, -0.0032052621245384216, 0.06613623350858688, -0.13912689685821533, -0.08083484321832657, -0.10841945558786392, -0.11329564452171326, -0.0468461848795414, 0.019661253318190575, -0.08052437007427216, -0.027754588052630424, -0.03551561012864113, 0.00904776155948639, 0.02417057193815708, 0.003431810298934579, -0.1324017494916916, 0.06868253648281097, -0.039198148995637894, 0.06951460242271423, 0.01980423927307129, -0.013410731218755245, 0.040052399039268494, -0.08192583918571472, -0.006659435108304024, 0.026128176599740982, 0.07573121786117554, 0.015671774744987488, -0.0269195344299078, 0.12603534758090973, 0.04334445297718048, 0.12354351580142975, -0.11805962771177292, -0.06020372733473778, -0.038685016334056854, 0.07037214189767838, 0.08134429156780243, -0.0037403565365821123, -0.023472527042031288, -0.005090966355055571, -0.09060093015432358, 0.05097915977239609, -0.006692324299365282, 0.07891227304935455, 0.08485066145658493, -0.023757467046380043, -0.10566708445549011, 0.00034467162913642824, 0.06378164142370224, -0.04945521056652069, 0.02811533957719803, 0.018128475174307823, 0.00323217804543674, -0.05248620733618736, 0.003716203849762678, 0.12459765374660492, 0.018190063536167145, 0.041359368711709976, 0.02841956727206707, 0.06411941349506378, -0.1016535684466362, -0.06141730770468712, -0.004071576055139303, -0.003462466411292553, 0.007119730580598116, 0.0334349162876606], [-0.03257061168551445, -0.07924118638038635, -0.025923416018486023, -0.039181750267744064, -0.059210196137428284, -0.02000868320465088, -0.08153444528579712, -0.04741128161549568, 0.08893747627735138, -0.004512387327849865, 0.060389067977666855, 0.007006450090557337, 0.006837146356701851, -0.010064064525067806, -0.025815090164542198, -0.019933875650167465, 0.035155199468135834, -0.03178233653306961, 0.03419116884469986, -0.07932883501052856, -0.012522438541054726, -0.11402256786823273, -0.06464943289756775, 0.08244499564170837, 0.10308276116847992, 0.0216425321996212, 0.06640879064798355, 0.020931599661707878, -0.1288646012544632, 0.062198322266340256, 0.03227808699011803, -0.0030892842914909124, -0.07681373506784439, 0.004532907158136368, 0.04238927736878395, 0.014576887711882591, -0.05635055899620056, -0.07787515968084335, 0.023858610540628433, 0.11465077847242355, 0.03022923320531845, -0.0895419493317604, 0.04498974233865738, 0.03399914503097534, 0.05837982892990112, 0.03694639727473259, 0.030978193506598473, -0.11930030584335327, -0.02452109009027481, -0.059769146144390106, 0.0019120214274153113, 0.0870770663022995, -0.07050182670354843, -0.1076367050409317, 0.034467726945877075, 0.05569617077708244, 0.0657360702753067, -0.029752764850854874, 0.01186818815767765, -0.05859259516000748, 0.005002134013921022, -0.07382940500974655, 0.01644912362098694, 0.04719969257712364, -0.05130589008331299, 0.07161711901426315, 0.026070289313793182, 0.005863142665475607, -0.003739413572475314, -0.08078206330537796, -0.007714962121099234, 0.08163443952798843, -0.09877113252878189, 0.07247570157051086, 0.05146682634949684, -0.05426269769668579, 0.01949097216129303, -0.02920077182352543, -0.06974370032548904, -0.008940312080085278, -0.10122615844011307, 0.02802787721157074, -0.07349594682455063, 0.010195441544055939, -0.06440655142068863, 0.07833431661128998, 0.08375351876020432, -0.07787331193685532, 0.01206546276807785, -0.01740613393485546, -0.023552142083644867, 0.06800160557031631, 0.028844406828284264, 0.05224134773015976, -0.033936623483896255, -0.09648270159959793, -0.008317393250763416, -0.052126917988061905, -0.08894594013690948, -0.07404380291700363, -0.06152557209134102, -0.09350559860467911, -0.059837426990270615, 0.03227011859416962, -0.08339233696460724, -0.0065803490579128265, -0.07180242985486984, -0.050079405307769775, 0.06152970716357231, 0.03686252608895302, 0.032670870423316956, -0.022045735269784927, 0.08406685292720795, -0.04572916775941849, -0.03499292582273483, -0.07070709019899368, -0.07671057432889938, 0.014265242964029312, -0.08648860454559326, 0.09547694772481918, -0.05707589536905289, 0.027990853413939476, 0.033886004239320755, -0.07988660782575607, -0.005343737080693245, -0.050455786287784576, 0.05583178624510765, -0.06512738019227982, -0.043604955077171326, -0.04274497181177139, -0.0017623608000576496, -0.03714301437139511, -0.021603187546133995], [-0.05409718677401543, 0.08688496798276901, -0.0352025032043457, 0.07358501106500626, 0.04287665709853172, -0.008144599385559559, -0.11348026990890503, -0.03609241545200348, -0.053737007081508636, 0.028181707486510277, 0.04002552106976509, -0.012443470768630505, 0.07071110606193542, -0.09333204478025436, -0.005657763220369816, 0.1822759211063385, -0.08478264510631561, 0.09951334446668625, -0.025314711034297943, -0.00036542059388011694, -0.08576285094022751, -0.008575712330639362, -0.029123010113835335, 0.060764338821172714, 0.0645923912525177, 0.0784422755241394, -0.08201328665018082, -0.10131058096885681, 0.012985529378056526, 0.12714135646820068, 0.16619977355003357, 0.11545240879058838, 0.06651933491230011, 0.03135542944073677, 0.09543668478727341, -0.0679832324385643, 0.015465690754354, 0.07132040709257126, -0.01796634867787361, -0.06982632726430893, -0.03079376555979252, 0.0008627946372143924, -0.03471621870994568, -0.13173000514507294, -0.05978680029511452, 0.0015629640547558665, -0.04320845752954483, -0.02788132056593895, -0.008528586477041245, -0.03060734085738659, -0.026637012138962746, 0.13029064238071442, 0.07475664466619492, -0.07098640501499176, -0.06811322271823883, -0.057755738496780396, -0.037053126841783524, -0.03326338157057762, 0.007719053886830807, -0.04743035137653351, -0.031193358823657036, 0.021913746371865273, 0.05998847633600235, 0.08839426934719086, -0.009407412260770798, -0.006514781154692173, 0.08169016987085342, -0.0033985001500695944, -0.06434065848588943, 0.07214492559432983, 0.05855614319443703, 0.06994248926639557, -0.11849664896726608, -0.05544082447886467, 0.08494377136230469, -0.017408013343811035, 0.029338181018829346, 0.010121003724634647, 0.013911418616771698, 0.079574815928936, -0.04580974578857422, -0.12191510200500488, -0.00742446118965745, -0.20031410455703735, 0.06063321605324745, -0.06785127520561218, 0.10424195230007172, -0.0014265740755945444, -0.10388530045747757, -0.04563865438103676, 0.06607430428266525, 0.017497064545750618, -0.023700805380940437, -0.10020198673009872, -0.06526803970336914, 0.0012784773716703057, -0.1751992255449295, 0.05691341683268547, 0.08602550625801086, -0.21018727123737335, 0.07172422111034393, 0.10943365842103958, 0.033979982137680054, 0.020581813529133797, -0.02069709636271, -0.029646672308444977, 0.03786209970712662, 0.030828807502985, -0.06077437102794647, 0.033531878143548965, 0.1202663779258728, -0.08749382942914963, -0.03270505741238594, 0.04193674772977829, -0.06180639937520027, -0.07101011276245117, -0.000891628791578114, 0.06363186985254288, 0.09377773106098175, 0.052580028772354126, 0.06878228485584259, -0.13607396185398102, 0.038093868643045425, 0.06797304004430771, 0.051169171929359436, -0.052514608949422836, 0.005415064748376608, -0.014096986502408981, -0.0030793577898293734, -0.050909221172332764, -0.020322659984230995, -0.08416739851236343, 0.0332791730761528], [0.07855599373579025, 0.14928972721099854, 0.0005265418440103531, -0.014884787611663342, 0.05505620315670967, -0.05571821704506874, -0.011034533381462097, 0.03682401031255722, 0.06467092782258987, -0.002889792900532484, 0.040106333792209625, -0.016632113605737686, -0.08468692749738693, 0.024100977927446365, 0.0002307593240402639, -0.04644818231463432, 0.07086347788572311, 0.04223104193806648, 0.009019861929118633, 0.02825598232448101, -0.08896969258785248, -0.0007863779319450259, 0.10538098216056824, 0.02268103137612343, 0.021328233182430267, 0.055914200842380524, 0.029672998934984207, -0.041718386113643646, -0.10270033776760101, -0.06013013422489166, 0.03634238988161087, -0.0663844645023346, -0.04393733665347099, -0.04439784213900566, -0.06295765191316605, -0.04788537323474884, -0.06487100571393967, -0.07854288816452026, -0.05957075580954552, -0.026925871148705482, -0.08254025876522064, -0.05016367509961128, -0.011347958818078041, -0.09862485527992249, -0.08654386550188065, 0.014659588225185871, -0.06481745839118958, 0.04906083270907402, -0.003540534060448408, -0.07062269002199173, 0.06468717008829117, 0.01663915067911148, 0.06354367733001709, -0.034076642245054245, -0.12665711343288422, 0.05934878811240196, 0.04263121262192726, 0.03923322632908821, 0.058251697570085526, 0.02364766038954258, 0.03712760657072067, -0.053665317595005035, 0.05635765939950943, -0.007048299536108971, -0.04255566745996475, -0.032582227140665054, -0.031205134466290474, 0.11097481101751328, 0.04327692836523056, -0.009925609454512596, -0.04239023104310036, 0.052379854023456573, 0.008629721589386463, -0.05420233681797981, -0.06400930136442184, 0.0402088426053524, 0.06056831777095795, -0.010544695891439915, -0.04539424553513527, -0.033083003014326096, 0.010981522500514984, -0.012925324961543083, 0.07303166389465332, -0.08116750419139862, -0.08042234927415848, -0.07965696603059769, 0.0597190223634243, 0.010349821299314499, 0.05167558789253235, -0.0038337414152920246, 0.05272764340043068, 0.01739323139190674, 0.13265034556388855, 0.03467549383640289, 0.06070316582918167, 0.025680942460894585, -0.06488199532032013, 0.0651441365480423, -0.06588016450405121, -0.04275444149971008, 0.053889188915491104, -0.03321187570691109, 0.04344601556658745, -0.041193827986717224, -0.05153100937604904, 0.07370105385780334, -0.012690396048128605, 0.03527935594320297, 0.016326578333973885, 0.053861312568187714, -0.15927772223949432, -0.09151400625705719, -0.06707657128572464, -0.09236627072095871, -0.0435527078807354, -0.014598280191421509, -0.06596985459327698, -0.07741590589284897, -0.07989254593849182, 0.02005792036652565, 0.07368793338537216, 0.01094516646116972, -0.17523981630802155, -0.03571927547454834, -0.02524743042886257, -0.01827802136540413, -0.01578320376574993, 0.0849643126130104, 0.09207910299301147, 0.03923264145851135, -0.030730796977877617, -0.0396389476954937, -0.018400657922029495], [-0.08751053363084793, -0.13316383957862854, -0.04034075886011124, 0.011570398695766926, -0.006305224262177944, -0.02343626879155636, 0.0006601835484616458, -0.05989505723118782, 0.08596473932266235, 0.03800039365887642, 0.0024507208727300167, -0.0696183517575264, 0.10085617750883102, 0.08212858438491821, -0.003365411888808012, 0.058721449226140976, -0.01751089096069336, -0.03173649683594704, -0.07246727496385574, -0.08578038215637207, 0.02198871783912182, 0.08412854373455048, 0.04895016551017761, -0.02036415785551071, 0.13476283848285675, 0.03559836372733116, -0.09235227853059769, 0.09129648655653, -0.013626805506646633, 0.13587640225887299, 0.09756369143724442, 0.06022144481539726, 0.04706443101167679, 0.021354347467422485, 0.06608369946479797, -0.134726420044899, 0.10544805973768234, -0.02845563180744648, -0.0339888297021389, 0.09275278449058533, -0.004482162185013294, -0.045563165098428726, 0.004156575538218021, 0.028327366337180138, 0.08718743175268173, 0.017133984714746475, -0.08405251055955887, -0.06847880780696869, -0.020206235349178314, 0.024946480989456177, -0.033789340406656265, 0.07478213310241699, -0.05460526421666145, -0.07466792315244675, 0.044754136353731155, -0.03781524673104286, -0.08081401139497757, -0.0216254610568285, 0.03363042697310448, 0.004819592926651239, -0.050709281116724014, 0.1274143010377884, 0.09894801676273346, 0.07791568338871002, -0.05073772370815277, 0.006517492234706879, 0.08408192545175552, 0.013192699290812016, -0.07765211910009384, -0.1811169683933258, -0.07679916173219681, 0.02559755928814411, -0.026642562821507454, -0.02946600317955017, -0.06861638277769089, -0.020775990560650826, 0.000797835411503911, -0.013426144607365131, 0.04450693354010582, -0.07941371202468872, -0.018378157168626785, 0.05386888235807419, -0.01378871314227581, 0.03483635187149048, -0.11265978217124939, 0.06173223629593849, 0.08587116748094559, -0.0015165541553869843, -0.2564769685268402, 0.024443339556455612, 0.02348051406443119, 0.026792209595441818, 0.004758025053888559, -0.08755310624837875, -0.042372848838567734, -0.04835741966962814, 0.02014213427901268, -0.06211661174893379, 0.020221570506691933, -0.019059818238019943, -0.036277446895837784, -0.11453741788864136, -0.0424790233373642, -0.050487618893384933, -0.04314087703824043, -0.013919291086494923, 0.032544780522584915, 0.05033259093761444, -0.07618220150470734, 0.035130903124809265, 0.13040275871753693, 0.1528007537126541, -0.08031576871871948, 0.06283643841743469, 0.12404404580593109, -0.025057123973965645, -0.04935906454920769, 0.07892919331789017, -0.008071410469710827, -0.044051866978406906, -0.015967365354299545, 0.05764150619506836, 0.16944098472595215, 0.0016359381843358278, -0.03967755287885666, -0.08091387152671814, 0.028478797525167465, 0.03985907882452011, -0.09569848328828812, -0.06923102587461472, 0.03966166079044342, 0.06632807105779648, -0.044481195509433746], [0.07833155989646912, 0.05225813761353493, 0.13520614802837372, 0.10139014571905136, 0.03339361399412155, 0.017796576023101807, -0.055142611265182495, 0.06003382056951523, -0.028826691210269928, -0.104920394718647, -0.0844738632440567, 0.07352310419082642, 0.014950567856431007, 0.013658162206411362, -0.0660683736205101, 0.055257294327020645, -0.05038001015782356, -0.06457319110631943, -0.07896038889884949, -0.08320660889148712, 0.04252184182405472, -0.015849344432353973, -0.08013752102851868, 0.002796325832605362, -0.06558876484632492, -0.06477059423923492, -0.025232233107089996, 0.035722069442272186, -0.05340668931603432, -0.06272178143262863, -0.0023624298628419638, -0.03088558092713356, 0.0006801557028666139, 0.023458879441022873, -0.017165256664156914, -0.054525624960660934, 0.06383256614208221, 0.03243027254939079, 0.11432401090860367, 0.05624471977353096, 0.03800222650170326, -0.06486585736274719, -0.03674111142754555, -0.09590096771717072, 0.09632191061973572, -0.0900232270359993, 0.03616378828883171, -0.02771250158548355, 0.05891317501664162, -0.024958394467830658, 0.023613283410668373, 0.08627068251371384, -0.06543189287185669, 0.014316387474536896, -0.12213589251041412, -0.011873945593833923, 0.05046432837843895, 0.031716328114271164, -0.02210967242717743, -0.10155095905065536, 0.11285626888275146, -0.07121972739696503, -0.03974940627813339, 0.05062857270240784, 0.05650658532977104, 0.01869831793010235, 0.016884298995137215, 0.04911230504512787, -0.005513227079063654, -0.020373208448290825, -0.06724413484334946, 0.03753906488418579, -0.06577462702989578, -0.13728278875350952, -0.04068051651120186, 0.02720206044614315, 0.013430165126919746, -0.07137241214513779, -0.05201992392539978, -0.05462271720170975, 0.0570545420050621, 0.04708724468946457, -0.0649646446108818, -0.17647548019886017, -0.09549383819103241, -0.010311048477888107, 0.04798291251063347, 0.0780239999294281, 0.009115471504628658, -0.08878161758184433, -0.04588117077946663, 0.05053733289241791, -0.04755792021751404, -0.02504398673772812, -0.037046585232019424, 0.022044707089662552, 0.09389042109251022, -0.0008614471880719066, -0.08361858129501343, -0.06587319076061249, -0.008639698848128319, -0.132136732339859, -0.021326588466763496, -0.07976125925779343, -0.11704859882593155, 0.11347782611846924, -0.0054346714168787, 0.049237724393606186, 0.09752324223518372, 0.06495372205972672, 0.044515952467918396, 0.12707534432411194, -0.07330034673213959, -0.022106466814875603, 0.034187860786914825, -0.07382169365882874, 0.019272254779934883, -0.023144230246543884, 0.024419942870736122, -0.06182194501161575, -0.005410515237599611, 0.03345611318945885, 0.021351709961891174, 0.06444025039672852, -0.0026783945504575968, -0.036369431763887405, -0.06296862661838531, -0.0643932968378067, 0.04018081724643707, -0.053762633353471756, 0.043617937713861465, 0.04781714081764221, -0.0063168383203446865], [-0.015866436064243317, -0.055464036762714386, -0.05530581995844841, 0.06997724622488022, -0.04340258240699768, 0.04350705444812775, 0.12227816134691238, -0.06773601472377777, 0.1111290454864502, 0.029896510764956474, -0.042321596294641495, 0.06191016733646393, -0.04483780637383461, 0.07189574837684631, 0.108042411506176, -0.04775765910744667, 0.021501628682017326, 0.022172970697283745, 0.014923281036317348, 0.060922231525182724, 0.047846488654613495, 0.044127028435468674, -0.05060682073235512, -0.013717674650251865, 0.0400787778198719, 0.011654641479253769, 0.06016823649406433, -0.0037274486385285854, 0.022725647315382957, 0.1084853857755661, 0.09196189790964127, 0.06374406814575195, -0.0982147827744484, -0.01583973690867424, -0.047957368195056915, 0.044026538729667664, -0.026667892932891846, -0.026857363060116768, -0.027073929086327553, -0.11250349879264832, 0.02040315419435501, 0.006801070645451546, 0.04987579584121704, -0.0421803779900074, 0.01862214133143425, 0.07972883433103561, -0.05567172169685364, 0.0033778182696551085, 0.012016845867037773, -0.02017050050199032, -0.06716940551996231, -0.06725320219993591, 0.062367748469114304, 0.0360480472445488, -0.1271619200706482, -0.018646515905857086, 0.026945944875478745, 0.00722495885565877, -0.0004104276595171541, 0.02107074297964573, 0.0934482142329216, 0.005554674658924341, -0.06367220729589462, -0.0234437957406044, -0.014331899583339691, 0.05304316058754921, -0.010928260162472725, -0.06122450903058052, 0.038179632276296616, -0.0251020435243845, -0.030633412301540375, 0.06870230287313461, -0.050512298941612244, -0.0006602110806852579, -0.058375436812639236, -0.036245740950107574, -0.06842903047800064, 0.026279611513018608, 0.02624203823506832, -0.07489895075559616, 0.07945435494184494, -0.01708587259054184, -0.018809610977768898, 0.04871346428990364, -0.060749348253011703, 0.05865250155329704, -0.01607983373105526, 0.08949942141771317, -0.17137262225151062, 0.041930194944143295, -0.06956522911787033, 0.03202835097908974, -0.03697151318192482, 0.01664363406598568, 0.000514622253831476, -0.015716468915343285, -0.16489529609680176, -0.03167547285556793, 0.017240729182958603, -0.057272180914878845, 0.07788100838661194, -0.08962471038103104, -0.09820651262998581, 0.009757568128407001, 0.004921579267829657, -0.0294184610247612, -0.004812605679035187, -0.011891723610460758, -0.009990597143769264, -0.03498389571905136, 0.05149650573730469, 0.04360240325331688, -0.05108470469713211, -0.17747461795806885, 0.14097368717193604, 0.08321888744831085, -0.09344109892845154, 0.040869224816560745, -0.23280319571495056, -0.034587033092975616, -0.073355533182621, -0.00946247298270464, 0.11449633538722992, 0.04350413382053375, 0.040688008069992065, 0.036799151450395584, -0.07604840397834778, -0.03165297582745552, 0.0896223932504654, -0.04360278695821762, -0.0363413505256176, -0.014796539209783077, -0.02508973516523838], [0.020850911736488342, -0.05350463464856148, -0.1061476469039917, -0.04027991741895676, 0.00881013460457325, -0.03047480434179306, -0.06109800189733505, 0.07490474730730057, -0.07895541936159134, 0.04603973403573036, -0.06338334828615189, 0.0009804375004023314, 0.07841937988996506, 0.04610767960548401, -0.03466729447245598, -0.06857576221227646, 0.024106906726956367, 0.011395475827157497, -0.06641963124275208, 0.10288561880588531, -0.007381560280919075, 0.15245600044727325, 0.08486948162317276, 0.001535985735245049, 0.13610556721687317, 0.07383541017770767, 0.037595417350530624, -0.09051340818405151, -0.05497139319777489, 0.004915120545774698, -0.0914432480931282, 0.03378637880086899, -0.011419937945902348, 0.029439358040690422, 0.048458974808454514, -0.1284952610731125, 0.14818894863128662, 0.06288760900497437, 0.002708739833906293, 0.18123237788677216, -0.07672807574272156, -0.04319395124912262, 0.030296768993139267, 0.09882908314466476, 0.13976448774337769, 0.004517345689237118, 0.043120186775922775, -0.02897733822464943, -0.038485318422317505, -0.0304785817861557, -0.0346512608230114, 0.04635412618517876, -0.009607288055121899, 0.049989424645900726, 0.14391463994979858, -0.012759795412421227, 0.043339215219020844, 0.01149449311196804, -0.025784986093640327, -0.03365609422326088, 0.019695663824677467, 0.017465932294726372, -0.03208627179265022, -0.046307872980833054, 0.06109200417995453, -0.035110581666231155, -0.09968751668930054, -0.05940648168325424, 0.003956440836191177, -0.12230527400970459, -0.008468542248010635, -0.11884914338588715, 0.006464868783950806, -0.10650523006916046, -0.029021264985203743, -0.09204916656017303, 0.04641914740204811, -0.012520764023065567, 0.07218600809574127, 0.03606545552611351, 0.002060582395642996, -0.06198270618915558, -0.05160278454422951, -0.025590289384126663, -0.04084892198443413, 0.03261227160692215, -0.10616035759449005, -0.024036437273025513, -0.15203917026519775, -0.007617773953825235, -0.06125327944755554, 0.04401553422212601, -0.09422162175178528, 0.0672413557767868, 0.039621394127607346, 0.03568349406123161, -0.09678751230239868, 0.0357777401804924, 0.10324708372354507, 0.08619048446416855, 0.016548868268728256, 0.03147193789482117, 0.08712953329086304, -0.06874050199985504, -0.06875289976596832, -0.0437050424516201, -0.02169366180896759, -0.02640664577484131, -0.008245005272328854, -0.008272234350442886, -0.026693174615502357, -0.019106125459074974, -0.029228026047348976, -0.1912982016801834, 0.09417948871850967, -0.039373334497213364, -0.03906362131237984, 0.07546397298574448, 0.1331569105386734, 0.03230028226971626, -0.06009157374501228, -0.07119220495223999, 0.1817898154258728, -0.04168005660176277, -0.06878550350666046, 0.007663081865757704, 0.08172156661748886, -0.039173807948827744, 0.0066869440488517284, -0.05141753703355789, 0.027981512248516083, 0.029573986306786537, -0.0037945627700537443], [-0.1367516815662384, -0.0276446845382452, -0.07221460342407227, 0.004573018755763769, -0.12217070162296295, -0.013958259485661983, 0.12019244581460953, -0.07539518922567368, 0.02918187342584133, 0.13432879745960236, -0.023677518591284752, -0.04279938340187073, 0.0712568610906601, 0.11255468428134918, 0.07306194305419922, 0.028551459312438965, -0.027388516813516617, 0.0968438982963562, 0.05514800176024437, 0.034718193113803864, -0.13482683897018433, -0.005743347108364105, -0.008824949152767658, 0.04217184707522392, 0.05533825606107712, -0.036050718277692795, 0.02321258746087551, 0.084090456366539, 0.095368891954422, 0.04854289069771767, 0.07484237849712372, 0.005144821479916573, 0.08591879904270172, 0.11814282089471817, 0.08734436333179474, -0.07587268203496933, 0.03943705931305885, -0.05634785816073418, -0.12155073136091232, 0.008674077689647675, 0.07976866513490677, 0.027794405817985535, -0.12306846678256989, -0.016865001991391182, 0.08928374946117401, -0.041960034519433975, 0.051225051283836365, 0.03256164863705635, -0.019858134910464287, -0.0800313875079155, 0.014240743592381477, -0.018576009199023247, 0.004262199159711599, -0.04657053202390671, -0.07993698120117188, -0.058716703206300735, -0.035283368080854416, -0.006549370475113392, -0.06055751070380211, -0.041028063744306564, 0.05906067043542862, -0.026482025161385536, -0.06072903424501419, -0.01905767433345318, 0.07192989438772202, -0.08096888661384583, -0.029162338003516197, 0.014342731796205044, -0.05297593027353287, 0.09291041642427444, 0.00825910922139883, 0.08386898785829544, 0.03822704032063484, -0.1348705291748047, 0.07307947427034378, -0.009672760032117367, 0.006224559620022774, 0.06181379780173302, -0.10081097483634949, -0.08799965679645538, -0.1146334707736969, 0.0030494590755552053, 0.049130648374557495, 0.0788901075720787, -0.059761859476566315, 0.08658718317747116, -0.08801591396331787, -0.0044574313797056675, 0.0679762065410614, -0.010973097756505013, -0.1792815774679184, -0.09382768720388412, -0.015378367155790329, 0.021302882581949234, -0.059676967561244965, 0.02704363316297531, 0.029635045677423477, 0.008296799845993519, 0.08874233067035675, 0.04991116002202034, 0.036361370235681534, 0.014325608499348164, 0.06701900064945221, 0.014404932968318462, -0.017084823921322823, -0.05116228014230728, 0.040013350546360016, -0.05591617152094841, 0.03533614054322243, -0.012871937826275826, 0.08859170228242874, 0.12539523839950562, -0.03659247234463692, 0.05662737414240837, 0.051022522151470184, -0.06073285639286041, -0.028724033385515213, -0.06271743774414062, 0.1128394827246666, -0.019868923351168633, 0.05015936493873596, -0.03720476105809212, 0.13110409677028656, 0.008314846083521843, 0.051775816828012466, 0.03719062730669975, 0.05530203878879547, 0.029368435963988304, 0.008878543972969055, 0.06724053621292114, 0.06916425377130508, 0.0763571709394455, -0.005133159924298525], [0.09752226620912552, 0.07274483889341354, 0.1227516159415245, 0.058780595660209656, 0.0631241500377655, 0.07011479884386063, 0.12174681574106216, -0.037529610097408295, 0.02102809213101864, 0.07342302054166794, 0.015119914896786213, -0.018591027706861496, 0.04218680411577225, -0.0620296336710453, 0.13574326038360596, 0.028415318578481674, -0.06548160314559937, -0.09812884032726288, 0.008594379760324955, 0.09985958784818649, 0.10937978327274323, 0.10612605512142181, 0.08818606287240982, -0.0758475735783577, 0.13131697475910187, -0.055294204503297806, 0.05268455296754837, -0.07316789776086807, 0.01734836958348751, 0.15059533715248108, -0.01587037928402424, -0.10124574601650238, -0.04296945780515671, -0.06755698472261429, -0.11852167546749115, -0.09138639271259308, 0.08930844068527222, 0.013956941664218903, 0.039443667978048325, 0.005059285555034876, -0.027996061369776726, -0.04377702251076698, 0.07800567895174026, 0.0750877857208252, 0.04481019452214241, -0.013188361190259457, 0.04330449551343918, -0.002584208035841584, -0.09446030855178833, 0.015220310539007187, -0.016129599884152412, 0.08476093411445618, 0.014866885729134083, -0.014975924976170063, -0.009891266003251076, -0.06569056212902069, -0.04466503486037254, 0.08592262864112854, -0.0010822657495737076, -0.032667335122823715, 0.03377760574221611, 0.08149047195911407, 0.07573548704385757, -0.03145727142691612, -0.009449533186852932, 0.06424688547849655, -0.014003610238432884, 0.08723822981119156, -0.009831475093960762, -0.07316047698259354, -0.0658254474401474, 0.06805932521820068, -0.043672576546669006, 0.015873372554779053, 0.01700066588819027, 0.13459007441997528, -0.017712680622935295, 0.06395870447158813, -0.014315570704638958, 0.026224246248602867, -0.02540675923228264, -0.031055452302098274, 0.10377347469329834, -0.06110937148332596, -0.07359884679317474, -0.036290254443883896, -0.05976786091923714, -0.07912130653858185, 0.036426935344934464, -0.057443637400865555, 0.08423557877540588, 0.010751388035714626, 0.04306386038661003, 0.015130734071135521, 0.02477276884019375, -0.021949607878923416, -0.03978024423122406, 0.022785160690546036, -0.1456841081380844, -0.03799891099333763, -0.029787316918373108, 0.04220720753073692, 0.029820146039128304, -0.0020322888158261776, -0.10863976925611496, 0.07896099984645844, 0.04844452068209648, 0.04445323720574379, 0.03302468731999397, -0.002615968929603696, -0.07089575380086899, -0.02387256920337677, 0.010827199555933475, 0.0439695343375206, 0.03923657536506653, 0.0612584725022316, -0.0069259884767234325, -0.04080601781606674, 0.046267081052064896, 0.027581676840782166, 0.02308831550180912, -0.11057115346193314, 0.11811183393001556, 0.0021039433777332306, 0.02740868739783764, -0.037732187658548355, -0.08000140637159348, -0.0028623302932828665, -0.04033229500055313, -0.06549942493438721, 0.04508388787508011, -0.07315518707036972, 0.028523841872811317], [-0.08672215789556503, -0.04855119809508324, -0.05921011045575142, 0.05037185177206993, 0.03390251100063324, 0.06463715434074402, 0.09309368580579758, 0.023606589064002037, 0.03607187792658806, 0.029215343296527863, 0.05948570743203163, 0.05605646222829819, 0.10875052958726883, 0.05930273234844208, -0.028625253587961197, -0.08733545988798141, -0.07370133697986603, -0.0036125469487160444, -0.04884171113371849, -0.06228826567530632, -0.004179466515779495, 0.14121444523334503, -0.03491203114390373, 0.11517008394002914, -0.08327249437570572, 0.06357108056545258, 0.02260485291481018, 0.032501935958862305, 0.04547889158129692, 0.07119960337877274, -0.05746408551931381, -0.06899567693471909, 0.04192274063825607, -0.0653502345085144, -0.01888427697122097, 0.03678226098418236, 0.04603932797908783, 0.007587272208184004, -0.09050452709197998, -0.09367852658033371, 0.04819994419813156, -0.028665943071246147, 0.08584126830101013, 0.06654302030801773, -0.09199746698141098, 0.0505441315472126, 0.09509097039699554, 0.09725356101989746, 0.014200184494256973, 0.02192908339202404, 0.03332379460334778, -0.03588065505027771, -0.01231427676975727, -0.08386304974555969, -0.09829594194889069, -0.04420448839664459, -0.04997943341732025, -0.03811725974082947, -0.019170399755239487, -0.004420411307364702, -0.06217072159051895, -0.0036441294942051172, 0.05645853653550148, -0.06941524147987366, 0.09862197935581207, 0.0273919478058815, 0.07401037961244583, 0.00022651386098004878, -0.08633046597242355, -0.05412144213914871, 0.03485380485653877, 0.03668448328971863, -0.03023698925971985, 0.02825164422392845, -0.013938947580754757, 0.012925500981509686, -0.026956815272569656, -0.08611390739679337, 0.06979280710220337, -0.08924783021211624, -0.0006195527967065573, 0.01906178891658783, -0.03535342216491699, 0.04727112501859665, 0.014219389297068119, 0.04620344191789627, -0.016931656748056412, -0.003391621634364128, 0.011653631925582886, 0.03864821046590805, 0.19797196984291077, -0.05265333503484726, 0.006967991124838591, 0.029199689626693726, 0.17342175543308258, 0.0203616451472044, 0.04106423258781433, 0.030227433890104294, -0.010123394429683685, -0.02473231963813305, -0.032476507127285004, -0.088345006108284, -0.02747015468776226, 0.0642557367682457, -0.0784875825047493, 0.04922788217663765, 0.0015962643083184958, 0.00011510034528328106, -0.048351775854825974, 0.03984728828072548, -0.14511412382125854, 0.0058698104694485664, -0.03372839838266373, -0.010630731470882893, 0.007438667118549347, 0.05317521095275879, 0.013860281556844711, 0.050658226013183594, -0.011258675716817379, 0.044193580746650696, -0.015439826063811779, -0.09578030556440353, 0.0965258926153183, -0.00939059816300869, -0.05741429328918457, 0.01712513156235218, 0.04617338255047798, -0.03773167356848717, 0.017577163875102997, -0.07425665110349655, -0.05797969922423363, 0.03178548440337181, 0.043122533708810806], [-0.01779128797352314, -0.008323881775140762, -0.10649538785219193, -0.03610287979245186, -0.003929760307073593, -0.029847849160432816, 0.09520919620990753, -0.01528149750083685, -0.0008080239640548825, 0.007681088987737894, 0.007738126907497644, -0.04528888314962387, -0.037813711911439896, -0.05742334946990013, 0.0750890001654625, -0.061326418071985245, 0.016018031165003777, 0.010946398600935936, -0.024599513038992882, 0.09331782907247543, 0.03069116733968258, 0.10058604180812836, 0.062142472714185715, 0.057638753205537796, 0.10414344072341919, -0.06293393671512604, 0.02606400102376938, 0.07411923259496689, 0.11675041913986206, 0.02326013520359993, -0.09119059890508652, -0.043141432106494904, 0.05504045635461807, 0.028019508346915245, -0.02367333509027958, 0.054058101028203964, 0.10456306487321854, 0.06002306938171387, 0.035871151834726334, 0.17590957880020142, -0.05192374810576439, 0.05684790760278702, 0.007482185959815979, 0.08401087671518326, -0.023333704099059105, 0.03596065938472748, -0.0006328773451969028, -0.019626332446932793, -0.014722397550940514, -0.04519134387373924, 0.02940957434475422, 0.048840317875146866, 0.08089824765920639, -0.047167304903268814, 0.006515004206448793, -0.02043161168694496, 9.847178444033489e-05, -0.01690438576042652, 0.016461173072457314, -0.03907724469900131, 0.008464822545647621, -0.053318966180086136, 0.08278096467256546, -0.08130385726690292, -0.04029373079538345, 0.004340482410043478, 0.05523629114031792, 0.06530403345823288, -0.02864980883896351, -0.029716556891798973, -0.015859922394156456, 0.028100511059165, -0.02020007185637951, -0.008704816922545433, -0.02280440740287304, 0.07784901559352875, -0.03772629052400589, 0.0001934500178322196, -0.04036131501197815, 0.008196355774998665, 0.008961822837591171, -0.010105134919285774, 0.09181512147188187, -0.04189381003379822, -0.05650373920798302, -0.02217974327504635, 0.06393805891275406, -0.042989619076251984, -0.039820048958063126, -0.04484732821583748, 0.07157287001609802, -0.0025117225013673306, 0.05183910205960274, -0.021029425784945488, -0.011831044219434261, 0.04074370861053467, 0.10782912373542786, 0.06484094262123108, 0.056326381862163544, -0.03424636647105217, 0.053997479379177094, 0.06838914006948471, 0.06308218836784363, 0.05714968591928482, 0.08916202187538147, -0.09904923290014267, -0.059675369411706924, -0.05962111055850983, 0.046040307730436325, -0.06357834488153458, -0.10468855500221252, 0.05399550870060921, 0.026461336761713028, -0.04773149639368057, 0.002620016224682331, -0.07403722405433655, -0.007811234798282385, -0.001166369765996933, 0.004350099712610245, 0.03422378748655319, -0.07614659518003464, -0.056962206959724426, 0.1792173683643341, -0.07901796698570251, 0.039417218416929245, -0.06916385889053345, 0.05633553862571716, -0.04035593941807747, -0.03269179165363312, 0.03694084659218788, -0.039394669234752655, 0.06391928344964981, 0.05157540738582611], [0.1983451396226883, 0.028589891269803047, 0.03732570633292198, -0.012844436801970005, -0.005846716463565826, -0.019684460014104843, 0.00259071565233171, -0.029383523389697075, -0.05090005695819855, -0.07752500474452972, -0.05438961461186409, 0.03517727926373482, -0.028972741216421127, 0.01819280907511711, -0.05103010684251785, -0.011188906617462635, 0.04767051339149475, 0.01645410992205143, 0.01725650206208229, 0.06661448627710342, 0.0650993287563324, 0.018077876418828964, -0.03816628456115723, 0.05570829287171364, 0.12744586169719696, 0.0720057338476181, -0.11451057344675064, -0.17772947251796722, 0.07650263607501984, 0.1169639602303505, 0.020413260906934738, -0.056089360266923904, -0.11266200244426727, -0.07796256244182587, -0.0042032706551253796, 0.06799706816673279, 0.09130942076444626, 0.02830667980015278, 0.05288947373628616, 0.11302860081195831, 0.07225913554430008, -0.057131387293338776, 0.03349093347787857, 0.13199296593666077, 0.10877644270658493, 0.012999147176742554, -0.002277929335832596, 0.0275704488158226, 0.07727653533220291, 0.01050324272364378, 0.0030410969629883766, 0.11818274855613708, 0.030209621414542198, 0.038344576954841614, 0.13085947930812836, -0.017405815422534943, -0.02695479616522789, -0.019635988399386406, -0.007360595278441906, 0.06374380737543106, 0.0669138953089714, -0.04891841858625412, 0.013223536312580109, 0.022877391427755356, 0.013449940830469131, -0.02292870357632637, 0.066083163022995, -0.01754269003868103, -0.040266960859298706, -0.022259622812271118, -0.005651342216879129, -0.10265521705150604, 0.07415731251239777, -0.07083562761545181, -0.0367000438272953, -0.012620743364095688, 0.004913270939141512, -0.012403537519276142, -0.03427855297923088, 0.015192149206995964, -0.003834734670817852, 0.053751345723867416, 0.09095054864883423, 0.030600039288401604, 0.013937427662312984, 0.07060609012842178, -0.04176205024123192, 0.027458786964416504, 0.025564076378941536, -0.08431302756071091, -0.056317392736673355, 0.005756815895438194, -0.06579691171646118, 0.06522928923368454, 0.036731820553541183, 0.016601087525486946, 0.016672760248184204, 0.01920219697058201, 0.1491677314043045, 0.08889029920101166, 0.0396956130862236, 0.05306252837181091, -0.023331601172685623, -0.04224079102277756, -0.022772176191210747, -0.09172254800796509, -0.09818065911531448, -0.08106976002454758, 0.075558602809906, 0.007963543757796288, -0.029801053926348686, -0.010424480773508549, 0.0013821442844346166, -0.05658207833766937, -0.05389700084924698, 0.007200439926236868, 0.010993359610438347, -0.15517035126686096, -0.05622697249054909, 0.002676118863746524, -0.008629651740193367, -0.08830319344997406, 0.14188607037067413, -0.010392178781330585, 0.049065541476011276, 0.038507115095853806, -0.07297869771718979, -0.014733429998159409, -0.048949312418699265, -0.015162245370447636, 0.027817683294415474, 0.02967318892478943, -0.07902977615594864], [0.2335289716720581, 0.03572507202625275, 0.10676808655261993, 0.09410947561264038, 0.14074109494686127, -0.059387654066085815, 0.015802672132849693, 0.019005853682756424, 0.048305727541446686, 0.12557941675186157, -0.029901528730988503, -0.005895855370908976, -0.029774686321616173, -0.04544544965028763, 0.14410802721977234, -0.03828926011919975, 0.07337897270917892, -0.06408446282148361, -0.053979307413101196, 0.10202304273843765, 0.06156386435031891, -9.701750241219997e-05, 0.0404459573328495, -0.03809850290417671, -0.053890474140644073, -0.07874789834022522, -0.014099778607487679, 0.004159156698733568, 0.11136239022016525, 0.04217948764562607, -0.13005781173706055, 0.05964483320713043, -0.00843987800180912, -0.015340404585003853, -0.009449925273656845, -0.0739474669098854, -0.16696543991565704, -0.040921859443187714, -0.101606585085392, 0.06571101397275925, -0.05357209965586662, 0.01146809384226799, -0.026838643476366997, -0.05703720450401306, -0.05226397514343262, -0.051214251667261124, 0.0368107333779335, -0.015192043036222458, 0.0011084965663030744, -0.08456477522850037, -0.035269659012556076, -0.07278646528720856, 0.01984487660229206, 0.0013913504080846906, 0.055179670453071594, -0.08102498203516006, -0.03183077275753021, 0.06882312893867493, -0.1257411539554596, 0.03694527596235275, -0.03011813573539257, -0.026397645473480225, -0.09312964975833893, 0.004435056354850531, -0.09919057786464691, -0.020562492311000824, 0.012370322830975056, -0.024380618706345558, -0.14120599627494812, 0.013538199476897717, -0.06622427701950073, 0.053932394832372665, -0.0573226623237133, 0.07569508254528046, 0.0702664852142334, -0.02619732916355133, -0.10278681665658951, 0.08342689275741577, 0.009667432866990566, -0.006670390255749226, -0.012015578337013721, -0.006587476469576359, 0.04480845481157303, 0.11934767663478851, -0.15888948738574982, -0.007021789439022541, 0.07363370805978775, -0.032217707484960556, 0.059350013732910156, -0.05502845346927643, -0.09172339737415314, -0.005032995715737343, -0.02275901660323143, -0.09976842999458313, 0.015146439895033836, 0.030050965026021004, 0.06301426887512207, -0.031256210058927536, 0.1375700682401657, 0.1010705977678299, -0.021354611963033676, -0.0684882178902626, 0.003601345233619213, -0.021568547934293747, 0.07453355193138123, -0.019515443593263626, -0.05304017663002014, 0.10160030424594879, -0.02406591735780239, -0.020540554076433182, -0.07808928936719894, 0.04652461037039757, 0.0001809463428799063, 0.10028588026762009, 0.03262563422322273, 0.07104898989200592, -0.026504911482334137, 0.014581812545657158, 0.01908322609961033, 0.013544737361371517, -0.053096748888492584, 0.040133506059646606, -0.044745493680238724, 0.11985763907432556, 0.06246160715818405, 0.03501146286725998, 0.03964761272072792, -0.03708567097783089, -0.025167914107441902, -0.009896796196699142, -0.013530388474464417, 0.040719203650951385, 0.029013685882091522], [0.0030871687922626734, 0.04872865974903107, 0.07428961247205734, 0.03487425670027733, 0.024473635479807854, -0.007940810173749924, 0.1799975484609604, 0.031060051172971725, 0.11508797109127045, -0.02923266962170601, -0.07194548845291138, -0.10179787874221802, -0.02821771800518036, -0.06106160581111908, -0.004650019574910402, -0.036650195717811584, -0.08196550607681274, 0.05871209502220154, 0.05858452618122101, -0.006822848226875067, 0.012142506428062916, 0.05344361439347267, -0.030104458332061768, -0.026147477328777313, 0.07370828837156296, 0.00471610389649868, -0.05834721773862839, 0.08526133000850677, 0.009924095124006271, 0.003350805025547743, 0.01254188921302557, 0.004821466282010078, -0.046410590410232544, 0.05600598827004433, -0.018677009269595146, -0.06941722333431244, -0.09962484985589981, -0.07818323373794556, -0.002437495393678546, 0.01798953488469124, 0.08112963289022446, 0.031008316203951836, 0.06406185775995255, 0.011907906271517277, -0.0895840972661972, 0.02883601002395153, 0.040137965232133865, 0.03409460186958313, -0.06925051659345627, -0.07676055282354355, 0.009452135302126408, -0.06658530980348587, 0.031207473948597908, -0.08961808681488037, -0.02650991640985012, -0.04611784219741821, -0.014168024063110352, 0.09367477148771286, -0.016952410340309143, -0.03410151228308678, 0.019622482359409332, -0.04606488719582558, 0.050266820937395096, -0.059853751212358475, -0.038121119141578674, -0.006646763067692518, -0.07874877750873566, 0.02117622084915638, -0.027219893410801888, -0.05526141822338104, -0.021934928372502327, -0.06774722784757614, -0.01515184622257948, -0.02382425218820572, -0.09247595071792603, -0.04891951382160187, 0.04152555763721466, -0.0590219683945179, -0.049617402255535126, -0.014651483856141567, -0.04634775593876839, -0.12484980374574661, -0.07236485928297043, -0.047978725284338, -0.10320338606834412, 0.08547686785459518, 0.025028664618730545, -0.024259427562355995, 0.020867034792900085, -0.031283702701330185, 0.01087925210595131, 0.09404191374778748, 0.006430330686271191, 0.0706324428319931, 0.05861855298280716, -0.09742067754268646, -0.09070291370153427, -0.07981152087450027, -0.023293055593967438, -0.09562654793262482, 0.06243008002638817, -0.0777372494339943, 0.018413059413433075, -0.04865777865052223, -0.022602016106247902, 0.09185219556093216, 0.04236632585525513, 0.006304563954472542, -0.04284338280558586, -0.06947042047977448, 0.04456780478358269, 0.14429673552513123, -0.06715352088212967, 0.022660261020064354, -0.05135952681303024, -0.08014154434204102, 0.04735918715596199, -0.02327544242143631, -0.03971237689256668, -0.0023356687743216753, -0.025123270228505135, -0.17262940108776093, 0.069191575050354, 0.017994986847043037, 0.037530966103076935, 0.061961814761161804, -0.012935582548379898, 0.01757187582552433, -0.07084976136684418, -0.04735823720693588, -0.015847256407141685, 0.02718503773212433, 0.041808124631643295], [-0.028554648160934448, -0.06982012093067169, 0.01624789647758007, 0.004236199427396059, -0.010480629280209541, -6.299219239735976e-05, -0.21030819416046143, -0.09934810549020767, 0.05147011578083038, 0.08419588953256607, -0.07637736201286316, -0.024558493867516518, 0.0100852744653821, -0.020716197788715363, -0.013228775933384895, -0.008390197530388832, 0.04766794666647911, -0.05285225808620453, 0.06409040838479996, 0.10663194209337234, 0.07642322778701782, 0.0007304666796699166, -0.02582329697906971, -0.11831632256507874, -0.027289150282740593, -0.06674202531576157, 0.03402450680732727, -0.005518464371562004, 0.13233031332492828, 0.13701148331165314, 0.01493059005588293, 0.010134264826774597, 0.06265299767255783, -0.08200084418058395, 0.015704620629549026, -0.04122564196586609, 0.13867974281311035, -0.03397766128182411, 0.09046585857868195, -0.05322093889117241, 0.03799763694405556, 0.009680553339421749, 0.024136312305927277, 0.02592315711081028, 0.1202610582113266, 0.014929473400115967, 0.005499023012816906, -0.06024915724992752, 0.044553663581609726, 0.08667394518852234, -0.08695898205041885, 0.11532238870859146, -0.00560079887509346, -0.0043945941142737865, 0.0018435500096529722, 0.052334263920784, 0.03826751559972763, 0.018404332920908928, 0.07531581073999405, 0.10841218382120132, -0.01401787530630827, 0.07828226685523987, -0.047490477561950684, -0.04948139935731888, -0.055482279509305954, -0.06970756500959396, 0.013323831371963024, 0.05293108522891998, -0.06157074123620987, -0.1372188925743103, -0.07135902345180511, 0.016236120834946632, 0.04833855852484703, -0.08372022956609726, -0.00783473625779152, 0.007072057109326124, 0.05526003986597061, 0.08345618098974228, 0.05431515350937843, -0.06402813643217087, 0.06990935653448105, 0.07453322410583496, -0.02099550887942314, 0.03927793353796005, 0.0561034269630909, -0.05377553775906563, -0.035773660987615585, -0.053433291614055634, -0.12158352881669998, -0.06821811944246292, 0.07231590151786804, -0.030085958540439606, 0.06353486329317093, -0.04442865401506424, 0.045951567590236664, -0.07128750532865524, 0.08603546768426895, 0.0015110099921002984, 0.06278125196695328, -0.05618397518992424, -0.017871228978037834, -0.15731987357139587, -0.024852164089679718, 0.04278409481048584, -0.09174036234617233, 0.007284989580512047, -0.008747782558202744, 0.03639191761612892, 0.037445906549692154, 0.06953128427267075, -0.07645682245492935, -0.032020680606365204, 0.005068497266620398, 0.026945456862449646, -0.04047277942299843, -0.04901475831866264, 0.06036980450153351, 0.018793664872646332, 0.03946493938565254, 0.001685244613327086, -0.03349539265036583, -0.045949626713991165, 0.11764130741357803, -0.030760714784264565, -0.023620398715138435, 0.031174324452877045, -0.08056629449129105, 0.017350099980831146, -0.030315976589918137, -0.09508196264505386, -0.04756389185786247, 0.03642551973462105, 0.050018150359392166], [0.12289553880691528, 0.003779500490054488, 0.04195558652281761, -0.08218489587306976, 0.005805546883493662, 0.026676956564188004, 0.053321029990911484, 0.07054366916418076, -0.12065117061138153, -0.01953667774796486, -0.07650692015886307, -0.08884289115667343, -0.08450597524642944, -0.06525330990552902, 0.049206480383872986, -0.04111946001648903, 0.01831408031284809, -0.06115547940135002, 0.06588935106992722, 0.03865553066134453, 0.07060421258211136, 0.037168946117162704, -0.051035597920417786, 0.044806282967329025, 0.16633376479148865, 0.07302550226449966, -0.09922517836093903, -0.0645696148276329, -0.0751558244228363, 7.531252776971087e-05, -0.007431612350046635, -0.0036158354487270117, -0.08925093710422516, -0.03123759664595127, 0.012358132749795914, -0.09021462500095367, -0.04237128421664238, 0.025061311200261116, 0.02637963742017746, 0.16413286328315735, 0.006811467465013266, 0.06976025551557541, -0.05244823917746544, -0.052186548709869385, -0.004767340607941151, 0.03308191895484924, -0.1000782772898674, 0.030918782576918602, -0.01638360135257244, 0.054441697895526886, -0.0583525225520134, -0.010069183073937893, 0.026973756030201912, -0.024368811398744583, 0.13338090479373932, 0.07686001807451248, -0.04457530379295349, 0.0125340037047863, 0.07780291140079498, 0.06271972507238388, 0.17047657072544098, -0.023618683218955994, -0.010626215487718582, 0.012865724042057991, -0.01863802783191204, -0.004573548678308725, -0.026306886225938797, 0.017981769517064095, -0.013411685824394226, 0.011106573045253754, -0.02461700513958931, -0.02743706665933132, -0.012362721376121044, -0.08822429180145264, -0.019591279327869415, -0.07019783556461334, 0.0204023327678442, 0.03832273557782173, 0.010370568372309208, -0.05441054701805115, -0.037604887038469315, -0.02123379148542881, 0.05232749879360199, -0.009390330873429775, -0.13504795730113983, -0.019164005294442177, -0.08510100096464157, 0.07592486590147018, -0.04847364127635956, 0.040075547993183136, 0.07953472435474396, 0.012844852171838284, -0.04476327821612358, -0.04274089261889458, 0.023695768788456917, 0.0424201600253582, -0.02479073777794838, 0.001705543021671474, -0.048332203179597855, -0.07760576903820038, 0.00944744423031807, 0.008731418289244175, 0.1038985624909401, 0.0017989816842600703, -0.031769830733537674, -0.10383398830890656, 0.026472102850675583, -0.022275662049651146, -0.013659271411597729, 0.0426822155714035, 0.1376878321170807, -0.045127786695957184, -0.03377707302570343, 0.027612894773483276, -0.051976002752780914, -0.07557201385498047, -0.021628685295581818, 0.06886465102434158, -0.03833375498652458, 0.08233873546123505, -0.018680928274989128, -0.007579535245895386, 0.11319731920957565, -0.02286733314394951, -0.07827841490507126, -0.05188342556357384, 0.045128293335437775, 0.0534927099943161, -0.06692177802324295, -0.033035267144441605, -0.020292147994041443, 0.06828414648771286, -0.05967960134148598], [-0.04376029223203659, -0.04398288205265999, -0.07856184989213943, -0.07384205609560013, -0.07907397300004959, -0.029610496014356613, 0.04351571947336197, -0.053334664553403854, 0.09873022884130478, 0.060550130903720856, 0.040666040033102036, -0.05940166860818863, 0.129358172416687, 0.057994432747364044, 0.02181750163435936, 0.0996900424361229, -0.023232216015458107, 0.0200252253562212, 0.0010047882096841931, -0.04212959483265877, -0.17281968891620636, -0.02401130646467209, -0.0052213650196790695, 0.045367032289505005, 0.03602182865142822, -0.0016657683299854398, -0.0598907396197319, 0.04026487097144127, -0.0034051581751555204, 0.04405846819281578, 0.18227270245552063, -0.004649819806218147, 0.06339547783136368, 0.09800133109092712, 0.1352209746837616, 0.047835011035203934, -0.00787682831287384, -0.046522777527570724, -0.0807207003235817, -0.05560522899031639, 0.07435342669487, 0.06673271954059601, -0.04670502245426178, -0.07843378931283951, 0.010542498901486397, 0.016905810683965683, -0.06065085902810097, 0.06225050985813141, -0.00010965383989969268, 0.023263297975063324, -0.015323604457080364, -0.08467306941747665, 0.0723634660243988, -0.0024342199321836233, -0.039257172495126724, 0.008529623039066792, -0.09457109123468399, 0.0455884225666523, 0.03372858092188835, -0.016469307243824005, -0.06612842530012131, -0.0352051705121994, 0.04074162617325783, -0.02291935123503208, 0.11382481455802917, -0.014798573218286037, 0.040556490421295166, -0.012758508324623108, -0.07470680773258209, 0.030455343425273895, -0.05558374524116516, -0.057023707777261734, 0.017262199893593788, -0.03505951911211014, 0.007947903126478195, -0.11861665546894073, -0.04755180701613426, 0.02009628526866436, -0.07207226753234863, -0.06675385683774948, -0.03970657289028168, 0.013916985131800175, -0.008827608078718185, 0.05658494308590889, 0.03858955577015877, 0.03012080118060112, -0.061977047473192215, 0.007222143467515707, 0.047018054872751236, -0.057222772389650345, -0.14276418089866638, 0.01711307466030121, -0.06565669178962708, 0.026883864775300026, -0.07507903128862381, -0.14348138868808746, -0.07005208730697632, 0.046475425362586975, 0.07576330006122589, 0.018603213131427765, 0.01792645826935768, 0.047486551105976105, -0.02843189425766468, 0.04286238178610802, -0.03054284118115902, -0.1189456656575203, -0.00238507566973567, -0.04828197509050369, 0.00440744124352932, -0.014775632880628109, -0.06865149736404419, 0.02961033396422863, -0.07343282550573349, 0.07631221413612366, 0.08742682635784149, 0.03501914069056511, -0.03476506099104881, -0.00044351801625452936, 0.057871200144290924, -0.031726233661174774, 0.05492563918232918, -0.0020845255348831415, 0.022987738251686096, -0.07280441373586655, -0.03821788728237152, -0.05594337359070778, -0.08344268053770065, 0.09912466257810593, -0.025804780423641205, -0.01022728905081749, 0.031003355979919434, 0.0038707328494638205, 0.08303612470626831], [0.24313916265964508, 0.0776078999042511, 0.1643991470336914, 0.05147391930222511, -0.013849266804754734, 0.08669834583997726, 0.05164725333452225, -0.0071098655462265015, -0.0945623442530632, -0.07528416812419891, 0.07676099240779877, 0.04216912388801575, -0.11563842743635178, 0.029930824413895607, 0.02560851164162159, 0.021135937422513962, 0.012244779616594315, 0.10487524420022964, 0.023886295035481453, -0.061082929372787476, -0.16249364614486694, -0.14845971763134003, -0.04804655537009239, -0.05391106382012367, -0.0375957116484642, 0.07223556190729141, 0.02546010911464691, -0.08712581545114517, -0.09933160245418549, -0.13204313814640045, 0.08201416581869125, -0.02079094387590885, 0.01994771882891655, 0.09222341328859329, 0.02207024022936821, 0.05909722298383713, -0.006222804542630911, 0.08888242393732071, -0.10155167430639267, -0.14456872642040253, -0.08426988869905472, 0.011456702835857868, 0.058619946241378784, -0.01786758191883564, -0.10980615764856339, 0.02644212543964386, -0.094422847032547, 0.02300139330327511, 0.009443939663469791, -0.10938137024641037, -0.022258291020989418, -0.044689346104860306, -0.047743432223796844, -0.031089629977941513, -0.005917634814977646, 0.047429315745830536, -0.00040426143095828593, 0.11578703671693802, 0.024797866120934486, 0.03997885063290596, -0.02659514918923378, -0.0242416113615036, 0.0764036551117897, -0.1275758296251297, -0.09499716758728027, 0.10425049811601639, 0.005853195209056139, -0.026829199865460396, 0.15928074717521667, 0.09975256770849228, -0.07453906536102295, 0.007695839740335941, 0.09964565932750702, -0.06219431385397911, 0.08486653864383698, 0.10527703166007996, 0.024735059589147568, 0.00731953838840127, 0.11240336298942566, -0.09412188082933426, 0.0026297264266759157, -0.07113998383283615, -0.03496365621685982, 0.043462563306093216, -0.04901382699608803, 0.05919194594025612, 0.04201357811689377, 0.007551601156592369, 0.0018471814692020416, 0.014811469241976738, 0.07959426939487457, -0.0023129149340093136, -0.008765904232859612, 0.1144767701625824, 0.06175808608531952, 0.03741280362010002, 0.09162604808807373, 0.028359118849039078, -0.0678921714425087, -0.04990421608090401, 0.035053275525569916, 0.04501780867576599, -0.07464772462844849, -0.06298491358757019, 0.07435192912817001, 0.1650453805923462, 0.05702701210975647, -0.034134816378355026, 0.024970607832074165, 0.10798610001802444, -0.11837321519851685, -0.026269199326634407, 0.028366675600409508, -0.07372837513685226, -0.043847788125276566, -0.031099092215299606, 0.023643873631954193, 0.009304420091211796, -0.04220912978053093, 0.003398219123482704, -0.03483155742287636, -0.03649900108575821, -0.05249190330505371, 0.07966892421245575, 0.06995286792516708, 0.06618538498878479, -0.025162817910313606, 0.08554249256849289, 0.04069194570183754, -0.026515468955039978, -0.06866776198148727, -0.037190936505794525, 0.03014429472386837], [0.13486818969249725, -0.0016686331946402788, 0.08834633976221085, -0.004521132912486792, 0.025127986446022987, -0.0026731265243142843, -0.11823218315839767, 0.018165767192840576, -0.054843489080667496, -0.06521410495042801, 0.023845355957746506, 0.021929670125246048, -0.11418979614973068, -0.044921424239873886, 0.051217835396528244, 0.12057873606681824, 0.09710473567247391, 0.03811201825737953, 0.08966550976037979, -0.11863057315349579, -0.11254976689815521, 0.012574225664138794, -0.006705178879201412, 0.01859193667769432, -0.08848833292722702, 0.0805821344256401, -0.1141325905919075, -0.08658917993307114, -0.07567884027957916, 0.017916101962327957, 0.16177137196063995, 0.031061798334121704, 0.06479622423648834, 0.054959189146757126, 0.07846461981534958, -0.056656163185834885, -0.08806484192609787, -0.057013966143131256, -0.16531138122081757, -0.013827293179929256, -0.07614747434854507, -0.04459160566329956, -0.0814451202750206, -0.0884697437286377, 0.03973530977964401, -0.010590468533337116, -0.10005804151296616, 0.04845121502876282, -0.008351816795766354, 0.028642121702432632, -0.01013270765542984, -0.051739029586315155, 0.03898974135518074, 0.08829642087221146, -0.08926361054182053, 0.034705422818660736, -0.057284433394670486, -0.00827349815517664, -0.01622391678392887, -0.05639797821640968, 0.09021355956792831, -0.0028097671456635, -0.0033298679627478123, -0.0641416534781456, -0.12632493674755096, 0.012139204889535904, -0.04133783280849457, 0.037111371755599976, -0.009677245281636715, -0.029997028410434723, 0.06052404269576073, 0.019824396818876266, -0.02794809266924858, -0.08200278878211975, 0.07471328228712082, 0.055025365203619, 0.008570859208703041, -0.06896652281284332, 0.040792834013700485, -0.04905082285404205, -0.05903556942939758, 0.09810395538806915, 0.05474201589822769, -0.10439424216747284, -0.021492784842848778, -0.007069731596857309, 0.0308730099350214, -0.10088802129030228, 0.037225380539894104, 0.060871683061122894, 0.01712488755583763, -0.07943901419639587, 0.10938573628664017, -0.035915523767471313, 0.005169604904949665, 0.10368899255990982, -0.039704062044620514, -0.06675074994564056, 0.049803271889686584, -0.015515454113483429, 0.02839396335184574, -0.013456827960908413, -0.06489641219377518, 0.013459844514727592, -0.009705045260488987, 0.08832703530788422, -0.05427631363272667, -0.04279734566807747, -0.05599170923233032, 0.0003458717546891421, -0.009432028979063034, -0.00014137498510535806, 0.050069935619831085, 0.009945106692612171, 0.05965964496135712, -0.07921000570058823, -0.010882196016609669, -0.09675329178571701, -0.03822901472449303, -0.018699554726481438, 0.06330560147762299, -0.02890392206609249, -0.1344624161720276, -0.041760388761758804, 0.092423215508461, -0.02964870072901249, -0.07044140994548798, 0.08710063248872757, -0.006701047997921705, -0.018125731498003006, 0.06763998419046402, -0.042976707220077515, 0.009638304822146893], [-0.051067136228084564, 0.001383896917104721, -0.1099129468202591, -0.03658539801836014, 0.06822185218334198, -0.06623109430074692, -0.03397044166922569, 0.016666429117321968, 0.01489147450774908, -0.09312678128480911, 0.032363858073949814, 0.057060714811086655, 0.0018758939113467932, 0.04337523132562637, 0.04519019275903702, -0.061018284410238266, 0.023229137063026428, 0.08386049419641495, -0.011693424545228481, 0.02137223444879055, -0.03610194846987724, 0.026766587048768997, -0.06662136316299438, 0.0023856833577156067, 0.02499575912952423, -0.07487641274929047, 0.015135060995817184, 0.0066266898065805435, -0.09239200502634048, -0.0389496274292469, 0.01429398451000452, -0.03048117645084858, 0.05171996355056763, -0.011190752498805523, -0.018868694081902504, -0.023700319230556488, -0.0852021872997284, 0.05545254796743393, -0.07110625505447388, -0.015039690770208836, -0.00045673991553485394, -0.09526766091585159, 0.01606621965765953, -0.06007980927824974, -0.014125608839094639, -0.05895063281059265, 0.041003983467817307, 0.059024401009082794, 0.029429959133267403, 0.062162984162569046, -0.09336685389280319, 0.04624693840742111, 0.09077990800142288, -0.014095290564000607, -0.09138452261686325, -0.027124714106321335, -0.0459720715880394, 0.06119564175605774, 0.04233270511031151, -0.10025914758443832, -0.043070677667856216, -0.05789513885974884, 0.05911044403910637, -0.055691950023174286, 0.06318274140357971, -0.08518356829881668, 0.043586164712905884, 0.06296491622924805, -0.011575453914701939, 0.0072073424234986305, -0.02108863741159439, 0.06092693656682968, 0.03323297202587128, -0.0009173350408673286, 0.008932273834943771, 0.028849521651864052, -0.05013928562402725, 0.0029951666947454214, 0.02705530636012554, -0.11682941019535065, 0.06625872850418091, -0.10981697589159012, -0.01446013618260622, 0.006550753954797983, 0.027098538354039192, -0.011040575802326202, 0.00709702679887414, 0.010954991914331913, -0.05403030663728714, -0.0005079953698441386, -0.03579925745725632, -0.06959547102451324, -0.019044842571020126, 0.09024172276258469, 0.0728113129734993, 0.017310921102762222, 0.052819110453128815, 0.03007596731185913, 0.02430449053645134, 0.07971850782632828, 0.07514968514442444, 0.05228298157453537, -0.017446711659431458, 0.0721270740032196, 0.01656666398048401, 0.055966816842556, -0.03926251456141472, 0.010796766728162766, 0.07265599817037582, 0.0704348161816597, 0.024823375046253204, -0.0854291096329689, -0.028906552121043205, 0.10007858276367188, 0.08107902109622955, 0.026140179485082626, -0.06895599514245987, 0.0702439397573471, -0.04325513169169426, 0.10308465361595154, -0.0870928019285202, 0.026504909619688988, -0.007805055007338524, -0.05934528261423111, -0.031768083572387695, -0.0766221359372139, -0.0396851971745491, 0.04057939350605011, 0.06303662806749344, 0.03276249021291733, -0.08989711850881577, -0.04357659071683884, 0.011452557519078255], [-0.01630432717502117, -0.10323259979486465, -0.07337906211614609, -0.07668986916542053, -0.029665710404515266, -0.042135089635849, 0.12027160078287125, -0.03457815572619438, 0.08034148067235947, 0.1394968330860138, -0.05230807885527611, 0.03848228603601456, 0.12848883867263794, -0.030109262093901634, -0.01413074228912592, 0.010505697689950466, 0.04528456926345825, 0.03639640659093857, -0.031087882816791534, -0.0362483486533165, 0.1260794699192047, 0.18373553454875946, -0.0016846609069034457, 0.00681623350828886, 0.12425850331783295, -0.060876909643411636, 0.039679452776908875, -0.14342468976974487, -0.01638483814895153, 0.10254556685686111, -0.03835039213299751, 0.03741617128252983, -0.04907796159386635, -0.07589415460824966, -0.09956123679876328, -0.02991550788283348, 0.000935305142775178, 0.026667729020118713, -0.08294763416051865, 0.09183116257190704, 0.07820011675357819, 0.048644062131643295, 0.07387140393257141, 0.04126729071140289, 0.06705798953771591, 0.018216244876384735, 0.06653274595737457, -0.05985593795776367, -0.08632422983646393, -0.09541504085063934, -0.00986879039555788, -0.011854365468025208, 0.01098584569990635, -0.12713344395160675, 0.0212253350764513, 0.06346798688173294, -0.08665192127227783, -0.0029115616343915462, -0.05776397883892059, 0.010531473904848099, -0.04893557354807854, 0.05429418385028839, -0.024350928142666817, 0.032354630529880524, 0.0429479219019413, -0.04865960031747818, 0.03173375502228737, -0.06082834675908089, 0.015022356994450092, -0.12849712371826172, -0.028110312297940254, 0.0013189862947911024, -0.05339370295405388, -0.11927954852581024, -0.04170743376016617, -0.06056525558233261, -0.005307372659444809, 0.06645800173282623, 0.040214791893959045, -0.020381025969982147, -0.03862543776631355, -0.013938598334789276, -0.03353375196456909, 0.004640430212020874, 0.0076141939498484135, 0.08404979854822159, -0.09617950022220612, 0.028837261721491814, -0.2546437084674835, 0.016124343499541283, 0.06869830191135406, -0.03014512173831463, 0.04890124127268791, -0.04651470482349396, -0.01960618607699871, -0.03632311150431633, 0.022831322625279427, 0.05866214632987976, 0.04377356916666031, -0.031283337622880936, 0.06364239752292633, -0.07819749414920807, -0.11587493121623993, 0.04434677213430405, -0.11948088556528091, -0.05565971881151199, 0.010230573825538158, 0.036436885595321655, 0.019090861082077026, -0.04777441918849945, 0.015899190679192543, 0.08460105210542679, 0.08135516941547394, -0.012498903088271618, -0.024730034172534943, -0.08178826421499252, -0.004222617018967867, 0.0880829319357872, -0.03363631293177605, 0.06212947890162468, 0.013568069785833359, 0.04158956930041313, 0.004772825166583061, 0.03391614183783531, 0.06138454005122185, 0.006820584647357464, 0.04546497017145157, -0.06854450702667236, 0.07464700937271118, -0.041492704302072525, 0.04680787771940231, 0.017693281173706055, 0.04668131470680237], [-0.15552166104316711, -0.07972924411296844, -0.02918100915849209, -0.01398036815226078, -0.13989083468914032, -0.0028606767300516367, 0.0925302654504776, 0.0029605571180582047, 0.04972235485911369, -0.08158216625452042, -0.02686263434588909, -0.08281892538070679, -0.07230126112699509, 0.04516340419650078, -0.1388166844844818, -0.05856058746576309, -0.06639064848423004, -0.07794950157403946, 0.032532621175050735, -0.059895437210798264, -0.08391771465539932, 0.08964172750711441, 0.058779340237379074, -0.03745075315237045, -0.23570679128170013, 0.04018811136484146, -0.07433509826660156, -0.15462984144687653, 0.00011300705227768049, -0.12505804002285004, -0.03218291327357292, 0.02347334660589695, 0.07830251008272171, 0.06332045048475266, -0.012373324483633041, -0.08533438295125961, -0.05874437093734741, 0.023316077888011932, 0.01894616335630417, -0.035246770828962326, 0.058125659823417664, -0.07270941138267517, -0.015299040824174881, 0.030200069770216942, 0.07292228937149048, 0.04540124163031578, 0.06834246218204498, 0.007182986009865999, 0.0001884851953946054, -0.08362327516078949, 0.01769649051129818, 0.004760676063597202, -0.07000692933797836, 0.06411512941122055, -0.0125724570825696, -0.04548068344593048, 0.03697550669312477, -0.013897977769374847, -0.09142361581325531, 0.08058661967515945, 0.005510401446372271, 0.026949303224682808, -0.08108879625797272, 0.09049619734287262, -0.015733512118458748, -0.01360402349382639, -0.055416326969861984, 0.04252157360315323, 0.05765122175216675, 0.01855449751019478, -0.017939606681466103, -0.016355425119400024, -0.012564433738589287, 0.020655423402786255, -0.00306981080211699, -0.019484013319015503, 0.017548298463225365, 0.09408168494701385, 0.021184394136071205, 0.004481371026486158, 0.08605300635099411, 0.04404129460453987, 0.01693265326321125, 0.019122060388326645, 0.025761594995856285, 0.03308481350541115, 0.04386601969599724, 0.03573274239897728, 0.02190268039703369, -0.021466625854372978, 0.13678143918514252, 0.10298093408346176, -0.01832190528512001, -0.05049857497215271, 0.12211673706769943, -0.016720501706004143, -0.08508264273405075, -0.03812572360038757, 0.009678198024630547, 0.04946005344390869, 0.012960286810994148, 0.06359770148992538, 0.03838557377457619, -0.027927091345191002, 0.043180912733078, 0.027541564777493477, 0.052242375910282135, 0.023122185841202736, -0.010795928537845612, -0.029673634096980095, -0.05604914203286171, 0.0844668373465538, 0.05138462409377098, 0.11132486164569855, 0.019798114895820618, -0.027872225269675255, -0.008353662677109241, 0.0012470794608816504, -0.03508169203996658, -0.04008743539452553, 0.10260385274887085, 0.024400563910603523, -0.024854371324181557, -0.028927452862262726, -0.03001304529607296, -0.05934450775384903, 0.03418055176734924, -0.0033792341127991676, 0.07809095084667206, 0.02634110301733017, 0.05437774211168289, 0.06825418770313263, 0.004633110016584396], [-0.03459124639630318, 0.038660984486341476, -0.07475334405899048, 0.003364133182913065, 0.012986646965146065, 0.08666349947452545, 0.05729151889681816, 0.10719002038240433, -0.028072068467736244, 0.11559555679559708, -0.0525948740541935, -0.06690554320812225, -0.010775059461593628, 0.02645968273282051, 0.06768713891506195, 0.005286113824695349, 0.009086553007364273, 0.08008351176977158, -0.005243820603936911, -0.0016165142878890038, 0.048026569187641144, 0.005122459027916193, 0.05474444851279259, 0.11313597857952118, -0.005233981180936098, -0.004622308071702719, 0.030503293499350548, 0.014305704273283482, 0.10297154635190964, 0.06166437640786171, -0.03175346925854683, -0.03339576721191406, -0.03079519234597683, 0.0037967341486364603, 0.0445227213203907, 0.048016536980867386, 0.03949863836169243, -0.057746097445487976, 0.09783618897199631, 0.11960244923830032, -0.007017499767243862, 0.0467679426074028, 0.09998182952404022, 0.03385210782289505, 0.03993469104170799, 0.06442608684301376, 0.08632034808397293, 0.025975970551371574, 0.00561323668807745, 0.003874676302075386, -0.01214547734707594, -0.015483096241950989, -0.057132940739393234, -0.005945202894508839, 0.09304683655500412, -0.07579336315393448, -0.0684434026479721, -0.026642680168151855, 0.05564452335238457, 0.0625772774219513, -0.003672594204545021, -0.049918197095394135, 0.1012897938489914, -0.030307380482554436, 0.02574436366558075, 0.010022066533565521, 0.010841982439160347, 0.026320714503526688, -0.06592683494091034, 0.04160139709711075, 0.013178599067032337, 0.05744040012359619, 0.03203422948718071, -0.08954323828220367, -0.042624130845069885, 0.007231168448925018, -0.08143987506628036, 0.06278260052204132, 0.002319185296073556, 0.03550498187541962, -0.06873031705617905, 0.005757289472967386, 0.00021908388589508832, -0.036547061055898666, -0.09202162176370621, -0.0863390564918518, -0.03827717900276184, 0.013000978156924248, -0.07866056263446808, -0.08571001887321472, 0.22048866748809814, 0.09147302806377411, 0.08566513657569885, 0.037023309618234634, 0.14473752677440643, -0.016867682337760925, 0.08421280235052109, -0.012574790976941586, -0.0595315545797348, -0.03706292435526848, -0.08311372250318527, 0.003308739745989442, 0.00765199726447463, -0.01689673587679863, -0.0781993567943573, 0.01700110360980034, -0.015537774190306664, -0.02911408618092537, -0.05019799619913101, 0.01589401811361313, -0.06566981226205826, 0.017309198155999184, 0.029046500101685524, 0.039701636880636215, 0.04610490798950195, 0.06148603558540344, -0.08704886585474014, -0.0181426964700222, -0.026721308007836342, -0.018560929223895073, -0.03442602604627609, -0.07689859718084335, -0.039645563811063766, -0.01578814722597599, 0.051496222615242004, -0.05287552624940872, 0.08458595722913742, 0.05200517922639847, -0.017191041260957718, -0.07356224209070206, 0.0781652182340622, 0.004629057832062244, 0.052071910351514816], [0.032235801219940186, 0.017339980229735374, -0.04851194843649864, 0.004693463444709778, 0.02025599218904972, -0.042377445846796036, 0.11883517354726791, -0.04798124358057976, -0.020958242937922478, 0.11815369129180908, 0.07191688567399979, 0.04069718345999718, -0.06269082427024841, -0.028840018436312675, 0.08131635189056396, -0.08041910082101822, 0.010406254790723324, -0.052521925419569016, 0.060544468462467194, -0.010630755685269833, -0.03371020779013634, 0.10442005842924118, 0.03614325076341629, 0.06664036214351654, -0.023511577397584915, 0.03926264867186546, -0.040154967457056046, -0.07053510844707489, -0.008367707021534443, 0.07394149899482727, -0.008410864509642124, -0.06265939772129059, -0.004838075954467058, 0.0802810788154602, -0.04176601767539978, 0.013041751459240913, -0.06609894335269928, 0.03357534855604172, 0.004663718864321709, 0.05581391230225563, -0.03346069157123566, 0.009338903240859509, -0.07207795232534409, 0.05417657643556595, 0.0922633707523346, 0.08259592205286026, 0.032848283648490906, 0.046878792345523834, 0.0064694201573729515, -0.08797832578420639, -0.04618285596370697, -0.004706880543380976, -0.042785268276929855, -0.11206900328397751, -0.17899076640605927, -0.08261995017528534, -0.024431627243757248, -0.10970382392406464, -0.023933256044983864, -0.15025442838668823, -0.053265295922756195, 0.06565377116203308, 0.04525842145085335, 0.07203170657157898, -0.05788281559944153, -0.04460980370640755, 0.02164703980088234, 0.04124999791383743, -0.029673729091882706, 0.04603986442089081, 0.08150685578584671, -0.044683124870061874, 0.049566056579351425, -0.04672974348068237, 0.021270504221320152, -0.05551691725850105, -0.035443492233753204, 0.06469973921775818, 0.005163318943232298, 0.10575857013463974, 0.06699151545763016, -0.08866913616657257, -0.023610113188624382, 0.035670045763254166, -0.062191858887672424, -0.043889641761779785, -0.10327021777629852, -0.05178632214665413, -0.08570252358913422, -0.014867817983031273, -0.015567981638014317, 0.036344263702631, -0.08027654141187668, 0.05409634858369827, 0.03711281716823578, -0.005581974983215332, -0.13590383529663086, 0.033957917243242264, -0.14695070683956146, 0.06639166176319122, -0.03279172629117966, 0.10434680432081223, -0.01950589194893837, -0.1997840851545334, 0.0039583006873726845, 0.05321739986538887, 0.053821004927158356, 0.08246546238660812, -0.019925273954868317, -0.06448282301425934, 0.06781556457281113, -0.04129564017057419, -0.07727646082639694, -0.057489555329084396, 0.04023650288581848, 0.016245070844888687, -0.0004238358815200627, -0.07150671631097794, -0.17480719089508057, -0.006121085025370121, -0.0061026932671666145, -0.08320758491754532, 0.05060693249106407, 0.028397301211953163, -0.09166914224624634, -0.057978495955467224, -0.07590876519680023, -0.060404203832149506, 0.09204968065023422, -0.09710472822189331, 0.05082474648952484, -0.05511478707194328, 0.031025007367134094], [0.2850271463394165, 0.085243821144104, 0.19612665474414825, 0.06892560422420502, 0.06420759111642838, 0.053962841629981995, 0.09799597412347794, -0.04273601621389389, 0.08314856141805649, -0.0033240504562854767, -0.009395377710461617, -0.0438266322016716, 0.08346034586429596, 0.039752762764692307, 0.1366899609565735, -0.03302692621946335, 0.11008712649345398, 0.029439114034175873, 0.0810292512178421, 0.028748253360390663, 0.03280937671661377, 0.07713868468999863, 0.06873269379138947, -0.047036219388246536, -0.06050722673535347, 0.03461429104208946, -0.0631982833147049, 0.11009417474269867, -0.04129035025835037, 0.024253392592072487, 0.013803650625050068, -0.06468091905117035, 0.00962070282548666, -0.034733112901449203, -0.07487808912992477, 0.058883119374513626, 0.047040391713380814, -0.017300855368375778, -0.11215385794639587, 0.09148827940225601, -0.033749911934137344, 0.006657807622104883, -0.013900112360715866, -0.06364278495311737, -0.09779194742441177, 0.04481016471982002, -0.012067236937582493, -0.07186698913574219, 0.05889514461159706, -0.1054307296872139, -0.000801892310846597, -0.037560299038887024, 0.04193224385380745, -0.014379017986357212, -0.03833415359258652, -0.04434909671545029, -0.06569481641054153, -0.1399105340242386, -0.1981334090232849, -0.020221278071403503, 0.042775705456733704, 0.06480861455202103, 0.09843284636735916, -0.07630331069231033, -0.09835249185562134, 0.01689513586461544, -0.06648984551429749, 0.04338626563549042, 0.03081277571618557, 0.027176836505532265, -0.08183000236749649, -0.004306640475988388, -0.01981593482196331, 0.05629189684987068, -0.028780730441212654, 0.10346656292676926, -0.07508725672960281, 0.059551313519477844, 0.03383370861411095, -0.019618231803178787, -0.033870551735162735, 0.0017949561588466167, -0.08411400020122528, -0.02368782088160515, 0.02400532364845276, -0.030300237238407135, -0.01301922183483839, -0.12268263846635818, 0.039059367030858994, -0.024989640340209007, 0.19540347158908844, 0.03982096537947655, 0.022680120542645454, 0.1374577134847641, 0.16238225996494293, 0.029214682057499886, 0.033084724098443985, -0.034311968833208084, -0.12812744081020355, -0.06008405238389969, -0.04767221957445145, -0.028826074674725533, 0.03548705577850342, -0.03133393079042435, 0.005417765583842993, 0.1155598908662796, -0.013217971660196781, -0.06266471743583679, -0.034991275519132614, -0.05164182558655739, -0.014895446598529816, -0.07301589101552963, 0.11202124506235123, 0.04099571332335472, 0.09235300868749619, -0.036323484033346176, -0.030903924256563187, 0.029975127428770065, -0.03449247404932976, 0.23540739715099335, -0.033674586564302444, -0.024527784436941147, -0.08205018937587738, 0.0019150599837303162, 0.06110094487667084, -0.03640841320157051, -0.05397212132811546, 0.07734302431344986, -0.062466517090797424, 0.001683860900811851, -0.03734927624464035, -0.08045559376478195, 0.08250345289707184], [0.0020852729212492704, -0.05443398281931877, 0.0001621564879314974, -0.08822553604841232, 0.04338769614696503, -0.0795995369553566, -0.04464232549071312, 0.052528802305459976, 0.054476261138916016, -0.04397730529308319, -0.07090143114328384, -0.060745470225811005, -0.09032180160284042, -0.07079069316387177, 0.07562131434679031, -0.015366231091320515, 0.054552111774683, 0.07549865543842316, 0.00046382928849197924, -0.07968471199274063, -0.024417169392108917, -0.008721722289919853, -0.061158329248428345, -0.10045423358678818, -0.002594906836748123, 0.05233661085367203, 0.10528912395238876, -0.09575150161981583, -0.015382674522697926, 0.05403165519237518, -0.03522886335849762, 0.07645538449287415, -0.019529150798916817, 0.031605493277311325, -0.010271411389112473, -0.00702342763543129, -0.0715005025267601, -0.08526420593261719, -0.0097772516310215, -0.09099806845188141, -0.008893290534615517, -0.09454625844955444, 0.06779159605503082, -0.06168980523943901, -0.07179384678602219, 0.0406983457505703, -0.004590820055454969, 0.008895697072148323, 0.011652556248009205, 0.029676970094442368, 0.042314138263463974, 0.02838020585477352, -0.03285606950521469, -0.003437259467318654, -0.08893970400094986, 0.027304448187351227, 0.055329978466033936, -0.008594615384936333, 0.09461650252342224, -0.03747096657752991, -0.06076058745384216, -0.08253216743469238, 0.016444114968180656, 0.06244654953479767, -0.07254424691200256, -0.10332447290420532, 0.021809276193380356, 0.019433358684182167, 0.04216194897890091, 0.04627285525202751, 0.015158770605921745, 0.0018114690901711583, -0.01911247707903385, 0.01901938207447529, -0.030523141846060753, 0.014829524792730808, 0.05201306939125061, 0.014048099517822266, -0.006330421194434166, 0.08328843861818314, -0.0072682686150074005, -0.0025899698957800865, 0.07693573832511902, -0.08364913612604141, -0.053475216031074524, -0.024201933294534683, 0.005939190741628408, -0.052094727754592896, 0.03812205791473389, -0.09068430215120316, 0.0041381241753697395, 0.054931726306676865, 0.046802740544080734, 0.013589499518275261, -0.010428992100059986, -0.08300284296274185, 0.04123160243034363, -0.04363614693284035, 0.01532870251685381, -0.037753090262413025, -0.0725911557674408, 0.047181691974401474, -0.05656135454773903, 0.020822392776608467, 0.014669558964669704, 0.038586460053920746, -0.07617272436618805, 0.029217084869742393, 0.07096102833747864, 0.020967794582247734, -0.00036190016544424, 0.08186806738376617, 0.004944277927279472, -0.1003776267170906, 0.05487493798136711, 0.0308016836643219, -0.05274495854973793, -0.0775655210018158, -0.02901553548872471, -0.03355693817138672, -0.06649089604616165, -0.00449527520686388, 0.07671532779932022, 0.023968540132045746, 0.04197109863162041, -0.008563010022044182, -0.02424446865916252, -0.06026466563344002, 0.05104968696832657, 0.02566368691623211, 0.03953493386507034, 0.010485254228115082, 0.027873866260051727], [-0.02730836346745491, -0.05134699121117592, -0.05111350864171982, 0.04780125617980957, -0.11261402070522308, -0.03579764440655708, -0.03214958310127258, -0.001247212290763855, -0.09020614624023438, -0.10764198750257492, 0.07329055666923523, 0.07361065596342087, -0.08107784390449524, 0.05805320665240288, -0.0012067975476384163, 0.06806637346744537, -0.07247819006443024, 0.11673303693532944, 0.00010639170795911923, 0.025938181206583977, -0.019944461062550545, -0.07547929883003235, 0.02638411521911621, -0.003613260807469487, -0.07419051229953766, -0.008716583251953125, -0.06757592409849167, 0.08352383226156235, -0.15261268615722656, 0.010303620249032974, 0.04671040177345276, 0.03390808776021004, 0.06440334767103195, -0.01394684612751007, -0.038725897669792175, 0.010205255821347237, 0.04674838110804558, -0.081499382853508, 0.019946696236729622, 0.025794226676225662, -0.06604404002428055, 0.0198939461261034, 0.04159534350037575, -0.049986522644758224, 0.0028446668293327093, -0.03172827884554863, 0.010683142580091953, -0.08483703434467316, 0.05507120490074158, -0.014165211468935013, 0.04672291874885559, -0.04750930145382881, -0.06761529296636581, -0.03925609216094017, 0.027599196881055832, 0.08227717131376266, -0.054266203194856644, -0.006288760341703892, -0.020613711327314377, 0.02733314409852028, 0.08460148423910141, 0.025680135935544968, -0.04658620059490204, 0.02006012760102749, 0.058651044964790344, 0.050085023045539856, -0.03507492318749428, 0.013125644065439701, 0.0908941850066185, 0.008505554869771004, -0.05289939418435097, -0.04823334887623787, 0.07561581581830978, 0.023502646014094353, -0.0947883278131485, -0.06989883631467819, -0.06830436736345291, -0.05444669350981712, 0.07065226882696152, -0.06416667252779007, -0.09572026133537292, -0.028888782486319542, -0.03421089053153992, -0.00803902093321085, 0.06708137691020966, -0.050265487283468246, 0.062479861080646515, 0.019292233511805534, 0.06241670995950699, -0.022854646667838097, -0.10043001174926758, -0.003567709354683757, -0.04262462630867958, -0.0035206577740609646, 0.05021072179079056, -0.06812907755374908, -0.0867462307214737, -0.0710134208202362, -0.029448308050632477, -0.10082310438156128, 0.04811118170619011, -0.029643850401043892, -0.08263977617025375, -0.08678077161312103, 0.039475057274103165, -0.05612026900053024, 0.02621336281299591, -0.00823829136788845, 0.01569512113928795, -0.06304483115673065, -0.044035572558641434, -0.0843922570347786, -0.07141090929508209, 0.07847694307565689, -0.01698915846645832, 0.03378214314579964, -0.030431082472205162, 0.005531683564186096, -0.11473630368709564, -0.03796490654349327, 0.031643953174352646, -0.025813624262809753, 0.019184738397598267, -0.08184119313955307, 0.05360088497400284, 0.06659054011106491, -0.014094136655330658, -0.09229516237974167, 0.006163624580949545, -0.09415735304355621, -0.04105778783559799, 0.006743182893842459, -0.015846414491534233], [0.21408966183662415, 0.13911588490009308, 0.19191516935825348, 0.017770003527402878, 0.05007625371217728, 0.07915369421243668, -0.0403263084590435, -0.032089538872241974, 0.012218033894896507, -0.09997032582759857, -0.08648043870925903, -0.07974881678819656, -0.1189098209142685, -0.05156390741467476, 0.05207123979926109, -0.0026231580413877964, -0.02571946382522583, 0.0775240808725357, 0.00013892207061871886, -0.021956635639071465, -0.023944774642586708, -0.03937358409166336, 0.08275322616100311, -0.04516151174902916, -0.08088131994009018, 0.012989632785320282, 0.07633209973573685, -0.006601834669709206, -0.09203288704156876, 0.008431216701865196, -0.051001738756895065, -0.04704893380403519, 0.03637773171067238, -0.00459267757833004, -0.0497632659971714, -0.07430893927812576, -0.029826583340764046, -0.007681849878281355, 0.018645059317350388, -0.03601210191845894, 0.0628504753112793, 0.04487043246626854, -0.015293347649276257, -0.02666149102151394, -0.123923659324646, 0.053690243512392044, -0.04613687843084335, -0.0024290550500154495, 0.07714227586984634, -0.023703012615442276, -0.013852743431925774, -0.04219236969947815, -0.08455336838960648, -0.06730545312166214, -0.14123870432376862, 0.017164917662739754, 0.08226675540208817, -0.0170367993414402, -0.011298337019979954, 0.013579553924500942, -0.01600702665746212, -0.037061188369989395, -0.0037044116761535406, -0.053550027310848236, -0.06276696920394897, 0.002134553622454405, -0.10380815714597702, 0.03223007544875145, 0.001943937735632062, 0.08983679115772247, 0.06579522043466568, -0.0788048580288887, -0.06617865711450577, -0.02677992172539234, 0.06767004728317261, 0.0017103602876886725, -0.0027961914893239737, 0.05203211307525635, -0.09518489986658096, -0.0031117137987166643, -0.017852405086159706, 0.062420010566711426, 0.03372882679104805, -0.017009468749165535, -0.03301963582634926, 0.0780598521232605, 0.04397440701723099, 0.0020213539246469736, 0.0027752663008868694, -0.07894443720579147, -0.0827864557504654, -0.003236515447497368, -0.07440465688705444, -0.03408797085285187, -0.10602686554193497, -0.004569790326058865, -0.011668319813907146, 0.04238766059279442, 0.15358926355838776, 0.04145364463329315, 0.08361177146434784, -0.008821570314466953, 0.036424923688173294, 0.0706062838435173, 0.04570436105132103, -0.013029508292675018, -0.04201455041766167, -0.016934547573328018, 0.058338481932878494, 0.042968351393938065, -0.004370397888123989, 0.03837897256016731, -0.09611401706933975, 0.01760995015501976, 0.06714268773794174, 0.08647732436656952, -0.05259434133768082, -0.07221224159002304, 0.026480115950107574, -0.01338429655879736, 0.006145564839243889, 0.034991033375263214, 0.033325232565402985, -0.0577065609395504, -0.08035148680210114, 0.05852285027503967, -0.07364959269762039, 0.06401827186346054, -0.058370210230350494, 0.06359177082777023, 0.035682518035173416, 0.04575711116194725, 0.06284793466329575], [-0.06257985532283783, -0.12881696224212646, -0.08821365237236023, 0.0268251933157444, 0.00026325322687625885, 0.017790809273719788, 0.06021914631128311, -0.030084574595093727, 0.015498734079301357, 0.05547933652997017, -0.042768444865942, 0.05799331143498421, 0.05040540173649788, 0.05816003307700157, 0.07121925055980682, -0.05327501893043518, 0.03961025923490524, -0.04494098573923111, -0.04304536432027817, -0.039640940725803375, -0.0007968538557179272, 0.027636302635073662, -0.0009541717590764165, -0.005770780611783266, 0.1512031853199005, 0.040118761360645294, -0.08958593010902405, 0.10150561481714249, -0.045210160315036774, 0.1195431649684906, -0.009981154464185238, -0.039096083492040634, -0.11035103350877762, -0.11111992597579956, -0.022379139438271523, -0.0019068119581788778, 0.030332596972584724, 0.011992312036454678, 0.10595286637544632, 0.15205180644989014, 0.020658990368247032, -0.12645453214645386, 0.08093179017305374, 0.09612737596035004, 0.066911980509758, -0.05056844279170036, 0.06504526734352112, 0.05295611172914505, -0.05054875835776329, -0.007030012086033821, -0.003918711561709642, 0.13637953996658325, 0.018007073551416397, 0.031276751309633255, 0.11364009976387024, -0.03329916670918465, -0.04034580662846565, 0.01831318438053131, -0.05413929373025894, -0.08216669410467148, 0.021537354215979576, 0.08225817233324051, -0.019993295893073082, 0.06692768633365631, -0.07607518136501312, -0.08856122195720673, -0.08843696862459183, 0.07968080788850784, 0.03294119983911514, 0.06744968146085739, -0.016907688230276108, 0.04478570073843002, -0.08063109964132309, -0.03931153938174248, -0.017772411927580833, -0.010160190984606743, 0.04861396178603172, -0.02564268931746483, 0.059865765273571014, 0.033616889268159866, 0.06984147429466248, -0.00037539738696068525, 0.020984573289752007, -0.0962412878870964, -0.10716073215007782, 0.0019483648939058185, -0.09826947748661041, 0.05982720106840134, -0.004541343543678522, -0.033557504415512085, -0.03833768516778946, 0.026703914627432823, 0.004994893912225962, 0.13590002059936523, -0.026538100093603134, -0.027119707316160202, -0.05144257843494415, -0.045080386102199554, -0.021314142271876335, -0.0020637118723243475, 0.07654262334108353, -0.01909385435283184, 0.05923976004123688, -0.10506465286016464, 0.05055642127990723, -0.02861604653298855, -0.03183332085609436, 0.01354430615901947, -0.023837238550186157, -0.03925776481628418, 0.02197614498436451, 0.04383448511362076, -0.017261384055018425, 0.02320794016122818, -0.012312065809965134, 0.03295842558145523, 0.0023462120443582535, -0.1511821746826172, 0.11288660019636154, 0.14757123589515686, 0.02217763289809227, -0.09986955672502518, 0.1246495395898819, -0.06772083789110184, 0.004927589558064938, -0.01934872381389141, -0.051990658044815063, 0.0041603646241128445, -0.07783140987157822, -0.08858037739992142, -0.03374757617712021, -0.04866469278931618, 0.01706349104642868], [-0.06957510858774185, -0.0009015275863930583, -0.020438263192772865, -0.07213927805423737, -0.0031692557968199253, -0.07521586120128632, 0.1577189862728119, -0.011186554096639156, -0.055363237857818604, 0.08810439705848694, 0.06361707299947739, -0.034124985337257385, 0.10398324579000473, 0.03287600725889206, 0.10299022495746613, 0.17322395741939545, 0.04145025089383125, 0.13256074488162994, 0.015297936275601387, -0.053439926356077194, 0.015399936586618423, 0.04829585924744606, 0.00794391892850399, 0.07515834271907806, 0.07154615968465805, 0.02456492930650711, -0.11517102271318436, 0.03596000745892525, 0.09063101559877396, 0.031134748831391335, 0.15119387209415436, -0.05874833092093468, 0.04476003348827362, 0.015568655915558338, 0.055891335010528564, -0.020732756704092026, 0.002021792344748974, 0.06642141938209534, -0.00013775884872302413, -0.10081064701080322, 0.05570950359106064, 0.008488353341817856, -0.029001731425523758, 0.02369651570916176, 0.04479817673563957, -0.10349838435649872, -0.025052502751350403, -0.04244016855955124, 0.04760412499308586, 0.06319870799779892, 