{"input_size": 133, "net.0.weight": [[-0.07000898569822311, 0.02303098514676094, -0.08303673565387726, 0.055273767560720444, -0.05067622661590576, -0.07811354100704193, 0.1382402926683426, 0.024071771651506424, -0.007870211265981197, 0.0005948719917796552, 0.05192101001739502, -0.04375114664435387, -0.10441982746124268, 0.045331139117479324, 0.017911558970808983, -0.09607181698083878, 0.026408644393086433, 0.035393912345170975, 0.02481098473072052, 0.02526135742664337, -0.011922982521355152, 0.10491659492254257, -0.006063633598387241, 0.054410021752119064, 0.04867073893547058, -0.005209311842918396, -0.12270636856555939, -0.07576638460159302, -0.1058933436870575, -0.04236462339758873, -0.08806384354829788, -0.016823692247271538, 0.033248186111450195, 0.028133710846304893, 0.06082240119576454, -0.040417131036520004, 0.005268625449389219, -0.11360722035169601, 0.01925675757229328, -0.015592040494084358, -0.050163183361291885, -0.10746931284666061, -0.03213386610150337, -0.02217957191169262, -0.0422859825193882, -0.04010598361492157, 0.03966936841607094, 0.06946083158254623, -0.037902284413576126, 0.057679884135723114, 0.002299762098118663, -0.016397198662161827, -0.007720744702965021, -0.126912921667099, -0.002619457198306918, 0.03580421954393387, 0.0016388703370466828, -0.14861458539962769, -0.2007843255996704, 0.006061343010514975, -0.036838874220848083, -0.01975477673113346, -0.06558916717767715, 0.0503203421831131, 1.4094811376708094e-05, -0.1319860816001892, -0.02695813775062561, 0.007653913460671902, -0.16525118052959442, -0.229853093624115, -0.08476641774177551, -0.0702972486615181, -0.029650628566741943, -0.14008231461048126, -0.05430497229099274, -0.05180414021015167, -0.05988665297627449, -0.0398971326649189, -0.04239996522665024, -0.07198218256235123, -0.0036216690205037594, 0.09841331839561462, -0.04327302426099777, -0.048628244549036026, -0.15468858182430267, -0.07105278223752975, -0.060784537345170975, -0.012695133686065674, 0.07423940300941467, 0.03343243896961212, -0.10095947235822678, -0.07245146483182907, 0.026930812746286392, 0.03248845040798187, 0.052968766540288925, -0.045355893671512604, 0.06690070033073425, 0.05591750144958496, -0.08550115674734116, -0.007573132403194904, -0.035698939114809036, -0.09635744988918304, -0.07492970675230026, -0.02193114161491394, -0.07785414904356003, -0.08003326505422592, -0.047080062329769135, -0.06950565427541733, -0.08287252485752106, 0.05875084549188614, 0.030524471774697304, 0.2532925605773926, 0.006069247145205736, 0.006502074189484119, -0.07188661396503448, -0.047818683087825775, -0.03073853626847267, 0.047769900411367416, -0.0791773721575737, 0.0035535632632672787, -0.0014280063332989812, -0.6342241168022156, -0.09414748102426529, -0.1376572698354721, -0.08830385655164719, 0.03765451908111572, 0.037761587649583817, 0.005958584137260914, -0.027877259999513626, 0.014379761181771755, -0.0037054431159049273, 0.019385304301977158, -0.06019007787108421], [0.002239146502688527, 0.07422719150781631, -0.06553604453802109, 0.07781822979450226, -0.08131086081266403, 0.0014560561394318938, 0.017683953046798706, -0.04242348298430443, 0.05244499072432518, -0.03358106315135956, -0.027293140068650246, 0.012416188605129719, 0.02626628614962101, 0.08593520522117615, -0.02049410156905651, 0.04502337425947189, 0.005302507895976305, 0.01703842729330063, 0.06597703695297241, -0.05184199661016464, 0.02925470471382141, -0.06406563520431519, 0.048211343586444855, -0.04460059106349945, -0.002352511277422309, -0.0067301588132977486, -0.05338209867477417, -0.06987906992435455, 0.018497126176953316, 0.03790513798594475, 0.057191409170627594, -0.0008121796417981386, -0.01561236847192049, -0.018380654975771904, 0.009925497695803642, -0.00032107747392728925, 0.07950125634670258, 0.07445386052131653, -0.0075437650084495544, -0.06104256585240364, 0.0036135544069111347, -0.010130993090569973, 0.0006287952419370413, -0.017418934032320976, -0.08329859375953674, 0.06469286233186722, 0.05378459766507149, -0.03897562995553017, -0.05545975640416145, 0.06607131659984589, 0.028395183384418488, 0.05882649123668671, -0.03868476301431656, 0.008148671127855778, -0.002085775835439563, 0.014359666965901852, -0.04926438257098198, 0.05357065424323082, 0.028532113879919052, 0.036796934902668, 0.010411904193460941, -0.0454721562564373, -0.06493929773569107, -0.07050509005784988, 0.016843320801854134, -0.027957431972026825, -0.0353640653192997, 0.005739008542150259, -0.003923915326595306, 0.007066589314490557, 0.011269369162619114, 0.03070526197552681, 0.040721599012613297, -0.04027212783694267, 0.03718028962612152, 0.04732951521873474, 0.05222572758793831, 0.03079167753458023, -0.04502083361148834, -0.009589584544301033, 0.014694674871861935, 0.05154735967516899, -0.02913103625178337, 0.08108413219451904, -0.02680085599422455, -0.06305431574583054, 0.05557052791118622, 0.07901165634393692, 0.00820743665099144, -0.04748764634132385, -0.016168177127838135, 0.06099453195929527, -0.03502548858523369, 0.04072686284780502, -0.08582790940999985, 0.042294904589653015, -0.010532045736908913, 0.0020572419743984938, 0.003557157004252076, -0.06672047823667526, 0.0675615593791008, -0.06408489495515823, 0.0365760438144207, 0.059738513082265854, 0.0061187450774014, -0.03867536038160324, -0.06109244376420975, -0.0030521959997713566, 0.05154544487595558, -0.0181915033608675, -0.045904241502285004, 0.039642419666051865, -0.01616634614765644, -0.005973404739052057, 0.07187892496585846, -0.0754213035106659, 0.035929612815380096, 0.03983747586607933, -0.05602051690220833, 0.03767155110836029, -0.041984669864177704, 0.040157679468393326, 0.07571396976709366, -0.04882185533642769, 0.04841866344213486, -0.010379581712186337, -0.0056368401274085045, -0.08394742012023926, -0.046882566064596176, -0.04129989817738533, 0.013190113008022308, 0.026043519377708435, -0.09622817486524582], [0.19501909613609314, 0.13666872680187225, 0.05485953390598297, -0.06957901269197464, 0.05988187715411186, 0.050025589764118195, -0.020720072090625763, 0.003984757233411074, -0.12265182286500931, -0.10455938428640366, 0.024656513705849648, -0.03555482625961304, -0.014407051727175713, -0.027594054117798805, -0.1057661771774292, 0.04357398673892021, 0.05238931253552437, 0.011324443854391575, 0.02761402353644371, 0.022315677255392075, -0.028255419805645943, -0.05056679993867874, 0.030362268909811974, -0.14534112811088562, 0.005286534782499075, 0.08601000159978867, 0.0703180804848671, -0.02226398140192032, 0.10633128881454468, -0.0011502945562824607, 0.015786869451403618, 0.018580084666609764, -0.029454298317432404, 0.03021523728966713, 0.07264332473278046, 0.034227967262268066, -0.016766808927059174, -0.057288385927677155, -0.03551929071545601, -0.1027083769440651, -0.0015772442566230893, -0.09249190986156464, -0.010469507426023483, -0.08317159116268158, -0.1433180421590805, 0.026514561846852303, 0.0031243672128766775, 0.014851427637040615, 0.0648794025182724, 0.05656396970152855, -0.1252269595861435, -0.012622399255633354, -0.0838388130068779, -0.06709827482700348, -0.07948702573776245, 0.027489889413118362, -0.09172476828098297, 0.05134961009025574, -0.04672390595078468, -0.09439568966627121, -0.11583108454942703, 0.002827929798513651, 0.021708624437451363, -0.07142197340726852, -0.018651530146598816, -0.07656671851873398, -0.0037114659789949656, 0.06973429024219513, -0.014698000624775887, -0.10446687787771225, 0.011658445000648499, -0.00926140695810318, -0.03584034740924835, 0.007590459194034338, -0.0709247812628746, -0.12075702846050262, 0.03241679072380066, -0.014959415420889854, 0.0024392574559897184, 0.056705325841903687, -0.0017968876054510474, -0.08194385468959808, 0.0631924644112587, -0.03500763699412346, 0.0115509619936347, -0.03981738165020943, 0.0596388503909111, 0.00225241226144135, -0.06491212546825409, -0.008747687563300133, -0.018605299293994904, -0.012502730824053288, -0.023141557350754738, -0.05703462287783623, 0.031856946647167206, 0.0150776207447052, -0.06554041802883148, 0.06718388199806213, 0.09024747461080551, 0.033494994044303894, -0.04867396503686905, -0.06027811020612717, 0.011884112842381, -0.007417991291731596, 0.023203283548355103, -0.024772007018327713, -0.06395481526851654, -0.023523490875959396, 0.07974456995725632, 0.03997379168868065, 0.02470235712826252, 0.02793012000620365, -0.02616995945572853, -0.09522294998168945, 0.11525682359933853, 0.0820031613111496, -0.0046650622971355915, -0.05921953544020653, -0.012335614301264286, 0.12866227328777313, 0.02893998473882675, 0.07815845310688019, 0.02610928751528263, 0.015791596844792366, 0.06120198965072632, 0.02711932733654976, 0.07970681041479111, 0.00195714901201427, 0.026981361210346222, -0.015594307333230972, 0.009669192135334015, -0.01184806227684021, -0.06060677766799927], [0.07115114480257034, 0.034774620085954666, -0.04786447808146477, -0.06671471893787384, -0.012018457055091858, 0.05694054812192917, -0.0682053491473198, -0.006648680195212364, -0.04883359745144844, -0.000424571248004213, 0.07325151562690735, -0.07648541778326035, 0.04164474084973335, 0.05486801639199257, -0.05037011206150055, 0.186811625957489, -0.03577432781457901, -0.024158937856554985, 0.03161467984318733, -0.01609036885201931, -0.16270121932029724, -0.07995720952749252, 0.019444553181529045, -0.033442139625549316, -0.0053468686528503895, -0.05661137402057648, -0.010711847804486752, 0.009311123751103878, 0.020288456231355667, 0.02005503885447979, 0.3425825834274292, 0.14937672019004822, 0.03554133325815201, 0.025986481457948685, 0.12476599216461182, 0.005130329634994268, -0.06329897791147232, -0.08119337260723114, -0.02496117539703846, -0.019552307203412056, -0.08400359004735947, -0.06203768774867058, -0.07428394258022308, -0.05958515778183937, -0.05897253751754761, 0.1125497817993164, -0.065082848072052, -0.035353172570466995, 0.11469163000583649, -0.017621906474232674, 0.038459498435258865, -0.0602552704513073, -0.04114433377981186, 0.03649268299341202, 0.026369862258434296, -0.07378646731376648, 0.07845192402601242, -0.059027839452028275, -0.056436583399772644, -0.003442843211814761, 0.039496928453445435, 0.002327151596546173, -0.04321270063519478, 0.047484755516052246, -0.016856839880347252, 0.07970520853996277, -0.02007361501455307, 0.06980330497026443, 0.1167089194059372, 0.004598110914230347, -0.07096081227064133, -0.0008124681771732867, -0.044483572244644165, 0.05331689864397049, 0.048194173723459244, 0.07922321557998657, 0.047166913747787476, 0.12536856532096863, 0.05983627215027809, 0.07139051705598831, 0.007104392163455486, -0.054051049053668976, 0.010109135881066322, 0.08400493115186691, 0.013129238970577717, 0.06759380549192429, -0.022447774186730385, 0.01926490105688572, -0.11319579184055328, -0.095028817653656, 0.014824608340859413, -0.020320026203989983, 0.15817341208457947, 0.16521456837654114, 0.008132725954055786, -0.0671892911195755, -0.03616161644458771, -0.0051349373534321785, -0.01070735976099968, 0.12523366510868073, -0.0077207195572555065, 0.0609031617641449, -0.12074766308069229, 0.019069887697696686, -0.06638289988040924, -0.00841373112052679, -0.03892809897661209, -0.035384662449359894, 0.0318685844540596, 0.031067533418536186, 0.009256048128008842, -0.08060722053050995, -0.09462165832519531, -0.10226192325353622, -0.0747794359922409, -0.01967945694923401, -0.044296909123659134, 0.07300540059804916, -0.02019905485212803, -0.1446477472782135, 0.07744886726140976, -0.02215372771024704, -0.28036603331565857, 0.014713503420352936, 0.024887753650546074, 0.027024343609809875, -0.014516361989080906, 0.017903542146086693, 0.0511385016143322, -0.03502003476023674, -0.026141611859202385, 0.05032923072576523, -0.01247322652488947], [-0.0025028144009411335, -0.06741156429052353, -0.022723358124494553, -0.035417139530181885, -0.08457162231206894, 0.052702829241752625, -0.11112555116415024, 0.006559461820870638, 0.04368482530117035, -0.029975924640893936, 0.05096353590488434, -0.001961951842531562, -0.10544577240943909, -0.10144055634737015, -0.15621425211429596, -0.02976207621395588, 0.08284617215394974, -0.07269234955310822, -0.025324063375592232, 0.03841457515954971, 0.13450893759727478, 0.09320299327373505, 0.06033271923661232, -0.08262045681476593, 0.08374784141778946, 0.05389520525932312, -0.013116874732077122, -0.18426942825317383, -0.22194984555244446, 0.09550144523382187, -0.029104266315698624, 0.04937523603439331, -0.0284759309142828, 0.0283774696290493, 0.025928311049938202, 0.017695557326078415, 0.16754315793514252, 0.03993179649114609, -0.016700388863682747, 0.17049376666545868, -0.041847966611385345, 0.08324052393436432, -0.05440652742981911, 0.011581143364310265, 0.011667298153042793, -0.02313394285738468, -0.0481160506606102, 0.012304508127272129, -0.03212052956223488, -0.0231050793081522, -0.030271213501691818, 0.20736540853977203, -0.007521799299865961, -0.3030739724636078, 0.1652086079120636, -0.0052477335557341576, -0.14100882411003113, 0.005107264034450054, -0.0497874841094017, -0.08204187452793121, -0.049578264355659485, -0.015603355132043362, -0.05368302762508392, -0.0102540897205472, -0.03260483965277672, -0.0447598360478878, -0.1632644683122635, -0.056464411318302155, -0.12212763726711273, -0.04314369708299637, 0.06613623350858688, -0.1405404508113861, -0.10956114530563354, -0.1380801796913147, -0.11907151341438293, -0.06653407961130142, 0.019661253318190575, -0.10435613989830017, -0.012074549682438374, -0.03551561012864113, 0.012537063099443913, 0.10500594228506088, 0.013195759616792202, -0.0843491479754448, 0.09082087874412537, -0.039198148995637894, -0.0013188086450099945, 0.010828395374119282, 0.009277640841901302, 0.07199499011039734, -0.0948161706328392, -0.006659435108304024, 0.025468209758400917, 0.07573121786117554, 0.0160326287150383, 0.02069173939526081, 0.1938767284154892, 0.022564198821783066, 0.12477096170186996, -0.12958678603172302, -0.06020372733473778, -0.036610331386327744, 0.03539276495575905, 0.09259233623743057, 0.020576849579811096, -0.023472527042031288, -0.005090966355055571, -0.09060093015432358, 0.05097915977239609, -0.006692324299365282, 0.06748813390731812, 0.12755300104618073, -0.023757467046380043, -0.10144801437854767, -0.024488326162099838, 0.06378164142370224, -0.08073458075523376, -0.005726673174649477, -0.000731605920009315, -0.046635352075099945, -0.06148575618863106, 0.021946096792817116, 0.1507665067911148, 0.015259962528944016, 0.039640579372644424, 0.02841956727206707, 0.06411941349506378, -0.10337264090776443, -0.013905944302678108, -0.017384609207510948, -0.0026987004093825817, 0.007119730580598116, 0.031716182827949524], [-0.009474133141338825, -0.07924118638038635, -0.025923416018486023, -0.039181750267744064, -0.07482974976301193, -0.02000868320465088, -0.0560707226395607, -0.04741128161549568, 0.16660381853580475, -0.03593229129910469, 0.060389067977666855, 0.006448718719184399, 0.003246353706344962, -0.02419460564851761, 0.043991412967443466, 0.003424561582505703, 0.035155199468135834, -0.03178233653306961, 0.03419116884469986, -0.07932883501052856, 0.002136568073183298, -0.08145643770694733, -0.03789062425494194, -0.006455306429415941, 0.14048175513744354, 0.0216425321996212, 0.11768478900194168, 0.029721489176154137, -0.11678118258714676, 0.0381009541451931, 0.03154601529240608, -0.0030892842914909124, -0.07681373506784439, 0.004532907158136368, 0.04146097972989082, -0.026433775201439857, 0.023782607167959213, -0.09159597009420395, -0.020956754684448242, 0.15686602890491486, 0.03022923320531845, -0.07061543315649033, 0.020307574421167374, 0.09791865199804306, 0.08853644877672195, 0.03694639727473259, 0.030978193506598473, -0.11930030584335327, -0.02452109009027481, -0.059769146144390106, -0.04887215420603752, 0.11687953025102615, -0.07050182670354843, -0.06261356920003891, 0.06319013237953186, 0.05569617077708244, 0.0496683232486248, -0.014905164018273354, 0.08323988318443298, -0.06884273886680603, 0.005002134013921022, -0.07382940500974655, 0.01644912362098694, 0.04719969257712364, -0.05130589008331299, 0.073043592274189, 0.0038905979599803686, 0.005863142665475607, 0.004476405214518309, -0.06932595372200012, -0.007714962121099234, 0.06649946421384811, -0.06605538725852966, 0.13572166860103607, 0.0697278156876564, -0.05426269769668579, 0.01949097216129303, -0.02920077182352543, -0.06974370032548904, -0.008940312080085278, -0.15523909032344818, 0.0571611151099205, -0.07349594682455063, -0.026248672977089882, -0.06593256443738937, 0.07833431661128998, 0.1095246970653534, -0.034150559455156326, 0.04252777621150017, -0.016433170065283775, 0.008091123774647713, 0.06800160557031631, 0.028844406828284264, 0.06806422024965286, -0.033936623483896255, -0.11232997477054596, 0.012780696153640747, -0.052126917988061905, -0.05032004043459892, -0.07635831832885742, -0.06152557209134102, -0.09605137258768082, -0.07594151794910431, 0.024439895525574684, -0.08163652569055557, -0.0065803490579128265, -0.07180242985486984, -0.050079405307769775, 0.06152970716357231, 0.03686252608895302, 0.032670870423316956, -0.021637890487909317, 0.06818922609090805, -0.08686822652816772, -0.005047470331192017, -0.07070709019899368, -0.11662916839122772, -0.031267400830984116, -0.09673596173524857, 0.07245701551437378, -0.03379572927951813, 0.003495682030916214, 0.10185107588768005, -0.07898437231779099, -0.00393012585118413, -0.050455786287784576, 0.05583178624510765, -0.0637008398771286, -0.04686351120471954, -0.0347067229449749, -0.04221243038773537, -0.03714301437139511, -0.020181091502308846], [-0.04668458551168442, 0.09483606368303299, -0.02340473234653473, 0.09012164175510406, 0.015372813679277897, -0.008144599385559559, -0.1799645870923996, 0.009292391128838062, 0.04649963602423668, 0.029500316828489304, 0.04002552106976509, -0.03375513479113579, 0.014339554123580456, -0.06359981000423431, 0.046954721212387085, 0.2609027624130249, -0.08478264510631561, 0.09127116203308105, 0.025772785767912865, 0.04036460071802139, -0.08576285094022751, -0.0450470894575119, 0.0025151153095066547, 0.016199303790926933, 0.1991407424211502, 0.0784422755241394, -0.10674147307872772, 0.024777090176939964, -0.0016948888078331947, 0.16317489743232727, 0.35171473026275635, 0.1768959015607834, 0.08756887167692184, 0.07484308630228043, 0.12448019534349442, -0.021904753521084785, -0.02351287566125393, 0.048860952258110046, -0.06480931490659714, -0.04129696637392044, -0.03079376555979252, 0.005263074766844511, 0.01881171017885208, -0.15490321815013885, -0.06060216575860977, 0.017026932910084724, -0.05903169885277748, -0.005537641700357199, -0.008528586477041245, -0.03060734085738659, -0.04282837361097336, 0.08284256607294083, 0.08687178790569305, -0.01575762964785099, 0.023122433573007584, -0.057755738496780396, 0.029130391776561737, 0.04374685883522034, 0.0055930884554982185, -0.04185343161225319, 0.008276320062577724, 0.011581889353692532, 0.035188041627407074, 0.08987239003181458, 0.0009901784360408783, -0.011945218779146671, 0.020220834761857986, 0.01533561386168003, -0.24745170772075653, 0.08197154849767685, 0.05855614319443703, 0.07220900803804398, -0.13666418194770813, -0.03910932317376137, 0.06400429457426071, 0.034267228096723557, 0.029338181018829346, 0.0024846766609698534, 0.02837551198899746, 0.06370139122009277, -0.07159429043531418, -0.13505123555660248, -0.01923748292028904, -0.23215852677822113, 0.10516048222780228, -0.06785127520561218, 0.049071136862039566, -0.05158928409218788, -0.20019927620887756, -0.021640799939632416, -0.00943299662321806, 0.001635973108932376, -0.10106651484966278, -0.10020198673009872, -0.08903542160987854, -0.02570919319987297, -0.0028120020870119333, 0.08767122775316238, 0.12693172693252563, -0.16339939832687378, 0.07172422111034393, 0.11531355232000351, 0.07898884266614914, -0.04278537631034851, 0.025428572669625282, -0.008209449239075184, 0.063788503408432, 0.05510421842336655, -0.06077437102794647, 0.07819463312625885, 0.16763587296009064, -0.04555640369653702, -0.03953602537512779, -0.006110125686973333, -0.1365772932767868, -0.07101011276245117, 0.005512620322406292, -0.06210999935865402, 0.09807924181222916, 0.022663531824946404, 0.06420551985502243, -0.17250996828079224, 0.11797962337732315, 0.07086899876594543, 0.04573873057961464, -0.052514608949422836, 0.005415064748376608, -0.019527429714798927, 0.019246557727456093, -0.022795582190155983, 0.004391099791973829, -0.08416739851236343, 0.02784871868789196], [0.2405310720205307, 0.2567494809627533, 0.024792281910777092, 0.015668567270040512, 0.15005558729171753, -0.05571821704506874, 0.002529562683776021, 0.026318194344639778, 0.06056602671742439, -0.030940810218453407, 0.040106333792209625, -0.012464991770684719, -0.060957033187150955, 0.017723089084029198, -0.03922209143638611, 0.03848432004451752, 0.04930926486849785, 0.05351225286722183, 0.03263302892446518, 0.05680171772837639, -0.15338756144046783, -0.001593617838807404, 0.10564228892326355, -0.002451234729960561, 0.006538675632327795, 0.055914200842380524, 0.06665411591529846, -0.036951515823602676, -0.1304459273815155, -0.10585556924343109, 0.11024253070354462, -0.018651437014341354, -0.03684861585497856, -0.021945951506495476, -0.04003514349460602, -0.05272361636161804, -0.08053135126829147, -0.05375455319881439, -0.03907003626227379, -0.021437395364046097, -0.08254025876522064, 0.0015738558722659945, -0.08638406544923782, -0.011548525653779507, -0.07989034056663513, 0.10403662174940109, -0.060802627354860306, 0.006220274139195681, -0.008563918061554432, -0.04038453474640846, 0.03849887475371361, 0.002847804455086589, 0.03380483388900757, 0.014260910451412201, -0.10954093188047409, 0.05934878811240196, 0.05297495424747467, 0.06849699467420578, 0.013737974688410759, -0.003789435373619199, 0.1405501514673233, -0.1121402382850647, 0.1217847615480423, -0.015577207319438457, -0.05506863072514534, -0.017997778952121735, 0.016296718269586563, 0.152724027633667, -0.005858172196894884, 0.03034096769988537, -0.04239023104310036, 0.056941986083984375, 0.029864303767681122, -0.06956560909748077, -0.05111490935087204, 0.03271374851465225, 0.05946776270866394, 0.05563332140445709, -0.03435232490301132, 0.009944545105099678, 0.011260989122092724, -0.026352588087320328, 0.04787401109933853, -0.09148643910884857, -0.11636345088481903, -0.07965696603059769, 0.06809002161026001, 0.046190619468688965, 0.04546848684549332, -0.027675656601786613, 0.076726533472538, 0.08292265981435776, 0.25229522585868835, 0.13314028084278107, 0.05774106830358505, 0.015932615846395493, -0.07118543237447739, 0.04464094340801239, -0.10725215822458267, 0.03834303840994835, 0.053889188915491104, -0.04925347492098808, 0.003368723439052701, -0.0522293858230114, -0.06835557520389557, 0.11073870211839676, -0.03554857522249222, 0.0036181332543492317, 0.04575950652360916, 0.034090202301740646, -0.21785089373588562, -0.10225359350442886, -0.033770713955163956, -0.05707017332315445, -0.07791482657194138, -0.014598280191421509, -0.04666970297694206, -0.08108162134885788, -0.1120561957359314, -0.02389044687151909, 0.08980745822191238, -0.036311954259872437, -0.251422256231308, -0.03329956904053688, -0.01066336128860712, -0.01827802136540413, -0.01578320376574993, 0.09954885393381119, 0.07709144800901413, 0.05526271462440491, -0.019020535051822662, -0.0396389476954937, -0.0038162993732839823], [-0.14434897899627686, -0.13316383957862854, -0.04197385907173157, 0.026117345318198204, -0.021395765244960785, -0.02343626879155636, -0.02338600903749466, -0.06127887964248657, 0.100494883954525, 0.017781531438231468, 0.0024507208727300167, -0.02664647065103054, 0.07973964512348175, 0.07326040416955948, -0.017348337918519974, 0.05145964398980141, -0.019781945273280144, -0.08096975833177567, -0.07109558582305908, -0.08578040450811386, 0.010089567862451077, 0.09653802961111069, 0.027581973001360893, -0.03243383392691612, 0.15636764466762543, 0.03559836372733116, -0.11858245730400085, 0.046037446707487106, -0.020215347409248352, 0.1386590600013733, 0.22951222956180573, 0.10390687733888626, 0.05674341693520546, 0.05513130873441696, 0.07396980375051498, -0.0931410938501358, 0.12337591499090195, -0.09752922505140305, 0.0022751896176487207, 0.09810196608304977, -0.004482162185013294, -0.06686361134052277, 0.0637509748339653, 0.028854185715317726, 0.12195388227701187, 0.04507090896368027, -0.08503290265798569, -0.06847880780696869, -0.020206235349178314, -0.001227404223755002, -0.07091229408979416, 0.07643938064575195, -0.05460526421666145, -0.04352125898003578, 0.032204147428274155, -0.03781524673104286, -0.10020887106657028, -0.02095247246325016, 0.029847027733922005, -0.020910657942295074, -0.03641112893819809, 0.11160155385732651, 0.11124610900878906, 0.10282666981220245, -0.05073772370815277, -0.002465470228344202, 0.025585761293768883, 0.013480739668011665, -0.0957983210682869, -0.20404896140098572, -0.07679916173219681, 0.046016812324523926, -0.006092901807278395, -0.039436258375644684, -0.08097152411937714, 0.05844946950674057, 0.000797835411503911, -0.035186782479286194, 0.056019339710474014, -0.06098688021302223, -0.00618281913921237, 0.10513090342283249, -0.020621707662940025, 0.006296833045780659, -0.11636236310005188, 0.06173223629593849, 0.07767323404550552, -0.060838937759399414, -0.22132986783981323, 0.024988224729895592, -0.00205340888351202, 0.026792209595441818, -0.03365480154752731, -0.08755575865507126, -0.04448859021067619, 0.0036816296633332968, 0.06847259402275085, -0.04694574698805809, -0.028109204024076462, -0.033349934965372086, -0.036277446895837784, -0.0863962471485138, -0.041885051876306534, -0.06334269046783447, -0.01844041422009468, -0.025018561631441116, 0.032544780522584915, 0.05033259093761444, -0.07618220150470734, 0.036240700632333755, 0.1654878854751587, 0.17935021221637726, -0.0826840028166771, 0.07058142125606537, 0.0762597918510437, -0.025057123973965645, -0.0013443260686472058, 0.0755809098482132, -0.015796596184372902, -0.07431967556476593, -0.029027923941612244, 0.06166331097483635, 0.20993737876415253, -0.004960323683917522, -0.048660553991794586, -0.08091387152671814, 0.028478797525167465, 0.03087608329951763, -0.05779902637004852, -0.09438903629779816, -0.0018340302631258965, 0.06632807105779648, -0.05346408858895302], [0.06915662437677383, 0.01889912225306034, 0.11000092327594757, 0.10337790846824646, 0.017689615488052368, 0.017796576023101807, -0.06667284667491913, 0.07237404584884644, -0.03415431082248688, -0.12017252296209335, -0.0844738632440567, 0.03988209739327431, -0.003003012156113982, 0.017643671482801437, -0.09608570486307144, 0.04922528564929962, -0.05371531844139099, -0.06457319110631943, -0.07896038889884949, -0.08320660889148712, 0.03177507594227791, -0.0071295141242444515, -0.06608062237501144, -0.054226260632276535, -0.09621327370405197, -0.06477059423923492, -0.061613939702510834, 0.01610107161104679, -0.02291136607527733, -0.12328442186117172, -0.009485993534326553, -0.03088558092713356, 0.0006801557028666139, 0.02572004497051239, -0.017165256664156914, -0.03749984875321388, 0.06313776969909668, 0.04549385607242584, 0.1133841723203659, 0.05007672309875488, 0.03800222650170326, -0.16954253613948822, -0.031346049159765244, -0.036896150559186935, 0.09945648163557053, -0.11282995343208313, 0.05058761313557625, -0.02771250158548355, 0.05891317501664162, -0.03431771323084831, 0.016626199707388878, 0.03106260858476162, -0.06543189287185669, 0.0035312166437506676, -0.08854382485151291, -0.011873945593833923, 0.032584451138973236, -0.016645807772874832, -0.0496944934129715, -0.09304628521203995, 0.12365623563528061, -0.07121972739696503, -0.03974940627813339, 0.05062857270240784, 0.021351531147956848, -0.010350733995437622, -0.11008873581886292, 0.06198004260659218, -0.028875475749373436, -0.10167267918586731, -0.06724413484334946, 0.018504032865166664, -0.09179134666919708, -0.15773674845695496, -0.07324156910181046, 0.02720206044614315, 0.013430165126919746, -0.07137241214513779, -0.05201992392539978, -0.05462271720170975, -0.0018186343368142843, 0.15921705961227417, -0.0649646446108818, -0.18236993253231049, -0.13838091492652893, -0.010311048477888107, 0.02392561547458172, 0.07801946252584457, -0.008328883908689022, -0.14983080327510834, -0.03587743639945984, 0.05053733289241791, -0.04755792021751404, -0.02504398673772812, -0.04300583899021149, -0.005218339618295431, 0.20863957703113556, -0.0008614471880719066, -0.10301890969276428, -0.07169158011674881, -0.008639698848128319, -0.11663555353879929, -0.023526543751358986, -0.0788339301943779, -0.15232135355472565, 0.1290816068649292, -0.0054346714168787, 0.049237724393606186, 0.09752324223518372, 0.06495026499032974, 0.03319858759641647, 0.23236489295959473, -0.07330034673213959, -0.011842044070363045, 0.0329548604786396, -0.07382169365882874, 0.011761504225432873, -0.02368798851966858, 0.006628464907407761, -0.08028202503919601, -0.03446020558476448, -0.29610398411750793, 0.006605507805943489, 0.03501226380467415, -0.03172648698091507, -0.036369431763887405, -0.06296862661838531, -0.09344225376844406, 0.02176046371459961, -0.05233136937022209, -0.021969344466924667, 0.04781714081764221, -0.03536554425954819], [0.10341443866491318, -0.03462120518088341, -0.05530581995844841, 0.13650813698768616, -0.044263776391744614, 0.04657575488090515, 0.17360584437847137, -0.07969527691602707, 0.2004300355911255, -0.0060350773856043816, -0.042321596294641495, 0.003281269920989871, -0.043966762721538544, 0.151662677526474, 0.1557423174381256, -0.08036549389362335, 0.021501628682017326, 0.022172970697283745, 0.014923281036317348, 0.060922231525182724, -0.005235580727458, 0.09273447096347809, -0.057354409247636795, -0.04162074625492096, 0.06299950182437897, 0.011654641479253769, 0.16461217403411865, 0.048675280064344406, 0.06971442699432373, 0.09647851437330246, 0.1599390208721161, 0.07024776935577393, -0.0982147827744484, -0.01583973690867424, -0.047957368195056915, 0.08131663501262665, -0.05901031568646431, 0.017842957749962807, -0.07562310993671417, -0.1647000014781952, 0.02040315419435501, -0.0018444713205099106, 0.014935234561562538, -0.0375097319483757, -0.007600822020322084, 0.11550599336624146, -0.04885965213179588, 0.029247552156448364, -0.007083762902766466, -0.018586037680506706, -0.023064954206347466, -0.10904692113399506, 0.06949613988399506, 0.040097516030073166, -0.18898683786392212, -0.018646515905857086, 0.00025959385675378144, 0.06703849881887436, 0.028166690841317177, 0.05055983364582062, 0.14721523225307465, 0.021138040348887444, -0.06367220729589462, -0.008860062807798386, 0.001918943366035819, 0.04411279410123825, -0.015665382146835327, -0.051614463329315186, -0.02255949005484581, -0.060128066688776016, -0.030633412301540375, 0.03380684182047844, -0.1189260184764862, -0.07251228392124176, -0.07033279538154602, -0.07928343117237091, -0.06842903047800064, 0.04212512448430061, 0.02624203823506832, -0.07489895075559616, 0.026637883856892586, 0.0053257569670677185, -0.007932746782898903, 0.047960199415683746, -0.0071579404175281525, 0.05865250155329704, -0.03851398825645447, 0.005587347317487001, -0.19825461506843567, 0.0075080725364387035, -0.08425755053758621, 0.03202835097908974, -0.03697151318192482, 0.01664363406598568, 0.000514622253831476, -0.026328610256314278, -0.12938736379146576, -0.07029775530099869, -0.010923510417342186, -0.09162489324808121, 0.07788100838661194, -0.10687657445669174, -0.0669797882437706, 0.029175935313105583, -0.06179087981581688, -0.04374900087714195, -0.004812605679035187, -0.011891723610460758, -0.009990597143769264, -0.03498389571905136, 0.02896765060722828, 0.10967860370874405, -0.051114775240421295, -0.16740968823432922, 0.09511944651603699, 0.08321888744831085, -0.051268111914396286, 0.05981893092393875, -0.192189559340477, -0.0939611941576004, -0.0889478474855423, -0.04414534568786621, 0.09344050288200378, 0.03208394721150398, 0.03175836428999901, 0.036799151450395584, -0.07604840397834778, -0.040583353489637375, 0.027417687699198723, -0.0008696470758877695, -0.05591436102986336, -0.014796539209783077, -0.034019965678453445], [-0.010243266820907593, -0.05350463464856148, -0.1061476469039917, -0.04027991741895676, 0.008657087571918964, -0.03047480434179306, -0.07542148977518082, 0.07490474730730057, -0.0486517995595932, 0.014981498941779137, -0.06338334828615189, -0.06794547289609909, 0.03636962175369263, 0.04899623245000839, -0.02201864868402481, -0.06857576221227646, 0.024106906726956367, 0.011395475827157497, -0.06641963124275208, 0.10288561880588531, -0.007381560280919075, 0.17083382606506348, 0.04570382088422775, 0.006616976577788591, 0.17958927154541016, 0.07383541017770767, 0.0261304322630167, -0.11019587516784668, -0.04246098920702934, 0.0621991865336895, -0.0914432480931282, 0.03378637880086899, -0.011419937945902348, 0.029439358040690422, 0.048458974808454514, -0.1284952610731125, 0.1616649329662323, 0.0859365463256836, 0.03129694610834122, 0.2254200428724289, -0.07672807574272156, -0.003980070352554321, 0.06129640340805054, 0.1486201286315918, 0.20758815109729767, 0.004517345689237118, 0.043120186775922775, -0.02897733822464943, -0.038485318422317505, -0.0304785817861557, -0.008143750950694084, 0.06277378648519516, 0.0016601576935499907, 0.008034738712012768, 0.1602201908826828, -0.012759795412421227, 0.07098431140184402, -0.0021411157213151455, 0.024148274213075638, -0.009370391257107258, -0.008304279297590256, 0.017465932294726372, -0.044121626764535904, -0.03149934485554695, 0.06109200417995453, -0.03174564242362976, -0.07353807240724564, -0.05940648168325424, -0.01401598285883665, -0.109955333173275, -0.008468542248010635, -0.1269608736038208, -0.00524707930162549, -0.16645629703998566, -0.030956171452999115, -0.09876597672700882, 0.04641914740204811, -0.03661452233791351, 0.0862525999546051, 0.03606545552611351, 0.007925356738269329, -0.0014521796256303787, -0.05160278454422951, -0.0015108224470168352, -0.04979800060391426, 0.03261227160692215, -0.17023389041423798, -0.03584630414843559, -0.11742342263460159, 0.004769469145685434, -0.087234728038311, 0.04401553422212601, -0.10842085629701614, 0.0672413557767868, 0.04022981971502304, 0.05805366113781929, -0.08093388378620148, -0.010121727362275124, 0.07447222620248795, 0.05048935115337372, 0.016548868268728256, 0.04557029530405998, 0.1314355581998825, -0.09555958211421967, -0.04675224795937538, -0.0437050424516201, -0.02169366180896759, -0.02640664577484131, -0.008245005272328854, -0.008272234350442886, 0.010770159773528576, -0.016675379127264023, -0.029228026047348976, -0.15904225409030914, 0.07462853193283081, -0.039373334497213364, -0.1027483344078064, 0.039870016276836395, 0.15912175178527832, 0.022693967446684837, -0.06329305469989777, -0.0490538626909256, 0.2507563829421997, -0.04081184044480324, -0.0654200091958046, 0.007663081865757704, 0.08172156661748886, -0.035808876156806946, 0.047303277999162674, -0.021517936140298843, 0.030394144356250763, 0.029573986306786537, -0.0004295248072594404], [-0.3212204873561859, -0.11114227771759033, -0.14186514914035797, -0.0414620079100132, -0.19791454076766968, -0.013958259485661983, 0.12951841950416565, -0.001646128250285983, 0.028760287910699844, 0.1755198836326599, -0.023677518591284752, -0.019234981387853622, 0.024014120921492577, 0.12409017980098724, 0.10753984749317169, 0.0805957168340683, -0.052167318761348724, 0.08831577003002167, 0.06708582490682602, 0.09456126391887665, -0.14194154739379883, -0.018254797905683517, 0.009336918592453003, 0.024654092267155647, 0.035168085247278214, -0.036050718277692795, 0.18109002709388733, 0.0604705773293972, 0.08515461534261703, 0.029894720762968063, 0.1955365389585495, 0.059897489845752716, 0.11040601134300232, 0.16052639484405518, 0.10657096654176712, -0.06482905149459839, -0.02744654379785061, -0.09131212532520294, -0.11070333421230316, -0.038004204630851746, 0.07976866513490677, -0.024267178028821945, -0.088208869099617, -0.022463543340563774, 0.06906174123287201, -0.028061289340257645, 0.048188481479883194, -0.007320027332752943, -0.004768748302012682, -0.04341137036681175, 0.0427657812833786, -0.05376211553812027, 0.020717518404126167, -0.004786808043718338, -0.11122822761535645, -0.058716703206300735, 0.013406110927462578, -0.03430571407079697, -0.08233346045017242, -0.04526621848344803, 0.04322480782866478, 0.050207994878292084, -0.0631173700094223, -0.0631742998957634, 0.049404945224523544, -0.06698702275753021, 0.0019290439086034894, -0.006877113599330187, -0.027157621458172798, 0.07505457103252411, 0.00825910922139883, 0.07016494870185852, 0.0363183319568634, -0.051894478499889374, 0.08225850015878677, 0.0589604489505291, 0.06678347289562225, 0.0448109470307827, -0.07820158451795578, -0.0966140404343605, -0.1165667474269867, 0.04861302673816681, 0.07603930681943893, 0.08120829612016678, 0.015049515292048454, 0.08658718317747116, -0.09620027244091034, 0.014604052528738976, 0.08736833184957504, 0.05584264174103737, -0.24870286881923676, -0.1241314560174942, -0.029601944610476494, 0.002523744711652398, -0.07261268049478531, 0.0784793272614479, 0.057185154408216476, -0.006732827518135309, 0.1435539424419403, 0.05536651983857155, 0.036361370235681534, 0.02396913804113865, 0.09531784802675247, 0.03294281288981438, 0.0598146878182888, -0.04220001772046089, 0.08202481269836426, -0.03569657355546951, 0.07436954230070114, -0.028099285438656807, 0.17707812786102295, 0.15889759361743927, 0.007682994939386845, 0.09027837216854095, 0.05430471524596214, -0.06073285639286041, -0.020918361842632294, -0.05406099185347557, 0.14219889044761658, 0.0740751400589943, 0.06350260227918625, 0.0297571811825037, 0.22499701380729675, 0.016297269612550735, 0.06575755029916763, 0.03719062730669975, 0.05530203878879547, 0.04335034266114235, 0.011461017653346062, 0.07514437288045883, 0.06500115990638733, 0.0763571709394455, 0.008848631754517555], [0.21366553008556366, 0.09833938628435135, 0.08578146994113922, 0.09378506988286972, 0.05583428591489792, 0.05219176039099693, 0.13615813851356506, -0.04997524991631508, 0.03421540930867195, -0.004553882870823145, 0.015119914896786213, -0.03591305762529373, 0.09832795709371567, -0.07354072481393814, 0.07911918312311172, 0.1450081467628479, -0.11473261564970016, -0.15466660261154175, 0.052933793514966965, 0.15286555886268616, 0.12259632349014282, 0.14503590762615204, 0.07660084962844849, -0.09455695748329163, 0.1600513905286789, -0.055294204503297806, 0.06419699639081955, -0.035530924797058105, 0.020605767145752907, 0.20757870376110077, 0.14757458865642548, -0.03867226839065552, -0.043344464153051376, -0.033505361527204514, -0.08772780746221542, -0.059314608573913574, 0.09852801263332367, 0.022478453814983368, 0.06022631749510765, 0.028575876727700233, -0.027996061369776726, -0.016380010172724724, 0.1142459511756897, 0.07353579252958298, 0.1261754035949707, 0.09838362783193588, 0.012343054637312889, -0.005890616215765476, -0.1435626745223999, 0.04605512320995331, -0.015975071117281914, 0.07618226855993271, -0.004413322079926729, -0.03104417584836483, -0.0171741284430027, -0.06569056212902069, -0.060465794056653976, 0.1317976713180542, 0.042879894375801086, -0.020218025892972946, 0.10764255374670029, 0.027169104665517807, 0.11278429627418518, -0.009651863016188145, -0.025299444794654846, 0.08371981233358383, 0.006316870450973511, 0.11956802010536194, -0.07106097042560577, -0.06908749788999557, -0.0658254474401474, 0.06745453923940659, -0.04436435550451279, -0.024598069489002228, 0.017079025506973267, 0.11918139457702637, -0.019296588376164436, 0.12352897226810455, -0.0032805439550429583, 0.06541374325752258, -0.035699278116226196, -0.04116606339812279, 0.09279684722423553, -0.05702264606952667, 0.0016921538626775146, -0.036290254443883896, -0.05688006803393364, -0.05267566442489624, 0.05237429961562157, -0.04564935341477394, 0.11867116391658783, 0.04955161362886429, 0.16451194882392883, 0.1104825884103775, 0.017100214958190918, -0.008440382778644562, -0.04408280923962593, 0.013841112144291401, -0.11665139347314835, -0.04407960921525955, -0.029787316918373108, 0.05806313827633858, -0.014876635745167732, 0.0017583094304427505, -0.09981904178857803, 0.11972339451313019, 0.0220963004976511, -0.014332842081785202, 0.04796158894896507, -0.0042914776131510735, -0.12903036177158356, -0.029285341501235962, 0.03694954887032509, 0.01641271263360977, 0.041481178253889084, 0.0612584725022316, 0.03819108009338379, -0.05385744199156761, 0.022503158077597618, 0.00729634752497077, 0.03333202004432678, -0.11066900938749313, 0.14601044356822968, 0.00892653502523899, 0.04688116908073425, -0.037732187658548355, -0.08000140637159348, 0.016610538586974144, -0.022761467844247818, -0.033719226717948914, 0.06894166767597198, -0.07315518707036972, 0.047996651381254196], [-0.11123883724212646, -0.04855119809508324, -0.05921011045575142, 0.05037185177206993, 0.030205659568309784, 0.06463715434074402, 0.144963800907135, 0.023606589064002037, 0.04685596749186516, 0.0628737062215805, 0.05948570743203163, 0.06040200591087341, 0.10335414856672287, 0.07178701460361481, -0.06439708173274994, -0.08733545988798141, -0.07370133697986603, -0.0036125469487160444, -0.04884171113371849, -0.06228826567530632, -0.004179466515779495, 0.1907941699028015, -0.03491203114390373, 0.13494959473609924, -0.08933290094137192, 0.06357108056545258, 0.036472052335739136, 0.0461508072912693, 0.02201392687857151, 0.06977761536836624, -0.02273573912680149, -0.053612276911735535, 0.04192274063825607, -0.0653502345085144, -0.01888427697122097, 0.025417782366275787, 0.0350898876786232, 0.007587272208184004, -0.11298474669456482, -0.047427818179130554, 0.04819994419813156, 0.014870377257466316, 0.057381998747587204, 0.02445576712489128, -0.08965038508176804, 0.08757702261209488, 0.10764078795909882, 0.12191399931907654, 0.014200184494256973, 0.02192908339202404, 0.02918112650513649, -0.04508813098073006, -0.01231427676975727, -0.12147264182567596, -0.13734771311283112, -0.04420448839664459, -0.06658843904733658, 0.002117815427482128, -0.0006941739120520651, -0.008419613353908062, -0.05279666185379028, -0.003538343822583556, 0.05645853653550148, -0.07725552469491959, 0.09862197935581207, -0.024096889421343803, 0.0792507752776146, 0.00022651386098004878, -0.07377412170171738, -0.052718646824359894, 0.03485380485653877, 0.009918944910168648, -0.09085389971733093, 0.016067959368228912, -0.06828571856021881, -0.007484445348381996, -0.026956815272569656, -0.06259198486804962, 0.06979280710220337, -0.08924783021211624, -0.05075791850686073, 0.009301850572228432, -0.024247629567980766, 0.04423714801669121, 0.05117420852184296, 0.04620344191789627, -0.027266716584563255, 0.015794172883033752, 0.05209112539887428, 0.011614706367254257, 0.19719253480434418, -0.05265333503484726, 0.012640170753002167, 0.0576724149286747, 0.15714547038078308, -0.024100784212350845, 0.02556035667657852, 0.03631921485066414, 0.04394923895597458, -0.019884655252099037, -0.032476507127285004, -0.07494255900382996, -0.03178074210882187, 0.08997423946857452, -0.08219917863607407, 0.046303052455186844, 0.0015962643083184958, 0.00011510034528328106, -0.048351775854825974, 0.03984728828072548, -0.1502133309841156, 0.03709767013788223, -0.06089119240641594, -0.024261530488729477, -0.0012911410303786397, 0.05317521095275879, 0.03754802048206329, 0.07486146688461304, 0.0166486743837595, 0.026787111535668373, -0.057545483112335205, -0.15935754776000977, 0.09724514186382294, -0.06381717324256897, -0.10890158265829086, 0.01712513156235218, 0.04617338255047798, -0.08922049403190613, 0.05612730607390404, -0.06653935462236404, -0.04630124196410179, 0.03178548440337181, -0.008365665562450886], [-0.011137854307889938, -0.027698073536157608, -0.07733254134654999, -0.0362238809466362, -0.002022617729380727, -0.04551989957690239, 0.07670419663190842, -0.014891240745782852, 0.005781326908618212, -0.049252938479185104, 0.007738126907497644, -0.022187614813447, -0.10548260807991028, -0.06446735560894012, 0.044142112135887146, -0.08080311864614487, 0.01792430505156517, 0.010946398600935936, -0.023845817893743515, 0.08332407474517822, -0.014188302680850029, 0.12092339992523193, 0.06276671588420868, 0.08520916104316711, 0.11479358375072479, -0.06293393671512604, -0.023739930242300034, 0.06583669036626816, 0.07144369184970856, 0.010200233198702335, -0.11876626312732697, -0.05732985958456993, 0.047027312219142914, 0.027933821082115173, -0.02367333509027958, 0.05250963941216469, 0.12184397876262665, 0.051409173756837845, 0.02798699587583542, 0.19521735608577728, -0.05192374810576439, 0.05626874417066574, -0.049903422594070435, 0.07584507018327713, -0.02269626036286354, -0.019903946667909622, -0.024186916649341583, -0.04021386802196503, -0.03290453180670738, -0.041366834193468094, -0.006178355310112238, 0.04960332065820694, 0.054968010634183884, -0.09159748256206512, -0.03363063558936119, -0.02043161168694496, -0.026985185220837593, -0.03507029265165329, -0.011658570729196072, -0.0688537210226059, -0.024192914366722107, -0.053318966180086136, 0.0695207417011261, -0.07948602735996246, -0.04029373079538345, -0.018148047849535942, 0.01971117965877056, 0.04877232760190964, -0.0647091343998909, -0.04273698851466179, -0.015859922394156456, 0.001082014525309205, -0.02056942880153656, -0.0003662015951704234, -0.04959055408835411, 0.10547997802495956, -0.03772629052400589, 0.054333824664354324, -0.038183193653821945, -0.009572644717991352, 0.0245195459574461, 0.05209730193018913, 0.08600979298353195, 0.0031837807036936283, -0.0666457861661911, -0.02217974327504635, 0.09008797258138657, -0.05601178854703903, -0.0026656549889594316, -0.03022167459130287, 0.04470819607377052, -0.0025117225013673306, 0.0653415098786354, 0.03567670285701752, -0.004005351569503546, 0.10467557609081268, 0.16948822140693665, 0.06920526921749115, 0.015729941427707672, -0.08735431730747223, 0.053997479379177094, 0.07551009207963943, 0.07175099104642868, 0.07068917900323868, 0.13968028128147125, -0.10406633466482162, -0.059675369411706924, -0.06341046839952469, 0.046040307730436325, -0.10601618140935898, -0.09110842645168304, 0.08760692179203033, 0.04571542888879776, -0.092424675822258, 0.0006552402628585696, -0.07403722405433655, -0.021121323108673096, 0.03728204220533371, 0.018470074981451035, 0.028669998049736023, -0.10028846561908722, -0.09128183126449585, 0.20879557728767395, -0.10767510533332825, 0.016929036006331444, -0.06916385889053345, 0.05633553862571716, -0.06284455209970474, -0.005122249945998192, 0.014365134760737419, -0.07151897251605988, 0.06391928344964981, 0.029087070375680923], [0.19304779171943665, -0.04786878079175949, -0.010000431910157204, -0.049444083124399185, -0.04316003620624542, -0.019684460014104843, 0.00485419062897563, -0.029383523389697075, -0.0036824268754571676, -0.09727005660533905, -0.05438961461186409, 0.009417259134352207, -0.036246418952941895, 0.010477244853973389, -0.07395540177822113, -0.03525403514504433, 0.04767051339149475, 0.01645410992205143, 0.03313364461064339, 0.04016959294676781, 0.06289510428905487, 0.04945310950279236, -0.04069344326853752, 0.06801430135965347, 0.14171533286571503, 0.0720057338476181, -0.06288404762744904, -0.22621038556098938, 0.0717485100030899, 0.1520542949438095, -0.015458790585398674, -0.056089360266923904, -0.11266200244426727, -0.07796256244182587, -0.0042032706551253796, -0.0073304069228470325, 0.12105507403612137, 0.013353256508708, 0.08206087350845337, 0.15410612523555756, 0.07225913554430008, -0.034709539264440536, 0.0669577345252037, 0.1500357836484909, 0.168199360370636, -0.0028603447135537863, -0.002277929335832596, 0.0275704488158226, 0.07727653533220291, 0.01050324272364378, -0.05086115375161171, 0.13773617148399353, 0.07528144866228104, -0.006051777396351099, 0.14523187279701233, -0.017405815422534943, -0.008036885410547256, -0.046772558242082596, -0.06551069021224976, 0.047710664570331573, 0.06711893528699875, -0.06644503772258759, -0.0017091506160795689, 0.01736699603497982, -0.0023593285586684942, -0.02446640096604824, 0.06521525233983994, -0.01754269003868103, -0.06551510840654373, -0.046290166676044464, -0.005651342216879129, -0.10917869210243225, 0.05540645122528076, -0.11905191838741302, -0.04548828303813934, -0.02489365264773369, 0.004913270939141512, -0.03668029606342316, -0.03700632229447365, 0.015192149206995964, 0.009712297469377518, 0.05033276975154877, 0.0947858989238739, 0.061237189918756485, 0.06770895421504974, 0.07060609012842178, -0.0794186070561409, 0.010496356524527073, 0.03411053866147995, -0.03420024365186691, -0.08420077711343765, 0.005756815895438194, -0.06834875792264938, 0.06522928923368454, 0.036731820553541183, 0.04357234388589859, -0.0016111962031573057, -0.008744957856833935, 0.19199709594249725, 0.061058029532432556, 0.0396956130862236, 0.08855915069580078, -0.03970768302679062, -0.06868630647659302, -0.01680375263094902, -0.09172254800796509, -0.09818065911531448, -0.08106976002454758, 0.075558602809906, 0.007963543757796288, -0.0061437939293682575, -0.02280144765973091, -0.014483265578746796, -0.05717882513999939, -0.006008566357195377, 0.007200439926236868, -0.027487097308039665, -0.18552780151367188, -0.07222654670476913, 0.008530453778803349, -0.017047133296728134, -0.06349360942840576, 0.19863004982471466, -0.013470269739627838, 0.047527916729450226, 0.038507115095853806, -0.07297869771718979, -0.01627112738788128, -0.01272843312472105, -0.041216470301151276, 0.0074781384319067, 0.02967318892478943, -0.08056775480508804], [0.2253345400094986, 0.004678142257034779, 0.04235150292515755, 0.09628301113843918, 0.09025191515684128, -0.059387654066085815, 0.016740459948778152, 0.026619985699653625, 0.05388874188065529, 0.12286674231290817, -0.029901528730988503, 0.020028425380587578, -0.03563264012336731, -0.07571535557508469, 0.13593876361846924, -0.028608856722712517, 0.07607057690620422, -0.06408446282148361, -0.053979307413101196, 0.10202304273843765, 0.059746526181697845, -0.0038017123006284237, 0.04084152355790138, -0.024395696818828583, -0.06181073561310768, -0.07874789834022522, 0.002873992081731558, -0.034579500555992126, 0.09517107158899307, 0.015804413706064224, -0.15541625022888184, 0.059643667191267014, -0.008634643629193306, -0.01677798107266426, -0.009449925273656845, -0.019764091819524765, -0.18555498123168945, 0.004999922588467598, -0.10432843863964081, 0.04599993675947189, -0.05357209965586662, 0.020889341831207275, -0.029789064079523087, -0.07310064882040024, -0.06250667572021484, -0.08552268892526627, 0.02116427756845951, -0.015192043036222458, 0.0011084965663030744, -0.08143047988414764, -0.016346875578165054, -0.09976698458194733, 0.030200736597180367, -0.062380947172641754, 0.05042180418968201, -0.08102498203516006, -0.06969092786312103, 0.05529087409377098, -0.17786075174808502, 0.02672298438847065, 0.015169036574661732, -0.027756396681070328, -0.09312964975833893, 0.004435056354850531, -0.12025535106658936, -0.05498652905225754, -0.030514568090438843, -0.0022641965188086033, -0.18023627996444702, -0.05285199359059334, -0.06622427701950073, 0.011134758591651917, -0.08706147223711014, 0.08827698230743408, 0.03999289497733116, -0.062423720955848694, -0.10278681665658951, 0.05480442941188812, 0.009667432866990566, -0.006670390255749226, -0.04306476563215256, 0.11270878463983536, 0.034390490502119064, 0.10666099935770035, -0.17002390325069427, -0.007021789439022541, 0.012934514321386814, -0.02550284005701542, -0.010209484957158566, -0.10146107524633408, -0.06077682599425316, -0.005032995715737343, -0.02275901660323143, -0.09976916015148163, 0.015146439895033836, 0.017231730744242668, 0.18468958139419556, -0.0026543987914919853, 0.13404931128025055, 0.05840955674648285, -0.021354611963033676, -0.07657033950090408, -0.00952933169901371, -0.0370633490383625, 0.007068289909511805, 0.0008378378115594387, -0.05304017663002014, 0.09514167904853821, -0.0002245193172711879, -0.02054464817047119, -0.13237275183200836, 0.1051657423377037, -0.016010059043765068, 0.06654644757509232, 0.04260670021176338, 0.07104898989200592, -0.02591032348573208, -0.0007129879668354988, -0.002103110309690237, -0.0177787933498621, -0.08689668774604797, -0.02739519067108631, -0.09920985996723175, 0.08531743288040161, 0.02803887240588665, 0.03501146286725998, 0.03964761272072792, -0.07151000201702118, -0.008912448771297932, -0.02736959233880043, -0.05486457422375679, 0.040719203650951385, -0.005409919191151857], [-0.002423150697723031, 0.04872865974903107, 0.07428961247205734, 0.03487425670027733, 0.00866732932627201, -0.007940810173749924, 0.23514848947525024, 0.031060051172971725, 0.094423308968544, -0.0172114297747612, -0.07194548845291138, -0.10456374287605286, -0.028217969462275505, -0.06106160581111908, -0.016672343015670776, -0.036650195717811584, -0.08196550607681274, 0.05871209502220154, 0.05858452618122101, -0.006822848226875067, 0.007141523063182831, 0.10847999900579453, -0.030104458332061768, -0.026147490367293358, 0.05852126702666283, 0.00471610389649868, -0.05834721773862839, 0.08526133000850677, -0.006165915168821812, -0.015302765183150768, 0.011882035993039608, 0.020478423684835434, -0.06193535029888153, 0.05600598827004433, -0.018677009269595146, -0.03471597656607628, -0.07878429442644119, -0.07818323373794556, -0.03950945660471916, -0.03654211759567261, 0.08112963289022446, 0.03536409139633179, 0.017683984711766243, -0.03067699447274208, -0.1243559867143631, 0.044694602489471436, 0.040137965232133865, 0.03409460186958313, -0.06925051659345627, -0.07676055282354355, 0.005202879197895527, -0.04574437811970711, 0.031207473948597908, -0.15313425660133362, -0.07784481346607208, -0.04611784219741821, -0.008445898070931435, 0.12942634522914886, -0.024002602323889732, -0.047714851796627045, -0.006793829146772623, -0.04606488719582558, 0.050266820937395096, -0.059853751212358475, -0.038121119141578674, -0.0443468801677227, -0.07874882966279984, 0.02117622084915638, -0.015185913071036339, -0.018825525417923927, -0.021934928372502327, -0.08080209791660309, -0.08036214858293533, -0.025382762774825096, -0.11999285221099854, -0.06754594296216965, 0.04152555763721466, -0.0590219683945179, -0.049617402255535126, -0.014651483856141567, -0.0677025318145752, -0.08654306828975677, -0.07236485928297043, -0.025987524539232254, -0.07526316493749619, 0.08547686785459518, 0.03338289633393288, 0.02118600159883499, -0.003000181633979082, -0.03989207372069359, 0.0030839925166219473, 0.09404191374778748, 0.006430330686271191, 0.08736759424209595, 0.05861855298280716, -0.09175285696983337, -0.05239659547805786, -0.07981152087450027, -0.013948475010693073, -0.11097157746553421, 0.06243008002638817, -0.031167984008789062, 0.01259948406368494, -0.05288092419505119, -0.028705859556794167, 0.09185219556093216, 0.04236632585525513, 0.006304563954472542, -0.04284338280558586, -0.06947042047977448, 0.04456780478358269, 0.19774210453033447, -0.06715352088212967, 0.01933884620666504, -0.05135952681303024, -0.08014154434204102, 0.03540053218603134, -0.02327544242143631, -0.039712339639663696, -0.005586451385170221, -0.06284304708242416, -0.5197712182998657, 0.038503747433423996, -0.02035929262638092, -0.0001679050619713962, 0.061961814761161804, -0.012935582548379898, -0.020128248259425163, -0.07370492070913315, -0.0459270104765892, -0.0003144267247989774, 0.02718503773212433, 0.004108363296836615], [-0.038958385586738586, -0.07148510962724686, 0.01624789647758007, 0.004236199427396059, -0.010480629280209541, -6.299219239735976e-05, -0.2582349479198456, -0.09934810549020767, -0.012190284207463264, 0.05068019777536392, -0.07637736201286316, -0.06445859372615814, 0.03354310989379883, -0.07251285761594772, -0.10156655311584473, -0.010163418017327785, 0.04766794666647911, -0.05285225808620453, 0.06192798167467117, 0.10663194209337234, 0.07642322778701782, 0.027156826108694077, -0.02582329697906971, -0.08420638740062714, -0.011927620507776737, -0.06674202531576157, 0.07797295600175858, -0.044724926352500916, 0.1536329835653305, 0.1698942631483078, 0.01493059005588293, 0.010134264826774597, 0.06265299767255783, -0.08200084418058395, 0.015704620629549026, -0.04122564196586609, 0.1665690541267395, 0.031474627554416656, 0.11184557527303696, -0.061432112008333206, 0.03799763694405556, 0.06373405456542969, 0.06360433995723724, 0.09933128207921982, 0.14465132355690002, 0.017089294269680977, 0.005499023012816906, -0.06024915724992752, 0.044553663581609726, 0.08667394518852234, -0.08598010987043381, 0.1454731822013855, -0.00560079887509346, 0.007217764388769865, -0.0036753721069544554, 0.052334263920784, -0.0046179513446986675, -0.017878416925668716, 0.13680873811244965, 0.13957884907722473, -0.03882551193237305, 0.06080543249845505, -0.047490477561950684, -0.060104429721832275, -0.055482279509305954, -0.08194752037525177, 0.026540372520685196, 0.05585571750998497, -0.09690088778734207, -0.2656044065952301, -0.07135902345180511, 0.008417732082307339, 0.0013895666925236583, -0.095331110060215, -0.02861781418323517, 0.1034957617521286, 0.05526003986597061, 0.16576743125915527, 0.09256399422883987, -0.06402813643217087, 0.04724394157528877, 0.09040194749832153, -0.021696779876947403, 0.037302955985069275, 0.14063996076583862, -0.05377553775906563, -0.02700277976691723, -0.10557763278484344, -0.13070113956928253, -0.04806409403681755, 0.0811510756611824, -0.030085958540439606, 0.09236939996480942, -0.04442865401506424, 0.031562622636556625, -0.015100163407623768, 0.07413463294506073, 0.014129690825939178, 0.11624886095523834, -0.058090947568416595, -0.017871228978037834, -0.13905802369117737, 0.011929628439247608, 0.039042145013809204, -0.011859321035444736, 0.02787819504737854, -0.008747782558202744, 0.03639191761612892, 0.037445906549692154, 0.06347645074129105, -0.0876946747303009, -0.07035411149263382, -0.007796575780957937, 0.028670141473412514, -0.06597612798213959, -0.04901475831866264, 0.04168827831745148, 0.01754259690642357, 0.1067267432808876, -0.006592510733753443, -0.045328736305236816, -0.04931579530239105, 0.19070488214492798, -0.04745766520500183, -0.03585994616150856, 0.031174324452877045, -0.08056629449129105, 0.00511021725833416, 0.06007692217826843, -0.08724053204059601, -0.04654134064912796, 0.03642551973462105, 0.037778642028570175], [0.13962231576442719, -0.0566716231405735, -0.017157692462205887, -0.0730389878153801, -0.02266032062470913, 0.026676956564188004, 0.06941111385822296, 0.07054366916418076, -0.04188719019293785, -0.0372847244143486, -0.07650692015886307, -0.05412933975458145, -0.06622681021690369, -0.03159079700708389, 0.09240443259477615, -0.060012754052877426, 0.01831408031284809, -0.04762902110815048, 0.06588935106992722, 0.022464584559202194, 0.07060421258211136, 0.04673553258180618, -0.08061624318361282, 0.02661496214568615, 0.19293630123138428, 0.07302550226449966, -0.0928221344947815, -0.10898667573928833, -0.04445086419582367, 0.01982339657843113, -0.08903582394123077, -0.0036158354487270117, -0.11701211333274841, -0.03123759664595127, -0.0034893283154815435, -0.09021462500095367, -0.025230951607227325, 0.01233389601111412, 0.027149368077516556, 0.19994942843914032, 0.006811467465013266, 0.03671048581600189, -0.04835288226604462, -0.042854975908994675, 0.036627911031246185, 0.01998049020767212, -0.1000782772898674, 0.004800586495548487, -0.0005253435228951275, 0.03929784148931503, -0.08501466363668442, 0.009441575966775417, 0.035971302539110184, -0.07321733981370926, 0.12314531952142715, 0.07686001807451248, -0.07591352611780167, -0.004874301142990589, 0.03641650825738907, -0.005025982856750488, 0.19449788331985474, -0.05506247282028198, -0.05108162760734558, -0.020951155573129654, -0.06399121880531311, -0.004433749709278345, 0.006242834962904453, -0.0013808722142130136, -0.033195268362760544, 0.0014996370300650597, -0.02461700513958931, -0.041625168174505234, -0.03700706735253334, -0.1670682728290558, -0.02258635312318802, -0.10470576584339142, 0.0204023327678442, 0.03832273557782173, 0.010370568372309208, -0.028486602008342743, -0.013834809884428978, -0.01597370021045208, 0.06843161582946777, -0.07749543339014053, -0.18187831342220306, -0.019164005294442177, -0.12243971228599548, 0.03074030950665474, -0.05936797708272934, 0.04668024554848671, 0.20931462943553925, -0.023033440113067627, -0.07989820092916489, -0.10343509167432785, 0.012783050537109375, 0.02615973725914955, -0.06714264303445816, 0.02231869287788868, -0.051945656538009644, -0.07654108852148056, 0.00944744423031807, -0.006353452801704407, 0.09666258841753006, -0.08649572730064392, -0.01851712353527546, -0.10762042552232742, 0.026472102850675583, -0.008084847591817379, -0.013659271411597729, 0.08072958886623383, 0.1717558056116104, -0.03872836008667946, -0.04184124618768692, -0.011272134259343147, -0.04967119172215462, -0.07557201385498047, -0.012690174393355846, -0.020445650443434715, -0.025060487911105156, 0.06185007095336914, -0.022242790088057518, -0.03452426940202713, 0.142157182097435, -0.003215211210772395, -0.0781385749578476, -0.05188342556357384, 0.045128293335437775, 0.05363241583108902, -0.08789197355508804, -0.05599897354841232, -0.030616428703069687, 0.06828414648771286, -0.0595400333404541], [-0.3111446797847748, -0.1506524682044983, -0.11603260040283203, -0.1083393320441246, -0.1326267570257187, -0.01105013582855463, 0.04155171662569046, 0.02169078215956688, 0.10296682268381119, 0.09782619774341583, 0.040666040033102036, 0.02749972976744175, 0.09251652657985687, 0.06551598757505417, 0.039665233343839645, 0.14422841370105743, -0.06543037295341492, 0.011269821785390377, 0.025473741814494133, -0.003964098636060953, -0.15328696370124817, -0.018684789538383484, -0.011933337897062302, 0.05171174183487892, 0.03245322406291962, -0.0016657683299854398, -0.09101202338933945, 0.011022086255252361, 0.002844239119440317, 0.0809718444943428, 0.3318033814430237, 0.05522451177239418, 0.08945883810520172, 0.14278098940849304, 0.15973584353923798, 0.051787618547677994, 0.007819220423698425, -0.07251913100481033, -0.07345002144575119, -0.09459511935710907, 0.07435342669487, 0.030170414596796036, -0.0878002941608429, -0.06529305875301361, 0.01202288269996643, 0.06307167559862137, -0.08058033883571625, 0.06382586807012558, 0.021924322471022606, 0.028254162520170212, -0.0010068827541545033, -0.05754641443490982, 0.11743587255477905, -0.04580138251185417, -0.06961403787136078, 0.008529623039066792, -0.07643809914588928, -0.011761631816625595, -0.005137946922332048, -0.03562089800834656, -0.08939152210950851, 0.02236749790608883, -0.014820059761404991, -0.004159808624535799, 0.10573463141918182, -0.014116944745182991, 0.0792495459318161, -0.01038673147559166, -0.06349246948957443, 0.029154539108276367, -0.05558374524116516, -0.06833763420581818, 0.018593456596136093, 0.05180277302861214, -0.0023580393753945827, -0.04464278742671013, -0.028362076729536057, 0.010522612370550632, -0.001325277960859239, -0.07884001731872559, -0.05356556177139282, 0.039242710918188095, 0.04548584669828415, 0.0852617546916008, 0.11572647094726562, 0.03012080118060112, -0.06595315784215927, 0.04833467677235603, 0.06114334613084793, -0.029978526756167412, -0.28648626804351807, -0.04470723867416382, -0.09878957271575928, -0.05822131782770157, -0.08333547413349152, -0.19374537467956543, -0.03957139328122139, -0.0013893948635086417, 0.13390201330184937, 0.020768269896507263, 0.01792645826935768, 0.027728093788027763, -0.012217039242386818, 0.07058747112751007, -0.019961535930633545, -0.08449961245059967, 0.06261762231588364, -0.00891695637255907, 0.034181684255599976, 0.000529607234057039, -0.08446504920721054, 0.053965974599123, -0.02512911707162857, 0.10319137573242188, 0.06934093683958054, 0.03501914069056511, -0.010398771613836288, 0.031015969812870026, 0.07111495733261108, 0.01759585738182068, 0.04619928076863289, -0.009985692799091339, 0.0386514887213707, -0.08709584921598434, -0.03753647580742836, -0.05594337359070778, -0.08344268053770065, 0.09980648756027222, -0.03521503135561943, -0.011181955225765705, 0.02874152362346649, 0.0038707328494638205, 0.0837179645895958], [0.40947192907333374, 0.12487912178039551, 0.12971846759319305, 0.0913863480091095, 0.015084883198142052, 0.06892497092485428, 0.05741565302014351, -0.020644525066018105, -0.11815052479505539, -0.06765986979007721, 0.07676099240779877, 0.03836849331855774, -0.09046290814876556, 0.099122554063797, 0.0013636539224535227, 0.14416241645812988, -0.02965034544467926, 0.0984032154083252, 0.07081262022256851, -0.02287515066564083, -0.189993217587471, -0.15535034239292145, -0.0550435408949852, 0.022349441424012184, -0.0462636724114418, 0.07223556190729141, 0.036805395036935806, -0.024149389937520027, -0.07362727075815201, -0.10252472758293152, 0.23834925889968872, 0.042147666215896606, 0.06156568229198456, 0.14147694408893585, 0.04915270954370499, 0.05654293671250343, 0.0011846593115478754, 0.10427429527044296, -0.10395343601703644, -0.1556156575679779, -0.08426988869905472, 0.050488799810409546, 0.05546934902667999, -0.010270774364471436, -0.07877755165100098, 0.13521020114421844, -0.1188139095902443, 0.01808778941631317, 0.003177432343363762, -0.0903971791267395, -0.03300885483622551, -0.041832335293293, -0.01460789330303669, -0.04158302769064903, -0.011026165448129177, 0.047429315745830536, 0.003969857934862375, 0.1397932767868042, 0.032936520874500275, 0.01462597493082285, 0.0293135866522789, -0.08163666725158691, 0.11715666949748993, -0.10965492576360703, -0.08831697702407837, 0.11316807568073273, 0.02381758764386177, 0.01239744108170271, 0.14410413801670074, 0.09874575585126877, -0.07453906536102295, -0.0264456644654274, 0.10057773441076279, -0.07908777892589569, 0.07147444784641266, 0.08468665927648544, 0.022519538179039955, 0.06534415483474731, 0.12215836346149445, -0.05866264924407005, 0.010925731621682644, -0.11498648673295975, -0.04108166694641113, 0.040291234850883484, -0.07571873068809509, 0.05919194594025612, 0.0560835525393486, 0.020866453647613525, -0.010462095960974693, -0.0004177027731202543, 0.14214225113391876, 0.12489257752895355, 0.1116253063082695, 0.22338572144508362, 0.05657152831554413, 0.03136127069592476, 0.06330003589391708, 0.03267355263233185, -0.07781179249286652, -0.014095024205744267, 0.035053275525569916, 0.04342033341526985, -0.044437576085329056, -0.08441953361034393, 0.08400469273328781, 0.2114327996969223, 0.02980608120560646, -0.060163699090480804, 0.043048031628131866, 0.10294710099697113, -0.13943514227867126, -0.03986145928502083, 0.057137418538331985, -0.03664135932922363, 0.025220243260264397, -0.031099092215299606, 0.04448569938540459, -0.00888781901448965, -0.024433018639683723, 0.010120079852640629, -0.036796119064092636, -0.055810730904340744, -0.09380818158388138, 0.0782717615365982, 0.07887042313814163, 0.06618538498878479, -0.025162817910313606, 0.09446001052856445, -0.008703367784619331, -0.028517654165625572, -0.0620560497045517, -0.037190936505794525, 0.039062030613422394], [0.27382975816726685, 0.03378177434206009, 0.0695592388510704, 0.041175518184900284, 0.06689351052045822, -0.0195899810642004, -0.11800377070903778, 0.021903684362769127, -0.09532906115055084, -0.1132965236902237, 0.023845355957746506, 0.032617174088954926, -0.12225258350372314, 0.00580953061580658, 0.011160907335579395, 0.20985859632492065, 0.06579017639160156, 0.028868744149804115, 0.13383975625038147, -0.08634109795093536, -0.11587207019329071, -0.023809507489204407, -0.006120014004409313, -0.04272330179810524, -0.06269389390945435, 0.0805821344256401, -0.11031411588191986, 0.001983847701922059, -0.05881327763199806, 0.03775930032134056, 0.3210314214229584, 0.08660441637039185, 0.09667709469795227, 0.1013534814119339, 0.10284136235713959, -0.04113644361495972, -0.10659322887659073, -0.0633406788110733, -0.14377442002296448, -0.0336056686937809, -0.07614747434854507, -0.03468526154756546, -0.03424319252371788, -0.06254652887582779, 0.0836472138762474, 0.07687518745660782, -0.11926795542240143, 0.04882669076323509, -0.015842560678720474, 0.03570210561156273, 0.003737310180440545, -0.06289384514093399, 0.11486589908599854, 0.06396801769733429, -0.08167526870965958, 0.034705422818660736, -0.06017090380191803, -0.04189252480864525, -0.02508065477013588, -0.05577057972550392, 0.09544634819030762, -0.056241605430841446, 0.03340470790863037, -0.03964462876319885, -0.17664529383182526, 0.01088426262140274, -0.030894620344042778, 0.0543440580368042, -0.009590821340680122, -0.06521863490343094, 0.06052404269576073, -0.0010607987642288208, -0.0223708339035511, -0.08526643365621567, 0.05155095458030701, 0.026805510744452477, 0.006272487808018923, -0.09167428314685822, 0.08509548008441925, 0.017561092972755432, -0.060304660350084305, 0.11547549813985825, 0.06314799934625626, -0.08749867230653763, 0.012495432049036026, -0.007069731596857309, 0.02695499174296856, -0.09119664877653122, 0.0721174031496048, 0.09075931459665298, 0.08715476095676422, 0.00028275747899897397, 0.1459609717130661, 0.065081886947155, 0.016384175047278404, 0.07487677037715912, -0.0009686934645287693, -0.09144391119480133, 0.0588846392929554, -0.025818588212132454, 0.02839396335184574, -0.024063389748334885, -0.04370298236608505, 0.06662379950284958, -0.022918028756976128, 0.11180761456489563, -0.07916611433029175, -0.04226198047399521, -0.038108840584754944, 0.02528482675552368, 0.0791264995932579, 0.016227979212999344, 0.07774525880813599, -0.04703101888298988, 0.07013542950153351, -0.07921000570058823, -0.017593657597899437, 0.03547324612736702, -0.05280517786741257, -0.012476933188736439, 0.04907027631998062, -0.04391547292470932, -0.16510626673698425, -0.05028232932090759, 0.09116847813129425, -0.02964870072901249, -0.07044140994548798, 0.08584553003311157, -0.051011595875024796, -0.025334803387522697, 0.04898551478981972, -0.042976707220077515, 0.00838338490575552], [-0.06323200464248657, 0.001383896917104721, -0.1099129468202591, -0.03658539801836014, 0.06822185218334198, -0.06623109430074692, -0.04445793479681015, 0.00095356535166502, -0.013389162719249725, -0.08844990283250809, 0.032363858073949814, -0.02197803370654583, 0.00531927403062582, 0.04362453892827034, 0.02704717591404915, -0.061018284410238266, 0.023229137063026428, 0.08386049419641495, -0.011693424545228481, 0.02137223444879055, -0.03610194846987724, 0.014916752465069294, -0.07849415391683578, 0.013010594993829727, 0.06707948446273804, -0.07487641274929047, -0.002856361446902156, 0.0050967903807759285, -0.09993297606706619, 0.0012837541289627552, -0.00044936221092939377, -0.045923735946416855, 0.05171996355056763, -0.011190752498805523, -0.018868694081902504, -0.023700319230556488, -0.1045895367860794, 0.0396016389131546, -0.0777571052312851, -0.017041189596056938, -0.00045673991553485394, -0.09526766091585159, 0.05291356146335602, -0.06398838758468628, 0.013510066084563732, -0.053619857877492905, 0.041003983467817307, 0.059024401009082794, 0.029429959133267403, 0.062162984162569046, -0.10509834438562393, 0.02224769815802574, 0.09077990800142288, -0.024473536759614944, -0.08590816706418991, -0.027124714106321335, -0.0459720715880394, 0.041997335851192474, 0.07976961880922318, -0.07770214229822159, -0.028639908879995346, -0.07342611253261566, 0.08908292651176453, -0.055691950023174286, 0.06318274140357971, -0.09404114633798599, 0.03513002023100853, 0.06296491622924805, -0.010118793696165085, 0.004219095688313246, -0.02108863741159439, 0.044190604239702225, 0.03000904805958271, -0.0023576070088893175, 0.0011986257741227746, 0.051483914256095886, -0.05013928562402725, 0.0029951666947454214, 0.02705530636012554, -0.11682941019535065, -0.002291501732543111, -0.12314384430646896, -0.01446013618260622, 0.004005427472293377, 0.025794243440032005, -0.011040575802326202, -0.01813480071723461, -0.0008743055514059961, -0.055633991956710815, -0.07254833728075027, -0.047408439218997955, -0.06959547102451324, -0.019044842571020126, 0.09024172276258469, 0.07344835251569748, -0.017509812489151955, 0.050279825925827026, 0.03528816998004913, 0.013836003839969635, 0.06116148829460144, 0.07514968514442444, 0.020083587616682053, -0.0235904473811388, 0.08379394561052322, -0.017910823225975037, 0.039392486214637756, -0.03926251456141472, 0.010796766728162766, 0.07265599817037582, 0.0704348161816597, 0.014722825028002262, -0.09498268365859985, -0.02439035475254059, 0.19535203278064728, 0.0972086489200592, 0.026140179485082626, -0.08211485296487808, 0.03277672082185745, -0.06558766216039658, 0.1123010665178299, -0.10549075156450272, 0.00950184091925621, -0.020051512867212296, -0.07126568257808685, -0.04064176231622696, -0.0766221359372139, -0.0396851971745491, 0.03172165900468826, 0.07718948274850845, 0.03556877374649048, -0.09423812478780746, -0.04357659071683884, 0.0025894262362271547], [-0.049742210656404495, -0.10323259979486465, -0.07337906211614609, -0.07668986916542053, -0.029570305719971657, -0.042135089635849, 0.15592919290065765, -0.03457815572619438, 0.10259982943534851, 0.10680139809846878, -0.05230807885527611, 0.027745166793465614, 0.12372832745313644, -0.019090957939624786, -0.012576533481478691, -0.0039492337964475155, 0.04528456926345825, 0.03639640659093857, -0.031087882816791534, -0.0362483486533165, 0.11076119542121887, 0.21967101097106934, -0.0016846609069034457, 0.001417347346432507, 0.12032920867204666, -0.060876909643411636, 0.07194245606660843, -0.15062882006168365, -0.049418557435274124, 0.09075917303562164, -0.03664163872599602, 0.050723183900117874, -0.034463342279195786, -0.07589415460824966, -0.09956123679876328, -0.021526921540498734, 0.0020639109425246716, -0.01195463351905346, -0.08241849392652512, 0.05909767374396324, 0.07820011675357819, 0.07305163890123367, 0.0561104416847229, -0.004833830986171961, 0.025882484391331673, 0.033534757792949677, 0.06653274595737457, -0.05985593795776367, -0.08632422983646393, -0.09541504085063934, -0.009007052518427372, -0.024158900603652, -0.004486221354454756, -0.08632834255695343, -0.0097582982853055, 0.06346798688173294, -0.10178343951702118, 0.03018086589872837, -0.036991070955991745, 0.005696160718798637, -0.0538586750626564, 0.05429418385028839, -0.02576350048184395, 0.032354630529880524, 0.0429479219019413, -0.07267822325229645, -0.013105872087180614, -0.06082834675908089, 0.01087731309235096, -0.11473672091960907, -0.028110312297940254, -0.008703181520104408, -0.06916139274835587, -0.1412409394979477, -0.06188616156578064, -0.07469309866428375, -0.005307372659444809, 0.09011198580265045, 0.025534873828291893, -0.020381025969982147, -0.0403154194355011, -0.01526263915002346, -0.04617176577448845, -0.00137446285225451, 0.06211816146969795, 0.08404979854822159, -0.11310335993766785, 0.027388233691453934, -0.19519726932048798, 0.04026253893971443, 0.0665966346859932, -0.03014512173831463, 0.05002119392156601, -0.04651470482349396, -0.019064005464315414, -0.022943414747714996, 0.026600467041134834, 0.050882503390312195, 0.13379023969173431, -0.015734713524580002, 0.06364239752292633, -0.06436040252447128, -0.09842602908611298, 0.07308217883110046, -0.02019537054002285, -0.05565971881151199, 0.010230573825538158, 0.036436885595321655, 0.019090861082077026, -0.04777441918849945, 0.022517794743180275, 0.11200512945652008, 0.06547275185585022, 0.0056781163439154625, -0.05607781931757927, -0.08178826421499252, 0.027645958587527275, 0.12885046005249023, -0.007818031124770641, 0.04259447380900383, -0.013756983913481236, -0.0005347357364371419, 0.04571077227592468, 0.007871277630329132, 0.0373663604259491, 0.006820584647357464, 0.04546497017145157, -0.09256322681903839, 0.0687236487865448, -0.04276413843035698, 0.01506099384278059, 0.017693281173706055, 0.022663092240691185], [-0.18208011984825134, -0.08639828860759735, -0.039490461349487305, -0.023056788370013237, -0.1444573998451233, -0.0028606767300516367, 0.11200671643018723, -0.012386309914290905, 0.043516915291547775, -0.06744389235973358, -0.02686263434588909, -0.0800497755408287, -0.12843115627765656, 0.02922123670578003, -0.13919447362422943, -0.013456510379910469, -0.026278292760252953, -0.04591376706957817, 0.054383691400289536, -0.04386460408568382, -0.08904566615819931, 0.07112441956996918, 0.04769301787018776, -0.04270423948764801, -0.2835763990879059, 0.04018811136484146, -0.07815833389759064, -0.16253158450126648, -0.022477637976408005, -0.17088936269283295, -0.08147186785936356, -0.016799062490463257, 0.05158790573477745, 0.056678302586078644, -0.027864575386047363, -0.053766485303640366, -0.09257619827985764, 0.03895120695233345, 0.014756849966943264, -0.05827014148235321, 0.058125659823417664, -0.08155374974012375, -0.020766310393810272, 0.024086439982056618, 0.055832259356975555, 0.00972211267799139, 0.09889160841703415, -0.014451536349952221, 0.0015787266893312335, -0.05029255151748657, 0.028246920555830002, -0.031833332031965256, -0.07100953161716461, 0.05453837662935257, -0.004393379669636488, -0.04548068344593048, 0.03972847759723663, -0.0402187742292881, -0.0933898389339447, 0.08382684737443924, 0.027817387133836746, 0.044320330023765564, -0.09889853000640869, 0.04098069295287132, -0.007233215030282736, -0.0601813867688179, -0.07583381980657578, 0.03912155702710152, 0.057087384164333344, 0.0027632724959403276, -0.017939606681466103, -0.007036192342638969, -0.00502723129466176, 0.018785633146762848, -0.05627092719078064, -0.004011806566268206, 0.002646431792527437, 0.07402845472097397, 0.019302383065223694, -0.008903424255549908, 0.049009475857019424, -0.02122689038515091, 0.025304192677140236, 0.005328707862645388, 0.005281437188386917, 0.03308481350541115, 0.07235087454319, 0.03068380057811737, 0.009709848091006279, -0.05892889201641083, 0.12104079127311707, 0.12279398739337921, 0.008320745080709457, -0.006194842513650656, 0.13466377556324005, -0.0430416613817215, -0.14498695731163025, -0.03690597414970398, -0.005107145756483078, 0.04625445604324341, 0.012960286810994148, 0.04163258522748947, 0.03565363585948944, -0.0204278826713562, 0.03541494533419609, 0.007276366464793682, 0.052242375910282135, 0.03758076950907707, -0.00681319972500205, -0.06328891962766647, -0.05868786200881004, 0.10358154028654099, 0.07303904742002487, 0.09227746725082397, 0.003692739875987172, -0.027872225269675255, 0.021047396585345268, 0.03054892271757126, -0.044914595782756805, -0.06374388188123703, 0.054028406739234924, -0.02662793919444084, -0.051665764302015305, -0.07723096758127213, -0.07658705860376358, -0.05934450775384903, 0.03418055176734924, -0.049956612288951874, -0.016412924975156784, -0.0028297181706875563, 0.03368088975548744, 0.06825418770313263, -0.041943252086639404], [-0.0575261116027832, 0.019041407853364944, -0.07060059159994125, 0.019194232299923897, 0.007286570500582457, 0.08675017952919006, 0.045136790722608566, 0.0935831293463707, -0.09245660901069641, 0.1004025936126709, -0.0525948740541935, -0.022583793848752975, 0.02753118798136711, 0.00521483551710844, 0.016036324203014374, 0.032725367695093155, 0.009086553007364273, 0.08008351176977158, -0.005243820603936911, -0.0016165142878890038, 0.01633870229125023, -0.021718481555581093, 0.09136349707841873, 0.14015622437000275, -0.02558980882167816, -0.004622308071702719, 0.027925614267587662, 0.0002799484063871205, 0.1083197370171547, 0.08117618411779404, -0.034498345106840134, -0.03339576721191406, -0.03079519234597683, 0.0037967341486364603, 0.017681295052170753, -0.02935963310301304, -0.007454812526702881, -0.059254709631204605, 0.09319505840539932, 0.15287256240844727, -0.007017499767243862, 0.06273598968982697, 0.07656251639127731, -0.009686806239187717, 0.02672773413360119, 0.06022455170750618, 0.08432313054800034, 0.010599687695503235, -0.010093841701745987, 0.003874676302075386, -0.005428529344499111, -0.044149260967969894, -0.0953177809715271, 0.01799485832452774, 0.0484655387699604, -0.07579336315393448, -0.09591306746006012, -0.025794189423322678, 0.05149613320827484, 0.08107694238424301, 0.03067806363105774, -0.049918197095394135, 0.13300444185733795, -0.030307380482554436, 0.02574436366558075, 0.006920574698597193, 0.02504292130470276, 0.010830072686076164, -0.08562303334474564, 0.012757543474435806, 0.013178599067032337, 0.06135433167219162, 0.04503969848155975, -0.07739751040935516, -0.0480288565158844, 0.09818762540817261, -0.08143987506628036, 0.10207872837781906, 0.002319185296073556, 0.027047740295529366, -0.1320749968290329, -0.006853265222162008, 0.00021908388589508832, -0.022929850965738297, -0.0592573806643486, -0.0863390564918518, -0.04738231003284454, 0.033904243260622025, -0.06471159309148788, -0.1205642819404602, 0.2892780303955078, 0.11320824176073074, 0.1842597872018814, 0.060270339250564575, 0.14276663959026337, -0.06738564372062683, 0.059354543685913086, -0.00607301527634263, -0.055235035717487335, -0.03632595017552376, -0.08311372250318527, 0.04299437254667282, 0.011583657935261726, 0.01712147518992424, -0.14153407514095306, 0.05811970308423042, -0.015537774190306664, -0.02911408618092537, -0.05019799619913101, 0.01589401811361313, -0.06566981226205826, -0.030634703114628792, 0.023222608491778374, 0.04471256211400032, 0.06129021197557449, 0.06148603558540344, -0.09064048528671265, 0.03841567412018776, -0.051155153661966324, -0.02793170139193535, -0.04162321984767914, -0.05924966558814049, -0.02408335730433464, -0.01664159819483757, 0.04839380457997322, -0.05287552624940872, 0.08458595722913742, 0.04890364781022072, -0.005878560245037079, -0.038100846111774445, 0.06929606944322586, 0.004629057832062244, 0.04897014796733856], [0.01674051582813263, 0.017339980229735374, -0.04851194843649864, 0.004693463444709778, 0.02037854678928852, -0.042377445846796036, 0.14218571782112122, -0.04798124358057976, -0.014898201450705528, 0.12171897292137146, 0.07191688567399979, 0.04548316076397896, -0.0627594143152237, -0.028775855898857117, 0.08805909752845764, -0.08041910082101822, 0.010406254790723324, -0.052521925419569016, 0.060544468462467194, -0.010630755685269833, -0.03371020779013634, 0.11793411523103714, 0.03614325076341629, 0.035700686275959015, -0.024139469489455223, 0.03926264867186546, -0.040154967457056046, -0.07053510844707489, -0.008367707021534443, 0.046419158577919006, 0.006645981688052416, -0.06265939772129059, -0.004838075954467058, 0.0802810788154602, -0.04176601767539978, 0.013041751459240913, -0.06953922659158707, 0.03357534855604172, 0.0027922019362449646, 0.038500141352415085, -0.03346069157123566, 0.014717169106006622, -0.10354912281036377, 0.056127917021512985, 0.08031085878610611, 0.08259592205286026, 0.032848283648490906, 0.046878792345523834, 0.0064694201573729515, -0.08797832578420639, -0.04618285596370697, -0.00835291389375925, -0.042785268276929855, -0.06305588036775589, -0.18257546424865723, -0.08261995017528534, -0.02926081046462059, -0.05998995155096054, -0.019783414900302887, -0.11366058140993118, -0.04068329185247421, 0.06565377116203308, 0.04525842145085335, 0.07203170657157898, -0.05788281559944153, -0.06134624034166336, 0.013798903673887253, 0.04124999791383743, -0.04745606705546379, 0.03210727497935295, 0.08150685578584671, -0.045191001147031784, 0.020567096769809723, -0.05133740231394768, -0.001397608662955463, -0.04445536434650421, -0.035443492233753204, 0.06469973921775818, 0.005163318943232298, 0.10575857013463974, 0.04625708609819412, -0.055626045912504196, -0.023610113188624382, 0.0607694648206234, -0.08574709296226501, -0.043889641761779785, -0.09247677028179169, -0.04341772943735123, -0.05039198324084282, -0.036633823066949844, -0.02020493522286415, 0.036344263702631, -0.08027654141187668, 0.05409634858369827, 0.03711281716823578, 0.006647294387221336, -0.09455379843711853, 0.027570437639951706, -0.16516651213169098, 0.05069826543331146, -0.03279172629117966, 0.0759870707988739, -0.011682678945362568, -0.1748967319726944, -0.02465701475739479, 0.05321739986538887, 0.053821004927158356, 0.08246546238660812, -0.019925273954868317, -0.06448282301425934, 0.07337121665477753, -0.01802755892276764, -0.07727646082639694, -0.057489555329084396, 0.03655898943543434, 0.016245070844888687, -0.00043965454096905887, -0.07150671631097794, -0.17480719089508057, -0.017477665096521378, -0.02318068966269493, -0.14878465235233307, 0.037718161940574646, 0.012304156087338924, -0.10840386152267456, -0.057978495955467224, -0.07590876519680023, -0.07714087516069412, 0.08020474761724472, -0.04439382627606392, 0.0454011969268322, -0.05511478707194328, 0.0142892487347126], [0.38872087001800537, 0.10692234337329865, 0.15783490240573883, 0.08836319297552109, 0.05289909616112709, 0.03941408544778824, 0.09326612949371338, -0.044465161859989166, 0.07687830179929733, 0.009927619248628616, -0.009395377710461617, -0.02299591526389122, 0.1356157660484314, 0.03717074915766716, 0.14247561991214752, 0.113571897149086, 0.09787002950906754, 0.04605938494205475, 0.12731482088565826, 0.0678861141204834, -0.0016976743936538696, 0.1090734675526619, 0.06888818740844727, -0.015330199152231216, -0.0033118410501629114, 0.03461429104208946, -0.05534224957227707, 0.17911604046821594, -0.024455459788441658, 0.05369376763701439, 0.03502294421195984, -0.030204040929675102, 0.016351347789168358, -0.03306136652827263, -0.04514186084270477, 0.06613565981388092, 0.07418357580900192, -0.004618325270712376, -0.1381825953722, 0.11306284368038177, -0.033749911934137344, 0.015777306631207466, -0.20792919397354126, 0.03482984006404877, -0.07693484425544739, 0.1546827107667923, -0.024415411055088043, -0.10651323199272156, 0.05503084510564804, -0.10374708473682404, -0.014949757605791092, -0.036903828382492065, 0.025173714384436607, -0.08379936963319778, -0.07336059957742691, -0.04434909671545029, -0.03660781681537628, -0.5459559559822083, -0.26269423961639404, -0.0560436025261879, 0.05795459821820259, 0.10873863846063614, 0.045190244913101196, -0.10435990244150162, -0.10347004979848862, 0.020517760887742043, -0.017726203426718712, -0.015351551584899426, -0.10804685205221176, 0.015483176335692406, -0.08183000236749649, -0.06008494645357132, -0.1578461080789566, 0.0509868785738945, -0.0594666562974453, 0.06309756636619568, -0.07739091664552689, 0.032350923866033554, 0.0018138161394745111, -0.06059039756655693, -0.013918852433562279, -0.006639853119850159, -0.08233478665351868, -0.01374847162514925, 0.05959375202655792, -0.030300237238407135, -0.02891727164387703, -0.08173675090074539, 0.04465667903423309, -0.024482915177941322, 0.28728601336479187, 0.019805504009127617, -0.015903068706393242, 0.09474971145391464, 0.08482512831687927, 0.013570285402238369, 0.027792003005743027, -0.029883218929171562, -0.03835789114236832, -0.01133420318365097, -0.04767221957445145, -0.0823262631893158, 0.035283882170915604, -0.05029996857047081, 0.013487615622580051, 0.18927443027496338, -0.039008211344480515, -0.10774379223585129, -0.014945109374821186, -0.03793858736753464, -0.030406933277845383, -0.06597098708152771, 0.13683447241783142, 0.054766975343227386, 0.08637342602014542, -0.036323484033346176, 0.010156805627048016, 0.028311558067798615, 0.010341530665755272, 0.15535135567188263, -0.04753904044628143, -0.047516435384750366, -0.036671094596385956, 0.007306802552193403, 0.06472346931695938, -0.03640841320157051, -0.05397212132811546, 0.0809660330414772, -0.055491652339696884, 0.022738296538591385, -0.05144069716334343, -0.08045559376478195, 0.08612649887800217], [0.0020852729212492704, -0.05443398281931877, 0.0001621564879314974, -0.08822553604841232, 0.04338769614696503, -0.0795995369553566, -0.04633699730038643, 0.052528802305459976, 0.05447668954730034, -0.04397730529308319, -0.07090143114328384, -0.06176277995109558, -0.09032180160284042, -0.07079069316387177, 0.07562260329723358, -0.015366231091320515, 0.054552111774683, 0.07549865543842316, 0.00046382928849197924, -0.07968471199274063, -0.024417169392108917, -0.010394979268312454, -0.061158329248428345, -0.10045423358678818, -0.0024350567255169153, 0.05233661085367203, 0.09215009212493896, -0.09575150161981583, -0.015382674522697926, 0.05443739891052246, -0.03522886335849762, 0.07645538449287415, -0.019529150798916817, 0.031605493277311325, -0.010271411389112473, -0.010796122252941132, -0.0715005025267601, -0.08526420593261719, -0.0097772516310215, -0.09099806845188141, -0.008893290534615517, -0.09454625844955444, 0.04872533306479454, -0.06774085015058517, -0.08679863810539246, 0.0406983457505703, -0.004590820055454969, 0.008895697072148323, 0.011652556248009205, 0.029676970094442368, 0.040635909885168076, 0.024579867720603943, -0.03285606950521469, -0.003437259467318654, -0.08893970400094986, 0.027304448187351227, 0.055329978466033936, -0.008594615384936333, 0.06822870671749115, -0.05339357629418373, -0.06076058745384216, -0.08253216743469238, 0.016444114968180656, 0.06244654953479767, -0.07254424691200256, -0.11930709332227707, 0.017797332257032394, 0.019433358684182167, 0.04216194897890091, 0.04627285525202751, 0.015158770605921745, 0.0018114690901711583, -0.01911247707903385, 0.01901938207447529, -0.04503646865487099, 0.014829524792730808, 0.05201306939125061, 0.014048099517822266, -0.006330421194434166, 0.08328843861818314, -0.0072682686150074005, -0.013588445261120796, 0.07693573832511902, -0.08364913612604141, -0.053475216031074524, -0.024201933294534683, 0.005939190741628408, -0.052094727754592896, 0.03812205791473389, -0.09068430215120316, 0.0041381241753697395, 0.054931726306676865, 0.046802740544080734, 0.013589499518275261, -0.010428992100059986, -0.08300284296274185, 0.03023163042962551, -0.04363614693284035, 0.01532870251685381, -0.037753090262413025, -0.0725911557674408, 0.047181691974401474, -0.05656135454773903, 0.020822392776608467, 0.014669558964669704, 0.038586460053920746, -0.07617272436618805, 0.029217084869742393, 0.07096102833747864, 0.020967794582247734, -0.00036190016544424, 0.07157814502716064, 0.004944277927279472, -0.1003776267170906, 0.05487492308020592, 0.0308016836643219, -0.05274495854973793, -0.0775655210018158, -0.02901553548872471, -0.033556945621967316, -0.07194264978170395, -0.016942616552114487, 0.0596616305410862, 0.008282934315502644, 0.02613139897584915, -0.008563010022044182, -0.02424446865916252, -0.07624732702970505, 0.026902779936790466, 0.013663881458342075, 0.023548945784568787, 0.010485254228115082, 0.011939174495637417], [0.11552178859710693, -0.039707958698272705, -0.07477690279483795, 0.07926313579082489, -0.136104553937912, -0.016273371875286102, -0.08751027286052704, 0.024195292964577675, -0.08972442150115967, -0.05571318417787552, 0.07329055666923523, 0.03249269723892212, -0.007509747985750437, 0.009337309747934341, 0.057730671018362045, 0.11560428142547607, -0.09180798381567001, 0.11346550285816193, -0.003012802917510271, 0.07274896651506424, -0.010080764070153236, -0.09057191014289856, 0.03415698930621147, 0.045854806900024414, -0.05894554778933525, -0.008716583251953125, -0.064363494515419, 0.11010885238647461, -0.04997997730970383, 0.11776494979858398, 0.13922660052776337, 0.08752764761447906, 0.0990603044629097, -0.018470004200935364, -0.038681577891111374, 0.012786850333213806, 0.02066819928586483, -0.08152642846107483, 0.02229377068579197, 0.04357188567519188, -0.06604404002428055, 0.04991208016872406, 0.005462125409394503, -0.0012528765946626663, 0.03214332088828087, -0.002694650087505579, 0.0030698201153427362, -0.1269741803407669, 0.0674264058470726, 0.011972307227551937, 0.032827917486429214, -0.059977300465106964, -0.014283012598752975, -0.0032649359200149775, 0.0272357314825058, 0.08227717131376266, -0.017671113833785057, -0.05032462626695633, -0.07701166719198227, -0.005993845406919718, 0.11484503000974655, 0.006207378581166267, -0.08540143817663193, -0.0016539896605536342, 0.06463396549224854, 0.06398613750934601, -0.041454948484897614, 0.01934747025370598, 0.10530732572078705, 0.04091354086995125, -0.05289939418435097, -0.052055563777685165, 0.11428408324718475, 0.07230744510889053, -0.09366362541913986, -0.06406578421592712, -0.10366957634687424, -0.0872504860162735, 0.08083692938089371, -0.022384807467460632, -0.12085849046707153, -0.03861106187105179, -0.027759501710534096, 0.016673028469085693, 0.1104872077703476, -0.050265487283468246, 0.07180274277925491, 0.03535513952374458, 0.09870459139347076, 0.01724291406571865, -0.08687563240528107, -0.01876591332256794, -0.02689635567367077, -0.0038577173836529255, 0.06236818805336952, -0.05390739440917969, -0.06365178525447845, -0.05959746614098549, 0.022141408175230026, -0.027151716873049736, 0.04811118170619011, 0.005199163220822811, -0.18616728484630585, -0.04675627872347832, 0.1054045781493187, -0.029579002410173416, 0.011939018964767456, 0.01968887634575367, 0.008236031979322433, -0.06281977146863937, -0.04184355586767197, -0.1111779734492302, -0.07091426849365234, -0.011638243682682514, -0.0021202510688453913, 0.03378214314579964, -0.04181978106498718, 0.0599055290222168, 0.0039248052053153515, 0.08295832574367523, 0.028473420068621635, 0.030803540721535683, 0.11657263338565826, -0.0689619854092598, 0.06746356189250946, 0.06659054011106491, -0.014094136655330658, -0.07839367538690567, 0.048985257744789124, -0.07552693039178848, -0.027667801827192307, 0.006743182893842459, -0.0019577424973249435], [0.27748632431030273, 0.1307574063539505, 0.14834384620189667, 0.028434431180357933, 0.03983230143785477, 0.07412134855985641, -0.08578840643167496, -0.02656073495745659, 0.018482262268662453, -0.12089797854423523, -0.08648043870925903, -0.08150532096624374, -0.16137565672397614, -0.05319351330399513, 0.049432702362537384, 0.02951960079371929, 0.020085221156477928, 0.050624966621398926, 0.015545734204351902, 0.03783030807971954, 0.010593866929411888, -0.12469188868999481, 0.054406438022851944, -0.056211087852716446, -0.09574417769908905, 0.012989632785320282, 0.06108900159597397, -0.04079696163535118, -0.05374167114496231, -0.03711353987455368, -0.15725715458393097, -0.08954678475856781, -0.005864582024514675, -0.04170097038149834, -0.0497632659971714, -0.08533501625061035, -0.02855718322098255, 0.05941685661673546, 0.0060822078958153725, -0.07343640923500061, 0.0628504753112793, 0.013950282707810402, -0.02610948123037815, -0.015401218086481094, -0.204149067401886, 0.06835769861936569, -0.022526495158672333, 0.04656924679875374, 0.04588906094431877, -0.026261480525135994, -0.007556563708931208, -0.0511288121342659, -0.05412490293383598, -0.12025565654039383, -0.19587019085884094, 0.017164917662739754, 0.0181747917085886, 0.012566867284476757, -0.05819839984178543, -0.0002707903040573001, 0.0920310914516449, -0.05955229327082634, -0.007333506364375353, -0.0427292063832283, -0.08375603705644608, -0.0028287656605243683, -0.13046002388000488, 0.03388127684593201, -0.06589891016483307, 0.028255833312869072, 0.06579522043466568, -0.1294301599264145, -0.04400065913796425, -0.03121102787554264, 0.0451364740729332, -0.04599373787641525, 0.038747549057006836, -0.005890578031539917, -0.085890032351017, 0.009971548803150654, -0.03628099709749222, 0.1443490833044052, 0.016408879309892654, -0.05421037971973419, 0.037773288786411285, 0.0780598521232605, 0.018648341298103333, -0.004634337034076452, 0.0032753185369074345, -0.012246630154550076, -0.10758655518293381, -0.017642337828874588, -0.09205709397792816, -0.06496890634298325, -0.11596308648586273, -0.013163920491933823, 0.06332160532474518, 0.0769895389676094, 0.22408173978328705, -0.018565887585282326, 0.08361177146434784, 0.011773141101002693, 0.018261853605508804, 0.07834023982286453, 0.06263832747936249, 0.055634062737226486, -0.06924757361412048, -0.05214966461062431, 0.1049169972538948, 0.06720831990242004, -0.05547178536653519, 0.08946911990642548, -0.13370206952095032, 0.028231598436832428, 0.0697760134935379, 0.08647732436656952, -0.04792258143424988, -0.03819587826728821, -0.019874118268489838, -0.010595524683594704, -0.010043867863714695, 0.033358149230480194, 0.06030242145061493, -0.05937883257865906, -0.08531484752893448, 0.05852285027503967, -0.07364959269762039, 0.05905484780669212, -0.11748252809047699, 0.021480031311511993, 0.024706948548555374, 0.04575711116194725, 0.057884614914655685], [-0.13300871849060059, -0.12881696224212646, -0.08821365237236023, 0.0268251933157444, 0.00026325322687625885, 0.017790809273719788, -0.004461218602955341, -0.030084574595093727, 0.03911915048956871, 0.03236920386552811, -0.042768444865942, 0.00986374169588089, 0.040733110159635544, 0.02560761570930481, 0.050411541014909744, -0.05327501893043518, 0.03961025923490524, -0.04494098573923111, -0.04304536432027817, -0.039640940725803375, -0.0007968538557179272, 0.03835092857480049, -0.0008476714720018208, 0.004070837050676346, 0.1741020828485489, 0.040118761360645294, -0.12759287655353546, 0.09118065983057022, -0.04943942278623581, 0.151949942111969, -0.025759844109416008, -0.039096083492040634, -0.11035103350877762, -0.11111992597579956, -0.022379139438271523, -0.0019068119581788778, 0.056080590933561325, 0.030161218717694283, 0.14576739072799683, 0.1901906579732895, 0.020658990368247032, -0.13300706446170807, 0.09692999720573425, 0.11907561123371124, 0.1273672878742218, -0.06643976271152496, 0.06504526734352112, 0.037083324044942856, -0.05054875835776329, -0.007030012086033821, -0.042034175246953964, 0.1509605348110199, 0.00240612355992198, 0.06643909215927124, 0.12148062884807587, -0.03329916670918465, -0.03505822643637657, 0.038716573268175125, -0.009905134327709675, -0.06955241411924362, -0.0016150695737451315, 0.08225817233324051, -0.027722256258130074, 0.06692768633365631, -0.07607518136501312, -0.0878107026219368, -0.08007409423589706, 0.07643423229455948, 0.026072895154356956, 0.1007305234670639, -0.016907688230276108, 0.036854613572359085, -0.11520592123270035, -0.06373976171016693, -0.017521005123853683, -0.02720319665968418, 0.04861396178603172, -0.0037794264499098063, 0.044930607080459595, 0.033616889268159866, 0.056533511728048325, 0.031759005039930344, 0.020984573289752007, -0.0775521770119667, -0.058650385588407516, 0.0019483648939058185, -0.1062125489115715, -0.001433192752301693, 0.015587707981467247, -0.0360892191529274, -0.002497584791854024, 0.026703914627432823, 0.004994893912225962, 0.1359022557735443, -0.026538100093603134, -0.019958999007940292, -0.035636164247989655, -0.036636874079704285, -0.011514044366776943, -0.029074374586343765, 0.07654262334108353, -0.018766462802886963, 0.047618865966796875, -0.10213819146156311, 0.06694933027029037, -0.02861604653298855, -0.03183332085609436, 0.01354430615901947, -0.023837238550186157, -0.03925776481628418, 0.06842964142560959, 0.013399189338088036, -0.01490762084722519, -0.010242988355457783, -0.01587902009487152, 0.03295842558145523, 0.010547143407166004, -0.17880283296108246, 0.07615439593791962, 0.09776687622070312, 0.01776077039539814, -0.07850723713636398, 0.19826644659042358, -0.06936103105545044, 0.0056775351986289024, -0.01934872381389141, -0.051990658044815063, 0.0049104513600468636, -0.0003736623621080071, -0.09156600385904312, -0.04600580781698227, -0.04866469278931618, 0.01781352050602436], [-0.08544548600912094, -0.0009015275863930583, -0.020438263192772865, -0.08801048249006271, -0.0031692557968199253, -0.07521586120128632, 0.21040207147598267, -0.011186554096639156, -0.05531790480017662, 0.10689188539981842, 0.06361707299947739, -0.049485329538583755, 0.09066558629274368, 0.012460839003324509, 0.09812495112419128, 0.22449031472206116, 0.04145025089383125, 0.15850669145584106, 0.033309731632471085, -0.026845062151551247, 0.02574828825891018, 0.09977057576179504, 0.00794391892850399, 0.06771854311227798, 0.09105288982391357, 0.02456492930650711, -0.13714556396007538, 0.027178503572940826, 0.07078678160905838, 0.03323211148381233, 0.1643846482038498, -0.05874833092093468, 0.03051573410630226, 0.015568655915558338, 0.055891335010528564, 0.03963352367281914, 0.03037964552640915, 0.06642141938209534, -0.03127430006861687, -0.11349597573280334, 0.05570950359106064, -0.030809223651885986, -0.011377403512597084, 0.03839707374572754, 0.06164539232850075, -0.11792045086622238, -0.025052502751350403, -0.04244016855955124, 0.04760412499308586, 0.06319870799779892, -0.026186831295490265, 0.03417322039604187, 0.005649905651807785, -0.14707091450691223, 0.06842894107103348, 