{"input_size": 133, "net.0.weight": [[-0.0317789651453495, 0.04161771759390831, -0.09773201495409012, -0.0528385266661644, -0.03114469349384308, -0.05307316780090332, -0.16260622441768646, 0.07993744313716888, -0.15228086709976196, 0.024064548313617706, -0.004847153089940548, -0.019195904955267906, -0.16731974482536316, 0.01435723714530468, 0.03093229979276657, 0.041089996695518494, 0.0033234774600714445, -0.03001195564866066, -0.08154727518558502, -0.12592481076717377, 0.019459273666143417, 0.12201226502656937, 0.10603448748588562, -0.032624732702970505, 0.029775748029351234, -0.06787224113941193, -0.020572828128933907, -0.033991798758506775, 0.020847851410508156, -0.012024437077343464, -0.10566315799951553, -0.18951500952243805, -0.20359478890895844, -0.17209571599960327, -0.19945678114891052, 0.23166483640670776, 0.14849315583705902, 0.05215387046337128, 0.04455471783876419, 0.00493363244459033, 0.041572604328393936, 0.11931407451629639, 0.008141960948705673, 0.006411145906895399, 0.03930510953068733, -0.011697378940880299, -0.07536005973815918, -0.08208446204662323, -0.12216001749038696, 0.016435030847787857, -0.03518284112215042, 0.16122837364673615, 0.07203207165002823, -0.059853505343198776, -0.028561552986502647, 0.007077039685100317, -0.04369731619954109, 0.03280118107795715, -0.052541445940732956, -0.07360422611236572, 0.036183152347803116, -0.00573594169691205, 0.049589596688747406, 0.0754135400056839, 0.025738907977938652, 0.06154746562242508, 0.0023861685767769814, -0.07869842648506165, -0.14669537544250488, -0.06355159729719162, 0.05886418744921684, -0.1310013383626938, -0.10322585701942444, -0.07373762130737305, 0.03487919643521309, -0.01885031722486019, 0.03320522606372833, -0.02179093100130558, -0.08120647072792053, -0.0016381304012611508, -0.0426887646317482, 0.1369999647140503, -0.04592830687761307, -0.0138694541528821, 0.1885012835264206, 0.04418345168232918, 0.03350021317601204, -0.0269707553088665, -0.0037718790117651224, 0.0929013341665268, -0.005836977623403072, -0.22802942991256714, -0.1343606561422348, -0.11497116833925247, -0.13360163569450378, 0.18831190466880798, 0.12047237157821655, 0.032723184674978256, 0.14972622692584991, 0.14769509434700012, 0.012869954109191895, 0.06372392922639847, 0.012355852872133255, 0.07633324712514877, 0.06267532706260681, -0.06530094146728516, 0.06555899232625961, -0.10519451647996902, 0.035132523626089096, -0.011369717307388783, 0.04267275333404541, -0.025336427614092827, -0.00013347827189136297, -0.0665569081902504, -0.060585081577301025, -0.035533394664525986, 0.03400970622897148, -0.05007576569914818, -0.09160611778497696, -0.06765846908092499, -0.035662319511175156, 0.1057971715927124, 0.0016786358319222927, 0.15687862038612366, -0.07936961203813553, -0.009908969514071941, -0.03919902816414833, 0.03970835357904434, -0.10236269980669022, -0.027402786538004875, -0.033839162439107895, 0.0708242878317833, 0.07360349595546722], [-0.039514098316431046, -0.10457247495651245, -0.03177272900938988, 0.011640207841992378, -0.042638521641492844, -0.12869596481323242, 0.127823144197464, 0.1271832287311554, 0.08301528543233871, -0.01222781091928482, -0.08602362126111984, 0.07291461527347565, 0.09416178613901138, 0.07983697950839996, 0.07636835426092148, -0.013956953771412373, 0.10663992166519165, 0.014388497918844223, 0.018232807517051697, -0.013988845981657505, 0.00550382724031806, -0.025753747671842575, 0.1373416930437088, -0.10513971000909805, -0.04575052484869957, 0.03149818629026413, -0.10018210113048553, 0.06906858831644058, -0.01081685721874237, -0.06726055592298508, -0.00601531658321619, 0.22977040708065033, 0.0685279369354248, 0.03876672312617302, 0.05037972703576088, -0.158309668302536, -0.02549831010401249, 0.11920490860939026, -0.048164017498493195, -0.0924462080001831, 0.04016340523958206, -0.0092399213463068, -0.028050649911165237, 0.03542092815041542, -0.07216310501098633, 0.06761680543422699, -0.00563449040055275, 0.022405609488487244, -0.04097053036093712, 0.13294529914855957, 0.00871204026043415, -0.09390852600336075, -0.13748693466186523, -0.019441721960902214, -0.09351666271686554, -0.0712895393371582, -0.04972418025135994, -0.030193215236067772, 0.02139265276491642, 0.0035988534800708294, -0.07274733483791351, -0.06781313568353653, -0.059012189507484436, -0.08354701101779938, 0.05493622273206711, 0.11370010673999786, 0.08752967417240143, 0.1161322072148323, -0.06050492078065872, -0.008678780868649483, 0.024404512718319893, 0.0561557412147522, 0.14937806129455566, 0.009129193611443043, 0.04930973798036575, 0.10303139686584473, 0.09270663559436798, -0.048385027796030045, -0.02803366258740425, -0.05750887840986252, 0.07348997890949249, -0.04042257368564606, -0.007076321169734001, -0.032207343727350235, 0.0027979491278529167, 0.01381569541990757, 0.04780222475528717, 0.0788407102227211, -0.09507249295711517, -0.012915240600705147, 0.032371263951063156, 0.22085915505886078, 0.06389656662940979, 0.21602317690849304, 0.14280547201633453, -0.12630595266819, -0.02585482783615589, 0.019761506468057632, -0.08523569256067276, -0.06038063392043114, 0.07316476106643677, -0.020931676030158997, 0.12520964443683624, -0.02834475226700306, 0.005049203988164663, 0.002735335612669587, -0.04303683713078499, 0.1560620367527008, 0.09381061047315598, -0.03148501366376877, -0.05575896427035332, 0.07935551553964615, 0.11772193014621735, -0.03349006548523903, -0.02851119078695774, -0.040171727538108826, 0.07253146171569824, -0.017896421253681183, -0.0060160038992762566, 0.01045544259250164, -0.042202629148960114, 0.009044775739312172, -0.13691717386245728, 0.02165764383971691, 0.014671948738396168, -0.05708899721503258, 0.07100022584199905, -0.007660144940018654, 0.12024478614330292, -0.05959217622876167, 0.10636704415082932, 0.017306985333561897, 0.07471157610416412], [-0.0050610750913619995, 0.001981769921258092, -0.08927147835493088, -0.055102232843637466, -0.0741022452712059, -0.023030327633023262, -0.04129892587661743, -0.03135756030678749, -0.09921759366989136, -0.059014953672885895, -0.021980885416269302, 8.246365177910775e-05, -0.08421596884727478, 0.00811722595244646, -0.06542304903268814, -0.025756310671567917, -0.08959348499774933, -0.0873749703168869, -0.060360606759786606, 0.0020265330094844103, 0.10395628213882446, 0.13460582494735718, 0.06695527583360672, 0.052182313054800034, -0.026888666674494743, 0.010395469143986702, 0.03925708681344986, 0.07602350413799286, -0.027240373194217682, -0.051688529551029205, 0.017494162544608116, -0.4795357882976532, -0.5969290733337402, -0.43623432517051697, -0.27884620428085327, 0.1984425038099289, 0.15491141378879547, -0.05625681206583977, -0.03557465225458145, 0.13988731801509857, -0.07635406404733658, -0.02963772788643837, 0.019851025193929672, 0.03719402104616165, -0.04402346536517143, -0.07480350881814957, -0.05829469487071037, -0.07118066400289536, -0.037772275507450104, -0.0017640275182202458, 0.04861856624484062, 0.15890394151210785, -0.10345587134361267, 0.11620045453310013, 0.08518321067094803, 0.0617506243288517, 0.00497254217043519, -0.02417248673737049, 0.11828052252531052, -0.00023784539371263236, 0.08130896836519241, -0.05411858856678009, 0.09135898947715759, 0.012490778230130672, 0.14372576773166656, -0.0526694618165493, -0.019657425582408905, 0.029592009261250496, -0.009672414511442184, 0.054965317249298096, 0.04751432687044144, 0.03453917056322098, -0.10769987851381302, -0.09183383733034134, -0.03072783723473549, 0.004345396999269724, 0.0603443905711174, 0.08410301804542542, 0.0029808771796524525, 0.09031973779201508, -0.006677309516817331, -0.05685168132185936, 0.048994749784469604, -0.10860618948936462, 0.024573497474193573, 0.04117120802402496, -0.06915288418531418, -0.1536988466978073, -0.04353513941168785, 0.107601597905159, 0.10545732825994492, -0.01119337696582079, 0.1991950124502182, -0.06935534626245499, 0.00843287818133831, -0.10633837431669235, 0.043595436960458755, -0.10258350521326065, -0.1770169883966446, -0.02112143114209175, 0.08355659246444702, 0.05025063455104828, -0.11938990652561188, -0.10063377022743225, -0.04553836211562157, -0.018632983788847923, 0.06934670358896255, -0.06845010817050934, 0.06580763310194016, 0.12788110971450806, -0.07872262597084045, -0.06078816205263138, 0.015646211802959442, -0.1324138641357422, -0.03798166289925575, -0.05330607295036316, 0.08339854329824448, 0.011369419284164906, 0.020833773538470268, 0.031639598309993744, 0.09902598708868027, 0.13093434274196625, 0.10577058792114258, 0.08560480922460556, 0.043243978172540665, 0.035737909376621246, 0.00987155083566904, -0.06750740855932236, 0.04804668575525284, -0.031213529407978058, 0.033373959362506866, 0.0773734524846077, 0.060781143605709076], [-0.17491307854652405, -0.09443654119968414, -0.21538116037845612, -0.2220502495765686, -0.20844052731990814, -0.07729395478963852, 0.0969197154045105, 0.10202997177839279, 0.14715909957885742, 0.0037031134124845266, -0.00455388892441988, -0.017864873632788658, -0.057948701083660126, -0.07321500033140182, 0.04452555626630783, 0.0785006657242775, 0.11518446356058121, 0.07178469747304916, 0.06377611309289932, -0.05750889331102371, -0.0829574391245842, -0.007520567625761032, -0.060799453407526016, -0.10561326891183853, 0.04453068599104881, -0.05189284309744835, -0.004504344426095486, -0.03149862214922905, -0.0902327448129654, -0.0046681612730026245, -0.007662235759198666, -0.016680194064974785, -0.05267326906323433, -0.03206795081496239, -0.0764935314655304, -0.12388520687818527, -0.020344868302345276, 0.004156101960688829, -0.10018296539783478, -0.0666537955403328, -0.05097594112157822, -0.10046065598726273, -0.10250119119882584, -0.020166877657175064, -0.06537741422653198, 0.06643760949373245, -0.021679921075701714, -0.011663408018648624, 0.050949275493621826, 0.10371189564466476, 0.003968348260968924, 0.0015016768593341112, 0.04029160365462303, -0.04373404011130333, -0.005961954593658447, 0.022201770916581154, 0.03623591363430023, -0.07204757630825043, 0.09865746647119522, 0.015987513586878777, 0.05730767920613289, -0.13787314295768738, -0.020623087882995605, 0.07400780916213989, 0.024306684732437134, 0.08060751110315323, 0.08383499085903168, 0.025652291253209114, 0.030521783977746964, -0.055637799203395844, -0.010080436244606972, 0.06662202626466751, 0.10998222231864929, 0.02493998035788536, -0.004473390523344278, 0.044264864176511765, 0.051135532557964325, 0.08894824236631393, -0.014052534475922585, -0.029787501320242882, 0.035704366862773895, -0.050889838486909866, -0.1394856572151184, -0.05284442380070686, -0.0024655451998114586, -0.08561573177576065, -0.0029644088353961706, -0.0645599365234375, -0.05419367179274559, 0.05115312710404396, 0.0019583480898290873, 0.17264123260974884, 0.21529237926006317, 0.18048882484436035, 0.11934622377157211, -0.1824256181716919, -0.06931142508983612, -0.12152572721242905, -0.14745627343654633, -0.054644625633955, 0.021204140037298203, -0.06004423648118973, -0.07124383747577667, 0.009990389458835125, 0.04649703949689865, -0.010989528149366379, 0.08945681154727936, 0.029765237122774124, 0.03188638389110565, -0.017842425033450127, 0.023571398109197617, 0.05135434865951538, 0.050785716623067856, -0.06429722160100937, -0.0003411014040466398, -0.0001250747445737943, -0.006112476345151663, -0.10190849006175995, -0.11216215789318085, -0.04874119535088539, 0.08049490302801132, -0.01124522089958191, -0.14234305918216705, -0.0501859113574028, 0.023997744545340538, -0.05832646042108536, 0.07938491553068161, 0.13931553065776825, 0.052568379789590836, -0.08087946474552155, 0.006851066369563341, -0.051531605422496796, 0.03343026340007782], [0.024607138708233833, -0.09296154230833054, -0.5507333278656006, -0.5759853720664978, -0.5430238246917725, 0.182511568069458, 0.05674845352768898, 0.05379197746515274, 0.1690465211868286, 0.19335216283798218, 0.037049178034067154, 0.053723257035017014, 0.14194001257419586, 0.08039382100105286, 0.07578827440738678, 0.04282142221927643, -0.011996143497526646, 0.05479205772280693, 0.0021208145190030336, 0.007051507011055946, 0.038660645484924316, 0.055204007774591446, -0.03601508587598801, -0.14239558577537537, 0.04996035620570183, -0.08467622846364975, 0.04700498282909393, 0.024249769747257233, 0.004227428697049618, 0.0010265638120472431, 0.1017158180475235, 0.050629399716854095, 0.03804818540811539, 0.05195785313844681, 0.15010447800159454, -0.1809316873550415, -0.07876642793416977, -0.036396075040102005, -0.1747039258480072, -0.13132344186306, 0.007905892096459866, -0.02936158888041973, -0.09640851616859436, 0.04496249929070473, 0.03719427064061165, 0.09481651335954666, 0.08644144982099533, 0.1659604012966156, 0.03884536772966385, 0.00816579069942236, -0.027390412986278534, -0.04184100031852722, -0.05951672047376633, -0.04236359894275665, 0.004593313671648502, 0.03075912781059742, 0.0121321901679039, 0.010188347660005093, 0.06515514105558395, 0.0009223437518812716, 0.047292858362197876, 0.10112498700618744, 0.03504999354481697, 0.07518991827964783, -0.07267728447914124, -0.00683900061994791, -0.02140711061656475, 0.06514987349510193, 0.09125272929668427, 0.028774283826351166, -0.016423048451542854, -0.002854760969057679, -0.01760941371321678, -0.019902706146240234, 0.07380928099155426, -0.04428679496049881, 0.05523623153567314, 0.06050548329949379, -0.025756383314728737, 0.03845296427607536, 0.050064630806446075, 0.07435256242752075, -0.04964757338166237, -0.004644049797207117, -0.03736451640725136, 0.0704931765794754, -0.016130564734339714, -0.033392030745744705, -0.028294319286942482, 0.02057470567524433, 0.01879218779504299, 0.09018343687057495, 0.031929995864629745, 0.004668931011110544, -0.01668122410774231, -0.06668797880411148, -0.07379547506570816, -0.06845168769359589, -0.14527064561843872, 0.0012249600840732455, -0.008305438794195652, -0.06332343816757202, 0.010418781079351902, -0.06238351762294769, 0.1120874434709549, -0.11198025196790695, 0.03954027220606804, 0.07941725105047226, 0.03139152377843857, -0.04315374791622162, -0.04211737588047981, 0.06856163591146469, -0.07508812099695206, 0.015083457343280315, 0.06699202954769135, 0.07033301889896393, 0.03098784014582634, -0.012442600913345814, -0.033762890845537186, -0.005111022852361202, 0.10304582864046097, 0.06243554502725601, 0.053635723888874054, -0.06487774103879929, 0.07104791700839996, -0.08643308281898499, -0.06298738718032837, -0.04432840645313263, 0.031028155237436295, 0.07129877060651779, 0.05821522697806358, -0.03430372476577759, 0.09062707424163818], [0.134057879447937, 0.08277547359466553, 0.08598756790161133, 0.15559671819210052, 0.10806690156459808, -0.10304944217205048, -0.10501201450824738, 0.06736402213573456, -0.08504440635442734, -0.1130371168255806, -0.01309040654450655, 0.0005407309508882463, 0.010486610233783722, 0.09802070260047913, -0.00941353291273117, -0.026890849694609642, 0.03189227730035782, 0.10178395360708237, 0.07307668775320053, 0.0486934520304203, -0.030615976080298424, -0.09882920235395432, 0.13004930317401886, -0.13989514112472534, -0.11324965208768845, -0.006274390500038862, -0.07503531128168106, -0.06810880452394485, 0.03970302268862724, -0.06562015414237976, -0.005108369514346123, 0.024890901520848274, 0.0865732878446579, 0.1529443860054016, 0.1410471349954605, -0.09682795405387878, -0.03018423542380333, -0.00290362979285419, -0.08998008817434311, -0.09213273972272873, 0.07691988348960876, 0.102507583796978, -0.010936356149613857, 0.001143052359111607, -0.03154249116778374, -0.04677605256438255, 0.1583198755979538, 0.08803174644708633, -0.11709548532962799, 0.10134003311395645, 0.0252166036516428, 0.042733341455459595, 0.10436560958623886, 0.034335892647504807, -0.01891070231795311, -0.0858168751001358, -0.04400772601366043, -0.03479517623782158, 0.04868786409497261, 0.00843152217566967, -0.0819668397307396, 0.06288251280784607, -0.017235614359378815, -0.06486570090055466, -0.08919783681631088, -0.03900081291794777, -0.011202186346054077, -0.021702872589230537, -0.12898634374141693, -0.07514602690935135, -0.02139277569949627, 0.02484031207859516, 0.07135511189699173, 0.03441615402698517, 0.009036395698785782, 0.024435989558696747, -0.07706364244222641, -0.04360766336321831, 0.012487758882343769, 0.022879820317029953, 0.03163277730345726, 0.10127253085374832, -0.003002964425832033, -0.0024289172142744064, 0.043060801923274994, 0.027219604700803757, 0.09255900979042053, -0.022304194048047066, 0.10847774893045425, -0.03789302334189415, -0.0019536702893674374, -0.3109890818595886, -0.17512285709381104, -0.33367401361465454, -0.14035339653491974, 0.22289809584617615, 0.02961074933409691, 0.021503793075680733, 0.19774384796619415, 0.15977081656455994, -0.0065956879407167435, -0.12833333015441895, 0.15866504609584808, 0.09487565606832504, -0.02383819967508316, 0.035537660121917725, -0.04937603697180748, 0.02543233335018158, -0.013946541585028172, 0.06683311611413956, 0.04639790207147598, 0.0852881595492363, 0.07590371370315552, 0.00971045158803463, -0.024891817942261696, -0.0033483959268778563, 0.039559099823236465, 0.06689078360795975, -0.01848890259861946, -0.06174444407224655, 0.07381398975849152, -0.0376398041844368, -0.0716279074549675, 0.039690762758255005, -0.05558908358216286, -0.0866604745388031, -0.05445878580212593, 0.06916883587837219, 0.09707920998334885, 0.056947603821754456, -0.055725812911987305, 0.03625873476266861, 0.08632262796163559], [-0.04717683047056198, 0.10033547878265381, -0.051743630319833755, 0.020527757704257965, -0.06534388661384583, -0.22275176644325256, -0.08875376731157303, 0.07519277185201645, -0.06915231794118881, -0.04400578513741493, -0.040982685983181, -0.046369846910238266, -0.010649219155311584, 0.00554400309920311, -0.04020864516496658, 0.056836552917957306, 0.10222923010587692, -0.034049056470394135, 0.12353476881980896, 0.1450776904821396, -0.01671351119875908, -0.08321059495210648, 0.14023180305957794, -0.05912361294031143, -0.05249721556901932, -0.009039296768605709, 0.0361030250787735, -0.058198582381010056, -0.06860180199146271, -0.0699327290058136, 0.07304493337869644, -0.11020336300134659, -0.0985107570886612, 0.09467555582523346, -0.08772086352109909, 0.20201298594474792, 0.06582899391651154, 0.02174047939479351, -0.05188179016113281, 0.08570494502782822, 0.059220053255558014, 0.18994174897670746, -0.00047796094440855086, -0.0031080760527402163, -0.09063413739204407, -0.07879918068647385, 0.1257527619600296, -0.04869607090950012, -0.0570993646979332, 0.00483239209279418, -0.012684938497841358, 0.04125671088695526, 0.016478778794407845, -0.07868242263793945, -0.1077350601553917, 0.021654481068253517, 0.009021767415106297, -0.013484642840921879, -0.019229719415307045, -0.09711970388889313, 0.034019120037555695, -0.08786893635988235, 0.0110043128952384, 0.06439739465713501, 0.10843472927808762, 0.014687471091747284, -0.16060908138751984, 0.05648647993803024, -0.09149335324764252, -0.08728519827127457, 0.021531598642468452, -0.046720799058675766, -0.028898971155285835, -0.053227499127388, -0.0348881296813488, -0.009029684588313103, -0.01818964257836342, -0.024921471253037453, -0.010356033220887184, 0.01051140483468771, -0.030115287750959396, 0.14294271171092987, 0.05512801930308342, -0.049899302423000336, 0.0778283104300499, 0.049249205738306046, 0.018528146669268608, 0.0983748584985733, 0.00335259223356843, 0.029413288459181786, 0.03279126435518265, -0.1018621027469635, -0.057668834924697876, -0.052320029586553574, -0.1242755874991417, 0.2679726481437683, 0.2246972769498825, 0.03635544329881668, 0.17603763937950134, 0.05998178943991661, -0.06816598773002625, 0.021536311134696007, 0.047105174511671066, 0.062474388629198074, 0.07376035302877426, -0.005478073377162218, 0.15362000465393066, -0.030406959354877472, 0.12076018005609512, 0.11027301847934723, -0.04419517517089844, -0.010758761316537857, 0.07272272557020187, -0.09798017144203186, -0.08813320845365524, -0.08017875254154205, -0.020816512405872345, 0.07445986568927765, -0.12768229842185974, -0.004152390640228987, 0.01019018329679966, -0.056906431913375854, -0.15654928982257843, 0.11487487703561783, 0.023119701072573662, -0.024361761286854744, 0.0697125643491745, 0.06851854175329208, -0.014378352090716362, 0.03791460767388344, 0.004215142223984003, -0.041309576481580734, 0.08884225785732269], [-0.03903350606560707, -0.0831301286816597, -0.2275458127260208, 0.008028616197407246, -0.30170688033103943, 0.08931580185890198, 0.13046018779277802, 0.12690454721450806, 0.2202833741903305, 0.07199245691299438, -0.052261605858802795, 0.03662501648068428, 0.10355609655380249, -0.011664981953799725, 0.042783476412296295, 0.04748260974884033, 0.049431465566158295, -0.047327566891908646, -0.0029751728288829327, -0.08425086736679077, -0.006594144739210606, 0.03084486722946167, -0.016551831737160683, -0.004095979034900665, 0.05041518434882164, 0.08642254024744034, 0.038303591310977936, 0.052873145788908005, 0.0700417309999466, 0.016218440607190132, 0.07580661028623581, 0.1634746491909027, 0.10825779289007187, 0.12705190479755402, 0.0906214788556099, -0.23340106010437012, -0.09336983412504196, 0.053397323936223984, -0.16635346412658691, -0.022581852972507477, 0.030313365161418915, 0.039644353091716766, 0.06916025280952454, 0.0769825279712677, -0.00436638155952096, -0.16203519701957703, -0.21411295235157013, 0.09775998443365097, 0.03823480010032654, -0.36314627528190613, 0.05435856431722641, -0.008727655746042728, -0.013158333487808704, -0.11561685055494308, -0.02672017738223076, 0.02398575097322464, 0.06339294463396072, -0.06615632027387619, -0.04852541163563728, -0.05560142174363136, 0.005640984047204256, 0.046593617647886276, -0.06874547898769379, -0.01795007288455963, -0.09346722066402435, 0.07302657514810562, -0.008447248488664627, 0.04019733890891075, 0.0302469190210104, -0.06203574687242508, 0.07397957891225815, -0.017850302159786224, -0.06380447745323181, -0.0420345738530159, -0.027096128091216087, -0.020622925832867622, -0.011863990686833858, 0.12458202242851257, 0.09907371550798416, 0.13861654698848724, -0.07493525743484497, -0.07450142502784729, 0.02486950159072876, -0.008013004437088966, 0.00011347637337166816, -0.044192466884851456, 0.019272197037935257, -0.0516689270734787, 0.005328834522515535, 0.08622604608535767, 0.034746650606393814, 0.1275588572025299, 0.05727032572031021, 0.13680557906627655, 0.1043744683265686, -0.12049085646867752, -0.028850916773080826, -0.09168525785207748, -0.07582420855760574, -0.03160997852683067, -0.06891553848981857, 0.007812354248017073, 0.14763759076595306, 0.06506789475679398, 0.11108210682868958, 0.0209612138569355, 0.014544862322509289, 0.003054562956094742, -0.03275683894753456, -0.045514367520809174, -0.016052668914198875, 0.017610648646950722, 0.12314135581254959, -0.011099896393716335, 0.08495800197124481, -0.0019426899962127209, -0.010738163255155087, -0.07938668876886368, -0.11262939870357513, 0.017748117446899414, -0.03600606694817543, -0.07156117260456085, -0.007995237596333027, 0.1446755975484848, 0.13006016612052917, -0.03329753503203392, 0.01013998594135046, 0.12802231311798096, 0.08325225859880447, 0.02608289197087288, -0.0700606256723404, -0.02330881729722023, 0.04147981107234955], [0.08605577796697617, 0.01645234227180481, 0.05900213122367859, 0.0003335981455165893, 0.06711124628782272, -0.06910230219364166, -0.08472027629613876, 0.005025637801736593, 0.0742432251572609, 0.051155511289834976, -0.07534637302160263, -0.03649038448929787, 0.008923918008804321, 0.02505713514983654, -0.04646121710538864, 0.0200228039175272, -0.03442012891173363, 0.024299874901771545, 0.012300636619329453, -0.029314203187823296, -0.08660433441400528, 0.046841517090797424, 0.0384141243994236, 0.0030510073993355036, 0.06508321315050125, -0.07596378773450851, -0.06779307872056961, 0.04648016393184662, 0.04106258973479271, -0.05539010837674141, 0.02741275727748871, -0.05519408360123634, 0.048342518508434296, -0.010607300326228142, -0.04033849015831947, -0.00695376330986619, -0.019498007372021675, -0.014534647576510906, -0.03151810169219971, 0.008667277172207832, -0.01391332596540451, 0.04180336371064186, 0.018275219947099686, 0.035131968557834625, -0.07896184176206589, -0.002912432886660099, 0.03497171774506569, -0.08142895251512527, -0.015958428382873535, -0.024930808693170547, -0.06576249748468399, 0.008756794035434723, 0.06807872653007507, -0.018342966213822365, 0.03587846830487251, 0.00422046659514308, 0.054230861365795135, 0.014080398716032505, -0.07158859074115753, -0.010023738257586956, -0.0005904355202801526, 0.03903478756546974, -0.028974972665309906, -0.048776619136333466, 0.04456955939531326, -0.0316421203315258, 0.07232026010751724, -0.046604227274656296, -0.0645952820777893, 0.027617838233709335, 0.07749355584383011, 0.03940236195921898, 0.008214324712753296, -0.008918357081711292, -0.026555227115750313, 0.07300152629613876, -0.07372736185789108, 0.0652441680431366, -0.061878129839897156, -0.0028866941574960947, -0.026396287605166435, -0.04350345954298973, -0.05129168927669525, -0.08047984540462494, -0.0761806070804596, 0.015559361316263676, 0.006022225134074688, -0.002727797720581293, -0.013073350302875042, 0.07250093668699265, 0.02470904402434826, 0.007058216258883476, 0.004686468280851841, -0.03410014137625694, -0.06628062576055527, -0.046520449221134186, 0.08207539469003677, -0.01738233119249344, -0.019069435074925423, -0.03449719771742821, -0.06738027185201645, -0.05379784479737282, 0.057681530714035034, 0.061416976153850555, -0.062497518956661224, -0.035595014691352844, 0.040753159672021866, -0.08554189652204514, 0.022404713556170464, 0.02870064415037632, -0.0598711222410202, -0.019204607233405113, -0.006237756926566362, 0.004506856668740511, -0.0663914903998375, 0.022218041121959686, 0.051648035645484924, 0.017780575901269913, 0.05323674529790878, 0.0006180656491778791, -0.023482931777834892, -0.06255845725536346, 0.042231276631355286, -0.09437480568885803, -0.024636507034301758, -0.01713055931031704, 0.08451109379529953, -0.08605252951383591, 0.035743843764066696, -0.0012698292266577482, 0.02558828704059124, -0.024057023227214813, -0.06445865333080292], [-0.15852610766887665, -0.17147724330425262, -0.25672826170921326, -0.13140971958637238, -0.26354703307151794, 0.13919885456562042, 0.08884783834218979, 0.09902825951576233, 0.1276395171880722, -0.002643708372488618, -0.012536769732832909, -0.0218842513859272, -0.03973788022994995, -0.0801708921790123, 0.01410431694239378, -0.04591287299990654, -0.05466153472661972, -0.058213409036397934, -0.027550123631954193, -0.046788617968559265, 0.12910321354866028, 0.07804348319768906, -0.10616515576839447, 0.09153260290622711, 0.09880701452493668, 0.08605766296386719, -0.04815543070435524, 0.07100674510002136, -0.11128675192594528, 0.05796793848276138, -0.2383159101009369, -0.38535088300704956, -0.23979298770427704, -0.39544302225112915, -0.35320982336997986, 0.2296547293663025, 0.10187987983226776, -0.05643096938729286, 0.05014251545071602, 0.007620517630130053, -0.07848923653364182, 0.07143107801675797, -0.03268525004386902, -0.0338120236992836, -0.041478924453258514, -0.12382155656814575, -0.10875435173511505, -0.10382593423128128, -0.057369060814380646, -0.09364806860685349, -0.0077278525568544865, 0.06532884389162064, -0.07554135471582413, -0.02357758767902851, 0.09274967759847641, -0.05773577839136124, -0.13078929483890533, -0.09857449680566788, -0.026427781209349632, 0.048003409057855606, 0.13102160394191742, -0.04914933070540428, 0.053501710295677185, -0.012456325814127922, -0.06992918998003006, -0.017481179907917976, -0.07792650163173676, 0.01062094047665596, -0.1109243780374527, -0.11802302300930023, 0.06557223945856094, 0.009344319812953472, -0.08897683024406433, -0.09485676884651184, -0.035692475736141205, 0.06657083332538605, 0.10836099088191986, -0.021309353411197662, 0.037569280713796616, -0.1319097876548767, 0.04596256464719772, -0.04128887131810188, -0.040865711867809296, -0.01693403534591198, 0.03809697553515434, -0.04651184752583504, -0.07120094448328018, -0.13560150563716888, -0.008882289752364159, 0.11024888604879379, 0.10968014597892761, 0.03819820284843445, -0.005398380104452372, 0.1124858558177948, -0.01315112505108118, -0.12446216493844986, -0.016392378136515617, -0.006080649793148041, -0.1276608109474182, -0.08198552578687668, -0.06467995047569275, 0.0386558473110199, -0.06497801095247269, -0.05197998881340027, 0.012940413318574429, -0.017418090254068375, 0.038570184260606766, 0.01658286713063717, 0.12944841384887695, -0.008755771443247795, 0.08817577362060547, 0.06712178140878677, 0.020850175991654396, -0.14113517105579376, 0.057303816080093384, 0.047799818217754364, -0.06770914793014526, -0.10108790546655655, -0.008135570213198662, 0.05011466145515442, 0.08601237088441849, 0.0497545450925827, 0.01368771493434906, 0.01294684037566185, 0.08765234798192978, 0.018587928265333176, -0.06495610624551773, -0.011791757307946682, -0.034088946878910065, -0.0315922275185585, 0.057561781257390976, 0.05508339777588844, -0.006469842046499252], [-0.1811354160308838, -0.5373413562774658, -0.5715557336807251, -0.6409586071968079, -0.5595710277557373, 0.24184679985046387, -0.33572709560394287, 0.08847636729478836, 0.10139670968055725, 0.09733755141496658, 0.08616059273481369, -0.0426441952586174, 0.14117269217967987, -0.04163791984319687, 0.10448123514652252, 0.03216010332107544, 0.03989161550998688, 0.03162597492337227, 0.027949756011366844, -0.04384112358093262, 0.10689519345760345, -0.1457422971725464, -0.09969694912433624, -0.12445023655891418, 0.04257615655660629, -0.012552347034215927, 0.012238272465765476, 0.08953779935836792, -0.0010424212086945772, 0.0194122102111578, -0.011342156678438187, -0.005594977643340826, -0.11962093412876129, -0.07000676542520523, -0.07410890609025955, -0.15599437057971954, 0.02038663439452648, 0.004685583990067244, -0.008263093419373035, -0.024485085159540176, 0.015928218141198158, -0.007860728539526463, 0.013767527416348457, 0.031897008419036865, 0.0583445280790329, 0.0444057397544384, 0.03922785818576813, 0.09192074090242386, 0.02450932376086712, -0.134341761469841, -0.006716049741953611, 0.017961278557777405, -0.11506718397140503, 0.05030560865998268, -0.04674317687749863, 0.04627954959869385, 0.009104935452342033, 0.0219805296510458, 0.06578251719474792, 0.005264517851173878, 0.0012136760633438826, 0.01180272363126278, 0.04193440452218056, 0.05327024310827255, -0.03495461121201515, 0.06711965054273605, 0.08631771802902222, 0.028404943645000458, 0.03667084500193596, -0.03902236744761467, -0.02324840985238552, -0.11199101060628891, 0.07068659365177155, -0.023750290274620056, 0.0648486539721489, 0.08956437557935715, 0.04937019199132919, 0.04750638082623482, 0.10881638526916504, 0.12060025334358215, -0.042030707001686096, 0.04566231742501259, -0.0744570717215538, -0.0108938068151474, -0.013523387722671032, 0.06949867308139801, -0.018511859700083733, -0.008058566600084305, -0.055718984454870224, -0.059314314275979996, 0.06441640853881836, 0.05168159678578377, 0.17060250043869019, 0.08285853266716003, 0.09559858590364456, -0.09500431269407272, 0.023865073919296265, -0.09619171172380447, -0.09522274881601334, -0.08610721677541733, -0.018870214000344276, -0.03680116683244705, 0.03808131441473961, -0.023529576137661934, 0.12489979714155197, 0.045697372406721115, 0.03420329466462135, 0.07221803069114685, -0.016055716201663017, 0.019089337438344955, 0.08438654243946075, -0.1386251300573349, 0.034236785024404526, -0.008444564417004585, -0.007935682311654091, 0.0037497307639569044, 0.085856132209301, -0.10702667385339737, -0.034752242267131805, 0.09362122416496277, 0.0022430424578487873, 0.06087043881416321, -0.04074392467737198, -0.031007207930088043, -0.0010507062543183565, 0.07823379337787628, -0.07589579373598099, 0.10715445131063461, -0.07453843206167221, 0.0035563847050070763, 0.003367587924003601, 0.07214267551898956, 0.1383219212293625], [0.14746436476707458, 0.1485314965248108, 0.25201109051704407, 0.08872144669294357, 0.2536703944206238, -0.08925774693489075, 0.11210845410823822, -0.020811956375837326, -0.0830409973859787, 0.03360559418797493, -0.06437592208385468, -0.028249580413103104, -0.2225273996591568, -0.1589275449514389, -0.10938016325235367, -0.09689546376466751, -0.09752268344163895, 0.27203357219696045, 0.2329946607351303, 0.19670693576335907, -0.0238705575466156, -0.11125174909830093, -0.046549953520298004, -0.07682819664478302, -0.012295622378587723, 0.08223683387041092, -0.06024348735809326, -0.025082118809223175, 0.0025617603678256273, 0.045913275331258774, 0.05995019152760506, 0.07352006435394287, 0.10817207396030426, 0.015811948105692863, 0.00654497928917408, 0.033318158239126205, 0.046746186912059784, 0.03378184512257576, -0.1723702847957611, 0.028094058856368065, -0.037469688802957535, -0.029850637540221214, -0.1283305436372757, -0.04885481670498848, -0.021072110161185265, 0.028807105496525764, 0.12724007666110992, 0.12117764353752136, 0.024387074634432793, -0.09215371310710907, -0.050714295357465744, 0.0778244361281395, -0.093814916908741, 0.06875141710042953, 0.07992411404848099, 0.030141226947307587, 0.009793434292078018, 0.060888804495334625, 0.054096519947052, 0.04807054251432419, -0.0051401830278337, 0.09871874749660492, 0.01965007558465004, -0.057410143315792084, 0.08132049441337585, -0.0710839331150055, 0.002897923579439521, -0.03397577628493309, -0.00768014881759882, -0.02699361927807331, -0.07113774120807648, 0.0515613779425621, -0.06977346539497375, -0.05691130831837654, -0.001273361616767943, 0.06960323452949524, -0.10546909272670746, -0.02494766190648079, 0.1999913603067398, -0.16786393523216248, 0.12162889540195465, 0.08036148548126221, -0.10293412208557129, 0.02464255318045616, 0.04302607849240303, -0.0822429209947586, 0.0041521163657307625, 0.06366714090108871, 0.04752242565155029, 0.050398897379636765, 0.020805250853300095, 0.07604492455720901, -0.0017711559776216745, 0.019666459411382675, -0.02796739898622036, -0.12000780552625656, -0.01590096578001976, -0.016038596630096436, 0.016438869759440422, -0.06622067838907242, -0.08270668238401413, 0.01260538212954998, 0.02804400399327278, 0.09838099777698517, 0.11061783134937286, 0.09300054609775543, 0.38032418489456177, 0.063203364610672, -0.21459394693374634, 0.037097349762916565, 0.07457216829061508, -0.06103859096765518, -0.015284812077879906, -0.012524249032139778, 0.03607645630836487, -0.0489998534321785, -0.0029706594068557024, 0.05703200399875641, -0.007811405695974827, 0.03838786482810974, 0.027902357280254364, 0.01424028817564249, -0.13483747839927673, -0.061890389770269394, 0.01534907054156065, -0.025926942005753517, 0.0433536171913147, 0.014831718057394028, -0.11769844591617584, -0.02249324508011341, -0.14530323445796967, 0.027662597596645355, -0.04374087229371071], [0.027381757274270058, 0.06297831982374191, 0.1007489413022995, 0.09788882732391357, 0.04272918403148651, -0.029547452926635742, 0.013489127159118652, -0.05104878917336464, -0.07362400740385056, -0.08008843660354614, 0.035266708582639694, -0.011336748488247395, -0.08394593000411987, 0.08307884633541107, 0.015230224467813969, -0.1378154307603836, 0.01414473820477724, 0.15088994801044464, 0.1854468286037445, 0.14920306205749512, -0.22220417857170105, -0.10181844979524612, 0.09324296563863754, -0.0741405263543129, 0.0053709507919847965, 0.057182472199201584, -0.0696636214852333, -0.040336109697818756, 0.09765159338712692, -0.12808343768119812, 0.08759040385484695, 0.06358902156352997, 0.12589015066623688, 0.14702485501766205, 0.08656107634305954, -0.008808541111648083, 0.039124995470047, 0.04901815205812454, -0.06286302208900452, -0.04843143746256828, -0.050628699362277985, 0.043802402913570404, 0.027893122285604477, -0.009582947939634323, -0.1443755179643631, 0.0003639696806203574, 0.05138935148715973, -0.1465698927640915, 0.043323684483766556, 0.07876808196306229, -0.0841241404414177, -0.06838896125555038, 0.0582289956510067, 0.014564434997737408, -0.06429709494113922, 0.08597966283559799, -0.03216627612709999, -0.0442555770277977, -0.04579893499612808, -0.11026980727910995, -0.016430387273430824, 0.11188726872205734, 0.13035355508327484, -0.002890142844989896, -0.07394398748874664, -0.08764046430587769, -0.05777272582054138, -0.024038193747401237, -0.04612885043025017, -0.001957787899300456, 0.0468544065952301, -0.03371022641658783, 0.03874755650758743, 0.017641974613070488, 0.04323749989271164, -0.009276327677071095, -0.00945663545280695, 0.03286123275756836, 0.04000101611018181, -0.01054104883223772, -0.06655431538820267, 0.14521284401416779, -0.06591811031103134, -0.01642012409865856, 0.14349761605262756, 0.07284935563802719, -0.03255933150649071, 0.05328497663140297, 0.08692286163568497, -0.003288169391453266, 0.06410987675189972, -0.215267613530159, -0.240400493144989, -0.21494458615779877, -0.24756711721420288, 0.1894906908273697, 0.08731648325920105, 0.0219125933945179, 0.22308248281478882, 0.11013683676719666, 0.06990257650613785, -0.1350262612104416, 0.04978399723768234, 0.032394759356975555, 0.061651408672332764, -0.00846293568611145, -0.03489595651626587, -0.011802397668361664, -0.059073857963085175, -0.09191904962062836, 0.16085857152938843, 0.10210162401199341, 0.0699923187494278, 0.052785590291023254, -0.082472063601017, 0.014735004864633083, -0.11199777573347092, 0.08348012715578079, 0.026049399748444557, -0.05164868384599686, 0.05682627484202385, 0.07205379754304886, -0.034052178263664246, -0.023174701258540154, 0.0064316121861338615, 0.05518565699458122, 0.03261645510792732, -0.04675448685884476, 0.06698203831911087, 0.054024867713451385, -0.07197213917970657, -0.08547943085432053, -0.03417310118675232], [-0.042244065552949905, 0.10695618391036987, 0.030504995957016945, 0.07800205796957016, 0.0679522231221199, -0.06033031642436981, -0.015668682754039764, 0.049509402364492416, -0.15481296181678772, -0.09028226137161255, 0.0014501538826152682, 0.033836737275123596, -0.037491537630558014, 0.00010543949611019343, -0.06606382131576538, -0.011363301426172256, -0.09763719886541367, -0.06648346781730652, -0.04704364761710167, 0.09604846686124802, -0.03295614570379257, 0.08704133331775665, 0.13084903359413147, 0.13055722415447235, -0.07422284036874771, -0.03774278610944748, -0.039733290672302246, 0.015522615984082222, -0.04758325219154358, -0.03048980049788952, 0.002772437408566475, -0.47983673214912415, -0.5403867363929749, -0.5396162271499634, -0.36624887585639954, 0.23408862948417664, 0.07091103494167328, 0.04760501906275749, 0.028354885056614876, 0.16523075103759766, -0.07298886775970459, -0.0044748964719474316, -0.0005186793277971447, -0.02288259007036686, -0.06100345030426979, 0.04284296929836273, -0.10138114541769028, -0.0588102713227272, -0.017960630357265472, -0.0960296019911766, -0.012005172669887543, 0.01653471402823925, -0.014912966638803482, 0.13050547242164612, 0.07895871251821518, -0.0738992765545845, -0.014404159039258957, 0.04982996731996536, 0.11255735158920288, -0.0020122090354561806, 0.004951834678649902, 0.017085449770092964, -0.07002560049295425, 0.0017386022955179214, -0.007289328146725893, 0.009521917439997196, 0.04107355326414108, 0.01441225502640009, -0.09715917706489563, 0.06747101992368698, -0.02923741191625595, -0.12989592552185059, 0.01704135537147522, 0.07226473838090897, 0.07340314984321594, 0.015711460262537003, 0.06147493049502373, -0.052500370889902115, 0.035684920847415924, 0.055412888526916504, 0.03190810978412628, -0.0336938239634037, 0.10759633779525757, -0.025955619290471077, -0.0951666459441185, 0.023315783590078354, 0.01960255205631256, -0.019184255972504616, -0.09768875688314438, -0.06481286138296127, 0.07869654148817062, 0.15511208772659302, 0.17848935723304749, 0.22529590129852295, 0.1392430067062378, -0.12946516275405884, 0.01237837877124548, -0.00281124678440392, -0.13711659610271454, -0.1508997231721878, 0.05518876761198044, -0.05885022133588791, -0.1345037817955017, -0.1058739498257637, 0.020357348024845123, 0.0736088827252388, 0.062128499150276184, 0.15709835290908813, -0.03161122649908066, 0.0357121117413044, 0.03294133022427559, -0.08400657773017883, 0.029315456748008728, -0.07243341207504272, -0.10393844544887543, 0.04694139212369919, -0.054527249187231064, -0.015545154921710491, -0.07079803943634033, -0.07810354232788086, 0.0887361690402031, 0.024770595133304596, 0.06100445240736008, 0.08463885635137558, 0.008711515925824642, -0.04499945789575577, 0.04355225712060928, -0.024832522496581078, 0.005291035398840904, 0.04386952891945839, -0.022011468186974525, 0.04180005565285683, -0.022885635495185852], [0.01803768053650856, -0.03468148037791252, -0.08670342713594437, -0.06933677196502686, 0.026067325845360756, 0.04640008881688118, 0.015574142336845398, -0.028874022886157036, -0.07712742686271667, -0.05489559844136238, 0.07675591856241226, 0.030459720641374588, -0.017508748918771744, -0.050793446600437164, 0.0615716390311718, 0.07355885952711105, -0.08417598158121109, 0.018224745988845825, 0.05205032229423523, -0.0687950998544693, 0.06415953487157822, -0.008590570650994778, -0.03425231948494911, 0.01636360213160515, -0.03434504196047783, 0.07316607981920242, -0.04525155946612358, -0.05129126459360123, -0.02319376915693283, -0.041641369462013245, 0.06585253775119781, 0.041528910398483276, -0.010599165223538876, -0.0158088281750679, -0.032243404537439346, -0.02999134361743927, -0.03633968532085419, -0.05177249014377594, 0.0016332075465470552, 0.041372980922460556, -0.00022817356511950493, -0.08631783723831177, 0.02944227121770382, 0.01073392666876316, -0.03573525696992874, 0.062017861753702164, -0.00964707788079977, -0.00885423831641674, -0.013873880729079247, -0.02743169479072094, -0.007853839546442032, 0.048303790390491486, 0.07913129031658173, -0.0013218437088653445, -0.010169115848839283, -0.07573262602090836, -0.008364596404135227, 0.055786170065402985, 0.024221153929829597, -0.06928713619709015, 0.08523616939783096, -0.0030100943986326456, 0.046723101288080215, 0.0457749180495739, 0.030154922977089882, -0.08831771463155746, -0.030905725434422493, -0.027693618088960648, -0.029425622895359993, -0.07582072913646698, 0.08194845169782639, 0.011199265718460083, -0.06999114155769348, 0.013461547903716564, -0.11788415163755417, 0.008772422559559345, 0.048244792968034744, 0.08278827369213104, 0.06730064004659653, 0.08448333293199539, -0.03107956051826477, 0.053726304322481155, -0.08123207837343216, 0.049823444336652756, -0.049946535378694534, 0.07041307538747787, 0.04296771436929703, 0.046843916177749634, 0.01981068216264248, -0.09682702273130417, -0.061978694051504135, -0.011506184935569763, -0.013528239913284779, 0.07261457294225693, -0.038879599422216415, -0.04888731613755226, 0.0017194137908518314, -0.015386892482638359, -0.05268314853310585, 0.018145307898521423, 0.06370990723371506, 0.06654948741197586, 0.07429694384336472, -0.08016475290060043, -0.05509502440690994, 0.03617227077484131, -0.019870325922966003, -0.004965529777109623, -0.02206660807132721, 0.051812805235385895, -0.0008855476626195014, 0.02858394756913185, 0.02838054671883583, -0.047159817069768906, 0.05367407947778702, 0.061247680336236954, 0.07021759450435638, 0.008889921009540558, -0.05082831159234047, -0.014872170053422451, -0.10809781402349472, 0.02408277802169323, 0.005147648509591818, -0.12763634324073792, -0.006090718321502209, -0.02159474417567253, -0.06743426620960236, -0.10407830029726028, -0.007170983124524355, -0.04464312642812729, -0.0599062480032444, -0.0070608933456242085, 0.03209377080202103], [0.11167680472135544, 0.05863358452916145, 0.046888429671525955, 0.1413964182138443, 0.21742385625839233, -0.1255311816930771, -0.043618958443403244, 0.008068380877375603, -0.08349178731441498, -0.03955747187137604, 0.047060564160346985, 0.015893742442131042, -0.052389223128557205, -0.0451265387237072, 0.023173896595835686, -0.09852670878171921, 0.11069125682115555, 0.049359031021595, 0.05929362401366234, 0.12238046526908875, -0.018550217151641846, -0.12078560888767242, -0.004605215974152088, -0.1499430537223816, -0.09994088113307953, 0.05958305671811104, -0.011145750992000103, -0.012659582309424877, 0.02568650245666504, 0.054713983088731766, -0.0468510240316391, 0.08091659098863602, 0.048030633479356766, 0.0723271295428276, 0.06465143710374832, -0.1429603099822998, -0.04583291336894035, 0.05766843631863594, 0.02043784409761429, -0.023621561005711555, -0.08471446484327316, 0.016822541132569313, 0.10863812267780304, -0.004116039723157883, -0.01200172770768404, -0.07842960953712463, 0.0929538831114769, -0.09843864291906357, -0.09144040197134018, -0.03939519822597504, -0.02541300468146801, -0.02007550746202469, 0.00241276528686285, 0.005178521387279034, -0.10803476721048355, -0.0024002569261938334, -0.09627410024404526, -0.034316834062337875, 0.08614204078912735, 0.07794001698493958, 0.002596113132312894, -0.1062556654214859, -0.029066577553749084, 0.0914955884218216, -0.002336260164156556, 0.06538871675729752, 0.06553372740745544, 0.059264518320560455, 0.03348817676305771, -0.025612695142626762, 0.06566993147134781, -0.011481177061796188, 0.1173507422208786, 0.033675502985715866, 0.07977475970983505, 0.007776966318488121, 0.0009130440885201097, -0.029856307432055473, 0.016322720795869827, 0.04369087517261505, 0.0019229624886065722, -0.06084107607603073, 0.12774042785167694, -0.07585332542657852, -0.028675246983766556, -0.051273297518491745, 0.03364090621471405, -0.021085292100906372, -0.0343218669295311, -0.02734917402267456, 0.014985938556492329, 0.10366923362016678, -0.015379472635686398, -0.0015321053797379136, 0.17007404565811157, -0.1536579579114914, -0.033007074147462845, 0.01457494217902422, -0.09636814147233963, -0.0847363993525505, -0.04952385276556015, -0.10478281229734421, 0.09361115097999573, 0.03680712729692459, 0.02062101662158966, -0.0746394619345665, 0.05350120738148689, 0.0669582262635231, 0.01019485853612423, 0.018109697848558426, 0.04779815673828125, -0.053266871720552444, 0.024328751489520073, -0.1568458080291748, -0.10277476161718369, -0.06162562221288681, -0.03129692003130913, -0.05883798003196716, 0.009587137028574944, -0.054154910147190094, 0.014529393054544926, 0.053679969161748886, -0.07359902560710907, 0.1118321418762207, 0.10186896473169327, -0.04345770925283432, 0.030109886080026627, 0.10437232255935669, -0.05856072157621384, 0.04456779733300209, 0.021236764267086983, -0.08200106769800186, 0.08033498376607895], [0.0583890937268734, 0.005714723840355873, 0.06607544422149658, 0.0038515271153301, -0.05535771697759628, -0.04584763944149017, -0.10301589965820312, 0.030149217694997787, 0.0770183652639389, 0.03101096674799919, -0.042354073375463486, 0.048769574612379074, -0.04073000326752663, -0.07750943303108215, 0.04120427370071411, 0.00020194920944049954, -0.07798238098621368, 0.04947010427713394, 0.022420279681682587, 0.0007309057982638478, 0.02239440754055977, 0.016635874286293983, -0.0849921703338623, 0.056172654032707214, -0.08037390559911728, -0.06522177159786224, -0.006711190566420555, 0.044328268617391586, 0.053654566407203674, 0.06684784591197968, 0.018069420009851456, 0.012181556783616543, -0.025574831292033195, -0.06722307950258255, -0.057871002703905106, -0.0803622230887413, -0.08458909392356873, 0.045362163335084915, -0.04300588741898537, -0.019294962286949158, -0.062497567385435104, 0.04030332341790199, -0.0677265003323555, -0.04271747171878815, -0.017453819513320923, -0.02708824723958969, -0.06733279675245285, 0.014033211395144463, -0.07616817951202393, -0.03500817343592644, -0.022893043234944344, 0.04623502120375633, -0.05245000496506691, -0.0729118064045906, -0.06557467579841614, 0.08312943577766418, -0.05766836926341057, 0.054869674146175385, 0.023317499086260796, 0.03284505009651184, 0.041615843772888184, -0.050043102353811264, 0.018338263034820557, -0.04884151369333267, -0.06621284037828445, -0.06185615807771683, 0.0364052914083004, 0.061227574944496155, -0.03639732301235199, -0.04889814928174019, 0.018841363489627838, 0.016786644235253334, 0.07698129117488861, 0.020200662314891815, 0.059020720422267914, 0.003618650371208787, 0.07280223071575165, 0.0967482179403305, 0.05349182337522507, 0.027354924008250237, -0.003718447173014283, -0.026938481256365776, 0.033171746879816055, 0.06222360208630562, 0.03804735839366913, 0.0674847662448883, -0.07080207020044327, 0.019158123061060905, -0.03145425394177437, -0.05908140912652016, -0.06754100322723389, 0.033397119492292404, 0.08199980109930038, 0.027361849322915077, -0.06803373247385025, -0.011630215682089329, -0.0026437886990606785, 0.04593546688556671, -0.014426731504499912, 0.004595018923282623, 0.05540018528699875, 0.03516201674938202, 0.026204297319054604, 0.02965613268315792, 0.04361708462238312, 0.07394137233495712, -0.04907255247235298, -0.0751512348651886, -0.03726610541343689, -0.006102242041379213, -0.08407123386859894, -0.06704626977443695, -0.05351287126541138, -0.02192874625325203, -0.0710131973028183, -0.03545133396983147, -0.05912338197231293, 0.10150621086359024, 0.019600609317421913, 0.03732955828309059, -0.07638952136039734, -0.03526077792048454, -0.07812853157520294, 0.0527036190032959, 0.029575306922197342, -0.03554077446460724, -0.04015158861875534, 0.006983614061027765, 0.04096945747733116, 0.007830226793885231, -0.01601521670818329, 0.0028256764635443687, -0.09464523941278458], [-0.08375569432973862, -0.026306673884391785, -0.00010002656927099451, 0.0013461761409416795, 0.027646292001008987, -0.02315140888094902, -0.09067986905574799, 0.04713623225688934, 0.03708281368017197, 0.11332562565803528, -0.07123251259326935, -0.009627506136894226, 0.0498051792383194, -0.021612219512462616, -0.023409640416502953, -0.14001092314720154, -0.0002576695696916431, -0.06928399205207825, -0.04398515820503235, 0.11393681913614273, -0.03505602851510048, 0.28167325258255005, 0.053087860345840454, 0.0673597902059555, 0.002047821879386902, 0.08315636962652206, -0.025736156851053238, -0.020068882033228874, -0.1275508552789688, 0.05323360860347748, -0.07156868278980255, 0.2981586754322052, -0.1141243427991867, 0.09129777550697327, 0.22247672080993652, -0.01689676195383072, 0.2869124710559845, -0.07512573897838593, -0.060152679681777954, -0.005594867281615734, -0.002275740262120962, 0.09669122099876404, 0.06129642575979233, -0.007490310352295637, -0.08901715278625488, -0.05679040774703026, -0.15697647631168365, -0.08102010190486908, -0.09070426225662231, -0.05495397001504898, 0.04378668963909149, 0.15140953660011292, 0.020387372002005577, -0.08282243460416794, -0.04354853555560112, 0.07137748599052429, 0.012760767713189125, 0.03269006311893463, 0.09356608241796494, 0.06998442113399506, 0.04470427706837654, 0.034137945622205734, 0.033550214022397995, 0.05227591097354889, 0.055195484310388565, 0.00643005920574069, 0.024813635274767876, -0.06819497048854828, 0.0420687235891819, -0.004996359348297119, -0.011898837052285671, -0.03007947839796543, 0.08419570326805115, -0.03538224846124649, 0.01605534553527832, -0.0017497806111350656, -0.040473710745573044, 0.030335837975144386, -0.012131068855524063, 0.07048364728689194, -0.009136740118265152, 0.08582156151533127, -0.04025772586464882, 0.0469067245721817, 0.06350701302289963, 0.04397128149867058, 0.045889273285865784, 0.08380331099033356, -0.03316927328705788, -0.019288597628474236, -0.006570763420313597, -0.0032273808028548956, -0.04816533625125885, -0.02583790384232998, -0.010054045356810093, -0.08347030729055405, 0.14286869764328003, -0.05796629935503006, -0.020772498100996017, 0.07367058098316193, -0.08069465309381485, -0.061918631196022034, 0.008492977358400822, -0.1890544444322586, -0.059504080563783646, 0.040159571915864944, -0.022016962990164757, -0.11041802912950516, -0.10582183301448822, 0.006774975918233395, -0.04499756544828415, -0.04323860630393028, -0.1207624077796936, 0.0041175405494868755, -0.06198277324438095, -0.015726206824183464, -0.05830030515789986, -0.030084315687417984, -0.05816720053553581, -0.03704577311873436, -0.10507410019636154, -0.38922110199928284, -0.07055895030498505, -0.04007292911410332, -0.04807956889271736, -0.033198561519384384, 0.07871338725090027, -0.01755029894411564, 0.030428746715188026, -0.06809816509485245, -0.059809330850839615, -0.020785396918654442, 0.014510739594697952], [-0.005901366472244263, 0.13553421199321747, 0.14682349562644958, 0.10139310359954834, 0.09789348393678665, -0.0678989440202713, -0.002074478194117546, -0.02237972430884838, -0.14351238310337067, -0.08966121822595596, -0.04568959027528763, -0.019541488960385323, -0.058362413197755814, -0.03646153584122658, -0.03898071125149727, -0.022412315011024475, -0.06549115478992462, 0.037897542119026184, -0.13566920161247253, 0.07511111348867416, 0.11003822833299637, -0.14740605652332306, 0.1431805044412613, -0.0697588250041008, -0.0038605667650699615, 0.007436510641127825, -0.03182626888155937, 0.012387079186737537, -0.09058258682489395, 0.006564877927303314, -0.017947450280189514, -0.4016595780849457, -0.11645352840423584, -0.3285347521305084, -0.3210558593273163, 0.19039377570152283, -0.26106590032577515, -0.06586077064275742, 0.038419559597969055, 0.11785565316677094, -0.0750170350074768, 0.08640915155410767, 0.08812922239303589, -0.04269256442785263, -0.08499002456665039, 0.11008653044700623, 0.12709105014801025, 0.08431102335453033, 0.07040985673666, 0.09351246803998947, 0.0007780074956826866, -0.07610718905925751, -0.02998172491788864, -0.03310586139559746, 0.09437482059001923, 0.03675119951367378, -0.15041978657245636, -0.11696214228868484, 0.04702094942331314, -0.00987247098237276, 0.011883703991770744, -0.018810993060469627, -0.055915262550115585, -0.07825901359319687, -0.024454617872834206, -0.004134580492973328, -0.04379669204354286, -0.06112118810415268, -0.04116730019450188, 0.06771982461214066, -0.0510377436876297, 0.003674093633890152, -0.013836958445608616, -0.0493837408721447, 0.08965729922056198, -0.0476212352514267, -0.027215000241994858, -0.12033570557832718, -0.0468585379421711, -0.004598461557179689, -0.15054738521575928, -0.0328291654586792, -0.017267292365431786, 0.07192903757095337, 0.050464581698179245, -0.045304782688617706, -0.031076405197381973, -0.09436050057411194, -0.02680666744709015, -0.02171844244003296, 0.038897961378097534, -0.14030040800571442, -0.03726595640182495, -0.08995431661605835, -0.14322060346603394, -0.11243370175361633, 0.038378383964300156, 0.15223534405231476, 0.0532536543905735, 0.049251798540353775, 0.006448554340749979, 0.021406622603535652, -0.024913450703024864, 0.034503500908613205, -0.015027063898742199, -0.08496662974357605, -0.09462256729602814, 0.006821847520768642, 0.0506746768951416, -0.06380418688058853, -0.13557091355323792, 0.063609279692173, 0.08550994098186493, -0.059237170964479446, 0.08020045608282089, 0.07978197187185287, -0.12879033386707306, 0.02388235367834568, -0.09500702470541, -0.10227524489164352, 0.041169919073581696, 0.018421901389956474, 0.0366007462143898, 0.08409599959850311, 0.0860753208398819, -0.01400430966168642, -0.07115854322910309, -0.0015126402722671628, 0.08347766101360321, 0.0557192862033844, 0.029032159596681595, -0.054427165538072586, -0.04988545551896095], [-0.06951814144849777, -0.08458007127046585, -0.05527174100279808, -0.020475387573242188, -0.07958472520112991, 0.06533022224903107, -0.04584229364991188, 0.06168186292052269, 0.04714177921414375, -0.08209244906902313, 0.027335718274116516, 0.04129082337021828, -0.017268596217036247, 0.07077294588088989, 0.07612103223800659, -0.07917481660842896, -0.027072254568338394, -0.018877077847719193, -0.028576573356986046, 0.028545841574668884, 0.05189153924584389, -0.012811158783733845, -0.023995911702513695, 0.01291824784129858, -0.016628935933113098, -0.04123813658952713, -0.011013028211891651, 0.039824679493904114, -0.007233806885778904, -8.507150596415158e-06, -0.008294720202684402, 0.06302522122859955, -0.053724534809589386, 0.029388515278697014, -0.021652227267622948, -0.06120740622282028, -0.005162548273801804, -0.05313016101717949, -0.07150176167488098, 0.024265697225928307, 0.06986033916473389, -0.07043509185314178, 0.02252894453704357, 0.0135376350954175, 0.03822993114590645, -0.06876781582832336, -0.03947271406650543, 0.06210492551326752, -0.014075065031647682, -0.07625365257263184, 0.05514135956764221, -0.005090935155749321, 0.014594756066799164, 0.06276965141296387, 0.028900474309921265, -0.016720272600650787, -0.08531216531991959, -0.0030535294208675623, 0.0674765482544899, -0.03702164813876152, 0.031748902052640915, 0.02714334987103939, 0.06192551180720329, -0.030984923243522644, -0.03573344275355339, -0.05692237615585327, 0.08359329402446747, 0.07433655858039856, 0.0015380640979856253, 0.07417058944702148, 0.03180079162120819, -0.08468223363161087, -0.034159980714321136, -0.0566621795296669, 0.03342939913272858, 0.05645916610956192, 0.08027203381061554, -0.05481994152069092, 0.0722685158252716, 0.016934996470808983, -0.017545197159051895, 0.038639768958091736, 0.0748586654663086, -0.04132092371582985, -0.03464289382100105, 0.04227320849895477, 0.06039269641041756, -0.043538033962249756, -0.06580743938684464, 0.01997629925608635, -0.07040221989154816, 0.04126512631773949, -0.06279005110263824, -0.005951459985226393, 0.031040111556649208, -0.048984233289957047, 0.037885069847106934, -0.007868856191635132, -0.036701541393995285, -0.06635120511054993, 0.027295641601085663, 0.0038447461556643248, -0.0545792430639267, -0.07979881018400192, -0.006921171676367521, -0.03241482749581337, 0.0740371122956276, -0.07596930861473083, -0.06984056532382965, -0.013681802898645401, 0.012753831222653389, -0.04769493639469147, 0.011963472701609135, -0.04232252389192581, -0.03425944223999977, 0.06919743865728378, 0.026016220450401306, 0.04519787058234215, 0.01913953758776188, -0.036107033491134644, -0.06120467931032181, -0.02656765654683113, -0.09525924921035767, -0.10023362189531326, 0.03301107510924339, 0.05840299278497696, 0.029618239030241966, -0.09437011182308197, -0.060345280915498734, -0.08306748420000076, -0.08267208188772202, 0.010232603177428246, 0.05935633182525635], [-0.0018775437492877245, 0.07662614434957504, -0.0006195123423822224, 0.07456793636083603, 0.08608678728342056, -0.05092008784413338, -0.06682392954826355, 0.06061134487390518, -0.09780818969011307, -0.018636204302310944, -0.0035389435943216085, -0.09189412742853165, -0.007169203832745552, -0.022451745346188545, 0.0006283466354943812, 0.03313392028212547, -0.0619487501680851, 0.021057844161987305, -0.12452160567045212, 0.03832552582025528, 0.09047356992959976, 0.1102849543094635, 0.12354204058647156, 0.08287057280540466, -0.07312434166669846, 0.011491909623146057, -0.003947783727198839, 0.015217328444123268, -0.08348305523395538, -0.11623872816562653, -0.07241667807102203, -0.20623072981834412, -0.43392413854599, -0.14930033683776855, -0.34356626868247986, 0.14272570610046387, 0.005091486033052206, -0.006433623842895031, 0.025919120758771896, 0.09016380459070206, 0.05055991932749748, 0.08739009499549866, 0.03990303352475166, -0.04066334292292595, 0.09084763377904892, -0.04948453977704048, -0.08734595775604248, -0.05418601632118225, -0.09419336915016174, -0.017861967906355858, 0.07297449558973312, -0.020248934626579285, -0.07322371751070023, 0.04565853625535965, -0.018220271915197372, 0.06517434120178223, 0.0486234612762928, -0.03123842179775238, -0.04465539753437042, -0.04618264362215996, -0.04132537916302681, 0.020062416791915894, -0.08308600634336472, -0.06581590324640274, -0.038434673100709915, 0.05552343279123306, -0.09622714668512344, 0.00979301705956459, -0.06300528347492218, -0.10553579032421112, 0.04467349871993065, -0.08129329979419708, 0.06804549694061279, -0.06363426148891449, -0.02588147483766079, 0.039839088916778564, 0.051765475422143936, 0.004685389809310436, 0.1222267895936966, -0.0027315958868712187, 0.05583026260137558, 0.010564122349023819, 0.005018236581236124, -0.03899393603205681, 0.03037302941083908, -0.07556413859128952, 0.05677211284637451, -0.012086733244359493, -0.005401097238063812, -0.017263801768422127, 0.0794990137219429, -0.016860628500580788, 0.04121476411819458, -0.0244057085365057, -0.06559062749147415, 0.04972241073846817, 0.12479925900697708, -0.04880448058247566, 0.021421367302536964, -0.058119066059589386, -0.08148995041847229, -0.025039684027433395, -0.02570130117237568, 0.041183967143297195, -0.12170936167240143, -0.015865040943026543, -0.002343387808650732, -0.020123738795518875, 0.11770213395357132, 0.0912383422255516, 0.15095335245132446, -0.0004736090777441859, 0.10841723531484604, -0.1399233341217041, -0.09188122302293777, -0.047448884695768356, 0.07368114590644836, -0.07249864190816879, -0.024071143940091133, -0.1235736683011055, 0.04298277571797371, -0.04688287526369095, -0.03049013391137123, -0.01267665158957243, -0.0054137385450303555, -0.0012707284186035395, 0.012432853691279888, 0.015508058480918407, -0.04822137579321861, 0.04443290829658508, 0.07333787530660629, 0.058407243341207504, 0.07882954925298691], [0.005227046553045511, 0.0005569328204728663, -0.08866428583860397, 0.0450177825987339, 0.03125356510281563, 0.08539367467164993, -0.02186404913663864, -0.04202202707529068, -0.08808384835720062, -0.031213978305459023, 0.07501239329576492, -0.06276948004961014, -0.11328115314245224, 0.007343770936131477, -0.06189218536019325, -0.09046738594770432, -0.07770711183547974, 0.016914620995521545, -0.021098576486110687, 0.016426807269454002, -0.025186652317643166, 0.14802013337612152, 0.1324344277381897, -0.0204398725181818, 0.03908476606011391, -0.08026426285505295, -0.13889417052268982, 0.0017036143690347672, -0.09298668056726456, 0.0938451886177063, -0.09736867249011993, -0.189284086227417, -0.12229100614786148, -0.21609096229076385, 0.343156635761261, -0.09521547704935074, 0.0971924290060997, 0.07023580372333527, 0.015016994439065456, 0.13109125196933746, -0.06891839951276779, -0.0071891192346811295, 0.02263270504772663, -0.11404693871736526, 0.040319062769412994, -0.05620986968278885, 0.009510981850326061, 0.0923452079296112, -0.0647905170917511, -0.052658576518297195, -0.004198265727609396, 0.08317431807518005, -0.0036793870385736227, -0.04213886708021164, 0.011274060234427452, -0.015013756230473518, -0.030704466626048088, -0.10246880352497101, -0.043531496077775955, -0.06147932633757591, 0.07022815942764282, 0.07347358763217926, 0.052251528948545456, -0.025397904217243195, -0.035625915974378586, -0.05226869881153107, -0.07413546741008759, 0.08399909734725952, -0.1306464821100235, -0.0030951218213886023, 0.005746760871261358, 0.020916607230901718, 0.01930168829858303, -0.0369340144097805, -0.025321397930383682, 0.013373014517128468, 0.0963061973452568, -0.002451776061207056, -0.04973406344652176, -0.08583728224039078, -0.09972967207431793, -0.038689807057380676, -0.05259314179420471, 0.03806585446000099, 0.06687729060649872, 0.02015588991343975, -0.031194942072033882, -0.0391041524708271, 0.006089819595217705, -0.10362562537193298, 0.018567118793725967, 0.009096032939851284, -0.10267490893602371, 0.039483360946178436, 0.056296251714229584, -0.03587217256426811, 0.07962100207805634, 0.10658217966556549, -0.1224779263138771, 0.05486823990941048, 0.08430524915456772, -0.01057701651006937, -0.053147949278354645, -0.07377523928880692, 0.017101451754570007, -0.039737310260534286, 0.05961933359503746, -0.0662071481347084, -0.14934860169887543, 0.026203148066997528, -0.06608790904283524, -0.13943979144096375, 0.04038406163454056, -0.06167697533965111, -0.016409024596214294, -0.043138355016708374, -0.009567825123667717, 0.06778652220964432, -0.1258944571018219, -0.10540954023599625, -0.012543963268399239, 0.0522424690425396, 0.0002986716281156987, 0.021832969039678574, -0.06851671636104584, -0.0029240823350846767, -0.06847298890352249, -0.03671908751130104, 0.08467409759759903, -0.0979747548699379, -0.008255786262452602, -0.01869373396039009, 0.05570725351572037], [-0.1038891151547432, -0.06620709598064423, -0.021422043442726135, -0.09733212739229202, 0.0038635197561234236, -0.08295553177595139, -0.11665806919336319, -0.061425890773534775, -0.05930176377296448, 0.12174052000045776, -0.023441096767783165, 0.04965904727578163, 0.04942367225885391, -0.05517132952809334, -0.02354065328836441, -0.002723120851442218, 0.12135157734155655, 0.09545333683490753, 0.23888705670833588, 0.0920117124915123, -0.06649389863014221, 0.02133241668343544, 0.08635403960943222, 0.018314864486455917, -0.09948258846998215, 0.04996692016720772, -0.1464681774377823, -0.131433367729187, -0.16443054378032684, -0.10748971998691559, -0.09213274717330933, -0.060648124665021896, -0.07834430038928986, 0.018488720059394836, -0.006983230356127024, -0.007575139403343201, 0.06272277981042862, 0.08607383817434311, -0.05951843038201332, -0.12340229749679565, 0.021479832008481026, -0.05738871917128563, -0.09599897265434265, -0.10136356204748154, -0.061612319201231, 0.05826674401760101, 0.1483033001422882, 0.26476356387138367, 0.1641763150691986, 0.2828553020954132, -0.06465607136487961, 0.07157030701637268, -0.03114781714975834, -0.022135837003588676, -0.0735645517706871, 0.06637382507324219, 0.09260275959968567, 0.06631876528263092, -0.012107531540095806, -0.06254784762859344, -0.04204486310482025, 0.10705196112394333, -0.14823877811431885, 0.1365036517381668, 0.09943503886461258, -0.10983777046203613, -0.025547223165631294, 0.03515376150608063, -0.051014114171266556, 0.03296564519405365, 0.05439743772149086, 0.019246993586421013, -0.13733437657356262, -0.035254981368780136, -0.13902975618839264, -0.09196791797876358, -0.02955567091703415, 0.013327740132808685, -0.03410813584923744, -0.04990837723016739, 0.09050475805997849, 0.17800182104110718, 0.0757492259144783, -0.12009342014789581, -0.05737054720520973, 0.05485152080655098, -0.033587872982025146, -0.0779949426651001, -0.03788107633590698, -0.05231184884905815, -0.06445331871509552, 0.07428862899541855, 0.07479434460401535, 0.059767402708530426, -0.014684401452541351, -0.14125476777553558, 0.23214025795459747, -0.10236983001232147, -0.11909618228673935, 0.005580466706305742, 0.08220662921667099, 0.11759036779403687, 0.06089954823255539, 0.0854199007153511, 0.08233556896448135, -0.05209812894463539, -0.03431326523423195, -0.050809096544981, -0.06085795536637306, 0.05858509615063667, -0.06041615083813667, 0.2003069818019867, -0.034956179559230804, 0.12332513928413391, 0.015087775886058807, 0.014919701963663101, 0.09566409140825272, 0.12103240936994553, 0.15912161767482758, 0.16576847434043884, -0.015753574669361115, -0.1860598772764206, 0.026795970275998116, -0.06789328902959824, -0.08149154484272003, 0.0425904244184494, 0.045972444117069244, 0.0112144211307168, -0.07787510007619858, -0.0291427168995142, 0.035486020147800446, 0.06849946081638336, -0.10327167809009552], [-0.23305170238018036, -0.12810219824314117, -0.20128752291202545, -0.18289482593536377, -0.20887553691864014, 0.227081298828125, 0.030871625989675522, 0.04808952659368515, 0.10516203194856644, 0.08526530116796494, -0.07180856913328171, -0.10129167139530182, -0.061503760516643524, 0.003890537191182375, -0.0008796652546152472, 0.03796613961458206, 0.01927066408097744, -0.11107224225997925, -0.09923358261585236, 0.008845706470310688, 0.046717800199985504, 0.12273737043142319, -0.08576376736164093, -0.05870092287659645, 0.03041057288646698, 0.03263460844755173, 0.02001175843179226, 0.04601768031716347, -0.019456030800938606, -0.06543593108654022, -0.08736822009086609, -0.2267463356256485, -0.13003575801849365, -0.12045314908027649, -0.1587580442428589, 0.21291686594486237, 0.001584370038472116, 0.04491628706455231, -0.024281933903694153, 0.10814401507377625, 0.014300468377768993, 0.03315891698002815, -0.03353302553296089, 0.011656246148049831, -0.01963861659169197, -0.06264534592628479, -0.026070866733789444, -0.02073095180094242, 0.014393467456102371, -0.11421013623476028, -0.03526180237531662, 0.07419365644454956, 0.0011711425613611937, 0.04647671803832054, 0.09822279214859009, -0.020870758220553398, 0.07822345942258835, -0.04680076614022255, -0.008018317632377148, 0.06107868626713753, -0.02467517741024494, 0.04985959082841873, -0.029851380735635757, -0.11630073189735413, 0.08045832812786102, 0.024225246161222458, 0.015031552873551846, -0.08067207038402557, -0.16242465376853943, -0.02093994803726673, 0.009842039085924625, -0.1077808067202568, -0.14484527707099915, -0.0763702392578125, -0.05437168851494789, -0.022381888702511787, -0.004188157618045807, 0.01873396895825863, -0.009411708451807499, 0.060946427285671234, -0.02214784361422062, 0.04377838596701622, -0.05650591477751732, -0.05216655507683754, 0.04804448038339615, -0.032377202063798904, -0.058736033737659454, -0.08852770179510117, -0.005663248710334301, 0.07669495791196823, -0.11041353642940521, -0.2434622347354889, -0.13723663985729218, -0.1586657464504242, -0.24049974977970123, 0.18555206060409546, 0.12269099801778793, 0.044867753982543945, 0.17895758152008057, 0.024678632616996765, 0.07820650190114975, 0.10481618344783783, 0.07722581923007965, -0.0694868192076683, 0.06805358827114105, 0.01704908348619938, 0.0049783289432525635, -0.10483869910240173, 0.09534915536642075, -0.002490634098649025, 0.09736219048500061, 0.08293180167675018, -0.076969213783741, 0.016014806926250458, -0.03450422361493111, -0.0599965900182724, -0.0788971334695816, 0.09002403169870377, -0.07794564217329025, -0.06389685720205307, 0.05595475062727928, 0.07795661687850952, 0.06601069122552872, 0.04200369119644165, 0.027287552133202553, 0.054288312792778015, -0.07698741555213928, 0.05058283358812332, 0.017350247129797935, -0.020054085180163383, 0.03281712159514427, 0.05858352407813072, -0.10872003436088562], [-0.03415677323937416, -0.1593143194913864, -0.09608421474695206, -0.10102249681949615, -0.15847332775592804, 0.21672537922859192, 0.09932128340005875, 0.10129175335168839, 0.10040691494941711, 0.15141496062278748, 0.00043888832442462444, 0.054985471069812775, 0.09995213896036148, 0.09248508512973785, 0.030734535306692123, 0.08144845068454742, 0.12847822904586792, -0.00897202268242836, 0.016544150188565254, 0.06609507650136948, -0.041631970554590225, -0.07289261370897293, 0.08609028905630112, -0.09083259850740433, -0.11113192141056061, -0.0128685487434268, -0.029367296025156975, -0.07430057972669601, 0.05424260348081589, -0.09234213829040527, -0.039795488119125366, 0.16502758860588074, 0.09646862745285034, 0.07460946589708328, 0.02933548204600811, -0.1630047857761383, -0.015028662048280239, 0.04053367301821709, -0.18174974620342255, -0.0527922660112381, -0.05885960906744003, 0.043081287294626236, -0.011377698741853237, 0.023620760068297386, -0.043547745794057846, 0.08216860890388489, 0.17710661888122559, 0.16251376271247864, 0.14948464930057526, 0.09951723366975784, -0.015191910788416862, -0.05156686156988144, -0.009177611209452152, -0.012577472254633904, 0.019160525873303413, -0.006999482866376638, -0.05595732107758522, 0.018045052886009216, 0.031404513865709305, -0.04058978706598282, 0.027166184037923813, -0.025960106402635574, 0.07621699571609497, -0.04320323094725609, -0.06777708232402802, 0.0587226040661335, -0.01706182025372982, -0.014086776413023472, 0.026587465777993202, -0.08049282431602478, 0.01951736770570278, 0.07845509052276611, -0.010781178250908852, -0.015401595272123814, -0.0069975899532437325, 0.014430806040763855, -0.020198239013552666, 0.06264765560626984, 0.013615204021334648, 0.041426725685596466, -0.06504272669553757, -0.042986493557691574, 0.0693659782409668, -0.100929394364357, 0.03743400797247887, -0.020313482731580734, 0.061690326780080795, 0.07547658681869507, -0.133043572306633, -0.049997441470623016, -0.07909830659627914, 0.03235792741179466, -0.03391219675540924, -0.032753877341747284, -0.07410942018032074, 0.04502110555768013, 0.11554814875125885, -0.002786820288747549, 0.06548751890659332, 0.027563992887735367, 0.011911023408174515, 0.019632404670119286, -0.09381956607103348, -0.08244427293539047, -0.07054778933525085, -0.11567258834838867, -0.05298011377453804, -0.01017716247588396, -0.016124023124575615, -0.03476934880018234, -0.009862354956567287, 0.10021975636482239, -0.03516286239027977, -0.029035255312919617, 0.1056719496846199, 0.04500458389520645, -0.005180133040994406, 0.04621108993887901, -0.02578146569430828, -0.03609098866581917, 0.003465847810730338, 0.026859963312745094, -0.16321459412574768, 0.011463504284620285, 0.1265842318534851, -0.041881952434778214, 0.016553612425923347, 0.0765201598405838, -0.030095400288701057, -0.013501197099685669, 0.03428788483142853, -0.012630368582904339, 0.09120020270347595], [-0.01664869859814644, 0.07189255952835083, 0.025705911219120026, 0.09919489920139313, 0.13616327941417694, -0.07660186290740967, 0.018997037783265114, 0.02669353038072586, -0.0529036745429039, -0.008588910102844238, -0.04703597351908684, 0.032657310366630554, 0.030213942751288414, 0.05276148021221161, -0.06162954494357109, -0.03492540121078491, 0.062230873852968216, 0.11090626567602158, 0.06149399280548096, 0.10233986377716064, -0.053874120116233826, -0.07440392673015594, 0.10486865043640137, -0.18979570269584656, -0.020209912210702896, -0.019739504903554916, -0.016060637310147285, 0.028543157503008842, -0.04216872528195381, -0.020013539120554924, 0.029113739728927612, 0.04124123230576515, 0.054988518357276917, 0.20522107183933258, 0.20659513771533966, -0.1687074899673462, -0.014409411698579788, 0.005847529973834753, -0.07708843052387238, -0.09833932667970657, 0.0386974960565567, -0.001078608212992549, -0.02121470309793949, 0.019318005070090294, 0.07622100412845612, 0.07947913557291031, 0.13621774315834045, 0.0377499982714653, 0.1384747177362442, 0.08551531285047531, 0.0430309921503067, -0.0547257699072361, 0.0006124491337686777, -0.052532970905303955, -0.06954946368932724, -0.07708711177110672, -0.0321599505841732, -0.03986210748553276, -0.07228665053844452, -0.08967272192239761, -0.057720981538295746, 0.06707321107387543, 0.10363227874040604, 0.048907943069934845, 0.0347418487071991, -0.010821953415870667, -0.05081353709101677, -0.0370258167386055, -0.02390601858496666, -0.060753557831048965, -0.08544916659593582, -0.03506974130868912, 0.019118672236800194, -0.05102080851793289, 0.00369466794654727, -8.245771459769458e-05, -0.061278510838747025, -0.024000417441129684, -0.05293963477015495, -0.030336584895849228, -0.028923092409968376, 0.01989278756082058, -0.06991887092590332, 0.07361029833555222, 0.04621336981654167, -0.013336907140910625, 0.029918378219008446, 0.06858551502227783, 0.0081790154799819, -0.03596637025475502, -0.027450136840343475, -0.03313514590263367, -0.1696341186761856, -0.06672287732362747, -0.07994344085454941, 0.16700606048107147, 0.07774762064218521, 0.11329934746026993, 0.09692554175853729, 0.14140155911445618, 0.03931007534265518, 0.013613328337669373, 0.13349507749080658, -0.027909841388463974, -0.06807759404182434, -0.005791616626083851, -0.1151830181479454, -0.085191510617733, 0.015343556180596352, 0.00915301963686943, 0.039138417690992355, 0.023677170276641846, 0.11061263829469681, -0.07711150497198105, 0.05357706919312477, 0.08245104551315308, 0.05824587494134903, -0.020034806802868843, -0.181234672665596, -0.022871484979987144, -0.00847442727535963, -0.0026016782503575087, -0.12742069363594055, 0.08587406575679779, 0.029149919748306274, 0.055376071482896805, 0.010384894907474518, 0.0488160140812397, -0.07866112142801285, 0.012205975130200386, 0.04248888045549393, 0.027355987578630447, 0.06532450765371323], [0.09716382622718811, -0.23501825332641602, 0.33743032813072205, 0.3205702304840088, -0.3819333612918854, 0.1789688616991043, 0.08820220082998276, -0.14811217784881592, -0.01984265260398388, -0.09879638254642487, -0.03711630403995514, 0.04366476461291313, 0.09569699317216873, -0.06679952889680862, -0.07249771803617477, -0.0008934259531088173, -0.04047994688153267, -0.003168226219713688, 0.029103819280862808, -0.005390101112425327, 0.011686443351209164, 0.1447233259677887, -0.0021187555976212025, 0.1044207438826561, 0.008909015916287899, 0.05243676155805588, -0.00587448850274086, -0.02994878776371479, -0.015174144878983498, 0.15472395718097687, -0.026162276044487953, 0.06392946094274521, -0.06730756163597107, -0.06347457319498062, 0.05424708127975464, 0.1341126561164856, -0.0046507068909704685, 0.08804886788129807, -0.06850916147232056, 0.06073926389217377, 0.029177913442254066, 0.05713493749499321, 0.02995128743350506, -0.0543430931866169, -0.0008801307412795722, -0.01625048741698265, -0.013334258459508419, -0.020829802379012108, -0.03759835287928581, 0.022847669199109077, 0.019116131588816643, 0.1050424873828888, 0.007536002900451422, -0.035348080098629, 0.04741472005844116, -0.07458846271038055, 0.013447531498968601, -0.026011602953076363, -0.059888921678066254, 0.014586614444851875, 0.012186078354716301, -0.007929031737148762, -0.06875975430011749, -0.04869956523180008, 0.08484058827161789, -0.09637820720672607, -0.0025359909050166607, -0.03908289596438408, 0.012470616959035397, 0.06731738895177841, 0.04974899813532829, -0.019738079980015755, -0.013193017803132534, -0.12289659678936005, 0.04226485267281532, -0.01294612418860197, -0.07203640043735504, 0.005395685788244009, -0.008679003454744816, -0.014539089053869247, 0.030455010011792183, 0.014398230239748955, 0.04024198651313782, -0.07081620395183563, 0.05004614591598511, 0.07051610201597214, 0.024672958999872208, 0.04870478808879852, 0.01618995890021324, 0.1055990681052208, -0.014508442021906376, -0.10403855890035629, -0.05315321683883667, -0.11429256200790405, -0.11952000856399536, 0.02312522567808628, 0.007686220575124025, -0.01226502563804388, -0.013207617215812206, -0.012677024118602276, -0.04743888974189758, 0.018055493012070656, -0.057133350521326065, 0.02965816669166088, 0.10017580538988113, -0.02523365616798401, 0.012338855303823948, -0.038901351392269135, -0.08110654354095459, -0.013365661725401878, 0.0032331852708011866, 0.043647170066833496, 0.04044037684798241, 0.02427292801439762, 0.04815078154206276, -0.08488276600837708, -0.0536469928920269, 0.07022695243358612, -0.030505618080496788, 0.13306798040866852, 0.008856367319822311, 0.07141534984111786, 0.03599105030298233, -0.005556310527026653, -0.06775013357400894, 0.041202425956726074, -0.0187297984957695, -0.09802286326885223, 0.025752276182174683, -0.014522231183946133, 0.027905141934752464, 0.06973163783550262, -0.05400051921606064], [-0.028595034033060074, -0.03749341517686844, 0.03863188251852989, 0.02426852658390999, 0.048618827015161514, -0.06855282187461853, 0.2853604257106781, -0.0046262433752417564, 0.046258606016635895, 0.00407484732568264, 0.03936229646205902, -0.04744236543774605, 0.07667282223701477, -0.07210475951433182, 0.05175047740340233, -0.016737794503569603, -0.07799814641475677, 0.03632872551679611, -0.05571700260043144, -0.033805519342422485, -0.05455697700381279, 0.26294052600860596, -0.04596929997205734, -0.07321500033140182, 0.06628070771694183, -0.07001335918903351, 0.02703622356057167, -0.0011473638005554676, 0.041983287781476974, 0.005573655944317579, -0.1950691044330597, -0.14267072081565857, 0.012852528132498264, -0.10165895521640778, 0.022397825494408607, -0.1390758603811264, -0.009945773519575596, -0.07536382228136063, -0.021841049194335938, -0.0716552883386612, 0.014258180744946003, -0.028383823111653328, -0.05114112049341202, -0.09193167835474014, -0.02168761007487774, -0.019760265946388245, 0.08148790895938873, -0.031557779759168625, 0.01702389493584633, 0.09392676502466202, -0.026082448661327362, -0.07913919538259506, 0.013958518393337727, 0.014404370449483395, 0.02564144879579544, 0.023078028112649918, -0.04210865497589111, -0.03337933495640755, -0.15165285766124725, -0.06950382143259048, -0.1145031750202179, 0.002844837261363864, -0.018194496631622314, -0.001823544385842979, -0.006422997452318668, -0.0946999043226242, -0.06371571868658066, -0.005425781011581421, -0.1385291963815689, -0.14731894433498383, 0.049195487052202225, -0.01687639392912388, -0.1406150460243225, 0.00630703940987587, -0.009724707342684269, -0.04590302333235741, -0.031042907387018204, -0.07333113253116608, -0.10908941924571991, 0.013971079140901566, 0.004509178921580315, -0.025788310915231705, -0.12124468386173248, -0.010639837011694908, -0.06910901516675949, 0.03679928556084633, -0.0742294192314148, -0.01135862898081541, 0.009799704886972904, -0.06854534894227982, -0.13166771829128265, -0.043780528008937836, 0.04053380712866783, -0.043789420276880264, -0.02017073705792427, -2.5196279239025898e-05, -0.1113252118229866, 0.028767406940460205, -0.06392243504524231, -0.04904095456004143, -0.043465059250593185, -0.045359935611486435, -0.04877109080553055, -0.12018685787916183, 0.0017905912827700377, -0.11287982761859894, -0.12924465537071228, -0.005587598774582148, -0.052228961139917374, -0.06685925275087357, -0.030433356761932373, 0.2509550452232361, -0.023505276069045067, -0.005864488892257214, 0.08881741017103195, -0.027094902470707893, 0.01426665112376213, -0.04376274719834328, -0.06431357562541962, -0.04653088375926018, -0.03325363248586655, -0.5158263444900513, -0.06756080687046051, 0.008284438401460648, -0.0401325449347496, -0.05130622163414955, 0.06656060367822647, -0.07034499198198318, 0.008155609481036663, -0.023391176015138626, 0.037096668034791946, 0.052596185356378555, -0.08752512186765671], [0.009408240206539631, 0.060118723660707474, -0.03584755212068558, 0.06770408153533936, 0.010015799663960934, 0.011120292358100414, -0.09283221513032913, 0.010640674270689487, 0.023762959986925125, 0.026604540646076202, 0.036501672118902206, 0.05932515859603882, 0.08295802026987076, -0.048792291432619095, -0.10165378451347351, -0.05179622769355774, 0.04439207911491394, 0.01182643324136734, 0.043016768991947174, -0.07642358541488647, -0.02046559937298298, -0.10194914042949677, 0.08457766473293304, -0.01965639740228653, -0.04891258850693703, -0.027719315141439438, -0.013501912355422974, 0.050848644226789474, -0.06543749570846558, 0.025579921901226044, 0.06376253068447113, -0.01895439624786377, 0.014997298829257488, -0.035217683762311935, 0.06857244670391083, -0.011479774489998817, -0.111385278403759, -0.027277769520878792, 0.044142115861177444, -0.0448734313249588, 0.08162302523851395, -0.061753273010253906, -0.005663945339620113, 0.03403628244996071, 0.05907868966460228, 0.0025961867067962885, 0.07437076419591904, -0.07140201330184937, -0.046527694910764694, 0.050298068672418594, -0.013763939030468464, -0.004675402771681547, 0.016885528340935707, 0.021111413836479187, 0.011534897610545158, 0.08311250060796738, 0.051964107900857925, -0.013024840503931046, 0.052855219691991806, -0.032716862857341766, -0.007551425136625767, -0.07112377882003784, 0.001992307836189866, -0.03861145302653313, 0.06583789736032486, -0.07535586506128311, -0.06446371227502823, -0.06850438565015793, -0.08833902329206467, -0.02767358161509037, 0.003391293343156576, -0.01771513558924198, 0.06512047350406647, -0.03169810399413109, 0.013679258525371552, 0.05106699466705322, -0.04017695412039757, -0.0967945083975792, 0.0643310397863388, -0.02112213708460331, -0.03858880326151848, 0.0173196941614151, -0.0031877278815954924, -0.0627010390162468, 0.04791145399212837, -0.0626213550567627, 0.1040269136428833, -0.002077872399240732, -0.00036067236214876175, 0.03183209151029587, -0.052883345633745193, -0.0728980153799057, -0.0028426183853298426, -0.03940927982330322, 0.018224699422717094, 0.06933131068944931, -0.10332329571247101, 0.08218559622764587, -0.07275334000587463, -0.0191247146576643, 0.05786170810461044, 0.0034540994092822075, -0.030843978747725487, -0.08627358824014664, -0.00987230334430933, 0.006054662633687258, -0.0019495406886562705, -0.04524149373173714, 0.027607718482613564, -0.07252568751573563, 0.003855842398479581, -0.07410262525081635, -0.07419981062412262, -0.0659881979227066, -0.07422006875276566, 0.013804345391690731, 0.09384162724018097, 0.0437396839261055, 0.07362566143274307, -0.10598941147327423, -0.015959925949573517, 0.029123108834028244, -0.027489731088280678, -0.06969974935054779, 0.02115917205810547, 0.07316610217094421, 0.04381483420729637, -0.06639787554740906, 0.04280536249279976, -0.041685134172439575, -0.0457330048084259, -0.04324124753475189, -0.043275147676467896], [-0.04343962296843529, -0.1163153201341629, -0.04711856320500374, -0.004350889474153519, -0.19810537993907928, 0.06660670042037964, -0.03492582589387894, -0.007020018063485622, 0.12933677434921265, 0.032148316502571106, -0.07579370588064194, 0.06706494092941284, 0.0004140350501984358, -0.023331783711910248, -0.0019858574960380793, -0.07531509548425674, -0.08062317222356796, -0.10364625602960587, -0.06292490661144257, -0.1739369034767151, 0.10117995738983154, 0.10173694044351578, 0.08433657884597778, 0.0697588250041008, 0.041324321180582047, 0.035836946219205856, 0.0347469300031662, -0.08646395057439804, 0.01556382142007351, -0.040379464626312256, -0.04416004940867424, -0.0855952650308609, -0.045050133019685745, -0.16382943093776703, -0.18490765988826752, 0.21749955415725708, 0.030577249825000763, -0.02075730264186859, 0.04146136716008186, 0.024562561884522438, 0.019589558243751526, 0.056692369282245636, 0.0018951069796457887, 0.05526949092745781, 0.03674541786313057, 0.0359412282705307, 0.027955565601587296, -0.08578332513570786, -0.0866508036851883, -0.048499736934900284, 0.06637591123580933, 0.14478053152561188, 0.02579459175467491, 0.0004525711410678923, 0.046470995992422104, -0.07717212289571762, 0.015332682058215141, -0.06497247517108917, 0.03120390512049198, -0.016777487471699715, 0.1285654902458191, -0.06586442142724991, 0.030572937801480293, 0.04333106428384781, 0.11279698461294174, 0.06650372594594955, -0.05261821299791336, 0.03758680820465088, -0.0958605632185936, 0.024889467284083366, 0.028591210022568703, -0.05152992904186249, -0.06477087736129761, -0.030915193259716034, 0.053784873336553574, 0.017662638798356056, -0.0011548573384061456, 0.04033161699771881, 0.14474771916866302, 0.09339095652103424, -0.033991895616054535, -0.03617018833756447, 0.09730476886034012, -0.07895442843437195, 0.001185909379273653, 0.012379402294754982, -0.08582381159067154, -0.1914438158273697, -0.1249370276927948, -0.03751969337463379, 0.03603627160191536, 0.12726198136806488, 0.1461242139339447, 0.21044355630874634, 0.14717094600200653, -0.05722951516509056, -0.05054305121302605, -0.03979837894439697, -0.07659942656755447, -0.019932979717850685, -0.07557959109544754, 0.09431599080562592, -0.05319073423743248, -0.0632573738694191, 0.0035242161247879267, -0.05802680552005768, 0.04833850637078285, -0.00445341132581234, 0.17750629782676697, 0.13226266205310822, -0.051770247519016266, 0.0277752373367548, 0.0748676210641861, -0.06770270317792892, 0.0022220721002668142, -0.010129628702998161, -0.01766199618577957, -0.0003669738071039319, 0.04256853833794594, -0.10063783824443817, 0.01836436800658703, 0.019301125779747963, -0.10341789573431015, 0.11295130103826523, 0.07998913526535034, 0.029645465314388275, -0.03961143270134926, 0.08212365955114365, 0.13599622249603271, -0.06924664229154587, -0.01248518843203783, 0.03434906154870987, -0.0042734225280582905], [0.08371144533157349, 0.023161450400948524, 0.11408588290214539, 0.14306506514549255, 0.04287179186940193, -0.0477704294025898, 0.05023965984582901, 0.060456790030002594, -0.06273512542247772, -0.15577474236488342, -0.00819467008113861, 0.06725747883319855, -0.03924978896975517, 0.005366327241063118, -0.016610940918326378, 0.0532170869410038, 0.011810765601694584, -0.012419485487043858, 0.0502401702105999, 0.026656536385416985, -0.010043563321232796, -0.14263613522052765, 0.07401427626609802, -0.09028312563896179, -0.05308324843645096, 0.028758985921740532, 0.03689739108085632, -0.034286223351955414, -0.047849446535110474, -0.06544933468103409, -0.04799354448914528, 0.034165460616350174, -0.003983974456787109, 0.1893230527639389, 0.08107970654964447, -0.19270913302898407, 0.00986424833536148, 0.03376302868127823, -0.06042157858610153, -0.11415359377861023, 0.0055883293971419334, 0.074422687292099, 0.07055094838142395, 0.006854779552668333, -0.032766107469797134, -0.029010778293013573, 0.032133180648088455, 0.0004007596871815622, 0.044595181941986084, 0.035040587186813354, -0.011022603139281273, 0.01691874861717224, -0.013717292807996273, -0.047664619982242584, -0.025283750146627426, 0.03816886618733406, -0.04270933195948601, 0.024097522720694542, -0.02974274940788746, 0.029836205765604973, -0.012810242362320423, 0.05730278044939041, 0.07518815994262695, 0.026401285082101822, -0.0349421352148056, -0.06175351142883301, -0.05559101328253746, -0.03892875090241432, 0.12754428386688232, 0.03455119580030441, 0.06360621005296707, 0.05654912441968918, -0.060897160321474075, 0.06270769983530045, -0.04541710019111633, -0.02007262408733368, -0.05722922831773758, -0.06843932718038559, -0.040724243968725204, -0.01768055558204651, 0.07031820714473724, 0.09564979374408722, 0.011733443476259708, 0.03902135044336319, -0.024213695898652077, -0.0017864395631477237, 0.06325780600309372, 0.10946056246757507, 0.08683647215366364, -0.05190902203321457, -0.055893052369356155, -0.449756920337677, -0.2837509214878082, -0.3222866356372833, -0.04607211798429489, 0.1790044754743576, 0.06891023367643356, 0.0028849493246525526, 0.23853799700737, 0.11161892116069794, 0.054268818348646164, 0.008898717351257801, 0.11231422424316406, 0.04585780203342438, -0.05257360637187958, 0.03578302264213562, -0.11852937191724777, -0.03379583731293678, -0.0768963024020195, 0.08008969575166702, 0.02239905670285225, 0.05201539024710655, 0.11284832656383514, 0.09574247896671295, -0.017162621021270752, 0.08320991694927216, 0.08616914600133896, 0.14965707063674927, 0.009654689580202103, -0.07343393564224243, 0.0011271457187831402, 0.0794895589351654, -0.04867825284600258, -0.04491551220417023, 0.07503542304039001, -0.0638606995344162, -0.04448684677481651, 0.07073629647493362, -0.009177345782518387, 0.045149073004722595, 0.0838792696595192, -0.0287226103246212, 0.05980518087744713], [0.058330338448286057, 0.13777849078178406, -0.0015057947020977736, 0.09022673219442368, -0.006716178730130196, -0.12579385936260223, 0.050984300673007965, 0.07398243248462677, -0.06917006522417068, -0.04801659658551216, -0.038555532693862915, -0.03228972107172012, -0.0861688032746315, -0.15072616934776306, -0.10510382801294327, 0.04714791476726532, -0.6597934365272522, 0.12333500385284424, -0.814437747001648, -0.8669820427894592, 0.1619504690170288, -0.027976952493190765, 0.13163644075393677, -0.16349758207798004, -0.04841209948062897, 0.055564034730196, 0.012172204442322254, -0.011625517159700394, -0.20403052866458893, 0.05673617497086525, -0.016563385725021362, 0.10904058068990707, -0.006380227394402027, 0.01754106394946575, 0.29355117678642273, -0.010585403069853783, 0.01956455409526825, 0.017323089763522148, -0.08153451979160309, -0.018164891749620438, -0.05468399450182915, 0.028866305947303772, -0.15900182723999023, -0.2333490550518036, -0.09625460207462311, 0.03346498683094978, -0.5239328742027283, 0.13042673468589783, -8.928768511395901e-05, -0.47697171568870544, -0.033862948417663574, -0.08408999443054199, -0.05478394404053688, 0.018556134775280952, -0.045892734080553055, -0.04487113654613495, 0.06489474326372147, -0.04385163262486458, -0.01721000485122204, -0.03476393595337868, -0.03214801475405693, 0.08571229875087738, 0.0029995962977409363, -0.027911527082324028, 0.10546258836984634, 0.08299296349287033, 0.005384210031479597, 0.0004626840236596763, -0.04897917062044144, -0.02791788801550865, 0.0385344959795475, -0.016620367765426636, -0.061535149812698364, -0.04519176110625267, -0.008576452732086182, -0.06426730006933212, -0.06612572073936462, -0.0029670754447579384, -0.034381117671728134, -0.013463490642607212, 0.013586733490228653, 0.11067601293325424, 0.005328838247805834, 0.015518642030656338, 0.10766032338142395, 0.02116006426513195, -0.098413847386837, -0.02666418068110943, 0.07120399177074432, -0.045608360320329666, 0.009011829271912575, -0.1872338205575943, -0.12781326472759247, -0.07623971998691559, -0.08985841274261475, 0.07863223552703857, -0.023140158504247665, 0.08357264846563339, 0.17200689017772675, 0.02596849761903286, -0.06605064123868942, -0.032748423516750336, -0.025043761357665062, -0.016948731616139412, 0.01278480514883995, -0.09270967543125153, -0.0744614228606224, -0.5265020132064819, -0.002873010467737913, 0.09217341989278793, -0.09485984593629837, -0.041339211165905, 0.07038041204214096, -0.03311745822429657, -0.08303605020046234, -0.08146027475595474, -0.012073725461959839, -0.03212622553110123, -0.042273037135601044, -0.1600419282913208, 0.005133354105055332, -0.04948749393224716, -0.09085322916507721, 0.0565117672085762, 0.14068444073200226, 0.01987466774880886, -0.05812442675232887, 0.1271812617778778, 0.08881581574678421, 0.04660794511437416, -0.012797386385500431, 0.00290964194573462, -0.009369118139147758], [-0.027781188488006592, -0.05914655700325966, -0.030841166153550148, -0.12111440300941467, -0.030823806300759315, 0.12900026142597198, -0.035973016172647476, 0.09637133032083511, -0.12864458560943604, -0.08443113416433334, -0.0326845645904541, -0.09081526845693588, -0.1381245255470276, 0.0037413500249385834, 0.06254391372203827, -0.026972072198987007, 0.045500997453927994, -0.06436484307050705, -0.12487354874610901, -0.03397455811500549, 0.14220473170280457, 0.02444831281900406, 0.09873732924461365, -0.06218485161662102, -0.0483541302382946, -0.01539827324450016, -0.07393442839384079, 0.03961700573563576, -0.008989553898572922, -0.03536716476082802, 0.018587682396173477, -0.2533830404281616, -0.1823587417602539, -0.12258660793304443, -0.27472954988479614, 0.28118664026260376, -0.010663450695574284, -0.002424448961392045, -0.041889045387506485, 0.115990549325943, -0.0674913302063942, 0.042084984481334686, -0.07782863825559616, 0.07299444824457169, -0.04382248967885971, -0.13064593076705933, -0.03622797504067421, -0.026144547387957573, -0.1337900608778, -0.08064304292201996, -0.03994075581431389, 0.09406642615795135, 0.02148602344095707, 0.05308825522661209, -0.01693352498114109, -0.014179022051393986, 0.06956883519887924, -0.05331676825881004, -0.08224157989025116, 0.07455581426620483, 0.07007841765880585, 0.07176317274570465, 0.07179634273052216, -0.06324363499879837, 0.05989675223827362, -0.04757685214281082, -0.12119554728269577, 0.0006909497897140682, -0.009928202256560326, -0.010103107430040836, -0.005507330875843763, -0.1247953474521637, 0.009370286017656326, -0.07176369428634644, 0.08771391957998276, -0.10274364799261093, 0.02874942496418953, -0.03337721899151802, 0.13057541847229004, 0.021598488092422485, -0.01645169034600258, 0.12549346685409546, -0.007776795886456966, -0.03348052129149437, 0.022169804200530052, 0.05096624419093132, 0.025681020691990852, -0.06453145295381546, 0.06894302368164062, 0.050018273293972015, 0.08983194082975388, -0.16790691018104553, 0.000461075222119689, -0.10377603769302368, -0.08839677274227142, 0.16222195327281952, 0.10251651704311371, 0.1542658805847168, 0.20413663983345032, 0.021700255572795868, 0.02737020142376423, 0.09684455394744873, -0.09301811456680298, -0.08159046620130539, -0.08020493388175964, 0.011190123856067657, 0.04645098000764847, 0.1040702536702156, 0.07492570579051971, 0.1594349592924118, 0.041380465030670166, 0.10652807354927063, 0.05016464740037918, -0.021334487944841385, 0.00010420044418424368, -0.06703776121139526, 0.017789296805858612, 0.04548577591776848, -0.02413708157837391, -0.007930214516818523, 0.05187484622001648, -0.04624013230204582, -0.10493943840265274, 0.16627609729766846, 0.10276268422603607, 0.05248025804758072, 0.056250788271427155, 0.09797133505344391, 0.0008668232476338744, -0.0018803790444508195, 0.040360692888498306, 0.016954760998487473, 0.07672102749347687], [0.011655749753117561, 0.14616772532463074, 0.09123662859201431, 0.17707505822181702, 0.05442479997873306, -0.04430389776825905, -0.03649251163005829, -0.012839107774198055, 0.04177409037947655, -0.08754868805408478, -0.019316142424941063, -0.005018770229071379, -0.04513413831591606, 0.05097878351807594, -0.06224166601896286, 0.06022006645798683, 0.31714630126953125, -0.05800091102719307, 0.29935067892074585, 0.28844568133354187, -0.06356862187385559, 0.04981750622391701, -0.09523347020149231, -0.05090607702732086, -0.03334008529782295, -0.010870649479329586, -0.0027439778205007315, 0.13560672104358673, -0.061732303351163864, -0.08676483482122421, 0.038792934268713, -0.05958241969347, -0.031558264046907425, 0.005139858461916447, 0.05716229975223541, -0.022662434726953506, 0.006062544882297516, -0.07092933356761932, -0.05621466413140297, -0.04003865271806717, 0.05811998248100281, 0.14479248225688934, -0.05506943166255951, 0.04462128132581711, -0.09381558001041412, 0.032928794622421265, 0.27768149971961975, 0.25001096725463867, 0.18177685141563416, 0.27945125102996826, -0.03173036500811577, -0.09389997273683548, 0.052737899124622345, -0.08256291598081589, 0.015453364700078964, -0.0004258536791894585, 0.10157378762960434, -0.0037106650415807962, -0.059722546488046646, -0.04992412030696869, 0.07148461043834686, 0.04682252183556557, 0.07024771720170975, 0.04066992551088333, -0.015323408879339695, -0.08581790328025818, -0.04665958881378174, 0.014359396882355213, -0.11210553348064423, 0.005365908611565828, -0.0460485965013504, -0.08392072468996048, 0.02957708016037941, -0.05658205971121788, -0.0866626426577568, -0.004494900349527597, 0.004535461310297251, -0.03301670029759407, -0.035060979425907135, 0.02504069358110428, 0.0035187643952667713, 0.09196346998214722, -0.032270584255456924, 0.026811659336090088, -0.11282049119472504, -0.009866847656667233, 0.024535728618502617, 0.03730487823486328, 0.03829316794872284, -0.06527388095855713, -0.07790479063987732, -0.10559801012277603, -0.06757913529872894, 0.011605563573539257, -0.016577009111642838, 0.24576418101787567, 0.15375545620918274, 0.10212918370962143, -0.07014517486095428, -0.05782882869243622, -0.016554873436689377, 0.07356217503547668, 0.026170317083597183, 0.03971274942159653, -0.061560872942209244, 0.027279194444417953, -0.07859572023153305, 0.009123641066253185, 0.025691401213407516, 0.054645176976919174, 0.12604327499866486, 0.06425327807664871, 0.1400395780801773, -0.05295846238732338, 0.09225215017795563, 0.05713556334376335, -0.08465421199798584, 0.05369428172707558, -0.1568722128868103, -0.012497704476118088, 0.04572533816099167, -0.020700806751847267, -0.11391477286815643, -0.003321258584037423, 0.03186336159706116, -0.03086586482822895, 0.03654192388057709, -0.06075736880302429, 0.028261087834835052, 0.008048955351114273, -0.01252646092325449, -0.04816443845629692, -0.09204136580228806], [-0.06661026924848557, 0.0018114142585545778, -0.1020117849111557, -0.0888877809047699, -0.0778932124376297, -0.08464571088552475, 0.22850947082042694, -0.10092423111200333, 0.07120519131422043, -0.0235989261418581, -0.06195143610239029, -0.07654434442520142, -0.034170739352703094, -0.07749668508768082, -0.09221325814723969, -0.01749146170914173, -0.11270876228809357, -0.009097082540392876, -0.0895489826798439, -0.02796245366334915, 0.043299928307533264, 0.2463824450969696, -0.016264434903860092, -0.08225812762975693, -0.12629608809947968, -0.0837637260556221, 0.004089809022843838, -0.06345441192388535, -0.026556650176644325, -0.09519346058368683, -0.14031006395816803, 0.029471000656485558, -0.030784685164690018, -0.02462385594844818, 0.08259951323270798, -0.049045778810977936, -0.12745307385921478, 0.02836928516626358, 0.021090205758810043, -0.056877341121435165, -0.002847455907613039, -0.04320837929844856, -0.09726535528898239, -0.09724648296833038, 0.021322976797819138, -0.11590006202459335, 0.010344241745769978, 0.01699032261967659, -0.07710845023393631, -0.04827800765633583, -0.04803555831313133, -0.028170015662908554, -0.036346856504678726, -0.0015158948954194784, -0.05966323986649513, -0.02605786733329296, -0.04350363463163376, -0.01578698493540287, -0.051046594977378845, -0.011423151940107346, 0.047754909843206406, 0.04453626275062561, 0.05959595367312431, -0.011401303112506866, 