{"input_size": 133, "net.0.weight": [[-0.07000898569822311, 0.02303098514676094, -0.08303673565387726, 0.055273767560720444, -0.05067622661590576, -0.07811354100704193, 0.12675216794013977, 0.024071771651506424, -0.018563764169812202, -0.010172736831009388, 0.05192101001739502, -0.06575363129377365, -0.10441982746124268, 0.045331139117479324, 0.007321403361856937, -0.09607181698083878, 0.026408644393086433, 0.035393912345170975, 0.02481098473072052, 0.02526135742664337, -0.027625715360045433, 0.09342870861291885, 0.007760846987366676, 0.050092004239559174, 0.04636189341545105, -0.005209311842918396, -0.11986195296049118, -0.08870070427656174, -0.08674997091293335, -0.025035282596945763, -0.08806384354829788, -0.016823692247271538, 0.033248186111450195, 0.028133710846304893, 0.06082240119576454, -0.028656326234340668, -0.01798388361930847, -0.10168314725160599, 0.038758404552936554, -0.00686682341620326, -0.050163183361291885, -0.0866260677576065, -0.027833979576826096, -0.027086256071925163, -0.031169183552265167, -0.04010598361492157, 0.03966936841607094, 0.06946083158254623, -0.037902284413576126, 0.057679884135723114, -0.019374381750822067, -0.031666167080402374, -0.007720744702965021, -0.12827910482883453, -0.000979870674200356, 0.03580421954393387, -0.006227385718375444, -0.12702669203281403, -0.19941161572933197, -0.007919029332697392, -0.036838874220848083, -0.01975477673113346, -0.06558916717767715, 0.0503203421831131, 1.4094811376708094e-05, -0.13321752846240997, -0.008835257962346077, 0.007653913460671902, -0.15951386094093323, -0.17285290360450745, -0.08476641774177551, -0.08479949086904526, -0.058347973972558975, -0.13779997825622559, -0.05352918431162834, -0.05180414021015167, -0.05988665297627449, -0.0398971326649189, -0.04239996522665024, -0.07198218256235123, 0.007732515223324299, 0.10869371145963669, -0.04327302426099777, -0.03630521893501282, -0.15399253368377686, -0.07105278223752975, -0.060784537345170975, 0.00302381650544703, 0.07320693135261536, 0.03319067880511284, -0.08507809042930603, -0.07245146483182907, 0.026930812746286392, 0.03248845040798187, 0.052968766540288925, -0.04929480329155922, 0.07718109339475632, 0.05591750144958496, -0.08550115674734116, -0.010526097379624844, -0.035698939114809036, -0.11057481169700623, -0.05950267240405083, -0.02193114161491394, -0.08056388795375824, -0.08003326505422592, -0.047080062329769135, -0.06950565427541733, -0.08287252485752106, 0.05875084549188614, 0.030524471774697304, 0.24429835379123688, 0.006069247145205736, 0.006502074189484119, -0.07188661396503448, -0.047818683087825775, -0.03073853626847267, 0.047769900411367416, -0.0791773721575737, 0.0035535632632672787, -0.002659216756001115, -0.5248973965644836, -0.09590951353311539, -0.1383877694606781, -0.08953511714935303, 0.03765451908111572, 0.037761587649583817, 0.0047273519448935986, -0.008826624602079391, 0.01849810965359211, 0.007351508364081383, 0.019385304301977158, -0.061421290040016174], [0.002239146502688527, 0.07422719150781631, -0.06553604453802109, 0.07781822979450226, -0.08131086081266403, 0.0014560561394318938, 0.017683953046798706, -0.04242348298430443, 0.05244499072432518, -0.03358106315135956, -0.027293140068650246, 0.012416188605129719, 0.02626628614962101, 0.08593520522117615, -0.02049410156905651, 0.04502337425947189, 0.005302507895976305, 0.01703842729330063, 0.06597703695297241, -0.05184199661016464, 0.02925470471382141, -0.06406563520431519, 0.048211343586444855, -0.04460059106349945, -0.002352511277422309, -0.0067301588132977486, -0.05338209867477417, -0.06987906992435455, 0.018497126176953316, 0.03790513798594475, 0.057191409170627594, -0.0008121796417981386, -0.01561236847192049, -0.018380654975771904, 0.009925497695803642, -0.00032107747392728925, 0.07950125634670258, 0.07445386052131653, -0.0075437650084495544, -0.06104256585240364, 0.0036135544069111347, -0.010130993090569973, 0.0006287952419370413, -0.017418934032320976, -0.08329859375953674, 0.06469286233186722, 0.05378459766507149, -0.03897562995553017, -0.05545975640416145, 0.06607131659984589, 0.028395183384418488, 0.05882649123668671, -0.03868476301431656, 0.008148671127855778, -0.002085775835439563, 0.014359666965901852, -0.04926438257098198, 0.05357065424323082, 0.028532113879919052, 0.036796934902668, 0.010411904193460941, -0.0454721562564373, -0.06493929773569107, -0.07050509005784988, 0.016843320801854134, -0.027957431972026825, -0.0353640653192997, 0.005739008542150259, -0.003923915326595306, 0.007066589314490557, 0.011269369162619114, 0.03070526197552681, 0.040721599012613297, -0.04027212783694267, 0.03718028962612152, 0.04732951521873474, 0.05222572758793831, 0.03079167753458023, -0.04502083361148834, -0.009589584544301033, 0.014694674871861935, 0.05154735967516899, -0.02913103625178337, 0.08108413219451904, -0.02680085599422455, -0.06305431574583054, 0.05557052791118622, 0.07901165634393692, 0.00820743665099144, -0.04748764634132385, -0.016168177127838135, 0.06099453195929527, -0.03502548858523369, 0.04072686284780502, -0.08582790940999985, 0.042294904589653015, -0.010532045736908913, 0.0020572419743984938, 0.003557157004252076, -0.06672047823667526, 0.0675615593791008, -0.06408489495515823, 0.0365760438144207, 0.059738513082265854, 0.0061187450774014, -0.03867536038160324, -0.06109244376420975, -0.0030521959997713566, 0.05154544487595558, -0.0181915033608675, -0.045904241502285004, 0.039642419666051865, -0.01616634614765644, -0.005973404739052057, 0.07187892496585846, -0.0754213035106659, 0.035929612815380096, 0.03983747586607933, -0.05602051690220833, 0.03767155110836029, -0.041984669864177704, 0.040157679468393326, 0.07571396976709366, -0.04882185533642769, 0.04841866344213486, -0.010379581712186337, -0.0056368401274085045, -0.08394742012023926, -0.046882566064596176, -0.04129989817738533, 0.013190113008022308, 0.026043519377708435, -0.09622817486524582], [0.13982529938220978, 0.10874336957931519, 0.04929317161440849, -0.06957901269197464, 0.04860452190041542, 0.050025589764118195, -0.024051208049058914, -0.011707544326782227, -0.07171694189310074, -0.05551743134856224, 0.024656513705849648, 0.04526655748486519, -0.006916610989719629, -0.012277523055672646, -0.0709795206785202, 0.03141053020954132, 0.03651440888643265, 0.011324443854391575, 0.02761402353644371, 0.013000094331800938, -0.028255419805645943, -0.037581916898489, 0.030362268909811974, -0.10149538516998291, 0.032120924443006516, 0.08601000159978867, 0.07387048751115799, -0.09831511974334717, 0.023263726383447647, -0.015449710190296173, 3.392778671695851e-05, 0.002825779840350151, -0.029454298317432404, 0.03021523728966713, 0.07264332473278046, 0.034227967262268066, -0.028975777328014374, -0.04142088070511818, -0.07618778944015503, -0.09010469913482666, -0.0015772442566230893, -0.09229130297899246, -0.010703196749091148, -0.07468932867050171, -0.12360390275716782, 0.06633743643760681, 0.0031243672128766775, 0.014851427637040615, 0.0648794025182724, 0.05656396970152855, -0.09775813668966293, 0.03623553737998009, -0.0838388130068779, -0.05315214768052101, -0.08796346187591553, 0.027489889413118362, -0.051559027284383774, 0.0781916007399559, -0.013459441252052784, -0.04634707421064377, -0.07781928032636642, 0.002827929798513651, 0.037570398300886154, -0.07142197340726852, -0.018651530146598816, -0.09025891870260239, 0.0205612163990736, 0.0791245698928833, -0.04824724793434143, -0.09297123551368713, 0.011658445000648499, -0.04381473362445831, -0.0319182462990284, 0.020200036466121674, -0.07683323323726654, -0.09290681779384613, 0.03241679072380066, -0.014959415420889854, 0.0024392574559897184, 0.056705325841903687, -0.05405925586819649, -0.12481456995010376, 0.0631924644112587, -0.0532243475317955, -0.04007445648312569, -0.03981738165020943, 0.015437405556440353, 0.035899560898542404, -0.03626393526792526, -0.0647788718342781, 0.001642146147787571, -0.012502730824053288, -0.023141557350754738, -0.05703462287783623, 0.04735855385661125, -0.021989766508340836, -0.10605194419622421, 0.08350975811481476, 0.060446515679359436, -0.026301056146621704, -0.04867396503686905, -0.07549910992383957, -0.001956487540155649, -0.008445776998996735, -0.03983612731099129, 0.020087705925107002, -0.06395481526851654, -0.023523490875959396, 0.07974456995725632, 0.03997379168868065, 0.0005424729897640646, -0.00448899669572711, -0.02616995945572853, -0.09101293236017227, 0.10735245048999786, 0.0820031613111496, 0.011845528148114681, -0.06248662248253822, -0.040270641446113586, 0.09671539813280106, 0.015310611575841904, 0.05625540390610695, 0.03263692557811737, 0.0005548322224058211, 0.047529563307762146, 0.02711932733654976, 0.07970681041479111, -0.011735085397958755, -0.0014245050260797143, -0.029285093769431114, -0.015848232433199883, -0.01184806227684021, -0.07429225742816925], [0.054586123675107956, 0.04428453743457794, -0.05137014389038086, -0.03741476684808731, -0.03783249482512474, 0.07453963905572891, -0.057260919362306595, -0.05808481201529503, -0.0996788889169693, -0.005581549368798733, 0.07325151562690735, -0.10111545026302338, 0.05712484195828438, 0.04510289430618286, -0.10457039624452591, 0.17693577706813812, -0.039896704256534576, 0.006744312588125467, 0.030482979491353035, -0.03020765632390976, -0.10144887864589691, -0.0700802356004715, -0.0025208070874214172, -0.04524184763431549, -0.04302838444709778, -0.05661137402057648, 0.011075273156166077, 0.00969097949564457, 0.044346634298563004, 0.0001603214186616242, 0.31156793236732483, 0.1379459649324417, 0.01321119163185358, 0.024351971223950386, 0.09967094659805298, 0.011231416836380959, -0.05358505621552467, -0.05376485362648964, -0.01946164481341839, -0.03866499289870262, -0.08400359004735947, -0.07966548949480057, -0.06481928378343582, -0.05612370744347572, -0.06555823236703873, 0.1164175495505333, -0.044826578348875046, -0.017053503543138504, 0.11647069454193115, -0.017358679324388504, 0.05728484317660332, -0.050792235881090164, -0.05700581148266792, 0.04719068482518196, 0.02286011539399624, -0.07378646731376648, 0.04652348533272743, -0.06377499550580978, -0.07314272969961166, 0.013349310494959354, 0.10196613520383835, 0.04137781634926796, -0.05945190042257309, 0.032849863171577454, -0.04749317094683647, 0.09539713710546494, -0.021864570677280426, 0.05233238264918327, 0.10455579310655594, 0.0003484505577944219, -0.07096081227064133, 0.03394431620836258, -0.058283254504203796, 0.021175969392061234, 0.06516432762145996, 0.06054487079381943, 0.06361271440982819, 0.09828995168209076, 0.04930279031395912, 0.015312877483665943, 0.03592342138290405, -0.0784871056675911, -0.006391395349055529, 0.014671550132334232, 0.031941380351781845, 0.06759380549192429, -0.018776673823595047, 0.0073011526837944984, -0.12172401696443558, -0.06204136088490486, 0.005746764130890369, -0.033237602561712265, 0.09401894360780716, 0.09395545721054077, 0.013489008881151676, -0.04545006901025772, -0.06513632833957672, -0.06678152084350586, 0.004823601804673672, 0.07792447507381439, -0.0077207195572555065, 0.049877457320690155, -0.09265453368425369, -0.006898766383528709, -0.039610594511032104, -0.006943219806998968, -0.043311890214681625, -0.00946694053709507, -0.003558073891326785, 0.03291030600667, 0.015536551363766193, -0.0768502727150917, -0.08167372643947601, -0.10839998722076416, -0.09033249318599701, -0.01967945694923401, -0.03868989646434784, 0.048131465911865234, 0.002070516813546419, -0.1517563909292221, 0.09928257018327713, -0.0037035353016108274, -0.24283556640148163, 0.040106259286403656, 0.040579356253147125, 0.027024343609809875, -0.014516361989080906, 0.03359554335474968, 0.05684792622923851, -0.03939860314130783, -0.02239914797246456, 0.05032923072576523, 0.0032185709569603205], [-0.02424108237028122, -0.06741156429052353, -0.022723358124494553, -0.035417139530181885, -0.08457162231206894, 0.052702829241752625, -0.13257357478141785, 0.006559461820870638, 0.016927070915699005, -0.019728615880012512, 0.05096353590488434, 0.0096940528601408, -0.11029767990112305, -0.10544927418231964, -0.1785551756620407, -0.02976207621395588, 0.08284617215394974, -0.07269234955310822, -0.025324063375592232, 0.03841457515954971, 0.15468207001686096, 0.07063579559326172, 0.0565553680062294, -0.0669109895825386, 0.07672224938869476, 0.05389520525932312, -0.0063746352680027485, -0.16060754656791687, -0.23820868134498596, 0.0974917784333229, -0.029104266315698624, 0.04937523603439331, -0.0284759309142828, 0.0283774696290493, 0.025928311049938202, 0.0028045731596648693, 0.14965549111366272, 0.038038864731788635, -0.022151948884129524, 0.1535051167011261, -0.041847966611385345, 0.07047632336616516, -0.014339091256260872, 0.01888898015022278, -0.015473508276045322, -0.02313394285738468, -0.0481160506606102, 0.012304508127272129, -0.03212052956223488, -0.0231050793081522, -0.02060745842754841, 0.19916501641273499, -0.007521799299865961, -0.3038997948169708, 0.15501345694065094, -0.0052477335557341576, -0.15288160741329193, 0.017995048314332962, -0.03148951008915901, -0.08552342653274536, -0.049578264355659485, -0.015603355132043362, -0.05368302762508392, -0.0102540897205472, -0.03260483965277672, -0.05352988466620445, -0.16462507843971252, -0.056464411318302155, -0.10848063975572586, -0.0056106531992554665, 0.06613623350858688, -0.1492069661617279, -0.11101793497800827, -0.11665789037942886, -0.12534429132938385, -0.06724349409341812, 0.019661253318190575, -0.10435613989830017, -0.012074549682438374, -0.03551561012864113, -0.01803954876959324, 0.10478571057319641, 0.013195759616792202, -0.10195586085319519, 0.092427559196949, -0.039198148995637894, 0.019870389252901077, 0.00967683270573616, 0.004648738075047731, 0.053279779851436615, -0.09481606632471085, -0.006659435108304024, 0.025468209758400917, 0.07573121786117554, 0.0160326287150383, -0.012299207039177418, 0.20160408318042755, 0.022564198821783066, 0.11985458433628082, -0.13022100925445557, -0.06020372733473778, -0.02051014080643654, 0.04988638684153557, 0.10000349581241608, 0.010120688937604427, -0.023472527042031288, -0.005090966355055571, -0.09060093015432358, 0.05097915977239609, -0.006692324299365282, 0.06976360827684402, 0.12849020957946777, -0.023757467046380043, -0.11571542173624039, -0.03284503147006035, 0.06378164142370224, -0.07194112241268158, 0.022593699395656586, -0.011582870036363602, -0.05109713226556778, -0.0707312747836113, 0.003636203007772565, 0.12531797587871552, 0.006446352228522301, 0.03087046928703785, 0.02841956727206707, 0.06411941349506378, -0.11214253306388855, -0.01305995974689722, -0.014680201187729836, 0.002878978382796049, 0.007119730580598116, 0.022945968434214592], [-0.03257061168551445, -0.07924118638038635, -0.025923416018486023, -0.039181750267744064, -0.059210196137428284, -0.02000868320465088, -0.10279935598373413, -0.04741128161549568, 0.10385926067829132, -0.0029523547273129225, 0.060389067977666855, 0.0029345627408474684, 0.006837146356701851, -0.019549164921045303, -0.024050146341323853, -0.019933875650167465, 0.035155199468135834, -0.03178233653306961, 0.03419116884469986, -0.07932883501052856, -0.012522438541054726, -0.13252709805965424, -0.06464943289756775, 0.06568799167871475, 0.09039866924285889, 0.0216425321996212, 0.06610218435525894, 0.020931599661707878, -0.12791651487350464, 0.04483020678162575, 0.03154601529240608, -0.0030892842914909124, -0.07681373506784439, 0.004532907158136368, 0.04146097972989082, 0.01641017384827137, -0.05642188340425491, -0.07787515968084335, 0.013253619894385338, 0.10335130244493484, 0.03022923320531845, -0.06602650135755539, 0.04308871179819107, 0.03399914503097534, 0.04773439094424248, 0.03694639727473259, 0.030978193506598473, -0.11930030584335327, -0.02452109009027481, -0.059769146144390106, 0.014445709064602852, 0.08092505484819412, -0.07050182670354843, -0.1076367050409317, 0.0596439391374588, 0.05569617077708244, 0.06565205752849579, -0.029752764850854874, 0.010149623267352581, -0.03358278051018715, 0.005002134013921022, -0.07382940500974655, 0.01644912362098694, 0.04719969257712364, -0.05130589008331299, 0.05855078622698784, 0.020303066819906235, 0.005863142665475607, -0.003739413572475314, -0.08078206330537796, -0.007714962121099234, 0.07547087222337723, -0.08418511599302292, 0.0869995579123497, 0.03922737389802933, -0.05426269769668579, 0.01949097216129303, -0.02920077182352543, -0.06974370032548904, -0.008940312080085278, -0.10307104885578156, 0.03199915215373039, -0.07349594682455063, 0.010195441544055939, -0.06453254073858261, 0.07833431661128998, 0.08375351876020432, -0.07787331193685532, 0.011644544079899788, -0.01937180384993553, -0.00770959910005331, 0.06800160557031631, 0.028844406828284264, 0.05224134773015976, -0.033936623483896255, -0.09648270159959793, -0.005241126753389835, -0.052126917988061905, -0.08894594013690948, -0.07404380291700363, -0.06152557209134102, -0.09350559860467911, -0.059837426990270615, 0.028933851048350334, -0.0888635665178299, -0.0065803490579128265, -0.07180242985486984, -0.050079405307769775, 0.06152970716357231, 0.03686252608895302, 0.032670870423316956, -0.03812124952673912, 0.08406685292720795, -0.05607980862259865, -0.03499292582273483, -0.07070709019899368, -0.07671057432889938, 0.014265242964029312, -0.08348029851913452, 0.09492816030979156, -0.07066208124160767, 0.03124435618519783, 0.03153333067893982, -0.09291640669107437, -0.018411394208669662, -0.050455786287784576, 0.05583178624510765, -0.07819370180368423, -0.06011934578418732, -0.057712458074092865, -0.01711469143629074, -0.03714301437139511, -0.03467000648379326], [-0.02846102975308895, 0.07001084089279175, -0.0352025032043457, 0.11309586465358734, 0.01114635169506073, -0.008144599385559559, -0.16617579758167267, -0.011152449995279312, 0.001155952224507928, 0.03419434279203415, 0.04002552106976509, -0.03315653279423714, 0.04407899081707001, -0.05070643126964569, 0.028523486107587814, 0.24904628098011017, -0.08478264510631561, 0.13068795204162598, 0.01044944766908884, 0.02335870824754238, -0.08576285094022751, -0.02626190334558487, -0.016138244420289993, 0.03680727258324623, 0.1748732179403305, 0.0784422755241394, -0.09111335128545761, -0.02231084741652012, 0.02021426148712635, 0.19324533641338348, 0.29434043169021606, 0.17585904896259308, 0.07714494317770004, 0.07484308630228043, 0.09887047857046127, -0.012682506814599037, -0.0011798162013292313, 0.050613634288311005, -0.025299865752458572, -0.04532954841852188, -0.03079376555979252, -0.021188341081142426, -0.02799401432275772, -0.13467654585838318, -0.049164485186338425, 0.006584018934518099, -0.05903169885277748, -0.005537641700357199, -0.008528586477041245, -0.03060734085738659, -0.025706734508275986, 0.1160123348236084, 0.09073291718959808, -0.05810311436653137, 0.024648917838931084, -0.057755738496780396, 0.013161422684788704, 0.06779391318559647, 0.017764512449502945, -0.02236010879278183, 0.0012497728457674384, 0.011581889353692532, 0.05821875110268593, 0.10568588972091675, 0.0009901784360408783, -0.022053495049476624, 0.04286236688494682, 0.014719882048666477, -0.16574516892433167, 0.07617789506912231, 0.05855614319443703, 0.06879546493291855, -0.1319037675857544, -0.08801762014627457, 0.05532500892877579, -0.03830299153923988, 0.029338181018829346, 0.0024846766609698534, 0.014109916053712368, 0.07887588441371918, -0.05725906789302826, -0.14145775139331818, -0.00391800981014967, -0.1862500160932541, 0.10294617712497711, -0.06785127520561218, 0.07673073559999466, -0.032928887754678726, -0.15810824930667877, -0.0123238330706954, 0.011404970660805702, 0.017497064545750618, -0.07330393046140671, -0.10020198673009872, -0.07315510511398315, -0.03732023388147354, -0.03925732150673866, 0.08635739237070084, 0.11766409873962402, -0.21577656269073486, 0.07172422111034393, 0.11791867017745972, 0.048408932983875275, -0.05784321576356888, -0.022812237963080406, -0.04758498817682266, 0.063788503408432, 0.05510421842336655, -0.06077437102794647, 0.07819463312625885, 0.13922323286533356, -0.064968541264534, -0.028471171855926514, 0.01776222698390484, -0.11723332852125168, -0.07101011276245117, -0.012530590407550335, -0.007301623001694679, 0.07286463677883148, -0.017149100080132484, 0.0526726208627224, -0.16867592930793762, 0.06405496597290039, 0.05748368427157402, 0.035630859434604645, -0.052514608949422836, 0.005415064748376608, -0.02963569015264511, -0.011029797606170177, -0.02730361744761467, 0.010350639931857586, -0.08416739851236343, 0.01774059236049652], [0.21152959764003754, 0.2518462538719177, 0.01681487262248993, 0.028118865564465523, 0.13324929773807526, -0.05571821704506874, 0.018750010058283806, 0.013317972421646118, 0.07831103354692459, -0.04103882238268852, 0.040106333792209625, -0.032954126596450806, -0.08369727432727814, 0.021045323461294174, -0.021594062447547913, 0.017649583518505096, 0.0445394404232502, 0.07820618897676468, 0.02656073495745659, 0.05629926547408104, -0.12946677207946777, 0.005034812726080418, 0.1202753484249115, 0.005614822264760733, 0.03444250300526619, 0.055914200842380524, 0.07006733119487762, -0.011449635028839111, -0.11444889008998871, -0.08021873980760574, 0.07892262935638428, -0.028694553300738335, -0.050701312720775604, -0.023499684408307076, -0.06444961577653885, -0.03351230174303055, -0.08120790123939514, -0.08174414187669754, -0.05039576068520546, -0.016507353633642197, -0.08254025876522064, 0.005505858454853296, -0.05618363618850708, -0.11799725890159607, -0.0776209905743599, 0.08511035889387131, -0.04250963404774666, 0.027969637885689735, -0.006425322499126196, -0.040201298892498016, 0.060252513736486435, 0.0035654986277222633, 0.039122793823480606, 0.03197009861469269, -0.1003219410777092, 0.05934878811240196, 0.04891002178192139, 0.0886586531996727, 0.020644910633563995, 0.022533148527145386, 0.13045544922351837, -0.07443925738334656, 0.09588263183832169, -0.035636890679597855, -0.07509416341781616, -0.012698715552687645, 0.02306838519871235, 0.11372672021389008, 0.03485150635242462, -0.0050155227072536945, -0.04239023104310036, 0.079503633081913, 0.034956905990839005, -0.05192361772060394, -0.04232380539178848, 0.038587749004364014, 0.07043713331222534, 0.01262182928621769, -0.04276330769062042, -0.04620470106601715, 0.020785748958587646, -0.03651750832796097, 0.04075513780117035, -0.09817462414503098, -0.11614631116390228, -0.07965696603059769, 0.07522641122341156, 0.04332883656024933, 0.031172236427664757, -0.029874533414840698, 0.0632794201374054, 0.05989877134561539, 0.1878223419189453, 0.06656838953495026, 0.06319206953048706, 0.009385324083268642, -0.08597219735383987, 0.060439907014369965, -0.10872810333967209, -0.04561438784003258, 0.053889188915491104, -0.05064021795988083, 0.024854209274053574, -0.04874630272388458, -0.06191013753414154, 0.09426352381706238, -0.022305479273200035, -0.025538869202136993, 0.015054287388920784, 0.0349530391395092, -0.2051544189453125, -0.11192765831947327, -0.046248506754636765, -0.053969573229551315, -0.08856858313083649, -0.014598280191421509, -0.03730420023202896, -0.09316609054803848, -0.08525869250297546, -0.008283456787467003, 0.09942863136529922, -0.01950538344681263, -0.20507106184959412, -0.024175414815545082, -0.005364334676414728, -0.01827802136540413, -0.01578320376574993, 0.10484784841537476, 0.08588045835494995, 0.0573127418756485, -0.02577243372797966, -0.0396389476954937, 0.0014827477280050516], [-0.1112564355134964, -0.13316383957862854, -0.04197385907173157, 0.04144543036818504, -0.021395765244960785, -0.02343626879155636, -0.01828026957809925, -0.06127887964248657, 0.07888848334550858, 0.0339643657207489, 0.0024507208727300167, -0.025565724819898605, 0.07693830877542496, 0.08685266971588135, -0.030064748600125313, 0.0550415925681591, -0.019781945273280144, -0.08096975833177567, -0.07109558582305908, -0.08578040450811386, 0.010089567862451077, 0.09965196251869202, 0.05047925189137459, -0.029997700825333595, 0.13025300204753876, 0.03559836372733116, -0.10790953785181046, 0.07521125674247742, -0.00832407921552658, 0.12563414871692657, 0.20752446353435516, 0.10390687733888626, 0.05674341693520546, 0.05513130873441696, 0.07396980375051498, -0.09020029753446579, 0.11854230612516403, -0.08371759206056595, -0.032338980585336685, 0.10472024232149124, -0.004482162185013294, -0.05326797068119049, 0.08993792533874512, 0.02944328635931015, 0.09849192202091217, 0.03654312714934349, -0.08503290265798569, -0.06847880780696869, -0.020206235349178314, -0.001227404223755002, -0.04117796942591667, 0.0805697813630104, -0.05460526421666145, -0.03974098712205887, 0.030437113717198372, -0.03781524673104286, -0.09071562439203262, -0.02097056433558464, 0.05632137507200241, 0.00774015486240387, -0.0309151504188776, 0.11160155385732651, 0.11124610900878906, 0.10282666981220245, -0.05073772370815277, -0.01463809423148632, 0.04099293798208237, 0.010998432524502277, -0.08950352668762207, -0.18308497965335846, -0.07679916173219681, 0.04392017424106598, 0.009632115252315998, -0.0418657548725605, -0.08990544080734253, 0.013858182355761528, 0.000797835411503911, -0.035186782479286194, 0.056019339710474014, -0.06098688021302223, -0.023742984980344772, 0.10094096511602402, -0.020621707662940025, 0.029950739815831184, -0.08489812910556793, 0.06173223629593849, 0.09243793040513992, -0.03139267861843109, -0.19397185742855072, 0.031766537576913834, 0.0010263256262987852, 0.026792209595441818, -0.03365480154752731, -0.08755575865507126, -0.04448859021067619, -0.011331583373248577, 0.07025977969169617, -0.05095871910452843, 2.8123460651841015e-05, -0.023637134581804276, -0.036277446895837784, -0.09736394137144089, -0.03162573650479317, -0.05435652658343315, -0.029955310747027397, -0.053178854286670685, 0.032544780522584915, 0.05033259093761444, -0.07618220150470734, 0.036240700632333755, 0.1552354395389557, 0.17929372191429138, -0.0826840028166771, 0.07241160422563553, 0.10786398500204086, -0.025057123973965645, -0.010680253617465496, 0.07599523663520813, -0.002027631737291813, -0.05806618556380272, -0.04201649874448776, 0.07518552243709564, 0.1670592725276947, -0.017962146550416946, -0.06083265319466591, -0.08091387152671814, 0.028478797525167465, 0.018703490495681763, -0.07567135989665985, -0.09289547801017761, 0.016503969207406044, 0.06632807105779648, -0.06563645601272583], [0.06616088002920151, 0.01889912225306034, 0.12568439543247223, 0.10337790846824646, 0.017689615488052368, 0.017796576023101807, -0.10038290172815323, 0.060867805033922195, -0.046595994383096695, -0.1315445452928543, -0.0844738632440567, 0.04762852564454079, -0.002851958852261305, 0.018842019140720367, -0.10742595791816711, 0.04922528564929962, -0.05371531844139099, -0.06457319110631943, -0.07896038889884949, -0.08320660889148712, 0.04755053296685219, -0.04048502445220947, -0.08013752102851868, -0.04087616130709648, -0.10677087306976318, -0.06477059423923492, -0.05499841645359993, 0.01908792555332184, -0.048078250139951706, -0.15440304577350616, -0.009485993534326553, -0.03088558092713356, 0.0006801557028666139, 0.02572004497051239, -0.017165256664156914, -0.047538332641124725, 0.06313776969909668, 0.03812312334775925, 0.0786077007651329, 0.04105351120233536, 0.03800222650170326, -0.1987387090921402, -0.03582814335823059, -0.04082489386200905, 0.06509675830602646, -0.11282995343208313, 0.05058761313557625, -0.02771250158548355, 0.05891317501664162, -0.03431771323084831, 0.014662705361843109, 0.05704158544540405, -0.06543189287185669, 0.002164980163797736, -0.10998960584402084, -0.011873945593833923, 0.04861077666282654, 0.00034879858139902353, -0.0357402078807354, -0.10194969177246094, 0.1091947928071022, -0.07121972739696503, -0.03974940627813339, 0.05062857270240784, 0.021351531147956848, -0.008494253270328045, -0.08048348128795624, 0.06198004260659218, -0.02912640944123268, -0.10158898681402206, -0.06724413484334946, -0.001369516015984118, -0.06713881343603134, -0.16770261526107788, -0.07943372428417206, 0.02720206044614315, 0.013430165126919746, -0.07137241214513779, -0.05201992392539978, -0.05462271720170975, 0.0013759584398940206, 0.14535100758075714, -0.0649646446108818, -0.18236993253231049, -0.13838091492652893, -0.010311048477888107, 0.02392561547458172, 0.07801946252584457, -0.008328883908689022, -0.14667272567749023, -0.03587743639945984, 0.05053733289241791, -0.04755792021751404, -0.02504398673772812, -0.04300583899021149, 0.007273889612406492, 0.19477352499961853, -0.0008614471880719066, -0.10301890969276428, -0.07169158011674881, -0.008639698848128319, -0.11663555353879929, -0.023526543751358986, -0.0788339301943779, -0.14043545722961426, 0.1290816068649292, -0.0054346714168787, 0.049237724393606186, 0.09752324223518372, 0.06495026499032974, 0.03319858759641647, 0.21898752450942993, -0.07330034673213959, -0.011842044070363045, 0.0329548604786396, -0.07382169365882874, 0.011761504225432873, -0.02368798851966858, 0.006628464907407761, -0.08028202503919601, -0.03260374441742897, -0.1962999552488327, -0.011357484385371208, 0.03702651709318161, -0.029870230704545975, -0.036369431763887405, -0.06296862661838531, -0.09158577769994736, 0.03244243934750557, -0.05091627314686775, -0.004887796472758055, 0.04781714081764221, -0.03350914269685745], [0.02556203305721283, -0.03462120518088341, -0.05530581995844841, 0.09142996370792389, -0.044263776391744614, 0.04350705444812775, 0.16533365845680237, -0.06775539368391037, 0.16749322414398193, 0.026702648028731346, -0.042321596294641495, 0.017917970195412636, -0.045834679156541824, 0.10623803734779358, 0.1250171661376953, -0.05864943563938141, 0.021501628682017326, 0.022172970697283745, 0.014923281036317348, 0.060922231525182724, -0.0038741743192076683, 0.08563071489334106, -0.042095720767974854, -0.04166693985462189, 0.04964414983987808, 0.011654641479253769, 0.07479898631572723, -0.0016628094017505646, 0.05324986204504967, 0.07761355489492416, 0.14595597982406616, 0.0693160891532898, -0.0982147827744484, -0.01583973690867424, -0.047957368195056915, 0.08307921141386032, -0.057870328426361084, -0.01484762318432331, -0.06012769043445587, -0.13169297575950623, 0.02040315419435501, -0.018552089110016823, 0.03048797883093357, -0.028277145698666573, 0.030238401144742966, 0.11503221839666367, -0.04885965213179588, 0.029247552156448364, 0.027706509456038475, -0.018586037680506706, -0.03789478912949562, -0.10150301456451416, 0.06341220438480377, 0.041547827422618866, -0.15091466903686523, -0.018646515905857086, 0.021741727367043495, 0.01398327574133873, -0.011631044559180737, 0.04810141399502754, 0.1330323964357376, 0.005568074528127909, -0.06367220729589462, -0.039214424788951874, -0.014331899583339691, 0.02651313878595829, 0.017559388652443886, -0.07278887927532196, -0.02096547558903694, -0.019202828407287598, -0.030633412301540375, 0.05215063691139221, -0.0643821507692337, -0.019839396700263023, -0.08386053144931793, -0.03967955335974693, -0.06842903047800064, 0.04212512448430061, 0.02624203823506832, -0.07489895075559616, 0.05523458868265152, 0.0023710299283266068, -0.02348911203444004, 0.06271984428167343, -0.035988133400678635, 0.05865250155329704, -0.027966473251581192, 0.08691337704658508, -0.2121119648218155, 0.016964459791779518, -0.09306736290454865, 0.03202835097908974, -0.03697151318192482, 0.01664363406598568, 0.000514622253831476, -0.013031452894210815, -0.1328738033771515, -0.03999223932623863, -0.015351768583059311, -0.08465240150690079, 0.07788100838661194, -0.07933724671602249, -0.10970054566860199, 0.023185845464468002, -0.034842342138290405, -0.0294184610247612, -0.004812605679035187, -0.011891723610460758, -0.009990597143769264, -0.03498389571905136, 0.043249111622571945, 0.08609451353549957, -0.051114775240421295, -0.1719963550567627, 0.11577954888343811, 0.08321888744831085, -0.055054496973752975, 0.06894753873348236, -0.2155052125453949, -0.06512193381786346, -0.10862134397029877, -0.04533333331346512, 0.07303269952535629, 0.015380360186100006, 0.014159558340907097, 0.036799151450395584, -0.07604840397834778, -0.05818302929401398, 0.012239702045917511, -0.022422263398766518, -0.03322714939713478, -0.014796539209783077, -0.05161929130554199], [0.01344243623316288, -0.05350463464856148, -0.1061476469039917, -0.04027991741895676, 0.008657087571918964, -0.03047480434179306, -0.06283386051654816, 0.07490474730730057, -0.08672615885734558, 0.03600970283150673, -0.06338334828615189, 0.0005710794357582927, 0.058251071721315384, 0.06061285734176636, -0.04630541801452637, -0.06857576221227646, 0.024106906726956367, 0.011395475827157497, -0.06641963124275208, 0.10288561880588531, -0.007381560280919075, 0.16033616662025452, 0.07052074372768402, 0.012624723836779594, 0.14560796320438385, 0.07383541017770767, 0.021068109199404716, -0.11019587516784668, -0.04002863168716431, 0.0314457006752491, -0.0914432480931282, 0.03378637880086899, -0.011419937945902348, 0.029439358040690422, 0.048458974808454514, -0.1284952610731125, 0.15195494890213013, 0.07849472761154175, 0.010977675206959248, 0.2068464756011963, -0.07672807574272156, -0.010265099816024303, 0.03578751161694527, 0.10414960980415344, 0.16827784478664398, 0.004517345689237118, 0.043120186775922775, -0.02897733822464943, -0.038485318422317505, -0.0304785817861557, -0.004391657654196024, 0.05070694908499718, 0.0058831642381846905, -0.007042745593935251, 0.16213060915470123, -0.012759795412421227, 0.08486923575401306, 0.009042643010616302, 0.00411228695884347, -0.019867144525051117, -0.008304279297590256, 0.017465932294726372, -0.044121626764535904, -0.03149934485554695, 0.06109200417995453, -0.045300524681806564, -0.10341054946184158, -0.05940648168325424, -0.006050945725291967, -0.11598578840494156, -0.008468542248010635, -0.11637924611568451, 0.0015841322019696236, -0.13105206191539764, -0.039363227784633636, -0.11463271081447601, 0.04641914740204811, -0.03661452233791351, 0.0862525999546051, 0.03606545552611351, -0.018039003014564514, -0.03355131298303604, -0.05160278454422951, -0.021272795274853706, -0.029140135273337364, 0.03261227160692215, -0.1342799812555313, -0.035621970891952515, -0.12437178194522858, -0.010740951634943485, -0.08628087490797043, 0.04401553422212601, -0.10842085629701614, 0.0672413557767868, 0.04022981971502304, 0.03870439901947975, -0.08247488737106323, 0.0056898342445492744, 0.1087915450334549, 0.08279973268508911, 0.016548868268728256, 0.05154920369386673, 0.10710638016462326, -0.06076611950993538, -0.05125153064727783, -0.0437050424516201, -0.02169366180896759, -0.02640664577484131, -0.008245005272328854, -0.008272234350442886, -0.018706535920500755, -0.006109009962528944, -0.029228026047348976, -0.19479283690452576, 0.09051767736673355, -0.039373334497213364, -0.0914023369550705, 0.06118286773562431, 0.13041657209396362, 0.0009077700087800622, -0.07753902673721313, -0.07398459315299988, 0.1899842768907547, -0.05425957962870598, -0.07897482812404633, 0.007663081865757704, 0.08172156661748886, -0.04936375841498375, 0.04163338616490364, -0.04886782541871071, 0.022355573251843452, 0.029573986306786537, -0.01398435328155756], [-0.18792511522769928, -0.059443309903144836, -0.08026140183210373, 0.0028352222871035337, -0.1567990481853485, -0.013958259485661983, 0.11669808626174927, -0.06727362424135208, 0.030065763741731644, 0.16811884939670563, -0.023677518591284752, -0.0292209479957819, 0.034736793488264084, 0.11674915999174118, 0.07969580590724945, 0.08489558845758438, -0.052167318761348724, 0.12954217195510864, 0.05602939799427986, 0.08176188915967941, -0.15825113654136658, -0.01829463429749012, -0.007402906659990549, 0.028001606464385986, 0.026257069781422615, -0.036050718277692795, 0.15813863277435303, 0.06605168431997299, 0.09078378975391388, 0.019054196774959564, 0.16710540652275085, 0.043449368327856064, 0.09432598203420639, 0.15980054438114166, 0.08135251700878143, -0.06911124289035797, 0.0034466509241610765, -0.05704377219080925, -0.08125266432762146, -0.04437312111258507, 0.07976866513490677, 0.005602875258773565, -0.104609914124012, -0.042371369898319244, 0.051696132868528366, -0.01611366495490074, 0.06795964390039444, 0.0135929761454463, -0.003979096654802561, -0.04341137036681175, 0.030802395194768906, -0.0347733236849308, 0.04111611470580101, -0.04162413254380226, -0.10258191078901291, -0.058716703206300735, -0.020226525142788887, -0.023578040301799774, -0.10485638678073883, -0.04001268371939659, 0.060025401413440704, 0.012426464818418026, -0.05238613486289978, -0.047434281557798386, 0.06528694927692413, -0.0851006880402565, -0.016379142180085182, 0.02190542407333851, -0.056622497737407684, 0.06558853387832642, 0.00825910922139883, 0.06622383743524551, 0.031363923102617264, -0.10497520864009857, 0.06651104986667633, 0.02762283943593502, 0.02528833970427513, 0.08517663925886154, -0.11240577697753906, -0.08674658834934235, -0.11476806551218033, 0.04477009177207947, 0.06868668645620346, 0.08818560093641281, -0.005782716441899538, 0.08658718317747116, -0.08203045278787613, -0.00447543291375041, 0.08897051215171814, 0.03859465569257736, -0.20677295327186584, -0.09415097534656525, -0.008576909080147743, 0.021302882581949234, -0.059676967561244965, 0.051221609115600586, 0.05997886136174202, -0.0030216544400900602, 0.12767870724201202, 0.06738432496786118, 0.036361370235681534, -0.012151185423135757, 0.09216325730085373, 0.03764371573925018, 0.02520192600786686, -0.05857644975185394, 0.040013350546360016, -0.03406793996691704, 0.054247383028268814, -0.028099285438656807, 0.15861129760742188, 0.14952470362186432, -0.014685595408082008, 0.06074802950024605, 0.0712624192237854, -0.06073285639286041, -0.02750374563038349, -0.05530930310487747, 0.11772504448890686, 0.02991512231528759, 0.04265393316745758, 0.01858397200703621, 0.1890638917684555, 0.0010730401845648885, 0.047644227743148804, 0.03719062730669975, 0.05530203878879547, 0.02523668296635151, 0.002705997321754694, 0.07930019497871399, 0.07705441117286682, 0.0763571709394455, -0.009264957159757614], [0.1753694862127304, 0.09426446259021759, 0.08621124923229218, 0.10580012947320938, 0.05546743422746658, 0.07011479884386063, 0.14636141061782837, -0.06554964929819107, 0.03221695497632027, 0.011036894284188747, 0.015119914896786213, -0.029294433072209358, 0.08579644560813904, -0.067756786942482, 0.09508106112480164, 0.09481623768806458, -0.11893470585346222, -0.12245738506317139, 0.04718252643942833, 0.12961095571517944, 0.10103179514408112, 0.1346556693315506, 0.09015559405088425, -0.08295080810785294, 0.15865132212638855, -0.055294204503297806, 0.0746116116642952, -0.05422993004322052, 0.012225705198943615, 0.19314828515052795, 0.1104215607047081, -0.04659563675522804, -0.0667172223329544, -0.03483365848660469, -0.11852167546749115, -0.062853142619133, 0.08583424985408783, 0.002605099231004715, 0.045852139592170715, 0.039753638207912445, -0.027996061369776726, -0.006878660526126623, 0.0819774940609932, 0.08443349599838257, 0.09789493680000305, 0.04260904714465141, 0.03296807035803795, 0.014137379825115204, -0.12810610234737396, 0.04629622399806976, -0.011127525940537453, 0.08384522795677185, -0.005646867677569389, -0.004277424421161413, -0.025294899940490723, -0.06569056212902069, -0.05697858706116676, 0.1268850564956665, 0.027271131053566933, -0.013757457956671715, 0.09729104489088058, 0.06365185230970383, 0.08802074193954468, -0.030156787484884262, -0.045083899050951004, 0.07942244410514832, 0.014747705310583115, 0.10916700214147568, -0.022140810266137123, -0.07850705087184906, -0.0658254474401474, 0.09597750008106232, -0.05467155948281288, -0.004910103511065245, 0.022108135744929314, 0.13580943644046783, -0.008154741488397121, 0.08639360219240189, -0.011583778075873852, 0.010879077948629856, -0.04212280735373497, -0.03927430137991905, 0.07502581924200058, -0.06456216424703598, -0.01901756413280964, -0.036290254443883896, -0.044937290251255035, -0.05712348595261574, 0.040124304592609406, -0.06782960146665573, 0.10595772415399551, 0.03138973191380501, 0.098788782954216, 0.045466914772987366, 0.02806604839861393, -0.00906884390860796, -0.04441435635089874, -0.0029839612543582916, -0.15141095221042633, -0.056395452469587326, -0.029787316918373108, 0.06373341381549835, 0.003822066355496645, -0.0014647500356659293, -0.10108377784490585, 0.10086559504270554, 0.03722982108592987, -0.04343140125274658, 0.019763143733143806, -0.00399117823690176, -0.0884033590555191, -0.030980244278907776, 0.02398008294403553, 0.04637023061513901, 0.0167574230581522, 0.0612584725022316, 0.03303764760494232, -0.07004625350236893, 0.04441317915916443, 0.024934932589530945, 0.034458424896001816, -0.12217556685209274, 0.1187111958861351, 0.0077402908354997635, 0.04258407652378082, -0.037732187658548355, -0.08000140637159348, 0.012313312850892544, -0.02213062159717083, -0.03221431374549866, 0.07063034921884537, -0.07315518707036972, 0.04369940608739853], [-0.11123883724212646, -0.04855119809508324, -0.05921011045575142, 0.05037185177206993, 0.030205659568309784, 0.06463715434074402, 0.12827147543430328, 0.023606589064002037, 0.06310238689184189, 0.06247132271528244, 0.05948570743203163, 0.09258764982223511, 0.10502276569604874, 0.07260622829198837, -0.04819932207465172, -0.08733545988798141, -0.07370133697986603, -0.0036125469487160444, -0.04884171113371849, -0.06228826567530632, -0.004179466515779495, 0.17946894466876984, -0.03491203114390373, 0.11360999941825867, -0.08933290094137192, 0.06357108056545258, 0.027295991778373718, 0.0461508072912693, 0.041666921228170395, 0.07749079912900925, -0.02273573912680149, -0.053612276911735535, 0.04192274063825607, -0.0653502345085144, -0.01888427697122097, 0.05295417457818985, 0.03378566354513168, 0.007587272208184004, -0.09794551134109497, -0.06756780296564102, 0.04819994419813156, 0.005942070856690407, 0.06784561276435852, 0.057058416306972504, -0.07515045255422592, 0.08757702261209488, 0.10764078795909882, 0.12191399931907654, 0.014200184494256973, 0.02192908339202404, 0.0038214996457099915, -0.046386294066905975, -0.01231427676975727, -0.08620263636112213, -0.14804263412952423, -0.04420448839664459, -0.06694010645151138, -0.03972150385379791, -0.009800455532968044, -0.03544548526406288, -0.05279666185379028, -0.003538343822583556, 0.05645853653550148, -0.07725552469491959, 0.09862197935581207, -0.009774203412234783, 0.11936879903078079, 0.00022651386098004878, -0.08316051959991455, -0.06650471687316895, 0.03485380485653877, 0.026251638308167458, -0.04969475045800209, 0.029693741351366043, -0.05325585603713989, -0.005041472613811493, -0.026956815272569656, -0.06259198486804962, 0.06979280710220337, -0.08924783021211624, -0.02913604862987995, 0.043669942766427994, -0.024247629567980766, 0.03956310823559761, 0.010566695593297482, 0.04620344191789627, -0.02734203450381756, 0.01633361726999283, 0.046057362109422684, 0.012106373906135559, 0.2049809694290161, -0.05265333503484726, 0.012640170753002167, 0.0576724149286747, 0.15897919237613678, -0.007220156956464052, 0.05529608950018883, 0.030227433890104294, 7.071487289067591e-06, -0.021392732858657837, -0.032476507127285004, -0.07988309115171432, 0.0033156867139041424, 0.08953569829463959, -0.08540220558643341, 0.046303052455186844, 0.0015962643083184958, 0.00011510034528328106, -0.048351775854825974, 0.03984728828072548, -0.1502133309841156, 0.028210405260324478, -0.03372839838266373, 0.012781933881342411, 0.014041529037058353, 0.05317521095275879, 0.020535623654723167, 0.06614374369382858, -0.0003862837329506874, 0.03779187053442001, -0.04427993670105934, -0.14276625216007233, 0.08105919510126114, -0.047907330095767975, -0.09457927942276001, 0.01712513156235218, 0.04617338255047798, -0.07489774376153946, 0.03864346072077751, -0.08082718402147293, -0.02179211936891079, 0.03178548440337181, 0.005956849083304405], [-0.03289932385087013, -0.027698073536157608, -0.07733254134654999, -0.0362238809466362, -0.002022617729380727, -0.029847849160432816, 0.06977786868810654, -0.01414526253938675, -0.006869850680232048, -0.03605196624994278, 0.007738126907497644, 0.008490577340126038, -0.06917506456375122, -0.06074776500463486, 0.03311346471309662, -0.07984115928411484, 0.01792430505156517, 0.010946398600935936, -0.023845817893743515, 0.08332407474517822, 0.01466964278370142, 0.10863866657018661, 0.04672418162226677, 0.07500925660133362, 0.09166618436574936, -0.06293393671512604, 0.0023276740685105324, 0.0570426844060421, 0.1087525337934494, 0.0004865035298280418, -0.11876626312732697, -0.05732985958456993, 0.047027312219142914, 0.027933821082115173, -0.02367333509027958, 0.0636964663863182, 0.11260808259248734, 0.08905290812253952, 0.024537689983844757, 0.18959100544452667, -0.05192374810576439, 0.08302797377109528, -0.01752525195479393, 0.07909776270389557, -0.034643642604351044, -0.00028418711735866964, -0.024186916649341583, -0.04021386802196503, -0.030497504398226738, -0.041366834193468094, -0.0068960306234657764, 0.04988129809498787, 0.04179688170552254, -0.08162738382816315, -0.02572091482579708, -0.02043161168694496, 0.0009157924796454608, -0.023428933694958687, 0.017988039180636406, -0.0614645779132843, -0.024192914366722107, -0.053318966180086136, 0.0695207417011261, -0.07948602735996246, -0.04029373079538345, -0.022477716207504272, 0.03243039920926094, 0.06447595357894897, -0.035839200019836426, -0.042475733906030655, -0.015859922394156456, 0.025000087916851044, -0.02364087477326393, -0.0024533576797693968, -0.05271840840578079, 0.09059923887252808, -0.03772629052400589, 0.03846128284931183, -0.05628974363207817, -0.009572644717991352, -0.010337804444134235, 0.05442747846245766, 0.08600979298353195, -0.0005900971591472626, -0.03528308495879173, -0.02217974327504635, 0.06473575532436371, -0.029522204771637917, -0.00038488663267344236, -0.04698922112584114, 0.04735545814037323, -0.0025117225013673306, 0.0653415098786354, 0.01980474218726158, -0.004005351569503546, 0.06232450529932976, 0.17950302362442017, 0.07662415504455566, 0.02750072255730629, -0.053807809948921204, 0.053997479379177094, 0.10155735909938812, 0.06697210669517517, 0.04860762879252434, 0.0993058830499649, -0.1039995476603508, -0.059675369411706924, -0.06341046839952469, 0.046040307730436325, -0.10601618140935898, -0.1086629331111908, 0.0917360782623291, 0.0261762123554945, -0.05063916742801666, -0.02121913805603981, -0.07403722405433655, -0.021420754492282867, 0.02983264997601509, -0.003321027848869562, -0.0006362214917317033, -0.10687721520662308, -0.10336397588253021, 0.1623021364212036, -0.10845466703176498, 0.012599758803844452, -0.06916385889053345, 0.05633553862571716, -0.06717430800199509, -0.011367141269147396, 0.006204630248248577, -0.04390266537666321, 0.06391928344964981, 0.02475748211145401], [0.1876973807811737, -0.04268760234117508, 0.002964329207316041, -0.049444083124399185, -0.04049002006649971, -0.019684460014104843, -0.00015309661102946848, -0.029383523389697075, -0.022862855345010757, -0.07771003246307373, -0.05438961461186409, 0.04359189048409462, -0.04934192821383476, -0.005321654491126537, -0.07994775474071503, -0.03525403514504433, 0.04767051339149475, 0.01645410992205143, 0.03313364461064339, 0.04016959294676781, 0.07017172873020172, 0.022834505885839462, -0.053853780031204224, 0.07192381471395493, 0.13104461133480072, 0.0720057338476181, -0.09977357089519501, -0.20912621915340424, 0.0745849758386612, 0.1426694095134735, -0.015458790585398674, -0.056089360266923904, -0.11266200244426727, -0.07796256244182587, -0.0042032706551253796, -0.003029403742402792, 0.09431345760822296, 0.017465123906731606, 0.04386504366993904, 0.14072616398334503, 0.07225913554430008, -0.03848647698760033, 0.04767671599984169, 0.14908018708229065, 0.13678079843521118, -0.0028603447135537863, -0.002277929335832596, 0.0275704488158226, 0.07727653533220291, 0.01050324272364378, -0.03391618654131889, 0.12272600084543228, 0.06716521084308624, -0.015112045221030712, 0.12959210574626923, -0.017405815422534943, -0.008036885410547256, -0.03344598412513733, -0.004168846644461155, 0.051696617156267166, 0.03975246474146843, -0.06644503772258759, -0.0017091506160795689, 0.01736699603497982, -0.0023593285586684942, -0.032073553651571274, 0.06257978081703186, -0.01754269003868103, -0.047620099037885666, -0.02719208039343357, -0.005651342216879129, -0.10468830168247223, 0.05300145596265793, -0.10937226563692093, -0.048190027475357056, -0.03234739229083061, 0.004913270939141512, -0.03668029606342316, -0.03700632229447365, 0.015192149206995964, -0.018843531608581543, 0.06478990614414215, 0.0947858989238739, 0.03876471519470215, 0.06881581246852875, 0.07060609012842178, -0.07640298455953598, 0.007990056648850441, 0.038907747715711594, -0.05246106907725334, -0.08577131479978561, 0.005756815895438194, -0.06834875792264938, 0.06522928923368454, 0.036731820553541183, 0.020352637395262718, 0.026991350576281548, -0.008744957856833935, 0.1979714035987854, 0.08566884696483612, 0.0396956130862236, 0.08105699717998505, -0.02605271525681019, -0.04785484820604324, -0.00594981899484992, -0.09172254800796509, -0.09818065911531448, -0.08106976002454758, 0.075558602809906, 0.007963543757796288, -0.025999018922448158, -0.012710117734968662, -0.014483265578746796, -0.07424528151750565, -0.01436621230095625, 0.007200439926236868, -0.01905292645096779, -0.17754848301410675, -0.06700995564460754, 0.00019338987476658076, -0.024822192266583443, -0.07578179240226746, 0.17453181743621826, -0.020863717421889305, 0.03992091864347458, 0.038507115095853806, -0.07297869771718979, -0.023878298699855804, -0.01320344116538763, -0.030187755823135376, 0.02175966277718544, 0.02967318892478943, -0.08817462623119354], [0.23124442994594574, 0.006354491226375103, 0.07294446974992752, 0.11125178635120392, 0.1002635806798935, -0.059387654066085815, -0.014777924865484238, 0.03604414686560631, 0.0346594899892807, 0.11951356381177902, -0.029901528730988503, 0.028830360621213913, -0.058245133608579636, -0.06096511334180832, 0.13165001571178436, -0.028608856722712517, 0.07607057690620422, -0.06408446282148361, -0.053979307413101196, 0.10202304273843765, 0.07227565348148346, -0.033963367342948914, 0.04010885953903198, -0.017104728147387505, -0.07362335175275803, -0.07874789834022522, -0.03425372391939163, -0.02171938307583332, 0.07259789854288101, 0.0014665743801742792, -0.15541625022888184, 0.059643667191267014, -0.008634643629193306, -0.01677798107266426, -0.009449925273656845, -0.03640991449356079, -0.17603136599063873, -0.014438251033425331, -0.13407009840011597, 0.053403813391923904, -0.05357209965586662, -0.005441438872367144, -0.03226536512374878, -0.06513545662164688, -0.0790119618177414, -0.07954742014408112, 0.02116427756845951, -0.015192043036222458, 0.0011084965663030744, -0.08143047988414764, -0.04275093227624893, -0.0848914310336113, 0.016580836847424507, -0.07089117169380188, 0.02770894579589367, -0.08102498203516006, -0.04540155082941055, 0.07014176994562149, -0.14751802384853363, 0.002601153217256069, -0.014499606564640999, -0.027756396681070328, -0.09312964975833893, 0.004435056354850531, -0.12025535106658936, -0.055525731295347214, -0.01217342633754015, -0.017667777836322784, -0.14280562102794647, -0.025296827778220177, -0.06622427701950073, 0.030652891844511032, -0.07914745807647705, 0.0814952477812767, 0.03317490965127945, -0.04672207310795784, -0.10278681665658951, 0.07056718319654465, 0.009667432866990566, -0.006670390255749226, -0.008454126305878162, 0.08852691948413849, 0.034390490502119064, 0.09649068117141724, -0.17166706919670105, -0.007021789439022541, 0.035243626683950424, -0.030234044417738914, 0.032343048602342606, -0.06337274610996246, -0.0819796770811081, -0.005032995715737343, -0.02275901660323143, -0.09976916015148163, 0.015146439895033836, 0.04287676513195038, 0.16025426983833313, -0.017694706097245216, 0.14134186506271362, 0.08987471461296082, -0.021354611963033676, -0.07114674150943756, -0.006438518408685923, -0.039107441902160645, 0.046759702265262604, 0.0008378378115594387, -0.05304017663002014, 0.09514167904853821, -0.0002245193172711879, -0.02054464817047119, -0.11522265523672104, 0.08636748790740967, -0.016010059043765068, 0.09546981751918793, 0.05227027088403702, 0.07104898989200592, -0.02591032348573208, 0.0007537895580753684, -0.0018336045322939754, 0.006708959117531776, -0.08715299516916275, 0.009336643852293491, -0.11179067194461823, 0.08549974113702774, 0.027499880641698837, 0.03501146286725998, 0.03964761272072792, -0.0720490887761116, -0.01871807500720024, -0.041906122118234634, -0.04810013249516487, 0.040719203650951385, -0.005949054379016161], [-0.002423150697723031, 0.04872865974903107, 0.07428961247205734, 0.03487425670027733, 0.00866732932627201, -0.007940810173749924, 0.221811443567276, 0.031060051172971725, 0.11030255258083344, -0.0172114297747612, -0.07194548845291138, -0.10456374287605286, -0.028217969462275505, -0.06106160581111908, -0.0008334028534591198, -0.036650195717811584, -0.08196550607681274, 0.05871209502220154, 0.05858452618122101, -0.006822848226875067, 0.007141523063182831, 0.09514332562685013, -0.030104458332061768, -0.026147490367293358, 0.07439818233251572, 0.00471610389649868, -0.05834721773862839, 0.08526133000850677, 0.02148888073861599, 0.003875068388879299, 0.011882035993039608, 0.020478423684835434, -0.06193535029888153, 0.05600598827004433, -0.018677009269595146, -0.03471597656607628, -0.09809360653162003, -0.07818323373794556, -0.02985178865492344, -0.020974986255168915, 0.08112963289022446, 0.030154822394251823, 0.03482659161090851, -0.003621806390583515, -0.10739776492118835, 0.044694602489471436, 0.040137965232133865, 0.03409460186958313, -0.06925051659345627, -0.07676055282354355, -0.011518610641360283, -0.06505390256643295, 0.031207473948597908, -0.1196390837430954, -0.06687956303358078, -0.04611784219741821, 0.008816362358629704, 0.10076981037855148, -0.03383515402674675, -0.0690791979432106, -0.004706142004579306, -0.04606488719582558, 0.050266820937395096, -0.059853751212358475, -0.038121119141578674, -0.0387532077729702, -0.07874882966279984, 0.02117622084915638, -0.022503463551402092, -0.020213402807712555, -0.021934928372502327, -0.06470362842082977, -0.044134609401226044, -0.01095641776919365, -0.11275412142276764, -0.06185334175825119, 0.04152555763721466, -0.0590219683945179, -0.049617402255535126, -0.014651483856141567, -0.0435943566262722, -0.05408495292067528, -0.07236485928297043, -0.034819506108760834, -0.07138271629810333, 0.08547686785459518, 0.033701974898576736, 0.03464329615235329, -0.02050972916185856, -0.02851632609963417, -0.01272375788539648, 0.09404191374778748, 0.006430330686271191, 0.08736759424209595, 0.05861855298280716, -0.08636027574539185, -0.01993856206536293, -0.07981152087450027, -0.012542902491986752, -0.10196296125650406, 0.06243008002638817, -0.013365555554628372, 0.014491500332951546, -0.057207249104976654, -0.018328765407204628, 0.09185219556093216, 0.04236632585525513, 0.006304563954472542, -0.04284338280558586, -0.06947042047977448, 0.04456780478358269, 0.1857893168926239, -0.06715352088212967, 0.01933884620666504, -0.05135952681303024, -0.08014154434204102, 0.03540053218603134, -0.02327544242143631, -0.039712339639663696, -0.005586451385170221, -0.0572492815554142, -0.36691221594810486, 0.024860789999365807, -0.015511046163737774, 0.00542505644261837, 0.061961814761161804, -0.012935582548379898, -0.01453469693660736, -0.10077666491270065, -0.05732615292072296, 0.015842821449041367, 0.02718503773212433, 0.00970175676047802], [-0.007628726772964001, -0.07148510962724686, 0.01624789647758007, 0.004236199427396059, -0.010480629280209541, -6.299219239735976e-05, -0.2411305010318756, -0.09934810549020767, 0.03146357834339142, 0.058741211891174316, -0.07637736201286316, -0.00567700294777751, 0.04961032047867775, -0.045361220836639404, -0.050390973687171936, -0.010163418017327785, 0.04766794666647911, -0.05285225808620453, 0.06192798167467117, 0.10663194209337234, 0.07642322778701782, 0.01649402640759945, -0.02582329697906971, -0.14259228110313416, -0.03244679793715477, -0.06674202531576157, 0.05903782323002815, -0.0023103051353245974, 0.1375376582145691, 0.13960888981819153, 0.01493059005588293, 0.010134264826774597, 0.06265299767255783, -0.08200084418058395, 0.015704620629549026, -0.04122564196586609, 0.15463562309741974, 0.004358282312750816, 0.08989323675632477, -0.05371769890189171, 0.03799763694405556, 0.03761398792266846, 0.03853053227066994, 0.02833574451506138, 0.12401370704174042, 0.014929473400115967, 0.005499023012816906, -0.06024915724992752, 0.044553663581609726, 0.08667394518852234, -0.08598010987043381, 0.13330382108688354, -0.00560079887509346, 0.007534866686910391, -0.007606462109833956, 0.052334263920784, -0.0046179513446986675, -0.013969803228974342, 0.08722998201847076, 0.11832398176193237, -0.039249174296855927, 0.06080543249845505, -0.047490477561950684, -0.060104429721832275, -0.055482279509305954, -0.08529911935329437, 0.04229666665196419, 0.05293108522891998, -0.09071725606918335, -0.25586163997650146, -0.07135902345180511, 0.015119741670787334, 0.006416326388716698, -0.11240311712026596, -0.030752714723348618, 0.06693105399608612, 0.05526003986597061, 0.12249483168125153, 0.07832060754299164, -0.06402813643217087, 0.04586956650018692, 0.10707525908946991, -0.021696779876947403, 0.05885050445795059, 0.12296975404024124, -0.05377553775906563, -0.061044201254844666, -0.07275883853435516, -0.12677352130413055, -0.06224023178219795, 0.09958270937204361, -0.030085958540439606, 0.10447845607995987, -0.04442865401506424, 0.04744488373398781, -0.02985025756061077, 0.09555859863758087, 0.008178403601050377, 0.08758598566055298, -0.052317697554826736, -0.017871228978037834, -0.15925832092761993, 0.010629956610500813, 0.033269889652729034, -0.03916655853390694, 0.023093121126294136, -0.008747782558202744, 0.03639191761612892, 0.037445906549692154, 0.06347645074129105, -0.07933204621076584, -0.05175972357392311, 0.01375116128474474, 0.020241351798176765, -0.03044128231704235, -0.04901475831866264, 0.05698670819401741, 0.0006074006087146699, 0.09729054570198059, -0.007650427054613829, -0.048972807824611664, -0.06806965172290802, 0.130780890583992, -0.048731230199337006, -0.03921153396368027, 0.031174324452877045, -0.08056629449129105, 0.0017584168817847967, 0.01895042136311531, -0.06790297478437424, -0.052928727120161057, 0.03642551973462105, 0.034426793456077576], [0.15228290855884552, -0.025425391271710396, 0.008476441726088524, -0.042788922786712646, -0.009871267713606358, 0.026676956564188004, 0.0455855131149292, 0.07054366916418076, -0.08573204278945923, -0.03234068304300308, -0.07650692015886307, -0.09771236777305603, -0.034798987209796906, -0.0015509699005633593, 0.0475093312561512, -0.04981721192598343, 0.01831408031284809, -0.04762902110815048, 0.06588935106992722, 0.022464584559202194, 0.07060421258211136, 0.02148064598441124, -0.07104796916246414, 0.0662839263677597, 0.16464821994304657, 0.07302550226449966, -0.090336874127388, -0.10651697963476181, -0.027473898604512215, 0.015115508809685707, -0.05536147952079773, -0.0036158354487270117, -0.10365545004606247, -0.03123759664595127, -0.0034893283154815435, -0.09021462500095367, -0.06794406473636627, 0.005591878201812506, 0.009580242447555065, 0.17860302329063416, 0.006811467465013266, 0.04894736036658287, -0.03421831130981445, -0.02839457429945469, 0.00483398512005806, 0.019971013069152832, -0.1000782772898674, 0.004800586495548487, -0.0005253435228951275, 0.03929784148931503, -0.0490809865295887, -0.02270730584859848, 0.04486196115612984, -0.08795573562383652, 0.11744439601898193, 0.07686001807451248, -0.07387728244066238, -0.002986357780173421, 0.105308398604393, 0.033290304243564606, 0.10701228678226471, -0.03925152122974396, -0.017952729016542435, -0.0063613904640078545, -0.048120226711034775, -0.012523683719336987, 0.01106654666364193, 0.017981769517064095, -0.013627355918288231, -0.0018681696383282542, -0.02461700513958931, -0.01441947091370821, 0.0012482849415391684, -0.14247918128967285, -0.02902606502175331, -0.10496233403682709, 0.0204023327678442, 0.03832273557782173, 0.010370568372309208, -0.028486602008342743, -0.015990618616342545, -0.00854047667235136, 0.06843161582946777, -0.06662018597126007, -0.16929039359092712, -0.019164005294442177, -0.08690051734447479, 0.016603033989667892, -0.05046658217906952, 0.05249585583806038, 0.20512357354164124, 0.011648355051875114, -0.0847444087266922, -0.04274089261889458, 0.023695768788456917, 0.041473500430583954, -0.05197959020733833, 0.02686374820768833, -0.04778553172945976, -0.07135970890522003, 0.00944744423031807, 0.01929432526230812, 0.10579507797956467, -0.06043592095375061, -0.015237594954669476, -0.059549469500780106, 0.026472102850675583, -0.008084847591817379, -0.013659271411597729, 0.08072958886623383, 0.19420449435710907, -0.051918379962444305, -0.04832397773861885, -0.009690179489552975, -0.057346995919942856, -0.07557201385498047, 0.020776361227035522, 0.002847318770363927, -0.03359605371952057, 0.09210388362407684, -0.03242572769522667, -0.010865210555493832, 0.10111114382743835, -0.018107455223798752, -0.08622822165489197, -0.05188342556357384, 0.045128293335437775, 0.04554252326488495, -0.10234327614307404, -0.049425411969423294, -0.027545221149921417, 0.06828414648771286, -0.06762976944446564], [-0.15392367541790009, -0.11891555786132812, -0.06489083170890808, -0.07254499197006226, -0.09145297855138779, -0.029610496014356613, 0.04081341251730919, -0.03520086407661438, 0.10362065583467484, 0.08604224771261215, 0.040666040033102036, -0.027060089632868767, 0.10206758975982666, 0.06300463527441025, 0.0177305880934, 0.1550416350364685, -0.05371632054448128, 0.05116777494549751, 0.021674202755093575, -0.017004989087581635, -0.16615557670593262, -0.026165837422013283, -0.019804807379841805, 0.03399667516350746, 0.029091056436300278, -0.0016657683299854398, -0.06769955158233643, 0.04999575391411781, 0.008301676250994205, 0.06347078084945679, 0.3112499713897705, 0.04350726678967476, 0.07287180423736572, 0.1413424164056778, 0.13420724868774414, 0.04683864116668701, -0.003375622909516096, -0.0548936128616333, -0.049751974642276764, -0.08377335220575333, 0.07435342669487, 0.05432774871587753, -0.04647170007228851, -0.07958970218896866, 0.014005208387970924, 0.07071001082658768, -0.06251640617847443, 0.08075203746557236, 0.023050032556056976, 0.028517581522464752, -0.012520787306129932, -0.0717356950044632, 0.1120712012052536, -0.06053480505943298, -0.03961988538503647, 0.008529623039066792, -0.08283593505620956, -0.0013881322229281068, 0.009567937813699245, -0.03022944927215576, -0.0714394748210907, -0.01216243114322424, 0.012981635518372059, -0.012939832173287868, 0.12533600628376007, -0.02373497374355793, 0.06390348076820374, 0.013832290656864643, -0.07894868403673172, 0.0066160415299236774, -0.05558374524116516, -0.06995370984077454, 0.015226573683321476, -0.008027643896639347, -0.00930397305637598, -0.03644571080803871, -0.047484345734119415, 0.05732487887144089, -0.028334224596619606, -0.05009006708860397, -0.048192352056503296, 0.027767881751060486, 0.024916741997003555, 0.08455459028482437, 0.0956094041466713, 0.03012080118060112, -0.05455564334988594, 0.022442081943154335, 0.06317024677991867, -0.017453093081712723, -0.231249138712883, -0.02062349021434784, -0.08306977897882462, -0.017665600404143333, -0.07760220766067505, -0.1472678929567337, -0.051166146993637085, 0.006594413425773382, 0.11974502354860306, 0.03202909976243973, 0.01792645826935768, 0.021423889324069023, -0.006261270493268967, 0.05853671580553055, -0.01408217940479517, -0.0705178827047348, 0.021508533507585526, 0.019895968958735466, 0.019032945856451988, -0.012289971113204956, -0.08438984304666519, 0.04169565066695213, -0.04470927268266678, 0.07690709829330444, 0.09548929333686829, 0.03501914069056511, -0.03915376961231232, 0.01987583190202713, 0.05408313870429993, -0.023565193638205528, 0.03931992128491402, -0.009932371787726879, 0.027561752125620842, -0.08835433423519135, -0.04715416580438614, -0.05594337359070778, -0.08344268053770065, 0.09018842875957489, -0.03308716043829918, -0.00969650223851204, 0.03299013897776604, 0.0038707328494638205, 0.07409994304180145], [0.36227139830589294, 0.11981550604104996, 0.1272248476743698, 0.10443800687789917, 0.005627356469631195, 0.08669834583997726, 0.07047849148511887, -0.036832887679338455, -0.0976085290312767, -0.10438099503517151, 0.07676099240779877, 0.023810211569070816, -0.08566455543041229, 0.07324647903442383, 0.026636654511094093, 0.10803063958883286, -0.03369889780879021, 0.13575799763202667, 0.0658770501613617, -0.04237321391701698, -0.17448903620243073, -0.15393611788749695, -0.05115862935781479, -0.003169742412865162, -0.020200064405798912, 0.07223556190729141, 0.044549766927957535, -0.06261993199586868, -0.07672411948442459, -0.08411933481693268, 0.20251446962356567, 0.03034127689898014, 0.037722568958997726, 0.13970264792442322, 0.024129269644618034, 0.055945124477148056, -0.004008068703114986, 0.08602966368198395, -0.08564475178718567, -0.13649894297122955, -0.08426988869905472, 0.02813282422721386, 0.01860443316400051, -0.002873482648283243, -0.07751654088497162, 0.07582984119653702, -0.09889143705368042, 0.038489583879709244, 0.005148146767169237, -0.09014450013637543, -0.025958823040127754, -0.03885776549577713, -0.031290095299482346, -0.01929197832942009, 0.005278704687952995, 0.047429315745830536, 0.011269553564488888, 0.13694092631340027, 0.011082921177148819, 0.02611944079399109, 0.030970416963100433, -0.04599694907665253, 0.0919317901134491, -0.12907657027244568, -0.11306346207857132, 0.12430019676685333, 0.03853645175695419, -0.008409006521105766, 0.14047084748744965, 0.09421563148498535, -0.07453906536102295, -2.1553061742451973e-05, 0.08578740805387497, -0.06739373505115509, 0.08620138466358185, 0.11069639027118683, 0.03447985276579857, 0.03119003400206566, 0.11308980733156204, -0.11407878994941711, 0.03187031298875809, -0.11038155108690262, -0.06163361668586731, 0.02623889036476612, -0.06436692923307419, 0.05919194594025612, 0.05758222937583923, 0.01860203966498375, -0.02325539104640484, 0.015877848491072655, 0.1271388828754425, 0.06522050499916077, 0.04505854472517967, 0.15449941158294678, 0.06892376393079758, 0.03707640990614891, 0.05453305318951607, 0.0023015248589217663, -0.0675111785531044, -0.02624664455652237, 0.035053275525569916, 0.033621907234191895, -0.03923683613538742, -0.1037847250699997, 0.09718145430088043, 0.20221365988254547, 0.04540357366204262, -0.08918515592813492, 0.016123339533805847, 0.1031675934791565, -0.11254299432039261, -0.032817766070365906, 0.04436476156115532, -0.01614910364151001, -0.01977904886007309, -0.031099092215299606, 0.04331463575363159, -0.023609496653079987, -0.008087986148893833, 0.028255736455321312, -0.017173513770103455, -0.04723900184035301, -0.06003454327583313, 0.09512040764093399, 0.09000235050916672, 0.06618538498878479, -0.025162817910313606, 0.10559219121932983, 0.002484590047970414, -0.0218655988574028, -0.051969051361083984, -0.037190936505794525, 0.050193991512060165], [0.22766931354999542, 0.031046187505126, 0.0690765455365181, 0.05393313989043236, 0.04662718251347542, -0.0026731265243142843, -0.11448265612125397, -0.005575114861130714, -0.06884468346834183, -0.12563300132751465, 0.023845355957746506, 0.05207809433341026, -0.12776489555835724, -0.010533373802900314, 0.01889216899871826, 0.18646059930324554, 0.061123576015233994, 0.06828150898218155, 0.1297549307346344, -0.10761499404907227, -0.08754115551710129, -0.009753445163369179, 0.00010683685104595497, -0.03057793527841568, -0.06658988445997238, 0.0805821344256401, -0.09979946166276932, -0.03120812214910984, -0.05928288400173187, 0.030356401577591896, 0.29320675134658813, 0.07975731790065765, 0.07970527559518814, 0.10011398047208786, 0.07679358124732971, -0.04808741807937622, -0.1010555773973465, -0.06332583725452423, -0.1482318490743637, -0.014754900708794594, -0.07614747434854507, -0.05733463540673256, -0.049404725432395935, -0.06468738615512848, 0.0727977529168129, 0.02935865893959999, -0.10047871619462967, 0.06579405814409256, -0.014567895792424679, 0.03594255447387695, 0.0024431359488517046, -0.058155737817287445, 0.09749867022037506, 0.08124519884586334, -0.07390942424535751, 0.034705422818660736, -0.05294326692819595, -0.009772113524377346, -0.03583982586860657, -0.055165015161037445, 0.13572946190834045, -0.02186501957476139, 0.014330427162349224, -0.057317834347486496, -0.16457776725292206, 0.01798989437520504, -0.020274054259061813, 0.04080033674836159, -0.012068819254636765, -0.0633229985833168, 0.06052404269576073, 0.024828482419252396, -0.044981449842453, -0.07681471109390259, 0.06197104603052139, 0.05082330107688904, 0.019295960664749146, -0.11628752201795578, 0.07483218610286713, -0.03742973133921623, -0.04763975739479065, 0.10582146048545837, 0.04766802862286568, -0.11691518872976303, 0.02319423481822014, -0.007069731596857309, 0.02625029906630516, -0.09141311049461365, 0.07539354264736176, 0.1004270538687706, 0.07533255219459534, -0.025958526879549026, 0.08349575847387314, -0.0024430397897958755, 0.03370504453778267, 0.08079385757446289, -0.02562011405825615, -0.07654660940170288, 0.08867862820625305, -0.01276067178696394, 0.02839396335184574, -0.0319930762052536, -0.0386219397187233, 0.019513696432113647, -0.0030964312609285116, 0.10379070043563843, -0.0634499192237854, -0.07124750316143036, -0.06554984301328659, 0.025536946952342987, 0.07420171797275543, 0.008267669938504696, 0.0653582215309143, -0.009686781093478203, 0.04878944158554077, -0.07921000570058823, -0.018003078177571297, -0.07903873175382614, -0.04042802378535271, -0.028054747730493546, 0.06332113593816757, -0.04200112819671631, -0.14243781566619873, -0.03690304979681969, 0.0982738509774208, -0.02964870072901249, -0.07044140994548798, 0.09295125305652618, -0.03570475056767464, -0.013883816078305244, 0.05881507322192192, -0.042976707220077515, 0.015488963574171066], [-0.06323200464248657, 0.001383896917104721, -0.1099129468202591, -0.03658539801836014, 0.06822185218334198, -0.06623109430074692, -0.0751335546374321, 0.0009403105359524488, 0.0023705754429101944, -0.08830627799034119, 0.032363858073949814, -0.017123490571975708, -0.0008427830180153251, 0.04357428848743439, 0.032074712216854095, -0.061018284410238266, 0.023229137063026428, 0.08386049419641495, -0.011693424545228481, 0.02137223444879055, -0.03610194846987724, 0.011788420379161835, -0.07849415391683578, 0.02327592484652996, 0.0519108884036541, -0.07487641274929047, -0.0028563581872731447, 0.005652178544551134, -0.08816710859537125, -0.00988537073135376, -0.00044936221092939377, -0.045923735946416855, 0.05171996355056763, -0.011190752498805523, -0.018868694081902504, -0.023700319230556488, -0.09573467075824738, 0.0396016389131546, -0.07773138582706451, -0.03382913023233414, -0.00045673991553485394, -0.09526766091585159, 0.04038090631365776, -0.062153175473213196, -0.0066619813442230225, -0.053619857877492905, 0.041003983467817307, 0.059024401009082794, 0.029429959133267403, 0.062162984162569046, -0.09336685389280319, 0.03333471342921257, 0.09077990800142288, -0.02311232127249241, -0.09680173546075821, -0.027124714106321335, -0.0459720715880394, 0.045915037393569946, 0.068756602704525, -0.08164467662572861, -0.028639908879995346, -0.07342611253261566, 0.08908292651176453, -0.055691950023174286, 0.06318274140357971, -0.08195918798446655, 0.03665457293391228, 0.06296491622924805, 0.011425153352320194, 0.020431354641914368, -0.02108863741159439, 0.04439364746212959, 0.03000904805958271, -0.008806447498500347, 0.014084389433264732, 0.05148358643054962, -0.05013928562402725, 0.0029951666947454214, 0.02705530636012554, -0.11682941019535065, 0.011119382455945015, -0.10812103748321533, -0.01446013618260622, 0.014780593104660511, 0.016946209594607353, -0.011040575802326202, -0.008626223541796207, 0.04823178052902222, -0.037936434149742126, -0.043878812342882156, -0.03104725480079651, -0.06959547102451324, -0.019044842571020126, 0.09024172276258469, 0.08865751326084137, -0.017509812489151955, 0.06572120636701584, 0.03528816998004913, 0.025452274829149246, 0.09913134574890137, 0.07514968514442444, 0.033419180661439896, -0.03596864268183708, 0.08777552843093872, 0.01698260009288788, 0.03945518657565117, -0.03926251456141472, 0.010796766728162766, 0.07265599817037582, 0.0704348161816597, 0.014722825028002262, -0.0825553610920906, -0.028906552121043205, 0.1339130401611328, 0.0959629938006401, 0.026140179485082626, -0.07381975650787354, 0.03546491637825966, -0.06509429961442947, 0.09879212081432343, -0.0816003680229187, 0.02712932601571083, 0.003935202490538359, -0.05839275196194649, -0.028556333854794502, -0.0766221359372139, -0.0396851971745491, 0.04380369558930397, 0.09611465036869049, 0.04493636265397072, -0.11568538099527359, -0.04357659071683884, 0.014672617428004742], [-0.033895350992679596, -0.10323259979486465, -0.07337906211614609, -0.07668986916542053, -0.029570305719971657, -0.042135089635849, 0.14154133200645447, -0.03457815572619438, 0.10514909029006958, 0.13579048216342926, -0.05230807885527611, 0.03632073476910591, 0.12372832745313644, -0.019090957939624786, -0.013073538430035114, -0.0039492337964475155, 0.04528456926345825, 0.03639640659093857, -0.031087882816791534, -0.0362483486533165, 0.11076119542121887, 0.20471645891666412, -0.0016846609069034457, 0.001417347346432507, 0.11624980717897415, -0.060876909643411636, 0.07177331298589706, -0.15062882006168365, -0.013527719303965569, 0.09241306036710739, -0.03664163872599602, 0.050723183900117874, -0.034463342279195786, -0.07589415460824966, -0.09956123679876328, -0.021526921540498734, -0.012048727832734585, 0.013445082120597363, -0.06338323652744293, 0.0895548090338707, 0.07820011675357819, 0.08313523232936859, 0.06332185119390488, 0.029392728582024574, 0.0666036307811737, 0.033534757792949677, 0.06653274595737457, -0.05985593795776367, -0.08632422983646393, -0.09541504085063934, -0.02343912422657013, -0.027202941477298737, -0.004486221354454756, -0.08378608524799347, 0.010331095196306705, 0.06346798688173294, -0.08655828982591629, 0.004536056891083717, -0.060973115265369415, -0.003894201945513487, -0.05257026106119156, 0.05429418385028839, -0.02576350048184395, 0.032354630529880524, 0.0429479219019413, -0.08355242013931274, 0.011521898210048676, -0.06082834675908089, 0.01230246014893055, -0.10965489596128464, -0.028110312297940254, 0.007433395367115736, -0.028405094519257545, -0.12625737488269806, -0.07061800360679626, -0.0627092570066452, -0.005307372659444809, 0.09011198580265045, 0.025534873828291893, -0.020381025969982147, -0.0355040617287159, 0.0007450582343153656, -0.04617176577448845, 0.020587122067809105, 0.026597628369927406, 0.08404979854822159, -0.10174451023340225, 0.027429800480604172, -0.21506215631961823, 0.027709420770406723, 0.05388258025050163, -0.03014512173831463, 0.05002119392156601, -0.04651470482349396, -0.019064005464315414, -0.019580595195293427, 0.04224219173192978, 0.05866214632987976, 0.08947539329528809, -0.00840661022812128, 0.06364239752292633, -0.0582379549741745, -0.07989361882209778, 0.0534076951444149, -0.053800661116838455, -0.05565971881151199, 0.010230573825538158, 0.036436885595321655, 0.019090861082077026, -0.04777441918849945, 0.022517794743180275, 0.10051537305116653, 0.06547275185585022, -0.017585786059498787, -0.047291919589042664, -0.08178826421499252, 0.019119977951049805, 0.09925581514835358, -0.025085963308811188, 0.031997792422771454, -0.02465738356113434, 0.01533538568764925, 0.026910556480288506, -0.0028605887200683355, 0.026492556557059288, 0.006820584647357464, 0.04546497017145157, -0.10343742370605469, 0.07257959991693497, -0.05305884778499603, 0.0469990149140358, 0.017693281173706055, 0.011788907460868359], [-0.18208011984825134, -0.08639828860759735, -0.039490461349487305, -0.023056788370013237, -0.1444573998451233, -0.0028606767300516367, 0.09920237958431244, -0.012386309914290905, 0.043038249015808105, -0.06764890253543854, -0.02686263434588909, -0.06939933449029922, -0.12171612679958344, 0.02917509339749813, -0.14158044755458832, -0.01596716418862343, -0.04174318537116051, -0.04591376706957817, 0.054383691400289536, -0.04386460408568382, -0.08904566615819931, 0.06859095394611359, 0.04769301787018776, -0.042664967477321625, -0.2651319205760956, 0.04018811136484146, -0.08766362071037292, -0.1680879145860672, -0.016054466366767883, -0.15427346527576447, -0.07779841125011444, 0.0038543210830539465, 0.05158790573477745, 0.056678302586078644, -0.027864575386047363, -0.047347404062747955, -0.07532156258821487, 0.03895120695233345, 0.01429888978600502, -0.05865604430437088, 0.058125659823417664, -0.05790387839078903, -0.002702580066397786, 0.04276224598288536, 0.05982249975204468, 0.02269039861857891, 0.09889160841703415, -0.014451536349952221, 0.0015787266893312335, -0.06555075198411942, 0.02624976821243763, -0.01454539131373167, -0.07100953161716461, 0.05914369225502014, 0.0010364723857492208, -0.04548068344593048, 0.032087527215480804, -0.01967369206249714, -0.1182367280125618, 0.08265112340450287, 0.03346864506602287, 0.044320330023765564, -0.09889853000640869, 0.05630582943558693, -0.007233215030282736, -0.05168562009930611, -0.0716126561164856, 0.03912155702710152, 0.05034033954143524, 0.059014469385147095, -0.017939606681466103, -0.025250017642974854, -0.01714431308209896, 0.038818713277578354, -0.03659294545650482, 0.003626859048381448, 0.002646431792527437, 0.1106221154332161, 0.018536483868956566, -0.008903424255549908, 0.07766935974359512, 0.004470747895538807, 0.010309619829058647, 0.012825088575482368, 0.005501577630639076, 0.03308481350541115, 0.0723404809832573, 0.002230739453807473, 0.0037263932172209024, -0.04710355028510094, 0.14098693430423737, 0.1352982074022293, 0.008320745080709457, 0.008239899761974812, 0.1305992603302002, -0.043419960886240005, -0.12029161304235458, -0.035873666405677795, 0.0013043958460912108, 0.06845824420452118, 0.012960286810994148, 0.044976528733968735, 0.032745037227869034, 0.00583308283239603, 0.04871463030576706, 0.007276366464793682, 0.052242375910282135, 0.03758076950907707, -0.00681319972500205, -0.06328891962766647, -0.05868786200881004, 0.0923909842967987, 0.07673556357622147, 0.13452300429344177, 0.005155573599040508, -0.027872225269675255, 0.02049633301794529, 0.0307542122900486, -0.04362334683537483, -0.03175118938088417, 0.06297393888235092, -0.005372548941522837, -0.03711627051234245, -0.06752073764801025, -0.0680919662117958, -0.05934450775384903, 0.03418055176734924, -0.041460830718278885, 0.005217095836997032, -0.0002852707402780652, 0.048746149986982346, 0.06825418770313263, -0.03344769403338432], [-0.04783862084150314, 0.022785434499382973, -0.07060059159994125, 0.019194232299923897, 0.007286570500582457, 0.08666349947452545, 0.03635811060667038, 0.10938829183578491, -0.06049661710858345, 0.12817230820655823, -0.0525948740541935, -0.056968532502651215, 0.024218212813138962, 0.005245849024504423, 0.04612673074007034, 0.032725367695093155, 0.009086553007364273, 0.08008351176977158, -0.005243820603936911, -0.0016165142878890038, 0.026547424495220184, -0.02671336755156517, 0.07042863965034485, 0.11559503525495529, -0.0054666888900101185, -0.004622308071702719, 0.02176726795732975, -0.0024376832880079746, 0.09890315681695938, 0.07916396856307983, -0.04847614839673042, -0.03339576721191406, -0.03079519234597683, 0.0037967341486364603, 0.0445227213203907, 0.0068496400490403175, -0.005171863827854395, -0.07355667650699615, 0.07706267386674881, 0.1650441735982895, -0.007017499767243862, 0.05135888233780861, 0.08612246066331863, 0.015990013256669044, 0.04711240530014038, 0.06022455170750618, 0.08432313054800034, 0.010599687695503235, -0.010093841701745987, 0.003874676302075386, -0.03594593331217766, -0.05736531317234039, -0.08876223862171173, 0.03131134808063507, 0.047722142189741135, -0.07579336315393448, -0.09355028718709946, -0.020526625216007233, 0.06172708794474602, 0.07440035045146942, -0.002028446877375245, -0.049918197095394135, 0.10076108574867249, -0.030307380482554436, 0.02574436366558075, 0.005596580449491739, 0.01582186296582222, 0.010830072686076164, -0.0821441262960434, 0.020942166447639465, 0.013178599067032337, 0.05146817862987518, 0.030770234763622284, -0.0756961852312088, -0.04693789780139923, 0.07371116429567337, -0.08143987506628036, 0.10207872837781906, 0.002319185296073556, 0.027047740295529366, -0.10267945379018784, -0.004533329978585243, 0.00021908388589508832, -0.03656606376171112, -0.08313841372728348, -0.0863390564918518, -0.04213918372988701, 0.01940859667956829, -0.06465479731559753, -0.10031095892190933, 0.2813766896724701, 0.09817757457494736, 0.12326459586620331, 0.04984342306852341, 0.14620020985603333, -0.047576673328876495, 0.06988384574651718, -0.00607301527634263, -0.05727474018931389, -0.03688596561551094, -0.08311372250318527, 0.010920604690909386, 0.011608533561229706, -0.0010386095382273197, -0.11473266035318375, 0.03139447420835495, -0.015537774190306664, -0.02911408618092537, -0.05019799619913101, 0.01589401811361313, -0.06566981226205826, -0.026696370914578438, 0.023222608491778374, 0.04415106773376465, 0.06997178494930267, 0.06148603558540344, -0.09037985652685165, 0.0018740469822660089, -0.03306844085454941, -0.019829511642456055, -0.044336967170238495, -0.05694161728024483, -0.014336551539599895, -0.01521159615367651, 0.04707014560699463, -0.05287552624940872, 0.08458595722913742, 0.04757976904511452, -0.011296331882476807, -0.06507556885480881, 0.05820566788315773, 0.004629057832062244, 0.04764633625745773], [0.01674051582813263, 0.017339980229735374, -0.04851194843649864, 0.004693463444709778, 0.02037854678928852, -0.042377445846796036, 0.13470140099525452, -0.04798124358057976, -0.014898201450705528, 0.12171897292137146, 0.07191688567399979, 0.046828221529722214, -0.0627594143152237, -0.028775855898857117, 0.08805909752845764, -0.08041910082101822, 0.010406254790723324, -0.052521925419569016, 0.060544468462467194, -0.010630755685269833, -0.03371020779013634, 0.1151077076792717, 0.03614325076341629, 0.035700686275959015, -0.024139469489455223, 0.03926264867186546, -0.040154967457056046, -0.07053510844707489, -0.008367707021534443, 0.046419158577919006, 0.006645981688052416, -0.06265939772129059, -0.004838075954467058, 0.0802810788154602, -0.04176601767539978, 0.013041751459240913, -0.061419520527124405, 0.03357534855604172, 0.0047417981550097466, 0.038845520466566086, -0.03346069157123566, 0.005653027445077896, -0.08657766133546829, 0.05448659136891365, 0.08027365058660507, 0.08259592205286026, 0.032848283648490906, 0.046878792345523834, 0.0064694201573729515, -0.08797832578420639, -0.04618285596370697, -0.00022972222359385341, -0.042785268276929855, -0.09541340917348862, -0.1695314347743988, -0.08261995017528534, -0.026646791025996208, -0.10907246172428131, -0.02498338185250759, -0.1437298208475113, -0.04068329185247421, 0.06565377116203308, 0.04525842145085335, 0.07203170657157898, -0.05788281559944153, -0.0605478510260582, 0.013798903673887253, 0.04124999791383743, -0.05701402574777603, 0.015973007306456566, 0.08150685578584671, -0.03867017477750778, 0.048026878386735916, -0.04106470197439194, -0.0018273487221449614, -0.04445536434650421, -0.035443492233753204, 0.06469973921775818, 0.005163318943232298, 0.10575857013463974, 0.07153882831335068, -0.08480798453092575, -0.023610113188624382, 0.05302155017852783, -0.07450172305107117, -0.043889641761779785, -0.09278888255357742, -0.03830182924866676, -0.08133800327777863, -0.009435152634978294, -0.02020493522286415, 0.036344263702631, -0.08027654141187668, 0.05409634858369827, 0.03711281716823578, 0.0035241085570305586, -0.12465917319059372, 0.04340957850217819, -0.14962942898273468, 0.07537970691919327, -0.03279172629117966, 0.08587893843650818, -0.02327396161854267, -0.1748967319726944, 0.00562621233984828, 0.05321739986538887, 0.053821004927158356, 0.08246546238660812, -0.019925273954868317, -0.06448282301425934, 0.07337121665477753, -0.02551209181547165, -0.07727646082639694, -0.057489555329084396, 0.03655898943543434, 0.016245070844888687, -0.00043965454096905887, -0.07150671631097794, -0.17480719089508057, -0.017477665096521378, -0.022382203489542007, -0.12318512052297592, 0.03461110219359398, 0.013328371569514275, -0.10760633647441864, -0.057978495955467224, -0.07590876519680023, -0.07634237408638, 0.05927160754799843, -0.0789928212761879, 0.04698611795902252, -0.05511478707194328, 0.015087257139384747], [0.35439419746398926, 0.10511863976716995, 0.15944986045360565, 0.10016797482967377, 0.05372161045670509, 0.053962841629981995, 0.11057239770889282, -0.04135921970009804, 0.0763961523771286, -0.028817402198910713, -0.009395377710461617, -0.02943853661417961, 0.11421667784452438, 0.04117964208126068, 0.1269572526216507, 0.06134754419326782, 0.08931617438793182, 0.05885598063468933, 0.11817403882741928, 0.04732789099216461, -0.030979730188846588, 0.0809105858206749, 0.06619734317064285, -0.021301263943314552, -0.010148784145712852, 0.03461429104208946, -0.042951807379722595, 0.15299426019191742, -0.03873265162110329, 0.05493783950805664, 0.009301505982875824, -0.050002116709947586, -0.005455912556499243, -0.034183673560619354, -0.07291020452976227, 0.0648048147559166, 0.03687147796154022, -0.018644891679286957, -0.1102854311466217, 0.11783570051193237, -0.033749911934137344, 0.02668888494372368, -0.09292351454496384, -0.05638126656413078, -0.09126729518175125, 0.06638677418231964, -0.0033580325543880463, -0.07837587594985962, 0.056487128138542175, -0.10374708473682404, -0.0014486070722341537, -0.056535754352808, 0.014478535391390324, -0.07253792136907578, -0.07826925814151764, -0.04434909671545029, -0.061643559485673904, -0.4274594485759735, -0.2206827998161316, -0.047897882759571075, 0.030365832149982452, 0.0718260332942009, 0.07194834202528, -0.10318659991025925, -0.11934924125671387, 0.02389831282198429, -0.044253431260585785, 0.03654247149825096, -0.049659792333841324, 0.019461536779999733, -0.08183000236749649, -0.039063092321157455, -0.05689004436135292, 0.042890749871730804, -0.046743690967559814, 0.1076188012957573, -0.09064805507659912, 0.0855407640337944, 0.011435353197157383, -0.021727418527007103, -0.03160625323653221, -0.012424703687429428, -0.10031214356422424, -0.013290571048855782, 0.06522653251886368, -0.030300237238407135, -0.0339154377579689, -0.08537895232439041, 0.03100695088505745, -0.02295556291937828, 0.2830173373222351, 0.04571979492902756, 0.04723261669278145, 0.16239619255065918, 0.1424303501844406, 0.03128420189023018, 0.02212412841618061, -0.026363903656601906, -0.07338644564151764, -0.04722176492214203, -0.04767221957445145, 0.004686285275965929, 0.018681524321436882, -0.05757078900933266, 0.044280387461185455, 0.17274506390094757, -0.024989262223243713, -0.13034044206142426, -0.040124714374542236, -0.03796922788023949, 0.019322475418448448, -0.062140125781297684, 0.12434998154640198, 0.028479451313614845, 0.06864485889673233, -0.036323484033346176, -0.0325172021985054, 0.006216112058609724, -0.06442251801490784, 0.18960721790790558, -0.03728695213794708, -0.03387023136019707, -0.06162411347031593, 0.010161137208342552, 0.06810405850410461, -0.03640841320157051, -0.05397212132811546, 0.08434640616178513, -0.04544460400938988, 0.021988919004797935, -0.06170382350683212, -0.08045559376478195, 0.08950671553611755], [0.0020852729212492704, -0.05443398281931877, 0.0001621564879314974, -0.08822553604841232, 0.04338769614696503, -0.0795995369553566, -0.04633699730038643, 0.052528802305459976, 0.05447668954730034, -0.04397730529308319, -0.07090143114328384, -0.06176277995109558, -0.09032180160284042, -0.07079069316387177, 0.07562260329723358, -0.015366231091320515, 0.054552111774683, 0.07549865543842316, 0.00046382928849197924, -0.07968471199274063, -0.024417169392108917, -0.010394979268312454, -0.061158329248428345, -0.10045423358678818, -0.0024350567255169153, 0.05233661085367203, 0.09215009212493896, -0.09575150161981583, -0.015382674522697926, 0.05443739891052246, -0.03522886335849762, 0.07645538449287415, -0.019529150798916817, 0.031605493277311325, -0.010271411389112473, -0.010796122252941132, -0.0715005025267601, -0.08526420593261719, -0.0097772516310215, -0.09099806845188141, -0.008893290534615517, -0.09454625844955444, 0.0624590665102005, -0.06774085015058517, -0.07775275409221649, 0.0406983457505703, -0.004590820055454969, 0.008895697072148323, 0.011652556248009205, 0.029676970094442368, 0.040635909885168076, 0.024579867720603943, -0.03285606950521469, -0.003437259467318654, -0.08893970400094986, 0.027304448187351227, 0.055329978466033936, -0.008594615384936333, 0.08354929089546204, -0.04241645336151123, -0.06076058745384216, -0.08253216743469238, 0.016444114968180656, 0.06244654953479767, -0.07254424691200256, -0.10816145688295364, 0.017797332257032394, 0.019433358684182167, 0.04216194897890091, 0.04627285525202751, 0.015158770605921745, 0.0018114690901711583, -0.01911247707903385, 0.01901938207447529, -0.034937843680381775, 0.014829524792730808, 0.05201306939125061, 0.014048099517822266, -0.006330421194434166, 0.08328843861818314, -0.0072682686150074005, -0.013588445261120796, 0.07693573832511902, -0.08364913612604141, -0.053475216031074524, -0.024201933294534683, 0.005939190741628408, -0.052094727754592896, 0.03812205791473389, -0.09068430215120316, 0.0041381241753697395, 0.054931726306676865, 0.046802740544080734, 0.013589499518275261, -0.010428992100059986, -0.08300284296274185, 0.03023163042962551, -0.04363614693284035, 0.01532870251685381, -0.037753090262413025, -0.0725911557674408, 0.047181691974401474, -0.05656135454773903, 0.020822392776608467, 0.014669558964669704, 0.038586460053920746, -0.07617272436618805, 0.029217084869742393, 0.07096102833747864, 0.020967794582247734, -0.00036190016544424, 0.07157814502716064, 0.004944277927279472, -0.1003776267170906, 0.05487492308020592, 0.0308016836643219, -0.05274495854973793, -0.0775655210018158, -0.02901553548872471, -0.033556945621967316, -0.07194264978170395, -0.003958242945373058, 0.07258628308773041, 0.019189896062016487, 0.03713987395167351, -0.008563010022044182, -0.02424446865916252, -0.06510169059038162, 0.03561608865857124, 0.020763132721185684, 0.032836299389600754, 0.010485254228115082, 0.023038722574710846], [0.08137785643339157, -0.027149517089128494, -0.0734863355755806, 0.08247925341129303, -0.16199573874473572, -0.03579764440655708, -0.12839922308921814, 0.0007501249783672392, -0.09477793425321579, -0.05707218497991562, 0.07329055666923523, 0.06776300072669983, -0.02835710719227791, 0.015969693660736084, 0.0438314750790596, 0.09594611078500748, -0.0883302316069603, 0.14841574430465698, -0.012583072297275066, 0.04951782524585724, -0.04236634820699692, -0.11688787490129471, 0.048708878457546234, 0.04606311395764351, -0.06123225390911102, -0.008716583251953125, -0.04951149970293045, 0.12250839918851852, -0.07509666681289673, 0.08721261471509933, 0.12143337726593018, 0.07911017537117004, 0.07749255746603012, -0.019869526848196983, -0.05459461361169815, 0.03193198889493942, 0.012645909562706947, -0.12345127761363983, 0.033976323902606964, 0.05123906955122948, -0.06604404002428055, 0.057251136749982834, 0.017916277050971985, -0.03708723559975624, 0.03204991668462753, -0.012996385805308819, 0.018171977251768112, -0.11116313189268112, 0.06767519563436508, 0.012221611104905605, 0.06409674882888794, -0.04984891787171364, -0.037440210580825806, 0.00013299511920195073, 0.02826645039021969, 0.08227717131376266, -0.014044790528714657, -0.06342273205518723, -0.06782370805740356, 0.030436135828495026, 0.10767681896686554, 0.043724868446588516, -0.07597344368696213, -0.021011721342802048, 0.040341753512620926, 0.08696991205215454, -0.02209165319800377, 0.023467710241675377, 0.08645948022603989, 0.03966120257973671, -0.05289939418435097, -0.02295173704624176, 0.07477381080389023, 0.05867614224553108, -0.06948809325695038, -0.10660012811422348, -0.07711100578308105, -0.05444669350981712, 0.08083692938089371, -0.06416667252779007, -0.11390362679958344, -0.007055573631078005, -0.03275804966688156, 0.014830083586275578, 0.08480332791805267, -0.050265487283468246, 0.08635696768760681, 0.011618697084486485, 0.07634995877742767, 0.013863018713891506, -0.12841445207595825, -0.003567709354683757, -0.04262462630867958, -0.029389265924692154, 0.053963568061590195, -0.09062176942825317, -0.040465544909238815, -0.06114920973777771, -0.009044754318892956, -0.013043930754065514, 0.04811118170619011, -0.03041801229119301, -0.170410618185997, -0.036983996629714966, 0.103383369743824, -0.06830551475286484, 0.040008142590522766, -0.007346502039581537, -0.0028783222660422325, -0.06202070787549019, -0.038137756288051605, -0.10627531260251999, -0.07132179290056229, 0.024692637845873833, 0.005924793891608715, 0.03378214314579964, -0.05620017647743225, 0.04272724315524101, -0.18621684610843658, 0.058970920741558075, 0.05592213571071625, 0.03653420880436897, 0.0761851817369461, -0.041702937334775925, 0.09044577181339264, 0.06659054011106491, -0.014094136655330658, -0.0554099939763546, 0.026076098904013634, -0.051290687173604965, -0.00412371288985014, 0.006743182893842459, 0.021025262773036957], [0.26499855518341064, 0.13910800218582153, 0.15789423882961273, 0.03525016829371452, 0.043736349791288376, 0.07915369421243668, -0.08241631835699081, -0.035357777029275894, -0.010050724260509014, -0.13097047805786133, -0.08648043870925903, -0.06965183466672897, -0.1478756219148636, -0.05235561355948448, 0.027936110273003578, 0.009816638194024563, 0.005319985561072826, 0.05349089205265045, 0.02417209930717945, 0.0170268714427948, -0.024257684126496315, -0.09585393965244293, 0.08520782738924026, -0.05597349628806114, -0.13458386063575745, 0.012989632785320282, 0.07703467458486557, -0.019839130342006683, -0.09277566522359848, -0.06267403066158295, -0.11881876736879349, -0.08292663842439651, 0.016916681081056595, -0.03285818547010422, -0.0497632659971714, -0.07165614515542984, -0.011384395882487297, 0.015955759212374687, -0.00844868365675211, -0.03069472871720791, 0.0628504753112793, -0.014311089180409908, -0.038135383278131485, -0.019280051812529564, -0.19993650913238525, -0.0019499778281897306, -0.04019666835665703, 0.021785030141472816, 0.04547441378235817, -0.026261480525135994, -0.005688231438398361, -0.038815081119537354, -0.07364053279161453, -0.12510187923908234, -0.2022089958190918, 0.017164917662739754, 0.04872404783964157, 0.009584164246916771, -0.02610800415277481, 0.009259612299501896, -0.030550893396139145, -0.07511036098003387, 0.004198640119284391, -0.0427292063832283, -0.08375603705644608, -0.005311090033501387, -0.12818898260593414, 0.008677239529788494, -0.04521512985229492, 0.05764777585864067, 0.06579522043466568, -0.11648278683423996, -0.040995195508003235, -0.026959989219903946, 0.04668215289711952, -0.018549416214227676, 0.012503048405051231, 0.03968890383839607, -0.085890032351017, 0.009971548803150654, -0.032258741557598114, 0.1366431564092636, 0.03149089962244034, -0.05898410081863403, 0.029867954552173615, 0.0780598521232605, 0.01632663793861866, -0.0022819226142019033, 0.019906627014279366, -0.013282496482133865, -0.10377488285303116, -0.0032127005979418755, -0.09205709397792816, -0.03411352261900902, -0.10951723158359528, -0.02905438095331192, 0.05506220832467079, 0.08265046030282974, 0.20951779186725616, 0.023663202300667763, 0.08361177146434784, 0.04423236846923828, -0.014956445433199406, 0.07265093922615051, 0.05139921233057976, 0.030332040041685104, -0.04201455041766167, -0.04361884295940399, 0.08216085284948349, 0.06720831990242004, -0.03883007913827896, 0.08389241993427277, -0.13193465769290924, 0.013101496733725071, 0.06695973128080368, 0.08647732436656952, -0.060416653752326965, -0.03551250696182251, -0.022793488577008247, -0.0036636802833527327, -0.01287278812378645, 0.025928333401679993, 0.035815540701150894, -0.06261036545038223, -0.08779711276292801, 0.05852285027503967, -0.07364959269762039, 0.05657259747385979, -0.12406109273433685, 0.044739075005054474, 0.04182003065943718, 0.04575711116194725, 0.05540239065885544], [-0.10094290971755981, -0.12881696224212646, -0.08821365237236023, 0.0268251933157444, 0.00026325322687625885, 0.017790809273719788, 0.01053000707179308, -0.030084574595093727, 0.028043117374181747, 0.04925866052508354, -0.042768444865942, 0.06833251565694809, 0.044155340641736984, 0.034653887152671814, 0.04143868759274483, -0.05327501893043518, 0.03961025923490524, -0.04494098573923111, -0.04304536432027817, -0.039640940725803375, -0.0007968538557179272, 0.02626858465373516, 0.01454708632081747, 0.0036372181493788958, 0.15192782878875732, 0.040118761360645294, -0.09059034287929535, 0.09699942171573639, -0.05810610204935074, 0.13134723901748657, -0.025759844109416008, -0.039096083492040634, -0.11035103350877762, -0.11111992597579956, -0.022379139438271523, -0.0019068119581788778, 0.04088079184293747, 0.03706074506044388, 0.12263885140419006, 0.18130089342594147, 0.020658990368247032, -0.11878884583711624, 0.06586356461048126, 0.09301085025072098, 0.09791767597198486, -0.06643976271152496, 0.06504526734352112, 0.037083324044942856, -0.05054875835776329, -0.007030012086033821, -0.017880911007523537, 0.1459067016839981, 0.00240612355992198, 0.08030586689710617, 0.11268314719200134, -0.03329916670918465, -0.06127895787358284, 0.04155055433511734, -0.03776584938168526, -0.06279876828193665, -0.0016150695737451315, 0.08225817233324051, -0.027722256258130074, 0.06692768633365631, -0.07607518136501312, -0.09840508550405502, -0.08252512663602829, 0.07968080788850784, 0.03167429938912392, 0.0680248960852623, -0.016907688230276108, 0.0546952486038208, -0.10087097436189651, -0.055351242423057556, -0.02951875887811184, -0.0027016133535653353, 0.04861396178603172, -0.0037794264499098063, 0.044930607080459595, 0.033616889268159866, 0.03724363073706627, 0.016091449186205864, 0.020984573289752007, -0.09714601188898087, -0.06397639214992523, 0.0019483648939058185, -0.11821027845144272, 0.049629680812358856, 0.027123145759105682, -0.0534973070025444, -0.025968967005610466, 0.026703914627432823, 0.004994893912225962, 0.1359022557735443, -0.026538100093603134, -0.02288854867219925, -0.03845185041427612, -0.045080386102199554, -0.03240525349974632, -0.009606103412806988, 0.07654262334108353, -0.002165303099900484, 0.04699898138642311, -0.09597615152597427, 0.05311433970928192, -0.02861604653298855, -0.03183332085609436, 0.01354430615901947, -0.023837238550186157, -0.03925776481628418, 0.009068869985640049, 0.005389540921896696, -0.014357168227434158, 0.014637988992035389, -0.010831229388713837, 0.03295842558145523, -0.004108570981770754, -0.19847017526626587, 0.08205734193325043, 0.10632540285587311, 0.006586266215890646, -0.09146350622177124, 0.13812211155891418, -0.07986266911029816, -0.00491638109087944, -0.01934872381389141, -0.051990658044815063, -0.005683765280991793, -0.029730888083577156, -0.09568037837743759, -0.04109833762049675, -0.04866469278931618, 0.007219407707452774], [-0.06957510858774185, -0.0009015275863930583, -0.020438263192772865, -0.07213927805423737, -0.0031692557968199253, -0.07521586120128632, 0.1921859085559845, -0.011186554096639156, -0.05531790480017662, 0.10689188539981842, 0.06361707299947739, -0.03375547379255295, 0.10936114192008972, 0.012460839003324509, 0.10721725970506668, 0.23360759019851685, 0.04145025089383125, 0.1652769297361374, 0.033309731632471085, -0.026845062151551247, 0.010534821078181267, 0.08289652317762375, 0.00794391892850399, 0.06771854311227798, 0.09105288982391357, 0.02456492930650711, -0.12148308753967285, 0.027178503572940826, 0.08101704716682434, 0.03773902729153633, 0.1643846482038498, -0.05874833092093468, 0.03051573410630226, 0.015568655915558338, 0.055891335010528564, 0.03051052615046501, 0.014109140262007713, 0.06642141938209534, -0.02351912297308445, -0.12136165797710419, 0.05570950359106064, -0.020985303446650505, -0.010597184300422668, 0.03410513699054718, 0.05670792609453201, -0.11792045086622238, -0.025052502751350403, -0.04244016855955124, 0.04760412499308586, 0.06319870799779892, -0.029337860643863678, 0.017712537199258804, 0.005649905651807785, 