{"input_size": 133, "net.0.weight": [[-0.039219930768013, 0.03869570046663284, -0.08303673565387726, 0.055273767560720444, -0.05067622661590576, -0.07811354100704193, 0.0803297758102417, 0.024071771651506424, 0.027257472276687622, -0.02254590392112732, 0.05192101001739502, -0.09012829512357712, -0.08208468556404114, 0.046206649392843246, 0.044821616262197495, -0.07718659937381744, 0.026408644393086433, 0.035393912345170975, 0.02481098473072052, 0.02526135742664337, 0.02767607569694519, 0.047096651047468185, 0.007760846987366676, 0.0876617431640625, -0.02566278725862503, -0.005209311842918396, -0.050274014472961426, -0.0896676778793335, -0.08069975674152374, 0.05999915301799774, -0.08175218105316162, -0.032514698803424835, 0.04872235283255577, 0.028133710846304893, 0.06082240119576454, -0.03331194818019867, 0.009304853156208992, -0.08606582134962082, 0.05272635444998741, 0.06700105220079422, -0.050163183361291885, -0.023518573492765427, -0.08365684002637863, -0.09768784046173096, 0.018799087032675743, -0.046022336930036545, 0.023973312228918076, 0.06946083158254623, -0.037902284413576126, 0.057679884135723114, 0.010139137506484985, -0.026133816689252853, -0.007720744702965021, -0.10358699411153793, 0.013632142916321754, 0.03580421954393387, 0.016310276463627815, -0.07045916467905045, -0.10133828967809677, 0.04115116968750954, -0.06473172456026077, -0.01975477673113346, -0.06558916717767715, 0.0503203421831131, 1.4094811376708094e-05, -0.09715837985277176, -0.007946990430355072, 0.007653913460671902, -0.09035272151231766, -0.11139417439699173, -0.08476641774177551, -0.06792797893285751, 0.00872248224914074, -0.09426255524158478, -0.01686103828251362, -0.058134377002716064, -0.05988665297627449, -0.0398971326649189, -0.04239996522665024, -0.07198218256235123, -0.0029089932795614004, 0.09607671201229095, -0.04327302426099777, -0.0004426926898304373, -0.024239474907517433, -0.07105278223752975, -0.05035509541630745, 0.009027443826198578, 0.07489671558141708, 0.04155699163675308, -0.03513506054878235, -0.07245146483182907, 0.026930812746286392, 0.03248845040798187, 0.052968766540288925, 0.024931810796260834, 0.06460267305374146, 0.05591750144958496, -0.04633078724145889, 0.01305381115525961, -0.035698939114809036, -0.08277445286512375, -0.03931523114442825, -0.02244957908987999, -0.0128829600289464, -0.08003326505422592, -0.047080062329769135, -0.06950565427541733, -0.08287252485752106, 0.05875084549188614, 0.030758840963244438, 0.1357499361038208, 0.006069247145205736, 0.03207358345389366, -0.07188661396503448, -0.047818683087825775, -0.03073853626847267, 0.047769900411367416, -0.0791773721575737, 0.018826404586434364, 0.033429306000471115, -0.06453206390142441, -0.04539850354194641, -0.09946984052658081, -0.05347852036356926, 0.03765451908111572, 0.037761587649583817, 0.040786195546388626, -0.020995724946260452, 0.05498648062348366, -0.01631343923509121, 0.019385304301977158, -0.025363128632307053], [0.002239146502688527, 0.07422719150781631, -0.06553604453802109, 0.07781822979450226, -0.08131086081266403, 0.0014560561394318938, 0.017683953046798706, -0.04242348298430443, 0.05244499072432518, -0.03358106315135956, -0.027293140068650246, 0.012416188605129719, 0.02626628614962101, 0.08593520522117615, -0.02049410156905651, 0.04502337425947189, 0.005302507895976305, 0.01703842729330063, 0.06597703695297241, -0.05184199661016464, 0.02925470471382141, -0.06406563520431519, 0.048211343586444855, -0.04460059106349945, -0.002352511277422309, -0.0067301588132977486, -0.05338209867477417, -0.06987906992435455, 0.018497126176953316, 0.03790513798594475, 0.057191409170627594, -0.0008121796417981386, -0.01561236847192049, -0.018380654975771904, 0.009925497695803642, -0.00032107747392728925, 0.07950125634670258, 0.07445386052131653, -0.0075437650084495544, -0.06104256585240364, 0.0036135544069111347, -0.010130993090569973, 0.0006287952419370413, -0.017418934032320976, -0.08329859375953674, 0.06469286233186722, 0.05378459766507149, -0.03897562995553017, -0.05545975640416145, 0.06607131659984589, 0.028395183384418488, 0.06365928798913956, -0.03868476301431656, 0.02109885960817337, 0.011442258954048157, 0.014359666965901852, -0.04926438257098198, 0.05357065424323082, 0.028532113879919052, 0.04218802973628044, 0.010411904193460941, -0.0454721562564373, -0.06493929773569107, -0.07050509005784988, 0.016843320801854134, -0.02475011721253395, -0.025966636836528778, 0.005739008542150259, -0.003923915326595306, 0.007066589314490557, 0.011269369162619114, 0.03070526197552681, 0.040721599012613297, -0.04027212783694267, 0.03994472697377205, 0.04732951521873474, 0.05222572758793831, 0.03079167753458023, -0.04502083361148834, -0.009589584544301033, 0.024398745968937874, 0.06094478815793991, -0.02913103625178337, 0.08108413219451904, -0.02680085599422455, -0.06305431574583054, 0.05557052791118622, 0.07901165634393692, 0.00820743665099144, -0.04093337431550026, -0.016168177127838135, 0.06099453195929527, -0.03502548858523369, 0.04072686284780502, -0.08582790940999985, 0.051998965442180634, -0.0010520440991967916, 0.0020572419743984938, 0.003557157004252076, -0.06672047823667526, 0.0675615593791008, -0.06408489495515823, 0.0365760438144207, 0.059738513082265854, 0.012675457634031773, -0.03867536038160324, -0.06109244376420975, -0.0030521959997713566, 0.05154544487595558, -0.0181915033608675, -0.045904241502285004, 0.047337621450424194, -0.01616634614765644, -0.005973404739052057, 0.07518994808197021, -0.0754213035106659, 0.035929612815380096, 0.03983747586607933, -0.05602051690220833, 0.04051654785871506, -0.041984669864177704, 0.04239882528781891, 0.07674951106309891, -0.04575363174080849, 0.05152051895856857, -0.010379581712186337, -0.0056368401274085045, -0.08074016124010086, -0.046882566064596176, -0.04129989817738533, 0.013190113008022308, 0.026043519377708435, -0.0930568128824234], [0.09174422919750214, 0.07008446753025055, 0.03349072113633156, -0.053969286382198334, 0.04953918606042862, 0.050025589764118195, 0.007225461769849062, -0.011707544326782227, -0.05654728040099144, -0.0397733598947525, 0.024656513705849648, 0.022175109013915062, -0.0069719525054097176, 0.0005725001101382077, -0.05066903680562973, 0.026562266051769257, 0.03651440888643265, 0.011324443854391575, 0.02761402353644371, 0.013000094331800938, -0.028255419805645943, 0.03294454887509346, 0.030362268909811974, -0.09468702226877213, 0.008113788440823555, 0.08601000159978867, 0.08505681157112122, -0.07382585853338242, 0.037069402635097504, -0.01719900406897068, 0.03544653579592705, 0.002825779840350151, -0.029454298317432404, 0.03021523728966713, 0.08612532913684845, 0.034227967262268066, 0.025357821956276894, -0.04142088070511818, -0.07618778944015503, -0.05247177556157112, -0.0015772442566230893, -0.07919248193502426, -0.005981558468192816, -0.07468932867050171, -0.09108932316303253, 0.06999224424362183, 0.0031243672128766775, 0.014851427637040615, 0.06853421032428741, 0.05656396970152855, -0.08299540728330612, 0.0999881774187088, -0.0838388130068779, -0.024528998881578445, -0.06788968294858932, 0.027489889413118362, -0.03844901919364929, 0.0907454565167427, 0.004344907123595476, -0.0016235425136983395, -0.07781928032636642, 0.002827929798513651, 0.037570398300886154, -0.07142197340726852, -0.018651530146598816, -0.0758056491613388, 0.04190390184521675, 0.0791245698928833, -0.023360127583146095, -0.07050370424985886, 0.011658445000648499, -0.030633511021733284, -0.0319182462990284, 0.026409300044178963, -0.06144624575972557, -0.0771777406334877, 0.03241679072380066, -0.014959415420889854, 0.0024392574559897184, 0.056705325841903687, -0.052738845348358154, -0.06576591730117798, 0.0631924644112587, -0.040725916624069214, -0.004154540598392487, -0.03981738165020943, 0.04534878209233284, 0.05849113315343857, 0.0110536003485322, -0.02512192167341709, 0.017082713544368744, -0.012502730824053288, -0.023141557350754738, -0.05703462287783623, 0.0627991184592247, -0.021989766508340836, -0.050402626395225525, 0.08350975811481476, 0.055986713618040085, -0.04755795747041702, -0.04867396503686905, -0.0617029070854187, 0.018227389082312584, 0.026006991043686867, -0.019060127437114716, 0.035929836332798004, -0.06395481526851654, -0.023523490875959396, 0.07974456995725632, 0.03997379168868065, 0.0005424729897640646, 0.050468675792217255, -0.02616995945572853, -0.09320554882287979, 0.08718280494213104, 0.0820031613111496, 0.02642127498984337, -0.06248662248253822, -0.03450934588909149, 0.09165379405021667, 0.029763806611299515, 0.05080787092447281, 0.039850033819675446, 0.014663152396678925, 0.06198109686374664, 0.02711932733654976, 0.07970681041479111, 0.00271815387532115, -0.01855192333459854, -0.01918569579720497, -0.06846575438976288, -0.01184806227684021, -0.059839747846126556], [0.06838715821504593, 0.012873168103396893, -0.030562063679099083, -0.057915087789297104, -0.06551841646432877, 0.07453963905572891, -0.09047876298427582, -0.08630240708589554, -0.10223091393709183, 0.02641088142991066, 0.07325151562690735, -0.08176841586828232, 0.01755121722817421, 0.037809811532497406, -0.09443899989128113, 0.023067545145750046, 0.011919123120605946, -0.055935077369213104, -0.005075705237686634, 0.012153316289186478, -0.053377408534288406, -0.028220048174262047, 0.013335751369595528, -0.015772685408592224, -0.025176364928483963, -0.05661137402057648, 0.006157219409942627, 0.008928315714001656, 0.01759503409266472, 0.020900553092360497, 0.047515369951725006, 0.050822772085666656, -0.03622772544622421, -0.05517001077532768, 0.04256681725382805, 0.014633812941610813, -0.005722976289689541, -0.008626281283795834, -0.08351322263479233, -0.00915420800447464, -0.08400359004735947, -0.06750784069299698, -0.11517161130905151, -0.0691673681139946, -0.13596591353416443, 0.03168848529458046, -0.026633141562342644, -0.05129464715719223, 0.08864915370941162, -0.008264166302978992, 0.07284935563802719, 0.010738161392509937, -0.05887051299214363, 0.04850935935974121, -0.028539029881358147, -0.07378646731376648, 0.030299220234155655, 0.0027196689043194056, -0.014744165353477001, 0.035317227244377136, 0.07129642367362976, 0.035199884325265884, -0.08098010718822479, -0.0043901787139475346, -0.07185603678226471, 0.06492941081523895, -0.020736802369356155, 0.05226752907037735, 0.0706988051533699, -0.05615103617310524, -0.07096081227064133, 0.002285907743498683, -0.05228137969970703, 0.012950743548572063, 0.03446916490793228, 0.010340689681470394, 0.04159608855843544, 0.07013368606567383, 0.014288672246038914, -0.011723065748810768, -0.027891045436263084, -0.07651527225971222, -0.00840586144477129, 0.048682160675525665, 0.057338897138834, 0.06759380549192429, 0.012656215578317642, 0.020825326442718506, -0.0866517424583435, -0.08302479982376099, -0.007234534714370966, -0.005885004065930843, 0.0946575403213501, 0.06570333987474442, 0.020266804844141006, -0.03356959670782089, -0.08065199851989746, -0.041180022060871124, 0.08818059414625168, 0.019594617187976837, -0.0077207195572555065, 0.05689752474427223, -0.08702408522367477, 0.0031113270670175552, 0.0022957937326282263, 0.03801417350769043, -0.04593074694275856, -0.06552492827177048, 0.003482149913907051, 0.06738902628421783, 0.011004943400621414, -0.06593968719244003, -0.06767981499433517, -0.07727847248315811, -0.07135871797800064, -0.01967945694923401, -0.03829348087310791, 0.04005012661218643, 0.006966558750718832, -0.13425089418888092, 0.07470761984586716, 0.03626493364572525, -0.16913819313049316, 0.02213645540177822, 0.010112469084560871, 0.027024343609809875, -0.014516361989080906, 0.0031281167175620794, 0.03997185453772545, -0.016592368483543396, -0.025243019685149193, 0.05032923072576523, -0.027248669415712357], [-0.026312779635190964, -0.08312144130468369, -0.049417976289987564, -0.035417139530181885, -0.08457162231206894, 0.052702829241752625, -0.055544041097164154, 0.006559461820870638, 0.06144363433122635, -0.002048955764621496, 0.05096353590488434, -0.023967338725924492, -0.0768994465470314, -0.054294995963573456, -0.10136111080646515, -0.0480232760310173, 0.0810023620724678, -0.07269234955310822, -0.025324063375592232, 0.03841457515954971, 0.08547832071781158, -0.008782065473496914, 0.04129127785563469, 0.013399383053183556, 0.02404944971203804, 0.05389520525932312, 0.038351237773895264, -0.01653432846069336, -0.13977020978927612, 0.07321911305189133, -0.010678967460989952, 0.04937523603439331, -0.0284759309142828, 0.0283774696290493, 0.041405800729990005, -0.0034548065159469843, 0.061477139592170715, -0.0017755859298631549, -0.04044465720653534, 0.09495718032121658, -0.041847966611385345, 0.033439356833696365, 0.05102459713816643, 0.08467456698417664, -0.002082638908177614, 0.016467532142996788, -0.026845576241612434, 0.012304508127272129, -0.03229229897260666, -0.01052490621805191, 0.014639982022345066, 0.10573327541351318, -0.023267896845936775, -0.17056283354759216, 0.11730970442295074, -0.0052477335557341576, -0.11553990095853806, 0.08103986084461212, -0.007585691288113594, -0.06257513165473938, -0.030912822112441063, 0.0037705826107412577, -0.06892203539609909, -0.0102540897205472, -0.03260483965277672, -0.021124448627233505, -0.08831679821014404, -0.06459089368581772, -0.09957108646631241, 0.012458236888051033, 0.06613623350858688, -0.12526065111160278, -0.07246822118759155, -0.08020157366991043, -0.08657694607973099, -0.048522934317588806, 0.019661253318190575, -0.08052437007427216, -0.027754588052630424, -0.03551561012864113, 0.017019111663103104, 0.040088631212711334, -0.012094501405954361, -0.12605918943881989, 0.08264123648405075, -0.039198148995637894, 0.06558910757303238, 0.026539532467722893, -0.0025905051734298468, 0.07088111340999603, -0.06292179226875305, -0.006659435108304024, 0.026128176599740982, 0.06446092575788498, 0.015671774744987488, -0.01950925402343273, 0.13288238644599915, 0.04711855947971344, 0.07674471288919449, -0.10517573356628418, -0.06020372733473778, -0.024017468094825745, 0.07455943524837494, 0.09415891021490097, -0.023884516209363937, -0.023472527042031288, -0.005090966355055571, -0.09060093015432358, 0.05097915977239609, -0.006692324299365282, 0.08121141046285629, 0.09201522916555405, -0.023757467046380043, -0.06053124740719795, -0.008981043472886086, 0.06378164142370224, -0.041933342814445496, 0.038094017654657364, 0.01557379961013794, -0.009415608830749989, -0.03795628622174263, 0.02576637640595436, 0.08198762685060501, 0.02582208253443241, 0.06327550113201141, 0.02841956727206707, 0.06411941349506378, -0.07973739504814148, -0.075893834233284, -0.013179589994251728, 0.0013093033339828253, 0.007119730580598116, 0.05535106360912323], [-0.03257061168551445, -0.07924118638038635, -0.025923416018486023, -0.039181750267744064, -0.059210196137428284, -0.02000868320465088, -0.08627157658338547, -0.04741128161549568, 0.09767885506153107, 0.001236773212440312, 0.060389067977666855, 0.0214847382158041, 0.013068903237581253, -0.009587319567799568, -0.019986478611826897, -0.019933875650167465, 0.035155199468135834, -0.03178233653306961, 0.03419116884469986, -0.07932883501052856, -0.0006933445110917091, -0.13081830739974976, -0.06464943289756775, 0.08603676408529282, 0.07472070306539536, 0.0216425321996212, 0.07217688113451004, 0.03698578476905823, -0.10751422494649887, 0.05296177417039871, 0.0661003589630127, -0.0030892842914909124, -0.07681373506784439, 0.01961396262049675, 0.06770024448633194, 0.01751946471631527, -0.0664520263671875, -0.07787515968084335, 0.027142049744725227, 0.0976344421505928, 0.03022923320531845, -0.07936649769544601, 0.04325113445520401, 0.04186050966382027, 0.05937563255429268, 0.03694639727473259, 0.030978193506598473, -0.11930030584335327, -0.02452109009027481, -0.059769146144390106, 0.01750725507736206, 0.08129008114337921, -0.07050182670354843, -0.10841719061136246, -0.0022101663053035736, 0.05569617077708244, 0.06670206040143967, -0.018414808437228203, 0.021779196336865425, -0.061201952397823334, -0.010230956599116325, -0.07382940500974655, 0.0012114463606849313, 0.04719969257712364, -0.05130589008331299, 0.06625424325466156, 0.028808631002902985, 0.005863142665475607, 0.01176967192441225, -0.07075869292020798, -0.007714962121099234, 0.0877845510840416, -0.10003732144832611, 0.0825122594833374, 0.05026106536388397, -0.05426269769668579, 0.01949097216129303, -0.02920077182352543, -0.06974370032548904, -0.008940312080085278, -0.08622053265571594, 0.037536345422267914, -0.07349594682455063, 0.025781292468309402, -0.04710827395319939, 0.07833431661128998, 0.07389792054891586, -0.07787331193685532, 0.010889892466366291, 0.00863957591354847, -0.023552142083644867, 0.06800160557031631, 0.028844406828284264, 0.05224134773015976, -0.033936623483896255, -0.091130331158638, 0.009649495594203472, -0.052126917988061905, -0.07989221811294556, -0.07530589401721954, -0.06152557209134102, -0.09449369460344315, -0.04942804574966431, 0.03219033032655716, -0.07845229655504227, -0.0065803490579128265, -0.07180242985486984, -0.050079405307769775, 0.06152970716357231, 0.03686252608895302, 0.032670870423316956, -0.014408332295715809, 0.08406685292720795, -0.043232861906290054, -0.029144244268536568, -0.07070709019899368, -0.072384774684906, 0.026723865419626236, -0.09176535159349442, 0.09230735152959824, -0.06606660783290863, 0.033217672258615494, 0.028328245505690575, -0.08461897075176239, -0.0107068857178092, -0.050455786287784576, 0.05583178624510765, -0.07049040496349335, -0.048913054168224335, -0.0432409904897213, -0.0037003704346716404, -0.03714301437139511, -0.02696617692708969], [-0.05503721535205841, 0.03160649910569191, -0.05249118059873581, 0.06747517734766006, -0.020918523892760277, -0.008144599385559559, -0.062016818672418594, -0.05108047276735306, -0.053409598767757416, 0.049932535737752914, 0.04002552106976509, 0.008095702156424522, 0.05985626205801964, -0.11765483021736145, -0.008921737782657146, 0.10946729779243469, -0.07204683870077133, 0.0680713877081871, -0.03901178762316704, 0.06854315847158432, -0.08576285094022751, -0.06114167347550392, -0.05056298151612282, 0.03403953090310097, 0.07416592538356781, 0.0784422755241394, -0.03481080010533333, -0.07568497210741043, 0.03577449172735214, 0.07405692338943481, 0.030743304640054703, 0.07731282711029053, 0.03946602717041969, -0.008401437662541866, 0.04019225761294365, -0.06669078767299652, -0.033436331897974014, 0.07132040709257126, 0.015152457170188427, -0.10114086419343948, -0.03079376555979252, 0.027960967272520065, -0.09051192551851273, -0.11815233528614044, -0.06058117747306824, 0.02989712357521057, -0.03365070000290871, -0.01263782475143671, -0.008528586477041245, -0.014932319521903992, 0.026454968377947807, 0.07815621793270111, 0.08128039538860321, -0.04732128605246544, -0.06343287974596024, -0.057755738496780396, -0.05346689373254776, -0.030565951019525528, -0.0196031853556633, -0.029369544237852097, -0.035612184554338455, 0.010145872831344604, 0.051368314772844315, 0.06714381277561188, 0.005111691541969776, -0.015009647235274315, 0.012797759845852852, 0.04804138466715813, -0.018578527495265007, 0.07755675166845322, 0.05855614319443703, 0.0831054300069809, -0.07664856314659119, -0.06450246274471283, 0.08845239877700806, -0.027912981808185577, 0.040806952863931656, 0.017327846959233284, 0.011273336596786976, 0.06158185005187988, -0.04854852333664894, -0.17966777086257935, 0.019982710480690002, -0.1159079447388649, 0.032201629132032394, -0.06785127520561218, 0.08963856846094131, -0.005067804828286171, -0.09476355463266373, -0.04081758111715317, 0.06496310234069824, 0.028055790811777115, -0.023700805380940437, -0.07320200651884079, -0.05075269192457199, 0.02265525981783867, -0.19162911176681519, 0.05691341683268547, 0.03733733668923378, -0.1717178225517273, 0.07172422111034393, 0.11013831198215485, 0.05629899352788925, 0.03831465542316437, -0.010018425062298775, -0.009407714009284973, 0.02170337177813053, 0.045760687440633774, -0.06077437102794647, 0.0325096994638443, 0.09226065129041672, -0.030955474823713303, -0.04999540001153946, 0.02777114510536194, -0.04110046476125717, -0.07101011276245117, 0.0036406670697033405, 0.09407047182321548, 0.09565720707178116, 0.06863762438297272, 0.059664033353328705, -0.055812057107686996, 0.049378834664821625, 0.054247044026851654, 0.04267481714487076, -0.052514608949422836, 0.005415064748376608, -0.022591862827539444, -0.03186486288905144, -0.02229427918791771, -0.07088091224431992, -0.08416739851236343, 0.024784479290246964], [0.013624638319015503, 0.10579666495323181, -0.05082656443119049, -0.03150821849703789, 0.026113132014870644, -0.05571821704506874, 0.030764581635594368, 0.041860636323690414, 0.054438311606645584, 0.005581798031926155, 0.040106333792209625, -0.006083237007260323, -0.09756255894899368, 0.0200412068516016, 0.0018247123807668686, -0.03711693733930588, 0.06357764452695847, 0.07376956939697266, -0.004470125772058964, 0.02612166851758957, -0.034676652401685715, 0.04539606347680092, 0.07429244369268417, 0.029715128242969513, 0.044303711503744125, 0.055914200842380524, 0.0456622838973999, -0.028714070096611977, -0.08582498878240585, 0.07352593541145325, 0.06737688183784485, -0.04884224757552147, -0.01706852950155735, -0.006389108020812273, -0.023189522325992584, -0.011473347432911396, -0.0653054490685463, -0.08500690758228302, -0.024680428206920624, 0.04249120131134987, -0.08254025876522064, -0.027406178414821625, -0.01682262122631073, -0.08165490627288818, -0.022554395720362663, 0.029382118955254555, -0.057327017188072205, 0.05814981460571289, 0.005926365964114666, -0.055629663169384, 0.05794846639037132, 0.0383443720638752, 0.0710800513625145, -0.027460401877760887, -0.07839776575565338, 0.05934878811240196, 0.05128861218690872, -0.01601181924343109, 0.051481399685144424, 0.03497868776321411, 0.013001604937016964, -0.04984581097960472, 0.06498639285564423, 0.03555366396903992, -0.03605368360877037, -0.043592773377895355, 0.031752537935972214, 0.07707937061786652, 0.03322611376643181, 0.009429319761693478, -0.04239023104310036, 0.05376093089580536, -0.0029175961390137672, -0.0986257866024971, -0.06666401028633118, -0.03617379441857338, 0.05662427097558975, -0.02598491869866848, -0.04696815460920334, -0.02171621285378933, 0.03029128722846508, -0.031544651836156845, 0.061930857598781586, -0.07597480714321136, -0.06825720518827438, -0.07965696603059769, 0.0762711688876152, 0.005441227462142706, 0.04631860926747322, -0.010117159225046635, 0.0009106073412112892, 0.0010304173920303583, 0.11983794718980789, -0.011628074571490288, 0.012183950282633305, 0.02306574210524559, -0.09063746780157089, 0.07193995267152786, -0.01259642280638218, -0.05571407824754715, 0.053889188915491104, -0.03921673446893692, 0.039716701954603195, -0.06025183945894241, -0.09560829401016235, 0.004868270829319954, -0.019683703780174255, 0.014899489469826221, 0.016425905749201775, 0.06484255939722061, -0.12401222437620163, -0.07701114565134048, -0.07757285237312317, -0.09312638640403748, -0.018264861777424812, -0.014598280191421509, -0.024508291855454445, -0.09590696543455124, -0.1206904724240303, -0.007550835609436035, 0.06970663368701935, 0.025263773277401924, -0.11255927383899689, -0.03749510273337364, -0.03625759482383728, -0.01827802136540413, -0.01578320376574993, 0.07395366579294205, 0.0960516482591629, 0.04253736883401871, -0.03191867470741272, -0.0396389476954937, -0.029411081224679947], [-0.05695480853319168, -0.12649047374725342, -0.004221673589199781, 0.011196186766028404, 0.01778791844844818, -0.02343626879155636, -0.03666165843605995, -0.05942119285464287, 0.09226862341165543, 0.03705890476703644, 0.0024507208727300167, -0.0720100849866867, 0.09116943925619125, 0.08989781141281128, 0.009756523184478283, 0.03286120295524597, 0.010581343434751034, -0.0333549901843071, -0.0771147683262825, -0.06236765533685684, 0.05410101264715195, 0.01644289866089821, 0.06969932466745377, -0.017313754186034203, 0.10634684562683105, 0.03559836372733116, -0.08872071653604507, 0.0575537383556366, -0.021923456341028214, 0.0776066929101944, 0.054187458008527756, 0.028559710830450058, 0.019575228914618492, -0.003921994473785162, 0.03724386543035507, -0.06924083083868027, 0.05744926258921623, -0.030415616929531097, -0.06854654103517532, 0.05809943005442619, -0.004482162185013294, -0.062184594571590424, 0.027320342138409615, -0.010616753250360489, 0.03144613280892372, -0.01040721032768488, -0.08324845880270004, -0.06836161762475967, -0.020544208586215973, 0.020368292927742004, -0.05036749690771103, 0.016941262409090996, -0.07696229964494705, -0.056347571313381195, 0.0140897361561656, -0.03781524673104286, -0.07391919195652008, 0.015127201564610004, 0.009271550923585892, -0.03161708638072014, -0.04453515633940697, 0.10441375523805618, 0.09139884263277054, 0.04908134415745735, -0.05073772370815277, 0.013362751342356205, 0.08218083530664444, 0.052551738917827606, -0.07114530354738235, -0.11152242124080658, -0.07679916173219681, 0.03608757257461548, -0.02077624388039112, 0.037823546677827835, -0.05334234610199928, -0.009741515852510929, -0.0006734091439284384, 0.0015973934205248952, 0.05185467749834061, -0.0939936488866806, -0.04253595694899559, 0.07767923176288605, 0.014288178645074368, 0.03218167647719383, -0.06132359430193901, 0.06173223629593849, 0.07108329236507416, 0.010236423462629318, -0.15984472632408142, 0.032331179827451706, 0.026303580030798912, 0.03238685429096222, 0.012524143792688847, -0.06587567180395126, -0.02470891736447811, -0.025156747549772263, 0.05975440889596939, -0.07366693019866943, -0.022280655801296234, -0.0449698232114315, -0.036277446895837784, -0.08214317262172699, -0.037397246807813644, -0.040647685527801514, -0.053484752774238586, 0.014888091944158077, 0.025424828752875328, 0.07446460425853729, -0.07618220150470734, 0.04189281538128853, 0.09980545192956924, 0.12278270721435547, -0.08088561147451401, 0.045078396797180176, 0.12166006863117218, -0.025057123973965645, -0.030684610828757286, 0.07841859757900238, -0.008347886614501476, -0.034253839403390884, -0.012968635186553001, 0.07166942954063416, 0.10120333731174469, 0.00833621434867382, -0.03283216804265976, -0.08091387152671814, 0.028478797525167465, 0.0467044860124588, -0.06875504553318024, -0.0639539510011673, 0.04560280963778496, 0.06632807105779648, -0.03763582929968834], [0.012176668271422386, 0.030667906627058983, 0.09694936126470566, 0.07645781338214874, 0.021582625806331635, 0.017796576023101807, -0.05069161206483841, 0.06003382056951523, -0.026865649968385696, -0.10129162669181824, -0.0844738632440567, 0.07864774763584137, 0.02902151457965374, 0.022540081292390823, -0.04917213320732117, 0.03346678242087364, -0.03576420992612839, -0.06457319110631943, -0.07896038889884949, -0.08320660889148712, 0.02239118330180645, -0.026613524183630943, -0.08013752102851868, -0.0049909488297998905, -0.07756408303976059, -0.06477059423923492, -0.02557862363755703, 0.04536133632063866, -0.054590143263339996, -0.08632929623126984, -0.016956156119704247, -0.026917243376374245, -0.012797570787370205, 0.021966546773910522, -0.017165256664156914, -0.0624040812253952, 0.04195048660039902, 0.04349391907453537, 0.08685781061649323, 0.029172487556934357, 0.03800222650170326, -0.020040716975927353, -0.024552902206778526, -0.0930875763297081, 0.05625893175601959, -0.0844653844833374, 0.03974561393260956, -0.02771250158548355, 0.058880433440208435, -0.024559976533055305, 0.025313137099146843, 0.05228114128112793, -0.0774751678109169, 0.019983215257525444, -0.09425077587366104, -0.011873945593833923, 0.03245249018073082, 0.03633063659071922, -0.01613566465675831, -0.07372839748859406, 0.04856991767883301, -0.07121972739696503, -0.03149784728884697, 0.07818779349327087, 0.07214018702507019, 0.029701629653573036, -0.005446212366223335, 0.06563398241996765, 0.013083728961646557, -0.0040780906565487385, -0.06724413484334946, 0.04274851828813553, -0.0660494938492775, -0.11989082396030426, -0.021127650514245033, 0.041402872651815414, 0.017470533028244972, -0.05638964846730232, -0.05106084793806076, -0.05462271720170975, 0.07878001034259796, 0.041153233498334885, -0.05044248327612877, -0.13768279552459717, -0.07670165598392487, -0.010311048477888107, 0.053739625960588455, 0.0793326124548912, 0.022207170724868774, -0.05851452052593231, -0.04820067435503006, 0.050525326281785965, -0.047503579407930374, -0.02504398673772812, -0.03510936722159386, 0.06322667747735977, 0.09391144663095474, 0.01531474944204092, -0.08039184659719467, -0.05321817845106125, -0.008639698848128319, -0.13288213312625885, -0.021898280829191208, -0.07967234402894974, -0.0691770389676094, 0.06351424753665924, -0.0054346714168787, 0.026605112478137016, 0.0821324810385704, 0.049502674490213394, 0.04695066437125206, 0.13002128899097443, -0.07388896495103836, -0.016232876107096672, 0.043749094009399414, -0.07382169365882874, 0.037618499249219894, -0.00925893522799015, 0.03952779993414879, -0.03614896535873413, 0.005491381976753473, 0.06103901565074921, 0.013749741017818451, 0.0719887763261795, 0.00832459144294262, -0.036369431763887405, -0.06296862661838531, -0.053390152752399445, 0.035262078046798706, -0.05249558761715889, 0.04263903573155403, 0.04781714081764221, 0.004686332307755947], [-0.016170108690857887, -0.05333947762846947, -0.056395068764686584, 0.07052525877952576, -0.043220628052949905, 0.04350705444812775, 0.08541038632392883, -0.06773601472377777, 0.1037428230047226, 0.01637955941259861, -0.042321596294641495, 0.09386058151721954, -0.0442277193069458, 0.07278180867433548, 0.11066155135631561, -0.03809202089905739, 0.023419981822371483, 0.022172970697283745, 0.014923281036317348, 0.060922231525182724, 0.047846488654613495, 0.005260896869003773, -0.052537161856889725, -0.02681785076856613, 0.026432789862155914, 0.011654641479253769, 0.06283514946699142, -0.003330264473333955, 0.013515072874724865, 0.09062134474515915, 0.06566471606492996, 0.048144739121198654, -0.0982147827744484, -0.018168063834309578, -0.047957368195056915, 0.05857664719223976, -0.055481623858213425, -0.026857363060116768, -0.04491895064711571, -0.11616012454032898, 0.02040315419435501, 0.0053087268024683, 0.040529463440179825, -0.04455626383423805, -0.006410673260688782, 0.025983063504099846, -0.06276537477970123, 0.0030598959419876337, -0.0013942334335297346, -0.019449733197689056, -0.05376123636960983, -0.08974463492631912, 0.062367748469114304, 0.04158692806959152, -0.13294371962547302, -0.018646515905857086, 0.028898876160383224, 0.010636813938617706, 0.011971144005656242, 0.03402456268668175, 0.07463745772838593, -0.006824251264333725, -0.06724061071872711, -0.023443875834345818, -0.029689986258745193, 0.05083686113357544, -0.013178943656384945, -0.04030124843120575, 0.04732094705104828, -0.007957914844155312, -0.030633412301540375, 0.07976560294628143, -0.04970351606607437, 0.003285021986812353, -0.05835403501987457, -0.030321132391691208, -0.06990639865398407, 0.041262462735176086, 0.02415207400918007, -0.07006685435771942, 0.07809783518314362, 0.0152521887794137, -0.004504201468080282, 0.05698411539196968, -0.04787744954228401, 0.05865250155329704, -0.0064027816988527775, 0.09216071665287018, -0.12175439298152924, 0.04914252460002899, -0.07124585658311844, 0.0320165678858757, -0.03697151318192482, 0.01664363406598568, 0.0005621915333904326, 0.010316366329789162, -0.12158016115427017, -0.045410048216581345, 0.018922248855233192, -0.05292154476046562, 0.07788100838661194, -0.0936681479215622, -0.09694218635559082, 0.008283855393528938, 0.030756019055843353, -0.03837037831544876, -0.004812605679035187, -0.009983334690332413, -0.009990597143769264, -0.03498389571905136, 0.06462617963552475, 0.006308708339929581, -0.051064733415842056, -0.1280125081539154, 0.13109153509140015, 0.08321888744831085, -0.09130238741636276, 0.04204617813229561, -0.21491840481758118, -0.022412216290831566, -0.07854747027158737, 0.01516097504645586, 0.09603216499090195, 0.04082057625055313, 0.038481567054986954, 0.036799151450395584, -0.07604840397834778, -0.03385927528142929, 0.0977168008685112, -0.05189429596066475, -0.05410999804735184, -0.014796539209783077, -0.02729608863592148], [0.028388578444719315, -0.06697248667478561, -0.10560788959264755, -0.040307674556970596, 0.00853612832725048, -0.03047480434179306, -0.08287614583969116, 0.07490474730730057, -0.07465807348489761, 0.04751531407237053, -0.06338334828615189, 0.008842731826007366, 0.07585383951663971, 0.0486980639398098, -0.02400285191833973, -0.07383565604686737, 0.02671056240797043, 0.01298851240426302, -0.06641963124275208, 0.08747122436761856, -0.007381560280919075, 0.06667357683181763, 0.08456529676914215, 0.029681898653507233, 0.10436265170574188, 0.07383541017770767, 0.040140245109796524, -0.03792070224881172, -0.02332514338195324, 0.016696253791451454, -0.09143710136413574, 0.03378637880086899, -0.009817522950470448, 0.029439358040690422, 0.048458974808454514, -0.12192729860544205, 0.08130712062120438, 0.07386790961027145, -0.01615728624165058, 0.1498912125825882, -0.07672807574272156, -0.07550375908613205, 0.05693119764328003, 0.1272243708372116, 0.1507711559534073, 0.021266672760248184, 0.043562840670347214, -0.02897733822464943, -0.03860609978437424, -0.03184075281023979, -0.025181245058774948, -0.023370586335659027, -0.009548656642436981, 0.07046395540237427, 0.10771143436431885, -0.012759795412421227, 0.04326707497239113, 0.018802952021360397, -0.006216609850525856, -0.026678642258048058, 0.009617971256375313, 0.010086561553180218, -0.041853561997413635, -0.04630792886018753, 0.0899427980184555, -0.0014545110752806067, -0.06901686638593674, -0.05366796627640724, 0.050672195851802826, -0.06785444170236588, -0.008468542248010635, -0.11705136299133301, 0.007656933274120092, -0.06821124255657196, 0.016252674162387848, -0.07944972068071365, 0.05053941532969475, 0.002487743739038706, 0.0721859335899353, 0.03606545552611351, -0.0002264413924422115, -0.026257438585162163, -0.05160278454422951, -0.015905199572443962, -0.0038443461526185274, 0.03261227160692215, -0.09568306058645248, -0.016213998198509216, -0.07306503504514694, 0.006935406941920519, -0.057758912444114685, 0.04400334879755974, -0.09420017153024673, 0.064084492623806, 0.04040634259581566, 0.07162737846374512, -0.060375913977622986, 0.05381897836923599, 0.07359621673822403, 0.08095724135637283, 0.016548868268728256, 0.04328664764761925, 0.08861027657985687, -0.05163126438856125, -0.052784621715545654, -0.03641153499484062, -0.02169366180896759, -0.024006277322769165, -0.008245005272328854, -0.014053016901016235, -0.014639935456216335, -0.041052304208278656, -0.029228026047348976, -0.1943642646074295, 0.08755488693714142, -0.039373334497213364, -0.04297599568963051, 0.09743239730596542, 0.1199575737118721, 0.01851831004023552, -0.030527647584676743, -0.00621814327314496, 0.16744959354400635, -0.008563365787267685, -0.03513006865978241, 0.007663081865757704, 0.08172156661748886, -0.005517692305147648, 0.046646155416965485, -0.04387503117322922, 0.06470707803964615, 0.029573986306786537, 0.0298613291233778], [-0.08703877776861191, 0.027668079361319542, -0.013581370934844017, -0.004500976298004389, -0.10260483622550964, -0.013958259485661983, 0.08970106393098831, -0.0763256698846817, 0.029040880501270294, 0.11791323870420456, -0.023677518591284752, -0.06111273542046547, 0.06117495521903038, 0.10029344260692596, 0.0849853977560997, -0.018516646698117256, 0.0002610109222587198, 0.06556925177574158, 0.055898215621709824, 0.03830515965819359, -0.08278199285268784, -0.05157595872879028, 0.032850127667188644, 0.01731935515999794, 0.0646337941288948, -0.036050718277692795, 0.024554135277867317, 0.0871051624417305, 0.11823894828557968, -0.006935838609933853, -0.00465426268056035, -0.021436087787151337, 0.05627869442105293, 0.07968558371067047, 0.04472871124744415, -0.0758502185344696, -0.020810270681977272, -0.05094734951853752, -0.11355988681316376, 0.02739582024514675, 0.07976866513490677, 0.04368958994746208, -0.10546710342168808, -0.0008185205515474081, 0.047950126230716705, -0.024841761216521263, 0.043324507772922516, 0.01726510003209114, -0.015511589124798775, -0.0725262463092804, 0.012096192687749863, -0.07198454439640045, -0.019465455785393715, -0.011363145895302296, -0.10797562450170517, -0.058716703206300735, -0.02217164821922779, -0.06334084272384644, -0.08526839315891266, -0.07235141843557358, 0.06566575914621353, -0.03361567482352257, -0.08479389548301697, -0.07097373902797699, 0.024117495864629745, -0.07405281811952591, -0.03792295604944229, 0.055141907185316086, -0.041533518582582474, 0.06540799140930176, 0.00825910922139883, 0.09195823222398758, 0.02574370987713337, -0.0881790891289711, 0.07263122498989105, 0.04333123192191124, 0.007889138534665108, 0.07683458924293518, -0.10128460079431534, -0.07212301343679428, -0.09412634372711182, 0.04805935174226761, 0.05527044087648392, 0.06019841507077217, -0.07982470840215683, 0.08658718317747116, -0.09383219480514526, -0.00497825164347887, 0.0851350873708725, 0.004362523090094328, -0.10830625891685486, -0.04567372053861618, -0.015034339390695095, 0.021302882581949234, -0.0514533668756485, 0.08759458363056183, 0.07935222238302231, 0.02753257378935814, 0.02715812809765339, 0.02805616892874241, 0.036361370235681534, -0.0017372391885146499, 0.07569523900747299, 0.019155951216816902, -0.02620314434170723, 0.0013556822668761015, 0.059562813490629196, -0.031791653484106064, 0.047463178634643555, 0.0024950532242655754, 0.09968580305576324, 0.10152442753314972, -0.039918266236782074, 0.03845294564962387, 0.03333675488829613, -0.06073285639286041, -0.05831503868103027, -0.04251057282090187, 0.10345204174518585, 0.01342571247369051, 0.05011589825153351, -0.029400130733847618, 0.10897338390350342, 0.024287814274430275, 0.058692075312137604, 0.03719062730669975, 0.05530203878879547, 0.03628472611308098, -0.007467100862413645, 0.06647935509681702, 0.07246832549571991, 0.0763571709394455, 0.0017830529250204563], [-0.029090244323015213, -0.01566808484494686, 0.06066403165459633, 0.044227324426174164, 0.03479829803109169, 0.07011479884386063, 0.10290081799030304, -0.033139266073703766, 0.01590004563331604, 0.07125688344240189, 0.015119914896786213, 0.0012695990735664964, 0.030406558886170387, -0.057461999356746674, 0.13871023058891296, 0.030400948598980904, -0.08073201775550842, -0.08253151178359985, -0.005769029259681702, 0.06879043579101562, 0.05033832788467407, 0.04104386270046234, 0.05696313455700874, -0.07082413136959076, 0.10644351691007614, -0.055294204503297806, 0.06536351889371872, -0.12401847541332245, -0.003166863927617669, 0.13371717929840088, -0.009491903707385063, -0.0796978697180748, -0.018993152305483818, -0.07502716779708862, -0.08162885904312134, -0.08316829055547714, 0.029157958924770355, 0.006913356948643923, 0.023944219574332237, -0.022401703521609306, -0.027996061369776726, -0.004635388031601906, 0.08026992529630661, 0.061470042914152145, 0.024205485358834267, -0.04835992678999901, 0.05224408209323883, -0.021156571805477142, -0.09371814131736755, 0.019697999581694603, -0.01632397621870041, 0.020764872431755066, 0.028472917154431343, 0.006022234447300434, -0.025602558627724648, -0.06569056212902069, -0.004213214851915836, 0.05805457755923271, -0.05244254693388939, -0.04974248632788658, -0.04922768846154213, 0.08326318860054016, 0.05521388351917267, 0.013202314265072346, 0.02747727930545807, 0.07880458980798721, 0.007035540416836739, 0.056628867983818054, 0.007785211317241192, -0.04327867925167084, -0.0658254474401474, 0.07283773273229599, -0.04524017497897148, -0.02228611521422863, 0.05109742283821106, 0.05220390856266022, -0.02164491079747677, 0.04861046001315117, -0.016707614064216614, 0.039977170526981354, -0.031807053834199905, -0.0462150014936924, 0.08930103480815887, -0.03696120157837868, -0.05757494270801544, -0.036290254443883896, -0.04059843346476555, -0.08218632638454437, 0.04336084797978401, -0.05827727168798447, 0.02168893627822399, -0.013830680400133133, 0.028319917619228363, -0.030124247074127197, -0.029553569853305817, -0.0018675969913601875, -0.06216514855623245, 0.05604678764939308, -0.10732273012399673, -0.017171064391732216, -0.029787316918373108, 0.053268104791641235, 0.028967486694455147, -0.01696682721376419, -0.11824142187833786, 0.027628278359770775, 0.06120334193110466, 0.00616160873323679, 0.03304890915751457, -0.01636325754225254, -0.03248147666454315, -0.07139341533184052, 0.006579867098480463, 0.06167156994342804, 0.0491429902613163, 0.0612584725022316, -0.022950900718569756, -0.0380137600004673, 0.022876229137182236, 0.013868533074855804, 0.04621457681059837, -0.07875468581914902, 0.08975891023874283, 0.016071736812591553, 0.04196548834443092, -0.037732187658548355, -0.08000140637159348, 0.011695138178765774, 0.011874500662088394, -0.054883167147636414, 0.07469101995229721, -0.07315518707036972, 0.04308103397488594], [-0.059757813811302185, 0.0015774325001984835, -0.0449734702706337, 0.05005677416920662, 0.05458775535225868, 0.06463715434074402, 0.06646522134542465, 0.022920232266187668, 0.018795156851410866, 0.010267853736877441, 0.05948570743203163, 0.05773982033133507, 0.09342162311077118, 0.05249440670013428, -0.02968871220946312, -0.07201111316680908, -0.08702909201383591, -0.0036125469487160444, -0.04884171113371849, -0.06228826567530632, -0.041021160781383514, 0.09054049104452133, -0.034898873418569565, 0.09303520619869232, -0.0866822674870491, 0.06357108056545258, 0.02963411994278431, -0.006484028417617083, 0.030203141272068024, 0.0516241155564785, -0.07236931473016739, -0.06899567693471909, 0.033537641167640686, -0.0653502345085144, -0.02957555279135704, 0.05457433685660362, 0.01974744163453579, 0.007587272208184004, -0.09563756734132767, -0.06067926436662674, 0.04819994419813156, -0.018857421353459358, 0.07930459082126617, 0.054702915251255035, -0.08782198280096054, 0.011197610758244991, 0.0904749184846878, 0.07453199476003647, 0.00255781807936728, 0.04444163665175438, 0.027157392352819443, -0.06739331036806107, -0.036315008997917175, -0.11573795229196548, -0.070524662733078, -0.04420448839664459, -0.05284878984093666, -0.04597345367074013, -0.05872318521142006, -0.008889462798833847, -0.06233786419034004, -0.0038178039249032736, 0.05217388644814491, -0.06941524147987366, 0.09102234244346619, 0.04798975586891174, 0.07483170926570892, 0.011208447627723217, -0.0751725435256958, -0.04326712712645531, 0.03485380485653877, 0.03931470215320587, -0.02750079520046711, 0.02797437645494938, 0.015987450256943703, -0.0439833365380764, -0.04052472859621048, -0.08611390739679337, 0.06768788397312164, -0.05490092933177948, -0.0019441945478320122, -0.018262526020407677, -0.04901736229658127, 0.04689572751522064, 0.03712359815835953, 0.04620344191789627, 0.0032879551872611046, -0.04611189663410187, 0.0233156718313694, 0.045313213020563126, 0.13726644217967987, -0.07736111432313919, -0.004486490972340107, -0.0188028272241354, 0.12008143961429596, 0.019414279609918594, 0.021415993571281433, 0.040124308317899704, 0.03360087797045708, -0.06277388334274292, -0.032476507127285004, -0.08551105111837387, -0.02477642148733139, 0.061245545744895935, -0.08493169397115707, 0.02746206894516945, 0.015784963965415955, 0.02146473340690136, -0.048351775854825974, 0.030977584421634674, -0.10893408954143524, -0.04293164983391762, -0.031627338379621506, -0.04215878248214722, 0.00018931200611405075, 0.05317521095275879, -0.024224624037742615, 0.044372595846652985, -0.03228318691253662, 0.0426412858068943, 0.006519649643450975, -0.07485926151275635, 0.09634636342525482, 0.019147396087646484, -0.03681714087724686, 0.01712513156235218, 0.04617338255047798, -0.017133871093392372, 0.0630287230014801, -0.05677681416273117, -0.03890896216034889, 0.03178548440337181, 0.06371994316577911], [-0.07302303612232208, -0.03609447181224823, -0.09400156140327454, -0.03855757787823677, 0.016582921147346497, -0.029847849160432816, 0.08875694125890732, -0.0233016274869442, 0.005473490804433823, 0.010157039389014244, 0.007738126907497644, -0.06563735753297806, -0.03533976897597313, -0.04804958403110504, 0.09148383140563965, -0.03429386392235756, 0.015269801020622253, 0.041924186050891876, -0.025224128738045692, 0.08414400368928909, -0.02482771687209606, 0.03882861137390137, 0.01957084983587265, 0.08028948307037354, 0.07813628017902374, -0.06293393671512604, 0.027689918875694275, 0.02867463231086731, 0.11554314941167831, -0.0008099455153569579, -0.05764666572213173, -0.03669867664575577, 0.07076771557331085, 0.037825096398591995, 0.016208793967962265, 0.07705914974212646, 0.04654257372021675, 0.056664787232875824, 0.009910385124385357, 0.14058196544647217, -0.05192374810576439, 0.049860358238220215, 0.036643967032432556, 0.06653076410293579, -0.038181379437446594, 0.05142708495259285, -0.002311377553269267, -0.003930335398763418, -0.004454852547496557, -0.02316112071275711, 0.06004062294960022, -0.01991821825504303, 0.0719626396894455, -0.07990306615829468, -0.023038804531097412, -0.02043161168694496, -0.005555133800953627, -0.019134342670440674, -0.01317513082176447, -0.04804578423500061, -0.04335701838135719, -0.05355418473482132, 0.06862258166074753, -0.08138692378997803, -0.009794943034648895, 0.016977835446596146, 0.057239823043346405, 0.06983797997236252, 0.006182416342198849, -0.00020069397578481585, -0.015859922394156456, 0.036959510296583176, -0.008460026234388351, -0.009484757669270039, 5.248280558589613e-06, 0.010690578259527683, -0.04549111798405647, -0.007189261261373758, -0.039392415434122086, -0.007744947914034128, -0.017434369772672653, -0.022769076749682426, 0.09411993622779846, -0.06985043734312057, -0.033676087856292725, -0.02217974327504635, 0.03480835258960724, -0.0407504104077816, -0.02749176323413849, -0.05635208636522293, -0.01635933667421341, -0.03472846373915672, 0.046202126890420914, -0.020965103060007095, -0.05475469306111336, 0.05281838774681091, 0.11006931960582733, 0.07302196323871613, 0.020538339391350746, -0.048019833862781525, 0.053997479379177094, 0.08756067603826523, 0.061219457536935806, 0.05956653505563736, 0.07831809669733047, -0.10635990649461746, -0.04814716428518295, -0.05388295650482178, 0.04761818051338196, -0.0724034458398819, -0.08540298044681549, 0.03079833835363388, 0.027724800631403923, -0.0601298026740551, 0.0016010828549042344, -0.07403722405433655, 0.011785159818828106, -0.01025281473994255, 0.016732146963477135, 0.025128301233053207, -0.06448888033628464, -0.043549973517656326, 0.12428891658782959, -0.07525446265935898, 0.05205412209033966, -0.06916385889053345, 0.05633553862571716, -0.02771853655576706, -0.006262711249291897, 0.07271832227706909, -0.03845679387450218, 0.06391928344964981, 0.06421270221471786], [0.09474580734968185, -0.023998284712433815, 0.01780133694410324, -0.01658138819038868, -0.01683581806719303, -0.019684460014104843, 0.00518988398835063, -0.04347271844744682, -0.035051457583904266, -0.06619903445243835, -0.05438961461186409, 0.07637808471918106, -0.02357405237853527, 0.01970105618238449, -0.029771827161312103, -0.0320187583565712, 0.024143122136592865, 0.032296933233737946, 0.014715563505887985, 0.05162729322910309, 0.0026339285541325808, -0.047645486891269684, -0.07187939435243607, 0.08091451227664948, 0.0777081549167633, 0.0720057338476181, -0.08709092438220978, -0.06927832216024399, 0.052283961325883865, 0.06329788267612457, 0.039460498839616776, -0.04061375558376312, -0.09719648957252502, -0.07796256244182587, -0.0022182720713317394, 0.06154587119817734, 0.012573082000017166, 0.02830667980015278, -0.0036203886847943068, 0.06089883670210838, 0.07225913554430008, -0.05881456285715103, 0.04937010258436203, 0.14468498528003693, 0.09023307263851166, -0.02719380147755146, 0.003964311443269253, 0.02484632097184658, 0.07140748202800751, 0.01050324272364378, 0.02218315377831459, 0.03665464371442795, 0.034749835729599, 0.06903918087482452, 0.0995725765824318, -0.017405815422534943, -0.03539421409368515, 0.007306226994842291, 0.0006867650081403553, 0.07395392656326294, -0.03611510992050171, -0.04891841858625412, -0.001500206533819437, 0.023067640140652657, 0.03319444879889488, -0.0034330671187490225, 0.08915954828262329, -0.006463958416134119, -0.08385144174098969, -0.02599087543785572, -0.005651342216879129, -0.08662094920873642, 0.09061253070831299, -0.00015146915393415838, -0.01620953157544136, -0.028956541791558266, 0.004486214369535446, -0.012403537519276142, -0.03427855297923088, 0.015192149206995964, -0.01723530702292919, 0.09015488624572754, 0.07863450795412064, 0.02729855850338936, 0.027947260066866875, 0.07060609012842178, -0.03327862545847893, 0.04581169784069061, 0.0553303062915802, -0.08297964930534363, -0.1133781298995018, 0.005756843835115433, -0.06578996032476425, 0.05984027683734894, 0.03673413395881653, 0.06257318705320358, 0.04195746034383774, 0.008256644010543823, 0.09022389352321625, 0.08430740237236023, 0.0396956130862236, 0.08311760425567627, -0.014983568340539932, 0.00909796729683876, 0.013966677710413933, -0.08445592224597931, -0.09690090268850327, -0.08106976002454758, 0.0777612030506134, 0.014303524978458881, -0.014768621884286404, 0.0068387221544981, -0.002867469796910882, -0.07263008505105972, -0.023299988359212875, 0.007200439926236868, 0.05620726943016052, -0.1361388862133026, -0.06759700179100037, -0.022492175921797752, 0.008685177192091942, -0.07694192230701447, 0.06940359622240067, -0.008333121426403522, 0.06856090575456619, 0.038507115095853806, -0.07297869771718979, 0.004762204363942146, 0.033831290900707245, 0.026947492733597755, 0.038987260311841965, 0.02967318892478943, -0.059534233063459396], [0.09267442673444748, -0.07011014968156815, 0.04328429698944092, 0.061653926968574524, 0.10243511945009232, -0.059387654066085815, 0.026571763679385185, 0.015250054188072681, 0.03079766035079956, 0.13222122192382812, -0.029901528730988503, 0.00016584666445851326, -0.020632771775126457, -0.04406801238656044, 0.1173575147986412, -0.07139865309000015, 0.05072015896439552, -0.051019635051488876, -0.05531669780611992, 0.05882130190730095, 0.019457390531897545, 0.029138701036572456, 0.015583298169076443, -0.03241201862692833, -0.013837509788572788, -0.07874789834022522, -0.025852538645267487, 0.002159233670681715, 0.06182467192411423, 0.09943115711212158, -0.07489042729139328, 0.08440148830413818, 0.032305460423231125, 0.018557146191596985, 0.033409811556339264, -0.10173856467008591, -0.08210920542478561, -0.04538584500551224, -0.08371356874704361, 0.08454105257987976, -0.05357209965586662, 0.018273428082466125, -0.02944304049015045, -0.05641278997063637, 0.007921598851680756, -0.034786470234394073, 0.05236747860908508, -0.027074569836258888, 0.016513541340827942, -0.08189891278743744, -0.03561374545097351, 0.009950866922736168, 0.05137356370687485, -0.029687700793147087, 0.10103128105401993, -0.08102498203516006, -0.06372565031051636, 0.01720896176993847, -0.1197977289557457, 0.08160250633955002, -0.10393328964710236, -0.005079802591353655, -0.07481244951486588, 0.06431253999471664, -0.056836314499378204, -0.010718921199440956, 0.050619591027498245, -0.0632934421300888, -0.08593674749135971, 0.006447401829063892, -0.06622427701950073, 0.05353438854217529, -0.0014688404044136405, 0.05520734190940857, 0.08564436435699463, -0.043705541640520096, -0.0801815465092659, 0.06854001432657242, 0.008557448163628578, -0.028884567320346832, 0.000573671015445143, -0.024243447929620743, 0.014892444014549255, 0.029333030804991722, -0.12240034341812134, -0.007021789439022541, 0.05846903845667839, -0.02568601444363594, -0.006523570511490107, -0.06360194087028503, -0.09663234651088715, 0.014436878263950348, -0.008167339488863945, -0.07903876900672913, 0.012512478046119213, -0.013817964121699333, 0.04894310608506203, -0.02991536073386669, 0.10956726223230362, 0.06981616467237473, -0.021354611963033676, -0.07081418484449387, -0.0005897968076169491, -0.059226956218481064, 0.016797786578536034, -0.06507276743650436, -0.012140448205173016, 0.07508695870637894, -0.03940384089946747, -0.006672355346381664, -0.08255114406347275, 0.07682416588068008, -0.00022431823890656233, 0.07444696128368378, -0.0020083219278603792, 0.07104898989200592, -0.0022690482437610626, 0.03691940754652023, 0.022470297291874886, -0.007094142492860556, -0.03161071985960007, 0.033430732786655426, -0.0353422574698925, 0.1252727210521698, 0.072304867208004, 0.03501146286725998, 0.03964761272072792, -0.027242200449109077, -0.028743140399456024, -0.00223021162673831, -0.003539921948686242, 0.040719203650951385, 0.038857147097587585], [0.03768792748451233, 0.05611371621489525, 0.07428961247205734, 0.03487425670027733, 0.024473635479807854, -0.007940810173749924, 0.10669061541557312, 0.031060051172971725, 0.10079339891672134, -0.026179630309343338, -0.07194548845291138, -0.0739985853433609, -0.02315985970199108, -0.06106160581111908, -0.0030924170278012753, -0.036650195717811584, -0.08196550607681274, 0.05871209502220154, 0.05858452618122101, -0.006822848226875067, 0.022990182042121887, -0.018810782581567764, -0.030104458332061768, -0.00012489431537687778, 0.09094078838825226, 0.00471610389649868, -0.07317644357681274, 0.07028394937515259, -0.003070455975830555, 0.02559322491288185, 0.01254188921302557, 0.004821466282010078, -0.046410590410232544, 0.05600598827004433, -0.018677009269595146, 0.03625112026929855, -0.07423526793718338, -0.07818323373794556, 0.01518414355814457, 0.013927409425377846, 0.08112963289022446, 0.012421401217579842, 0.050513338297605515, 0.02621956169605255, -0.04077725484967232, 0.02883601002395153, 0.040137965232133865, 0.03409460186958313, -0.06925051659345627, -0.07676055282354355, -0.00604006415233016, -0.044237371534109116, 0.031207473948597908, -0.04704653471708298, -0.012162096798419952, -0.04611784219741821, 0.015044951811432838, 0.07639475911855698, -0.007622478064149618, -0.03451641649007797, 0.024370087310671806, -0.04606488719582558, 0.06644602119922638, -0.059853751212358475, -0.038121119141578674, -0.012223967351019382, -0.04262387007474899, 0.02117622084915638, 0.0016723891021683812, -0.02021172270178795, -0.021934928372502327, -0.08851476013660431, 0.004620141349732876, -0.03130487725138664, -0.08637262880802155, -0.07393611967563629, 0.04152555763721466, -0.0590219683945179, -0.049617402255535126, -0.014651483856141567, -0.04283468797802925, -0.027274874970316887, -0.07236485928297043, -0.012383153662085533, -0.08099182695150375, 0.08547686785459518, 0.02428310550749302, 0.008798773400485516, 0.05228834226727486, -0.008154431357979774, -0.04572770744562149, 0.06741888076066971, 0.006430330686271191, 0.0706324428319931, 0.042772628366947174, -0.08757847547531128, 0.006380646023899317, -0.07981152087450027, -0.010104707442224026, -0.08037298917770386, 0.06243008002638817, -0.06921534985303879, 0.03138625994324684, -0.03140523284673691, 0.0060558314435184, 0.05012590438127518, 0.04236632585525513, 0.006304563954472542, -0.04284338280558586, -0.06947042047977448, 0.04456780478358269, 0.07594239711761475, -0.06715352088212967, 0.007561590056866407, -0.0655922070145607, -0.08014154434204102, 0.06506496667861938, -0.0379800871014595, -0.055051714181900024, -0.020613277330994606, -0.03520144894719124, -0.0823526531457901, 0.08658421784639359, 0.012638870626688004, 0.03195422887802124, 0.061961814761161804, -0.012935582548379898, 0.011994664557278156, -0.06090386211872101, -0.06031687930226326, 0.017640789970755577, 0.02718503773212433, 0.03623111546039581], [-0.0007296018884517252, -0.040751636028289795, 0.014829961583018303, 0.004236199427396059, -0.013365854509174824, -6.299219239735976e-05, -0.1437312513589859, -0.08398706465959549, 0.03989914804697037, 0.07203298062086105, -0.07637736201286316, -0.01569219119846821, 0.011579225771129131, -0.015172240324318409, 0.012141503393650055, 0.006690445356070995, 0.038440003991127014, -0.05285225808620453, 0.07778411358594894, 0.09286682307720184, 0.07642322778701782, -0.045997392386198044, -0.02582329697906971, -0.10386501252651215, -0.05186033248901367, -0.06674202531576157, 0.047910720109939575, -0.025844475254416466, 0.11834558099508286, 0.12051746994256973, 0.023874156177043915, 0.010134264826774597, 0.06265299767255783, -0.08200084418058395, 0.026180148124694824, -0.04122564196586609, 0.08448032289743423, -0.03397766128182411, 0.0663023367524147, -0.07142671942710876, 0.03799763694405556, 0.016343263909220695, 0.02419336326420307, 0.00476402323693037, 0.06962239742279053, 0.011296984739601612, 0.0023631739895790815, -0.06024915724992752, 0.05492333695292473, 0.07047165185213089, -0.0685972049832344, 0.049929678440093994, 0.005974512547254562, 0.0037942046765238047, 0.027156656607985497, 0.052334263920784, 0.1028832495212555, 0.021018587052822113, 0.022595416754484177, 0.0814400389790535, 0.011366508901119232, 0.06305882334709167, -0.047490477561950684, -0.049481455236673355, -0.055482279509305954, -0.049692146480083466, 0.03696834295988083, 0.048991087824106216, -0.05016520619392395, -0.09206117689609528, -0.07135902345180511, 0.03785300627350807, 0.04601701721549034, -0.0709051787853241, 0.019294684752821922, -0.010989060625433922, 0.050978127866983414, 0.06843025982379913, 0.04532158374786377, -0.06402813643217087, 0.056921109557151794, 0.06382949650287628, -0.03152986615896225, 0.04688012972474098, 0.09291709214448929, -0.05377553775906563, -0.033325083553791046, -0.034847013652324677, -0.0068393549881875515, -0.06519922614097595, 0.06592453271150589, -0.034211572259664536, 0.06329645216464996, -0.04442865401506424, 0.02612881176173687, -0.021765628829598427, 0.0516078881919384, 0.011285610496997833, 0.07655249536037445, -0.056346166878938675, -0.017871228978037834, -0.10599900037050247, -0.024269530549645424, 0.051635660231113434, -0.07185432314872742, 0.016364891082048416, -0.008747782558202744, 0.04733704775571823, 0.037445906549692154, 0.06953128427267075, -0.07745951414108276, -0.056213151663541794, 0.03685849532485008, 0.03146683797240257, -0.036918237805366516, -0.04901475831866264, 0.07090551406145096, 0.01943182572722435, 0.018960706889629364, -0.021528132259845734, -0.006982593331485987, -0.01112278550863266, 0.06281189620494843, -0.009466591291129589, -0.0036054004449397326, 0.031174324452877045, -0.08056629449129105, 0.03736565262079239, 0.03017253242433071, -0.04074809327721596, -0.04893294721841812, 0.03642551973462105, 0.07003368437290192], [0.021553663536906242, -0.03433823958039284, 0.026945818215608597, -0.08218489587306976, 0.0016437070444226265, 0.026676956564188004, 0.05825061723589897, 0.07054366916418076, -0.11019226908683777, 0.013533844612538815, -0.07650692015886307, -0.07978398352861404, -0.08639984577894211, -0.05961038917303085, 0.08662475645542145, -0.0341128446161747, 0.032897334545850754, -0.06115547940135002, 0.06588935106992722, 0.023156389594078064, 0.05545205622911453, 0.03766582906246185, -0.0666453093290329, 0.07514665275812149, 0.12578587234020233, 0.07302550226449966, -0.05955243110656738, -0.06147126108407974, -0.056464508175849915, -0.015852738171815872, 0.016026975587010384, -0.0036158354487270117, -0.08255357295274734, -0.03123759664595127, 0.012358132749795914, -0.09106677025556564, -0.04526874050498009, 0.025061311200261116, 0.005272591020911932, 0.1295098513364792, 0.006811467465013266, 0.059170953929424286, -0.048388753086328506, -0.0176649522036314, -0.016491595655679703, 0.06261054426431656, -0.09037087857723236, 0.035930633544921875, -0.001169090624898672, 0.054441697895526886, -0.041869550943374634, -0.017092840746045113, 0.026973756030201912, -0.008013582788407803, 0.0971113070845604, 0.07686001807451248, -0.04640001431107521, 0.025618132203817368, 0.06275321543216705, 0.05501997843384743, 0.10409367829561234, -0.0006250127335079014, -0.019209783524274826, 0.04797739535570145, 0.0061220210045576096, 0.0030042307917028666, -0.04071727395057678, -0.022293798625469208, 0.015580113977193832, 0.002671625232324004, -0.02461700513958931, -0.017046041786670685, -0.05059589445590973, -0.08088413625955582, -0.01281390804797411, -0.03503730148077011, 0.0204023327678442, 0.05331515893340111, 0.010370568372309208, -0.05441054701805115, -0.04406477510929108, -0.005593330133706331, 0.05232749879360199, -0.008210993371903896, -0.08897797018289566, -0.019164005294442177, -0.07619839906692505, 0.08317302912473679, -0.0466255322098732, 0.059248186647892, 0.04134618118405342, 0.013268520124256611, -0.04476327821612358, -0.04352822154760361, 0.04243152588605881, -0.0011787692783400416, 0.007418258115649223, 0.001705543021671474, -0.031972553580999374, -0.0759274885058403, 0.00944744423031807, 0.013192912563681602, 0.10193459689617157, 0.019821740686893463, -0.019474193453788757, -0.07856112718582153, 0.026472102850675583, -0.022275662049651146, -0.013659271411597729, 0.0426822155714035, 0.10299795866012573, -0.03961164876818657, -0.0628894492983818, 0.061342768371105194, -0.03923296183347702, -0.07557201385498047, -0.018320145085453987, 0.07898831367492676, -0.037672966718673706, 0.06435006856918335, -0.012426672503352165, -3.213741001673043e-05, 0.09199672192335129, -0.019735829904675484, -0.07070101797580719, -0.05188342556357384, 0.045128293335437775, 0.06107050180435181, -0.0651690736413002, -0.021560443565249443, -0.008543833158910275, 0.06828414648771286, -0.052101943641901016], [0.001481754588894546, 0.0009247737471014261, -0.03345330059528351, -0.08588548004627228, -0.06159749627113342, -0.029610496014356613, 0.00347476196475327, -0.05135491490364075, 0.07828738540410995, 0.02193586714565754, 0.040666040033102036, -0.04331550374627113, 0.1103799045085907, 0.026557711884379387, 0.003584657097235322, 0.02168196067214012, -0.00290309707634151, -0.013117894530296326, 0.0007589999586343765, 0.03148758411407471, -0.12300042062997818, -0.04745233803987503, 0.03454449400305748, 0.004635361488908529, 0.0783756896853447, -0.0016657683299854398, -0.05364065244793892, 0.06499522924423218, 0.01246406976133585, 0.050121452659368515, 0.0724145695567131, -0.037126325070858, 0.03404607996344566, 0.0596989206969738, 0.09269016981124878, 0.03985782712697983, -0.004845364019274712, -0.03999532014131546, -0.06255055963993073, -0.036790985614061356, 0.07435342669487, 0.0898129940032959, -0.06006506457924843, -0.07378331571817398, -0.040031854063272476, 0.0036535686813294888, -0.05416879057884216, 0.04843945428729057, -0.01245542149990797, 0.0278617013245821, -0.03281004726886749, -0.0778503343462944, 0.059453073889017105, -0.005186658352613449, -0.04943222180008888, 0.008529623039066792, -0.08001594990491867, 0.07882018387317657, 0.07894797623157501, -0.03581760823726654, -0.03504568338394165, -0.042717259377241135, 0.057864002883434296, -0.08078493922948837, 0.07503321021795273, -0.025047682225704193, 0.05356555059552193, 0.01484073419123888, -0.03554565832018852, 0.016241854056715965, -0.05558374524116516, -0.05887493118643761, -0.032630063593387604, -0.002349194837734103, 0.00018920053844340146, -0.06509055942296982, -0.05035531520843506, 0.02029028907418251, -0.07326415926218033, -0.07387372851371765, -0.0594056099653244, 0.053462982177734375, 0.013170934282243252, 0.04645850509405136, 0.007976884953677654, 0.03012080118060112, -0.07142490893602371, 0.02213175967335701, 0.09199457615613937, -0.0619766041636467, -0.056165460497140884, 0.06048135086894035, -0.06033484265208244, 0.05608421936631203, -0.03470800444483757, -0.08130289614200592, -0.02334390953183174, 0.046940699219703674, 0.010254304856061935, -0.00736447935923934, 0.01792645826935768, 0.020820237696170807, -0.0006071343086659908, 0.04627678915858269, -0.06119168549776077, -0.09371528774499893, 0.008948041126132011, -0.01812632381916046, 0.01435927115380764, -6.049118746886961e-05, -0.06865149736404419, 0.007862694561481476, -0.07689494639635086, 0.0375603623688221, 0.06427827477455139, 0.03501914069056511, -0.04154159128665924, -0.0055503565818071365, 0.0351007804274559, -0.003468767274171114, 0.044914036989212036, 0.011766751296818256, 0.04025597497820854, -0.06804408878087997, -0.048466868698596954, -0.05594337359070778, -0.08344268053770065, 0.0888756588101387, -0.02578439563512802, -0.014039061963558197, 0.027502447366714478, 0.0038707328494638205, 0.07278721779584885], [0.08776737004518509, -0.01617996208369732, 0.10170242935419083, 0.021607263013720512, -0.0710085853934288, 0.08669834583997726, 0.07227456569671631, -0.009855362586677074, -0.09650348871946335, -0.08217984437942505, 0.07676099240779877, 0.07457857578992844, -0.10839725285768509, 0.015102453529834747, -0.01224438939243555, -0.05204566568136215, 0.00367075321264565, 0.07630093395709991, 0.01425231248140335, -0.05180753767490387, -0.10434838384389877, -0.08884678035974503, -0.06755348294973373, -0.04116123914718628, -0.012307301163673401, 0.07223556190729141, 0.034871481359004974, -0.050992995500564575, -0.1211775615811348, -0.07719927281141281, -0.0207685399800539, -0.052475761622190475, -0.009330556727945805, 0.05681849271059036, -0.021305549889802933, 0.06472505629062653, 0.02888624556362629, 0.08436810225248337, -0.07904866337776184, -0.10749644786119461, -0.08426988869905472, 0.04656876251101494, 0.019664905965328217, -0.0005438399384729564, -0.09499234706163406, -0.032506294548511505, -0.06300462037324905, -0.0009560890030115843, -0.00041015437454916537, -0.07442133873701096, -0.02537844330072403, 0.012000270187854767, -0.021171003580093384, -0.04140951856970787, 0.01059846580028534, 0.047429315745830536, 0.010623582638800144, 0.08246588706970215, 0.04799648001790047, 0.05930151045322418, -0.05389222502708435, -0.00046054169069975615, 0.08208616077899933, -0.07983601093292236, -0.048544544726610184, 0.10241317749023438, 0.029531802982091904, -0.044875286519527435, 0.12108076363801956, 0.10556070506572723, -0.07453906536102295, -0.004730600863695145, 0.07662057876586914, -0.1066405177116394, 0.09083986282348633, 0.021244360134005547, 0.01934223249554634, -0.007587280124425888, 0.10778111964464188, -0.09165175259113312, 0.032098691910505295, -0.08642399311065674, -0.05499512702226639, 0.07825884222984314, -0.053807370364665985, 0.05919194594025612, 0.06065495312213898, 0.011112147010862827, -0.008508775383234024, 0.02769317477941513, -0.008184868842363358, -0.03251460939645767, -0.031186969950795174, 0.06987782567739487, 0.014209349639713764, 0.03504646196961403, 0.07552196085453033, 0.053465042263269424, -0.01708180271089077, -0.05371268093585968, 0.035053275525569916, 0.02186349779367447, -0.07450692355632782, -0.0966712236404419, 0.06158643588423729, 0.10021541267633438, 0.04253054037690163, -0.05945960432291031, 0.014687413349747658, 0.09050906449556351, -0.09674209356307983, 0.00047946342965587974, 0.02092093788087368, -0.053259193897247314, -0.05041443929076195, -0.031099092215299606, 0.06438647955656052, 0.0034892393741756678, -0.05434771627187729, -0.015454997308552265, -0.023797303438186646, -0.02694942243397236, -0.0010641827248036861, 0.08735541254281998, 0.0681154876947403, 0.06618538498878479, -0.025162817910313606, 0.08370517194271088, 0.0474519245326519, -0.030120227485895157, -0.05575431510806084, -0.037190936505794525, 0.02830733358860016], [0.03476259857416153, -0.05472852289676666, 0.021245881915092468, -0.018888628110289574, -0.024731671437621117, -0.0026731265243142843, -0.07811093330383301, 0.015366612933576107, -0.05846962705254555, -0.07500845938920975, 0.023845355957746506, 0.05387388542294502, -0.10804290324449539, -0.04270924627780914, 0.032115671783685684, 0.030650265514850616, 0.10563069581985474, 0.007854298688471317, 0.08464878797531128, -0.07260959595441818, -0.058204490691423416, 0.07007557153701782, 0.007363282609730959, 0.016812926158308983, -0.06741727143526077, 0.0805821344256401, -0.09750285744667053, -0.08259560167789459, -0.0677027702331543, 0.03801960125565529, 0.04953182488679886, -0.00014109302719589323, 0.03575866296887398, 0.025823084637522697, 0.03735014796257019, -0.056288838386535645, -0.05823154374957085, -0.05535431206226349, -0.17320701479911804, 0.013551756739616394, -0.07614747434854507, 0.017304154112935066, -0.08801508694887161, -0.10141104459762573, 0.015148830600082874, -0.05558762699365616, -0.08380129933357239, 0.03179214522242546, -0.020343417301774025, 0.0680396780371666, 0.0033590567763894796, -0.00456705316901207, 0.06441979110240936, 0.07867126911878586, -0.08718676120042801, 0.034705422818660736, -0.041865792125463486, -0.017668411135673523, -0.03563745319843292, -0.05782810598611832, 0.07966472208499908, 0.007145363371819258, 0.008684016764163971, -0.033517755568027496, -0.08878270536661148, 0.007680987473577261, -0.03262827917933464, 0.03796115145087242, -0.030641866847872734, -0.04773525521159172, 0.06052404269576073, 0.013361245393753052, -0.04750056564807892, -0.10554052144289017, 0.07467929273843765, -0.002687838627025485, 0.00700364401564002, -0.07775326818227768, 0.04369251802563667, -0.07595363259315491, -0.06590189784765244, 0.095150887966156, 0.0650671198964119, -0.07748181372880936, -0.03139037638902664, -0.007069731596857309, 0.059838589280843735, -0.0935722142457962, 0.03500475361943245, 0.04906264692544937, 0.08685828745365143, -0.05248788371682167, 0.10875890403985977, -0.03389551490545273, 0.03135992959141731, 0.07667519897222519, -0.048986222594976425, -0.0678686797618866, 0.04829922690987587, -0.027019890025258064, 0.02839396335184574, -0.03453816846013069, -0.0530007928609848, -0.007916850969195366, -0.0458311103284359, 0.053063370287418365, -0.06768538802862167, -0.06671175360679626, -0.06974395364522934, 0.0007647887105122209, 0.008238421753048897, 0.04841325804591179, 0.04560446739196777, 0.026062224060297012, 0.04820587858557701, -0.07921000570058823, 0.027117829769849777, -0.08975247293710709, -0.030982665717601776, -0.022762417793273926, 0.06808244436979294, -0.014705470763146877, -0.11349323391914368, -0.03538191318511963, 0.08796511590480804, -0.02964870072901249, -0.07044140994548798, 0.08264247328042984, -0.0033338041976094246, 0.009662202559411526, 0.08090322464704514, -0.042976707220077515, 0.005180110223591328], [-0.0246430616825819, 0.02724953554570675, -0.10984432697296143, -0.050061389803886414, 0.0635531023144722, -0.06623109430074692, -0.04900997877120972, 0.016666429117321968, 0.011948871426284313, -0.09633758664131165, 0.032363858073949814, 0.03323059901595116, 0.0012004433665424585, 0.05856362730264664, 0.05505499988794327, -0.07628217339515686, 0.02291225641965866, 0.08386049419641495, -0.011693424545228481, 0.02137223444879055, -0.03610194846987724, 0.05307907238602638, -0.06662136316299438, -0.009220634587109089, 0.025838391855359077, -0.07487641274929047, 0.02641664817929268, 0.021899662911891937, -0.09219247847795486, -0.019003689289093018, 0.030741773545742035, -0.03048117645084858, 0.05171996355056763, -0.00857564713805914, -0.018868694081902504, -0.023700319230556488, -0.05301930382847786, 0.05969759076833725, -0.07082273811101913, -0.013204429298639297, -0.00045673991553485394, -0.08439401537179947, 0.017837394028902054, -0.05611381307244301, -0.004296606872230768, -0.03620235249400139, 0.04716994985938072, 0.05480026453733444, 0.03491881489753723, 0.061740677803754807, -0.08166275173425674, 0.0755843073129654, 0.09077990800142288, -0.019917801022529602, -0.0858905166387558, -0.027124714106321335, -0.05834722891449928, 0.041819337755441666, 0.02830103226006031, -0.09366284310817719, -0.02755133993923664, -0.05761265009641647, 0.043885260820388794, -0.055691950023174286, 0.06908900290727615, -0.07600168883800507, 0.05305643752217293, 0.03688301518559456, 0.007289604749530554, 0.019948620349168777, -0.02108863741159439, 0.07484707236289978, 0.030594879761338234, 0.014335050247609615, 0.021885685622692108, 0.03241804242134094, -0.06503400951623917, -0.01095207966864109, 0.018460245802998543, -0.09207255393266678, 0.06136005371809006, -0.08704064786434174, -0.024657858535647392, 0.010260284878313541, 0.026796694844961166, -0.011040575802326202, 0.0011888023000210524, -0.01488763839006424, -0.04397377744317055, 0.0007514783064834774, -0.0604197196662426, -0.06986972689628601, -0.019044842571020126, 0.06264081597328186, 0.0728113129734993, -0.007419304922223091, 0.07627428323030472, 0.020551135763525963, 0.04792391136288643, 0.06892777979373932, 0.07514968514442444, 0.04916144162416458, -0.031558558344841, 0.07057160139083862, 0.007054335903376341, 0.05446455627679825, -0.03926251456141472, 0.009356989525258541, 0.05726420134305954, 0.07446873933076859, 0.014901011250913143, -0.0836641788482666, -0.028906552121043205, -0.025631891563534737, 0.05750761926174164, 0.026140179485082626, -0.08509263396263123, 0.06400659680366516, -0.05299435928463936, 0.004295258782804012, -0.07339877635240555, 0.019846804440021515, -0.00692201592028141, -0.04725217446684837, -0.022587524726986885, -0.0766221359372139, -0.0396851971745491, 0.049761537462472916, 0.07717899233102798, 0.034921880811452866, -0.09392347931861877, -0.04357659071683884, 0.02063409984111786], [0.01702107861638069, -0.09246566891670227, -0.02477213926613331, -0.0819547027349472, -0.030186684802174568, -0.042135089635849, 0.0757807269692421, -0.023567479103803635, 0.08115805685520172, 0.1392945647239685, -0.05230807885527611, 0.02570250816643238, 0.11861887574195862, -0.027385689318180084, 0.006946180481463671, 0.023050816729664803, 0.060424286872148514, 0.031268469989299774, -0.03129242733120918, -0.029294826090335846, 0.07206398248672485, 0.11313420534133911, 0.014405825175344944, 0.014453740790486336, 0.11317341774702072, -0.060876909643411636, 0.043946877121925354, -0.0557313971221447, 0.002673101844266057, 0.1011342778801918, -0.007506599184125662, 0.04743640869855881, -0.06752130389213562, -0.07589411735534668, -0.08569613844156265, -0.033292148262262344, -0.03708737716078758, 0.00550929456949234, -0.07505279034376144, 0.06503268331289291, 0.07820011675357819, 0.057432908564805984, 0.10314568132162094, 0.0820535197854042, 0.08277611434459686, 0.02157089114189148, 0.04979701340198517, -0.0603235587477684, -0.08635186403989792, -0.0949094370007515, -0.007648852653801441, -0.053699079900979996, -0.010923145338892937, -0.1194496750831604, -0.017472604289650917, 0.06346798688173294, -0.0724012553691864, 0.017708795145154, -0.014302878640592098, 0.0125064542517066, -0.041890136897563934, 0.037694256752729416, -0.03795270249247551, 0.010129164904356003, 0.03205298259854317, -0.018502337858080864, 0.0468331053853035, -0.04388352110981941, 0.04821980744600296, -0.11241733282804489, -0.028110312297940254, 0.02610989846289158, -0.02984846755862236, -0.07161249220371246, -0.004208976868540049, -0.07079076021909714, -0.004979604855179787, 0.07987777143716812, 0.040971141308546066, -0.020381025969982147, -0.048908621072769165, 0.05574572831392288, -0.01833411119878292, 0.03954559192061424, 0.01060426514595747, 0.08404979854822159, -0.07327499985694885, 0.03236997127532959, -0.1680082082748413, 0.03184983506798744, -0.02010677196085453, -0.08681990206241608, 0.033633582293987274, -0.06183251366019249, -0.04270674288272858, -0.007376790978014469, 0.09285943955183029, 0.047194261103868484, 0.011206256225705147, -0.02582586370408535, 0.06364239752292633, -0.06728824973106384, -0.09442050009965897, 0.052369363605976105, -0.08533968031406403, -0.06026462838053703, 0.007982938550412655, 0.04467277601361275, 0.037881456315517426, -0.05051722005009651, 0.014031658880412579, 0.04377514868974686, 0.08957724273204803, -0.0157622117549181, -0.033884547650814056, -0.08178826421499252, -0.008818624541163445, 0.07923911511898041, -0.047144487500190735, 0.05160067230463028, 0.03764182701706886, 0.07396162301301956, 0.013550763949751854, 0.05985676497220993, 0.09154096245765686, 0.006820584647357464, 0.04546497017145157, -0.038387272506952286, 0.09723088145256042, -0.04327664151787758, 0.07238397002220154, 0.017693281173706055, 0.07683829218149185], [-0.09034071117639542, -0.05669037252664566, 0.010095165111124516, 0.021879645064473152, -0.06549077481031418, -0.0028606767300516367, 0.05321058630943298, 0.013808857649564743, 0.05973602086305618, -0.07290004193782806, -0.02686263434588909, -0.09842822700738907, -0.09933309257030487, 0.0310248751193285, -0.08382175117731094, -0.043711818754673004, -0.05588432401418686, -0.07794950157403946, 0.04619527608156204, -0.08078061044216156, -0.04246725142002106, 0.0622314028441906, 0.06107437238097191, -0.05140687897801399, -0.11857026815414429, 0.04018811136484146, -0.038200318813323975, -0.08417035639286041, -0.015047693625092506, -0.12077735364437103, -0.04854416474699974, 0.027939634397625923, 0.06314537674188614, 0.04185083135962486, -0.009725709445774555, -0.04723131284117699, -0.05013895779848099, 0.011324836872518063, 0.009655223228037357, -0.013131179846823215, 0.058125659823417664, -0.07328177988529205, -0.04007621854543686, 0.004428604617714882, 0.03303219750523567, 0.02662094309926033, 0.06834246218204498, 0.022783363237977028, 0.0006642993539571762, -0.07907836884260178, -0.04402628168463707, 0.028167398646473885, -0.07291971892118454, 0.052174296230077744, -0.05394313856959343, -0.04548068344593048, 0.039684854447841644, 0.0016937453765422106, -0.0940980613231659, 0.008079920895397663, -0.020243484526872635, 0.015260065905749798, -0.0910985991358757, 0.06358257681131363, -0.01788012869656086, -0.044940799474716187, -0.07759539037942886, 0.06970396637916565, 0.012413932941854, -0.04709365963935852, -0.017939606681466103, -0.014632993377745152, -0.009346655569970608, -0.028040191158652306, -0.04459865018725395, -0.06387989968061447, 0.017626667395234108, 0.09408168494701385, 0.02596006542444229, -0.009505132213234901, 0.07123325020074844, 0.04306516423821449, -0.0034484397619962692, 0.02882298454642296, -0.001444552093744278, 0.03308481350541115, 0.028596127405762672, 0.03579303249716759, 0.021923266351222992, -0.03763006627559662, 0.10038702934980392, 0.086745984852314, -0.02081458829343319, -0.06742959469556808, 0.0795326977968216, -0.03316527232527733, -0.06666945666074753, -0.05007295683026314, 0.01062228437513113, 0.020165305584669113, 0.012960286810994148, 0.052276697009801865, 0.03376593068242073, -0.052871257066726685, -0.022501109167933464, -0.007176013197749853, 0.052242375910282135, 0.023122185841202736, 0.012369409203529358, -0.03373373672366142, -0.01868676207959652, 0.046972598880529404, 0.07475080341100693, 0.01739165373146534, 0.016216963529586792, -0.027872225269675255, -0.0006189002888277173, -0.01085441280156374, -0.08420243859291077, -0.06270243972539902, 0.07109690457582474, 0.023285258561372757, -0.036195430904626846, -0.058762237429618835, -0.06134532764554024, -0.05934450775384903, 0.03418055176734924, -0.034716054797172546, 0.06837751716375351, -0.008848763071000576, 0.07159864902496338, 0.06825418770313263, -0.026702245697379112], [-0.04499351978302002, 0.03882884234189987, -0.08226229250431061, 0.0031144742388278246, 0.01908908411860466, 0.08666349947452545, 0.040788374841213226, 0.07999653369188309, -0.040704235434532166, 0.1121688038110733, -0.0525948740541935, -0.0756317600607872, -0.01096422877162695, 0.03653918579220772, 0.0726751759648323, -0.01065077818930149, -0.020724331960082054, 0.0649392232298851, -0.006207815837115049, -0.00022380234440788627, -0.010530116967856884, -0.0158077459782362, 0.038578033447265625, 0.10138825327157974, -0.03405117616057396, -0.004622308071702719, 0.07499276101589203, 0.006159394979476929, 0.1006944477558136, 0.0437268391251564, 0.008770652115345001, -0.02933739498257637, -0.017135044559836388, 0.013632884249091148, 0.0732593983411789, 0.052264537662267685, 0.024772409349679947, -0.04706650599837303, 0.08975441753864288, 0.08488123118877411, -0.007017499767243862, 0.02225109376013279, 0.09988600760698318, 0.05867140740156174, 0.02164759486913681, 0.07629737257957458, 0.0871458351612091, 0.04157090187072754, 0.015243410132825375, 0.015840938314795494, 0.02595001831650734, -0.04669984430074692, -0.058044858276844025, 0.014566956087946892, 0.06471423804759979, -0.07579336315393448, -0.07783612608909607, -0.055234137922525406, 0.030830448493361473, 0.08137989789247513, -0.018679488450288773, -0.04995580390095711, 0.08178960531949997, -0.031148241832852364, 0.04312339052557945, 0.02845476195216179, 0.01017846167087555, 0.02546289749443531, -0.025702089071273804, 0.06632044166326523, 0.013178599067032337, 0.06663092225790024, 0.030936485156416893, -0.08425797522068024, -0.002586394315585494, -0.060344673693180084, -0.08143987506628036, 0.06278260052204132, 0.0023404955863952637, 0.019770963117480278, -0.06794583797454834, -0.05113321915268898, 0.015369373373687267, -0.0255083329975605, -0.07101450860500336, -0.0863390564918518, -0.0078109316527843475, 0.018042530864477158, -0.07919032126665115, -0.07391414791345596, 0.1422131508588791, 0.06991059333086014, 0.0732557475566864, -0.010424245148897171, 0.09453234821557999, -0.009886149317026138, 0.017955074086785316, 0.003556357929483056, -0.024785393849015236, -0.016640417277812958, -0.08311372250318527, 0.03343779593706131, 0.003966629970818758, -0.020534900948405266, -0.0638725683093071, -0.02923310175538063, -0.009585591033101082, -0.02911408618092537, -0.05009930208325386, 0.01649024896323681, -0.0499502569437027, -0.048193350434303284, 0.02955690026283264, 0.04454391822218895, 0.06004717946052551, 0.06148603558540344, -0.07550893723964691, -0.002497707027941942, -0.03170032054185867, -0.011588637717068195, -0.01496873889118433, -0.04355541244149208, -0.044249098747968674, -0.004495078697800636, 0.06992839276790619, -0.05287552624940872, 0.08458595722913742, 0.07043788582086563, -0.03974031284451485, -0.05628890171647072, 0.07559314370155334, 0.004629057832062244, 0.07050436735153198], [0.05307614430785179, 0.016416730359196663, -0.033030055463314056, 0.028227876871824265, 0.008932759054005146, -0.042377445846796036, 0.07535921782255173, -0.047490444034338, -0.0426047146320343, 0.09996382892131805, 0.07191688567399979, 0.06427337229251862, -0.05948273837566376, -0.028133338317275047, 0.07140500098466873, -0.05606606975197792, 0.01884148269891739, -0.052521925419569016, 0.060544468462467194, 0.0048465123400092125, -0.03371020779013634, 0.06268752366304398, 0.050487227737903595, 0.043565571308135986, -0.026245828717947006, 0.03926264867186546, -0.026375694200396538, -0.06255701184272766, -0.008077836595475674, 0.07194805145263672, -0.007657932583242655, -0.06265939772129059, -0.004838075954467058, 0.0802810788154602, -0.04176601767539978, 0.013041751459240913, -0.0640023797750473, 0.021172694861888885, -0.0052044386975467205, 0.04978163540363312, -0.03346069157123566, 0.046802885830402374, -0.10187520831823349, 0.010214665904641151, 0.047860126942396164, 0.05707240477204323, 0.025130830705165863, 0.057876236736774445, -0.008839225396513939, -0.08590760082006454, -0.05995982140302658, 0.01757870987057686, -0.042785268276929855, -0.08612162619829178, -0.13808608055114746, -0.08261995017528534, -0.01733485423028469, -0.01903941109776497, 0.0033350628800690174, -0.1183091402053833, -0.05260372534394264, 0.06565377116203308, 0.05543465167284012, 0.07203154265880585, -0.05788281559944153, -0.02763117291033268, 0.060783371329307556, 0.055971354246139526, -0.06867798417806625, 0.0131056047976017, 0.08150685578584671, -0.03501112759113312, 0.05047699809074402, -0.048187464475631714, 0.034485939890146255, -0.05583038926124573, -0.0470120832324028, 0.0797753781080246, 0.005163318943232298, 0.0881672352552414, 0.08647751063108444, -0.030981598421931267, -0.023610113188624382, 0.04178532212972641, -0.005668445024639368, -0.043889641761779785, -0.05811118707060814, 0.0018927742494270205, -0.02279623970389366, 0.011822924949228764, -0.011403163895010948, 0.03633113205432892, -0.07804948836565018, 0.06952501088380814, 0.040073785930871964, 0.009062334895133972, -0.07585632801055908, 0.02349349483847618, -0.0862606018781662, 0.07426784187555313, -0.03279172629117966, 0.0704733282327652, -0.0035723766777664423, -0.13419736921787262, 0.04285944625735283, 0.047948334366083145, 0.053821004927158356, 0.08729023486375809, -0.0046113464049994946, -0.06448282301425934, 0.07430599629878998, -0.08004796504974365, -0.07727646082639694, -0.06260864436626434, 0.020824145525693893, 0.016245070844888687, 0.01279509998857975, -0.05225548893213272, -0.12464958429336548, -0.013838951475918293, 0.006562554277479649, -0.04661641642451286, 0.05578411743044853, 0.04344052076339722, -0.0746915265917778, -0.057978495955467224, -0.07590876519680023, -0.043425437062978745, 0.05837433040142059, -0.1085052639245987, 0.05814196169376373, -0.05511478707194328, 0.0480031818151474], [0.12120313197374344, -0.019345827400684357, 0.11937455832958221, 0.047586068511009216, 0.010042194277048111, 0.053962841629981995, 0.09454184025526047, -0.04134427383542061, 0.051405154168605804, -0.02761146053671837, -0.009395377710461617, -0.07681217789649963, 0.06414820998907089, 0.033857252448797226, 0.06130429729819298, -0.044658150523900986, 0.08846675604581833, 0.0465506874024868, 0.07404198497533798, 0.027445988729596138, -0.012150023132562637, 0.05463619530200958, 0.04489459469914436, -0.0258017648011446, -0.05619099736213684, 0.03461429104208946, -0.036371685564517975, 0.09369149804115295, -0.06656553596258163, 0.08139196038246155, -0.02385132573544979, -0.06524331122636795, 0.0017997189424932003, -0.036630816757678986, -0.06690456718206406, 0.05528677627444267, 0.014663351699709892, -0.02510061115026474, -0.046431347727775574, 0.08583726733922958, -0.033749911934137344, 0.04360178858041763, 0.004239674191921949, 0.0020198903512209654, -0.054273102432489395, 0.011355184949934483, 0.027027681469917297, -0.06979422271251678, 0.044806040823459625, -0.07874812930822372, -0.026849567890167236, -0.06125759705901146, 0.0652124211192131, 0.02097824029624462, -0.04338086023926735, -0.04434909671545029, -0.08821998536586761, -0.061461191624403, -0.13331089913845062, -0.012022831477224827, -0.03170919045805931, 0.07378450781106949, 0.08866764605045319, -0.0262126661837101, -0.0749737024307251, 0.015100653283298016, -0.008580615743994713, 0.015359042212367058, 0.02495475672185421, 0.05360923707485199, -0.08183000236749649, -0.007884684950113297, -0.03438396379351616, 0.010047060437500477, 0.0013659195974469185, 0.0270792655646801, -0.07860919833183289, 0.04388928413391113, 0.031875625252723694, -0.011807122267782688, -0.01092439517378807, -0.00021657260367646813, -0.08651980757713318, -0.005519001744687557, 0.027314791455864906, -0.030300237238407135, -0.023070883005857468, -0.13442152738571167, 0.044151224195957184, 0.0018797202501446009, 0.09869803488254547, -0.002288943389430642, 0.004525287076830864, 0.08820027858018875, 0.1092134565114975, 0.038116488605737686, 0.03035198710858822, -0.039884839206933975, -0.10451259464025497, -0.09117485582828522, -0.04767221957445145, -0.04637404531240463, 0.0356329046189785, -0.06108789145946503, -0.056535303592681885, 0.06015993282198906, -0.025098927319049835, -0.09726551920175552, -0.045666489750146866, -0.05801728367805481, 0.017912482842803, -0.07126595079898834, 0.09919171035289764, 0.03603408485651016, 0.06789654493331909, -0.036323484033346176, 0.010729116387665272, 0.022000955417752266, -0.07050293684005737, 0.12186527997255325, -0.01750192418694496, -0.01069920975714922, -0.06068600341677666, 0.005064116325229406, 0.05930665135383606, -0.03640841320157051, -0.05397212132811546, 0.07554874569177628, -0.04228803142905235, -0.006792849395424128, -0.035131148993968964, -0.08045559376478195, 0.08070903271436691], [0.009529044851660728, -0.05443398281931877, 0.00016111970762722194, -0.08822553604841232, 0.0583748035132885, -0.0795995369553566, -0.04149676114320755, 0.052528802305459976, 0.05649328604340553, -0.04396231845021248, -0.07090143114328384, -0.06069456413388252, -0.09005499631166458, -0.07100076228380203, 0.07717927545309067, -0.015366231091320515, 0.054552111774683, 0.07549865543842316, 0.00046382928849197924, -0.07968471199274063, -0.024417169392108917, -0.0055023967288434505, -0.061158329248428345, -0.09894785284996033, -0.002575456630438566, 0.05233661085367203, 0.10862773656845093, -0.09573961049318314, 0.00010673044744180515, 0.06599634885787964, -0.03522886335849762, 0.07645538449287415, -0.019529150798916817, 0.031605493277311325, -0.010271411389112473, -0.002684621373191476, -0.07089346647262573, -0.08526420593261719, -0.009777233004570007, -0.0903998464345932, -0.008893290534615517, -0.09454625844955444, 0.09253623336553574, -0.04446639493107796, -0.054777875542640686, 0.0406983457505703, -0.004590820055454969, 0.008895697072148323, 0.011652546934783459, 0.029676970094442368, 0.055621616542339325, 0.030987374484539032, -0.03285606950521469, -0.0027823839336633682, -0.0889059528708458, 0.027304448187351227, 0.05529826879501343, -0.009287969209253788, 0.10758017748594284, -0.021742383018136024, -0.06076058745384216, -0.08253216743469238, 0.016444114968180656, 0.06244654953479767, -0.07254424691200256, -0.08922089636325836, 0.0243698637932539, 0.019433358684182167, 0.042521506547927856, 0.046647220849990845, 0.015158770605921745, 0.002461510943248868, -0.01911206915974617, 0.018445469439029694, -0.01754000410437584, 0.014829524792730808, 0.05201306939125061, 0.014048099517822266, -0.006330421194434166, 0.08328843861818314, 0.0028459958266466856, 0.0012606704840436578, 0.07693573832511902, -0.08396413922309875, -0.05345737561583519, -0.024201933294534683, 0.0060044764541089535, -0.052094727754592896, 0.03819715976715088, -0.08224339038133621, 0.0064512016251683235, 0.054931726306676865, 0.05119829252362251, 0.013589499518275261, -0.010428992100059986, -0.08300284296274185, 0.04505378007888794, -0.04363614693284035, 0.015401544980704784, -0.037717998027801514, -0.0725911557674408, 0.047170236706733704, -0.05638590082526207, 0.020968535915017128, 0.015090498141944408, 0.038586460053920746, -0.07617272436618805, 0.029217084869742393, 0.07096102833747864, 0.020967794582247734, -0.00036190016544424, 0.08539272844791412, 0.004944277927279472, -0.1003776267170906, 0.0563955120742321, 0.0308016836643219, -0.052744973450899124, -0.0775655210018158, -0.028138192370533943, -0.03241298720240593, -0.05629349499940872, 0.008938625454902649, 0.09467539191246033, 0.03787478804588318, 0.05607303977012634, -0.008563010022044182, -0.02424446865916252, -0.04616094008088112, 0.05217752978205681, 0.037891797721385956, 0.04624897614121437, 0.010485254228115082, 0.04197700694203377], [-0.0068406006321311, -0.05134699121117592, -0.05111350864171982, 0.04779669642448425, -0.07195774465799332, -0.03579764440655708, -0.027022557333111763, -0.001247212290763855, -0.03716253861784935, -0.08006826043128967, 0.07329055666923523, 0.05715836212038994, -0.059538450092077255, 0.04385267570614815, -0.006961517501622438, 0.03526797145605087, -0.051661524921655655, 0.085597462952137, 0.00010639170795911923, 0.04057706147432327, -0.019944461062550545, -0.08724606037139893, 0.02638411521911621, 0.005762229207903147, -0.08976349979639053, -0.008716583251953125, -0.07694072276353836, 0.08030933886766434, -0.08859172463417053, 0.020286869257688522, 0.01875317469239235, 0.01844661496579647, 0.040500860661268234, -0.029310021549463272, -0.051015716046094894, -0.05877106636762619, 0.00959154311567545, -0.081499382853508, 0.03269626572728157, 0.03893755376338959, -0.06604404002428055, 0.033937182277441025, 0.04928378388285637, -0.04516683518886566, -0.0043192715384066105, -0.02930549718439579, 0.010683142580091953, -0.08483703434467316, 0.05507120490074158, -0.014165211468935013, 0.0616983138024807, -0.09496771544218063, -0.07345189154148102, -0.03766527771949768, 0.044106438755989075, 0.08227717131376266, -0.07847575843334198, -0.009616506285965443, -0.09083489328622818, 0.041850507259368896, 0.0709649845957756, 0.01085648499429226, -0.06002863496541977, 0.0347108319401741, 0.047930940985679626, 0.05026715621352196, -0.05127763748168945, 0.013125644065439701, 0.05911819264292717, 0.016038399189710617, -0.05289939418435097, -0.06284531205892563, 0.06464097648859024, -0.0031254638452082872, -0.09056395292282104, -0.06339339911937714, -0.06830436736345291, -0.05444669350981712, 0.07065226882696152, -0.06416667252779007, -0.0596553236246109, -0.038663845509290695, -0.03421089053153992, -0.014875820837914944, 0.08927540481090546, -0.050265487283468246, 0.06061103567481041, 0.008746953681111336, 0.059020962566137314, 0.013752502389252186, -0.0847650095820427, -0.003567709354683757, -0.04262462630867958, -0.0035206577740609646, 0.05021072179079056, -0.05344098433852196, -0.090129554271698, -0.0710134208202362, -0.034348055720329285, -0.0723690614104271, 0.04811118170619011, -0.049800679087638855, -0.046125464141368866, -0.08588286489248276, 0.07062140107154846, -0.041147567331790924, 0.045954179018735886, -0.00823829136788845, 0.01569512113928795, -0.06304483115673065, -0.044035572558641434, -0.09048978239297867, -0.07141090929508209, 0.07924900949001312, 0.004504499025642872, 0.03378214314579964, -0.019194630905985832, 0.017172852531075478, -0.06777122616767883, -0.017935963347554207, 0.031574368476867676, -0.012197986245155334, 0.03540302813053131, -0.08161342889070511, 0.05378333479166031, 0.06659054011106491, -0.014094136655330658, -0.09211283177137375, 0.009052115492522717, -0.07666728645563126, -0.037155792117118835, 0.006743182893842459, -0.015664117410779], [0.09695416688919067, 0.0640486404299736, 0.12569229304790497, -0.0026908041909337044, 0.018428532406687737, 0.07915369421243668, -0.04360717535018921, -0.02914191223680973, 0.012322215363383293, -0.09488281607627869, -0.08648043870925903, -0.03468427434563637, -0.10713847726583481, -0.04441425949335098, 0.02923295460641384, -0.005234041716903448, -0.03947474807500839, 0.08100370317697525, 0.012459181249141693, -0.0377965122461319, 0.030453655868768692, -0.03488112986087799, 0.05635328218340874, -0.06108712777495384, -0.07387951761484146, 0.012989632785320282, 0.07818174362182617, 0.025725938379764557, -0.11473643034696579, 0.019430367276072502, -0.02875669114291668, -0.00440394040197134, 0.0453704409301281, 0.015369195491075516, -0.020457442849874496, -0.025715414434671402, -0.04378226771950722, -0.016724882647395134, 0.03144897148013115, -0.025667201727628708, 0.0628504753112793, 0.008143702521920204, -0.025254353880882263, -0.021418461576104164, -0.0698387622833252, 0.0644131526350975, -0.03498871996998787, 0.017343677580356598, 0.07236967235803604, -0.025340497493743896, 0.020700130611658096, -0.04293385148048401, -0.07375374436378479, -0.09662961959838867, -0.12391331791877747, 0.017164917662739754, 0.08694568276405334, -0.04074671119451523, 0.007127103861421347, 0.05511968582868576, -0.06434649974107742, -0.03385308384895325, 0.007426596246659756, -0.026120569556951523, -0.03150361031293869, 0.01778229884803295, -0.10498826205730438, -0.009127694182097912, -0.02017425000667572, 0.06295237690210342, 0.06579522043466568, -0.07852035015821457, -0.05297644063830376, -0.04287479817867279, 0.07581615447998047, 0.023704450577497482, 0.0014421547530218959, 0.06725261360406876, -0.09586484730243683, -0.008943591266870499, 0.005258429329842329, 0.07844313234090805, 0.03392387181520462, -0.03505408763885498, -0.057850636541843414, 0.0780598521232605, 0.028501475229859352, 0.009731362573802471, 0.005118948873132467, -0.06490765511989594, -0.01941368356347084, 0.010002829134464264, -0.06255878508090973, -0.0012398159597069025, -0.09474402666091919, -0.01439402624964714, 0.013586508110165596, 0.03684210404753685, 0.08153629302978516, 0.008176383562386036, 0.08361177146434784, -0.015526168048381805, 0.04304469749331474, 0.07337155193090439, 0.022542640566825867, -0.039665404707193375, -0.056945156306028366, -0.04363098740577698, 0.03477757051587105, 0.03204793855547905, -0.004195658955723047, 0.06193201616406441, -0.10902610421180725, 0.00479462556540966, 0.052565138787031174, 0.08647732436656952, -0.015838399529457092, -0.05902433767914772, 0.042509835213422775, -0.013177892193198204, 0.027085982263088226, 0.057290200144052505, -0.0025275712832808495, -0.045975860208272934, -0.06470459699630737, 0.05852285027503967, -0.07364959269762039, 0.07966571301221848, -0.06802473217248917, 0.08408202230930328, 0.06048557907342911, 0.04575711116194725, 0.0784953385591507], [-0.0440654493868351, -0.09737741202116013, -0.08778213709592819, 0.02486437000334263, 0.001395438564941287, 0.017790809273719788, 0.056910496205091476, -0.017793620005249977, 0.015540577471256256, 0.06588536500930786, -0.042768444865942, 0.07263306528329849, 0.038005344569683075, 0.05188322439789772, 0.08414963632822037, -0.03525082394480705, 0.04431498795747757, -0.04538048431277275, -0.04304536432027817, -0.039640940725803375, -0.0007968538557179272, -0.03919296711683273, -0.0009541717590764165, 0.016332801431417465, 0.11939562857151031, 0.040118761360645294, -0.0945616215467453, 0.061288390308618546, -0.024672245606780052, 0.11256610602140427, -0.005325858015567064, -0.045930903404951096, -0.11035103350877762, -0.11111992597579956, -0.022379139438271523, 0.004665561951696873, -0.01815441995859146, 0.011992312036454678, 0.0811295136809349, 0.11164947599172592, 0.020658990368247032, -0.09359756857156754, 0.10404012352228165, 0.10291551053524017, 0.05082295089960098, -0.03635277599096298, 0.06362475454807281, 0.0524376817047596, -0.035288553684949875, -0.017404140904545784, 0.01688087172806263, 0.08170586079359055, 0.017650417983531952, 0.05362200364470482, 0.09094823896884918, -0.03329916670918465, -0.025277528911828995, 0.024948766455054283, -0.06068040430545807, -0.07874416559934616, 0.01167075801640749, 0.07080668956041336, -0.03373467177152634, 0.0720546543598175, -0.07607518136501312, -0.05958380177617073, -0.03795170038938522, 0.05799486115574837, 0.07705272734165192, 0.10915964841842651, -0.016907688230276108, 0.058241378515958786, -0.08024654537439346, 0.031042687594890594, 0.02542283572256565, 0.0025000751484185457, 0.045359253883361816, -0.040523357689380646, 0.05195851996541023, 0.06134239211678505, 0.05851681903004646, 0.021827232092618942, 0.034697458148002625, -0.06880426406860352, -0.056177202612161636, 0.0019483648939058185, -0.08982998132705688, 0.07017261534929276, 0.05103065073490143, -0.022643743082880974, -0.08551795035600662, 0.026687249541282654, 0.004977925680577755, 0.08845115453004837, -0.026584602892398834, -0.0004344125627540052, -0.047130923718214035, -0.02956737019121647, -0.029963474720716476, 0.0027240298222750425, 0.07654262334108353, -0.004935635719448328, 0.04978547617793083, -0.07346940785646439, 0.07825997471809387, -0.028353793546557426, -0.021487556397914886, 0.013913973234593868, -0.023837238550186157, -0.03925776481628418, 0.025878529995679855, 0.02148286998271942, -0.012321610003709793, 0.016300776973366737, -0.004079069476574659, 0.03295842558145523, 0.0033773663453757763, -0.15448962152004242, 0.09878066927194595, 0.13112108409404755, 0.05469679832458496, -0.055631186813116074, 0.08463320136070251, -0.037958938628435135, 0.03390420973300934, -0.01934872381389141, -0.051990658044815063, 0.033137623220682144, -0.059226952493190765, -0.08125393837690353, -0.03988451510667801, -0.04866469278931618, 0.04604054614901543], [-0.07079630345106125, 0.008504370227456093, -0.02171851508319378, -0.06747186928987503, -0.012156459502875805, -0.07521586120128632, 0.09829726070165634, -0.021824272349476814, -0.05701634660363197, 0.037989161908626556, 0.06361707299947739, -0.093727245926857, 0.08851965516805649, 0.01314485166221857, 0.06266117095947266, 0.09718623757362366, 0.05729607120156288, 0.1014414057135582, 0.016580168157815933, -0.01582365110516548, 0.05141441524028778, -0.014937853440642357, 0.01752062700688839, 0.04870690032839775, 0.0761600211262703, 0.02456492930650711, -0.0719856321811676, 0.027618320658802986, 0.0637250617146492, 0.020970018580555916, 0.06467640399932861, -0.07450081408023834, 0.02895226702094078, -0.010666296817362309, 0.01829540729522705, 0.002028675749897957, -0.03273392841219902, 0.06642141938209534, -0.04569004103541374, -0.06656099855899811, 0.05570950359106064, -0.020321322605013847, -0.06673639267683029, -0.004804705269634724, -0.018584012985229492, -0.09046518802642822, -0.021240007132291794, -0.02910955622792244, 0.04751652851700783, 0.07309585064649582, 