{"net.0.weight": [[0.043568216264247894, 0.02553888037800789, -0.06210922822356224, 0.06961855292320251, 0.045611422508955, -0.04575400799512863, -0.007632440887391567, -0.05945796146988869, 0.02085127681493759, -0.06760513782501221, 0.04466091841459274, 0.061927031725645065, -0.04407552629709244, -0.06156028434634209, -0.0961075946688652, -0.005007751286029816, -0.062250860035419464, -0.07981351017951965, -0.046857357025146484, 0.06994316726922989, -0.017243610695004463, -0.0457870252430439, 0.030994245782494545, -0.06041175499558449, 0.0335615910589695, 0.015557748265564442, 0.02475897967815399, -0.0414007343351841, 0.05045166239142418, -0.02515535242855549, 0.09862110763788223, 0.0564437210559845, -0.03246491402387619, 0.08049749583005905, -0.022784216329455376, -0.037781164050102234, -0.01811205968260765, 0.00763259781524539, 0.43885961174964905, 0.04006589576601982, -0.0206135381013155, 0.09432721138000488, 0.06805318593978882, 0.11317340284585953, 0.09675340354442596, -0.011639132164418697, 0.0033752506133168936, -0.0826503336429596, -0.01529704499989748, 0.04310782626271248, -0.02866826206445694, -0.07465080171823502, 0.05248946696519852, -0.09018533676862717, 0.039490509778261185, 0.06359453499317169, -0.08067110925912857, -0.08169207721948624, 0.03533816710114479, 0.09719295054674149, 0.028892111033201218, 0.007234580349177122, -0.0440361313521862, -0.03592287003993988, -0.03320785611867905, -0.039069291204214096, -0.018638337031006813, 0.015173324383795261, -0.058195821940898895, -0.010471378453075886, -0.04154162481427193, 0.01641620695590973, 0.015192292630672455, 0.04781804233789444, 0.03992686793208122, 0.04776493459939957, -0.025243669748306274, -0.06832845509052277, -0.0274574663490057, -0.04428154230117798, 0.0527920238673687, 0.00833218265324831, 0.029756121337413788, -0.006767759099602699, -0.023635530844330788, 0.06108052283525467, -0.012176412157714367, -0.0800132229924202, -0.07003649324178696, 0.006452580448240042, -0.07609725743532181, 0.026386253535747528, -0.001755684963427484, -0.07640454918146133, -0.06516752392053604, -0.020132094621658325, 0.13177545368671417, -0.04769262298941612, 0.017042288556694984, 0.12484905123710632, 0.032513946294784546, 0.06429222971200943, 0.033548686653375626, -0.04886380955576897, -0.11089759320020676, -0.0660119280219078, 0.0033115348778665066, -0.004813796374946833, 0.07659182697534561, 0.0832623764872551, 0.03434950113296509, -0.08188243210315704, 0.03896988555788994, -0.03556924685835838, 0.0007024852675385773, -0.08567699790000916, -0.04509364068508148, -0.022814998403191566, -0.05513356998562813, 0.0038216393440961838, 0.01033737976104021, -0.0019718005787581205, 0.044763121753931046, 0.015848295763134956, 0.10889603942632675, -0.05161704868078232, 0.08000059425830841, -0.01931755058467388, 0.01268929522484541, 0.022777443751692772, -0.02928728237748146, -0.0430135540664196, -0.021767377853393555], [0.04623272642493248, 0.07908906042575836, 0.08692608773708344, 0.06938880681991577, 0.030192667618393898, 0.030084479600191116, -0.0954272449016571, 0.08023462444543839, -0.08986446261405945, 0.016629813238978386, -0.030639788135886192, -0.08844885230064392, -0.11121499538421631, 0.004646774381399155, -0.08263741433620453, 0.05233440548181534, 0.08939056843519211, 0.09301459789276123, -0.06448089331388474, 0.05566658079624176, 0.07487661391496658, -0.041808709502220154, -0.012451445683836937, -0.08866232633590698, 0.0698646828532219, -0.042692944407463074, 0.010160784237086773, -0.08047303557395935, -0.0027636440936475992, -0.08733448386192322, 0.339111864566803, 0.09068599343299866, 0.04663175344467163, 0.007847110740840435, 0.07715670019388199, 0.054427698254585266, -0.06139199063181877, 0.026622897014021873, -0.05598073825240135, 0.007072187028825283, -0.08334459364414215, 0.030852321535348892, -0.05008333548903465, 0.01802275888621807, -0.03331539407372475, 0.2704381048679352, -0.04394352808594704, 0.016944872215390205, -0.0417509526014328, 0.00996722374111414, 0.015327926725149155, 0.13266931474208832, 0.04579006880521774, 0.04009239375591278, 0.09907986968755722, 0.012307646684348583, -0.02378309704363346, -0.051351532340049744, -0.07953310012817383, 0.048003725707530975, 0.14908918738365173, 0.17872315645217896, 0.1456482857465744, 0.021309638395905495, 0.10947014391422272, 0.06463347375392914, -0.03529323264956474, 0.11609428375959396, -0.18962714076042175, -0.06224138289690018, -0.0545407198369503, -0.22160056233406067, -0.10960041731595993, 0.05017475783824921, 0.12492261081933975, 0.013692354783415794, 0.05678664520382881, 0.016614306718111038, 0.072397381067276, 0.06728024035692215, -0.007769508752971888, 0.04635734111070633, 0.030353188514709473, -0.24585525691509247, -0.003977200482040644, -0.06646260619163513, 0.03546585142612457, -0.0015135364374145865, 0.0020693971309810877, -0.06512680649757385, 0.02884046919643879, 0.08635460585355759, 0.06482062488794327, 0.029709799215197563, 0.011578037403523922, 0.027978193014860153, -0.053603801876306534, 0.09644600749015808, -0.02914605662226677, 0.10767608880996704, 0.15652987360954285, -0.02256491407752037, -0.0007720388239249587, 0.013918542303144932, 0.0098901791498065, 0.10416512191295624, -0.006422849837690592, -0.019625579938292503, 0.046194616705179214, 0.029242699965834618, 0.09884439408779144, 0.02840016968548298, -0.029542917385697365, -0.05795363336801529, 0.022322654724121094, -0.019154535606503487, -0.06324922293424606, -0.08737325668334961, 0.019219139590859413, -0.07841656357049942, 0.08925051242113113, 0.05021161586046219, 0.15927241742610931, 0.07743904739618301, 0.07847338914871216, 0.01935548149049282, 0.04916765168309212, 0.01839614473283291, 0.1354595422744751, 0.10873042047023773, 0.09685031324625015, 0.08538667857646942, 0.0494634211063385], [0.17076623439788818, 0.021923327818512917, 0.15721963346004486, -0.02560964971780777, -0.01255829632282257, 0.06853414326906204, 0.07001342624425888, -0.037314727902412415, -0.006256976630538702, -0.058612924069166183, 0.001232327427715063, 0.059026457369327545, -0.08328588306903839, -0.05842271447181702, 0.02030670829117298, 0.18628542125225067, -0.0270510483533144, -0.0024405575823038816, -0.0006828358164057136, 0.04293092340230942, 0.06103166937828064, -0.03331952914595604, 0.0237540602684021, -0.06893248111009598, 0.006143438164144754, 0.047121562063694, 0.05568031594157219, 0.09249832481145859, 0.01876820996403694, -0.08174781501293182, 0.1516774743795395, 0.08840637654066086, 0.04313893988728523, -0.024735746905207634, 0.09828050434589386, -0.016279861330986023, -0.03239813074469566, -0.06467081606388092, 0.060167744755744934, 0.02233169600367546, 0.12070456892251968, -0.06726153939962387, -0.06705675274133682, -0.023301849141716957, -0.0899423211812973, 0.19953089952468872, 0.18592217564582825, -0.0038601660635322332, 0.2737250328063965, 0.005187520757317543, -0.1171954795718193, -0.040203969925642014, 0.11549318581819534, -0.03522275760769844, -0.0393216498196125, -0.09512645751237869, -0.05775079503655434, 0.07313556969165802, 0.05813084915280342, 0.03268640860915184, 0.18110118806362152, 0.21947382390499115, 0.20767557621002197, 0.18332858383655548, 0.13867774605751038, 0.1923992782831192, 0.03694899380207062, -0.039366308599710464, -0.06098015606403351, 0.013278800994157791, -0.011030725203454494, 0.025043558329343796, -0.07418903708457947, -0.03965545818209648, 0.0653579831123352, 0.11944162845611572, 0.012413791380822659, -0.0024819273967295885, 0.029170561581850052, 0.04744347929954529, -0.17304885387420654, 0.001858574221841991, 0.06301607191562653, 0.005164263769984245, -0.08910863846540451, 0.012349730357527733, -0.03132947161793709, -0.04749945178627968, 0.055510830134153366, -0.05009196326136589, 0.206506609916687, 0.1162995845079422, 0.14756526052951813, 0.06762038916349411, 0.017818229272961617, 0.019995037466287613, 0.09704214334487915, -0.08091425150632858, 0.00391837814822793, -0.05610716715455055, -0.06096702441573143, -0.0906786397099495, -0.03503049165010452, -0.0700702965259552, -0.05159861966967583, 0.04551691934466362, 0.11129886656999588, 0.15726985037326813, 0.028463294729590416, 0.12740764021873474, -0.051482927054166794, 0.05215580761432648, -0.020547209307551384, -0.0362137071788311, -0.022268719971179962, 0.008141962811350822, 0.03610493615269661, 0.03138064593076706, -0.07299504429101944, -0.09134491533041, 0.03925209864974022, 0.134437695145607, 0.03234734386205673, 0.037383489310741425, -0.0073996651917696, 0.06396036595106125, 0.07914676517248154, 0.10698366165161133, -0.06396370381116867, 0.004804088734090328, -0.04682610556483269, 0.07112011313438416, 0.09466846287250519], [0.14134736359119415, 0.006775520741939545, 0.1184946671128273, -0.04338684305548668, 0.009522355161607265, 0.043880660086870193, -0.09693383425474167, 0.055224090814590454, -0.014796651899814606, -0.013413185253739357, -0.026073351502418518, -0.04446462169289589, 0.01671580597758293, -0.04310235008597374, 0.10807446390390396, 0.1446109116077423, -0.03780278563499451, -0.009546652436256409, 0.05482077598571777, -0.06793904304504395, 0.007651335094124079, -0.03432619571685791, -0.021435150876641273, -0.009723249822854996, 0.17035572230815887, -0.048356298357248306, -0.017287272959947586, -0.036138880997896194, -0.08620256185531616, 0.03647855296730995, 0.11239518970251083, 0.09839672595262527, 0.1351277381181717, 0.04095125570893288, 0.00745414150878787, 0.0544867143034935, 0.10728279501199722, 0.05752050131559372, -0.004587486851960421, 0.025343596935272217, -0.09064193069934845, 0.0038079035002738237, -0.025728940963745117, 0.016295121982693672, 0.05949448049068451, 0.08355762809515, 0.09641309082508087, -0.03071322850883007, 0.05557277053594589, -0.03453154116868973, 0.010625278577208519, 0.05617611110210419, 0.147466242313385, 0.07285252213478088, 0.10219819843769073, 0.019319266080856323, 0.056380171328783035, -0.02913666144013405, -0.03167711943387985, 0.09731017798185349, 0.15529534220695496, 0.12768957018852234, 0.07906273007392883, 0.13028864562511444, 0.20631249248981476, 0.07871843874454498, -0.009489786811172962, 0.013308105058968067, -0.00309516629204154, -0.06606031209230423, -0.07682503759860992, -0.04146426171064377, -0.04734629765152931, -0.0343877412378788, 0.03363022580742836, 0.09840207546949387, -0.06569979339838028, 0.014948692172765732, 7.832494702597614e-06, -0.01442087534815073, -0.0512729175388813, 0.14071840047836304, 0.12031568586826324, 0.06048361212015152, 0.12791185081005096, 0.012660038657486439, -0.011327105574309826, -0.018224330618977547, 0.0021205099765211344, 0.0817454382777214, 0.20335975289344788, 0.08423659205436707, 0.048996180295944214, 0.09984970837831497, -0.044069498777389526, 0.05299092084169388, -0.0031669388990849257, 0.012883218936622143, 0.02246561273932457, -0.027290815487504005, -0.0753360241651535, -0.05075298994779587, 0.03081025555729866, 0.036419060081243515, 0.09341669082641602, 0.011709270067512989, -0.0077608381398022175, 0.11687184870243073, 0.10020244866609573, -0.03943386301398277, -0.0032411261927336454, -0.032362643629312515, 0.030776575207710266, -0.0036975869443267584, -0.08550573885440826, -0.05835730955004692, -0.007220821920782328, -0.08458681404590607, 0.0035805990919470787, 0.0914340391755104, 0.08553781360387802, 0.11709125339984894, 0.11690638959407806, 0.015495188534259796, -0.029493136331439018, 0.03144944831728935, -0.27387672662734985, 0.13461434841156006, 0.100125253200531, 0.08106095343828201, 0.06282587349414825, 0.023530859500169754, 0.07497885823249817], [-0.1288534551858902, -0.19150318205356598, -0.005512775853276253, -0.061162881553173065, -0.12786094844341278, 0.08655878156423569, -0.1527557075023651, -0.008446520194411278, -0.10962168127298355, 0.05013922229409218, -0.06272393465042114, 0.01660495065152645, -0.007572701666504145, 0.04438277333974838, -0.05787691846489906, -0.11610310524702072, -0.10202772170305252, -0.06245579570531845, 0.004195795860141516, 0.03257226571440697, -0.05211711302399635, -0.01878860592842102, -0.10019727796316147, 0.003198305144906044, 0.08146213740110397, 0.013023031875491142, 0.01056207250803709, 0.05037806183099747, -0.07739916443824768, 0.05752485990524292, -0.09374471008777618, -0.11456321179866791, -0.14650875329971313, -0.04155803099274635, -0.0312938466668129, 0.04646484926342964, 0.004624235909432173, 0.01609649881720543, 0.0059296260587871075, 0.11258634179830551, -0.02152545191347599, 0.04999765753746033, -0.11021345853805542, -0.03334951400756836, 0.020113209262490273, -0.09018490463495255, -0.11270856112241745, -0.13833867013454437, -0.018374381586909294, -0.1304633766412735, 0.006203853525221348, 0.06541503965854645, 0.07633432000875473, -0.15553122758865356, 0.12916260957717896, -0.04999285936355591, -0.03242546692490578, -0.0449911393225193, -0.008851606398820877, 0.0028313109651207924, -0.1470576524734497, -0.10566197335720062, -0.08172096312046051, -0.16620534658432007, -0.023106729611754417, 0.00901374313980341, -0.06553661823272705, 0.003930808510631323, -0.01802370883524418, -0.024012813344597816, -0.02942759357392788, -0.1254756599664688, -0.09134019911289215, -0.07356622815132141, -0.07522375881671906, -0.03125190734863281, -0.02004566229879856, -0.019749747589230537, -0.026306884363293648, -0.10778921842575073, -0.0012792912311851978, -0.23609177768230438, 0.0296603012830019, -0.013938721269369125, 0.12108505517244339, -0.11334329098463058, -0.036404799669981, -0.10111604630947113, 0.021785113960504532, -0.038065217435359955, -0.21739186346530914, -0.06270432472229004, -0.06618767231702805, -0.08392615616321564, -0.012317758984863758, 0.012252761982381344, 0.0056856777518987656, 0.06091366708278656, -0.00735087413340807, 0.10789716988801956, -0.08422304689884186, -0.0024485765025019646, 0.05967088043689728, 0.0163856353610754, 0.004777702037245035, -0.039476100355386734, 0.13027748465538025, -0.009463557042181492, 0.032549526542425156, -0.07694607973098755, 0.06995438039302826, -0.3087698221206665, -0.0012341728433966637, 0.017063433304429054, -0.23148487508296967, 0.03679199144244194, -0.060128893703222275, 0.011715668253600597, 0.02065536007285118, -0.07661185413599014, -0.007902239449322224, 0.08242998272180557, 0.1320800483226776, -0.11781898885965347, -0.08730334788560867, -0.01658305898308754, 0.06675507128238678, 0.022575026378035545, 0.1920778602361679, 0.04502617195248604, 0.03280303254723549, -0.09607275575399399, -0.1424541026353836], [0.015627210959792137, -0.014140795916318893, 0.016729751601815224, -0.03480469435453415, -0.02418980933725834, -0.0862341821193695, 0.04635445028543472, -0.06867216527462006, 0.057972878217697144, 0.07373054325580597, 0.028064200654625893, 0.05496026575565338, -0.026956699788570404, 0.08053823560476303, -0.012668721377849579, 0.07124046981334686, 0.001223654835484922, 0.011372726410627365, -0.013643587939441204, -0.08547589182853699, 0.04378117620944977, -0.09919726848602295, -0.06004655733704567, -0.0060338713228702545, -0.005087182857096195, -0.07526938617229462, 0.003181794425472617, 0.062144070863723755, -0.0035366385709494352, -0.07175184041261673, 0.029924506321549416, 0.0778876319527626, -0.061027009040117264, -0.028482094407081604, -0.07808041572570801, -0.0007544488180428743, -0.014592749066650867, 0.05379438027739525, -0.16954480111598969, 0.025010082870721817, 0.04670952633023262, 0.03514498472213745, 0.07660415768623352, 0.05247361212968826, -0.03890427201986313, 0.0844130739569664, -0.05366180092096329, -0.010918633081018925, 0.0032006422989070415, 0.02820858359336853, 0.02866426482796669, -0.0931808203458786, 0.029310761019587517, 0.010186090134084225, -0.025930361822247505, 0.008321285247802734, -0.05479263886809349, -0.008604936301708221, 0.018055491149425507, -0.06647711247205734, -0.00630043912678957, 0.019008558243513107, 0.06972620636224747, 0.017831990495324135, 0.011361077427864075, -0.057670075446367264, -0.03926322981715202, 0.07059482485055923, 0.04012300819158554, 0.05275344476103783, -0.06411460041999817, 0.007473962847143412, -0.02957204356789589, -0.07943151146173477, 0.0675668939948082, 0.05778617784380913, -0.05945207178592682, 0.03201362118124962, 0.05783829838037491, -0.0346514955163002, 0.04393649101257324, 0.07776939123868942, -0.025633811950683594, 0.0029545174911618233, -0.07188989222049713, -0.08206117153167725, 0.08238007128238678, -0.04350655525922775, -0.08253766596317291, -0.0046964674256742, -0.04713543504476547, 0.022707290947437286, 0.06618326157331467, -0.030458224937319756, -0.07671741396188736, 0.05482247471809387, -0.06851669400930405, -0.03808451443910599, -0.03471327945590019, -0.034574754536151886, 0.03995303064584732, -0.08115324378013611, -0.0781407430768013, -0.06520714610815048, -0.07442934811115265, -0.08519930392503738, 0.2684743106365204, -0.06431195884943008, -0.06718353927135468, -0.006300718057900667, 0.014575242064893246, 0.05924062058329582, -0.05070536583662033, -0.01646713726222515, -0.03955163061618805, -0.020403733476996422, 0.03125558793544769, -0.00038831058191135526, 0.043766289949417114, 0.020795093849301338, -0.05011490359902382, -0.06879889219999313, 0.005801626481115818, -0.04992285743355751, -0.024625269696116447, 0.0065264212898910046, -0.05506671220064163, -0.10404108464717865, 0.0439913384616375, 0.059042803943157196, 0.017853477969765663, -0.07236214727163315, -0.026252392679452896], [0.07190354913473129, -0.12304875254631042, -0.08088430017232895, -0.04036611318588257, -0.036049965769052505, -0.019970430061221123, -0.06233071908354759, -0.12889546155929565, 0.07381775975227356, 0.09705845266580582, -0.11219888925552368, 0.0033195586875081062, 0.05276390537619591, -0.09015274792909622, -0.0396740585565567, -0.052451472729444504, -0.004989020526409149, -0.0009349099709652364, 0.005369562190026045, -0.12398702651262283, -0.07727563381195068, -0.04026534780859947, -0.03284989297389984, -0.03630053997039795, 0.08717963099479675, 0.043064285069704056, 0.15377481281757355, -0.14847375452518463, -0.027996117249131203, 0.05011211708188057, -0.03298555314540863, -0.07686911523342133, -0.12589575350284576, -0.045138947665691376, -0.0942152887582779, -0.07469954341650009, 0.05309318006038666, -0.03232515603303909, 0.04224031791090965, 0.1383223682641983, 0.044285859912633896, -0.04080423340201378, -0.006172017194330692, -0.0894245132803917, 0.09207172691822052, -0.1422300487756729, -0.025704557076096535, 0.05368942394852638, -0.07447971403598785, 0.07418090850114822, -0.02106397971510887, 0.14253713190555573, -0.04120427370071411, -0.012737885117530823, 0.08060403913259506, -0.03585042804479599, 0.08847871422767639, 0.04204278066754341, 0.0255172997713089, 0.05925571918487549, -0.2590251564979553, -0.1372913420200348, -0.1652231365442276, -0.1662708967924118, -0.0983392670750618, 0.08011004328727722, 0.022291531786322594, -0.029300684109330177, 0.020483091473579407, 0.0012586695374920964, 0.014502563513815403, 0.12390311062335968, -0.061795834451913834, -0.049537837505340576, 0.11141582578420639, -0.16118799149990082, -0.047114912420511246, -0.01434169802814722, -0.0959901511669159, -0.1521681547164917, -0.03257398307323456, 0.023959578946232796, -0.017415400594472885, -0.010536380112171173, -0.007379817310720682, -0.005704691167920828, 0.07607443630695343, -0.110011525452137, -0.08039229363203049, 0.0920904204249382, -0.029245732352137566, -0.002470374573022127, -0.04009559750556946, -0.011410492472350597, -0.08610094338655472, -0.007386576849967241, -0.05274476483464241, -0.09099708497524261, -0.09801194816827774, 0.07138382643461227, -0.09893228858709335, -0.007732188794761896, -0.07217593491077423, -0.05637146905064583, 0.01689877361059189, -0.041575782001018524, -0.007428797893226147, -0.07562488317489624, -0.09108523279428482, 0.029743503779172897, 0.08382809162139893, -0.05884001776576042, 0.03317605331540108, 0.08109115809202194, 0.13070112466812134, -0.055326756089925766, 0.037248365581035614, -0.012863941490650177, -0.059448499232530594, -0.03205214813351631, -0.03917504847049713, -0.16632039844989777, -0.005919802933931351, -0.04680566489696503, -0.12812672555446625, -0.044569313526153564, -0.022518133744597435, 0.008239267393946648, 0.020145632326602936, -0.05400298535823822, 0.029905127361416817, -0.04886820539832115, 0.09030129760503769], [-0.09810440242290497, -0.1626482754945755, -0.07385868579149246, -0.17790387570858002, -0.11013438552618027, 0.18423262238502502, 0.011854398995637894, -0.12159894406795502, 0.05288553982973099, 0.027587613090872765, -0.005260861944407225, -0.0498797744512558, -0.026391396299004555, 0.005051661282777786, -0.04928765073418617, -0.16121473908424377, -0.13225217163562775, -0.0954832211136818, -0.06649528443813324, -0.07325049489736557, -0.03875041753053665, 0.0671880692243576, -0.09828885644674301, -0.01887388713657856, 0.06007829308509827, -0.1263824701309204, 0.14140059053897858, 0.03629525750875473, 0.02747572585940361, 0.07410106062889099, -0.16635611653327942, -0.16492131352424622, 0.03218488395214081, -0.025398006662726402, -0.01699957810342312, 0.08124344050884247, 0.06319373846054077, -0.10105923563241959, 0.06866752356290817, 0.007837483659386635, -0.03455513343214989, -0.05777629464864731, -0.10916395485401154, 0.035073280334472656, 0.06739483773708344, -0.10319778323173523, -0.08077790588140488, -0.04706212878227234, -0.1314149647951126, -0.020676586776971817, 0.029655320569872856, 0.00813811831176281, -0.006048907991498709, 0.06266769021749496, 0.10664311796426773, -0.0558600053191185, 0.0036643787752836943, 0.03474726155400276, -0.10772591084241867, 0.05571107566356659, -0.2626361846923828, -0.08434212952852249, -0.2621064782142639, -0.20883168280124664, -0.1799391210079193, 0.020639624446630478, -0.01711929216980934, -0.013977263122797012, 0.06409803777933121, 0.3085421621799469, -0.019770683720707893, 0.10735991597175598, -0.060484275221824646, 0.020516738295555115, -0.018444189801812172, -0.06214044988155365, -0.1215253695845604, -0.03167087584733963, -0.20185774564743042, -0.05910271406173706, 0.04965813830494881, -0.0011265448993071914, -0.06706201285123825, 0.04356859251856804, 0.06703533977270126, -0.03708026930689812, -0.001002452103421092, -0.05766983702778816, -0.01754016987979412, 0.01630508154630661, -0.0315285325050354, 0.022563297301530838, 0.005368953570723534, -0.028967415913939476, 0.0060045309364795685, 0.04277699813246727, -0.07503870129585266, -0.09674420952796936, -0.04812205582857132, 0.06414048373699188, -0.06777744740247726, 0.1928970068693161, 0.0004969579167664051, -0.09116838872432709, -0.07530573755502701, -0.12145950645208359, -0.1155686303973198, -0.009089389815926552, -0.003058086847886443, -0.005794081836938858, -0.03942069783806801, -0.042465899139642715, -0.12315370887517929, -0.01354595273733139, 0.0745367556810379, -0.06797461211681366, 0.005346016958355904, -0.12333257496356964, -0.09056656807661057, 0.04340513050556183, -0.004886148497462273, -0.016635244712233543, 0.0349491685628891, 0.04935134947299957, -0.05764621123671532, -0.11052370071411133, -0.12335597723722458, 0.06858405470848083, 0.12760360538959503, -0.03423560410737991, -0.027492869645357132, 0.06509682536125183, 0.031463123857975006], [0.1895461529493332, -0.004131341818720102, 0.10191226005554199, -0.06724540889263153, 0.04336097463965416, -0.0396357923746109, -0.09317298978567123, 0.07806989550590515, -0.017429683357477188, -0.01053579617291689, -0.026053113862872124, -0.005919639021158218, 0.01109246350824833, -0.10201949626207352, -0.04121475666761398, 0.044469986110925674, 0.07063687592744827, 0.10156978666782379, -0.0034179012291133404, -0.06345947831869125, 0.06631666421890259, 0.052657611668109894, -0.02433781884610653, -0.0853898823261261, -0.13917304575443268, -0.04012191668152809, -0.0013621923280879855, 0.13243651390075684, -0.03340346738696098, -0.05080502852797508, 0.1374245434999466, 0.09892262518405914, 0.0978136733174324, -0.08945898711681366, 0.057057276368141174, -0.0573924258351326, -0.007898536510765553, 0.14262564480304718, -0.01575898937880993, -0.028208116069436073, -0.03747137263417244, 0.03335416316986084, 0.05738469585776329, 0.02057402767241001, -0.10195626318454742, 0.10340998321771622, 0.08051308244466782, -0.051616281270980835, 0.09672363102436066, -0.01461084745824337, 0.009043265134096146, 0.03330378979444504, 0.16214455664157867, 0.02543410286307335, 0.027501804754137993, -0.014140119776129723, 0.04094839096069336, 0.05011805146932602, -0.08985816687345505, 0.027137869969010353, 0.20904310047626495, 0.20539794862270355, 0.1493685096502304, 0.009453638456761837, 0.03752266988158226, 0.06096543371677399, 0.01359386183321476, -0.00580747751519084, -0.05687509849667549, -0.005012499168515205, -0.15637192130088806, 0.13371802866458893, -0.04800644516944885, 0.02978932112455368, 0.16676869988441467, 0.2052060067653656, 0.0759282112121582, -0.020468303933739662, 0.038937751203775406, -0.030375506728887558, 0.06079338118433952, 0.1709347516298294, 0.08080479502677917, -0.0431259423494339, -0.2738328278064728, 0.061873890459537506, 0.10282135009765625, 0.016579262912273407, -0.04702829197049141, -0.04912883788347244, 0.17675423622131348, -0.009270750917494297, 0.11496487259864807, -0.018304433673620224, 0.06298083811998367, -0.06382116675376892, 0.21436691284179688, 0.16903939843177795, 0.0837063267827034, -0.003320599440485239, -0.08126921951770782, 0.05072455480694771, -0.058555275201797485, -0.04763586446642876, 0.05846942588686943, 0.08418086916208267, -0.08209935575723648, 0.13278034329414368, 0.2637391686439514, 0.11396558582782745, 0.10543671250343323, 0.08516878634691238, 0.030777448788285255, 0.011098175309598446, 0.07997078448534012, -0.04465357959270477, -0.08961787074804306, 0.05326336622238159, 0.008217508904635906, -0.01213745679706335, 0.05627875030040741, 0.07588381320238113, -0.12508143484592438, 0.0549888014793396, 0.026318341493606567, 0.025575317442417145, -0.012885981239378452, 0.1397862732410431, 0.10474371910095215, 0.026780277490615845, 0.032748039811849594, 0.15152432024478912, 0.1200738325715065], [0.058264296501874924, 0.10651274025440216, 0.12537391483783722, -0.1469605565071106, -0.06871411204338074, 0.04875190556049347, 0.0811479240655899, 0.1288885623216629, -0.10171299427747726, 0.08709584176540375, -0.08040538430213928, -0.10701209306716919, -0.11818495392799377, -0.01139712892472744, 0.0247176643460989, -0.007875989191234112, 0.09136215597391129, 0.13626055419445038, 0.05043666809797287, 0.02950764074921608, 0.12000224739313126, -0.07387847453355789, -0.05262352153658867, -0.04181447997689247, -0.040028128772974014, -0.0563870444893837, 0.08247246593236923, -0.12182185053825378, -0.08027227222919464, -0.1263444721698761, -0.0028950138948857784, 0.2059847116470337, -0.026376089081168175, 0.0681275725364685, 0.045102767646312714, -0.03508147969841957, -0.01632501184940338, 0.06242932006716728, 0.02483920007944107, 0.0428805910050869, -0.09156863391399384, 0.04552667215466499, 0.003381083020940423, -0.08004969358444214, -0.010198990814387798, 0.06079608201980591, 0.09962901473045349, 0.05779979005455971, 0.017306501045823097, 0.04420861601829529, 0.0349409319460392, 0.10261769592761993, -0.07046034932136536, -0.004704874940216541, 0.024626730009913445, -0.037359874695539474, 0.120320625603199, -0.12219175696372986, 0.1544659584760666, 0.04950248822569847, 0.09687135368585587, 0.09825803339481354, 0.06745991110801697, 0.05368482694029808, 0.13422664999961853, 0.010288819670677185, 0.08146929740905762, -0.057667672634124756, 0.015949871391057968, -0.06456604599952698, -0.04440287500619888, 0.05915369093418121, -0.05351867899298668, -0.07642042636871338, 0.030587416142225266, 0.11423207819461823, -0.02249784581363201, -0.004411838483065367, 0.04084232449531555, 0.003286730032414198, 0.060362692922353745, 0.09075773507356644, -0.006150664296001196, -0.057761337608098984, -0.04189925268292427, -0.03288883715867996, -0.009797617793083191, 0.004855083767324686, 0.016148049384355545, -0.06756258755922318, 0.08405383676290512, -0.06821880489587784, 0.08951722830533981, 0.03998510539531708, -0.10515345633029938, 0.024368787184357643, -0.0432186983525753, 0.0942300409078598, 0.04465155676007271, 0.10356807708740234, -0.07720568776130676, 0.07359959930181503, -0.007670327555388212, -0.07729300856590271, -0.05091768875718117, 0.1429845541715622, -0.022728154435753822, -0.02334652468562126, -0.05773505941033363, -0.07086825370788574, -0.044710367918014526, 0.005056270398199558, -0.032666292041540146, -0.060242947190999985, 0.042195383459329605, 0.038820259273052216, -0.03686141222715378, -0.020773693919181824, -0.04787697643041611, 0.027221258729696274, -0.012398515827953815, 0.09906177222728729, 0.035980962216854095, -0.0451170913875103, 0.01274553406983614, -0.05728289112448692, 0.15080273151397705, 0.13349416851997375, 0.08120892941951752, -0.022695964202284813, 0.016099995002150536, 0.026204338297247887, -0.08020005375146866], [0.22039011120796204, 0.03793749958276749, 0.12755288183689117, 0.10281948745250702, 0.061848234385252, -0.010725174099206924, 0.2113376408815384, -0.04040719196200371, 0.07091687619686127, -0.0028551893774420023, 0.2659870386123657, -0.09002269804477692, -0.07599443942308426, -0.08303209394216537, 0.12251796573400497, 0.09247744083404541, 0.010109404101967812, 0.2217719554901123, 0.02665616199374199, -0.02383509650826454, -0.041978318244218826, -0.013691304251551628, 0.08493760973215103, 0.03744012117385864, 0.06162405386567116, -0.011973085813224316, -0.020102661103010178, 0.0007078817579895258, 0.07652419805526733, 0.04493369162082672, 0.17667686939239502, 0.06392686069011688, 0.012587256729602814, 0.02469060942530632, 0.06616893410682678, -0.024849548935890198, 0.024967489764094353, 0.09039600938558578, 0.02697274647653103, 0.03492291644215584, -0.07419202476739883, -0.030382491648197174, -0.055757373571395874, -0.062181875109672546, -0.09734611213207245, 0.043869636952877045, 0.1382559984922409, -0.018123263493180275, 0.130082368850708, -0.011764961294829845, -0.05380073934793472, -0.039102282375097275, 0.0683838501572609, -0.036395471543073654, 0.39154472947120667, 0.07325954735279083, -0.09861155599355698, 0.0023519531823694706, -0.029237059876322746, 0.01793856918811798, 0.2982636094093323, 0.20461535453796387, 0.06651122123003006, 0.1620119959115982, 0.19758723676204681, 0.10666225850582123, 0.05444612354040146, 0.015913713723421097, 0.017697446048259735, -0.07563696056604385, -0.08290114998817444, -0.00330868037417531, 0.023046273738145828, -0.0672864019870758, 0.130840003490448, 0.1853504776954651, 0.04383714124560356, 0.08842956274747849, 0.07005542516708374, 0.10259482264518738, 0.009755349718034267, 0.0837378054857254, 0.06436647474765778, 0.0621994286775589, 0.037914350628852844, 0.08334286510944366, -0.069830983877182, 0.07654042541980743, -0.0023720995523035526, -0.008011803962290287, 0.14347532391548157, 0.09113286435604095, 0.14495006203651428, 0.1277354508638382, -0.01653517410159111, 0.06130511313676834, 0.03678147867321968, -0.045492056757211685, 0.040068093687295914, -0.010067230090498924, -0.008926729671657085, 0.05168136581778526, 0.060896869748830795, 0.002142365090548992, -0.021959949284791946, 0.07949928194284439, 0.0829615443944931, 0.1311585158109665, -0.028733057901263237, 0.05850180238485336, -0.021748170256614685, -0.00812242366373539, -0.0043329354375600815, 0.06528788059949875, 0.05453212931752205, 0.040100257843732834, 0.025839723646640778, -0.06021652743220329, 0.023514291271567345, 0.19055324792861938, 0.0657392367720604, 0.022266115993261337, -0.012552437372505665, 0.023432012647390366, 0.1392454355955124, -0.01934257335960865, -0.031841106712818146, 0.028921963647007942, -0.04924197867512703, 0.011175408028066158, 0.3603125214576721, -0.0022082929499447346, -0.009426871314644814], [-0.04965188726782799, -0.10253458470106125, -0.1421799212694168, -0.11274393647909164, 0.004626142326742411, -0.09620353579521179, -0.01698649488389492, 0.04469159245491028, 0.06896673142910004, 0.15330907702445984, -0.03499878942966461, -0.024080298840999603, -0.06424380838871002, -0.04694826528429985, 0.10504041612148285, -0.0032570960465818644, -0.039095792919397354, -0.013054619543254375, -0.03677785024046898, 0.01660342887043953, 0.032973628491163254, -0.002347440691664815, -0.010677149519324303, -0.04252849891781807, 0.012459984980523586, -0.09926129877567291, 0.1423046588897705, -0.037370212376117706, -0.0790589451789856, 0.04101509228348732, -0.08946017920970917, -0.06814531981945038, -0.17831318080425262, 0.03896874934434891, -0.06156286969780922, 0.015680130571126938, -0.02092491276562214, 0.0738125741481781, -0.16487398743629456, 0.02439996413886547, -0.06701181828975677, -0.03391706198453903, 0.056294459849596024, 0.03782098367810249, -0.12381932884454727, -0.037956587970256805, 0.016100754961371422, -0.07824858278036118, -0.10519064962863922, -0.060877520591020584, 0.040141697973012924, -0.09743235260248184, 0.013266223482787609, -0.003754192963242531, -0.03732188791036606, -0.040972642600536346, -0.04478013142943382, -0.2026115208864212, 0.05611236020922661, 0.04788317531347275, -0.1845211237668991, -0.1668890118598938, -0.1447289139032364, -0.0648362934589386, -0.08751917630434036, 0.023896655067801476, -0.008794428780674934, -0.005817678291350603, 0.061991579830646515, -0.0650206133723259, -0.09268371760845184, 0.031087646260857582, -0.1105179563164711, -0.07006809115409851, -0.03975288197398186, -0.12316402792930603, -9.155218867817894e-05, -0.05054057762026787, -0.11916764080524445, -0.01757129281759262, 0.031008513644337654, 0.2176857590675354, 0.014004387892782688, 0.0010897122556343675, 0.10472515970468521, 0.0624566376209259, 0.04912636801600456, 0.006492453161627054, 0.01479247584939003, 0.056457120925188065, -0.120637446641922, 0.039762694388628006, -0.07659919559955597, -0.16846178472042084, -0.004920524545013905, 0.01249158475548029, 0.08617448061704636, 0.10545909404754639, -0.01967948116362095, -0.0272320918738842, -0.05306018516421318, 0.10457515716552734, -0.10897724330425262, -0.0204794742166996, 0.13241611421108246, 0.023319508880376816, -0.07649803161621094, -0.1281660944223404, -0.0861535295844078, 0.031286850571632385, 0.09903832525014877, -0.009544756263494492, 0.014387478120625019, 0.03853784501552582, 0.12785714864730835, -0.0058494145050644875, -0.08433759212493896, -0.03295961022377014, -0.024902695789933205, -0.0025303177535533905, 0.05424712225794792, 0.0738244280219078, 0.1297576129436493, -0.10790486633777618, 0.01843339577317238, 0.06513852626085281, -0.0554911307990551, 0.11505520343780518, -0.022261308506131172, 0.018180856481194496, 0.1318858563899994, 0.11642218381166458, -0.014918175525963306], [-0.14228059351444244, -0.14453426003456116, -0.0668548196554184, -0.02807769551873207, -0.004837473854422569, 0.009669454768300056, -0.01143385749310255, -0.06633209437131882, -0.05514395236968994, -0.011837899684906006, 0.014626020565629005, -0.037141744047403336, -0.09479932487010956, 0.015023943968117237, -0.07714472711086273, -0.149632528424263, -0.09623237699270248, -0.09443537145853043, -0.06081670895218849, 0.03759196028113365, 0.2523784637451172, -0.01362840086221695, -0.09981092065572739, -0.11957724392414093, 0.09034459292888641, -0.099402517080307, 0.14750507473945618, -0.007575163617730141, -0.10254528373479843, 0.030806735157966614, -0.12761659920215607, -0.13326290249824524, -0.1078287735581398, -0.03878504037857056, -0.024477139115333557, -0.012652205303311348, 0.07351317256689072, 0.012592678889632225, 0.07971746474504471, 0.05411423742771149, -0.08984765410423279, 0.05840113013982773, -0.1176452487707138, 0.014111206866800785, 0.03627515584230423, -0.06682547181844711, -0.08963096141815186, 0.022971857339143753, -0.13134200870990753, -0.08265725523233414, 0.03878946229815483, 0.08830513060092926, 0.050497978925704956, -0.011892943643033504, 0.03654393553733826, -0.03587022423744202, 0.032133542001247406, -0.08675151318311691, -0.08206846565008163, -0.024078529328107834, -0.12834206223487854, -0.10024958848953247, -0.092015340924263, -0.06377293914556503, -0.021578192710876465, -0.062457188963890076, 0.01893436722457409, -0.01012515090405941, -0.020895741879940033, 0.010083296336233616, -0.006199293304234743, -0.0002942353894468397, -0.023443659767508507, -0.09709136188030243, 0.044231776148080826, -0.060426630079746246, -0.08484163880348206, -0.03069962188601494, -0.07286662608385086, -0.07911299914121628, -0.0746268779039383, 0.04092427343130112, 0.0570814311504364, 0.05412759259343147, 0.02868187054991722, -0.09164582192897797, -0.05011070892214775, -0.09147655963897705, -0.07091046124696732, 0.01875792071223259, -0.05938445404171944, -0.017604496330022812, -0.04900738596916199, -0.07533582299947739, 0.031655263155698776, -0.06875643879175186, 0.13012002408504486, 0.04776217043399811, -0.01054394245147705, 0.012781552970409393, -0.10835953801870346, 0.09359987080097198, -0.04927724599838257, 0.02301054820418358, 0.07388538122177124, 0.023338869214057922, -0.01983180083334446, -0.11339074373245239, -0.06373520940542221, -0.022803913801908493, -0.06055156886577606, -0.04167424887418747, -0.02797790616750717, 0.11111511290073395, 0.026256389915943146, -0.004957901313900948, -0.009406899102032185, 0.03142638877034187, 0.023657124489545822, 0.03916378319263458, -0.07304725795984268, 0.04961840435862541, 0.055131979286670685, -0.216548889875412, -0.003569242311641574, -0.04121313989162445, -0.05418045446276665, 0.07052568346261978, -0.038292303681373596, 0.06717362999916077, -0.02040965110063553, 0.0449560321867466, -0.060908302664756775], [0.13421952724456787, 0.008369785733520985, 0.006021223496645689, 0.03695199266076088, -0.031121481209993362, -0.031021570786833763, -0.0670180693268776, 0.06537726521492004, 0.07750457525253296, 0.08486594259738922, -0.08604716509580612, -0.011884811334311962, -0.01747923344373703, -0.039107780903577805, 0.05447555333375931, 0.1173260435461998, -0.05077141150832176, 0.03274247422814369, -0.10558431595563889, 0.0750701054930687, 0.11571133881807327, -0.011836744844913483, -0.04452041536569595, -0.014910537749528885, 0.06595300137996674, -0.0185539647936821, 0.11031538248062134, -0.10008291155099869, -0.025996927171945572, -0.09932967275381088, 0.15765893459320068, 0.03551715239882469, 0.07302962243556976, 0.08026048541069031, 0.08983325213193893, -0.03002478927373886, 0.003922347445040941, 0.05932619795203209, -0.09042196720838547, -0.007147034164518118, 0.05684574320912361, 0.01771986298263073, 0.0134042389690876, -0.0932115688920021, -0.06777852773666382, 0.03379777446389198, -0.06701316684484482, 0.008619856089353561, -0.02569611556828022, -0.03968426212668419, -0.1447141319513321, 0.08829983323812485, 0.11295805871486664, -0.008959399536252022, 0.05696100741624832, -0.015241500921547413, 0.11010181903839111, -0.06087440624833107, -0.08612138032913208, -0.014519339427351952, 0.21809880435466766, 0.09494668990373611, 0.05903447046875954, 0.11051938682794571, 0.045553699135780334, -0.025747105479240417, 0.003761075437068939, 0.019898395985364914, -0.02749394252896309, -0.05585125461220741, -0.08806858956813812, -0.12594380974769592, -0.08068545162677765, -0.01630370505154133, -0.1230563148856163, 0.028034739196300507, -0.007405607495456934, 0.008925441652536392, 0.0038688990753144026, 0.06654230505228043, -0.00483884010463953, 0.08159186691045761, -0.0037305443547666073, -0.05577632784843445, 0.08106262981891632, 0.027270453050732613, -0.02487902157008648, -0.10946185141801834, -0.11291257292032242, -0.05035897716879845, 0.1144755631685257, 0.026316050440073013, -0.0026967490557581186, -0.05701816454529762, 0.03957633674144745, 0.09031489491462708, -0.012464189901947975, 0.14942891895771027, 0.07921820878982544, -0.010439264588057995, 0.019094020128250122, 0.01914534717798233, -0.11663461476564407, -0.038417916744947433, 0.05691724643111229, -0.027716942131519318, 0.05771471560001373, 0.12777079641819, -0.27129390835762024, 0.054204244166612625, 0.003672210965305567, -0.1325942873954773, -0.009914455004036427, 0.13296209275722504, -0.03155318275094032, -0.09082559496164322, -0.007939863950014114, 0.05096573010087013, -0.10910867899656296, 0.028408171609044075, 0.0255111176520586, 0.14386431872844696, 0.17316220700740814, 0.05891792103648186, -0.06892368197441101, -0.04060875624418259, -0.03560137748718262, 0.11548396944999695, 0.10138672590255737, 0.03879714757204056, -0.01615561731159687, 0.14210902154445648, -0.05921817943453789], [0.1708037257194519, 0.1293860822916031, 0.11214440315961838, 0.012983949854969978, -0.08826721459627151, 0.07295051962137222, 0.09379316866397858, 0.12218981981277466, -0.05034186691045761, -0.06187459081411362, -0.013278111815452576, 0.05770338699221611, 0.049791958183050156, 0.04608963802456856, 0.05180448293685913, 0.09012015163898468, -0.04513267055153847, 0.06170172616839409, -0.06846261769533157, -0.021047180518507957, 0.05970601737499237, 0.043844111263751984, 0.09241040796041489, -0.035585738718509674, 0.059327006340026855, -0.04198130592703819, 0.02278333716094494, -0.0366450659930706, -0.02821040153503418, -0.009643743745982647, 0.03772331029176712, 0.13529950380325317, 0.08032602071762085, -0.003802788909524679, 0.07532697170972824, 0.0293639674782753, 0.11327221244573593, 0.029639478772878647, 0.038264378905296326, 0.07073910534381866, -0.022795069962739944, 0.07201442867517471, 0.007004798389971256, -0.040152303874492645, -0.0010251675266772509, 0.08163734525442123, 0.04741586372256279, 0.05699864402413368, 0.11238846182823181, 0.03721869736909866, -0.008678847923874855, 0.0704098641872406, -0.01943666860461235, 0.04359936714172363, -0.03391861915588379, -0.09683385491371155, -0.024689869955182076, -0.04045279324054718, 0.02341909520328045, -0.04997991770505905, 0.21745410561561584, 0.20979507267475128, 0.05849318578839302, 0.25263774394989014, 0.033450040966272354, 0.0607820563018322, -0.021083375439047813, 0.028832480311393738, -0.034439634531736374, -0.08104735612869263, -0.05801424756646156, 0.05652022734284401, -0.14954549074172974, -0.03410821035504341, 0.1131732389330864, 0.06717772036790848, -0.03512576222419739, 0.07460828125476837, 0.06985950469970703, 0.0879315435886383, 0.048872970044612885, -0.08222705125808716, 0.024186719208955765, 0.0025489176623523235, -0.03242120146751404, -0.05359760671854019, 0.032302744686603546, 0.0026272654067724943, -0.09862759709358215, -0.06690821796655655, 0.04308154061436653, -0.04262871667742729, 0.06119178235530853, 0.11552080512046814, -0.030548198148608208, 0.0579727478325367, 0.04696972668170929, 0.05809111148118973, -0.022337984293699265, -0.03979047015309334, -0.0724162757396698, -0.0435621552169323, 0.04758540913462639, 0.021290479227900505, 0.035483911633491516, 0.05289062112569809, -0.10598120093345642, -0.03496083244681358, 0.0636727511882782, 0.10212830454111099, -0.010172429494559765, -0.04095017910003662, -0.02491755038499832, -0.006077906582504511, -0.056343793869018555, -0.10749807953834534, 0.023068012669682503, -0.06848873198032379, 0.018407296389341354, -0.015146242454648018, 0.06705198436975479, 0.1376892775297165, -0.01631155051290989, 0.1519179493188858, -0.04991127550601959, 0.12765109539031982, 0.018453067168593407, 0.13940313458442688, 0.010070298798382282, 0.011972575448453426, -0.048184946179389954, 0.0665232241153717, 0.029590027406811714], [0.04193945229053497, 0.13942380249500275, 0.08239900320768356, 0.0585128553211689, -0.051734212785959244, 0.06583426892757416, -0.03806481510400772, 0.18445119261741638, -0.048637505620718, 0.11611439287662506, 0.028900248929858208, -0.058949921280145645, -0.08292727917432785, 0.016391364857554436, -0.01466414425522089, 0.047150321304798126, 0.03799622878432274, 0.05179977044463158, -0.04478926211595535, 0.08962871879339218, 0.06580916792154312, -0.06980075687170029, 0.002020804909989238, 0.012934301979839802, -0.01910119690001011, -0.07038310170173645, 0.13161210715770721, -0.06077117100358009, 0.05248689278960228, -0.07325714826583862, 0.09856761246919632, 0.03813770040869713, 0.06963744014501572, 0.007571134250611067, 0.04965466260910034, -0.061563119292259216, 0.12394537031650543, 0.07820115238428116, -0.09146934002637863, 0.018797198310494423, -0.081012062728405, 0.11054385453462601, -0.10449836403131485, -0.06953311711549759, -0.07971116900444031, 0.019094889983534813, 0.09780330955982208, -0.02018979750573635, 0.045922692865133286, 0.04107723385095596, 0.06113304942846298, 0.07705846428871155, 0.1308189183473587, -0.06476032733917236, 0.10606113076210022, -0.02987978793680668, -0.018999824300408363, -0.08940241485834122, -0.037205036729574203, -0.029351431876420975, 0.27159547805786133, 0.1485959142446518, 0.09527131915092468, 0.062272559851408005, 0.11626332253217697, 0.11870285123586655, 0.06310311704874039, 0.0014789629494771361, 0.004956209100782871, 0.08004675060510635, -0.02693205326795578, -0.019815605133771896, -0.036907557398080826, -0.1217542365193367, 0.1268717497587204, -0.0002576897095423192, -0.06656742095947266, -0.01427291426807642, 0.042343948036432266, -0.037018027156591415, 0.09554652124643326, 0.06542248278856277, -0.01963730901479721, -0.015018589794635773, -0.026842918246984482, -0.06196722760796547, 0.04233131557703018, 0.038883719593286514, 0.1263376921415329, -0.06949860602617264, 0.18229617178440094, 0.023759977892041206, 0.016818808391690254, 0.06450170278549194, -0.011956184171140194, -0.016048511490225792, 0.03618014603853226, 0.2884666323661804, 0.10445556044578552, 0.005851771216839552, 0.09178326278924942, 0.002248553792014718, -0.041892651468515396, -0.06797946244478226, -0.05103740468621254, 0.04245336353778839, -0.0887492299079895, 0.08437339216470718, -0.019437814131379128, -0.02396174520254135, 0.05484163388609886, 0.0645584836602211, 0.10547065734863281, 0.06686834245920181, 0.01147693395614624, -0.08312952518463135, 0.11669154465198517, -0.052398450672626495, 0.012665700167417526, -0.052131831645965576, -0.01817483641207218, 0.04647376015782356, 0.10989240556955338, -0.020662911236286163, 0.02615351974964142, -0.06987407058477402, -0.03642146661877632, 0.1680993139743805, 0.06534029543399811, 0.0893121138215065, -0.02426077052950859, 0.18143916130065918, 0.019742630422115326], [0.13831545412540436, 0.16089189052581787, 0.04715319350361824, -0.0076379310339689255, -0.034095361828804016, 0.05102401226758957, -0.07051537185907364, 0.16338539123535156, -0.02776857279241085, 0.021131234243512154, 0.012556669302284718, 0.015134568326175213, -0.05032435804605484, -0.07665909081697464, 0.023949021473526955, 0.11410290002822876, 0.024567965418100357, 0.03345568850636482, -0.013440068811178207, 0.09945894032716751, 0.035194385796785355, -0.07576119154691696, -0.02453857846558094, -0.1216602623462677, -0.015984423458576202, -0.07702556252479553, -0.04150240495800972, 0.010223613120615482, 0.023797128349542618, -0.045543354004621506, 0.04434817656874657, 0.05533517897129059, 0.017521647736430168, 0.009114922024309635, -0.04070921987295151, -0.001145623275078833, -0.26020607352256775, 0.1365818977355957, 0.00965434405952692, -0.1003546267747879, 0.011675295419991016, -0.03856905177235603, 0.034003160893917084, -0.068714939057827, -0.05373376980423927, 0.12448882311582565, 0.0592808872461319, -0.049003757536411285, -0.024489184841513634, 0.10969650000333786, 0.014394483529031277, 0.0028980255592614412, 0.07281851023435593, 0.023643627762794495, -0.047586601227521896, -0.03916524723172188, 0.03127724304795265, -0.010697835125029087, -0.048170529305934906, 0.08007079362869263, 0.1538822054862976, 0.14700250327587128, 0.10754945129156113, 0.15819178521633148, 0.1650504320859909, -0.00914732739329338, 0.07269351184368134, 0.0054177455604076385, 0.05786317586898804, -0.055750392377376556, -0.09597480297088623, -0.09568680077791214, -0.08610957860946655, 0.060276150703430176, -0.034278132021427155, -0.16183528304100037, -0.04807041212916374, 0.02429364249110222, 0.03246521204710007, 0.027367444708943367, 0.09414985775947571, 0.005707183387130499, 0.1306486278772354, 0.06880360096693039, 0.0837952196598053, 0.005491402931511402, -0.0017262602923437953, -0.03357566520571709, -0.05843869224190712, 0.0035224261227995157, 0.17691941559314728, 0.02231786400079727, 0.11688483506441116, 0.09760892391204834, 0.029341554269194603, 0.10079041868448257, 0.04894179478287697, 0.06918787956237793, -0.0074643101543188095, -0.027013249695301056, 0.05886589363217354, -0.020503977313637733, 0.04892968386411667, 0.0316445454955101, 0.025071270763874054, 0.05597668141126633, -0.10127319395542145, -0.019156064838171005, 0.031251758337020874, -0.0034870398230850697, 0.014774417504668236, 0.08565730601549149, 0.07321912795305252, 0.11704276502132416, -0.00018120203458238393, 0.057517386972904205, -0.028870098292827606, -0.0859253779053688, -0.04904508218169212, 0.09909466654062271, 0.11919521540403366, 0.08433704078197479, 0.027704650536179543, -0.05420583859086037, -0.01754140667617321, -0.0829303190112114, -0.03364229574799538, 0.1339927762746811, 0.11785047501325607, 0.0931888148188591, -0.06302689760923386, 0.1115647405385971, -0.015217301435768604], [0.041086189448833466, -0.09455104172229767, -0.020916862413287163, 0.05294661596417427, -0.050726935267448425, 0.056483346968889236, 0.006480154115706682, -0.061749596148729324, -0.02498648129403591, 0.12405943125486374, 0.044105734676122665, -0.10105987638235092, 0.07348332554101944, -0.04806048050522804, 0.013064022175967693, -0.09997016936540604, -0.0894295871257782, -0.014603949151933193, -0.08077070116996765, -0.06928936392068863, 0.07372181117534637, -0.10981395840644836, -0.08876670151948929, -0.02275916375219822, -0.007465129718184471, -0.07304590940475464, 0.027053890749812126, 0.05237014964222908, 0.054957982152700424, -0.007357035763561726, 0.005617426708340645, 0.02722536399960518, -0.06093375384807587, 0.07391975820064545, -0.031218888238072395, 0.043460190296173096, -0.10162393748760223, -0.04922106862068176, -0.07530947029590607, 0.053777046501636505, -0.03274805471301079, -0.05389637127518654, 0.06846253573894501, -0.32229083776474, -0.0851418524980545, 0.04270631819963455, -0.01096557080745697, -0.0840316191315651, 0.02840006723999977, 0.019435258582234383, 0.054687563329935074, 0.07357580214738846, 0.026864835992455482, -0.05047434940934181, 0.09538483619689941, -0.08501908928155899, 0.05462030693888664, -0.026005709543824196, 0.002867299597710371, -0.08375801146030426, -0.046152472496032715, 0.025517703965306282, -0.030804065987467766, 0.013631816953420639, 0.030416715890169144, -0.05023914948105812, 0.06739801168441772, 0.041152313351631165, 0.011367453262209892, 0.07156490534543991, -0.04224170371890068, -0.01167528610676527, -0.0638442113995552, 0.04943377524614334, -0.1203252375125885, -0.07567065954208374, 0.008200466632843018, 0.003716054605320096, -0.02152841165661812, -0.02886785939335823, -0.11669977009296417, -0.017071906477212906, 0.03223007172346115, 0.0939134806394577, -0.06007600203156471, -0.010688245296478271, -0.04023658484220505, -0.09993941336870193, -0.01323775015771389, -0.01061193272471428, -0.03660636395215988, -0.018084902316331863, -0.07772329449653625, 0.04993453994393349, 0.043969713151454926, 0.00019090167188551277, 0.0556616373360157, 0.06418097019195557, -0.04951466992497444, 0.0685873031616211, -0.08586891740560532, 0.03442341834306717, 0.06362403929233551, 0.03142023831605911, -0.08147719502449036, -0.08638934046030045, 0.004088846035301685, 0.02441553771495819, 0.052875813096761703, -0.04567289352416992, -0.0364706888794899, -0.04321470484137535, -0.0105892987921834, -0.04977107048034668, -0.03260386362671852, -0.05707210674881935, -0.09036679565906525, 0.044218678027391434, -0.06309115886688232, -0.06673955917358398, -0.08361757546663284, 0.020733969286084175, 0.03190190717577934, -0.03503970056772232, -0.1339230090379715, 0.04582635685801506, -0.024165384471416473, 0.06310724467039108, 0.07685475796461105, -0.10454437881708145, -0.07541139423847198, 0.04622136801481247, -0.15810759365558624], [0.08736728876829147, 0.0422682985663414, 0.11625053733587265, 0.012623253278434277, 0.008846280165016651, -0.10134617984294891, 0.14723782241344452, -0.08154159039258957, 0.03781738877296448, -0.05402915179729462, -0.03978047892451286, 0.05417687073349953, 0.09631478041410446, -0.24698171019554138, 0.03610866516828537, -0.023912394419312477, -0.056876085698604584, 0.008744487538933754, 0.04228319972753525, -0.024883795529603958, -0.08239854872226715, 0.16992120444774628, -0.01239284873008728, -0.026238642632961273, -0.1107492446899414, -0.07740690559148788, -0.18935033679008484, -0.04714607074856758, -0.03475194796919823, 0.02246338501572609, 0.0020539858378469944, 0.07501215487718582, 0.0935545265674591, 0.036730170249938965, 0.09149279445409775, -0.06431997567415237, -0.09031554311513901, -0.1803923100233078, -0.1035950556397438, -0.2041761875152588, -0.04865681752562523, -0.02717551216483116, -0.029147595167160034, 0.03545445576310158, -0.14408187568187714, 0.13421575725078583, -0.037045616656541824, 0.042935971170663834, 0.015558317303657532, 0.006843376439064741, -0.13533344864845276, -0.008503754623234272, -0.08729949593544006, -0.016344593837857246, -0.19191698729991913, 0.0562041811645031, -0.14368197321891785, -0.06749394536018372, 0.014955632388591766, -0.05422084406018257, 0.015051071532070637, -0.1564883440732956, -0.07469350099563599, -0.05178040266036987, -0.03901493176817894, 0.15782664716243744, 0.010381118394434452, -0.0036948518827557564, -0.023610154166817665, -0.11789968609809875, 0.009285807609558105, -0.15700384974479675, -0.25696250796318054, -0.017946768552064896, 0.08616762608289719, 0.0385124571621418, 0.012941389344632626, 0.09951987117528915, -0.01242940966039896, -0.02765996754169464, 0.09136443585157394, -0.05864457041025162, -0.01209606695920229, -0.13303068280220032, -0.13662385940551758, 0.06450223922729492, 0.019625233486294746, -0.08407169580459595, 0.06207280978560448, 0.09794776141643524, 0.09164385497570038, 0.09506228566169739, 0.0913710668683052, 0.011956640519201756, -0.006398824974894524, -0.11309408396482468, -0.18112879991531372, -0.11742694675922394, -0.11262013763189316, -0.17150220274925232, -0.0445396862924099, -0.04961709678173065, -0.08251762390136719, 0.0017925542779266834, 0.02588580921292305, 0.0025595910847187042, -0.0047466941177845, 0.12600791454315186, 0.021299339830875397, 0.022695669904351234, -0.025986647233366966, 0.10126176476478577, 0.008375085890293121, -0.02388164959847927, -0.049108926206827164, -0.010134321637451649, 0.12679646909236908, -0.014039858244359493, 0.03620203956961632, 0.025423023849725723, 0.02279176376760006, -0.0331701822578907, -0.17998771369457245, 0.22143231332302094, 0.0868244543671608, 0.04617105424404144, 0.01118595153093338, 0.00778502132743597, -0.05785653740167618, 0.06763555854558945, 0.18480704724788666, -0.1842697262763977, 0.13928338885307312], [-0.024768440052866936, -0.06467926502227783, 0.08550792187452316, -0.11719837039709091, -0.062102824449539185, -0.025167590007185936, 0.009564865380525589, 0.003588310442864895, 0.10554885119199753, 0.16955164074897766, -0.050516411662101746, 0.035352472215890884, -0.016781888902187347, 0.004751702304929495, 0.11910896003246307, -0.0389665849506855, 0.0012917853891849518, -0.1054888367652893, -0.08409646153450012, -0.028276735916733742, -0.03032495640218258, -0.04355465620756149, -0.005692270118743181, 0.009136964567005634, 0.12604178488254547, -0.12642036378383636, 0.1631121188402176, -0.04022877290844917, -0.046433646231889725, 0.015556271187961102, 0.03773503750562668, 0.03298028185963631, 0.01462311577051878, 0.02679799683392048, -0.015520765446126461, -0.06722351163625717, -0.052248723804950714, -0.10924103856086731, -0.03380313143134117, -0.06609946489334106, 0.021116144955158234, 0.04952050745487213, -0.015009746886789799, -0.017153091728687286, 0.06312096863985062, 0.07664620876312256, 0.03827286139130592, 0.07597924768924713, -0.08739329129457474, -0.03196718543767929, 0.0750802680850029, 0.008247196674346924, 0.06733699887990952, -0.10312490165233612, 0.11474797129631042, -0.00769761623814702, -0.040341224521398544, -0.06418721377849579, 0.2272355556488037, -0.08290088921785355, -0.09285944700241089, -0.014426479116082191, -0.05341379716992378, -0.1278248429298401, 0.00850855652242899, 0.011042013764381409, 0.09926248341798782, -0.06290114670991898, -0.07924223691225052, 0.039566848427057266, 0.0012248398270457983, -0.0761675015091896, 0.011683429591357708, -0.0611993707716465, 0.031204739585518837, -0.06878340244293213, 0.008659054525196552, -0.02555265463888645, 0.0055526369251310825, -0.08058930188417435, 0.12489409744739532, 0.07207764685153961, 0.006758472882211208, -0.0406733900308609, 0.08830316364765167, 0.038104791194200516, 0.1142159029841423, 0.0022390217054635286, -0.07237895578145981, 0.0659022256731987, 0.058540213853120804, 0.04180126264691353, 0.08115782588720322, -0.07719544321298599, -0.10730628669261932, 0.07278818637132645, 0.1428220272064209, 0.008114773780107498, -0.08244645595550537, 0.06817711889743805, -0.01786939799785614, 0.07773054391145706, -0.05219355970621109, -0.031543973833322525, -0.022142786532640457, 0.005805192049592733, -0.09468954056501389, -0.0512574166059494, -0.08749443292617798, -0.019294116646051407, 0.006885299924761057, -0.03236057981848717, -0.06056424230337143, 0.09449027478694916, 0.012073241174221039, -0.1547076255083084, -0.03507540002465248, -0.006821097806096077, -0.02116997167468071, 0.0005193542456254363, -0.02074439264833927, 0.07844770699739456, 0.12048693001270294, 0.042915213853120804, -0.020887233316898346, -0.012194891460239887, -0.09788832068443298, 0.12116753309965134, -0.0065844799391925335, 0.1626584231853485, 0.0705798789858818, -0.012050945311784744, 0.06557395309209824], [-0.08808820694684982, -0.23876473307609558, -0.13279326260089874, -0.004543966613709927, -0.0020477664656937122, -0.06745801120996475, -0.05937043949961662, -0.039177317172288895, -0.06792645901441574, 0.0754779577255249, -0.05078894644975662, -0.040381040424108505, -0.09586761146783829, -0.04453282058238983, -0.07378613948822021, -0.0026214185636490583, -0.0018683401867747307, 0.060218695551157, -0.062318939715623856, -0.036561913788318634, -0.008915022946894169, -0.10470250248908997, 0.007816259749233723, -0.07451307028532028, 0.11256576329469681, -0.04207868129014969, 0.06993354111909866, -0.2726425528526306, 0.03823525458574295, -0.03864268586039543, -0.10791362822055817, -0.08726757764816284, -0.0725475549697876, 0.0022463432978838682, 0.060104768723249435, -0.11327987164258957, 0.003479968523606658, -0.03890349343419075, -0.039787206798791885, 0.07196993380784988, -0.013369479216635227, 0.038744743913412094, -0.08858621120452881, -0.016268029808998108, -0.045307502150535583, -0.1264486461877823, -0.005239810328930616, -0.09270505607128143, -0.03682730719447136, -0.010830679908394814, 0.05034012347459793, 0.002055630786344409, 0.07672242820262909, 0.028236623853445053, 0.07266966253519058, -0.03597690910100937, 0.03476047143340111, -0.061258308589458466, -0.11519565433263779, 0.10816206783056259, 0.02771800011396408, 0.06172836199402809, -0.031716108322143555, 0.07997994869947433, 0.060747239738702774, -0.019360439851880074, 0.033279478549957275, -0.17989389598369598, -0.06578399240970612, -0.04645770043134689, -0.11325465887784958, -0.039571043103933334, -0.05232361704111099, 0.024834327399730682, 0.09545627981424332, 0.023996321484446526, 0.01524526160210371, -0.03697911277413368, -0.13575343787670135, -0.05861981585621834, -0.0642828643321991, 0.07046421617269516, -0.06245891749858856, 0.059002455323934555, 0.11002419888973236, -0.08723185956478119, -0.039287272840738297, -0.023096568882465363, -0.013770163990557194, 0.047522254288196564, -0.050280895084142685, -0.025814371183514595, -0.0035269472282379866, -0.08539416640996933, 0.03405613452196121, 0.04007861763238907, 0.10260215401649475, 0.0767715722322464, 0.06402014195919037, 0.0878743976354599, -0.04553581774234772, -0.02020612545311451, -0.016614466905593872, -0.05541994422674179, 0.2816876471042633, 0.045748189091682434, 0.007951290346682072, -0.060762036591768265, -0.0861290767788887, 0.0019797980785369873, -0.023246383294463158, 0.07638493925333023, -0.016186248511075974, -0.041296157985925674, -0.010677192360162735, -0.11375520378351212, -0.06772198528051376, 0.009080505929887295, 0.012011044658720493, 0.06310208141803741, 0.09427651762962341, 0.050137635320425034, 0.11539682745933533, -0.11950922012329102, -0.16856980323791504, 0.03330035135149956, -0.020509518682956696, -0.0013907912652939558, 0.027152279391884804, 0.04599766060709953, 0.09999636560678482, 0.16252082586288452, -0.031344737857580185], [0.13780856132507324, 0.05383022502064705, 0.09551233053207397, -0.013604136183857918, -0.0895223468542099, -0.07534942030906677, 0.014715372584760189, 0.059317853301763535, -0.002389951143413782, -0.01833316683769226, -0.06133342534303665, -0.034791577607393265, -0.025516711175441742, -0.10996974259614944, -0.020790375769138336, 0.15806877613067627, 0.0284916702657938, 0.11721181124448776, 0.07560421526432037, 0.05884324386715889, 0.08941061049699783, -0.16829372942447662, -0.003950606100261211, -0.12188258767127991, 0.06081080809235573, -0.07379691302776337, 0.07712873816490173, -0.10009538382291794, -0.10035024583339691, -0.06602071970701218, 0.1399112045764923, 0.11264821141958237, -0.022471003234386444, 0.012307181023061275, -0.009552246890962124, -0.022727815434336662, -0.02613651566207409, 0.12922543287277222, 0.040830034762620926, 0.01624664105474949, -0.10708911716938019, -0.00973045825958252, -0.058772481977939606, -0.10276274383068085, 0.08777488023042679, 0.056226663291454315, 0.03613195940852165, 0.05100467801094055, 0.02494276873767376, 0.014536579139530659, 0.010755117051303387, 0.0550086535513401, 0.1560860276222229, 0.060440149158239365, 0.08736010640859604, 0.012858168222010136, 0.003333921078592539, 0.0638468787074089, -0.04292048141360283, -0.00836919341236353, 0.20670314133167267, 0.0692899227142334, 0.07310637086629868, 0.09938083589076996, 0.09949534386396408, 0.08160559833049774, 0.11641731858253479, 0.02609993889927864, -0.07265910506248474, 0.07430805265903473, -0.006052172277122736, -0.15659354627132416, 0.032968536019325256, 0.03831961005926132, 0.05743325501680374, 0.08613533526659012, -0.013724181801080704, 0.040621209889650345, 0.09086371958255768, -0.004530423320829868, 0.0024815117940306664, 0.03412266820669174, 0.05953380465507507, 0.05281051620841026, 0.04113122448325157, -0.07827311754226685, 0.05999356508255005, 0.09159411489963531, -0.02245558798313141, 0.20412194728851318, 0.11686311662197113, 0.11088991910219193, 0.03223290294408798, 0.018178164958953857, 0.02760542556643486, 0.021237274631857872, -0.01846962608397007, -0.015510039404034615, -0.0810660645365715, -0.04092485457658768, -0.051553256809711456, 0.02467229589819908, -0.06843408197164536, 0.048642441630363464, 0.04677237942814827, 0.1918596774339676, 0.008230198174715042, 0.1024274006485939, 0.09279324859380722, 0.10902838408946991, -3.3642048947513103e-05, -0.02494747005403042, -0.039293695241212845, -0.00596386706456542, -0.05663028731942177, -0.15133458375930786, -0.030280113220214844, -0.03898363560438156, 0.02552129700779915, 0.050927046686410904, 0.11336947977542877, 0.11633127927780151, 0.13569459319114685, 0.1270260512828827, 0.11908290535211563, 0.03082718327641487, 0.05254882946610451, 0.03269994631409645, 0.20627082884311676, 0.021219762042164803, 0.12447667121887207, 0.12561294436454773, 0.061777908354997635], [0.11773253977298737, 0.06506515294313431, -0.012958694249391556, 0.017677612602710724, 0.0763402208685875, 0.028059201315045357, -0.0029624945018440485, 0.058032337576150894, -0.061183054000139236, -0.09114106744527817, 0.06345940381288528, -0.05680820345878601, -0.06883887201547623, -0.06379127502441406, 0.04099675640463829, 0.11527174711227417, -0.06270638853311539, -0.012640999630093575, 0.061201658099889755, 0.045569274574518204, 0.016926437616348267, 0.000462135998532176, 0.09871794283390045, -0.04734343662858009, -0.1859014332294464, -0.050624214112758636, 0.055841781198978424, 0.059269100427627563, -0.006067376118153334, 0.09037905186414719, 0.033034227788448334, 0.08151382952928543, 0.08629394322633743, 0.060396309942007065, 0.03977266699075699, 0.04749726131558418, 0.06257886439561844, -0.004905602894723415, -0.04437117278575897, -0.04836025461554527, 0.049615614116191864, -0.09457828849554062, 0.07970806211233139, 0.08070969581604004, 0.0894550085067749, 0.16441963613033295, -0.003381255315616727, -0.11707289516925812, 0.12000434845685959, 0.12485602498054504, 0.013476415537297726, -0.048575129359960556, -0.03496761620044708, 0.05970039963722229, -0.01020162645727396, 0.06035365164279938, -0.041537366807460785, 0.011528429575264454, 0.06187169626355171, 0.027333220466971397, 0.11950474977493286, 0.013435964472591877, 0.005502179730683565, 0.06711363792419434, 0.033130500465631485, 0.028393471613526344, -0.009033160284161568, 0.03182085603475571, -0.13439375162124634, 0.036648303270339966, 0.07109104096889496, 0.05464302748441696, -0.08295232802629471, 0.02228456921875477, 0.05096116662025452, 0.1899319887161255, 0.003120155306532979, -0.031635310500860214, 0.1094379872083664, 0.07259638607501984, 0.05898703634738922, -0.09542720019817352, 0.06830167770385742, -0.1746869534254074, -0.023366112262010574, 0.03078349120914936, 0.04945852607488632, -0.016827795654535294, -0.037141960114240646, -0.00935882143676281, 0.008929446339607239, 0.11068180203437805, -0.0456107072532177, -0.018878772854804993, -0.03688828647136688, -0.0631362795829773, -0.009996174834668636, 0.033550117164850235, -0.057776544243097305, -0.023865265771746635, -0.05152420327067375, -0.12884096801280975, 0.0005762327928096056, -0.04191254824399948, 0.07330227643251419, 0.04899789020419121, 0.006772987544536591, 0.02683798037469387, 0.06151900440454483, -0.012268700636923313, -0.08967529237270355, 0.0502348355948925, 0.07499856501817703, -0.0064472053200006485, 0.025233328342437744, 0.059496354311704636, -0.10725706070661545, -0.03934132307767868, -0.037431854754686356, -0.05351322516798973, 0.053640298545360565, -0.07005475461483002, -0.17962822318077087, 0.1309603899717331, -0.049495670944452286, -0.020716875791549683, 0.052800409495830536, 0.04658224433660507, -0.006898812483996153, 0.044028785079717636, -0.02805730327963829, 0.058756954967975616, -0.0677846372127533], [0.22228357195854187, 0.12781482934951782, 0.009915981441736221, 0.021235572174191475, -0.040742386132478714, 0.09375602006912231, 0.07386858761310577, 0.15547823905944824, -0.044832743704319, 0.13891535997390747, -0.02232418768107891, -0.0026000910438597202, 0.029279252514243126, -0.02304898016154766, -0.020944012328982353, 0.02275759167969227, 0.050147924572229385, 0.013853420503437519, 0.04298023506999016, -0.03560304269194603, -0.0016247002640739083, -0.0284831915050745, 0.09807760268449783, 0.0116733992472291, 0.10457710176706314, -0.04294438287615776, -0.0011953635839745402, 0.004767879843711853, 0.012756203301250935, -0.029233913868665695, 0.17682738602161407, 0.00014411791926249862, 0.14783987402915955, -0.030590998008847237, -0.03985590860247612, 0.12755092978477478, -0.01727241836488247, 0.0265043955296278, -0.07302786409854889, 0.05143053084611893, -0.07113214582204819, -0.04411312937736511, 0.019471589475870132, 0.03286588564515114, -0.03026164136826992, 0.15436241030693054, -0.006585340015590191, 0.06308111548423767, 0.008836559019982815, 0.08589933067560196, 0.11830513924360275, 0.05625173822045326, 0.17027799785137177, -0.044843968003988266, -0.06181159242987633, -0.06930806487798691, -0.06074998155236244, -0.012006079778075218, -0.0034026531502604485, 0.059222202748060226, 0.220495343208313, 0.18177083134651184, 0.10492207854986191, 0.035031966865062714, 0.08303383737802505, 0.02127753756940365, -0.04146729037165642, -0.05796530842781067, -0.0035134502686560154, -0.07256609946489334, -0.014507545158267021, 0.11063700914382935, 0.03540291637182236, 0.004854884929955006, 0.03653107210993767, 0.1018720269203186, -0.20027321577072144, 0.10006530582904816, -0.031018180772662163, 0.0378202460706234, 0.06549197435379028, -0.023426013067364693, 0.004517266992479563, 0.07880091667175293, -0.005606171675026417, -0.07836436480283737, 0.02011670172214508, 0.043789513409137726, -0.04691655933856964, 0.04082902520895004, 0.09059582650661469, 0.07347123324871063, 0.09268657118082047, 0.030151857063174248, -0.04754192382097244, 0.05730685591697693, 0.06506649404764175, -0.04130127653479576, -0.074456125497818, 0.05351314693689346, -0.0008523646392859519, 0.09623216092586517, 0.004754181951284409, 0.008662979118525982, 0.016374602913856506, 0.008395727723836899, -0.07392123341560364, 0.015169394202530384, -0.06564562022686005, -0.08078025281429291, 0.03171514347195625, 0.10915159434080124, 0.05979607626795769, -0.028954951092600822, 0.0826432928442955, -0.053126804530620575, -0.006949051283299923, -0.04055027663707733, -0.0307018905878067, -0.03858558461070061, 0.09091022610664368, 0.12598390877246857, 0.09506718814373016, 0.00815911591053009, -0.05358938127756119, -0.10632967948913574, 0.04005219042301178, 0.1591319888830185, -0.0501394048333168, 0.02566457912325859, -0.02552359364926815, -0.006318920757621527, 0.1394990235567093], [0.050629597157239914, 0.08242273330688477, 0.06040312349796295, 0.02869691699743271, -0.020960312336683273, 0.08225174993276596, -0.08619028329849243, 0.13424994051456451, -0.003090839134529233, 0.007899444550275803, -0.12467852979898453, -0.03137219697237015, 0.02434137463569641, -0.09026551991701126, -0.014324059709906578, 0.11069604009389877, 0.12593795359134674, 0.059856440871953964, 0.017700886353850365, -0.04279816895723343, 0.18080785870552063, -0.05904119461774826, 0.056850332766771317, -0.1095183864235878, 0.06641440093517303, 0.015356633812189102, 0.08710356801748276, 0.00855208095163107, 0.023186273872852325, -0.04580104723572731, 0.11896664649248123, 0.1337050497531891, -0.021039145067334175, 0.047190386801958084, -0.05783500522375107, 0.06524185091257095, 0.02709978260099888, 0.12353044748306274, 0.011739014647901058, 0.01471693255007267, -0.007266710978001356, 0.035519033670425415, -0.0984797328710556, 0.052946045994758606, -0.03782901540398598, 0.12062440812587738, -0.008429520763456821, -0.023242203518748283, -0.02936514839529991, 0.001960291527211666, -0.019697217270731926, 0.060843173414468765, 0.081819549202919, 0.008505933918058872, 0.05292524769902229, -0.024314746260643005, -0.02283349633216858, -0.026583323255181313, -0.0013953193556517363, -0.04893164709210396, 0.18073806166648865, 0.08464705944061279, 0.08651420474052429, 0.12076527625322342, 0.09213447570800781, -0.008169110864400864, 0.034880444407463074, -0.03987842798233032, -0.0457054078578949, -0.07428344339132309, -0.08357594907283783, -0.12993662059307098, 0.006047980859875679, 0.02851730026304722, -0.03371738642454147, -0.009140564128756523, -0.06434404104948044, 0.019552087411284447, -0.05405689403414726, 0.06561281532049179, 0.08181007951498032, 0.1485038697719574, 0.007971425540745258, 0.12095450609922409, 0.08645141869783401, -0.07277213782072067, 0.030487598851323128, 0.025147659704089165, 0.05126827955245972, -0.04266742244362831, 0.0472356453537941, -0.04224018380045891, 0.05988254025578499, -0.005526366177946329, -0.09280644357204437, 0.06496617197990417, 0.07175853848457336, 0.08704587817192078, 0.026837710291147232, 0.09889481216669083, -0.048896968364715576, -0.003313046880066395, 0.008058024570345879, 0.05236722528934479, 0.04735685512423515, 0.11291489750146866, -0.09561870247125626, -0.05458910018205643, 0.06856613606214523, -0.08387399464845657, -0.010948455892503262, -0.0578305758535862, -0.05045048147439957, -0.04228794574737549, 0.05006657913327217, -0.07332980632781982, -0.04468000680208206, 0.08612164109945297, 0.04513239115476608, 0.003569649998098612, 0.1249365285038948, 0.0842466875910759, 0.13517747819423676, 0.023530419915914536, 0.02243701182305813, 0.01840032823383808, -0.020374244078993797, 0.1385158747434616, 0.00039339999784715474, 0.1355385035276413, 0.09401911497116089, 0.06970112770795822, -0.06332618743181229], [0.03951456397771835, -0.03991232439875603, -0.14125746488571167, -0.08391311019659042, -0.0032912814058363438, 0.03783182054758072, -0.06648668646812439, 0.11367791146039963, 0.16071531176567078, -0.0839703232049942, -0.0076825800351798534, -0.04493219405412674, -0.09803540259599686, 0.04345807805657387, -0.007356473244726658, 0.05093124881386757, -0.020007213577628136, 0.08488742262125015, -0.031764790415763855, 0.01967344805598259, 0.044862598180770874, 0.03779051452875137, -0.024851756170392036, 0.014945587143301964, 0.040361519902944565, -0.06275439262390137, -0.14341627061367035, -0.030430369079113007, -0.06193770095705986, -0.22958670556545258, 0.07798684388399124, 0.015912875533103943, 0.06689441204071045, -0.03896684944629669, -0.027098828926682472, 0.016657447442412376, 0.005242614075541496, 0.05730757117271423, 0.052902236580848694, 0.15079990029335022, -0.02387862838804722, 0.13408635556697845, -0.011606286279857159, -0.07260607182979584, 0.03615252301096916, -0.006957428064197302, -0.0774884968996048, -0.11602220684289932, -0.08332027494907379, -0.05024215206503868, 0.12585653364658356, 0.044614341109991074, 0.03985218703746796, -0.0909842699766159, 0.05149444192647934, -0.07342074811458588, 0.08822359144687653, -0.0798134058713913, 0.013129672035574913, -0.06935287266969681, 0.07912354171276093, 0.08116172254085541, -0.034873344004154205, -0.002326416550204158, 0.049769192934036255, 0.05886157602071762, 0.06159175932407379, -0.002191510982811451, -0.08695453405380249, -0.0577249713242054, -0.10651737451553345, -0.04720382019877434, -0.0010991344461217523, -0.06027054414153099, -0.014357378706336021, -0.015985801815986633, 0.028254464268684387, 0.10371392220258713, -0.08717606216669083, 0.022735632956027985, 0.036994513124227524, 0.10516191273927689, 0.10170076042413712, 0.06871848553419113, -0.010494607500731945, -0.034778859466314316, -0.017549067735671997, -0.08380500972270966, -0.1043931171298027, -0.05762380361557007, -0.0806284099817276, -0.0016455582808703184, -0.021372083574533463, -0.026864998042583466, -0.061261970549821854, -0.12781549990177155, 0.1251526027917862, 0.04822203516960144, -0.07999764382839203, 0.058377981185913086, -0.09568671137094498, 0.08708634227514267, -0.05498200282454491, 0.050210509449243546, -0.016371412202715874, -0.0030019853729754686, 0.019477875903248787, -0.0837862491607666, 0.07171562314033508, -0.014398235827684402, 0.1238778680562973, -0.0011679058661684394, 0.11866555362939835, 0.0862572118639946, -0.04527752473950386, -0.07318115234375, -0.05001142993569374, -0.055936459451913834, 0.016161542385816574, -0.0674687847495079, 0.20547790825366974, 0.05327284336090088, 0.06521758437156677, -0.07086307555437088, 0.01217085961252451, -0.07946666330099106, 0.027932889759540558, 0.00691270874813199, 0.052292682230472565, 0.015461688861250877, 0.040263667702674866, 0.17185133695602417, 0.007770884316414595], [0.08340737968683243, 0.10194315016269684, -0.0803091824054718, -0.03739336505532265, 0.04825866222381592, 0.07767239212989807, -0.09140058606863022, 0.1363763064146042, -0.05442056059837341, -0.11870923638343811, -0.08096487820148468, -0.05749567970633507, -0.05868479609489441, -0.037785567343235016, -0.045427918434143066, 0.10842079669237137, 0.0998385101556778, 0.08516255766153336, -0.0509655587375164, 0.012769445776939392, 0.0268293134868145, -0.035165511071681976, 0.01764245517551899, -0.013167113065719604, 0.0441199354827404, -0.07236558943986893, -0.01472674310207367, 0.010058620013296604, 0.007310694549232721, -0.05753258988261223, 0.16149269044399261, 0.15858429670333862, -0.007965117692947388, 0.055283233523368835, -0.025916503742337227, -0.08037891983985901, 0.0367233045399189, 0.0032108796294778585, 0.0884748324751854, -0.013094812631607056, -0.02041890285909176, -0.040229905396699905, 0.057511065155267715, -0.05932436138391495, -0.008069396018981934, 0.09123262017965317, -0.012715950608253479, -0.2044387310743332, 0.11226671189069748, -0.02787151373922825, 0.08499856293201447, 0.03521670773625374, 0.0482451356947422, -0.016948232427239418, -0.05861635506153107, -0.02196287363767624, 0.08744429051876068, -0.08795662969350815, -0.0017870190786197782, -0.03006640262901783, 0.15652234852313995, 0.08325354754924774, 0.03258401155471802, 0.08867636322975159, 0.17375688254833221, 0.1583690345287323, 0.07010214030742645, 0.08474840223789215, -0.06448972970247269, -0.06959889829158783, -0.0980762466788292, -0.08448877185583115, -0.002677817130461335, -0.07073593139648438, -0.0038821769412606955, 0.026658732444047928, -0.009799129329621792, -0.0401189848780632, -0.02974569983780384, 0.0018502329476177692, 0.014017668552696705, -0.00530906580388546, -0.007884804159402847, 0.007364045828580856, 0.01792907528579235, -0.0159581508487463, -0.027168534696102142, -0.06240202486515045, -0.0818701907992363, -0.04525745287537575, 0.032150544226169586, -0.059368763118982315, 0.005161955952644348, 0.044157590717077255, -0.008533444255590439, -0.013243459165096283, 0.08645350486040115, 0.02909970097243786, -0.02505006082355976, 0.05991189181804657, -0.009110935032367706, -0.02966494672000408, 0.040949746966362, 0.039316873997449875, -0.03383520990610123, 0.3138667047023773, -0.0036211300175637007, 0.05424021929502487, 0.07272488623857498, -0.06099417805671692, -0.056839264929294586, -0.042234908789396286, -0.044524598866701126, -0.12513437867164612, 0.07150793075561523, -0.08423573523759842, -0.02366648241877556, 0.002077204640954733, -0.05987074226140976, 0.0396219901740551, -0.025463730096817017, 0.15309551358222961, 0.025859642773866653, 0.01924828067421913, -0.03930771350860596, 0.0035781138576567173, -0.04216744750738144, 0.15809252858161926, 0.006788529455661774, 0.03094375878572464, 0.022545259445905685, 0.14724361896514893, -0.07195577025413513], [-0.007389030419290066, -0.028414729982614517, 0.0918460562825203, 0.0006913897814229131, -0.029987948015332222, -0.08530697971582413, 0.061384592205286026, 0.059824246913194656, 0.11279783397912979, 0.10790327191352844, -0.11352141946554184, -0.017527008429169655, 0.015395399183034897, 0.050482358783483505, 0.038344606757164, -0.04770682379603386, -0.0441143624484539, 0.038499876856803894, 0.005805570166558027, -0.13899458944797516, 0.06639591604471207, 0.09425590932369232, -0.002788949990645051, 0.03834611922502518, 0.05664081871509552, -0.02885350026190281, -0.0041758413426578045, -0.05204441398382187, -0.05992322787642479, 0.1349983662366867, -0.061336737126111984, 0.08193034678697586, -0.05764133110642433, -0.07608630508184433, -0.04090986028313637, 0.13136026263237, 0.01944354549050331, 0.004935416392982006, -0.0708591416478157, 0.06738261878490448, 0.04163293167948723, -0.07514873892068863, -0.03292926028370857, 0.05622902140021324, 0.05239725112915039, 0.016368070617318153, 0.0838235393166542, -0.03032844327390194, -0.07447201013565063, -0.043233051896095276, 0.004483104217797518, -0.052171505987644196, -0.13488835096359253, -0.05153803899884224, -0.2272949069738388, 0.009638413786888123, 0.031159335747361183, -0.00855868961662054, -0.02145053818821907, 0.0361899770796299, 0.002145433099940419, -0.04661257565021515, -0.40879470109939575, -0.12476706504821777, -0.10605063289403915, 0.08215846121311188, 0.02004283294081688, 0.030262695625424385, -0.11056560277938843, -0.03562488406896591, 0.24703927338123322, 0.04548618197441101, -0.05371002107858658, 0.0033656172454357147, 0.03466559201478958, -0.037098225206136703, -0.020068123936653137, 0.07683037221431732, -0.061017971485853195, -0.0030456851236522198, 0.02546541765332222, -0.04427233338356018, 0.05591001361608505, -0.03616534546017647, -0.018400520086288452, 0.05169585719704628, 0.05068838968873024, -0.051232777535915375, -0.04806670919060707, -0.034017499536275864, 0.03937286138534546, -0.006569161079823971, 0.10779747366905212, -0.01844813860952854, 0.0525754950940609, 0.0012510459637269378, 0.018190234899520874, 0.05233001336455345, -0.08819274604320526, -0.05978165566921234, 0.08158323913812637, 0.08682048320770264, 0.131883442401886, -0.007600205950438976, -0.09416583925485611, 0.0591127872467041, -0.11073969304561615, -0.05480377376079559, -0.0026494991034269333, 0.030318455770611763, -0.03260806202888489, 0.09471133351325989, 0.11138961464166641, 0.03411184623837471, 0.1003817543387413, -0.09767469018697739, 0.1103110983967781, -0.032602228224277496, 0.03590492531657219, 0.09119965881109238, -0.010072766803205013, -0.03304671868681908, -0.043388865888118744, 0.1665400117635727, -0.09001414477825165, -0.016546815633773804, -0.10747670382261276, 0.08972682058811188, -0.01631547138094902, 0.06388896703720093, -0.04637519270181656, -0.00184144068043679, -0.006806896533817053], [0.08684350550174713, 0.06154155731201172, 0.1543978899717331, 0.0014619744615629315, -0.08682510256767273, 0.05784381181001663, -0.058552756905555725, 0.005972078535705805, -0.10085511952638626, -0.056200869381427765, 0.042433831840753555, -0.013018934987485409, -0.06054830178618431, 0.05086514353752136, -0.06939905136823654, 0.03565660119056702, 0.1268264502286911, 0.13172127306461334, 0.06997204571962357, 0.0011299942852929235, -0.0272857453674078, 0.07352243363857269, -0.00281732389703393, -0.11253631114959717, -0.044719189405441284, 0.04073034226894379, 0.05701776593923569, -0.11096605658531189, -0.09928402304649353, -0.10924184322357178, 0.1770285815000534, -0.005821362603455782, 0.13193751871585846, 0.08642561733722687, 0.07542059570550919, -0.07505854964256287, 0.09630737453699112, 0.06659170985221863, 0.018833132460713387, 0.0736410841345787, -0.09346948564052582, 0.0038625048473477364, -0.07572554051876068, -0.08987829834222794, -0.05713566392660141, 0.03469071909785271, 0.07653765380382538, 0.07443506270647049, 0.00792363565415144, 0.09076967090368271, -0.04322149232029915, -0.006199245806783438, 0.0692996233701706, -0.0899854227900505, 0.02964233234524727, -0.05265923589468002, 0.10086824744939804, 0.009800669737160206, 0.0420365072786808, 0.05332976207137108, 0.17053982615470886, 0.22507743537425995, 0.08526740968227386, 0.11003193259239197, 0.05688365548849106, 0.12763886153697968, 0.01752207614481449, 0.054767511785030365, 0.04908228665590286, -0.03699376806616783, -0.01586088538169861, 0.023671036586165428, -0.11285747587680817, 0.0449615903198719, 0.00097461580298841, 0.056006066501140594, 0.09111400693655014, -0.02819693274796009, -0.04023473337292671, 0.005792418494820595, 0.031224029138684273, 0.010577685199677944, -0.01975589618086815, -0.03724271059036255, -0.08961236476898193, 0.03690427169203758, -0.07997933030128479, 0.02813641168177128, -0.0971042737364769, -0.0271714199334383, 0.18337728083133698, -0.02576729841530323, 0.07188545912504196, 0.07599366456270218, 0.038878683000802994, -0.09567324072122574, -0.14141623675823212, -0.09376120567321777, -0.07167604565620422, -0.023347172886133194, -0.02140622027218342, -0.03032311238348484, -0.02848934195935726, -0.06463842839002609, 0.03562462329864502, 0.11938277631998062, -0.07918799668550491, 0.031479012221097946, 0.06794960796833038, -0.04134676977992058, 0.0771598219871521, -0.19399738311767578, 0.09163737297058105, 0.02180810272693634, -0.05486096814274788, 0.033112481236457825, 0.028224430978298187, -0.04079321399331093, 0.053457111120224, -0.12371339648962021, 0.08125133812427521, 0.06639546900987625, 0.1161552295088768, 0.010364923626184464, 0.025430724024772644, 0.05228456109762192, 0.007636686321347952, 0.06349613517522812, -0.027326226234436035, 0.05721054971218109, 0.10103750228881836, 0.11349409818649292, 0.02635509893298149], [-0.17210228741168976, -0.11552783846855164, -0.12206962704658508, -0.18700653314590454, -0.07998432964086533, 0.0014796335017308593, -0.09139329940080643, -0.12731555104255676, -0.03520546853542328, -0.030260831117630005, -0.033230703324079514, 0.03585575520992279, -0.11005562543869019, -0.02973075956106186, -0.05342075973749161, -0.08543369919061661, 0.024115899577736855, -0.05625829100608826, -0.006954935844987631, -0.31300780177116394, 0.03791045770049095, 0.06655982881784439, -0.045564234256744385, 0.12181238830089569, 0.15056495368480682, 0.001511070760898292, 0.06815776228904724, 0.026854073628783226, 0.07079765200614929, 0.1335557997226715, -0.20972146093845367, -0.0911119356751442, -0.025194624438881874, -0.1080150157213211, -0.011742030270397663, 0.014801280573010445, 0.020634204149246216, -0.03476623073220253, 0.029857216402888298, 0.04905864968895912, -0.05797877907752991, 0.01694968156516552, 0.036278560757637024, 0.042991653084754944, -0.0056480541825294495, -0.08426206558942795, -0.0980965867638588, 0.0031809525098651648, -0.09381204098463058, -0.049417246133089066, -0.1292126476764679, 0.11428102105855942, -0.002631997922435403, 0.23640966415405273, 0.13836264610290527, -0.0018020112765952945, 0.06580262631177902, -0.026339085772633553, 0.011528543196618557, -0.02079200930893421, -0.3545810580253601, -0.14899428188800812, -0.10812938213348389, -0.21904580295085907, -0.1742958128452301, -0.02230643481016159, -0.021153368055820465, -0.09939276427030563, 0.016550254076719284, -0.04026281088590622, -0.05276551842689514, 0.04195982590317726, -0.034085918217897415, 0.003274240531027317, 0.030070077627897263, -0.13650314509868622, -0.14223825931549072, -0.025494417175650597, -0.16014473140239716, -0.037423208355903625, 0.03248734399676323, -0.08869943022727966, -0.1034320592880249, -0.0454404279589653, 0.10911557078361511, 0.04965607076883316, 0.002980120712891221, -0.01583898440003395, -0.11142724007368088, 0.07520880550146103, -0.11415571719408035, -0.08869874477386475, -0.1119803786277771, -0.08700495958328247, -0.036226242780685425, 0.0479484498500824, -0.059226684272289276, 0.0591331422328949, -0.046386610716581345, 0.09426694363355637, -0.025701336562633514, 0.07523979991674423, -0.0957895889878273, -0.18814866244792938, -0.05055757611989975, -0.024433746933937073, 0.08868975192308426, -0.011929294094443321, -0.09574085474014282, -0.05480286478996277, 0.08009559661149979, -0.0969451367855072, -0.12459801137447357, -0.028444383293390274, 0.00324733997695148, -0.07615654170513153, -0.0673304870724678, -0.09523254632949829, 0.020167609676718712, -0.032520994544029236, 0.03448319807648659, 0.02482960745692253, 0.012707971036434174, 0.016446880996227264, 0.011252226307988167, -0.08438669890165329, -0.05760037899017334, -0.04995732754468918, -0.0028744470328092575, -0.04991399869322777, 0.0573844313621521, -0.002662770915776491, 0.06765860319137573], [0.06340473145246506, 0.14147812128067017, 0.01016074139624834, -0.07461310923099518, -0.0703141838312149, -0.04541626572608948, -0.14491184055805206, 0.009836160577833652, 0.024805588647723198, -0.04778860881924629, 0.015706656500697136, -0.08384878933429718, -0.09266723692417145, -0.12186022102832794, -0.05808185413479805, 0.05227595567703247, -0.025991592556238174, 0.0024624380748718977, 0.05235173553228378, 0.06569341570138931, 0.03123178891837597, 0.04057268053293228, 0.09714562445878983, -0.13039854168891907, 0.08027514815330505, -0.028805097565054893, 0.06517984718084335, 0.11442406475543976, -0.11123895645141602, -0.007886243984103203, 0.09046515822410583, -0.0051957075484097, -0.036219749599695206, 0.09222585707902908, -0.042516984045505524, 0.1881946176290512, -0.06904967874288559, 0.029280710965394974, -0.07040388882160187, 0.0928155928850174, -0.10860757529735565, 0.10047931969165802, -0.07115432620048523, -0.11691152304410934, 0.0369039922952652, 0.07563305646181107, 0.09782322496175766, -0.15469208359718323, 0.027331462129950523, 0.08188588172197342, 0.02459954470396042, 0.086460642516613, 0.11408401280641556, -0.028519783169031143, 0.01285151019692421, -0.018657857552170753, -0.12313970178365707, -0.022191422060132027, 0.022188102826476097, 0.1722734570503235, 0.12162172794342041, 0.13430142402648926, 0.11336927860975266, 0.11271494626998901, 0.10480793565511703, 0.1461869329214096, 0.08982205390930176, 0.1908620148897171, -0.0038324655033648014, -0.015268810093402863, -0.048479095101356506, -0.1094372421503067, -0.06986812502145767, 0.03104703314602375, 0.05886097997426987, -0.010207874700427055, 0.06603237986564636, 0.012296090833842754, 0.0019161868840456009, 0.08609988540410995, -0.07001510262489319, 0.14417296648025513, 0.11674059927463531, 0.14469584822654724, -0.0276460163295269, 0.04262804612517357, 0.22458575665950775, -0.027761517092585564, -0.11310213804244995, -0.055984366685152054, 0.06426002830266953, -0.0615866519510746, 0.061852630227804184, -0.053751591593027115, -0.0423823781311512, 0.020640160888433456, 0.054893963038921356, -0.1069440171122551, -0.008561029098927975, 0.030308468267321587, -0.08682959526777267, 0.0765388011932373, -0.08639054000377655, -0.06271883100271225, -0.20806756615638733, 0.002778311027213931, 0.030140817165374756, -0.0019494113512337208, -0.05368152633309364, 0.07920058071613312, 0.07053280621767044, -0.026290344074368477, -0.044336915016174316, 0.09437573701143265, -0.0044729094952344894, -0.06275906413793564, -0.03079303167760372, 0.07000800967216492, 0.025586044415831566, -0.07100372016429901, -0.00556949432939291, 0.1423841267824173, 0.12050545960664749, 0.030675113201141357, -0.04054832458496094, -0.04792008921504021, -0.05477374047040939, 0.12452336400747299, 0.06801729649305344, 0.1718890517950058, 0.07996856421232224, 0.10133916139602661, 0.01857047528028488], [0.16951227188110352, 0.019447986036539078, -0.036842212080955505, -0.037907540798187256, -0.04147195816040039, 0.06086748093366623, -0.11848007887601852, 0.09181497991085052, 0.060179948806762695, -0.024980418384075165, -0.07883363962173462, -0.04029769450426102, 0.00857385341078043, 0.019093617796897888, -0.028928041458129883, 0.033199574798345566, -0.07443024218082428, 0.007127193734049797, -0.0165565125644207, -0.047220319509506226, -0.007980028167366982, 0.006799692753702402, 0.0766352191567421, -0.004251356236636639, 0.07791793346405029, -0.08529046177864075, -0.027766017243266106, 0.07754437625408173, -0.16735203564167023, -0.016868073493242264, 0.08002696186304092, 0.1319839209318161, 0.03276175633072853, -0.04012919217348099, -0.02082442119717598, -0.0009555551805533469, 0.12675103545188904, -0.006327623967081308, -0.02089766599237919, -0.0649748146533966, 0.05124027654528618, 0.04294203966856003, 0.030767956748604774, -0.06984025985002518, -0.02669891156256199, 0.021840108558535576, 0.10263004899024963, -0.010239957831799984, -0.001643985859118402, 0.01933128573000431, -0.07706688344478607, -0.03017446957528591, 0.14583398401737213, 0.007351998705416918, -0.0037652826867997646, 0.05794461816549301, -0.03684711456298828, -0.10183810442686081, -0.03746220842003822, 0.05937332287430763, 0.1950264573097229, 0.12729158997535706, 0.16854289174079895, 0.059227366000413895, 0.095458984375, 0.07205179333686829, -0.044821493327617645, -0.03286624327301979, -0.1287957727909088, -0.08798079192638397, 0.2795048952102661, 0.06148400157690048, -0.08542647957801819, -0.08674260973930359, 0.026591045781970024, -0.029433365911245346, -0.07734963297843933, -0.030236804857850075, 0.13608311116695404, 0.009612281806766987, -0.06214878708124161, 0.021043814718723297, 0.11382493376731873, -0.098377525806427, 0.057218365371227264, -0.0680941790342331, 0.08626154065132141, -0.025411289185285568, -0.04421092942357063, 0.013266964815557003, -0.09362655878067017, -0.12061662971973419, -0.0022399434819817543, 0.04084506630897522, -0.005166362971067429, -0.025126423686742783, -0.042762309312820435, -0.041501861065626144, 0.06311193853616714, 0.01644665189087391, -0.03946875408291817, 0.12300252169370651, -0.10181944072246552, 0.062432609498500824, -0.004196183290332556, 0.32239261269569397, -0.06771387904882431, -0.01081247627735138, 0.01079879142343998, 0.08585795760154724, 0.10136924684047699, -0.1892436146736145, -0.003103594295680523, -0.05996505543589592, -0.07540015876293182, 0.019266687333583832, 0.006391341332346201, 0.022273357957601547, -0.1395937204360962, -0.06893745809793472, 0.07391902804374695, 0.030486613512039185, 0.08154384791851044, -0.04324565827846527, -0.028203878551721573, 0.03690114617347717, -0.07597413659095764, 0.0021991024259477854, -0.0608825720846653, 0.047704193741083145, -0.0804038867354393, -0.011207220144569874, -0.04934461787343025], [-0.17466717958450317, -0.006845874711871147, -0.0032435560133308172, -0.05588623136281967, 0.013331480324268341, 0.05336261913180351, -0.0321865975856781, 0.017629103735089302, 0.0958528146147728, 0.10423214733600616, -0.07586349546909332, -0.0686408281326294, -0.09538362175226212, 0.058009661734104156, -0.013960783369839191, -0.013830263167619705, 0.06430962681770325, -0.017459262162446976, 0.0542287714779377, -0.04859389364719391, 0.06603031605482101, -0.06176375597715378, -0.03201666846871376, -0.05498179793357849, -0.03445214405655861, -0.08377214521169662, 0.0724584236741066, 0.04471181333065033, -0.08322519809007645, -0.06094914302229881, 0.0425473153591156, 0.012372116558253765, -0.03362151235342026, -0.00694288732483983, -0.06758249551057816, -0.08942415565252304, -0.05556446686387062, -0.004027700051665306, -0.1569650024175644, -0.0440007708966732, -0.09730250388383865, 0.040560562163591385, 0.02543070539832115, 0.04445628821849823, 0.005307513289153576, -0.08940432220697403, -0.067243792116642, 0.0668022632598877, -0.09289468824863434, -0.012060360983014107, -0.004074918106198311, -0.0441485196352005, -0.03334692493081093, 0.032965872436761856, -0.0025770931970328093, 0.001997194951400161, -0.04112521559000015, -0.12169149518013, -0.029131973162293434, -0.010427973233163357, 0.06928227841854095, 0.023208491504192352, -0.12707841396331787, 0.014525208622217178, 0.028553375974297523, 0.12288206070661545, 0.07565011829137802, 0.04843015596270561, 0.03680367395281792, -0.03707517310976982, 0.037365976721048355, -0.008832558058202267, -0.018468409776687622, -0.042307049036026, 0.06865629553794861, 0.04665004089474678, 0.0679403766989708, -0.047117579728364944, -0.10026751458644867, 0.052009060978889465, 0.15366476774215698, 0.097726009786129, 0.05220586434006691, 0.030156612396240234, 0.14093801379203796, -0.06061561405658722, 0.0629199892282486, 0.02710718661546707, -0.01851763390004635, -0.038572508841753006, 0.017658255994319916, -0.06427212804555893, -0.023397821933031082, -0.12013373523950577, -0.057278648018836975, 0.0091041075065732, 0.11736155301332474, -0.006396007724106312, -0.0372304804623127, 0.030395884066820145, 0.04675625264644623, 0.03681257367134094, -0.03319983556866646, -0.07216252386569977, 0.17843091487884521, -0.01964573748409748, -0.05847468227148056, -0.09570314735174179, -0.10409988462924957, -0.07274322956800461, 0.03229421004652977, 0.08881150186061859, 0.010181485675275326, 0.006812072824686766, 0.16320675611495972, -0.09347213804721832, -0.03132183477282524, 0.05125652626156807, -0.09477818757295609, 0.06176714971661568, 0.025097951292991638, 0.07010270655155182, 0.2106836438179016, -0.1948254555463791, 0.08091723918914795, -0.012089540250599384, -0.05923972651362419, 0.023006480187177658, 0.10459421575069427, 0.012049831449985504, 0.01909218356013298, -0.051782965660095215, -0.01114349253475666], [0.11069425940513611, 0.20577946305274963, 0.29053807258605957, -0.07063174992799759, -0.027640780434012413, 0.08336445689201355, -0.05603818595409393, 0.03333839029073715, 0.0017170733772218227, 0.031942591071128845, 0.0506221279501915, 0.0868707075715065, -0.026211172342300415, 0.012221863493323326, 0.11154531687498093, 0.02507476694881916, 0.057694848626852036, 0.025796586647629738, 0.05430290848016739, 0.0228771660476923, 0.0380047969520092, -0.04340146481990814, 0.061534903943538666, -0.02255239151418209, -0.08769506961107254, -0.017312828451395035, 0.10373544692993164, -0.06322041153907776, 0.15576164424419403, -0.02089080587029457, 0.17107698321342468, -0.030332498252391815, 0.07246121019124985, -0.02348499372601509, -0.03544890880584717, -0.1084008663892746, 0.02080393210053444, -0.002060438971966505, 0.0411086343228817, -0.08195678144693375, -0.04236526042222977, 0.04061320051550865, 0.03220713138580322, -0.02939319796860218, -0.10617497563362122, 0.1346815526485443, 0.09648501873016357, 0.05036737024784088, 0.057458456605672836, 0.05509115010499954, 0.05944673717021942, 0.07168009877204895, 0.07737679034471512, -0.046783994883298874, -0.05429135635495186, -0.0007561302045360208, -0.06500796228647232, -0.046748146414756775, -0.0710851326584816, -0.07914511859416962, 0.2887409031391144, 0.4444328844547272, 0.03572620078921318, 0.002445572754368186, 0.04971619322896004, 0.040305621922016144, 0.05229638144373894, 0.07061735540628433, -0.015287374146282673, -0.00967076513916254, -0.012058008462190628, -0.029560908675193787, 0.004439685959368944, -0.07891259342432022, 0.026683006435632706, 0.061872031539678574, 0.052818719297647476, 0.11370254307985306, 0.06301427632570267, 0.07545088976621628, 0.052171166986227036, 0.02367784082889557, -0.027275191619992256, 0.0862220898270607, -0.0013125548139214516, -0.018481425940990448, 0.025641532614827156, 0.056811001151800156, -0.03311837837100029, -0.026380781084299088, 0.1994115114212036, 0.04247676953673363, 0.1262681484222412, 0.018499983474612236, -0.06253940612077713, 0.02685226872563362, -0.04861418902873993, -0.0013590474845841527, 0.04677097871899605, -0.01035800389945507, 0.028242547065019608, -0.00566291157156229, -0.07015509158372879, -0.006537518929690123, -0.07452818006277084, 0.1508866846561432, 0.02993030846118927, 0.10383761674165726, -0.1386234611272812, 0.0069884248077869415, -0.06583600491285324, 0.01498711109161377, 0.038359951227903366, 0.07481580227613449, 0.06617448478937149, -0.06338265538215637, 0.10723006725311279, -0.01607302948832512, 0.08129821717739105, -0.16516953706741333, 0.16481268405914307, 0.08560117334127426, -0.033393796533346176, 0.1867414265871048, 0.04856238514184952, 0.05192911624908447, -0.10589120537042618, 0.013023849576711655, 0.12603344023227692, 0.06645027548074722, 0.022044355049729347, 0.08985626697540283, 0.11157125234603882], [0.02562941610813141, -0.018499989062547684, 0.0713643878698349, -0.06096261367201805, -0.05222515016794205, 0.06837894022464752, -0.026006631553173065, -0.01423222292214632, -0.06913033127784729, 0.03966319561004639, -0.04039565846323967, -0.014143736101686954, -0.08017964661121368, 0.053671594709157944, 0.02645176649093628, 0.11395839601755142, -0.04372026026248932, 0.10064642876386642, 0.06707196682691574, -0.015819504857063293, -0.02323765866458416, 0.01133346650749445, -0.02683171257376671, 0.005121447145938873, 0.047203417867422104, 0.03901732340455055, -0.04477010667324066, 0.034685660153627396, -0.042491938918828964, -0.0855017900466919, 0.10045114159584045, 0.0008838151698000729, 0.06903398782014847, 0.10493744909763336, -0.038656629621982574, 0.04482992738485336, 0.06902371346950531, 0.03163014352321625, -0.02172049880027771, -0.04378689080476761, 0.0008112487266771495, -0.03441109508275986, -0.08276232331991196, -0.07382569462060928, -0.05329960957169533, 0.15088027715682983, 0.10729996114969254, -0.039815597236156464, 0.08670584857463837, 0.0795433297753334, 0.11938390880823135, 0.02126024290919304, 0.2068748027086258, 0.0073505365289747715, 0.0765734389424324, -0.034334033727645874, 0.0775570273399353, -0.10078877955675125, -0.05323655530810356, -0.05291051045060158, 0.23506386578083038, 0.13191188871860504, 0.16247186064720154, 0.017179079353809357, 0.15436752140522003, 0.15185551345348358, -0.027936598286032677, 0.0750628113746643, -0.10043434053659439, -0.02154836617410183, -0.1071869358420372, -0.01582576520740986, -0.08431055396795273, -0.10549416393041611, -0.014902682043612003, 0.03926916792988777, 0.15423940122127533, 0.007202232256531715, 