{"net.0.weight": [[-0.0655430480837822, -0.0769919827580452, -0.003410493955016136, -0.12202475965023041, -0.1468532830476761, -0.045005928725004196, -0.08862070739269257, -0.10016071051359177, 0.11597023159265518, 0.03747070953249931, -0.06094516068696976, -0.05478791147470474, -0.01980004832148552, -0.021109197288751602, 0.05228104814887047, -0.2143254429101944, -0.04168134555220604, -0.061694931238889694, -0.1576918363571167, -0.13906531035900116, 0.03007906675338745, 0.07623246312141418, -0.058931220322847366, 0.07318077981472015, -0.020321320742368698, 0.03379438817501068, -0.036167651414871216, 0.006524431984871626, -0.000129968102555722, 0.03795503079891205, -0.11612611263990402, -0.10743217170238495, -0.02028944529592991, -0.08886676281690598, -0.1786825954914093, -0.01731603592634201, -0.051288265734910965, -0.06919055432081223, 0.03983548656105995, 0.025267282500863075, -0.09229930490255356, 0.07830516248941422, -0.06449256837368011, 0.056966353207826614, -0.06132690981030464, -0.004785760771483183, -0.07857651263475418, -0.019079826772212982, -0.0339074581861496, -0.057802312076091766, -0.0005254546413198113, 0.0791170597076416, -0.10315003991127014, 0.06317442655563354, 0.06426937878131866, 0.0012624319642782211, 0.07006696611642838, -0.10479075461626053, -0.09314281493425369, -0.05782271921634674, -0.29996904730796814, -0.20273569226264954, -0.1206330731511116, -0.12246660888195038, -0.19791582226753235, 0.040607742965221405, -0.0077697657980024815, -0.0025410675443708897, 0.07169502973556519, 0.025317031890153885, 0.033942244946956635, 0.010981098748743534, 0.05206133425235748, 0.0653304010629654, -0.07699164003133774, -0.1005888283252716, -0.14245188236236572, -0.07506860047578812, -0.0830664411187172, 0.025812847539782524, -0.05420362576842308, -0.09323948621749878, 0.012725631706416607, -0.09095951169729233, 0.05068130046129227, -0.05882347375154495, 0.003945721313357353, -0.055569663643836975, -0.025672588497400284, 0.04978087544441223, -0.17348212003707886, 0.022410456091165543, -0.033302947878837585, -0.07421831786632538, -0.1184787005186081, 0.04331072047352791, -0.029315700754523277, 0.01707174815237522, 0.0168447382748127, -0.04709166660904884, -0.05892535299062729, 0.09821365773677826, -0.028257213532924652, -0.058389075100421906, -0.01243067067116499, -0.15828761458396912, -0.08274328708648682, -0.12370995432138443, -0.0696796104311943, -0.027104537934064865, -0.05070330575108528, -0.06449126452207565, -0.08494937419891357, 0.1251319795846939, -0.02407536283135414, 0.0020816007163375616, 0.010525781661272049, -0.0857323706150055, 0.030201813206076622, -0.06164870038628578, 0.021916106343269348, -0.05321517586708069, 0.07251694053411484, -0.009758983738720417, -0.01499762013554573, -0.035663899034261703, 0.02672453410923481, 0.0660734474658966, 0.09572921693325043, 0.06564869731664658, 0.03921979293227196, -0.008501813746988773, -0.0012113096890971065], [-0.19491097331047058, -0.18173359334468842, -0.06499211490154266, -0.07892130315303802, -0.09605676680803299, -0.024399295449256897, -0.00022370670922100544, -0.007646363694220781, -0.06516586989164352, -0.056287992745637894, -0.045052070170640945, -0.08651257306337357, -0.05184709653258324, 0.0012184911174699664, 0.11484526097774506, -0.12308000773191452, 0.04153331369161606, -0.07495862990617752, 0.015046471729874611, -0.13068702816963196, 0.08009862899780273, -0.032029781490564346, -0.08497411012649536, -0.08197032660245895, 0.03348429873585701, 0.0035317675210535526, 0.06348433345556259, 0.04130681976675987, -0.06455016881227493, -0.1349964588880539, -0.1583009511232376, -0.17398540675640106, -0.07867839187383652, 0.009263395331799984, -0.0815366730093956, 0.059852235019207, 0.0030349865555763245, -0.07258465886116028, 0.01395999826490879, 0.023828070610761642, -0.0795111432671547, -0.034400131553411484, -0.0760565772652626, -0.10581473261117935, -0.007171361707150936, -0.01619870774447918, 0.01836770586669445, -0.12032673507928848, -0.10318181663751602, -0.011090615764260292, -0.054303351789712906, 0.0324096642434597, 0.1060146689414978, 0.09884736686944962, 0.021770255640149117, -0.0052561829797923565, 0.031680066138505936, -0.0786232203245163, -0.08084585517644882, 0.07194620370864868, -0.25902628898620605, -0.05805568769574165, -0.03204212710261345, -0.07836221903562546, -0.04463283345103264, 0.08542340993881226, -0.004736326634883881, -0.0781940445303917, 0.016948996111750603, 0.11474452167749405, -0.04789750277996063, 0.04846891760826111, -0.01849440112709999, -0.06635422259569168, 0.11455955356359482, -0.16304241120815277, -0.1389056146144867, -0.005303720943629742, -0.017465852200984955, -0.08239322155714035, -0.0008792903972789645, 0.1600436568260193, -0.08183132857084274, 0.1063530370593071, 0.15142978727817535, 0.00812475848942995, 0.018970996141433716, -0.08459866046905518, 0.005855222698301077, 0.02634902112185955, -0.03655285760760307, -0.12496839463710785, -0.12492179870605469, -0.08198103308677673, -0.022198457270860672, 0.013136937282979488, 0.009623062796890736, 0.0030197426676750183, 0.15433675050735474, 0.16941815614700317, 0.04673248529434204, 0.08215385675430298, 0.025284985080361366, 0.0005196069250814617, 0.09272756427526474, -0.07286769151687622, -0.038653891533613205, -0.007805973757058382, -0.1511896401643753, -0.03919563069939613, 0.028214646503329277, -0.09186039119958878, -0.017658157274127007, 0.08933937549591064, 0.1083277091383934, -0.034056857228279114, -0.11051344126462936, -0.07710437476634979, -0.0029257016722112894, 0.024420039728283882, 0.08945222944021225, 0.04055415838956833, 0.07518485188484192, -0.10394076257944107, -0.10643430799245834, -0.08524249494075775, -0.06873971223831177, -0.0361175462603569, 0.005006378050893545, 0.012747151777148247, -0.012186501175165176, 0.08335885405540466, -0.026639634743332863], [0.124656081199646, 0.16986282169818878, -0.02292613685131073, -0.05698709189891815, -0.08357175439596176, -0.006543021183460951, 0.001925733988173306, -0.05995030328631401, -0.035987984389066696, 0.02285831980407238, -0.04169372841715813, -0.013511866331100464, 0.015262624248862267, -0.006848958786576986, 0.01694728620350361, 0.20186325907707214, 0.12142297625541687, 0.029228009283542633, 0.11103767901659012, 0.0855620950460434, 0.03078913502395153, 0.012077799998223782, -0.022881047800183296, 0.015041057951748371, 0.04844198375940323, 0.002753248903900385, -0.010641944594681263, 0.04860393702983856, 0.0653238520026207, -0.03625477850437164, -0.05261550843715668, 0.10690514743328094, 0.0955977812409401, -0.07579432427883148, 0.07563745975494385, 0.01838303543627262, -0.023797428235411644, 0.07460028678178787, 0.010593871586024761, 0.06477641314268112, -0.020508132874965668, -0.08928687125444412, 0.07432262599468231, -0.07092632353305817, 0.03793368116021156, -0.09143185615539551, -0.045182496309280396, 0.03650843724608421, -0.039949800819158554, 0.06367242336273193, -0.0021972910035401583, 0.07775796204805374, -0.06046128645539284, 0.0033778874203562737, 0.04349904507398605, 0.02437073551118374, -0.036353226751089096, 0.023183051496744156, -0.08404596894979477, 0.12065562605857849, 0.1583510935306549, 0.17232143878936768, 0.13337655365467072, 0.08034255355596542, 0.030558940023183823, 0.056224312633275986, 0.11989258974790573, -0.058112774044275284, 0.07475116103887558, 0.023898214101791382, -0.06774142384529114, 0.04752874746918678, -0.01883375272154808, -0.049797527492046356, 0.08700551837682724, -0.04815516620874405, -0.010509176179766655, -0.12647898495197296, 0.08261217921972275, 0.014135193079710007, 0.07058638334274292, 0.0662391409277916, 0.10036616027355194, 0.042606696486473083, 0.12312235683202744, -0.04171308875083923, 0.0603007972240448, 0.004610246513038874, 0.031244438141584396, 0.05556325614452362, -0.07438235729932785, 0.08333128690719604, 0.029698457568883896, -0.024571824818849564, 0.09446687251329422, -0.07298710942268372, 0.13627472519874573, -0.054874200373888016, 0.008505178615450859, 0.022983331233263016, 0.017106352373957634, -0.06166503578424454, -0.003734275698661804, 0.01838657073676586, -0.028956925496459007, -0.11587122827768326, -0.00729841273277998, -0.06681844592094421, -0.04760020971298218, -0.03318158909678459, 0.01467683631926775, 0.05828515440225601, 0.01827167347073555, 0.07127765566110611, -0.039749082177877426, -0.09009978175163269, -0.010502023622393608, -0.006065597292035818, -0.0875549465417862, -0.12972335517406464, -0.11274052411317825, -0.04086821898818016, -0.031821031123399734, 0.08151183277368546, 0.10751166194677353, 0.036068689078092575, -0.08906790614128113, -0.028177401050925255, -0.036632344126701355, 0.10700904577970505, 0.06063546612858772, 0.038974229246377945, 0.04436277970671654], [0.024736342951655388, 0.14603732526302338, -0.0121562909334898, 0.11387520283460617, 0.07006752490997314, -0.044704269617795944, 0.022762175649404526, 0.08553218096494675, -0.027085140347480774, -0.01433393731713295, -0.04122709110379219, 0.04355848580598831, -0.09659463912248611, -0.05939503014087677, -0.021036377176642418, 0.051969606429338455, -0.03233620151877403, 0.022112499922513962, 0.009388026781380177, 0.08131470531225204, 0.013288340531289577, -0.03071761503815651, 0.023887496441602707, 0.031126605346798897, 0.015069141983985901, -0.08607923984527588, -0.00485542556270957, -0.018804294988512993, 0.0038815431762486696, 0.08080656826496124, 0.1690434217453003, 0.01106295082718134, 0.0010246310848742723, -0.0028350241482257843, -0.009194750338792801, -0.02333369292318821, -0.02567458339035511, 0.03342538699507713, -0.08113309741020203, 0.02604733407497406, 0.05735516548156738, -0.018929829820990562, -0.033435992896556854, 0.05826706811785698, 0.07538239657878876, 0.14370420575141907, -0.04678788781166077, -0.01784444786608219, 0.13519607484340668, 0.06081889197230339, -0.03977621719241142, 0.11171872168779373, 0.0680445209145546, -0.06690136343240738, 0.045043766498565674, -0.06479574739933014, -0.02517886273562908, -0.08180898427963257, -0.07974211871623993, -0.03133648261427879, 0.2107093185186386, 0.1897883117198944, 0.14930744469165802, 0.1250901073217392, 0.1636071503162384, 0.08492439240217209, 0.08877014368772507, -0.0028750142082571983, -0.0768321231007576, -0.008446975611150265, -0.08351165801286697, -0.0348641462624073, -0.022810425609350204, 0.0550437793135643, 0.13518665730953217, 0.1833517700433731, 0.0778881385922432, 0.04492788761854172, 0.12737467885017395, 0.1088617667555809, 0.025038886815309525, 0.038758620619773865, 0.1239897608757019, 0.0226157084107399, 0.003595788963139057, 0.05913374200463295, 0.03422728553414345, -0.00896851159632206, -0.07858014106750488, -0.08189890533685684, 0.11006257683038712, 0.05348331108689308, 0.11905655264854431, -0.01834627240896225, 0.13132944703102112, 0.06352115422487259, -0.006451259832829237, 0.12430164217948914, -0.08994630724191666, -0.010238103568553925, -0.09537127614021301, -0.038603637367486954, -0.058989208191633224, -0.09411413222551346, 0.024025270715355873, 0.1155388280749321, -0.016806546598672867, -0.05829806625843048, -0.041297927498817444, -0.010214737616479397, 0.026338953524827957, -0.0365569069981575, 0.09645280241966248, 0.07632014155387878, 0.06922999769449234, -0.03162437677383423, 0.028097109869122505, 0.06743818521499634, 0.05783475935459137, -0.02350611984729767, 0.10587870329618454, 0.16134515404701233, 0.009641587734222412, 0.1724812239408493, 0.08793362230062485, 0.061662930995225906, -0.014082039706408978, 0.10134954005479813, 0.12050803005695343, 0.05266789346933365, 0.022597935050725937, 0.11565067619085312, -0.009199797175824642], [-0.05759503319859505, -0.06388776004314423, 0.0040082260966300964, 0.05644235759973526, -0.054165586829185486, 0.025872083380818367, 0.13756965100765228, 0.0646117702126503, 0.10667100548744202, 0.0976012721657753, -0.02983846887946129, -0.040545932948589325, 0.1316225379705429, 0.08312933892011642, -0.00484884949401021, -0.10249419510364532, 0.0030521866865456104, 0.03979490324854851, -0.044814079999923706, 0.0094129154458642, -0.06506553292274475, 0.06643743067979813, -0.0097893625497818, 0.0780186653137207, 0.060244228690862656, 0.03656965494155884, 0.058168333023786545, 0.03596760332584381, 0.10679928958415985, 0.07345297187566757, -0.08055806905031204, -0.06340449303388596, 0.01693681813776493, 0.04632653295993805, -0.03390100970864296, 0.03368755802512169, 0.013941643759608269, 0.03817320987582207, -0.015348507091403008, -0.054817020893096924, 0.12779957056045532, 0.065396748483181, 0.07644901424646378, 0.0005470018368214369, 0.14100028574466705, -0.03627483919262886, -0.06642354279756546, -0.06510423868894577, -0.08176060020923615, 0.0833476334810257, 0.08896275609731674, -0.08531446009874344, 0.01709396205842495, 0.0487508624792099, 0.08894844353199005, 0.12068431079387665, 0.06746207922697067, 0.041666705161333084, 0.05802047625184059, -0.009224696084856987, -0.19611871242523193, -0.17664910852909088, -0.09868588298559189, -0.014646792784333229, -0.11260102689266205, 0.05989469215273857, -0.011579453013837337, 0.05673252046108246, 0.06488016992807388, -0.00846013706177473, 0.12602876126766205, 0.04810844734311104, 0.086286261677742, 0.10665880143642426, -0.04426153004169464, 0.012512892484664917, -0.07382678240537643, 0.06603985279798508, 0.05363433435559273, 0.008594469167292118, -0.01718905381858349, 0.06870485842227936, -0.05893000215291977, 0.012348206713795662, 0.06420599669218063, 0.06555996835231781, 0.039937879890203476, 0.03507714346051216, 0.10528849810361862, 0.03012842871248722, -0.04577482119202614, 0.013974662870168686, -0.09803177416324615, 0.004619106650352478, 0.0019327597692608833, 0.002517145127058029, -0.009569212794303894, -0.08508378267288208, 0.020824918523430824, 0.06331633776426315, 0.05801411718130112, -0.047465670853853226, 0.10490526258945465, -0.020782554522156715, -0.003402773290872574, 0.013932186178863049, -0.015603248961269855, -0.03967846557497978, -0.06609117984771729, -0.004442309495061636, -0.0028177269268780947, 0.04522717744112015, -0.02316712588071823, 0.08658883720636368, 0.023681988939642906, -0.02442185766994953, 0.07401058077812195, 0.02559329755604267, 0.010033449158072472, 0.06485266983509064, -0.08162286132574081, -0.10050038248300552, 0.023710928857326508, -0.09104101359844208, 0.12346336245536804, 0.0714108869433403, 0.014301699586212635, -0.10609342902898788, -0.01736927591264248, 0.0005174629623070359, 0.023702731356024742, -0.030770227313041687, 0.020438415929675102], [-0.015714537352323532, 0.059960413724184036, -0.07410867512226105, 0.028821192681789398, -0.03650254011154175, 0.00739927776157856, 0.03014184534549713, -0.07949448376893997, -0.07815131545066833, -0.03911101818084717, 0.07122590392827988, 0.04826028645038605, 0.0012046662159264088, -0.018801990896463394, 0.012340185232460499, -0.06387359648942947, -0.003555048257112503, -0.03677031397819519, -0.028980709612369537, -0.05124221742153168, 0.03547750040888786, -0.04735834524035454, 0.027618059888482094, 0.047734975814819336, 0.04569164291024208, 0.0613386444747448, 0.05022171139717102, -0.040581114590168, -0.040048904716968536, 0.005922449287027121, -0.006674443371593952, -0.04308145120739937, 0.06618671864271164, 0.007700418122112751, -0.03644535690546036, 0.034315794706344604, 0.056665677577257156, 0.03142792731523514, 0.05511381849646568, -0.06366033107042313, -0.020718352869153023, 0.058726027607917786, 0.06907296925783157, -0.05018430948257446, -0.04483642429113388, 0.017039377242326736, -0.03669709712266922, -0.01792982779443264, -0.014492390677332878, -0.03696269914507866, -0.07217127829790115, 0.04844018444418907, -0.03413849323987961, -0.013404044322669506, 0.010882376693189144, 0.08365986496210098, 0.06320390105247498, -0.08140169829130173, 0.001966433599591255, -0.054217953234910965, -0.04654863476753235, -0.03701252490282059, -0.028836024925112724, 0.03754763677716255, -0.03140741586685181, -0.08292277902364731, -0.02513251081109047, -0.061389755457639694, -0.07056387513875961, -0.04356976971030235, -0.04122618958353996, -0.02469923533499241, -0.0355711467564106, 0.0017021639505401254, -0.07434870302677155, -0.003816981567069888, 0.031097201630473137, 0.06460383534431458, -0.01211581565439701, 0.03876607120037079, -0.05612274631857872, 0.047562360763549805, -0.0869341716170311, 0.02630821242928505, -0.04933251813054085, -0.005550414323806763, 0.0513034351170063, -0.0852852463722229, 0.05117078870534897, 0.03398459032177925, 0.04758438095450401, 0.08289219439029694, 0.0725688561797142, -0.06731744110584259, -0.008706246502697468, -0.07321018725633621, -0.022895697504281998, 0.05961236357688904, 0.03483549878001213, -0.07969006150960922, 0.08119845390319824, -0.015828434377908707, -0.06582695245742798, -0.060361478477716446, -0.05322534590959549, -0.05122264847159386, -0.07953007519245148, 0.06605957448482513, -0.050770364701747894, 0.014580977149307728, -0.07667768746614456, -0.018368491902947426, -0.07495925575494766, 0.05287035554647446, -0.035639334470033646, 0.00789563823491335, 0.041283491998910904, -0.005625707097351551, 0.06642857193946838, 0.02872023731470108, -0.06964553147554398, -0.02623945288360119, 0.06009743735194206, 0.021805623546242714, -0.05271663889288902, -0.0014806266408413649, -0.08332446962594986, 0.03730654716491699, 0.047974713146686554, -0.09607264399528503, -0.0721815675497055, -0.018187060952186584, -0.06181025877594948], [0.020821591839194298, 0.10919727385044098, 0.03201398625969887, 0.011443502269685268, 0.051924221217632294, 0.06724599748849869, 0.00884417537599802, -0.024030115455389023, -0.05130361020565033, -0.10831958800554276, 0.042453013360500336, 0.02482600510120392, -0.08403202891349792, -0.010051042772829533, -0.15383857488632202, 0.1641085296869278, 0.03335900232195854, 0.05637413263320923, 0.0875578373670578, 0.030522914603352547, 0.17898014187812805, 0.08154846727848053, -0.052569612860679626, -0.05981140583753586, -0.00716014439240098, 0.0004951517912559211, 0.06051843985915184, -0.07922142744064331, -0.020413720980286598, -0.0935697853565216, -0.0018432411598041654, 0.00410236231982708, 0.03497656434774399, 0.02340436540544033, 0.030959798023104668, -0.06455907225608826, -0.007664940785616636, 0.1391652524471283, -0.013796927407383919, 0.010693836025893688, -0.09050268679857254, 0.05751655250787735, 0.03957168385386467, -0.037608858197927475, -0.14207839965820312, 0.010450165718793869, -0.04394051805138588, 0.06214945763349533, -0.00859274435788393, -0.0006276904605329037, 0.052446670830249786, 0.07136160880327225, 0.15169064700603485, 0.06820864975452423, 0.028803545981645584, -0.1011970043182373, -0.06507278978824615, -0.015749575570225716, 0.047037407755851746, -0.10711650550365448, 0.11014647036790848, 0.08089140802621841, 0.11602441966533661, 0.06978773325681686, 0.028011975809931755, 0.12570320069789886, 0.02527056448161602, -0.05245653912425041, 0.014826808124780655, 0.04712498560547829, 0.025089869275689125, -0.05304185301065445, -0.09055471420288086, -0.11446913331747055, -0.04707381874322891, 0.0037283324636518955, -0.07986356317996979, 0.028012987226247787, 0.007589058019220829, -0.042486708611249924, -0.08051951974630356, 0.20234009623527527, -0.016202412545681, 0.11066271364688873, 0.08125952631235123, -0.04633953422307968, 0.02687651291489601, -0.025478526949882507, 0.000634137773886323, -0.09530484676361084, 0.11063574254512787, -0.023594213649630547, 0.07767146825790405, 0.045849647372961044, 0.03776341676712036, 0.05465772747993469, 0.14439447224140167, -0.005448180716484785, 0.10042828321456909, 0.15743446350097656, -0.11506639420986176, -0.014352500438690186, -0.07222683727741241, -0.06199480965733528, 0.01808001846075058, 0.13553857803344727, -0.055533867329359055, 0.07863831520080566, -0.07896368205547333, 0.08313409239053726, 0.14974068105220795, 0.11008348315954208, 0.03698478266596794, -0.008184796199202538, -0.06635671108961105, -0.09576724469661713, -0.030349045991897583, 0.005123481620103121, -0.008200998418033123, -0.10876763612031937, 0.011170976795256138, 0.14771366119384766, 0.023421073332428932, -0.03690757974982262, -0.06870519369840622, 0.032293789088726044, -0.07885199040174484, 0.11318811774253845, 0.10083702206611633, -0.015135607682168484, 0.061068370938301086, 0.16475918889045715, -0.0004946707631461322], [0.11292420327663422, 0.14095403254032135, 0.008829332888126373, -0.009377099573612213, 0.14039404690265656, -0.027985095977783203, -0.051690563559532166, 0.1101652979850769, 0.043158285319805145, 0.03885781764984131, -0.0713009461760521, 0.007859716191887856, -0.06865006685256958, -0.06412611156702042, -0.03208727762103081, 0.07824800908565521, -0.027479076758027077, 0.008723579347133636, 0.11907513439655304, -0.02993401139974594, -0.021572912111878395, -0.08149687945842743, 0.04918709024786949, -0.0332021564245224, 0.10309165716171265, -0.0950503721833229, 0.00029698741855099797, -0.0454087108373642, -0.014550160616636276, 0.12595707178115845, 0.162565678358078, 0.10182356834411621, 0.04881632328033447, 0.11874561011791229, 0.11985698342323303, -0.040671080350875854, -0.015067990869283676, 0.12170983105897903, -0.014810748398303986, 0.032202910631895065, -0.09360038489103317, -0.021805739030241966, 0.04151316359639168, -0.08342017978429794, 0.02296341583132744, 0.16005782783031464, -0.0486673042178154, 0.13335062563419342, -0.02666661888360977, 0.07206947356462479, -0.05359886959195137, 0.04716743156313896, 0.052915945649147034, -0.08011037856340408, -0.031853947788476944, 0.01281624287366867, 0.06772404909133911, 0.032235287129879, -0.033084794878959656, 0.020998643711209297, 0.09198128432035446, 0.16359208524227142, 0.011015745811164379, 0.03730243816971779, 0.08124629408121109, 0.14600598812103271, 0.05821804329752922, -0.011888902634382248, -0.002457904862239957, -0.05742357671260834, -0.08578594774007797, -0.03982323408126831, 0.05060524865984917, -0.07517104595899582, 0.02571471408009529, 0.05329500883817673, 0.02621501125395298, 0.046087607741355896, 0.07684973627328873, 0.11666316539049149, -0.014461938291788101, -0.03876927122473717, -0.009451622143387794, -0.07947564125061035, 0.04321841523051262, 0.030327454209327698, -0.011452904902398586, 0.0395016111433506, -0.056846313178539276, -0.055329982191324234, 0.2165912389755249, -0.01560363732278347, 0.061004165560007095, 0.021122075617313385, 0.02495657280087471, 0.04960739612579346, -0.03726230934262276, 0.11096733808517456, -0.08427200466394424, 0.06860627979040146, -0.044225357472896576, -0.005747717805206776, 0.016036272048950195, 0.04976539686322212, -0.02671753615140915, 0.14867843687534332, 0.033655691891908646, -0.030646175146102905, -0.016005005687475204, 0.090553417801857, 0.11426220834255219, -0.0238249022513628, 0.14991718530654907, 0.09531916677951813, 0.012541491538286209, -0.08229284733533859, -0.03192779794335365, -0.08823298662900925, 0.010480042546987534, 0.027463018894195557, 0.12996432185173035, 0.07603930681943893, -0.04973853752017021, 0.16289572417736053, 0.08564819395542145, -0.004714511334896088, -0.02246079221367836, 0.040172822773456573, 0.09680533409118652, 0.016850613057613373, 0.09798680245876312, 0.007762190420180559, 0.1537446826696396], [0.06966232508420944, 0.04095203056931496, -0.05183442309498787, 0.002179458737373352, 0.10570604354143143, 0.06002652272582054, -0.015540197491645813, -0.007306224200874567, -0.011030273512005806, -0.0022399036679416895, -0.08420071750879288, -0.08961221575737, -0.019550541415810585, -0.07828573137521744, 0.08677216619253159, 0.17961819469928741, 0.014436636120080948, 0.038186781108379364, 0.015805086120963097, 0.07857634872198105, 0.11232265084981918, -0.07249339669942856, 0.08446750044822693, 0.02195431850850582, -0.00205295835621655, 0.003974389750510454, 0.010103898122906685, -0.006456994917243719, -0.09319113940000534, -0.027117833495140076, 0.16151118278503418, 0.03194083645939827, -0.02929696999490261, 0.059958864003419876, 0.026934534311294556, 0.06323760002851486, -0.055275190621614456, 0.06286018341779709, 0.024522844702005386, 0.05745193734765053, 0.007326860912144184, 0.014250312931835651, -0.022318454459309578, -0.08896105736494064, 0.021942414343357086, 0.030070994049310684, -0.015115827322006226, 0.1202358528971672, 0.09904930740594864, 0.09365516155958176, 0.04161630943417549, 0.03530213609337807, 0.12210524082183838, -0.10315834730863571, 0.03337999805808067, -0.09820163995027542, 0.09571898728609085, 0.02074221894145012, 0.02816889062523842, -0.07219162583351135, 0.2798989713191986, 0.1643866002559662, 0.06327342242002487, 0.027005311101675034, 0.04611032083630562, 0.09553300589323044, 0.02924300543963909, 0.027693748474121094, -0.05361224338412285, -0.05694141238927841, 0.04192608594894409, 0.015347672626376152, 0.0336763933300972, -0.03840453922748566, -0.012561486102640629, 0.09874866902828217, 0.013851352035999298, 0.010507576167583466, -0.011051410809159279, -0.0604114793241024, 0.01063629426062107, 0.003338402137160301, 0.04928573593497276, -0.016421403735876083, -0.04263261333107948, -0.04989703744649887, 0.0683225467801094, -0.05454353988170624, -0.11863859742879868, -0.03636423125863075, 0.11917717754840851, 0.03033836930990219, -0.013482768088579178, 0.08418094366788864, -0.013331321999430656, 0.06848495453596115, 0.04354849457740784, 0.13500359654426575, -0.09769254177808762, 0.11959204077720642, 0.043073639273643494, 0.05105414614081383, -0.03680066019296646, 0.026450537145137787, 0.01861630566418171, 0.01530647836625576, 0.05575615540146828, -0.022822696715593338, 0.09776279330253601, 0.003124853130429983, 0.07858645170927048, 0.027247276157140732, 0.05241551622748375, 0.013242303393781185, -0.01744730956852436, -0.08570992201566696, -0.1002684161067009, -0.08402364701032639, -0.012778028845787048, 0.08416517823934555, 0.1454884558916092, 0.19037452340126038, 0.028111234307289124, 0.15600046515464783, 0.014619329012930393, 0.02916545979678631, -0.1144469603896141, 0.13257846236228943, 0.06219358369708061, 0.1261771023273468, 0.008922167122364044, 0.03089827485382557, 0.06566642224788666], [0.08183037489652634, 0.03632328286767006, 0.011472915299236774, -0.040824875235557556, 0.09858546406030655, 0.054719798266887665, 0.022390762344002724, 0.0007678355323150754, 0.026239603757858276, 0.0654720813035965, -0.009832128882408142, -0.00458536995574832, 0.033040132373571396, -0.00038497443892993033, 0.08022899180650711, 0.027997232973575592, -0.04296005889773369, 0.03010888583958149, 0.015131935477256775, -0.0026946004945784807, 0.022941680625081062, -0.002497619716450572, 0.11418627202510834, -0.04307267442345619, 0.02313707023859024, 0.06015711650252342, 0.06932231038808823, 0.032814934849739075, 0.02448798343539238, 0.01383969746530056, 0.21190141141414642, 0.01636509597301483, -0.010110262781381607, 0.08061027526855469, -0.0007759332656860352, -0.06100468337535858, 0.06309986114501953, 0.074334055185318, 0.03759034350514412, 0.0298225786536932, -0.03603299707174301, 0.0653386265039444, -0.0768623948097229, 0.047616202384233475, -0.029473239555954933, 0.12519530951976776, 0.05479222908616066, 0.054963454604148865, 0.10955475270748138, 0.06755860149860382, 0.11499511450529099, -0.01901855133473873, 0.13586264848709106, 0.015813423320651054, 0.09403357654809952, -0.07003733515739441, 0.03244021162390709, 0.04881645739078522, -0.0738048180937767, 0.031833451241254807, 0.1427045613527298, 0.11492709815502167, 0.04121485352516174, 0.1027444452047348, 0.0027319102082401514, 0.12538807094097137, -0.018817836418747902, -0.009768713265657425, -0.002400594064965844, -0.023081354796886444, -0.009814554825425148, 0.029497480019927025, -0.03234976902604103, -0.0002814003673847765, 0.07693185657262802, 0.21005645394325256, -0.006317465100437403, 0.00566862802952528, 0.06725910305976868, 0.011635355651378632, 0.09118638932704926, -0.015079328790307045, 0.09690303355455399, -0.04983228072524071, -0.07168387621641159, 0.05787397548556328, -0.0009723702096380293, -0.062372833490371704, -0.1084207221865654, 0.007783801294863224, 0.1869497299194336, 0.14233066141605377, -0.009258881211280823, -0.021009257063269615, 0.06447044014930725, -0.01709144003689289, 0.011482495814561844, 0.03971860930323601, -0.04104854539036751, 0.046981703490018845, 0.030061811208724976, -0.016913678497076035, -0.05976035073399544, -0.07835078239440918, -0.023787928745150566, 0.039397820830345154, 0.07193909585475922, -0.014384644106030464, -0.06658495962619781, -0.0038769340608268976, 0.028583891689777374, -0.00271092657931149, 0.07713598757982254, 0.02969011850655079, 0.006409480236470699, -0.04757646098732948, 0.02010178193449974, 0.045153405517339706, -0.06231139227747917, 0.05200896039605141, 0.06610967218875885, 0.07532234489917755, 0.04778985679149628, 0.20765939354896545, 0.027301285415887833, -0.04950641468167305, 0.02207351103425026, 0.047913555055856705, 0.11748112738132477, -0.02500918135046959, 0.08879223465919495, 0.09092172235250473, 0.06341572105884552], [0.07649137824773788, 0.14059075713157654, -0.0951722264289856, -0.0182759128510952, 0.04810032993555069, 0.0071655865758657455, -0.08582910150289536, 0.08106066286563873, -0.04197188466787338, 0.1070655807852745, -0.06822865456342697, -0.03721974045038223, 0.00440731318667531, -0.07398302108049393, 0.07762813568115234, 0.20214487612247467, -0.004777453374117613, 0.023798195645213127, -0.04584583267569542, 0.049477118998765945, 0.013757443986833096, -0.060489390045404434, 0.03830914571881294, 0.0061921533197164536, 0.07623843103647232, 0.03675949200987816, 0.027352791279554367, 0.0018393279751762748, -0.044740501791238785, 0.04035992920398712, 0.07612327486276627, 0.1450241357088089, -0.012623816728591919, -0.05148385465145111, -0.020321648567914963, -0.04104707017540932, -0.08793668448925018, 0.14548058807849884, 0.015188398770987988, -0.08184843510389328, -0.033556342124938965, -0.07083602249622345, 0.027553891763091087, 0.03900093212723732, -0.037542980164289474, 0.16102099418640137, 0.06239780783653259, 0.07987518608570099, 0.08565394580364227, 0.06056119129061699, 0.04478102922439575, 0.05791878700256348, 0.15514954924583435, -0.009398272261023521, 0.04090987518429756, -0.009158517234027386, 0.05743280425667763, -0.029943248257040977, 0.009254434145987034, -0.06813932210206985, 0.14763569831848145, 0.1816422939300537, 0.07754628360271454, -0.06755641847848892, 0.054796744138002396, 0.03580823540687561, -0.06409917771816254, 0.06750332564115524, -0.12409742921590805, 0.03679043799638748, -0.051615867763757706, -0.04152097553014755, -0.10785061120986938, -0.06228318437933922, -0.031032588332891464, 0.014897285960614681, 0.07507903128862381, 0.062071919441223145, 0.030568907037377357, -0.008011316880583763, 0.06571286171674728, 0.0004911164287477732, 0.07899963855743408, 0.04146076738834381, 0.12854591012001038, -0.10096650570631027, -0.05588975548744202, 0.012320025824010372, 0.015096164308488369, 0.07543247193098068, 0.06984855979681015, 0.013829832896590233, 0.04945525899529457, 0.06030190736055374, 0.03580543398857117, -0.006076039280742407, 0.05416874215006828, 0.1596321314573288, 0.02118760719895363, 0.14248989522457123, 0.008239311166107655, 0.0935354009270668, -0.09736184030771255, -0.052517522126436234, 0.006640222389250994, 0.05599968135356903, 0.017616819590330124, -0.03508559614419937, -0.010745568200945854, -0.024709951132535934, 0.07413575053215027, 0.0474238246679306, -0.00807920377701521, -0.05927560105919838, 0.02358592115342617, -0.04639391973614693, -0.055098243057727814, -0.03886604681611061, -0.0055990032851696014, 0.05023307725787163, -0.030717257410287857, 0.15233510732650757, -0.00788122322410345, 0.03229738771915436, -0.03029211424291134, 0.03312307223677635, 0.03424552455544472, 0.1440127044916153, 0.14035634696483612, -0.023020559921860695, 0.10891799628734589, 0.1422070562839508, 0.06517130881547928], [0.021355673670768738, 0.08691626042127609, 0.06661136448383331, 0.02082955650985241, 0.04111139476299286, -0.008745736442506313, -0.13480277359485626, 0.005059733055531979, 0.032990455627441406, -0.002072132658213377, 0.015741484239697456, -0.055995240807533264, -0.03299793601036072, -0.03594871610403061, 0.026636604219675064, 0.10746663808822632, 0.08170997351408005, 0.03711941838264465, -0.034023579210042953, 0.10034853965044022, 0.17469002306461334, -0.0966431051492691, 0.11526554077863693, -0.040470901876688004, 0.06906376034021378, -0.0450478233397007, -0.014092589728534222, 0.02642858400940895, -0.027117768302559853, -0.021961715072393417, 0.22402919828891754, -0.007783075794577599, 0.007475207559764385, -0.014778370037674904, 0.12120892852544785, -0.07432728260755539, -0.03139813244342804, 0.18821834027767181, 0.006831096485257149, 0.0842275395989418, -0.060758572071790695, -0.04096740856766701, -0.010925155133008957, 0.056090958416461945, -0.014036753214895725, 0.09009621292352676, -0.04223571717739105, 0.08733280003070831, 0.0633825808763504, -0.02001483365893364, 0.019282283261418343, 0.0020224014297127724, 0.18724671006202698, 0.07055152207612991, 0.10302165150642395, 0.04304566606879234, 0.05899742245674133, 0.004739542491734028, -0.051380958408117294, -0.015020245686173439, 0.3011501729488373, 0.09791398048400879, 0.12125854194164276, 0.06406409293413162, 0.028358176350593567, 0.12771135568618774, 0.03507310524582863, -0.03650808706879616, -0.06248052045702934, 0.08098890632390976, -0.03881930187344551, 0.007147582247853279, -0.01675594039261341, -0.02087511122226715, 0.03605921193957329, 0.03843076899647713, 0.01748478412628174, -0.03770885616540909, 0.028311273083090782, 0.06625251471996307, 0.07881078869104385, 0.14987912774085999, 0.11233138293027878, -0.01521856989711523, 0.05439835041761398, 0.05086420103907585, 0.007798907347023487, -0.08076222985982895, -0.031177207827568054, 0.07257838547229767, 0.1192019060254097, -0.00349808600731194, 0.12216880917549133, -0.04479553550481796, 0.05072556063532829, -0.032596688717603683, -0.027684232220053673, 0.09286108613014221, 0.06538517028093338, -0.01999770849943161, -0.044941242784261703, 0.06598830223083496, -0.030332250520586967, -0.04131658747792244, 0.011158275417983532, 0.17244471609592438, 0.03542951121926308, 0.050053395330905914, -0.013847287744283676, -0.01599099300801754, 0.1471441239118576, -0.04439093917608261, 0.09029044955968857, 0.0560416579246521, 0.04266246408224106, -0.07935337722301483, -0.09137614071369171, -0.026211639866232872, 0.023536518216133118, -0.015410887077450752, 0.09329646825790405, 0.13364826142787933, 0.025573959574103355, 0.1299799233675003, -0.0066256169229745865, 0.007727427873760462, -0.06810855865478516, 0.11195661127567291, 0.11919557303190231, 0.06228922680020332, 0.08410537987947464, 0.06681487709283829, -0.03913961350917816], [-0.12326270341873169, -0.2448977679014206, -0.036215271800756454, -0.11948222666978836, -0.20344507694244385, 0.07311123609542847, -0.0584120973944664, -0.0847947895526886, -0.010328716598451138, 0.049285389482975006, -0.08341106027364731, 0.03885773941874504, -0.11387885361909866, 0.018853498622775078, -0.0196674931794405, -0.18866188824176788, -0.07146662473678589, -0.12478967010974884, -0.02710125222802162, -0.11361809819936752, 0.0099245710298419, 0.004874606616795063, -0.05049630627036095, 0.09643719345331192, 0.07429615408182144, 0.05292855575680733, -0.007635293062776327, -0.02846071682870388, -0.04780931398272514, 0.028637271374464035, -0.2639128565788269, -0.03201567754149437, -0.06217486411333084, -0.022574065253138542, -0.17484797537326813, 0.07899775356054306, 0.090920589864254, -0.12220931798219681, 0.025164255872368813, 0.005870368797332048, -0.024004416540265083, 0.10817437618970871, 0.014961767010390759, 0.02847147546708584, 0.010471279732882977, -0.16452656686306, -0.012754607945680618, -0.043748266994953156, -0.00950042624026537, -0.09031248837709427, 0.0038327393122017384, 0.04979424551129341, 0.062113575637340546, -0.03560790419578552, 0.09818851947784424, -0.09021566808223724, 0.004373145289719105, 0.03967466205358505, -0.1138581708073616, 0.046706557273864746, -0.23768119513988495, -0.20968875288963318, -0.1797073483467102, -0.14527073502540588, -0.22134336829185486, 0.061232514679431915, 0.01866856776177883, -0.04526105523109436, 0.04821915552020073, 0.03589959070086479, -0.045065738260746, 0.02186194434762001, -0.11168531328439713, -0.0520656555891037, 0.07306589186191559, -0.17290499806404114, 0.00933680310845375, -0.10134397447109222, -0.050598129630088806, -0.08998057246208191, 0.1002763882279396, -0.00532385241240263, -0.11501362919807434, 0.05348379537463188, -0.030643487349152565, 0.030885715037584305, 0.06227428838610649, 0.035652726888656616, -0.09328220039606094, -0.0036364474799484015, -0.13903255760669708, -0.03136250749230385, -0.10460229963064194, -0.11627963185310364, -0.1544657200574875, -0.056044209748506546, 0.06814536452293396, -0.030300354585051537, 0.037755560129880905, -0.02806561253964901, 0.018093697726726532, 0.04046507552266121, -0.018145490437746048, -0.006727505009621382, 0.10172181576490402, -0.11482146382331848, -0.029123520478606224, 0.00286830123513937, -0.03410240262746811, -0.11323410272598267, -0.02593998610973358, 0.04382700100541115, -0.12608952820301056, 0.02981361374258995, 0.017000097781419754, -0.009468989446759224, 0.07668321579694748, -0.10470905154943466, -0.10712061077356339, 0.019461022689938545, 0.018041059374809265, -0.017755752429366112, 0.032712772488594055, 0.01989821158349514, 0.014724863693118095, 0.041393741965293884, -0.06302510201931, 0.034295495599508286, 0.11605700850486755, -0.029216816648840904, 0.023040737956762314, 0.10422579944133759, -0.04268817603588104], [0.14937545359134674, 0.08328408747911453, -0.05914989858865738, 0.05977639928460121, 0.021033667027950287, 0.0462816022336483, -0.08592039346694946, 0.13915713131427765, 0.02071608230471611, -0.016404304653406143, -0.06335284560918808, -0.036885347217321396, -0.011592639610171318, 0.04616773501038551, 0.06686554104089737, 0.1499578058719635, 0.09564398974180222, 0.137470543384552, -0.002512319479137659, -0.03372042253613472, 0.07011795043945312, -0.017909768968820572, 0.07768747210502625, -0.09552070498466492, -0.02435564622282982, -0.08744042366743088, 0.0004283411835785955, -0.0875268280506134, -0.06915280222892761, 0.09164465963840485, 0.17169836163520813, 0.0949588343501091, 0.13231702148914337, 0.003147645154967904, 0.013333258219063282, 0.059039968997240067, -0.02684957906603813, 0.08106373250484467, -0.08681201934814453, -0.009027274325489998, -0.047113414853811264, -0.019732676446437836, -0.10663756728172302, 0.0330624021589756, -0.05237126722931862, 0.018140040338039398, -0.048004135489463806, 0.03364276513457298, 0.03771257400512695, 0.07016922533512115, 0.053708765655756, 0.0930442288517952, 0.09366939216852188, 0.0037303899880498648, 0.1176755353808403, 0.04913106560707092, 0.027468329295516014, -0.08034303784370422, -0.06469573825597763, 0.12249574810266495, 0.16143245995044708, 0.12472807615995407, 0.04384894669055939, 0.05300384759902954, 0.08838707953691483, 0.17031997442245483, 0.03951217979192734, -0.03202144429087639, -0.085901640355587, -0.049023136496543884, 0.020823054015636444, 0.051946915686130524, -0.09238819032907486, -0.06211808696389198, 0.003733801655471325, 0.17035333812236786, -0.02455749176442623, -0.023403817787766457, 0.11691801249980927, 0.10766974091529846, -0.0066402992233633995, 0.0030539834406226873, 0.11827676743268967, 0.08942151069641113, 0.05154351517558098, -0.054427869617938995, -0.020318811759352684, 0.025575241073966026, -0.08031990379095078, -0.04801509156823158, 0.19369101524353027, -0.047548558562994, 0.03725544363260269, -0.045049455016851425, 0.005325476173311472, -0.05951361730694771, 0.08460745215415955, 0.13373585045337677, 0.026368990540504456, -0.03656894341111183, 0.04938162863254547, 0.09804476052522659, 0.014806516468524933, 0.016725007444620132, 0.07833638787269592, 0.007003418635576963, -0.07835811376571655, 0.05190866068005562, -0.05451075732707977, 0.10598775744438171, -0.011381145566701889, -0.01694464311003685, 0.06020563468337059, 0.08083057403564453, 0.0038938564248383045, -0.020393986254930496, -0.01944960653781891, -0.024318242445588112, 0.023778731003403664, 0.0009697543573565781, 0.013648214749991894, 0.05968240648508072, 0.09649280458688736, 0.16449402272701263, 0.11802459508180618, 0.051194075495004654, 0.04657193273305893, 0.13980352878570557, 0.11130273342132568, 0.1174389123916626, 0.03113955818116665, 0.10866767168045044, 0.06853533536195755], [0.09808798879384995, 0.10445468127727509, -0.09272530674934387, 0.03758391737937927, 0.0061765206046402454, 0.05810616910457611, -0.06269006431102753, 0.06124599650502205, -0.020721659064292908, 0.11637669801712036, -0.033391065895557404, 0.03372923657298088, -0.03043004870414734, -0.10641776770353317, 0.05181888863444328, 0.15049505233764648, -0.04479682072997093, 0.0400211475789547, -0.02230437658727169, 0.10808070749044418, 0.07851008325815201, -0.12070998549461365, -0.003084205323830247, -0.08390709012746811, -0.025952164083719254, -0.06779695302248001, 0.06540808081626892, 0.03944798931479454, -0.05072201415896416, 0.03654254600405693, 0.1319524496793747, 0.002711009467020631, 0.01398187130689621, 0.08765589445829391, -0.02021504007279873, -0.0494295209646225, -0.041681744158267975, 0.06680353730916977, -0.0049799419939517975, 0.021393340080976486, -0.040683310478925705, 0.04543899744749069, -0.035364750772714615, 0.02068541944026947, 0.029493074864149094, 0.1965259462594986, 0.10395052284002304, 0.08749696612358093, 0.019199486821889877, -0.03332357853651047, -0.023080868646502495, 0.07128201425075531, 0.1903921663761139, -0.004642944782972336, 0.0627002939581871, -0.1058202013373375, 0.103815957903862, -0.04536283388733864, -0.10148070752620697, 0.03945538401603699, 0.17261114716529846, 0.07375361770391464, 0.0660976767539978, 0.031211158260703087, 0.08704464882612228, 0.12641659379005432, -0.045440979301929474, -0.008264701813459396, -0.018850626423954964, -0.013501052744686604, -0.10163921117782593, -0.04697734862565994, -0.026310015469789505, 0.0392034612596035, 0.03305167704820633, 0.17626091837882996, 0.13019737601280212, 0.09860974550247192, 0.027019182220101357, 0.043005362153053284, -0.018372589722275734, 0.1148696020245552, 0.1416875720024109, 0.04559490457177162, 0.006563321687281132, 0.03555766120553017, 0.06740818172693253, 0.020285531878471375, 0.058189358562231064, 0.09212929755449295, 0.14660514891147614, 0.0776902586221695, 0.059026967734098434, -0.01786423660814762, 0.05626615509390831, 0.07064497470855713, 0.05550331622362137, 0.12984193861484528, -0.048420846462249756, 0.03359376639127731, -0.04403750225901604, -0.01731627807021141, 0.046879496425390244, -0.0834314301609993, 0.058542028069496155, 0.07916612178087234, 0.006961619481444359, 0.01662435568869114, 0.00957306195050478, 0.10998546332120895, 0.030809221789240837, -0.0008895890787243843, 0.05806031450629234, -0.08108153194189072, 0.005522764287889004, -0.03724656626582146, 0.052050914615392685, -0.09922091662883759, -0.023186054080724716, 0.022268597036600113, 0.1618674397468567, 0.08775533735752106, 0.009830004535615444, 0.14937739074230194, 0.12000225484371185, -0.03512098267674446, -0.05131449177861214, 0.02165340445935726, 0.07036902010440826, 0.07972833514213562, 0.042421869933605194, 0.03070213831961155, 0.020484965294599533], [-0.08766189962625504, -0.14228220283985138, -0.09278354048728943, -0.16069307923316956, -0.18820495903491974, -0.06160859763622284, -0.11724890023469925, -0.09992730617523193, -0.03771595284342766, 0.0559985488653183, -0.08573277294635773, 0.0750800147652626, 0.014041810296475887, -0.03123185783624649, 0.13062793016433716, -0.1948881894350052, -0.02504163421690464, -0.15316957235336304, -0.023229148238897324, -0.10245400667190552, -0.045659858733415604, 0.07162840664386749, -0.05616564676165581, 0.06460937857627869, 0.036806218326091766, -0.026043124496936798, 0.13989920914173126, -0.10010083019733429, 0.01708805188536644, 0.04904228448867798, -0.17612005770206451, -0.06908796727657318, -0.014997342601418495, -0.1211632639169693, -0.08755229413509369, -0.0043074158020317554, 0.1573241502046585, -0.05534837394952774, 0.07467581331729889, 0.13892534375190735, -0.12278544157743454, -0.018016088753938675, -0.012312442995607853, 0.0424799881875515, 0.09550489485263824, -0.04077520966529846, 0.00029298668960109353, -0.10776360332965851, -0.08979451656341553, -0.12877178192138672, -0.06540609151124954, 0.028484584763646126, -0.05501866340637207, -0.007115920539945364, 0.06490669399499893, -0.12036056816577911, 0.07216043025255203, -0.021334299817681313, -0.003192489268258214, -0.029293274506926537, -0.2013086974620819, -0.11485707014799118, -0.11141993850469589, -0.05204397067427635, -0.21916832029819489, 0.08743550628423691, 0.10605241358280182, -0.028335951268672943, 0.04330551624298096, -0.027891257777810097, -0.08426547050476074, -0.05463835969567299, -0.0949508398771286, -0.08469803631305695, -0.007680891081690788, -0.07842599600553513, -0.13272106647491455, -0.14762894809246063, -0.055413879454135895, -0.045319411903619766, 0.03800532594323158, 0.07242945581674576, 0.04495526850223541, 0.04973258823156357, 0.11647544801235199, -0.08110146969556808, -0.045302655547857285, 0.0149402916431427, -0.07225070148706436, 0.02385352924466133, -0.07481256872415543, 0.010237173177301884, -0.0980951264500618, -0.013676116243004799, -0.12467196583747864, 0.006160289514809847, -0.04594447463750839, -0.09222143143415451, -0.04199772700667381, 0.07327091693878174, -0.056859515607357025, 0.0013061135541647673, 0.03612557798624039, -0.09686238318681717, 0.01945212297141552, -0.05914612114429474, -0.0090904850512743, -0.036595653742551804, -0.006178517360240221, -0.15446244180202484, -0.07753074914216995, 0.030699385330080986, -0.07314401119947433, -0.04172057285904884, 0.02977040968835354, -0.05621041730046272, 0.02334466576576233, -0.022262414917349815, -0.015710270032286644, -0.049575868993997574, 0.04037041217088699, 0.08973401039838791, 0.03697048872709274, -0.01210279855877161, -0.061390407383441925, -0.04982660338282585, -0.002373727271333337, 0.005875227972865105, 0.059428248554468155, 0.009064476937055588, -0.021334324032068253, -0.01535920612514019, 0.01742907240986824], [-0.22694852948188782, -0.2318793535232544, 9.329809836344793e-05, -0.10894332826137543, -0.06689527630805969, -0.0238884799182415, 0.012795541435480118, 0.014190546236932278, 0.1153515875339508, 0.1448858380317688, -0.09916074573993683, -0.08271748572587967, 0.04687470570206642, -0.08357489854097366, 0.04641176760196686, -0.1706506758928299, -0.11873938143253326, -0.07050813734531403, -0.031172960996627808, -0.05324660986661911, 0.023465976119041443, 0.04009336978197098, -0.10602641105651855, 0.010172354057431221, 0.1260083019733429, -0.10993129760026932, 0.11614152789115906, -0.09413082897663116, -0.11670023947954178, 0.06250501424074173, -0.19473427534103394, -0.03933146968483925, -0.04765329882502556, -0.12632104754447937, -0.18339012563228607, -0.05287570878863335, -0.008211931213736534, -0.02325757034122944, 0.07260435074567795, 0.00082636927254498, -0.08569509536027908, 0.03063580021262169, -0.0901903435587883, 0.05091621354222298, 0.051254261285066605, -0.13104702532291412, -0.1046360582113266, -0.030173631384968758, -0.07118049263954163, -0.02005857601761818, 0.00411564577370882, -0.020644716918468475, 0.02706220932304859, 0.05271828547120094, 0.05873873457312584, -0.031081225723028183, -0.007811214309185743, -0.06418724358081818, -0.10060573369264603, 0.07267803698778152, -0.2560866177082062, -0.21081355214118958, -0.18475717306137085, -0.06555943936109543, -0.10725285857915878, -0.005874612834304571, 0.007004554383456707, -0.10743154585361481, -0.009450003504753113, 0.03175799921154976, -0.10356097668409348, 0.07512898743152618, -0.09445697069168091, 0.028757261112332344, 0.01713656820356846, -0.07690828293561935, -0.03590363264083862, -0.1306258589029312, -0.03064221702516079, -0.0497104749083519, 0.0817275196313858, 0.041096195578575134, -0.0258269552141428, -0.03835781663656235, 0.071731336414814, 0.04895371198654175, -0.06070392206311226, -0.06696921586990356, 0.04566187039017677, 0.05100896954536438, -0.17761936783790588, -0.05585173889994621, -0.0789489895105362, -0.12044572085142136, -0.10729092359542847, -0.003730594413354993, 0.08112733066082001, -0.04136785492300987, 0.005956077948212624, 0.08289196342229843, 0.02942805178463459, 0.015847479924559593, -0.07374443858861923, -0.10730431228876114, 0.017874274402856827, -0.13937629759311676, -0.11142560839653015, -0.10394441336393356, -0.08706538379192352, -0.06354718655347824, -0.01941046305000782, -0.015017935074865818, -0.02404787391424179, 0.030411679297685623, 0.12286634743213654, -0.12127961963415146, -0.06353720277547836, 0.031325820833444595, -0.11840777844190598, -0.006457234267145395, 0.011760376393795013, 0.007483663968741894, 0.1667698174715042, -0.04011331498622894, -0.01997522823512554, -0.10434027761220932, 0.004463122226297855, -0.05140594765543938, 0.05385611578822136, 0.0008260211325250566, 0.0350557416677475, 0.037868257611989975, 0.043309349566698074], [-0.0915425717830658, -0.16735820472240448, 0.00835648737847805, -0.15310578048229218, -0.14202052354812622, 0.026783723384141922, -0.15122640132904053, 0.00017552079225424677, -0.08703427761793137, 0.003001322504132986, -0.05070944130420685, -0.07644303143024445, -0.03201334923505783, 0.049144137650728226, -0.02196686528623104, -0.14469437301158905, 0.004935683216899633, 0.0036151697859168053, 0.003399082226678729, 0.0137151088565588, -0.02388545498251915, -0.03115866519510746, -0.015265051275491714, 0.05366845801472664, 0.054532814770936966, 0.03124513290822506, 0.04425746947526932, 0.04974031820893288, -0.0540783554315567, 0.05515200272202492, -0.09408700466156006, -0.08960308134555817, 0.024438314139842987, -0.07660245895385742, -0.1989780068397522, -0.016838504001498222, 0.03466281667351723, 0.027431124821305275, 0.031450629234313965, 0.02988814003765583, -0.11950303614139557, -0.00025309284683316946, 0.026203136891126633, -0.03314991295337677, 0.020852012559771538, -0.029129547998309135, 0.031603552401065826, 0.005423351656645536, -0.05517647787928581, -0.06109679117798805, -0.034839432686567307, 0.12124138325452805, 0.06714893877506256, 0.030161507427692413, -0.012111758813261986, -0.047725532203912735, 0.0637853667140007, -0.03330079838633537, -0.09073974937200546, 0.056529805064201355, -0.1327233910560608, -0.13743241131305695, -0.18316759169101715, -0.006533533800393343, -0.14931344985961914, -0.0032444754615426064, -0.012740423902869225, 0.0011682554613798857, 0.004607639741152525, 0.13486193120479584, 0.020724639296531677, -0.06595281511545181, -0.04745704308152199, -0.09927191585302353, 0.08471070230007172, -0.12581132352352142, 0.005954171530902386, -0.12537699937820435, -0.10114243626594543, -0.04381346330046654, 0.07320674508810043, -0.014644221402704716, -0.02555934153497219, 0.030352789908647537, 0.09041176736354828, 0.02592068538069725, 0.0028939314652234316, 0.025876618921756744, -0.05751227214932442, -0.034355856478214264, -0.06274734437465668, -0.013094104826450348, -0.13177108764648438, -0.05032549425959587, -0.06227051094174385, 0.020638365298509598, 0.04106881469488144, 0.04878276214003563, 0.022789502516388893, 0.09741539508104324, -0.02534375712275505, 0.0024349112063646317, 0.002886435715481639, 0.021326277405023575, -0.03341596946120262, -0.12550722062587738, -0.083602175116539, -0.12116443365812302, -0.09514249861240387, -0.07602687925100327, -0.05913184955716133, -0.01145223993808031, -0.15136313438415527, 0.006148716434836388, -0.03599513694643974, -0.06737905740737915, -0.022297656163573265, -0.02208423987030983, -0.10914895683526993, -0.012218884192407131, 0.10520770400762558, 0.14345911145210266, 0.0537731759250164, -0.08977768570184708, -0.09763992577791214, -0.07749535143375397, -0.0594363808631897, 0.03372284770011902, 0.07292860001325607, -0.02431328408420086, 0.0788736343383789, 0.02138162963092327, 0.021716425195336342], [-0.08151581883430481, -0.09357769042253494, 0.013997524976730347, -0.05194484069943428, -0.0632796511054039, 0.008646370843052864, -0.10068244487047195, -0.06108136102557182, -0.027116943150758743, 0.08477342873811722, -0.006771436892449856, -0.016864238306879997, -0.06581980735063553, -0.09537972509860992, 0.05963732674717903, -0.157188281416893, -0.02695588767528534, -0.11698364466428757, -0.019644152373075485, -0.024712299928069115, -0.10994944721460342, -0.027585025876760483, -0.14889800548553467, 0.026994988322257996, 0.09435079246759415, 0.012528924271464348, 0.1487169861793518, -0.07511742413043976, -0.01335011888295412, -0.0677022635936737, -0.10619351267814636, -0.08463919162750244, -0.00832756794989109, -0.06963908672332764, -0.12045823037624359, -0.04306604713201523, 0.003652509767562151, -0.05748651921749115, -0.02030796743929386, 0.04288554936647415, -0.023498795926570892, -0.024903200566768646, -0.08212459087371826, 0.007889077998697758, 0.08952464908361435, 0.04260201007127762, -0.07858444005250931, 0.023310663178563118, -0.047504834830760956, -0.09487150609493256, 0.023031175136566162, -0.03224414214491844, -0.07507967948913574, 0.05979422107338905, 0.09955424815416336, -0.05785796418786049, 0.005866561084985733, -0.028416745364665985, 0.03358173742890358, 0.043475400656461716, -0.3263847231864929, -0.21297840774059296, -0.2173462212085724, -0.07001224905252457, -0.1843397170305252, 0.043452221900224686, -0.09731011092662811, -0.09387904405593872, 0.05426458269357681, 0.05231839045882225, -0.10279938578605652, -0.009822613559663296, -0.12183274328708649, -0.00792146660387516, 0.10671989619731903, -0.08815839141607285, -0.06896259635686874, -0.05689514800906181, -0.11317573487758636, 0.006462116725742817, 0.004460095893591642, -0.08549956232309341, -0.11790241301059723, 0.06128848344087601, 0.043196119368076324, 0.019820785149931908, 0.088039830327034, 0.0026306984946131706, -0.1138145923614502, 0.002735723741352558, -0.08665097504854202, -0.11253006011247635, -0.12453766912221909, 0.026951812207698822, -0.03731472045183182, -0.07584817707538605, -0.0020231411326676607, -0.0241157915443182, 0.028824476525187492, 0.06823204457759857, 0.033047910779714584, 0.03362095728516579, 0.019678397104144096, -0.08872798830270767, 0.02804633229970932, -0.10443322360515594, -0.05100103095173836, -0.07339923828840256, -0.005731827579438686, -0.15468208491802216, 0.07133067399263382, 0.056071747094392776, -0.03286311402916908, 0.09290829300880432, -0.00460938410833478, -0.0055556995794177055, -0.06351177394390106, -0.09006281942129135, 0.04366379603743553, -0.0019961220677942038, 0.03844175115227699, 0.0068190512247383595, 0.0937526598572731, -0.021926112473011017, -0.05587363988161087, 0.020566163584589958, -0.07561536133289337, 0.0070335278287529945, 0.12066218256950378, 0.06348931044340134, -0.02787815034389496, 0.019772205501794815, 0.06207657605409622], [0.018968364223837852, 0.08986557275056839, -0.07465832680463791, -0.03381260111927986, 0.052414897829294205, -0.05923832580447197, -0.16801612079143524, 0.0021518454886972904, -0.010065055452287197, 0.07740189135074615, -0.0978638157248497, 0.03529832512140274, -0.03419402241706848, 0.02469867840409279, -0.01881968043744564, 0.014214533381164074, 0.02854018285870552, 0.03570438176393509, 0.045957062393426895, 0.056096505373716354, -0.019555794075131416, 0.04219166934490204, 0.02237580344080925, 0.015305454842746258, 0.012873177416622639, 0.04588202387094498, 0.13686521351337433, -0.019628338515758514, -0.07740473002195358, 0.004174815025180578, 0.09486135095357895, -0.011130752973258495, 0.017271041870117188, 0.09562575072050095, 0.004320728592574596, 0.08807676285505295, 0.0947427898645401, -0.008586845360696316, 0.05563404783606529, -0.011667697690427303, 0.007646734826266766, 0.09754753112792969, -0.04393778741359711, -0.10049506276845932, 0.03304135799407959, 0.15902304649353027, -0.06352253258228302, 0.04956469312310219, 0.026230573654174805, 0.023083971813321114, 0.1574137806892395, 0.1204763874411583, 0.051480017602443695, 0.04384114220738411, 0.09710857272148132, -0.018594319000840187, 0.07004595547914505, -0.08292496204376221, -0.027035057544708252, 0.14224675297737122, 0.07746367901563644, 0.10323740541934967, 0.07782156765460968, -0.0488949790596962, -0.03540734946727753, 0.03799232468008995, 0.06636890769004822, -0.01898735575377941, -0.09497351944446564, -0.028766309842467308, -0.07198082655668259, 0.05611589550971985, 0.02623904123902321, -0.0007490398129448295, 0.10168339312076569, 0.1530430167913437, -0.0005389276193454862, 0.07030042260885239, -0.013907268643379211, -0.0006244924152269959, 0.02942245453596115, -0.0007338574505411088, 0.10630176961421967, 0.05730253830552101, 0.03473469987511635, -0.0672365203499794, 0.03980525583028793, -0.04140906780958176, -0.09207331389188766, 0.037139423191547394, 0.1978229582309723, -0.024157468229532242, 0.012488278560340405, -0.0559128075838089, 0.07203662395477295, -0.048394493758678436, -0.11737979203462601, 0.14466926455497742, -0.10767985880374908, -0.02633780986070633, -0.014747164212167263, 0.07246482372283936, 0.012243907898664474, 0.026802655309438705, -0.051278017461299896, 0.06050306558609009, -0.02621390111744404, -0.06565561145544052, 0.017206482589244843, 0.08993940055370331, 0.01682964339852333, -0.155722975730896, -0.00035599112743511796, 0.028935318812727928, 0.02837573178112507, -0.005885872524231672, -0.0038747387006878853, -0.07716185599565506, 0.01284409873187542, 0.05259815603494644, 0.05829966813325882, 0.030047038570046425, -0.04035895690321922, 0.12456227093935013, -0.07349452376365662, -0.08824978023767471, -0.09010506421327591, 0.0907687395811081, 0.04551370069384575, -0.03792852163314819, 0.08356790989637375, 0.03808495029807091, 0.06279325485229492], [-0.021158669143915176, 0.09705497324466705, 0.04736505076289177, -0.09986235946416855, 0.0009907580679282546, 0.03356366604566574, -0.07375545054674149, 0.1353379338979721, -0.0498536117374897, -0.014722360298037529, 0.010186311788856983, -0.10093888640403748, 0.013679875060915947, 0.042559023946523666, -0.041210711002349854, 0.17083154618740082, 0.08027888834476471, -0.014220194891095161, 0.04916791990399361, 0.09225631505250931, 0.014559670351445675, 0.004037612583488226, 0.008783912286162376, 0.03498157858848572, -0.03537748381495476, -0.09606622159481049, 0.09116918593645096, -0.05586085096001625, -0.004466985817998648, -0.027347486466169357, 0.142161026597023, 0.04378027468919754, 0.10887506604194641, -0.05637543648481369, 0.02768547646701336, -0.058360639959573746, 0.08024443686008453, 0.032064903527498245, -0.010615134611725807, 0.016621559858322144, -0.04913045093417168, 0.040079835802316666, -0.11110393702983856, 0.04814669489860535, -0.013746258802711964, 0.06996918469667435, -0.023396220058202744, 0.035895150154829025, 0.06536761671304703, 0.07037213444709778, -0.0035287998616695404, 0.056424543261528015, 0.13477477431297302, 0.06247420608997345, -0.05088420957326889, -0.0021145858336240053, 0.024365419521927834, -0.041857559233903885, -0.020869147032499313, 0.07279260456562042, 0.12164734303951263, 0.07711523026227951, 0.10648265480995178, 0.10170953720808029, 0.0549994595348835, 0.01834581233561039, -0.04960375279188156, -0.0029033860191702843, 0.013495617546141148, 0.07443517446517944, -0.05536222830414772, 0.0855567529797554, -0.08422113955020905, 0.03573695197701454, 0.06546152383089066, 0.022631743922829628, 0.07859934866428375, 0.09305062144994736, 0.04239878058433533, 0.03658875823020935, 0.04414186626672745, 0.005738221574574709, 0.09899229556322098, -0.03935785964131355, -0.024316733703017235, 0.03704818710684776, 0.033963412046432495, 0.019147489219903946, -0.010818631388247013, 0.01137093547731638, 0.11554059386253357, 0.055980145931243896, 0.07866738736629486, 0.05624108761548996, 0.136361226439476, -0.025747036561369896, 0.10000932961702347, 0.11711589246988297, -0.0037847452331334352, 0.04150005057454109, -0.11568321287631989, -0.05409194529056549, -0.11250802874565125, -0.09129441529512405, 0.00856625847518444, 0.10329926759004593, 0.005386767443269491, -0.057762742042541504, 0.007109371013939381, 0.057110290974378586, 0.027624567970633507, -0.08782026171684265, 0.12000707536935806, -0.036766815930604935, 0.01458834484219551, -0.03978545963764191, -0.055889882147312164, -0.0881224051117897, 0.021763108670711517, -0.04178382828831673, 0.12616479396820068, 0.15929310023784637, -0.06519722938537598, 0.003154611913487315, -0.03434531390666962, 0.013042015954852104, 0.05248594284057617, 0.07409723848104477, 0.07782185077667236, 0.030855851247906685, -0.017760276794433594, 0.02755437046289444, 0.012734544463455677], [-0.0698765367269516, 0.03132447972893715, 0.03508218750357628, 0.06683795154094696, -0.053196944296360016, 0.028572961688041687, -0.05502738803625107, 0.06303071975708008, -0.06292671710252762, -0.08194078505039215, -0.01849956624209881, 0.13503079116344452, -0.06894173473119736, 0.05783367529511452, 0.025661392137408257, -0.08570011705160141, 0.0419963076710701, -0.021735189482569695, -0.10201580077409744, -0.05207701772451401, 0.2187107503414154, -0.05358605831861496, 0.03251997381448746, -0.04860452935099602, 0.13967576622962952, -0.09456858783960342, 0.024242360144853592, -0.005477906670421362, -0.053502097725868225, 0.05135370045900345, 0.05387762933969498, -0.15315887331962585, -0.03174760192632675, 0.07696321606636047, 0.0440962128341198, 0.04675905406475067, 0.20372149348258972, 0.14373841881752014, 0.18320953845977783, 0.12714481353759766, 0.05165495723485947, 0.05623387545347214, 0.004484217148274183, 0.019411012530326843, 0.0731893852353096, -0.022316794842481613, -0.10192976891994476, 0.05526260286569595, 0.06818205863237381, -0.08849002420902252, 0.05971859022974968, 0.29395511746406555, 0.15548264980316162, -0.09908917546272278, 0.07902219146490097, 0.04524535685777664, 0.08096405118703842, -0.01874840073287487, -0.04774545133113861, -0.08927181363105774, 0.1303885132074356, 0.017308423295617104, 0.020980460569262505, 0.07246546447277069, -0.05705559253692627, -0.052554652094841, 0.18337267637252808, -0.006324066314846277, -0.08138556778430939, -0.0008458193042315543, -0.03712255880236626, -0.013141277246177197, 0.031831905245780945, -0.06536151468753815, 0.004916045814752579, -0.10126657038927078, -0.009821653366088867, -0.06220307573676109, -0.09114771336317062, -0.11578918248414993, 0.12313107401132584, 0.13535384833812714, 0.04293549433350563, 0.037320446223020554, -0.010348141193389893, 0.05916861072182655, 0.031154941767454147, -0.07387572526931763, -0.03858524188399315, -0.06624827533960342, 0.05850493535399437, -0.0447273924946785, -0.07951413094997406, 0.05262942239642143, -0.09012947231531143, -0.02167334035038948, 0.03899452090263367, -0.03151096776127815, -0.11348354071378708, -0.06078971549868584, 0.020230013877153397, 0.09071247279644012, -0.08120695501565933, 0.004567510914057493, -0.13130828738212585, 0.03818269446492195, -0.11293695122003555, -0.0064536202698946, -0.1012112945318222, -0.008077401667833328, 0.08531688153743744, -0.196310892701149, -0.05323826149106026, -0.11759617924690247, -0.10442215949296951, -0.10404972732067108, -0.08307597786188126, -0.09560409933328629, -0.007998150773346424, 0.06654679030179977, 0.07111623883247375, 0.034052059054374695, -0.05408976227045059, -0.07633031904697418, -0.015662893652915955, 0.026430534198880196, -0.005814708303660154, -0.0024687356781214476, 0.1313236802816391, 0.08014486730098724, -0.03204779699444771, 0.07528924196958542, -0.01957603543996811], [0.07953539490699768, 0.022608594968914986, -0.11580754071474075, 0.042856365442276, 0.008496031165122986, 0.039344873279333115, -0.03746207058429718, 0.035548560321331024, -0.08483376353979111, 0.12635399401187897, -0.06587602198123932, 0.044049911201000214, 0.013529959134757519, 0.051893558353185654, -0.04643156751990318, 0.04118792340159416, 0.08828750252723694, 0.06874366849660873, -0.013561571948230267, 0.06554116308689117, 0.0905107632279396, 0.02878590114414692, 0.09234873205423355, 0.03154740855097771, 0.0960467979311943, -0.1045757308602333, 0.1266518533229828, -0.05448593944311142, -0.07160987704992294, 0.05425141751766205, 0.13148845732212067, 0.09820030629634857, -0.012004660442471504, 0.0849776566028595, 0.11613979935646057, 0.07701347768306732, 0.06244590878486633, 0.11399326473474503, 0.06339749693870544, -0.04969151318073273, -0.005173573270440102, -0.056800127029418945, -0.04027007892727852, -0.042377371340990067, -0.033893052488565445, 0.04394269362092018, 0.04593725875020027, 0.060212891548871994, 0.04868529736995697, -0.003987624775618315, 0.019374340772628784, -0.01774708926677704, 0.13393919169902802, -0.04039815068244934, 0.08745189011096954, 0.018277481198310852, -0.04438367113471031, -0.03595219925045967, 0.03235331550240517, -0.021829809993505478, 0.22489579021930695, 0.10242811590433121, 0.07854768633842468, 0.11321932822465897, 0.0031739871483296156, 0.09374386072158813, 0.0690334141254425, -0.004777741618454456, -0.05309155583381653, 0.008658664301037788, 0.04695817828178406, -0.07022177428007126, -0.007562574930489063, 0.03341730684041977, 0.03602005913853645, 0.023328574374318123, 0.09989399462938309, 0.06289612501859665, 0.04525323957204819, -0.02440720610320568, 0.12262851744890213, -0.014777764678001404, 0.10861022025346756, 0.028701117262244225, 0.007914267480373383, 0.00273110275156796, 0.03277432918548584, -0.04109497368335724, -0.0004559141234494746, -0.06310714781284332, 0.15971995890140533, -0.0057989563792943954, 0.12527357041835785, -0.07640176266431808, 0.13639698922634125, 0.04210955649614334, -0.0005491218762472272, 0.114622101187706, 0.05812085047364235, -0.0049793655052781105, 0.024921312928199768, -0.027703089639544487, 0.04825621098279953, -0.010331305675208569, -0.0684017762541771, 0.10619685053825378, 0.008920337073504925, 0.05254366993904114, -0.04421422630548477, 0.010980229824781418, 0.017036663368344307, -0.1005076915025711, 0.0899830088019371, 0.02211657725274563, 0.05286681652069092, 0.02959674410521984, -0.04731220006942749, -0.07427726686000824, -0.10902900248765945, 0.03528318181633949, 0.10948318988084793, 0.194540873169899, 0.10553297400474548, 0.1518339067697525, 0.0495823435485363, -0.08143315464258194, -0.07164757698774338, 0.09870864450931549, 0.13581928610801697, 0.0014713038690388203, -0.0058600688353180885, 0.03583209589123726, 0.12807004153728485], [-0.25138214230537415, -0.1356404572725296, -0.11916191875934601, -0.15824930369853973, -0.10708402097225189, 0.00351406866684556, -0.02632751688361168, -0.019008399918675423, 0.05436853691935539, 0.14897401630878448, -0.05309343710541725, -0.062419358640909195, -0.062117915600538254, -0.1029326319694519, 0.11292225867509842, -0.10178402811288834, -0.04223517328500748, -0.12279471755027771, -0.014059147797524929, -0.07408413290977478, -0.04351041465997696, -0.02111057937145233, -0.08192040026187897, -0.023931872099637985, 0.04074408486485481, -0.09501414746046066, 0.005724397487938404, 0.02313832938671112, -0.0913095697760582, 0.03630777820944786, -0.22595930099487305, -0.1519911289215088, -0.11684511601924896, -0.04098522290587425, -0.16695727407932281, 0.06580468267202377, -0.003341851057484746, -0.06111346557736397, -0.035823702812194824, 0.09027029573917389, -0.019432246685028076, 0.04303371161222458, 0.00037462578620761633, 0.05556953325867653, -0.009592159651219845, -0.06480830162763596, -0.004511109087616205, -0.11735999584197998, 0.01438886672258377, -0.028548525646328926, 0.07251057028770447, 0.10419148206710815, 0.05569574236869812, -0.035777442157268524, 0.11387299746274948, -0.08025714755058289, 0.12491199374198914, -0.09402412921190262, -0.07250845432281494, 0.03275666758418083, -0.25663670897483826, -0.08751598000526428, -0.16963137686252594, -0.08752530068159103, -0.22813239693641663, 0.02057677134871483, 0.08648929744958878, 0.0002273887221235782, -0.016242530196905136, -0.011201360262930393, -0.01904059760272503, -0.018005074933171272, 0.014798554591834545, -0.035300206393003464, 0.06896377354860306, -0.153150737285614, -0.04199310764670372, -0.032736439257860184, -0.03245308995246887, 0.01941075548529625, -0.031513795256614685, -0.052597831934690475, -0.06284923106431961, -0.054169297218322754, 0.034798309206962585, -0.08827295154333115, 0.014845560304820538, 0.04784717783331871, -0.03773854300379753, 0.04252076521515846, -0.054746296256780624, -0.05581057816743851, -0.14188581705093384, -0.09694816917181015, -0.05750025808811188, 0.06623680144548416, 0.042912937700748444, -0.04260134696960449, 0.0675930604338646, 0.025200676172971725, 0.01043942105025053, 0.033437330275774, -0.09727519005537033, -0.004264180548489094, -0.03719763830304146, -0.13138838112354279, -0.039015207439661026, -0.1370672583580017, -0.07724548131227493, -0.16186441481113434, 0.028542151674628258, -0.04351165145635605, -0.026803812012076378, 0.02425352856516838, 0.12237169593572617, -0.04855266585946083, -0.039284903556108475, -0.10666152089834213, -0.029177598655223846, 0.09964011609554291, -0.011340693570673466, 0.028706669807434082, 0.20310109853744507, -0.09694821387529373, 0.03864505887031555, 0.005645086523145437, 0.006673886906355619, 0.03454792872071266, -0.017872905358672142, 0.0011065388098359108, 0.006080955266952515, -0.0020203273743391037, 0.038784850388765335], [0.04601466283202171, 0.004921918734908104, 0.07637565582990646, -0.03253920003771782, -0.06602644175291061, -0.0771440789103508, 0.00419355696067214, -0.090696319937706, -0.009887940250337124, -0.00010002392809838057, -0.027564696967601776, -0.017727196216583252, -0.005622120574116707, -0.03312695771455765, -0.0049475375562906265, -0.0623992457985878, 0.027950527146458626, -0.03198935464024544, 0.07579642534255981, -0.04357970133423805, 0.029517434537410736, -0.11059126257896423, -0.04301643744111061, 0.023722879588603973, 0.07317761331796646, -0.07537368685007095, 0.05456525832414627, -0.047572068870067596, -0.060029834508895874, -0.09975656867027283, -0.07083389163017273, 0.03621894121170044, -0.07167959958314896, -0.061371948570013046, 0.03963325172662735, -0.076507568359375, -0.07054341584444046, 0.01171255111694336, 0.010398033075034618, -0.04226115718483925, -0.03880968317389488, -0.07481440156698227, 0.026350490748882294, 0.08206268399953842, 0.04495370760560036, -0.013372980058193207, -0.0336226262152195, 0.011863145977258682, 0.03219693899154663, 0.07287956029176712, -0.08166376501321793, -0.02615589275956154, 0.04648454487323761, 0.012074272148311138, -0.06740816682577133, -0.0529249869287014, -0.00015744261327199638, 0.08119481056928635, 0.02685188502073288, -0.08705291897058487, -0.03523534536361694, 0.009430894628167152, 0.016097834333777428, 0.006025088485330343, 0.05860539898276329, -0.06089426204562187, -0.08084239810705185, -0.06202331930398941, 0.07323246449232101, 0.02637692354619503, -0.016120389103889465, 0.07390846312046051, 0.03782880678772926, -0.052915479987859726, -0.12017669528722763, -0.015074036084115505, -0.04317677393555641, 0.06410358846187592, -0.03932146728038788, 0.039858244359493256, -0.07927015423774719, -0.05864216387271881, -0.025415465235710144, 0.019578030332922935, 0.03195831552147865, -0.010839288122951984, 0.03250739350914955, -0.0027312603779137135, 0.06239137053489685, -0.0010181128745898604, -0.03627929463982582, 0.039085011929273605, -0.0729377418756485, -0.022830534726381302, 0.00980914756655693, 0.015602068044245243, 0.049724262207746506, -0.03623039647936821, 0.022140638902783394, 0.015609758906066418, 0.05301538482308388, -0.006162530742585659, -0.06856528669595718, 0.01244277786463499, -0.09096217900514603, -0.01830473728477955, 0.05102609843015671, -0.039089590311050415, 0.0310024656355381, -0.0637960284948349, 0.03287943825125694, -0.05328146740794182, -0.009534697979688644, -0.00520063191652298, -0.026154696941375732, -0.009140390902757645, -0.06091981381177902, 0.08454049378633499, -0.03699614852666855, -0.09458478540182114, -0.1037473976612091, -0.03048473410308361, 0.04384278506040573, -0.019984319806098938, -0.13372786343097687, -0.035110343247652054, -0.07681594043970108, -0.06673496216535568, -0.07231983542442322, -0.025800254195928574, -0.109510138630867, 0.021961819380521774, -0.05618203803896904], [0.10846424102783203, 0.08255811035633087, -0.0742507353425026, -0.07343695312738419, 0.06010771170258522, 0.0678146481513977, -0.03822467848658562, 0.024352578446269035, -0.03340760990977287, 0.041479840874671936, -0.009371018968522549, 0.018897712230682373, -0.07702062278985977, 0.04284103959798813, 0.03936430439352989, 0.10043500363826752, -0.053488198667764664, 0.11028305441141129, -0.03424331918358803, 0.03836575150489807, 0.07780367881059647, -0.0857400968670845, 0.03924597054719925, -0.1594403088092804, -0.008460628800094128, -0.04492339491844177, 0.021805254742503166, -0.03222090005874634, 0.026200249791145325, -0.07898247987031937, 0.0918353721499443, 0.07636618614196777, 0.030787045136094093, 0.0903715118765831, 0.11757302284240723, -0.02413097955286503, -0.10481705516576767, 0.04489031061530113, -0.04567701369524002, -0.018653402104973793, -0.07251064479351044, -0.02526930533349514, 0.006201951764523983, -0.04434436932206154, 0.028930600732564926, 0.08791585266590118, 0.033791158348321915, 0.003018992254510522, 0.013161703944206238, 0.08695120364427567, -0.03369786590337753, -0.04596703127026558, 0.07654998451471329, -0.07745286077260971, 0.10015896707773209, -0.11801121383905411, 0.09177695214748383, -0.005362951196730137, -0.010497634299099445, 0.05052746832370758, 0.17745529115200043, 0.1583724319934845, -0.008454876951873302, 0.024698898196220398, 0.12920354306697845, 0.09367650002241135, -0.05644841492176056, 0.04055096209049225, 0.0004533561004791409, -0.03400137275457382, -0.1118188202381134, -0.08763888478279114, -0.02143172360956669, -0.022530920803546906, 0.04662536457180977, 0.07979883998632431, 0.04837019741535187, -0.06712786853313446, 0.03590475022792816, 0.051342740654945374, 0.07290120422840118, 0.08999232202768326, 0.023949846625328064, 0.10633406788110733, 0.12142298370599747, -0.03659764677286148, 0.029403431341052055, -0.0877816453576088, 0.028139537200331688, 0.04264136031270027, 0.17534835636615753, 0.06636657565832138, 0.06918908655643463, 0.04009873792529106, -0.013614457100629807, -0.027722669765353203, 0.13106849789619446, 0.059127286076545715, -0.01763094775378704, 0.12102750688791275, -0.11061932146549225, -0.018372569233179092, -0.07364359498023987, -0.08296755701303482, 0.052235912531614304, 0.12708313763141632, -0.051052749156951904, -0.05756044760346413, 0.07520116120576859, -0.04879995435476303, 0.12086804211139679, 0.10154680907726288, -0.005255643744021654, -0.01853041723370552, 0.10006409883499146, -0.062256138771772385, 0.024925608187913895, -0.06482934206724167, 0.032029978930950165, 0.08823524415493011, 0.021808063611388206, 0.14493954181671143, -0.03385850414633751, 0.05082740634679794, 0.03386561945080757, -0.030619362369179726, -0.03181702271103859, 0.08235515654087067, 0.04950367659330368, 0.02618836611509323, 0.10025965422391891, 0.09992177039384842, 0.06417057663202286], [0.07062175124883652, 0.08641424030065536, -0.09569021314382553, 0.018861399963498116, 0.09157892316579819, 0.025663835927844048, -0.020248746499419212, 0.018462618812918663, 0.023128660395741463, -0.009255298413336277, 0.05402679741382599, 0.0005554830422624946, -0.054585665464401245, -0.0019564619287848473, 0.08882501721382141, -0.031724963337183, 0.03313541039824486, 0.08504021912813187, 0.030978070572018623, 0.024835661053657532, 0.04729675129055977, -0.03773835301399231, -0.036951519548892975, 0.050571393221616745, 0.043246496468782425, 0.01001822017133236, -0.003561427118256688, -0.010411005467176437, -0.0336860790848732, 0.047747429460287094, 0.15386095643043518, 0.12195473909378052, 0.004473025910556316, -0.006387741770595312, 0.061820343136787415, -0.0672701746225357, -0.07620272040367126, 0.037699759006500244, -0.10209667682647705, -0.006598167587071657, -0.10032104700803757, 0.07034461200237274, 0.048860080540180206, -0.056439436972141266, 0.002915135119110346, 0.05980857461690903, 0.11931846290826797, 0.10693313926458359, 0.12219193577766418, -0.048028118908405304, 0.09295970946550369, 0.036383938044309616, 0.04691019654273987, -0.1250012367963791, 0.06464770436286926, 0.05303110182285309, 0.037124913185834885, -0.10607371479272842, -0.015185517258942127, 0.011863388121128082, 0.17450550198554993, 0.0996229499578476, -0.030049679800868034, 0.12088241428136826, 0.059977151453495026, 0.07799747586250305, 0.01339106447994709, 0.05348687991499901, -0.09119074791669846, -0.09687571972608566, -0.054870836436748505, -0.03162255138158798, -0.024189630523324013, -0.02712688036262989, 0.02009493298828602, 0.1795838624238968, 0.09994492679834366, 0.05875929072499275, 0.08156383782625198, 0.10325919091701508, 0.0007197855738922954, -0.04736914485692978, 0.09066353738307953, -0.06113922595977783, -0.04485557600855827, -0.012302127666771412, 0.0026284644845873117, 0.046035900712013245, -0.09359639137983322, -0.039451632648706436, 0.1337745636701584, 0.07500679790973663, 0.08248069882392883, -0.0034994708839803934, 0.07690741121768951, -0.046493880450725555, -0.015241020359098911, 0.13595396280288696, -0.013614331372082233, -0.09472502022981644, 0.02632497064769268, -0.011811506934463978, -0.10362950712442398, 9.012834925670177e-05, 0.027796341106295586, 0.0904850885272026, -0.025984840467572212, 0.026725567877292633, -0.05227091535925865, 0.06474810838699341, 0.08698125928640366, -0.07334287464618683, 0.11389534175395966, 0.049009278416633606, 0.0539068840444088, 0.03459750860929489, 0.04565105214715004, 0.028908364474773407, -0.10588371008634567, 0.12745347619056702, 0.09652435034513474, 0.042429979890584946, -0.022258354350924492, 0.14922185242176056, 0.06418733298778534, -0.0010090565774589777, -0.07005959749221802, 0.09755462408065796, 0.03136393427848816, 0.00820046104490757, 0.04577891528606415, -0.020481152459979057, -0.01843685656785965], [0.03506220132112503, 0.035750262439250946, -0.003963165916502476, -0.025775499641895294, 0.12749987840652466, -0.008241446688771248, -0.036343853920698166, 0.09134683012962341, -0.0036027373280376196, 0.028600985184311867, 0.046965330839157104, -0.05522734299302101, -0.03516184166073799, -0.043773353099823, -0.07734028249979019, 0.20907625555992126, 0.11835587024688721, 0.059129372239112854, 0.14119885861873627, -0.0067508891224861145, 0.0011573503725230694, -5.469684037961997e-05, 0.027120480313897133, -0.011474626138806343, -0.00241571175865829, -0.033678825944662094, -0.06568977981805801, -0.05078115686774254, 0.04691389575600624, 0.05941612273454666, 0.10770846158266068, 0.1713150143623352, 0.07335163652896881, 0.14443562924861908, 0.05914118140935898, -0.12953472137451172, 0.019698211923241615, 0.08143406361341476, -0.0016227102605625987, 0.044883303344249725, 0.02050280198454857, -0.1353560835123062, 0.03803982213139534, -0.04059504717588425, -0.1675647348165512, 0.09286540746688843, 0.11133932322263718, 0.05469239503145218, 0.11076054722070694, 0.02603181265294552, -0.051338791847229004, -0.05591461434960365, 0.10377895087003708, -0.05355016514658928, -0.021697526797652245, -0.029261332005262375, -0.01497395895421505, 0.0836063101887703, -0.06145557388663292, -0.16319061815738678, 0.22970151901245117, 0.0848519504070282, 0.1902102679014206, 0.006604211870580912, 0.10811633616685867, 0.1452024132013321, 0.03942299261689186, -0.016940947622060776, -0.03581126034259796, -0.08985951542854309, -0.05742907524108887, -0.0794876217842102, 0.02305174246430397, 0.005629904102534056, 0.046867355704307556, 0.20341429114341736, 0.0824538841843605, -0.001509951543994248, 0.03075357712805271, -0.0028956516180187464, -0.0729156881570816, -0.013947267085313797, 0.07127176225185394, 0.043086208403110504, -0.05743398144841194, -0.048545241355895996, 0.06020607054233551, -0.032458119094371796, 0.0260073933750391, 0.06415680795907974, 0.20670954883098602, 0.1249866709113121, 0.0482344776391983, 0.053529947996139526, 0.08601925522089005, 0.03182473033666611, -0.06232393905520439, 0.04902590811252594, -0.001905524404719472, -0.06422292441129684, 0.006981796585023403, -0.024276098236441612, -0.051177166402339935, -0.08326277881860733, -0.09388702362775803, 0.08101474493741989, 0.052437249571084976, -0.002508902456611395, 0.05281929671764374, 0.010452081449329853, 0.06099243834614754, 0.03243672102689743, 0.12430357933044434, -0.06039852648973465, 0.06264051049947739, -0.03806205466389656, 0.026522865518927574, 0.07492692768573761, -0.03151002898812294, 0.0721554085612297, 0.09110970795154572, 0.032177429646253586, -0.04738803207874298, 0.1409829556941986, 0.02540966123342514, -0.06890454888343811, -0.060502782464027405, 0.05248221009969711, 0.03277400881052017, -0.01202675886452198, -0.0600241981446743, 0.03634149208664894, 0.024269158020615578], [-0.13193687796592712, -0.10064476728439331, 0.01897134631872177, -0.037670962512493134, -0.01745622046291828, -0.021647684276103973, -0.13674898445606232, -0.11850977689027786, -0.029705796390771866, -0.010504604317247868, -0.012957276776432991, -0.07242762297391891, -0.036769967526197433, -0.00561803113669157, 0.10125820338726044, -0.12474656105041504, -0.036479756236076355, -0.1303650289773941, -0.01653115637600422, -0.12235499173402786, 0.031405240297317505, 0.02248264104127884, -0.14302098751068115, -0.08629143983125687, 0.020423606038093567, -0.06968165189027786, 0.024996308609843254, 0.0399269163608551, 0.04239755496382713, -0.03771893307566643, -0.2137712836265564, -0.16516326367855072, 0.006155993789434433, -0.007150796242058277, -0.13672704994678497, -0.09762940555810928, 0.12420738488435745, -0.027480456978082657, 0.04438147693872452, 0.14724759757518768, 0.0162627212703228, 0.010971521958708763, -0.03567026928067207, -0.1078202947974205, 0.03830404207110405, -0.14664775133132935, -0.008992302231490612, -0.036268431693315506, -0.10968296974897385, -0.0220697820186615, 0.003022534539923072, 0.04679877310991287, 0.03196857497096062, 0.13372674584388733, 0.017694659531116486, -0.003238747362047434, 0.052590109407901764, -0.039209507405757904, 0.011744257993996143, 0.02169657312333584, -0.26179027557373047, -0.1113591194152832, -0.15723425149917603, -0.16984117031097412, -0.08267079293727875, 0.00805032067000866, 0.13521301746368408, -0.10175567120313644, -0.06329628080129623, 0.12326815724372864, 0.04123871028423309, 0.053261373192071915, 0.022924765944480896, 0.000455328292446211, 0.08443451672792435, -0.05637309327721596, -0.008538839407265186, -0.1487221121788025, -0.0846538096666336, -0.029960565268993378, -0.005120764020830393, 0.1403663456439972, -0.09039243310689926, 0.03548842668533325, 0.044003766030073166, -0.05411548912525177, -0.06384000927209854, 0.008067138493061066, -0.09437272697687149, 0.06537315994501114, -0.07439117133617401, -0.08527060598134995, -0.10162707418203354, -0.08160211145877838, -0.12978678941726685, 0.1081002950668335, 0.04984721913933754, -0.1109265610575676, 0.07836116850376129, 0.07514824718236923, -0.043712496757507324, -0.03901442512869835, 0.005820147693157196, -0.10115447640419006, 0.09781432896852493, -0.09350613504648209, -0.09525945782661438, 0.037112511694431305, -0.027343634516000748, 0.001533418777398765, 0.03195459395647049, -0.058521877974271774, -0.0018385066650807858, 0.05278011038899422, 0.02085955999791622, -0.06443651020526886, -0.06604345142841339, -0.09225574135780334, -0.04218659922480583, -0.0444406196475029, -0.035733893513679504, 0.07089885324239731, 0.22621847689151764, -0.20669132471084595, -0.09581074118614197, -0.01978752762079239, -0.10076314955949783, -0.07629316300153732, 0.14542846381664276, 0.07756125181913376, 0.023627884685993195, 0.03922925889492035, 0.004140084143728018], [0.047468412667512894, 0.016104377806186676, 0.02771580033004284, -0.05047977715730667, -0.001811847323551774, 0.017368344590067863, 0.0501958392560482, 0.07566684484481812, 0.008579756133258343, 0.040014270693063736, 0.033529169857501984, 0.04734566807746887, 0.07365494966506958, 0.03189243748784065, -0.08701635897159576, 0.02632705681025982, 0.02599208429455757, 0.0030640007462352514, -0.05744154006242752, 0.036210834980010986, -0.05981583148241043, 0.06466955691576004, 0.046574849635362625, 0.07234348356723785, -0.0053006988018751144, 0.024185476824641228, 0.06586291640996933, -0.06126418709754944, -0.0012992268893867731, 0.00430880393832922, 0.049395862966775894, -0.034216657280921936, 0.07663531601428986, -0.07738050073385239, 0.042328789830207825, 0.06907657533884048, -0.026598768308758736, -0.05592615157365799, -0.02948199026286602, 0.012929101474583149, 0.07379300892353058, -0.08270857483148575, -0.02390158921480179, 0.07370973378419876, -0.04422073811292648, -0.08105147629976273, -0.03178729489445686, 0.055334195494651794, -0.039077289402484894, 0.038208723068237305, -0.08538100868463516, -0.05496860295534134, -0.08062532544136047, 0.06651797890663147, -0.049140021204948425, -0.06646762043237686, -0.009847331792116165, 0.04259636625647545, 0.04941006749868393, -0.00634448416531086, 0.03395747393369675, 0.08075910061597824, 0.03467502072453499, 0.006939157377928495, 0.06540869921445847, -0.04955057427287102, -0.030320290476083755, 0.07968976348638535, -0.013859191909432411, -0.06416880339384079, -0.025295479223132133, -0.08553119748830795, 0.015520598739385605, 0.0384838692843914, -0.027068205177783966, -0.012296522967517376, 0.029329687356948853, -0.03912537917494774, -0.02604442834854126, 0.03571555018424988, -0.07329418510198593, 0.053782206028699875, -0.042803630232810974, 0.05210920050740242, -0.0004737438866868615, -0.067311130464077, -0.061137035489082336, -0.0009163534268736839, 0.07692030817270279, -0.008788413368165493, 0.07814202457666397, 0.08193250745534897, -0.021264558658003807, 0.0753135234117508, -0.006760093849152327, 0.005548729561269283, -0.021824179217219353, -0.009189510717988014, 0.021925615146756172, 0.03235144168138504, 0.03749849647283554, 0.04253561794757843, 0.08538852632045746, 0.024335360154509544, 0.06677012145519257, 0.038213055580854416, 0.019412728026509285, -0.013272239826619625, 0.001285055186599493, -0.033650875091552734, 0.011458097957074642, 0.006284391041845083, 0.0020653356332331896, 0.06436992436647415, 0.005708231590688229, -0.05077074468135834, 0.004355919547379017, 0.017417320981621742, 0.00659380666911602, -0.08595995604991913, -0.045408450067043304, -0.021042246371507645, -0.0007740921573713422, 0.0005494884680956602, 0.0752975270152092, 0.0064102462492883205, -0.06558910012245178, 0.005686032120138407, -0.04260168597102165, -0.04004158452153206, -0.05703568831086159, -0.008931256830692291, 0.013966154307126999], [-0.03759542107582092, 0.027920207008719444, -0.02833426184952259, 0.013559785671532154, 0.03167790174484253, -0.03066856786608696, -0.006028083618730307, 0.08295159041881561, -0.12562645971775055, -0.14191162586212158, 0.039685893803834915, 0.14627112448215485, -0.029208505526185036, -0.08021979033946991, -0.024118676781654358, 0.11432929337024689, 0.05528881400823593, -0.03211897611618042, 0.02387193776667118, 0.0622517429292202, 0.09758508205413818, 0.15163877606391907, 0.052438583225011826, 0.0035777774173766375, 0.01625771075487137, 0.06011590361595154, -0.09717775136232376, -0.09461715072393417, -0.07602784782648087, 0.052520666271448135, 0.09827772527933121, 0.058076225221157074, -0.04516756907105446, 0.05115435644984245, 0.03478015959262848, 0.08711274713277817, 0.1449051797389984, 0.11443726718425751, 0.0899512842297554, 0.10381550341844559, -0.043321799486875534, -0.049251738935709, 0.05799124017357826, -0.004284973256289959, 0.029012493789196014, -0.05191170051693916, -0.0827680379152298, -0.006602825131267309, -0.06512908637523651, 0.01123790256679058, 0.10605606436729431, 0.24470959603786469, 0.06516387313604355, 0.0135304881259799, -0.01561443880200386, -0.0069477614015340805, -0.10785726457834244, -0.016506735235452652, -0.04230967536568642, 0.11494933813810349, 0.18952178955078125, 0.007270711939781904, 0.01499133463948965, 0.09695035964250565, 0.059086281806230545, 0.013893541879951954, 0.18858954310417175, 0.06219417601823807, -0.012704628519713879, 0.006045414600521326, -0.04412921145558357, -0.0032417108304798603, -0.08391597121953964, -0.09679024666547775, 0.04822617396712303, -0.05554413050413132, -0.13587667047977448, 0.04714849218726158, -0.03475901857018471, 0.03140721470117569, 0.0368141308426857, 0.11439811438322067, 0.09495977312326431, -0.020545192062854767, -0.002263929694890976, 0.03565854951739311, 0.09960032254457474, 0.011547858826816082, -0.0763428807258606, -0.044959623366594315, 0.11259415000677109, -0.02748032659292221, -0.05017445981502533, 0.08320701122283936, 0.07152003794908524, -0.008296512998640537, -0.03410661220550537, -0.003667383221909404, 0.10501111298799515, 0.03337620198726654, -0.03418935462832451, 0.01934274472296238, -0.028428660705685616, -0.015686800703406334, -0.001356632448732853, 0.011754924431443214, 0.06250578165054321, 0.037393294274806976, 0.027341021224856377, 0.08039893209934235, 0.13601243495941162, -0.028569595888257027, -0.05140584334731102, -0.1693330556154251, -0.08616770803928375, 0.05151969566941261, 0.007838589139282703, 0.07024330645799637, -0.03747538849711418, 0.006795508787035942, 0.09003827720880508, -0.09931562095880508, 0.05688341706991196, 0.10572493076324463, 0.031670019030570984, -0.005207187030464411, 0.048160430043935776, 0.008302315138280392, 0.12924739718437195, 0.02911391854286194, -0.005553125869482756, -0.083769291639328, 0.09177429974079132], [-0.17806534469127655, -0.1638271063566208, 0.02155899628996849, -0.005678259301930666, -0.13742083311080933, -0.045625295490026474, -0.022210072726011276, 0.01768706552684307, -0.025674425065517426, 0.07997652143239975, -0.07118353247642517, 0.003975742030888796, -0.01783520169556141, -0.010067004710435867, -0.0066108712926507, -0.21019689738750458, 0.013947845436632633, -0.07170681655406952, -0.037821196019649506, -0.050282273441553116, -0.04469381645321846, 0.03634502366185188, -0.10689553618431091, -0.03962818160653114, 0.0152006009593606, -0.030037207528948784, -0.01574905589222908, -0.08453819155693054, -0.0872209295630455, -0.08859239518642426, -0.14550213515758514, -0.02850348688662052, -0.050464071333408356, -0.1370619237422943, -0.07632438093423843, -0.034749072045087814, 0.08935382217168808, -0.11114253848791122, -0.029270200058817863, 0.130950465798378, -0.10837569087743759, 0.0839415043592453, 0.025823144242167473, 0.011180972680449486, -0.024819206446409225, -0.10138019174337387, 0.026338228955864906, -0.0008768222178332508, -0.0003204317472409457, -0.10932348668575287, -0.024859225377440453, 0.02141568437218666, -0.03116847388446331, 0.019502291455864906, 0.07770884037017822, -0.07195836305618286, 0.05630257725715637, -0.08745384961366653, 0.004096666816622019, -0.0021900655701756477, -0.2269214540719986, -0.08522898703813553, -0.17585879564285278, -0.03166905418038368, -0.20009060204029083, 0.07293598353862762, -0.06513883173465729, 0.03048555925488472, -0.0069395205937325954, -0.026432329788804054, 0.021544108167290688, 0.0754910483956337, -0.11979406327009201, 0.028637709096074104, 0.07183609157800674, 0.004824855364859104, -0.046912722289562225, -0.010956565849483013, -0.03642019256949425, -0.016579316928982735, 0.10096051543951035, 0.009401286952197552, -0.07532263547182083, 0.014709768816828728, 0.07683096826076508, -0.10935526341199875, -0.05248505249619484, 0.01727163977921009, 0.021689223125576973, 0.08184691518545151, -0.14294585585594177, -0.039456069469451904, -0.11963845789432526, -0.04461172595620155, -0.06116630882024765, -0.046234507113695145, 0.0031630394514650106, 0.027134763076901436, -0.021906036883592606, 0.018062632530927658, -0.10301932692527771, -0.005717352032661438, -0.05829528719186783, -0.02845376916229725, -0.021651390939950943, -0.175775408744812, -0.09885776042938232, -0.03644281625747681, -0.030516451224684715, -0.07511778175830841, 0.030884644016623497, -0.0738324299454689, -0.15393653512001038, -0.006532439962029457, 0.06545707583427429, 0.004649563226848841, -0.0038343355990946293, -0.04098464548587799, -0.038655802607536316, 0.02513009123504162, -0.06576065719127655, 0.10449913889169693, 0.07593218237161636, -0.06199568882584572, -0.019840631633996964, -0.055230654776096344, -0.09270432591438293, 0.08244740962982178, -0.025350045412778854, -0.026963038370013237, 0.09756410121917725, 0.013485944829881191, -0.0932348370552063], [-0.1694987416267395, -0.01862236112356186, -0.007474617101252079, 0.07385958731174469, -0.03437649831175804, 0.04880755394697189, -0.021231452003121376, -0.10129650682210922, 0.09094385802745819, -0.06642574816942215, -0.050626736134290695, -0.13548825681209564, -0.0258058849722147, 0.03571328520774841, -0.03925056383013725, -0.01755802519619465, -0.07094447314739227, -0.08403437584638596, 0.03763558715581894, -0.08689431846141815, 0.004205315373837948, -0.09061985462903976, -0.12283826619386673, 0.0070459856651723385, 0.006269352976232767, -0.07638069242238998, -0.07457245886325836, 0.008802958764135838, 0.08785342425107956, 0.013403107412159443, -0.11458943039178848, -0.07649455964565277, 0.019511176273226738, -0.07850667089223862, -0.13636469841003418, -0.2032346874475479, -0.023483211174607277, -0.14660267531871796, 0.02293434925377369, 0.012974374927580357, 0.06380507349967957, -0.040658608078956604, -0.033538803458213806, 0.04627836123108864, -0.09658683091402054, -0.03745747357606888, -0.021228263154625893, 0.022530486807227135, -0.104554682970047, 0.027954667806625366, 0.0231415294110775, -0.08629914373159409, -0.05183278024196625, -0.0050703976303339005, 0.05794960632920265, -0.045250825583934784, 0.04368339851498604, -0.01318533718585968, -0.07246753573417664, -0.01723293960094452, -0.1702749878168106, -0.15928170084953308, -0.10614921152591705, -0.06276564300060272, -0.15631023049354553, 0.046199504286050797, -0.10993274301290512, 0.06161956489086151, 0.06318587064743042, 0.019768046215176582, -0.03160586208105087, -0.07609861344099045, -0.08075962215662003, 0.0641922876238823, -0.02414318546652794, 0.003428845899179578, -0.025608787313103676, -0.04801136255264282, -0.046067096292972565, -0.065584197640419, -0.08665230125188828, -0.04618331044912338, -0.07752335071563721, -0.024120766669511795, 0.007385876961052418, -0.05988939851522446, -0.019151344895362854, -0.04805833101272583, 0.07181747257709503, 0.08790474385023117, -0.14069437980651855, 0.06616803258657455, -0.06779329478740692, 0.020001018419861794, -0.009697011671960354, -0.09474414587020874, -0.003961292095482349, -0.09392842650413513, -0.008042726665735245, 0.06522084027528763, -0.008242371492087841, -0.07989572733640671, 0.0765717551112175, 0.028657812625169754, -0.041591692715883255, -0.009411770850419998, 0.05149485543370247, -0.06824343651533127, -0.06242421269416809, 0.030534999445080757, 0.03685959428548813, -0.0378018356859684, -0.04337451979517937, 0.02732178382575512, 0.008195100352168083, -0.00943224597722292, -0.00366747728548944, -0.024988049641251564, -0.0791645497083664, 0.06024434417486191, -0.06866084784269333, -0.07827753573656082, 0.006894425023347139, -0.028433140367269516, -0.0615420937538147, 0.03006867691874504, 0.06892433762550354, -0.11396372318267822, 0.06086236983537674, 0.07939662039279938, -0.06867273151874542, 0.02352500893175602, 0.042742449790239334], [-0.0026212723460048437, 0.15260393917560577, -0.0650961771607399, 0.00303019885905087, 0.11857222020626068, -0.001986405346542597, -0.15504784882068634, 0.07181114703416824, 0.10611606389284134, 0.04299210384488106, -0.0011202621972188354, -0.13538773357868195, -0.05651490017771721, 0.03328187018632889, -0.016860999166965485, 0.06655639410018921, 0.01438645925372839, -0.0015467973425984383, 0.02307174541056156, 0.03941762074828148, -0.03604115918278694, 0.028208274394273758, 0.03970275819301605, -0.09885717928409576, 0.11886890977621078, -0.017705654725432396, -0.008694198913872242, 0.053713373839855194, -0.10596929490566254, 0.12219510972499847, 0.12516377866268158, 0.00952616985887289, 0.06367659568786621, 0.10401087254285812, 0.041670214384794235, -0.04183810204267502, 0.017016233876347542, 0.04066707566380501, -0.07919249683618546, 0.06308422237634659, -0.1099914088845253, -0.017951715737581253, -0.00029751737019978464, 0.03253200277686119, -0.07506877183914185, 0.1934119015932083, 0.11386112123727798, 0.03907649591565132, 0.09235813468694687, -0.025290442630648613, 0.07547294348478317, 0.11668027937412262, 0.08673632144927979, -0.08686678856611252, 0.09668593853712082, 0.04244695603847504, -0.004231393802911043, 0.024505339562892914, -0.0931360274553299, 0.028089240193367004, 0.06920505315065384, -0.014865714125335217, 0.027220308780670166, 0.07780370861291885, 0.0036213828716427088, 0.01747121475636959, 0.07709822058677673, 0.04341338947415352, -0.02884821593761444, 0.0489945113658905, -0.05540758743882179, 0.07086482644081116, -8.48518538987264e-05, -0.03601795807480812, 0.07204074412584305, 0.18696185946464539, 0.03631344065070152, -0.005895651411265135, 0.08182863891124725, -0.03458155691623688, -0.020589478313922882, 0.024155208840966225, -0.008800594136118889, 0.011092174798250198, -0.02626030333340168, 0.021123893558979034, -0.008792668581008911, 0.010156729258596897, 0.016269247978925705, 0.010363569483160973, 0.1584351807832718, -0.017267262563109398, -0.07298561185598373, -0.026047611609101295, -0.0026143945287913084, -0.012460743077099323, 0.06312862038612366, 0.006510948296636343, 0.012461774051189423, 0.0025229156017303467, 0.05589316412806511, 0.006059143226593733, -0.09331173449754715, -0.11642828583717346, 0.044298749417066574, 0.037388015538454056, -0.0024853236973285675, -0.08864475041627884, 0.03946918249130249, 0.09105213731527328, -0.018491754308342934, -0.09950989484786987, 0.012403932400047779, 0.00225863978266716, -0.012609652243554592, 0.030190475285053253, 0.009910601191222668, -0.09079586714506149, -0.03515157103538513, 0.07349153608083725, 0.05820322781801224, 0.10159637033939362, -0.029190465807914734, 0.1630331128835678, 0.00531061552464962, -0.029489334672689438, -0.11632900685071945, 0.10618063062429428, 0.0033043164294213057, 0.09775234758853912, 0.027723321691155434, 0.03567914292216301, 0.03231320157647133], [0.009111860767006874, 0.03958592191338539, -0.05493674799799919, -0.02731563337147236, 0.009366165846586227, 0.05700111389160156, -0.11223406344652176, 0.026974305510520935, -0.07254897058010101, -0.019504766911268234, 0.01715634949505329, 0.06900429725646973, 0.0031483382917940617, 0.004083649255335331, 0.007748751435428858, 0.06222785264253616, 0.007301636505872011, -0.05414741486310959, -0.03429865092039108, -0.04268527403473854, 0.002087425207719207, -0.025627123191952705, 0.050988972187042236, -0.0512147918343544, -0.08671818673610687, 0.08240888267755508, -0.08397973328828812, 0.041619088500738144, -0.06263566017150879, 0.03198254108428955, 0.05530926585197449, -0.012076680548489094, -0.0664558932185173, -0.030422965064644814, 0.0828799456357956, 0.0009462680318392813, 0.055874139070510864, 0.0790470540523529, 0.03212588280439377, -0.027032187208533287, 0.038174498826265335, -0.011147416196763515, 0.030991507694125175, 0.019895361736416817, 0.07723324000835419, 0.06740105897188187, 0.07017721980810165, -0.0716041699051857, 0.010041259229183197, -0.0700913667678833, 0.07109899818897247, 0.024938588961958885, -0.03362731635570526, -0.0014422477688640356, -0.07414087653160095, -0.026800470426678658, -0.07201763242483139, 0.04097965732216835, 0.00463188998401165, 0.09146369248628616, -0.009566358290612698, 0.045939140021800995, 0.07997430860996246, 0.0843343585729599, 0.011386030353605747, 0.016198506578803062, -0.07639088481664658, -0.005299313925206661, 0.08065818250179291, -0.03283582255244255, -0.08538283407688141, 