{"net.0.weight": [[0.0930723324418068, -0.001093973871320486, 0.023969223722815514, -0.03740988299250603, -0.07334625720977783, -0.053087517619132996, -0.08931205421686172, -0.03298227861523628, 0.12879906594753265, 0.0661095529794693, -0.06094516068696976, -0.1777646392583847, -0.19017550349235535, -0.021109197288751602, 0.0042647081427276134, -0.11183423548936844, -0.06966876983642578, 0.013932905159890652, -0.12843744456768036, -0.09814268350601196, -0.12967726588249207, 0.13117532432079315, -0.023382486775517464, 0.11882546544075012, 0.0054247151128947735, 0.03379438817501068, -0.06089022383093834, 0.006524431984871626, -0.000129968102555722, 0.03642839938402176, 0.0010440561454743147, -0.1826404631137848, 0.023707076907157898, -0.06754211336374283, -0.006511551793664694, -0.023463478311896324, 0.006103052292019129, -0.0204427782446146, 0.007846317254006863, 0.01352224312722683, -0.1887197196483612, 0.07682802528142929, -0.12671124935150146, 0.056966353207826614, -0.0952657163143158, 0.041452281177043915, -0.08523118495941162, -0.007802976295351982, 0.005992554593831301, -0.027325022965669632, 0.00980406068265438, 0.17849279940128326, -0.042182862758636475, -0.016273997724056244, 0.05072803422808647, 0.0012624319642782211, 0.05777023360133171, -0.10479075461626053, -0.09314281493425369, -0.07215487957000732, -0.09505225718021393, -0.1530090868473053, -0.03307948634028435, -0.016313845291733742, -0.09936974942684174, 0.07420635223388672, 0.0733807161450386, 0.016425861045718193, 0.04675550386309624, 0.0017875850899145007, -0.09321985393762589, -0.10106077790260315, 0.05206133425235748, 0.23090995848178864, -0.07034268975257874, -0.04340199753642082, -0.18015128374099731, -0.05778232216835022, -0.049719568341970444, 0.04027378186583519, 0.05658213421702385, -0.17456559836864471, 0.07161422073841095, 0.01543811708688736, 0.004375352058559656, -0.05882347375154495, 0.002976803109049797, -0.055569663643836975, -0.025672588497400284, 0.03738679364323616, -0.0440901443362236, 0.04778243228793144, 0.0529940240085125, -0.05421474948525429, -0.09582001715898514, 0.05080213025212288, -0.09088610112667084, 0.11081096529960632, -0.0454077422618866, -0.09723430126905441, -0.05892535299062729, 0.1016857773065567, -0.028257213532924652, -0.058389075100421906, -0.026526575908064842, -0.11729176342487335, -0.09163496643304825, -0.1046028733253479, -0.03937198594212532, 0.023576540872454643, -0.01627849042415619, -0.09919833391904831, 0.013106065802276134, 0.09466701000928879, -0.033688466995954514, 0.0020816007163375616, -0.02168313041329384, -0.0857323706150055, 0.030201813206076622, -0.055014029145240784, 0.042475756257772446, -0.05629287287592888, -0.07139191776514053, 0.08731889724731445, -0.040171943604946136, -0.035663899034261703, 0.02672453410923481, 0.09967203438282013, 0.0748838409781456, 0.060981061309576035, 0.02502945438027382, -0.008501813746988773, 0.03238628804683685], [-0.2386244833469391, -0.17287342250347137, -0.06734635680913925, -0.10262294113636017, -0.27972304821014404, -0.03254856914281845, -0.021654553711414337, -0.009728459641337395, -0.09365212917327881, -0.052112381905317307, -0.045052070170640945, -0.0902554839849472, -0.05184709653258324, -0.1156689003109932, 0.09151984751224518, -0.17612197995185852, 0.0042038471437990665, -0.061286721378564835, 0.01664232648909092, -0.16092918813228607, 0.02860615961253643, -0.07249072939157486, -0.0824037492275238, -0.050454623997211456, 0.07521872222423553, 0.0035317675210535526, 0.06971317529678345, 0.04130681976675987, -0.06455016881227493, -0.08438987284898758, -0.19827008247375488, -0.1915397346019745, -0.04075348377227783, -0.029318707063794136, -0.052726827561855316, 0.10247370600700378, -0.01762879081070423, -0.0756060853600502, -0.02676021121442318, 0.00846612174063921, -0.0795111432671547, -0.07016358524560928, -0.0760565772652626, -0.10581473261117935, 0.10168205946683884, -0.07877543568611145, -0.02934110537171364, -0.09066115319728851, -0.12389019131660461, -0.05647987872362137, -0.025715971365571022, 0.015766741707921028, 0.11558053642511368, 0.05499700456857681, 0.01346584502607584, -0.0052561829797923565, 0.016049928963184357, -0.0786232203245163, -0.08084585517644882, 0.10501281172037125, -0.22873052954673767, -0.012333097867667675, -0.012241319753229618, -0.1302509754896164, -0.04774820804595947, 0.0720071867108345, -0.028861571103334427, -0.11422882974147797, 0.0029179882258176804, 0.10168155282735825, -0.04789750277996063, 0.17571833729743958, -0.01849440112709999, -0.06635422259569168, 0.0942581444978714, -0.11836942285299301, -0.14646704494953156, -0.004478143528103828, 0.05988188460469246, -0.09596247225999832, 0.0038650783244520426, 0.16475100815296173, -0.06944417953491211, 0.1013089194893837, 0.1485901176929474, 0.00812475848942995, 0.15916769206523895, -0.08459866046905518, 0.005855222698301077, 0.015325563959777355, -0.11688704043626785, -0.0449175126850605, -0.11799558252096176, -0.14161285758018494, -0.06936188042163849, 0.001018193201161921, 0.02280416712164879, -0.010458211414515972, 0.148443803191185, 0.14773385226726532, 0.04673248529434204, 0.08079759031534195, 0.025284985080361366, 0.0005196069250814617, -0.005985296331346035, -0.06546422094106674, -0.05525330826640129, 0.09260907024145126, -0.1427668184041977, -0.10930517315864563, 0.018011365085840225, -0.10175717622041702, -0.0029172415379434824, 0.11659339815378189, 0.1334306001663208, -0.034056857228279114, -0.13717573881149292, -0.07710437476634979, -0.0029257016722112894, 0.07160816341638565, 0.06832350790500641, 0.03466562181711197, 0.09003178030252457, -0.02509699948132038, -0.1198471263051033, -0.08524249494075775, -0.06873971223831177, -0.04953378438949585, -0.05269322171807289, -0.011054343543946743, -0.03450901061296463, 0.16937406361103058, -0.0400548055768013], [0.13889572024345398, 0.14114412665367126, -0.050100602209568024, -0.05598355829715729, -0.10474027693271637, 0.0016481828643009067, -0.018194882199168205, -0.06194379925727844, -0.028164850547909737, 0.01775130070745945, -0.04169372841715813, -0.042542487382888794, 0.015262624248862267, -0.006848958786576986, 0.03466281667351723, 0.201582133769989, 0.1320769190788269, 0.032772764563560486, 0.051320381462574005, 0.09090839326381683, 0.05966874957084656, -0.007336369715631008, -0.0005819163052365184, -0.04000053554773331, 0.019985845312476158, 0.002753248903900385, -0.03492027893662453, 0.04860393702983856, 0.0653238520026207, -0.07507790625095367, 0.06854873895645142, 0.1283663511276245, 0.1063951626420021, -0.04526706784963608, 0.09094412624835968, 0.06092292442917824, -0.05064210668206215, 0.0029504410922527313, 0.024511024355888367, 0.028973311185836792, -0.020508132874965668, -0.04932573810219765, 0.07432262599468231, -0.07092632353305817, 0.04283720627427101, -0.010326934047043324, -0.03458457067608833, 0.024948621168732643, -0.05590129643678665, 0.13062940537929535, 0.0007321492885239422, 0.008261087350547314, -0.06788637489080429, 0.010487250983715057, -0.00665156077593565, 0.02437073551118374, -0.037348873913288116, 0.023183051496744156, -0.08404596894979477, 0.12221493571996689, 0.09380070120096207, 0.1525503545999527, 0.10261025279760361, 0.012104567140340805, 0.03853563591837883, 0.05230740085244179, 0.050813231617212296, -0.045442983508110046, 0.030884815379977226, 0.03702332824468613, -0.06774142384529114, 0.07165749371051788, -0.01883375272154808, -0.049797527492046356, 0.09928062558174133, -0.05859266594052315, -0.03199389949440956, -0.10551191121339798, -0.07955197244882584, 0.03686821088194847, 0.037906985729932785, 0.03528844937682152, 0.08193613588809967, 0.020310748368501663, 0.10931406915187836, -0.04171308875083923, 0.07686939835548401, 0.004610246513038874, 0.031244438141584396, 0.05982393026351929, -0.0044585419818758965, 0.07563985139131546, 0.018309740349650383, 0.06344503909349442, 0.12666825950145721, -0.10191011428833008, 0.14308340847492218, -0.06747637689113617, 0.015815388411283493, 0.009339887648820877, 0.017106352373957634, -0.17773598432540894, -0.003734275698661804, 0.01838657073676586, -0.022774294018745422, -0.12263698130846024, -0.02499038353562355, -0.09052249044179916, -0.04166128858923912, -0.004664081614464521, 0.01467683631926775, 0.07510402053594589, 0.011300473473966122, 0.038171470165252686, -0.06564750522375107, -0.09009978175163269, -0.020409604534506798, -0.006065597292035818, -0.0875549465417862, -0.14359785616397858, -0.11290758848190308, -0.01589960604906082, -0.038726989179849625, 0.055887892842292786, 0.10359982401132584, 0.036068689078092575, -0.08906790614128113, -0.0320943221449852, 0.008044482208788395, 0.025566529482603073, 0.06439484655857086, 0.038974229246377945, 0.04044751077890396], [0.20249222218990326, -0.0355711430311203, 0.058616653084754944, 0.0828256830573082, 0.05925353989005089, 0.03361988067626953, -0.09048492461442947, 0.07233651727437973, 0.06802864372730255, 0.032640356570482254, -0.026073351502418518, -0.034463126212358475, 0.01671580597758293, -0.04310235008597374, 0.13864557445049286, 0.250123530626297, 0.008769270963966846, -0.015651065856218338, 0.11196576058864594, 0.06031719222664833, -0.008843224495649338, -0.07448722422122955, 0.07408969849348068, 0.0028716837987303734, 0.06019575893878937, -0.048356298357248306, -0.0210379920899868, -0.036138880997896194, -0.08620256185531616, 0.058963123708963394, 0.22040453553199768, 0.23335681855678558, 0.14971034228801727, 0.11861822009086609, 0.05018110200762749, -0.07142428308725357, 0.0589202344417572, 0.11288237571716309, -0.018437864258885384, -0.01419138628989458, -0.09064193069934845, 0.08154339343309402, -0.025728940963745117, 0.10690584033727646, 0.08882845938205719, 0.17305055260658264, 0.07956187427043915, -0.015288976952433586, 0.0796421617269516, 0.007373256608843803, 0.02847597375512123, 0.015150572173297405, 0.13864892721176147, 0.11677627265453339, 0.06362709403038025, 0.019319266080856323, 0.1948559731245041, -0.02913666144013405, 0.0735432356595993, 0.09139516949653625, 0.14727942645549774, 0.11078957468271255, 0.06833512336015701, 0.07321334630250931, 0.191033735871315, 0.08630408346652985, 0.03395133465528488, 0.051765233278274536, 0.04035983979701996, -0.04448958858847618, -0.07682503759860992, -0.03216853737831116, -0.04734629765152931, -0.0343877412378788, 0.03494499996304512, 0.15509846806526184, -0.008629652671515942, 0.014103327877819538, -0.028463516384363174, 0.03839893266558647, -0.06278277188539505, 0.1109277531504631, 0.15806253254413605, 0.07715725898742676, 0.06408827751874924, 0.012660038657486439, 0.011336944997310638, -0.018224330618977547, -0.11799221485853195, 0.09173417091369629, 0.33362796902656555, -0.048995353281497955, 0.08664203435182571, 0.15249308943748474, 0.060569871217012405, 0.05001576244831085, -0.02686886675655842, 0.07415667176246643, -0.08180590718984604, -0.00869288481771946, -0.0753360241651535, -0.013808087445795536, 0.03081025555729866, 0.036419060081243515, 0.11334419250488281, -0.03432001918554306, 0.027265191078186035, 0.06886575371026993, 0.12546217441558838, -0.025234129279851913, 0.17507299780845642, -0.03255779668688774, 0.04220552369952202, -0.013717186637222767, -0.06968177109956741, -0.05835730955004692, -0.0035476493649184704, -0.08458681404590607, 0.0035805990919470787, 0.11401579529047012, -0.041514258831739426, 0.10396725684404373, 0.06902260333299637, 0.2897590696811676, -0.021907877177000046, 0.03144944831728935, -0.05185949429869652, 0.1422000527381897, 0.07969701290130615, 0.07290532439947128, 0.05774781480431557, 0.023530859500169754, 0.0825643315911293], [-0.05866123363375664, -0.05159350112080574, -0.004177694208920002, 0.05156978964805603, -0.07002166658639908, 0.0176970437169075, 0.158416286110878, 0.06551304459571838, 0.10834910720586777, 0.07432859390974045, -0.02983846887946129, -0.026411429047584534, 0.1316225379705429, 0.08312933892011642, -0.03164554387331009, -0.0831567570567131, -0.012599857524037361, 0.054446347057819366, -0.014121524058282375, -0.010617326013743877, -0.07504583895206451, 0.10084903240203857, -0.023564713075757027, 0.08294294029474258, 0.11465766280889511, 0.03656965494155884, 0.08075625449419022, 0.03596760332584381, 0.10679928958415985, 0.14640262722969055, -0.08992689847946167, -0.08456392586231232, -0.01740247756242752, 0.051943328231573105, -0.06473349779844284, 0.026528777554631233, 0.029519710689783096, 0.036809150129556656, -0.0361391119658947, -0.06466660648584366, 0.12779957056045532, 0.04118945822119713, 0.07644901424646378, 0.0005470018368214369, 0.13733211159706116, -0.04972188174724579, -0.08733586966991425, -0.021702473983168602, -0.041968557983636856, 0.04138946160674095, 0.05490211024880409, -0.0444398932158947, 0.10469396412372589, -0.00026007468113675714, 0.12466183304786682, 0.12068431079387665, 0.07029882818460464, 0.041666705161333084, 0.05802047625184059, -0.036102380603551865, -0.10455633699893951, -0.11882421374320984, -0.03983297199010849, 0.04511828348040581, -0.12584416568279266, 0.0758320540189743, 0.04145714268088341, 0.028087040409445763, 0.04466543719172478, -0.018635395914316177, 0.16223357617855072, 0.05421597883105278, 0.086286261677742, 0.10665880143642426, -0.04048893228173256, 0.02089482918381691, -0.08488615602254868, 0.06447070837020874, 0.09228261560201645, 0.03827224299311638, -0.051136355847120285, 0.11551724374294281, -0.029189910739660263, 0.02552611567080021, 0.046261005103588104, 0.06555996835231781, 0.038495998829603195, 0.03507714346051216, 0.10528849810361862, -0.019108878448605537, -0.08924953639507294, 0.0133577361702919, -0.06234467402100563, -0.008318786509335041, -0.027738630771636963, -0.037672851234674454, 0.010397105477750301, -0.06627476960420609, 0.055063121020793915, 0.04960130900144577, 0.05801411718130112, -0.026787232607603073, 0.10490526258945465, -0.020782554522156715, 0.010806421749293804, 0.0763733983039856, -0.021041544154286385, 0.0031447960063815117, -0.023530807346105576, 0.04073901101946831, 0.01721937209367752, 0.053817372769117355, -0.01813342235982418, 0.10167752206325531, -0.02344221994280815, -0.02442185766994953, 0.08335334062576294, 0.02559329755604267, 0.010033449158072472, 0.1048121303319931, -0.045122671872377396, -0.15048040449619293, 0.0030353635083884, -0.1021638810634613, 0.13940051198005676, 0.0714108869433403, 0.014301699586212635, -0.09015598893165588, 0.04316547140479088, -0.018039509654045105, -0.001930939150042832, -0.030770227313041687, 0.03637552633881569], [-0.015714537352323532, 0.059960413724184036, -0.07410867512226105, 0.028821192681789398, -0.03650254011154175, 0.00739927776157856, 0.03014184534549713, -0.07949448376893997, -0.07815131545066833, -0.03911101818084717, 0.1464233547449112, 0.04826028645038605, 0.0012046662159264088, -0.018801990896463394, 0.012340185232460499, -0.06387359648942947, -0.003555048257112503, -0.03677031397819519, -0.028980709612369537, -0.05124221742153168, 0.03547750040888786, -0.04735834524035454, 0.027618059888482094, 0.047734975814819336, 0.04569164291024208, 0.0613386444747448, 0.05022171139717102, -0.040581114590168, -0.040048904716968536, 0.005922449287027121, -0.006674443371593952, -0.04308145120739937, 0.06618671864271164, 0.007700418122112751, -0.03644535690546036, 0.034315794706344604, 0.056665677577257156, 0.03142792731523514, 0.05511381849646568, -0.06366033107042313, -0.020718352869153023, 0.058726027607917786, 0.06907296925783157, -0.05018430948257446, -0.04483642429113388, 0.017039377242326736, -0.03669709712266922, -0.01792982779443264, -0.014492390677332878, -0.03696269914507866, -0.07217127829790115, 0.04844018444418907, -0.03413849323987961, -0.013404044322669506, 0.039333976805210114, 0.08365986496210098, 0.06320390105247498, -0.08140169829130173, 0.001966433599591255, -0.054217953234910965, -0.04654863476753235, -0.03701252490282059, -0.028836024925112724, 0.03754763677716255, -0.03140741586685181, -0.08292277902364731, -0.02513251081109047, -0.061389755457639694, -0.07056387513875961, -0.04356976971030235, -0.04122618958353996, -0.02469923533499241, 0.11941369622945786, 0.0017021639505401254, -0.07434870302677155, -0.003816981567069888, 0.031097201630473137, 0.06460383534431458, -0.01211581565439701, 0.03876607120037079, 0.04773638769984245, 0.022301381453871727, -0.0869341716170311, 0.02630821242928505, -0.13083522021770477, -0.005550414323806763, 0.0513034351170063, -0.0852852463722229, 0.05117078870534897, 0.03398459032177925, 0.04758438095450401, 0.08289219439029694, 0.0725688561797142, -0.06731744110584259, -0.008706246502697468, -0.05880691483616829, -0.022895697504281998, 0.05961236357688904, 0.03483549878001213, -0.07969006150960922, 0.08119845390319824, -0.015828434377908707, -0.06582695245742798, -0.060361478477716446, -0.05322534590959549, -0.05122264847159386, -0.15126840770244598, 0.06605957448482513, -0.050770364701747894, 0.014580977149307728, -0.07667768746614456, -0.018368491902947426, -0.07495925575494766, 0.05287035554647446, -0.035639334470033646, 0.008923545479774475, 0.041283491998910904, -0.005625707097351551, 0.06642857193946838, 0.02872023731470108, -0.06964553147554398, -0.02623945288360119, 0.06009743735194206, 0.021805623546242714, -0.05271663889288902, -0.0014806266408413649, -0.08332446962594986, 0.03730654716491699, 0.047974713146686554, -0.09607264399528503, -0.0721815675497055, -0.018187060952186584, -0.06181025877594948], [0.1260877251625061, -0.01663333922624588, -0.10188411176204681, 0.009521817788481712, 0.01793360337615013, 0.057633113116025925, -0.07798445224761963, -0.05214175209403038, 0.03351987525820732, 0.027623308822512627, -0.11219888925552368, -0.12268568575382233, 0.05276390537619591, -0.09015274792909622, -0.10091657936573029, 0.02198660559952259, 0.034575093537569046, 0.059545885771512985, 0.026411496102809906, -0.08322185277938843, -0.06866391003131866, -0.10056480020284653, 0.03809357061982155, -0.09162849932909012, 0.03969823569059372, 0.043064285069704056, 0.07841350883245468, -0.094985730946064, 0.07291430234909058, -0.0129817770794034, 0.14882704615592957, 0.06582187116146088, -0.052181508392095566, 0.056724369525909424, 0.005440999288111925, -0.07116790860891342, -0.03506452590227127, 0.020399732515215874, 0.055604081600904465, 0.11219365149736404, 0.044285859912633896, -0.03847998008131981, -0.030728301033377647, 0.01462134812027216, 0.06259770691394806, -0.07305893301963806, 0.017122341319918633, 0.07772316783666611, 0.0018553026020526886, 0.016898388043045998, 0.0009017293341457844, -0.07559356093406677, 0.002740762894973159, -0.048876773566007614, 0.013222535140812397, -0.03585042804479599, 0.08487152308225632, 0.011189197190105915, 0.0255172997713089, 0.028659746050834656, 0.045938700437545776, 0.09404614567756653, -0.03406833857297897, -0.03552737087011337, 0.0544513575732708, -0.004526395350694656, -0.08267850428819656, 0.051239289343357086, -0.005826473701745272, -0.07698933035135269, 0.014502563513815403, 0.0392816998064518, -0.061795834451913834, -0.049537837505340576, 0.03398698568344116, -0.0030901948921382427, 0.04317370057106018, -0.0710655152797699, -0.02094441093504429, -0.0787620097398758, -0.09053276479244232, -0.04929541423916817, -0.006792059633880854, 0.04520982503890991, -0.03784913942217827, 0.152690127491951, 0.04850153625011444, -0.110011525452137, -0.08039229363203049, 0.024982044473290443, 0.08636152744293213, 0.07444794476032257, 0.017030654475092888, 0.10772809386253357, -0.020698657259345055, -0.020997174084186554, -0.07516594231128693, -0.03172378987073898, -0.13427670300006866, 0.045576512813568115, -0.07735583931207657, -0.09362534433603287, -0.07217593491077423, -0.05637146905064583, -0.026911845430731773, 0.1607845574617386, 0.0487532801926136, -0.00315814814530313, 0.0136026656255126, 0.08460305631160736, 0.12292105704545975, -0.08134753257036209, 0.09064542502164841, 0.006018861196935177, 0.014116502366960049, -0.055326756089925766, 0.029634611681103706, -0.012863941490650177, -0.059448499232530594, -0.12307336181402206, -0.09173821657896042, -0.03824921324849129, -0.10859139263629913, -0.11907759308815002, -0.17201215028762817, -0.044569313526153564, -0.022518133744597435, -0.03565184399485588, -0.09796659648418427, -0.08446960151195526, -0.010902891866862774, -0.04886820539832115, 0.046412091702222824], [0.15661770105361938, -0.018010258674621582, -0.0115459393709898, 0.07056444138288498, 0.014099623076617718, 0.030050842091441154, 0.03282512351870537, -0.061771687120199203, 0.006707510445266962, -0.031284086406230927, -0.005260861944407225, -0.08360712975263596, -0.026391396299004555, 0.005051661282777786, -0.08970135450363159, -0.006131595000624657, -0.10705335438251495, 0.002165017183870077, -0.044884346425533295, -0.014496052637696266, 0.04451483115553856, 0.12774346768856049, 0.04786786437034607, 0.032729268074035645, -0.0030775824561715126, -0.1263824701309204, 0.11021658778190613, 0.03629525750875473, -0.022872989997267723, 0.0314541719853878, 0.04268006980419159, -0.015733757987618446, 0.07076467573642731, 0.08874401450157166, 0.0684795156121254, 0.11282279342412949, 0.10521873086690903, -0.07035093754529953, 0.1485557109117508, 0.04186977446079254, -0.03455513343214989, -0.08446476608514786, -0.10916395485401154, 0.035073280334472656, 0.07196112722158432, -0.0004788405494764447, -0.03789237141609192, -0.01850445568561554, 0.07421594858169556, 0.03801519051194191, 0.17672164738178253, 0.13946424424648285, 0.06807786226272583, 0.08336514234542847, 0.09448341280221939, -0.0558600053191185, 0.07454540580511093, 0.03474726155400276, -0.10772591084241867, 0.01168089359998703, 0.1029876247048378, 0.11163987219333649, 0.003308561397716403, 0.13230864703655243, -0.0018591266125440598, 0.06465614587068558, -0.008165220730006695, 0.06322771310806274, -0.08287837356328964, -0.013260988518595695, -0.04872851446270943, 0.03881796449422836, -0.060484275221824646, 0.08650646358728409, -0.012926949188113213, 0.07946699112653732, -0.012533923611044884, 0.046512093394994736, 0.14167819917201996, 0.023617174476385117, 0.040730785578489304, -0.013250915333628654, -0.009918867610394955, 0.06399799138307571, 0.02392042987048626, -0.03708026930689812, 0.00928992684930563, -0.05766983702778816, -0.01754016987979412, -0.17507882416248322, 0.17933043837547302, 0.0963931679725647, 0.13139145076274872, 0.11583469808101654, 0.045410219579935074, 0.03633929416537285, -0.11040351539850235, 0.09476553648710251, -0.13509045541286469, -0.01351400651037693, -0.06777744740247726, -0.06416897475719452, 0.0004969579167664051, -0.09116838872432709, -0.11832229793071747, -0.01344012375921011, -0.11679763346910477, 0.06256341934204102, 0.12656717002391815, -0.004807736724615097, -0.06947524100542068, -0.03405941277742386, 0.02484787069261074, -0.12235331535339355, -0.25262659788131714, -0.06797461211681366, 0.009631669148802757, -0.12333257496356964, -0.09056656807661057, -0.04178314656019211, 0.022826269268989563, 0.003909104969352484, -0.10147619247436523, 0.18619151413440704, 0.010470140725374222, -0.11052370071411133, -0.12335597723722458, 0.11260063946247101, 0.07085484266281128, -0.020449472591280937, -0.021372029557824135, 0.06509682536125183, 0.11179280281066895], [0.21863426268100739, -0.05162646621465683, 0.05449894815683365, -0.05036601424217224, 0.1032484620809555, -0.05611804500222206, -0.07564874738454819, 0.06168215349316597, 0.05671947821974754, -0.012926195748150349, -0.026053113862872124, -0.03085838258266449, 0.01109246350824833, -0.10201949626207352, -0.017520517110824585, 0.1196841448545456, 0.018718155100941658, 0.10315082967281342, -0.029928985983133316, -0.06364117562770844, 0.042649660259485245, -0.0044654724188148975, 0.03827797994017601, -0.05801556631922722, -0.14156506955623627, -0.04012191668152809, -0.045700255781412125, -0.06848405301570892, -0.09855147451162338, -0.01732783578336239, 0.21550968289375305, 0.10014208406209946, 0.112532839179039, 0.05603673681616783, 0.11224421113729477, -0.05266163870692253, -0.09987320005893707, 0.1905999630689621, -0.039388470351696014, -0.05883657932281494, -0.03747137263417244, 0.05355845391750336, 0.05738469585776329, 0.029075128957629204, -0.0970919281244278, 0.14033442735671997, 0.09177575260400772, -0.13953588902950287, 0.09005872905254364, 0.008740101009607315, 0.01949085295200348, -0.06963992118835449, 0.11022759228944778, 0.07914701104164124, -0.026628322899341583, -0.014140119776129723, 0.12460674345493317, 0.05011805146932602, -0.08985816687345505, 0.008150090463459492, 0.1828783005475998, 0.23220449686050415, 0.13972018659114838, -0.047883257269859314, -0.01239002589136362, -0.014990663155913353, -0.07871850579977036, 0.011461648158729076, -0.06163272261619568, -0.019180558621883392, -0.056103408336639404, -0.03565244749188423, -0.04800644516944885, -0.07849482446908951, 0.10939797759056091, 0.16248691082000732, 0.12196426838636398, -0.019344860687851906, 0.014205467887222767, -0.014392799697816372, 0.010759145952761173, 0.10180630534887314, 0.08436998724937439, -0.018310870975255966, -0.039614200592041016, 0.061873890459537506, 0.10033386200666428, 0.016579262912273407, -0.0004897565231658518, -0.06967683881521225, 0.5298227071762085, 0.04627670347690582, 0.14603763818740845, 0.03328216075897217, 0.16518285870552063, -0.07729043811559677, 0.02217920683324337, 0.03005516156554222, 0.11958407610654831, 0.029795600101351738, -0.08126921951770782, 0.08238675445318222, -0.058555275201797485, -0.04763586446642876, 0.08598508685827255, -0.0924597680568695, -0.07838767766952515, 0.09748756140470505, 0.12539368867874146, 0.09770456701517105, 0.19465090334415436, -0.009454812854528427, 0.0284411758184433, -0.04071914032101631, 0.02272903360426426, -0.04465357959270477, -0.05572645738720894, 0.05326336622238159, 0.008217508904635906, -0.02194998599588871, -0.02647797018289566, -0.04864680394530296, 0.09739277511835098, 0.015419645234942436, -0.026637012138962746, 0.025575317442417145, -0.012885981239378452, 0.08683022111654282, 0.037672873586416245, -0.032352596521377563, -0.004920511040836573, 0.15152432024478912, 0.0671180933713913], [0.14118866622447968, 0.005227209068834782, 0.05380529910326004, -0.015214169397950172, -0.08660872280597687, 0.06293752044439316, -0.07517245411872864, 0.006130910478532314, 0.0011293601710349321, 0.06901296973228455, -0.009832128882408142, 0.009755697101354599, 0.033040132373571396, -0.00038497443892993033, 0.10175514221191406, 0.0725216493010521, -0.04470090568065643, 0.006343940272927284, -0.004064604640007019, 0.06872471421957016, 0.08180752396583557, 0.021869990974664688, 0.13671991229057312, -0.04368225485086441, 0.009501869790256023, 0.06015711650252342, 0.05186186730861664, 0.032814934849739075, 0.02448798343539238, -0.02915283478796482, 0.21364867687225342, 0.024730287492275238, -0.013894099742174149, 0.09790252894163132, 0.019361823797225952, -0.10366975516080856, 0.08838255703449249, 0.09944263100624084, 0.09432053565979004, 0.07433127611875534, -0.16637475788593292, 0.07823219895362854, -0.0768623948097229, 0.047616202384233475, -0.028989335522055626, 0.17531494796276093, 0.09003759175539017, 0.02228931337594986, 0.002303001470863819, 0.15596260130405426, 0.09848926216363907, 0.01266875583678484, 0.12828245759010315, 0.056171219795942307, 0.10290595144033432, -0.07003733515739441, 0.035328302532434464, 0.04881645739078522, -0.0738048180937767, 0.0009080064482986927, 0.16434507071971893, 0.06255274266004562, 0.03375361114740372, 0.061089396476745605, 0.07881572842597961, 0.13682132959365845, -0.12584169209003448, -0.025136645883321762, 0.021549290046095848, -0.02326301299035549, -0.030131004750728607, 0.04446088895201683, -0.03234976902604103, -0.0002814003673847765, 0.09397168457508087, 0.16226978600025177, -0.0386827178299427, 0.0016856538131833076, 0.020816821604967117, -0.011506467126309872, 0.09614964574575424, -0.02422047220170498, 0.08295756578445435, -0.07433075457811356, -0.06028562784194946, 0.05787397548556328, 0.005484904162585735, -0.062372833490371704, -0.1084207221865654, 0.029274020344018936, 0.21309927105903625, 0.10869245231151581, 0.019012315198779106, -0.028242871165275574, 0.08270888775587082, -0.010276339948177338, -0.018605507910251617, 0.05763888359069824, -0.03999553248286247, 0.05218931660056114, 0.030061811208724976, -0.007147334981709719, -0.05976035073399544, -0.06746681034564972, -0.032385263592004776, 0.024543682113289833, 0.17667582631111145, -0.034402262419462204, -0.08736861497163773, -0.0022757048718631268, 0.12454898655414581, -0.0059691620990633965, 0.06614299863576889, -0.011608876287937164, -0.02712687849998474, -0.04757646098732948, 0.01729690469801426, 0.045153405517339706, -0.06231139227747917, 0.006464147008955479, 0.0824723169207573, 0.0822794958949089, 0.05181825906038284, 0.2291678935289383, 0.03873256593942642, -0.05026431009173393, 0.02207351103425026, 0.05934687331318855, 0.08751034736633301, -0.0026977634988725185, 0.11310282349586487, 0.09092172235250473, 0.07484845072031021], [0.002915365155786276, -0.04810795187950134, 0.03985617682337761, 0.040508098900318146, 0.048701826483011246, -0.02858072891831398, 0.04070236161351204, -0.03202289342880249, 0.001334087923169136, -0.03789190575480461, 0.08544300496578217, 0.06142273172736168, -0.07599443942308426, -0.08303209394216537, 0.01955535262823105, -0.03768438473343849, -0.070578433573246, 0.05363396555185318, -0.0015582345658913255, -0.045162029564380646, -0.0531458742916584, -0.010918166488409042, 0.07630563527345657, 0.09077169001102448, 0.04477514699101448, -0.011973085813224316, -0.05423922464251518, 0.0007078817579895258, 0.1543973982334137, -0.008668627589941025, -0.016220347955822945, -0.07755806297063828, -0.08430440723896027, -0.04034999758005142, -0.019415048882365227, -0.1163756251335144, 0.10982102155685425, 0.04071781784296036, 0.0901230201125145, 0.01539536751806736, 0.04516814276576042, -0.07778479158878326, -0.055757373571395874, 0.036469146609306335, -0.08829134702682495, -0.07425602525472641, 0.07303997129201889, -0.09412658959627151, 0.07185446470975876, -0.0577339231967926, -0.11392821371555328, 0.10248786956071854, 0.06818558275699615, -0.07895603030920029, 0.09075786918401718, 0.07325954735279083, -0.16103844344615936, 0.0023519531823694706, -0.029237059876322746, -0.0781717523932457, 0.007680085953325033, 0.04483387991786003, -0.05270813778042793, 0.062064189463853836, 0.10512642562389374, 0.054329026490449905, 0.047779493033885956, 0.008684929460287094, -0.052334263920784, -0.16466817259788513, -0.08290114998817444, -0.028388934209942818, 0.023046273738145828, -0.0672864019870758, 0.06449046730995178, 0.04156862944364548, 0.005326122045516968, 0.04162663593888283, 0.038275983184576035, 0.054611630737781525, -0.027814587578177452, 0.06231611967086792, 0.06519262492656708, -0.0359596386551857, 0.06058322638273239, 0.08334286510944366, -0.08043895661830902, 0.07654042541980743, -0.0023720995523035526, -0.005057850386947393, -0.012198984622955322, 0.16582055389881134, 0.02950182743370533, 0.06895188987255096, -0.049490172415971756, 0.03663083165884018, -0.042908236384391785, -0.0394429937005043, -0.05268466845154762, -0.017880992963910103, -0.008926729671657085, 0.03363211452960968, 0.060896869748830795, 0.002142365090548992, -0.03012082166969776, 0.006398501340299845, -0.23329323530197144, 0.06064290180802345, -0.06367728859186172, 0.026449330151081085, -0.036669906228780746, -0.13278162479400635, -0.015818266198039055, 0.0016064939554780722, 0.009625252336263657, 0.040100257843732834, 0.025019822642207146, -0.06021652743220329, 0.023514291271567345, -0.08342950791120529, 0.02416677586734295, 0.1900922954082489, -0.255288302898407, -0.07787805795669556, 0.018425608053803444, 0.04984544590115547, -0.031841106712818146, -0.02341143786907196, -0.07191848754882812, -0.09952360391616821, 0.07458411157131195, -0.0022082929499447346, -0.06181799992918968], [-0.042943667620420456, 0.025206374004483223, 0.12869000434875488, 0.05586174130439758, -0.12713229656219482, -0.0005504620494320989, -0.14078928530216217, -0.0770433098077774, 0.008460121229290962, -0.04795217141509056, 0.015741484239697456, -0.03365536779165268, -0.03299793601036072, -0.03594871610403061, 0.0361381471157074, 0.024783307686448097, 0.07861533761024475, 0.006504332646727562, -0.14553837478160858, 0.07291658222675323, 0.14185647666454315, -0.11720525473356247, 0.05738713592290878, -0.031734202057123184, 0.06286218017339706, -0.0450478233397007, -0.01129341870546341, 0.02642858400940895, -0.027117768302559853, -0.011943344958126545, 0.09290587157011032, -0.055805936455726624, -0.03324316442012787, -0.06725875288248062, 0.08103150129318237, -0.07082953304052353, -0.032945968210697174, 0.12081529200077057, 0.06077992171049118, 0.12280803173780441, -0.060758572071790695, -0.011210250668227673, -0.010925155133008957, 0.056090958416461945, 0.025790102779865265, 0.013922705315053463, -0.03743018954992294, 0.04647192731499672, 0.03644445911049843, -0.06532783806324005, 0.014407328329980373, -0.020889371633529663, 0.1125158742070198, 0.11969676613807678, 0.14602062106132507, 0.04304566606879234, 0.06139824166893959, 0.004739542491734028, -0.051380958408117294, 0.004085577558726072, 0.10695245116949081, 0.026960674673318863, 0.041241105645895004, -0.191804438829422, -0.09018286317586899, 0.10167526453733444, 0.010765798389911652, -0.0775824636220932, -0.07850520312786102, 0.11041843146085739, -0.03881930187344551, 0.025472164154052734, -0.01675594039261341, -0.02087511122226715, 0.04323718696832657, -0.09616954624652863, 0.007425157818943262, -0.06233338639140129, 0.013262061402201653, -0.05243859440088272, 0.07417172193527222, 0.15199622511863708, 0.045975007116794586, 0.029500240460038185, 0.10763640701770782, 0.05086420103907585, 0.0038149040192365646, 0.14062084257602692, -0.031177207827568054, 0.09455536305904388, -0.020221047103405, -0.054360952228307724, 0.061465051025152206, -0.09092389047145844, -0.007005506195127964, -0.03857618197798729, 0.013643440790474415, -0.008196876384317875, 0.23698394000530243, 0.015604188665747643, -0.044941242784261703, -0.2197224646806717, -0.030332250520586967, -0.04131658747792244, 0.0140764145180583, 0.04241815209388733, 0.02339506521821022, -0.07319294661283493, -0.29532337188720703, -0.12091418355703354, 0.10146888345479965, -0.025884391739964485, -0.012757171876728535, 0.06780973821878433, 0.04533848911523819, -0.07935337722301483, -0.08182401210069656, -0.026211639866232872, 0.023536518216133118, -0.031152551993727684, 0.0844079777598381, 0.18540357053279877, 0.19982323050498962, 0.024431683123111725, -0.03266249597072601, 0.007727427873760462, -0.06810855865478516, 0.08592062443494797, 0.1155271828174591, 0.08353856950998306, 0.10304522514343262, 0.06681487709283829, -0.0651758685708046], [-0.21235288679599762, -0.10759904980659485, -0.1035381406545639, -0.07128670066595078, -0.030769968405365944, 0.019305668771266937, 0.0943257212638855, -0.1189776360988617, -0.031224539503455162, -0.06710663437843323, 0.014626020565629005, 0.03435700386762619, -0.09479932487010956, -0.0716894268989563, -0.09243450313806534, -0.15425074100494385, -0.05304127186536789, -0.12177612632513046, -0.012044109404087067, 0.02151942439377308, 0.026101207360625267, 0.0564551018178463, -0.1665746569633484, -0.01626221463084221, 0.0572984479367733, -0.099402517080307, 0.08615943789482117, -0.007575163617730141, -0.10254528373479843, 0.08074113726615906, -0.2916454076766968, -0.18667294085025787, -0.12994998693466187, -0.08268985152244568, -0.10192666947841644, -0.025551648810505867, 0.20814335346221924, -0.04544234648346901, 0.067348912358284, 0.019263923168182373, -0.08984765410423279, 0.03155720978975296, -0.1176452487707138, 0.014111206866800785, -0.005971281789243221, -0.05092649161815643, -0.07476086169481277, -0.015553727746009827, -0.07628311961889267, -0.037253476679325104, 0.02460774965584278, 0.0927811935544014, -0.0384419783949852, -0.0020526647567749023, 0.06890180706977844, -0.03587022423744202, 0.0910613015294075, -0.08675151318311691, -0.08206846565008163, -0.008878285996615887, -0.0351388119161129, -0.014777868054807186, -0.015789752826094627, -0.0006909872754476964, -0.002731261309236288, -0.032021041959524155, 0.04202455282211304, -0.08208364248275757, 0.020352018997073174, 0.06388898193836212, -0.006199293304234743, 0.0536642000079155, -0.17818257212638855, -0.09709136188030243, 0.08710292726755142, -0.08600625395774841, -0.10537544637918472, -0.046672523021698, -0.05053615942597389, -0.061663080006837845, -0.05623732507228851, 0.01489737257361412, 0.023716185241937637, 0.19141726195812225, 0.031288228929042816, -0.09164582192897797, 0.0270849596709013, -0.09147655963897705, -0.12531524896621704, 0.013367516919970512, -0.08672644942998886, 0.013080630451440811, -0.15262611210346222, -0.009919678792357445, -0.09829221665859222, -0.05697259306907654, 0.09558891505002975, -0.04100225493311882, 0.08533269912004471, -0.01834164373576641, -0.10835953801870346, 0.061977703124284744, -0.04927724599838257, 0.012638809159398079, 0.04602602869272232, -0.02774166688323021, -0.0028471644036471844, -0.109383724629879, -0.07250193506479263, -0.0907139852643013, -0.03399604558944702, 0.0977148562669754, -0.061428219079971313, 0.08189793676137924, -0.016520699486136436, -0.004957901313900948, 0.01568896882236004, 0.05451181158423424, 0.023657124489545822, 0.03542006015777588, -0.054604046046733856, 0.0539453849196434, 0.24051149189472198, -0.2512637674808502, 0.026867201551795006, -0.04121313989162445, -0.05418045446276665, 0.10096132010221481, -0.009144495241343975, 0.07334920018911362, -0.05158759281039238, 0.0449560321867466, -0.030472032725811005], [0.16984888911247253, -0.006355901714414358, -0.0273238904774189, 0.05678246542811394, 0.056433796882629395, 0.05444645881652832, -0.09634383767843246, 0.14471395313739777, -0.01950434409081936, -0.01895694062113762, -0.06335284560918808, -0.0357637032866478, -0.011592639610171318, 0.04616773501038551, 0.07110615074634552, 0.058605533093214035, 0.03323397412896156, 0.0947592705488205, -0.07735560834407806, -0.03664040565490723, 0.12403704971075058, 0.00639098696410656, 0.07076888531446457, -0.09266694635152817, -0.047188714146614075, -0.08744042366743088, -0.01659613661468029, -0.0875268280506134, -0.06915280222892761, 0.038231879472732544, 0.14947402477264404, 0.09224314242601395, 0.13550245761871338, -0.005046273116022348, 0.04585692286491394, 0.04414201155304909, 0.011569476686418056, 0.042452216148376465, -0.005232803989201784, 0.06474830955266953, -0.047113414853811264, -0.01902969740331173, -0.09141130745410919, 0.0330624021589756, -0.055118389427661896, 0.026154013350605965, -0.009545514360070229, 0.013453397899866104, -0.09063777327537537, 0.07129057496786118, 0.01857028529047966, 0.12592868506908417, 0.0812845304608345, 0.03685605153441429, 0.1275559514760971, 0.04913106560707092, 0.02693197876214981, -0.08034303784370422, -0.06469573825597763, 0.09138122946023941, 0.11651043593883514, 0.05909514054656029, 0.015081063844263554, 0.03513568267226219, 0.09497486799955368, 0.17421135306358337, 0.057101164013147354, 0.003997029270976782, -0.06955813616514206, -0.07617466896772385, 0.020823054015636444, 0.05394141003489494, -0.09238819032907486, -0.06211808696389198, 0.012474710121750832, 0.11227577179670334, -0.011959409341216087, -0.02712242305278778, 0.09727997332811356, 0.037929780781269073, -0.004214956425130367, -0.014843418262898922, 0.10363863408565521, 0.06941492855548859, 0.0550265796482563, -0.054427869617938995, -0.014522005803883076, 0.023713288828730583, -0.08031990379095078, -0.028587844222784042, 0.1441143900156021, -0.05825498700141907, 0.01821550913155079, -0.08158069849014282, -0.08861115574836731, -0.0559651255607605, 0.05265231058001518, 0.1150030791759491, 0.014190014451742172, -0.033273570239543915, 0.04974835366010666, 0.09023405611515045, 0.014806516468524933, 0.016725007444620132, 0.0690760612487793, -0.003093934152275324, -0.08284521102905273, 0.023182548582553864, -0.13057373464107513, 0.04887314885854721, -0.03490618243813515, -0.02975538931787014, 0.042480338364839554, 0.03564126044511795, -0.03799955174326897, -0.020393986254930496, -0.022517455741763115, -0.024318242445588112, 0.023778731003403664, -0.053305890411138535, 0.0256564412266016, 0.06941498070955276, 0.04235332831740379, 0.17900042235851288, 0.1219140961766243, 0.051194075495004654, 0.04657193273305893, 0.1436949372291565, 0.06929973512887955, 0.1283964216709137, 0.043082576245069504, 0.10866767168045044, 0.07242584228515625], [0.24458162486553192, 0.09984122216701508, 0.07500007003545761, 0.05774442479014397, -0.01373047474771738, 0.03186472877860069, 0.035450585186481476, 0.17351499199867249, -0.0405367836356163, -0.01849377527832985, -0.013278111815452576, 0.06372293084859848, 0.049791958183050156, 0.04608963802456856, 0.06133652478456497, 0.034027598798274994, 0.003789428388699889, 0.052877139300107956, -0.0764274001121521, 0.060070741921663284, 0.09940478950738907, -0.012375405989587307, 0.1636185646057129, -0.04734601080417633, 0.051248177886009216, -0.04198130592703819, 0.02330423891544342, -0.0366450659930706, -0.02821040153503418, 0.0040939985774457455, 0.2076561003923416, 0.15693989396095276, 0.09435909986495972, 0.07917550951242447, 0.1305919885635376, 0.029614141210913658, 0.05768609419465065, 0.0895877406001091, -0.030964689329266548, 0.09077940881252289, -0.022795069962739944, 0.09479232877492905, 0.007004798389971256, -0.040152303874492645, 0.026949673891067505, 0.14081549644470215, 0.04597731679677963, 0.07020939886569977, 0.13409218192100525, 0.08700545877218246, -0.005724554881453514, 0.030482297763228416, -0.012753630056977272, 0.023063350468873978, -0.07709446549415588, -0.09683385491371155, 0.03884025290608406, -0.04045279324054718, 0.02341909520328045, 0.14921320974826813, 0.31065526604652405, 0.2268657684326172, 0.09970375895500183, 0.16853654384613037, 0.04581449180841446, 0.08224782347679138, -0.03142399713397026, 0.23828090727329254, 0.025267839431762695, -0.10537795722484589, -0.05801424756646156, 0.02128014899790287, -0.09142906218767166, -0.03026057407259941, 0.11257538944482803, 0.16033509373664856, -0.0033218180760741234, 0.0019728909246623516, 0.2604391276836395, 0.16528229415416718, 0.014820920303463936, -0.06437429785728455, 0.17626695334911346, -0.003913231194019318, -0.03947669267654419, -0.019579781219363213, 0.06130167841911316, 0.10730157047510147, -0.09862759709358215, -0.059359874576330185, 0.20058679580688477, -0.2842904031276703, 0.09411055594682693, 0.1910528838634491, 0.07239367067813873, 0.04439368098974228, 0.06657545268535614, 0.1503506451845169, -0.056085940450429916, -0.055538516491651535, -0.0724162757396698, -0.020318662747740746, 0.04758540913462639, 0.021290479227900505, 0.052980151027441025, 0.10365020483732224, -0.07234330475330353, -0.04280992969870567, 0.11839038878679276, 0.09688947349786758, 0.0741187334060669, -0.06478997319936752, 0.009090996347367764, -0.05408744513988495, -0.055120836943387985, -0.10749807953834534, 0.03146877884864807, -0.06848873198032379, -0.03492197021842003, 0.008620361797511578, 0.06581977009773254, 0.1426653414964676, -0.14454703032970428, 0.23891876637935638, -0.028458628803491592, -0.01197991892695427, 0.018453067168593407, 0.1608687937259674, -0.0035862259101122618, -0.012676727026700974, -0.13006123900413513, 0.0044592805206775665, 0.05105133727192879], [-0.10644659399986267, -0.12347422540187836, -0.11405262351036072, -0.20451714098453522, -0.2004520446062088, -0.06975342333316803, -0.07287795096635818, -0.11062302440404892, -0.006805271841585636, 0.07140378654003143, -0.014353342354297638, 0.05074503272771835, 0.014041810296475887, -0.03123185783624649, 0.12721484899520874, -0.22238744795322418, -0.030245928093791008, -0.14721599221229553, 0.009241779334843159, -0.14192496240139008, -0.09937393665313721, 0.06859438866376877, -0.06990540772676468, 0.09180192649364471, 0.06223801150918007, -0.026043124496936798, 0.14776666462421417, -0.15167999267578125, 0.14788596332073212, 0.09399915486574173, -0.3202904462814331, -0.1088031753897667, -0.013995084911584854, -0.2629662752151489, -0.10417421907186508, 0.004751680418848991, 0.12567149102687836, -0.07809094339609146, 0.033650606870651245, 0.10361288487911224, -0.12278544157743454, -0.04228856787085533, -0.012312442995607853, 0.0424799881875515, 0.08374650031328201, -0.12271036207675934, -0.05700862407684326, -0.09595207870006561, -0.08848259598016739, -0.22016875445842743, -0.04870495945215225, -0.002570431213825941, -0.0425330251455307, -0.01887035183608532, 0.2283553183078766, -0.12036056816577911, 0.07244056463241577, -0.021334299817681313, -0.003192489268258214, 0.004201654344797134, -0.2242005467414856, -0.08214985579252243, -0.10595804452896118, -0.03907971456646919, -0.27808135747909546, 0.06272508203983307, 0.08129424601793289, -0.06632419675588608, 0.03509281575679779, 0.010829465463757515, -0.08426547050476074, -0.05701290816068649, -0.0949508398771286, -0.08469803631305695, -0.030415115877985954, -0.14563578367233276, -0.14215044677257538, -0.15685580670833588, -0.03145219013094902, -0.11848646402359009, 0.10980922728776932, 0.07555627077817917, 0.06061602756381035, 0.07238298654556274, 0.12886369228363037, -0.08110146969556808, -0.04602177068591118, 0.0149402916431427, -0.07225070148706436, 0.012324841693043709, -0.14949196577072144, -0.023347092792391777, -0.09708160907030106, -0.016192400828003883, -0.19574624300003052, 0.011633251793682575, -0.02510548010468483, -0.10918984562158585, -0.009909526444971561, 0.029062572866678238, -0.056859515607357025, 0.010808970779180527, 0.04987716302275658, -0.09686238318681717, 0.041187360882759094, -0.07273595035076141, -0.01425573043525219, 0.02591482177376747, -0.2679066061973572, -0.17785611748695374, -0.07210129499435425, 0.0630352646112442, -0.06370530277490616, 0.013091107830405235, -0.08679734915494919, -0.05621041730046272, 0.030751897022128105, -0.022262414917349815, -0.015710270032286644, -0.008418017998337746, 0.01038885023444891, 0.056355468928813934, 0.07914546877145767, -0.0562574565410614, -0.08609873056411743, -0.04982660338282585, -0.002373727271333337, -0.018835412338376045, 0.0853724405169487, -0.008528154343366623, -0.051802828907966614, -0.01535920612514019, -0.007280795834958553], [-0.14507226645946503, -0.0012854108354076743, -0.07330375164747238, -0.08914444595575333, -0.16195224225521088, 0.027758363634347916, -0.09349647909402847, 0.09103436022996902, 0.09420189261436462, 0.013248986564576626, 0.012556669302284718, 0.05448679253458977, -0.05032435804605484, -0.24586017429828644, -0.015011799521744251, -0.055757761001586914, 0.05328478664159775, -0.049016017466783524, -0.03228813782334328, 0.08555489778518677, -0.043292418122291565, -0.10609377920627594, -0.2469521164894104, -0.008117319084703922, 0.010453111492097378, -0.07702556252479553, 0.04212707281112671, 0.010223613120615482, 0.023797128349542618, 0.049794960767030716, -0.08618491888046265, -0.14709731936454773, -0.15686623752117157, -0.08577357977628708, -0.17397980391979218, -0.010663504712283611, 0.05213623493909836, 0.019705628976225853, 0.046602070331573486, -0.04880505055189133, 0.045793015509843826, -0.020204227417707443, 0.034003160893917084, -0.06948739290237427, -0.03828023001551628, 0.025143371894955635, -0.007401048205792904, -0.11622723191976547, -0.04773503541946411, 0.026155369356274605, 0.026649143546819687, -0.017095770686864853, -0.03481493890285492, 0.088899627327919, 0.12567412853240967, -0.03916524723172188, 0.06633579730987549, -0.010697835125029087, -0.048170529305934906, 0.09653833508491516, -0.05127652361989021, 0.06636959314346313, 0.034514978528022766, 0.06920500844717026, -0.024058103561401367, -0.04125915840268135, 0.03980320319533348, 0.006685343105345964, 0.08568491786718369, 0.025195298716425896, -0.09597480297088623, -0.08095073699951172, -0.08610957860946655, 0.060276150703430176, -0.005317158997058868, -0.1241912990808487, -0.07402919977903366, -0.10423987358808517, 0.03638298809528351, -0.08881376683712006, 0.07813609391450882, -0.03103003464639187, 0.06883043795824051, 0.11861416697502136, 0.1271902620792389, 0.005491402931511402, 0.041978951543569565, -0.03357566520571709, -0.05843869224190712, 0.011160098947584629, 0.032020386308431625, -0.03415602445602417, -0.036306291818618774, 0.07221993803977966, -0.019474824890494347, 0.10888843983411789, 0.030521122738718987, 0.0002930612536147237, 0.06982012093067169, -0.012862816452980042, 0.05886589363217354, 0.0037434061523526907, 0.1933344304561615, 0.0316445454955101, 0.06391676515340805, -0.11665467917919159, -0.11092865467071533, -0.0365910530090332, -0.030237291008234024, -0.11782119423151016, 0.08925864845514297, 0.06187033653259277, -0.030500786378979683, 0.1176779568195343, 0.03589526191353798, -0.021464742720127106, -0.011701966635882854, -0.0859253779053688, -0.04904508218169212, 0.1533278226852417, 0.081332728266716, 0.042877521365880966, 0.19013665616512299, -0.18757645785808563, -0.04965059086680412, -0.0829303190112114, -0.03364229574799538, 0.10188090056180954, 0.11361698061227798, 0.050903983414173126, -0.1163979172706604, 0.15149934589862823, -0.04732823744416237], [0.12113007158041, -0.08229882270097733, -0.037329159677028656, 0.003989860415458679, 0.0114608034491539, 0.05633433163166046, 0.04281400889158249, -0.07501953095197678, 0.07441192120313644, 0.14721930027008057, 0.044105734676122665, -0.04323325678706169, 0.07348332554101944, -0.04806048050522804, 0.10777916759252548, 0.054262302815914154, -0.1135082095861435, 0.022822532802820206, -0.07119856774806976, -0.03357718884944916, 0.021094392985105515, -0.08099091053009033, -0.0741603821516037, -0.02014561928808689, -0.046633780002593994, -0.07304590940475464, 0.04437895864248276, 0.05237014964222908, 0.054957982152700424, -0.06293725222349167, 0.03787301108241081, 0.021682456135749817, -0.06659673899412155, 0.14394378662109375, -0.05094902962446213, 0.04201629385352135, -0.11698336154222488, 0.006434457376599312, -0.130207359790802, -0.011641230434179306, -0.03274805471301079, 0.0010448747780174017, 0.06846253573894501, -0.0934528037905693, -0.06983020156621933, 0.17848579585552216, 0.0276938583701849, -0.04324124753475189, 0.08705365657806396, 0.10290597379207611, 0.061257172375917435, 0.0641384869813919, -0.06219086796045303, 0.01101934164762497, 0.04682907089591026, 0.04617408663034439, 0.08707724511623383, -0.026005709543824196, 0.002867299597710371, -0.07466130703687668, -0.023237917572259903, 0.05366957560181618, 0.0854748860001564, -0.05953681468963623, 0.053123459219932556, 0.03399054333567619, 0.057159874588251114, 0.03714141994714737, 0.04966133087873459, 0.15078824758529663, -0.04224170371890068, 0.016154175624251366, 0.08037631213665009, 0.04943377524614334, -0.030820701271295547, -0.048698630183935165, -0.023648904636502266, 0.0012337577063590288, -0.08641192317008972, 0.026384877040982246, -0.11784077435731888, -0.03589353710412979, 0.015748286619782448, 0.1674991101026535, -0.05177529156208038, 0.0064177666790783405, -0.017682714387774467, -0.04810429736971855, -0.01323775015771389, -0.031243721023201942, 0.16445855796337128, 0.02476457692682743, -0.08449455350637436, 0.12304277718067169, 0.12764491140842438, -0.05461602658033371, 0.08501856029033661, 0.087223120033741, 0.03188004344701767, 0.10009059309959412, -0.08586891740560532, 0.029713204130530357, 0.06362403929233551, 0.03142023831605911, -0.0759819746017456, -0.06992103159427643, 0.02052905410528183, -0.021091831848025322, 0.021212905645370483, -0.08675317466259003, -0.0364706888794899, -0.007640245370566845, -0.005825822241604328, -0.0378594696521759, -0.06833125650882721, -0.05707210674881935, -0.05100154131650925, 0.03638624772429466, -0.08264846354722977, -0.07061590254306793, -0.05022481083869934, 0.08748605847358704, 0.12460411339998245, 0.05062706768512726, -0.04969561845064163, 0.005367488134652376, -0.024165384471416473, 0.14733654260635376, 0.15410774946212769, -0.07537449151277542, -0.04391014575958252, 0.04622136801481247, -0.07387850433588028], [0.10939787328243256, 0.042044006288051605, 0.04664289578795433, 0.04820047318935394, 0.03317858651280403, -0.08969336003065109, 0.06127271056175232, -0.10001582652330399, 0.035731907933950424, -0.036378707736730576, -0.03978047892451286, 0.028335850685834885, 0.08118275552988052, -0.058843400329351425, -0.04165726527571678, 0.11175986379384995, -0.014558450318872929, 0.06079224869608879, 0.10105279088020325, -0.026558101177215576, -0.12603671848773956, 0.08233475685119629, 0.025858234614133835, 0.09922242164611816, -0.08146650344133377, -0.07740690559148788, -0.12302499264478683, -0.04714607074856758, -0.03475194796919823, 0.016111262142658234, 0.17300643026828766, 0.02148563414812088, 0.15493673086166382, 0.12692175805568695, 0.16679328680038452, -0.017237786203622818, -0.16553853452205658, -0.11609756201505661, -0.12261282652616501, -0.19048736989498138, -0.04865681752562523, -0.010303323157131672, -0.029147595167160034, 0.03545445576310158, -0.0886308029294014, 0.14252354204654694, -0.026465946808457375, 0.058517590165138245, -0.022948356345295906, 0.03163115680217743, -0.10371735692024231, -0.08613644540309906, -0.17496737837791443, -0.025382207706570625, -0.07016393542289734, 0.0562041811645031, -0.13940301537513733, -0.06749394536018372, 0.014955632388591766, -0.022684769704937935, 0.12528809905052185, 0.019376447424292564, -0.02946568839251995, -0.02546701952815056, -0.017370978370308876, 0.14018623530864716, -0.05611232668161392, -0.0061151511035859585, -0.0331445187330246, -0.12783583998680115, 0.009285807609558105, 0.01686934009194374, -0.07959581166505814, -0.017946768552064896, 0.16990233957767487, 0.08503956347703934, 0.08703947067260742, 0.0999029353260994, -0.04995798319578171, -0.010826176032423973, 0.04057573154568672, -0.06248774006962776, -0.22629179060459137, -0.16193781793117523, -0.08676870912313461, 0.06450223922729492, -0.06471695750951767, -0.010358494706451893, 0.06207280978560448, 0.08493507653474808, 0.15314705669879913, 0.08236537128686905, 0.12790429592132568, 0.021059056743979454, 0.050507400184869766, -0.11357097327709198, -0.14196152985095978, -0.12360669672489166, -0.05876860395073891, -0.1479027420282364, -0.0445396862924099, -0.05145658552646637, -0.08251762390136719, -0.010717717930674553, -0.11782091856002808, 0.06598420441150665, 0.04786282405257225, -0.009699204936623573, 0.08995863050222397, 0.06736558675765991, 0.02723642811179161, 0.08295118063688278, -0.005818062461912632, 0.012588373385369778, -0.02348024956882, -0.010134321637451649, 0.1680831015110016, 0.05856970697641373, 0.03620203956961632, 0.04630286246538162, 0.06342519074678421, -0.023254970088601112, -0.1794462352991104, 0.1962103545665741, 0.06918448954820633, 0.04617105424404144, 0.01118595153093338, 0.08643756061792374, 0.018877098336815834, 0.09218332916498184, 0.09950067102909088, -0.1842697262763977, 0.12164314091205597], [0.07933726161718369, 0.0660242810845375, -0.053234782069921494, -0.021137220785021782, 0.06660351902246475, 0.002740468829870224, -0.10429151356220245, 0.08255056291818619, -0.0029029170982539654, 0.07986144721508026, -0.0978638157248497, 0.05931814759969711, -0.03419402241706848, 0.02469867840409279, 0.015127865597605705, 0.07363687455654144, 0.04024789482355118, 0.03725786507129669, 0.03283050283789635, 0.09876525402069092, 0.048862140625715256, -0.03255447745323181, 0.013086581602692604, -0.021919405087828636, -0.034465860575437546, 0.04588202387094498, 0.12043271213769913, -0.019628338515758514, -0.07740473002195358, -0.06389699131250381, 0.15909145772457123, 0.11334233731031418, 0.008989803493022919, 0.1389480084180832, 0.0574469156563282, 0.0725228413939476, 0.01716659590601921, 0.007170844357460737, 0.05434003472328186, -0.03610821068286896, 0.007646734826266766, 0.05447395145893097, -0.04393778741359711, -0.10049506276845932, 0.016776205971837044, 0.23167842626571655, -0.024400420486927032, 0.04354690760374069, 0.017488379031419754, 0.09301210194826126, 0.13288480043411255, 0.03863326832652092, 0.04429507628083229, 0.0950106754899025, 0.08873375505208969, 0.023403948172926903, 0.2655126750469208, -0.08292496204376221, -0.027035057544708252, 0.11431215703487396, 0.10437856614589691, 0.07138695567846298, 0.05732601508498192, -0.07407271862030029, -0.003510560840368271, 0.034412093460559845, 0.017591245472431183, 0.019048506394028664, -0.0585448332130909, 0.02359754778444767, 0.04371364414691925, 0.09458696842193604, 0.02623904123902321, -0.0007490398129448295, 0.11268207430839539, 0.132591113448143, -0.046028248965740204, 0.07733545452356339, -0.05428921431303024, -0.011257852427661419, 0.01743225008249283, -0.003361850744113326, -0.02273951657116413, 0.07225622981786728, 0.07251197099685669, -0.0672365203499794, 0.05171167850494385, -0.04140906780958176, -0.09207331389188766, 0.0922587588429451, 0.21774934232234955, -0.05810432508587837, 0.042072564363479614, -0.07078428566455841, 0.06447144597768784, -0.03279652073979378, -0.1733013242483139, 0.14773030579090118, -0.06757260859012604, 0.02260897494852543, -0.014747164212167263, 0.09787837415933609, 0.012243907898664474, 0.10321339964866638, -0.0167135838419199, 0.03214001655578613, -0.012364545837044716, -0.07444748282432556, -0.009315678849816322, 0.09186525642871857, 0.03930897265672684, -0.08779869228601456, -0.014681356959044933, 0.03982987254858017, 0.12597043812274933, -0.005885872524231672, 0.00041988425073213875, -0.07716185599565506, 0.01284409873187542, 0.021155506372451782, 0.050707485526800156, 0.01564302295446396, -0.03373804688453674, 0.12305164337158203, -0.07707510888576508, -0.08824978023767471, -0.09010506421327591, 0.08718852698802948, 0.06513379514217377, -0.01411269698292017, 0.08408461511135101, 0.03808495029807091, 0.05921297147870064], [-0.13826248049736023, 0.03684041276574135, 0.05512182414531708, -0.1284770518541336, -0.03582962602376938, 0.02933317981660366, -0.10749227553606033, 0.03324982151389122, -0.09432029724121094, -0.05849558115005493, 0.010186311788856983, -0.10597212612628937, 0.013679875060915947, 0.042559023946523666, -0.04972895234823227, 0.023713186383247375, 0.07201219350099564, -0.033062875270843506, 0.04014447703957558, 0.05059415474534035, -0.03885381668806076, 0.00782775692641735, -0.07703475654125214, 0.06731685250997543, -0.03584740683436394, -0.09606622159481049, 0.091311514377594, -0.05586085096001625, -0.004466985817998648, -0.011482194066047668, -0.07258368283510208, -0.006829400546848774, 0.07219245284795761, -0.12834316492080688, -0.01255088858306408, -0.05965439975261688, 0.131619393825531, -0.059194814413785934, 0.07055429369211197, 0.07816241681575775, -0.04913045093417168, 0.0608723908662796, -0.11110393702983856, 0.04814669489860535, 0.01767503097653389, -0.02507106214761734, -0.03194621950387955, -0.004173570312559605, 0.02019363082945347, 0.14866963028907776, -0.01733843982219696, 0.09367352724075317, 0.03650408238172531, 0.11417946219444275, 0.006568071898072958, 0.11893733590841293, 0.02696554735302925, -0.041857559233903885, -0.020869147032499313, 0.05749906226992607, -0.056060392409563065, 0.015187020413577557, 0.031276337802410126, 0.030279485508799553, -0.04503219202160835, -0.01125293131917715, -0.04124834015965462, -0.0608767569065094, 0.03648512437939644, 0.09258665144443512, -0.14448775351047516, 0.10520857572555542, -0.08422113955020905, 0.03573695197701454, 0.06713071465492249, -0.11039227992296219, 0.06191281974315643, 0.06379599869251251, 0.039565205574035645, -0.06191561371088028, 0.04052908718585968, -0.017800258472561836, 0.001513693598099053, -0.01547261793166399, -0.0037754313088953495, 0.03704818710684776, -0.027375338599085808, 0.019147489219903946, -0.010818631388247013, 0.027406856417655945, -0.06550655514001846, 0.007788027171045542, -0.00497520063072443, 0.015963556244969368, 0.06785660237073898, -0.019953176379203796, 0.1042536273598671, 0.008121395483613014, 0.02842382900416851, 0.04888344928622246, -0.11568321287631989, -0.06231957674026489, -0.11250802874565125, -0.09129441529512405, 0.008739540353417397, 0.0012849940685555339, 0.009429673664271832, -0.10035941749811172, -0.0344998873770237, -0.06697796285152435, -0.018293840810656548, -0.11014072597026825, 0.01437519770115614, -0.04412195831537247, -0.005299017298966646, -0.03978545963764191, -0.050108686089515686, -0.0881224051117897, 0.021763108670711517, -0.05648228898644447, 0.11708196997642517, 0.14978621900081635, 0.11910896003246307, -0.1536363661289215, -0.06394383311271667, 0.013042015954852104, 0.05248594284057617, 0.04449862614274025, 0.03723203390836716, 0.026281023398041725, -0.017361018806695938, 0.02755437046289444, -0.016864117234945297], [-0.0518137663602829, -0.0179803054779768, -0.05601256340742111, 0.09339359402656555, -0.058014679700136185, 0.036762554198503494, -0.030685510486364365, 0.06168017536401749, -0.094999298453331, 0.0007886603707447648, -0.01849956624209881, 0.026966320350766182, -0.06894173473119736, 0.05783367529511452, 0.08105574548244476, -0.13476000726222992, -0.003283012891188264, -0.03543638065457344, -0.10460735857486725, -0.03228427469730377, 0.2356056421995163, -0.1223059818148613, 0.05227869376540184, -0.07316798716783524, 0.060882531106472015, -0.09456858783960342, 0.023666860535740852, 0.022464413195848465, -0.053502097725868225, -0.009183371439576149, 0.09584823995828629, -0.113670714199543, -0.04264147952198982, 0.10648012161254883, 0.08935243636369705, 0.07325193285942078, 0.06365981698036194, 0.1385134905576706, 0.1616675853729248, 0.07446233928203583, 0.05165495723485947, 0.09322719275951385, 0.004484217148274183, 0.019411012530326843, 0.203131303191185, 0.03938542306423187, -0.09812330454587936, 0.08204285800457001, 0.06942707300186157, -0.05907492712140083, 0.09333207458257675, 0.11097060889005661, 0.15122617781162262, -0.1781395524740219, 0.04351087659597397, -0.06550360471010208, 0.11553306877613068, -0.01874840073287487, -0.04774545133113861, -0.07079321146011353, 0.051561109721660614, -0.04162071272730827, -0.027003711089491844, 0.05977895110845566, -0.08221496641635895, -0.08310971409082413, 0.030794715508818626, -0.006638837978243828, -0.1114385649561882, -0.02470029890537262, -0.03712255880236626, -0.04717878997325897, 0.031831905245780945, -0.06536151468753815, -0.02162432298064232, -0.13464178144931793, -0.03543659672141075, -0.029188457876443863, -0.1209823340177536, -0.11856776475906372, 0.06251529604196548, 0.10114508122205734, -0.004864846356213093, 0.003467360744252801, 0.008350509218871593, 0.05916861072182655, 0.017106901854276657, -0.07387572526931763, -0.03858524188399315, -0.07914015650749207, 0.093378946185112, -0.0637703686952591, -0.05366402119398117, 0.058724503964185715, -0.07097374647855759, -0.037051066756248474, 0.09758446365594864, -0.03979237377643585, -0.10086070001125336, 0.01911882497370243, 0.020230013877153397, 0.10643230378627777, -0.08120695501565933, -0.09001122415065765, -0.08942872285842896, -0.03300667926669121, -0.05711497738957405, -0.07469714432954788, -0.11273239552974701, -0.03426022455096245, 0.06966009736061096, -0.11874736100435257, -0.060554616153240204, -0.09232508391141891, -0.08268924802541733, -0.10404972732067108, -0.06809419393539429, -0.09560409933328629, -0.007998150773346424, 0.05429105833172798, 0.039186712354421616, -0.1070871651172638, -0.024474719539284706, -0.1123276799917221, -0.046218644827604294, 0.026430534198880196, -0.005814708303660154, -0.033023834228515625, 0.09741290658712387, 0.0735202431678772, -0.06069401279091835, 0.07528924196958542, -0.05013139173388481], [0.13083937764167786, -0.018712032586336136, -0.09177100658416748, 0.048118360340595245, 0.03561728447675705, 0.04753463342785835, -0.0347115658223629, 0.043798260390758514, -0.0669008418917656, 0.14569127559661865, -0.06587602198123932, 0.061736542731523514, 0.013529959134757519, 0.051893558353185654, 0.011479039676487446, -0.10562089085578918, 0.09379788488149643, 0.06898635625839233, -0.04545143246650696, 0.0929277092218399, 0.14531086385250092, 0.005054923705756664, 0.08664768934249878, 0.005582687444984913, 0.08472171425819397, -0.06731296330690384, 0.11373283714056015, -0.05448593944311142, -0.07160987704992294, 0.02405688539147377, 0.20664913952350616, 0.12802889943122864, -0.016138369217514992, 0.13269273936748505, 0.18090352416038513, 0.06404703110456467, 0.022168727591633797, 0.1924227625131607, 0.07956359535455704, -0.04742934927344322, -0.005173573270440102, -0.07345423847436905, -0.04027007892727852, -0.042377371340990067, -0.01305299624800682, 0.1229947879910469, 0.09376983344554901, 0.06141066551208496, 0.04526704177260399, 0.07101070135831833, 0.016343992203474045, -0.0649072602391243, 0.1857137233018875, 0.03628340736031532, 0.09125622361898422, 0.0506758987903595, 0.00450569111853838, -0.03595219925045967, 0.03235331550240517, -0.020060017704963684, 0.1918679028749466, 0.04001376032829285, 0.056267861276865005, 0.13448260724544525, 0.011295167729258537, 0.09413037449121475, 0.044652264565229416, 0.03586837649345398, -0.024765577167272568, 0.05146939307451248, 0.04695817828178406, -0.041741993278265, -0.007562574930489063, 0.03341730684041977, 0.05038734897971153, 0.018278969451785088, 0.06744811683893204, 0.08582804352045059, 0.004840185400098562, -0.024659957736730576, 0.105938620865345, -0.023899536579847336, 0.09692497551441193, 0.037089914083480835, 0.03908663988113403, 0.00273110275156796, 0.024833686649799347, -0.04109497368335724, -0.0004559141234494746, -0.0606844499707222, 0.19994865357875824, -0.022105947136878967, 0.13860385119915009, -0.07616875320672989, 0.15571871399879456, 0.09987793117761612, -0.0026073462795466185, 0.11564178764820099, 0.09577527642250061, 0.02976633980870247, 0.024921312928199768, -0.022014331072568893, 0.04825621098279953, -0.010331305675208569, -0.06970564275979996, 0.06890809535980225, 0.019816705957055092, 0.02585110068321228, -0.08086644858121872, -0.0006976556032896042, 0.020127693191170692, -0.08747365325689316, 0.0687284916639328, 0.016929421573877335, 0.06129227578639984, 0.02959674410521984, -0.16336511075496674, -0.07427726686000824, -0.10902900248765945, 0.006595329847186804, 0.10813874751329422, 0.1971692591905594, 0.1174011155962944, 0.13784897327423096, 0.049968473613262177, -0.08143315464258194, -0.07164757698774338, 0.09909515827894211, 0.15024933218955994, 0.036441147327423096, 0.007842350751161575, 0.03583209589123726, 0.12845593690872192], [-0.2323567420244217, -0.0727674812078476, -0.11151561141014099, -0.14492416381835938, -0.11517377942800522, 0.00351406866684556, -0.02828478254377842, -0.030826935544610023, 0.07198548316955566, 0.14501649141311646, -0.05309343710541725, -0.08471954613924026, -0.062117915600538254, -0.1029326319694519, 0.10220971703529358, -0.09594672918319702, -0.04982379823923111, -0.0889468714594841, 0.007432287558913231, -0.07445542514324188, -0.02980079874396324, -0.056513722985982895, -0.08975312858819962, -0.1382904052734375, 0.08129000663757324, -0.09501414746046066, 0.0022572921589016914, 0.02313832938671112, -0.0913095697760582, 0.1084483414888382, -0.2738115191459656, -0.10468938946723938, -0.13688845932483673, -0.0625133365392685, -0.18992558121681213, -0.17544177174568176, -0.03710154816508293, -0.0695343166589737, -0.08588636666536331, 0.062453776597976685, -0.019432246685028076, 0.029275553300976753, 0.00037462578620761633, 0.17646871507167816, -0.019366813823580742, 0.05640749633312225, -0.07055050134658813, -0.12088234722614288, 0.005328875966370106, -0.10409118235111237, 0.07361798733472824, 0.09479355067014694, 0.016740359365940094, -0.06393878161907196, 0.12136176228523254, -0.08025714755058289, 0.12107755988836288, -0.09402412921190262, -0.07250845432281494, 0.04274621233344078, -0.19458593428134918, -0.007756597362458706, -0.11222454905509949, -0.028759971261024475, -0.2288280874490738, -0.0020448837894946337, 0.08785796910524368, -0.03043781779706478, -0.025706518441438675, 0.038481928408145905, -0.03138872981071472, -0.04362622648477554, -0.008979469537734985, -0.035300206393003464, 0.0473305806517601, -0.2018977552652359, -0.07837126404047012, -0.038023367524147034, -0.005102341063320637, -0.014993790537118912, -0.026646755635738373, -0.042870648205280304, -0.05584733933210373, -0.0461360365152359, 0.036424193531274796, -0.08827295154333115, 0.014915564097464085, 0.04784717783331871, -0.03773854300379753, 0.03608621284365654, -0.12531547248363495, -0.0668264701962471, -0.13372065126895905, -0.1282735913991928, -0.10851631313562393, 0.07339347153902054, 0.04858998581767082, -0.04998959228396416, 0.0821075513958931, 0.006506488658487797, 0.01043942105025053, 0.07787885516881943, -0.09727519005537033, -0.004264180548489094, -0.02777392417192459, -0.12715516984462738, -0.04293111339211464, -0.1150524914264679, -0.05334723740816116, -0.18541134893894196, 0.03377057984471321, -0.04134570434689522, -0.011075157672166824, 0.06199698895215988, 0.13774530589580536, -0.04855266585946083, -0.05384267866611481, -0.10666152089834213, -0.029177598655223846, 0.14346660673618317, -0.037955719977617264, -0.005102545488625765, 0.21379239857196808, -0.13560472428798676, -0.24704857170581818, 0.005645086523145437, 0.006673886906355619, 0.011926231905817986, -0.033244386315345764, -0.024160323664546013, -0.03951059281826019, -0.0020203273743391037, 0.05181318148970604], [-0.09834350645542145, -0.05069315433502197, 0.03621729835867882, -0.01737992838025093, -0.06471550464630127, 0.05489693209528923, -0.09490746259689331, 0.06855552643537521, 0.04976646602153778, 0.0369805172085762, -0.05995938181877136, -0.023725958541035652, 0.02434137463569641, -0.09026551991701126, 0.019527245312929153, 0.07839182764291763, 0.08254243433475494, -0.004136221949011087, 0.0059676202945411205, -0.03193926438689232, -0.039526645094156265, -0.09668257087469101, -0.0473804697394371, 0.0005643952172249556, 0.017080767080187798, 0.015356633812189102, 0.10966690629720688, 0.00855208095163107, 0.023186273872852325, 0.04727422818541527, -0.11796180158853531, -0.01584920845925808, -0.1520763784646988, 0.02214573509991169, -0.13336975872516632, 0.040716346353292465, 0.03156203031539917, 0.09621673822402954, 0.034532591700553894, 0.004984961356967688, -0.007266710978001356, -0.01934894174337387, -0.0984797328710556, 0.052946045994758606, -0.018742593005299568, 0.08715427666902542, 0.11288122087717056, -0.07214488834142685, -0.030782032757997513, -0.001841231482103467, 0.11167383193969727, 0.048195164650678635, -0.02407423034310341, 0.1061038002371788, 0.10147497802972794, -0.024314746260643005, -0.00017504846618976444, -0.026583323255181313, -0.0013953193556517363, -0.025896817445755005, -0.035513512790203094, -0.04019666835665703, 0.014830484054982662, -0.06497833132743835, -0.06652206182479858, -0.04291243851184845, -9.920186857925728e-05, -0.12267735600471497, 0.006658982485532761, 0.06540388613939285, -0.08357594907283783, 0.03234865143895149, 0.006047980859875679, 0.02851730026304722, -0.027496185153722763, -0.13393333554267883, -0.15520218014717102, -0.0834280326962471, -0.08932753652334213, -0.07946823537349701, 0.09555324167013168, 0.08645282685756683, -0.04720403254032135, 0.18268762528896332, 0.10051559656858444, -0.07277213782072067, 0.10420765727758408, 0.025147659704089165, 0.05126827955245972, -0.012507800944149494, 0.038994211703538895, -0.08051788061857224, -0.026326341554522514, 0.013035046868026257, -0.11903101950883865, 0.09269189089536667, 0.03272397443652153, 0.0495821088552475, 0.11840617656707764, 0.1115776002407074, -0.048896968364715576, 0.04347856715321541, -0.06869468837976456, 0.05236722528934479, 0.0952286347746849, -0.04438111186027527, -0.11238683015108109, -0.14458315074443817, 0.011310453526675701, -0.1508457362651825, 0.1333332061767578, -0.08858431130647659, -0.14905425906181335, -0.015531092882156372, 0.09430181980133057, 0.14056822657585144, -0.04026058688759804, 0.017665240913629532, 0.04513239115476608, 0.06851082295179367, 0.08133447915315628, 0.10357591509819031, 0.3162938952445984, -0.10787761956453323, -0.012304868549108505, 0.01840032823383808, -0.1164504811167717, 0.10377246886491776, 0.003592462744563818, 0.09376473724842072, 0.04832221940159798, 0.06970112770795822, -0.09806907176971436], [-0.15305812656879425, -0.15003904700279236, -0.13082751631736755, -0.14539292454719543, -0.10485685616731644, 0.009938256815075874, 0.00750639196485281, -0.013082673773169518, -0.08980431407690048, -0.10691370069980621, -0.0076825800351798534, -0.025293905287981033, -0.09803540259599686, 0.04345807805657387, -0.024081099778413773, -0.056358642876148224, 0.04903184249997139, 0.009539064951241016, -0.07809644192457199, -0.018654676154255867, -0.07941851764917374, 0.07691553235054016, -0.11254499852657318, 0.12445926666259766, 0.057226840406656265, -0.06275439262390137, 0.007166577503085136, -0.030430369079113007, -0.15185698866844177, -0.007772202603518963, -0.2548710107803345, -0.13653428852558136, -0.07656586915254593, -0.15340197086334229, -0.14088942110538483, 0.01792767271399498, 0.0668274462223053, -0.029272224754095078, 0.0960317924618721, 0.032078176736831665, -0.02387862838804722, 0.12703529000282288, -0.011606286279857159, -0.07260607182979584, 0.04960055649280548, -0.08867961913347244, -0.1240207627415657, -0.16526426374912262, -0.10258059203624725, -0.10680003464221954, 0.11262422800064087, 0.08869878202676773, -0.09146860986948013, 0.003366129705682397, 0.1026240736246109, -0.07342074811458588, 0.10348500311374664, -0.01906256563961506, 0.013129672035574913, -0.05193432420492172, -0.08839143067598343, -0.001372672850266099, -0.07509775459766388, -0.11319788545370102, -0.08856070786714554, 0.04048137739300728, 0.07170671969652176, -0.1175273060798645, -0.049338288605213165, 0.010680156759917736, -0.08102434128522873, -0.05817496031522751, -0.0010991344461217523, -0.06027054414153099, -0.004673371557146311, -0.12746810913085938, -0.011436733417212963, -0.07588520646095276, -0.07418334484100342, -0.04874568060040474, 0.06180071085691452, 0.07031765580177307, 0.042865652590990067, 0.13196977972984314, -0.01190527155995369, -0.034778859466314316, 0.04686475917696953, -0.08380500972270966, -0.0432710163295269, -0.047799330204725266, -0.19857889413833618, -0.039096344262361526, -0.15261615812778473, -0.034677330404520035, -0.14031070470809937, 0.029009640216827393, 0.05518154427409172, -0.05090877786278725, 0.2857681214809418, 0.04688510671257973, -0.09568671137094498, -0.03483770042657852, -0.05498200282454491, 0.050210509449243546, -0.008260665461421013, -0.1279798448085785, -0.017354706302285194, -0.11567255109548569, 0.019990326836705208, -0.10000365227460861, 0.15939275920391083, 0.0046785143204033375, 0.0023212439846247435, 0.05696668475866318, -0.04425418749451637, -0.07318115234375, -0.07661877572536469, -0.055936459451913834, 0.016161542385816574, -0.04193027690052986, 0.06604422628879547, 0.030876561999320984, 0.22398164868354797, -0.18851320445537567, -0.1604393720626831, -0.07946666330099106, 0.027932889759540558, -0.011467479169368744, 0.03294723480939865, -0.021496398374438286, 0.01211966760456562, 0.17185133695602417, -0.01060905959457159], [-0.10537745803594589, -0.04696165397763252, -0.12086039781570435, -0.08287758380174637, -0.31297552585601807, 0.05012762174010277, -0.12889114022254944, 0.07121589779853821, -0.03192008659243584, -0.06841089576482773, -0.08096487820148468, -0.02198680490255356, -0.05868479609489441, -0.037785567343235016, -0.05993968993425369, 0.07182427495718002, 0.1227714866399765, 0.015925221145153046, -0.07483481615781784, 0.15166224539279938, -0.0570925734937191, -0.05273451656103134, -0.0851040855050087, 0.09802580624818802, 0.06061118096113205, -0.08458326756954193, -0.00782076921314001, 0.010058620013296604, 0.007310694549232721, 0.03734590485692024, -0.13968133926391602, -0.2080778032541275, -0.17544901371002197, -0.032465022057294846, -0.0530129000544548, -0.08517023175954819, 0.05289490520954132, -0.041299331933259964, 0.05339859798550606, 0.004438251256942749, -0.02041890285909176, -0.026011629030108452, 0.057511065155267715, -0.05932436138391495, 0.022007182240486145, 0.007478405721485615, -0.06128730997443199, -0.13709557056427002, 0.08101081848144531, -0.1090301126241684, 0.08962974697351456, 0.03183425962924957, -0.05743800848722458, 0.07363950461149216, 0.0017024703556671739, -0.02196287363767624, 0.11201228201389313, -0.08795662969350815, -0.0017870190786197782, -0.002522373106330633, -0.012583596631884575, 0.01678098738193512, -0.015470472164452076, -0.009951102547347546, -0.03222176060080528, 0.1349656730890274, 0.009462968446314335, 0.00167466897983104, -0.048562534153461456, 0.013383299112319946, -0.0980762466788292, -0.0675455704331398, -0.002677817130461335, -0.07073593139648438, -0.016850143671035767, -0.0005903897690586746, -0.0267937034368515, -0.1233634278178215, -0.01606827601790428, -0.12987329065799713, 0.008333942852914333, -0.06281334906816483, -0.06373829394578934, 0.05436672270298004, 0.05455062910914421, -0.0159581508487463, 0.029897499829530716, -0.06240202486515045, 0.03346315026283264, -0.06490910053253174, -0.05889420583844185, -0.11095685511827469, -0.14092624187469482, -0.11735746264457703, -0.044683851301670074, 0.0018269970314577222, 0.05789124220609665, -0.03498700633645058, 0.05338262394070625, 0.07117973268032074, -0.009110935032367706, -0.019566599279642105, 0.040949746966362, 0.039316873997449875, -0.06450383365154266, -0.03935062140226364, -0.059273477643728256, -0.005280858371406794, 0.015178466215729713, -0.1653699278831482, 0.027009325101971626, -0.08278658986091614, -0.35664939880371094, 0.02708408795297146, 0.03741646185517311, -0.008047964423894882, -0.021437563002109528, 0.002077204640954733, -0.05987074226140976, 0.07792650163173676, -0.07401774078607559, 0.10819188505411148, 0.18911419808864594, -0.11018316447734833, -0.07969386875629425, 0.0035781138576567173, -0.05178399011492729, 0.11770302802324295, -0.01800629496574402, -0.012517880648374557, -0.033325716853141785, 0.10010510683059692, -0.11234405636787415], [0.10227332264184952, 0.009668279439210892, 0.02069631963968277, -0.017016099765896797, 0.16891439259052277, -0.07971194386482239, -0.05875616520643234, 0.09951722621917725, 0.012313509359955788, 0.06081221625208855, 0.046965330839157104, -0.03925706073641777, -0.03516184166073799, -0.043773353099823, -0.01506712380796671, 0.24497166275978088, 0.12138590961694717, 0.06413550674915314, 0.10524781048297882, 0.03518142178654671, 0.050965432077646255, -0.004062073305249214, 0.023678554221987724, -0.030129535123705864, -0.007404175586998463, -0.033678825944662094, -0.06750749796628952, -0.05078115686774254, 0.04691389575600624, 0.02657395228743553, 0.18425294756889343, 0.20700852572917938, 0.1680890917778015, 0.19010889530181885, 0.11385504901409149, -0.14077593386173248, 0.024785399436950684, 0.0905904471874237, 0.027792837470769882, 0.06701526790857315, 0.02050280198454857, -0.11085518449544907, 0.03803982213139534, -0.04059504717588425, -0.1410449892282486, 0.17574752867221832, 0.1666281521320343, 0.05347967520356178, 0.10226138681173325, 0.10932384431362152, -0.04843229055404663, -0.05151011049747467, 0.09629445523023605, -0.006075260695070028, -0.02018035389482975, -0.029261332005262375, -0.015288911759853363, 0.0836063101887703, -0.06145557388663292, -0.16364538669586182, 0.37382909655570984, 0.01297740638256073, 0.172605499625206, -0.052071236073970795, 0.1299014389514923, 0.15673324465751648, 0.050327859818935394, 0.02497970312833786, -0.013509447686374187, -0.0831182524561882, -0.05742907524108887, -0.04903422296047211, 0.02305174246430397, 0.005629904102534056, 0.06283295154571533, 0.21175098419189453, 0.23988300561904907, 0.016465192660689354, -0.0055888863280415535, 0.009438538923859596, -0.08033555746078491, -0.019558271393179893, 0.05945625156164169, 0.041050173342227936, -0.04738079756498337, -0.21796049177646637, 0.06106157600879669, -0.032458119094371796, 0.0260073933750391, 0.07499044388532639, 0.2625117599964142, 0.15989769995212555, 0.057421717792749405, 0.06001533567905426, 0.11312052607536316, 0.03144447132945061, -0.07921349257230759, 0.060202136635780334, 0.01307510957121849, -0.05940481647849083, 0.006981796585023403, -0.015425757504999638, -0.051177166402339935, -0.08326277881860733, -0.11062363535165787, 0.056985966861248016, 0.0688306912779808, -0.028474410995841026, 0.021343298256397247, 0.00192871387116611, 0.03174648433923721, 0.01887574791908264, 0.10663968324661255, -0.07640272378921509, 0.049835629761219025, -0.03806205466389656, 0.0268352460116148, 0.07492692768573761, -0.03151002898812294, 0.04178112372756004, 0.10381939262151718, 0.046027395874261856, -0.05873814970254898, 0.1549122929573059, 0.036938637495040894, -0.06890454888343811, -0.060502782464027405, 0.06401326507329941, 0.017647290602326393, 0.01849369890987873, -0.03274194523692131, 0.03634149208664894, 0.03579935431480408], [0.05396408960223198, -0.00518069788813591, 0.08541357517242432, -0.01018782239407301, -0.045199908316135406, 0.046146877110004425, -0.06135747954249382, -0.02933318354189396, -0.06436200439929962, -0.06455948948860168, 0.042433831840753555, 0.053233951330184937, -0.06054830178618431, 0.05086514353752136, -0.057288795709609985, 0.013739786110818386, 0.1590718924999237, -0.05204397812485695, 0.06275513768196106, 0.03983966261148453, -0.0642060711979866, 0.009560824371874332, 0.029085315763950348, -0.08207955211400986, -0.1393750011920929, 0.04073034226894379, 0.07973578572273254, -0.11096605658531189, -0.09928402304649353, -0.08744367212057114, 0.12313424050807953, -0.013437544927001, 0.10778050869703293, 0.04583168029785156, -0.00940785650163889, -0.09193956106901169, 0.011662660166621208, 0.0470677986741066, 0.016621669754385948, 0.06542032957077026, -0.09346948564052582, 0.017858397215604782, -0.07572554051876068, -0.08987829834222794, -0.043323028832674026, -0.011510302312672138, 0.0316208116710186, 0.07503769546747208, -0.011744384653866291, -0.10418824106454849, -0.06067953258752823, -0.10455119609832764, 0.015313527546823025, 0.008028008975088596, 0.005376956891268492, -0.05265923589468002, 0.15368950366973877, 0.009800669737160206, 0.0420365072786808, 0.04022284969687462, 0.049993280321359634, 0.20572564005851746, 0.04639111086726189, 0.03219239413738251, -0.05354192852973938, 0.09995562583208084, -0.07091467827558517, 0.04097511246800423, 0.04075312614440918, -0.002710849978029728, -0.0757758617401123, 0.02579551190137863, -0.11285747587680817, 0.0449615903198719, -0.02598368003964424, 0.026382094249129295, 0.19752386212348938, -0.057932209223508835, -0.0789160281419754, -0.02827385999262333, 0.0031179848592728376, 0.05809792876243591, -0.020020175725221634, 0.03251670300960541, -0.05809635668992996, 0.03690427169203758, -0.04513094574213028, 0.02813641168177128, 0.025034254416823387, -0.049507107585668564, 0.07501339912414551, -0.023115193471312523, 0.016258833929896355, 0.08210828900337219, 0.07426296174526215, -0.11984045058488846, 0.04349886626005173, 0.006278730928897858, -0.029725857079029083, -0.022996580228209496, -0.012693754397332668, -0.0008890525787137449, -0.02848934195935726, -0.24556249380111694, 0.07067281752824783, 0.08118721842765808, -0.07536632567644119, -0.007437014486640692, 0.07188954949378967, -0.0798291563987732, 0.12805457413196564, -0.007291518151760101, 0.03983820974826813, -9.082391625270247e-05, -0.08479323238134384, 0.033112481236457825, 0.056097932159900665, -0.04079321399331093, 0.053457111120224, -0.11786024272441864, 0.0385054275393486, 0.03084734082221985, 0.1748153120279312, -0.030084531754255295, -0.002249723067507148, 0.14605532586574554, 0.007636686321347952, 0.0358131118118763, -0.0133162010461092, 0.012503054924309254, 0.07329840213060379, 0.08341914415359497, -0.09830273687839508], [0.04990050941705704, 0.016104377806186676, 0.03156613931059837, -0.053176384419202805, 0.0009606721578165889, 0.017368344590067863, 0.062433067709207535, 0.07566684484481812, 0.00027295094332657754, 0.02960478886961937, 0.033529169857501984, 0.030673572793602943, 0.07365494966506958, 0.015354813076555729, -0.10306775569915771, 0.012642500922083855, 0.02677784487605095, 0.0030640007462352514, -0.06147091090679169, 0.029568340629339218, -0.05981583148241043, 0.0721813216805458, 0.046574849635362625, 0.056672386825084686, -0.015737175941467285, 0.024185476824641228, 0.06931766122579575, -0.06126418709754944, -0.0012992268893867731, 0.01173386536538601, 0.04499645158648491, -0.03748658299446106, 0.08164481073617935, -0.06572023034095764, 0.0103065250441432, 0.07544109225273132, -0.029270874336361885, -0.05592615157365799, -0.04444709047675133, -0.010758399963378906, 0.07379300892353058, -0.05759149417281151, -0.02390158921480179, 0.07370973378419876, -0.07525946199893951, -0.08320236206054688, -0.03178729489445686, 0.055334195494651794, -0.04560524597764015, 0.03675602748990059, -0.2033414989709854, -0.06690532714128494, -0.08062532544136047, -0.03927962854504585, -0.05951331555843353, -0.06646762043237686, -0.08662725985050201, 0.04259636625647545, 0.04941006749868393, 0.010680356994271278, 0.019862759858369827, 0.07026675343513489, 0.02706221491098404, 0.013945977203547955, 0.06540869921445847, -0.10235515981912613, -0.05023797228932381, 0.07968976348638535, -0.033744215965270996, -0.13671720027923584, -0.025295479223132133, -0.08161584287881851, 0.020189283415675163, 0.0384838692843914, -0.08233553916215897, -0.01261228695511818, 0.029329687356948853, -0.03912537917494774, -0.02604442834854126, 0.03421546146273613, -0.03431063890457153, 0.043831173330545425, -0.12790434062480927, 0.07220424711704254, 0.0556153729557991, -0.067311130464077, -0.06643985956907272, -0.09115626662969589, 0.07692030817270279, -0.01549187209457159, 0.05774057283997536, 0.08215061575174332, -0.033692698925733566, 0.07426534593105316, -0.006760093849152327, 0.014605570584535599, -0.01250554621219635, -0.01702580414712429, 0.02884054370224476, 0.03533735126256943, 0.03749849647283554, 0.10654140263795853, 0.08538852632045746, 0.024335360154509544, 0.07434859126806259, 0.01766788959503174, 0.012156534940004349, -0.1277594119310379, -0.003422357141971588, -0.038630954921245575, 0.004354190547019243, 0.015564722940325737, 0.0020653356332331896, 0.21021094918251038, -0.02012116275727749, -0.05077074468135834, 0.012439104728400707, 0.07360661774873734, 0.00659380666911602, -0.089387908577919, -0.08049869537353516, -0.07283931970596313, -0.02405751869082451, -0.054164860397577286, 0.02249913103878498, 0.0064102462492883205, -0.06558910012245178, -0.12027391046285629, -0.10250784456729889, -0.06536974012851715, -0.10479012876749039, -0.008931256830692291, -0.03883635252714157], [0.06556978076696396, 0.030096329748630524, -0.06980971246957779, -0.1095380112528801, -0.0013096703914925456, -0.05586066097021103, -0.1297619491815567, 0.06013265997171402, 0.049920447170734406, -0.02484397403895855, 0.015706656500697136, 0.025023285299539566, -0.09266723692417145, -0.12186022102832794, -0.018812470138072968, 0.14665356278419495, 0.024331336840987206, -0.04196486622095108, 0.030674144625663757, 0.14773359894752502, 0.06950943171977997, -0.1222696304321289, 0.1383288949728012, -0.1182374507188797, 0.03154999390244484, -0.028805097565054893, 0.08029977977275848, -0.015383289195597172, -0.009765676222741604, -0.004306404385715723, 0.13756003975868225, -0.10406102985143661, -0.09100023657083511, 0.1280420422554016, -0.05376400053501129, -0.056121062487363815, -0.10006298869848251, 0.09447775036096573, -0.09305787831544876, -0.030906304717063904, -0.10860757529735565, 0.1122879609465599, -0.07115432620048523, -0.11691152304410934, 0.03682813420891762, 0.16886694729328156, 0.0951930582523346, -0.010149756446480751, 0.038028281182050705, 0.3036845922470093, -0.027638424187898636, 0.060974281281232834, 0.10683691501617432, -0.006795267574489117, -0.05605092644691467, -0.018657857552170753, 0.17196090519428253, -0.022191422060132027, 0.022188102826476097, 0.01843399740755558, 0.10935115069150925, 0.06321672350168228, 0.10686378180980682, 0.00014749905676580966, 0.08384891599416733, 0.08018219470977783, 0.09200005233287811, 0.13994653522968292, 0.01199405174702406, -0.007456268183887005, -0.048479095101356506, -0.08161216974258423, -0.06986812502145767, 0.03104703314602375, 0.07747644931077957, -0.017646552994847298, 0.01767144910991192, -0.029877763241529465, -0.028259867802262306, 0.07783280313014984, -0.07264173775911331, 0.14843150973320007, 0.1514265239238739, -0.020384591072797775, -0.00430902699008584, 0.04262804612517357, 0.06397275626659393, -0.028412753716111183, -0.11394822597503662, -0.040400244295597076, 0.18621237576007843, -0.027567191049456596, 0.004610047675669193, -0.03959951177239418, 0.03793877735733986, 0.03243362531065941, 0.031860847026109695, 0.12356959283351898, -0.05489950627088547, 0.05202486738562584, -0.08682959526777267, 0.12589845061302185, -0.08639054000377655, -0.06271883100271225, 0.011014483869075775, -0.09871051460504532, 0.032131414860486984, -0.08835507929325104, -0.03899456933140755, -0.10047857463359833, 0.17977510392665863, -0.009643294848501682, -0.02761029079556465, 0.05398166552186012, -0.006927103735506535, -0.06275906413793564, -0.029035884886980057, -0.046783000230789185, -0.03236362710595131, -0.04949037358164787, 0.0023491946049034595, 0.1472722887992859, 0.010831888765096664, 0.12184847146272659, -0.024646814912557602, -0.04792008921504021, -0.05477374047040939, 0.15894374251365662, 0.04944577440619469, -0.005519717000424862, 0.08276791125535965, 0.10133916139602661, 0.05299050733447075], [-0.13830097019672394, -0.1158868819475174, 0.05672623962163925, 0.014199389144778252, -0.10452912747859955, -0.045625295490026474, 0.0054994020611047745, 0.020075801759958267, 0.035082701593637466, 0.1562454253435135, -0.07118353247642517, 0.0071388422511518, -0.01783520169556141, -0.010067004710435867, 0.042321208864450455, -0.1544945240020752, 0.017042411491274834, -0.06524644792079926, 0.0018286376725882292, -0.03931621089577675, -0.0360342375934124, 0.03118310309946537, -0.08343882113695145, 0.009809611365199089, 0.06243763118982315, -0.030037207528948784, 0.10314340144395828, -0.08453819155693054, -0.0872209295630455, -0.006249688100069761, -0.1076306477189064, -0.032975487411022186, -0.014328118413686752, -0.1308104693889618, -0.06461529433727264, -0.040724724531173706, 0.06028472259640694, -0.05232764780521393, -0.08450619876384735, 0.09890765696763992, -0.10837569087743759, 0.2515259385108948, 0.025823144242167473, 0.08661578595638275, -0.05526883527636528, -0.12702110409736633, -0.00839208159595728, 0.008081391453742981, -0.014394529163837433, -0.12289270013570786, -0.016941264271736145, 0.01603902131319046, 0.0012660647043958306, 0.052532702684402466, 0.08230865001678467, -0.07127173990011215, 0.09688065946102142, -0.08745384961366653, 0.004096666816622019, 0.017083538696169853, -0.14058327674865723, -0.03193025290966034, -0.11619510501623154, 0.016426004469394684, -0.16659848392009735, 0.08092863112688065, -0.037850864231586456, 0.1667267233133316, -0.005963236093521118, -0.01859503984451294, 0.021544108167290688, 0.08011335134506226, -0.11979406327009201, 0.028637709096074104, 0.07171931862831116, 0.01542429905384779, -0.034089311957359314, -0.03727500140666962, -0.0585060678422451, -0.013465920463204384, 0.11507824063301086, 0.04132730886340141, -0.03345905989408493, 0.07062555104494095, 0.053714632987976074, -0.05963541194796562, -0.02460707165300846, 0.01727163977921009, 0.021689223125576973, 0.07619691640138626, -0.1010453924536705, -0.038975026458501816, -0.08672924339771271, -0.03883213549852371, -0.03843914717435837, -0.04859250783920288, 0.03247281163930893, 0.05510064214468002, 0.028873572126030922, -0.011488044634461403, -0.10301932692527771, -0.026656880974769592, -0.05829528719186783, -0.02845376916229725, -0.016196032986044884, -0.17701226472854614, -0.15839961171150208, -0.028071759268641472, -0.032643839716911316, -0.2559502422809601, 0.09206047654151917, -0.05138445273041725, -0.09288550913333893, -0.0015450345817953348, 0.08564502000808716, -0.024064907804131508, 0.015316851437091827, -0.015115629881620407, -0.038655802607536316, 0.05512798950076103, -0.07740999758243561, 0.09910093992948532, 0.049390003085136414, -0.03873134404420853, -0.011848652735352516, -0.055230654776096344, -0.06566950678825378, -0.07564191520214081, 0.1275852918624878, -0.004581149201840162, 0.06921470165252686, 0.013485944829881191, -0.0852426141500473], [-0.0962430015206337, 0.08499811589717865, -0.002116856863722205, 0.08699094504117966, 0.0017175913089886308, 0.04880755394697189, -0.014495082199573517, -0.08149836212396622, 0.09323596954345703, -0.08369167894124985, -0.050626736134290695, -0.1429659128189087, -0.0258058849722147, 0.03571328520774841, -0.08271021395921707, 0.012971554882824421, -0.05907515436410904, -0.04656427726149559, 0.07169684767723083, -0.10587643831968307, 0.004205315373837948, -0.09640994668006897, -0.07310120016336441, -0.0007030345732346177, 0.013461180031299591, 0.022239962592720985, -0.06884544342756271, 0.008802958764135838, 0.20569364726543427, 0.01647000201046467, -0.06858830899000168, -0.07521455734968185, 0.045042913407087326, -0.07550130784511566, -0.11116701364517212, -0.08572429418563843, -0.07324470579624176, -0.10061761736869812, 0.0030568521469831467, 0.004361740313470364, 0.06380507349967957, -0.07025580108165741, -0.033538803458213806, 0.04627836123108864, -0.09230649471282959, -0.018882937729358673, -0.034039564430713654, 0.04225786775350571, -0.05529490113258362, 0.011513500474393368, -0.010307532735168934, -0.1044447273015976, -0.03171006962656975, -0.04234936833381653, 0.02369106374680996, -0.045250825583934784, 0.03246767446398735, -0.01318533718585968, -0.07246753573417664, -0.0537213534116745, -0.05265950411558151, -0.07316450774669647, -0.07014387845993042, -0.011235376819968224, -0.11437318474054337, 0.004817142151296139, -0.10125881433486938, 0.07175542414188385, 0.03761230409145355, -0.013103102333843708, -0.03160586208105087, -0.0896432176232338, -0.08075962215662003, 0.0641922876238823, -0.22353245317935944, 0.024153972044587135, -0.031212924048304558, -0.03825386241078377, -0.046546708792448044, -0.06544352322816849, -0.061781685799360275, -0.026795653626322746, -0.030091192573308945, -0.03742760047316551, -0.023768017068505287, 0.03547833114862442, -0.030088406056165695, -0.04805833101272583, -0.030680961906909943, 0.05730399861931801, -0.12117050588130951, 0.06478137522935867, -0.05226762965321541, 0.007309690583497286, -0.0003598822804633528, -0.08337277919054031, 0.000683136167936027, -0.04210449010133743, -0.04798176884651184, 0.0325113870203495, -0.008242371492087841, -0.09190431237220764, 0.0765717551112175, 0.028657812625169754, -0.0693177729845047, 0.02374606765806675, 0.04603619873523712, -0.056931719183921814, -0.06917989999055862, 0.061828017234802246, 0.03685959428548813, -0.0405937135219574, 0.019763553515076637, 0.02871514856815338, -0.002446258906275034, -0.00943224597722292, -0.00760144367814064, -0.024988049641251564, -0.0791645497083664, 0.05461841821670532, -0.10837215930223465, -0.14066627621650696, -0.09405983239412308, -0.024294402450323105, -0.10292193293571472, -0.19336499273777008, 0.06892433762550354, -0.08723822236061096, 0.038015540689229965, 0.027291161939501762, -0.1032075360417366, 0.07567466795444489, 0.0013609270099550486], [0.1525743305683136, 0.09874266386032104, 0.07982136309146881, -0.19813162088394165, 0.01341186836361885, 0.07267262041568756, -0.10082638263702393, 0.08380409330129623, 0.03329228609800339, 0.09147349745035172, 0.0506221279501915, 0.04954022169113159, -0.14887626469135284, 0.012221863493323326, 0.11959970742464066, 0.17183202505111694, 0.09836868196725845, 0.012427553534507751, 0.05457567051053047, 0.09009043127298355, 0.08841882646083832, -0.12361267954111099, 0.129916712641716, -0.023808058351278305, -0.08847677707672119, -0.017312828451395035, 0.09943950921297073, -0.06322041153907776, 0.01746051385998726, -0.030565543100237846, 0.26448363065719604, 0.030485449358820915, 0.06291138380765915, 0.05680227652192116, 0.008105562068521976, -0.01833442784845829, -0.05280584841966629, 0.05422944575548172, 0.04397112503647804, -0.07136673480272293, -0.04236526042222977, 0.06529910862445831, 0.03220713138580322, -0.02939319796860218, -0.14213642477989197, 0.19368037581443787, 0.08140909671783447, 0.05597909167408943, 0.08952553570270538, 0.10896889120340347, 0.06754671782255173, 0.02409875951707363, 0.0888729840517044, -0.007624858990311623, -0.09169342368841171, -0.0007561302045360208, -0.026643937453627586, -0.046748146414756775, -0.0986088365316391, -0.09958837926387787, 0.2580816149711609, 0.18577206134796143, 0.04830203205347061, -0.04598246514797211, 0.03154825046658516, 0.030559875071048737, 0.009113197214901447, 0.11530750244855881, -0.025585860013961792, -0.06465815752744675, -0.012058008462190628, -0.02050032652914524, 0.004439685959368944, -0.07891259342432022, 0.0063131083734333515, 0.13612215220928192, 0.07719117403030396, 0.13092070817947388, 0.02530139870941639, 0.20928671956062317, 0.03707320615649223, 0.035755280405282974, 0.009402306750416756, 0.06373654305934906, -0.0037214234471321106, -0.018481425940990448, 0.027204928919672966, 0.056811001151800156, -0.03311837837100029, -0.050203967839479446, 0.3269704580307007, 0.07103196531534195, 0.15769556164741516, 0.09022001922130585, 0.019580965861678123, -0.005488959606736898, -0.01706191897392273, 0.07591982930898666, 0.03316731005907059, -0.014753958210349083, 0.028242547065019608, 0.024747749790549278, -0.07015509158372879, -0.006537518929690123, -0.09378927201032639, 0.18385720252990723, 0.057468563318252563, 0.07884670794010162, 0.057912129908800125, 0.01928524859249592, 0.007354096509516239, 0.0021700270008295774, 0.06901288777589798, 0.04237641021609306, 0.0777951031923294, -0.06338265538215637, 0.030573399737477303, -0.17409460246562958, 0.03433334082365036, 0.1773166060447693, 0.13321295380592346, 0.07376743853092194, -0.17297503352165222, 0.2251356840133667, 0.03881629928946495, 0.05192911624908447, -0.10589120537042618, 0.003278008196502924, 0.1453368216753006, 0.04478994756937027, 0.01872335746884346, 0.08985626697540283, 0.1018252894282341], [0.009111860767006874, 0.14648102223873138, -0.05493674799799919, -0.02731563337147236, 0.009366165846586227, 0.05700111389160156, 0.009123476222157478, 0.026974305510520935, -0.07254897058010101, -0.012274574488401413, 0.01715634949505329, 0.05513320863246918, 0.0031483382917940617, 0.004083649255335331, 0.014968384988605976, 0.06222785264253616, 0.007301636505872011, -0.05414741486310959, -0.03429865092039108, -0.04268527403473854, 0.002087425207719207, -0.0331033356487751, 0.058219172060489655, -0.0512147918343544, -0.08671818673610687, 0.13584765791893005, -0.08397973328828812, 0.041619088500738144, -0.06263566017150879, 0.039202168583869934, 0.05530926585197449, -0.012076680548489094, -0.0664558932185173, -0.030422965064644814, 0.0828799456357956, 0.0009462680318392813, 0.04839791730046272, 0.27285805344581604, 0.16351334750652313, -0.025335846468806267, 0.038174498826265335, -0.011147416196763515, 0.030991507694125175, 0.019895361736416817, 0.07901230454444885, 0.06740105897188187, 0.07017721980810165, -0.0716041699051857, 0.010041259229183197, -0.0700913667678833, -0.016863377764821053, 0.024267110973596573, -0.03362731635570526, -0.06366293132305145, -0.07902851700782776, -0.026800470426678658, -0.07201763242483139, 0.04097965732216835, 0.00463188998401165, 0.10177119821310043, -0.009566358290612698, 0.045939140021800995, 0.07997430860996246, 0.0843343585729599, 0.011386030353605747, 0.019375348463654518, -0.08026552200317383, -0.005299313925206661, 0.08065818250179291, -0.03283582255244255, -0.08538283407688141, 0.0604902021586895, 0.041777241975069046, 0.014850135892629623, 0.02052794024348259, 0.03792250528931618, 0.032281503081321716, 