{"net.0.weight": [[0.0689239501953125, 0.030661651864647865, -0.054987262934446335, 0.07810471206903458, 0.04452257975935936, -0.04575400799512863, -0.011833508498966694, -0.05945796146988869, 0.02683022804558277, -0.07165657728910446, 0.04466091841459274, 0.0710969790816307, -0.04407552629709244, -0.06156028434634209, -0.10063602775335312, 0.0023385779932141304, -0.06958096474409103, -0.07981351017951965, -0.05370323732495308, 0.07606394588947296, -0.017243610695004463, -0.045627862215042114, 0.03308567777276039, -0.04954790696501732, 0.014494908042252064, 0.015557748265564442, 0.0625753402709961, -0.0414007343351841, 0.05045166239142418, -0.04227267950773239, 0.09654460102319717, 0.06558521091938019, -0.03882097825407982, 0.07084615528583527, -0.01406075805425644, -0.05289140343666077, 0.009849139489233494, 0.007987767457962036, 0.4086012542247772, 0.032407719641923904, -0.0206135381013155, 0.10067171603441238, 0.06805318593978882, 0.11317340284585953, 0.08033271878957748, 0.0008230475359596312, 0.0033752506133168936, -0.07332855463027954, -0.01529704499989748, 0.035946305841207504, -0.034580692648887634, -0.04444475099444389, 0.05248946696519852, -0.06970791518688202, 0.02658723294734955, 0.06359453499317169, -0.053168606013059616, -0.08169207721948624, 0.03533816710114479, 0.0777205228805542, -0.0029247275087982416, -0.015481194481253624, -0.0440361313521862, -0.051196128129959106, -0.04033254459500313, -0.03804260864853859, 0.005666086450219154, 0.015173324383795261, -0.056867968291044235, -0.0005438094376586378, -0.04154162481427193, 0.022338097915053368, 0.015192292630672455, 0.04781804233789444, 0.041553180664777756, 0.05469229817390442, -0.03129681572318077, -0.06832845509052277, -0.0274574663490057, -0.03725755587220192, 0.05378039926290512, 0.0043380381539464, 0.029756121337413788, 0.018997693434357643, -0.025821181014180183, 0.06108052283525467, 0.0007686928729526699, -0.0800132229924202, -0.07003649324178696, 0.005850205663591623, -0.07377059757709503, 0.03509127348661423, -0.006334416568279266, -0.07640454918146133, -0.06516752392053604, -0.015921078622341156, 0.11596346646547318, -0.05491261184215546, 0.013961476273834705, 0.1379336267709732, 0.032513946294784546, 0.0679411068558693, 0.033548686653375626, -0.04886380955576897, -0.09363481402397156, -0.058871686458587646, 0.0033115348778665066, -0.004813796374946833, 0.07659182697534561, 0.0832623764872551, 0.048116981983184814, -0.09341059625148773, 0.034153737127780914, -0.026635026559233665, 0.01353427954018116, -0.08567699790000916, -0.04509364068508148, -0.022814998403191566, -0.05513356998562813, 0.025560233741998672, 0.013377714902162552, 0.005017709452658892, 0.019796840846538544, 0.016972456127405167, 0.10992245376110077, -0.05161704868078232, 0.08000059425830841, -0.018290845677256584, 0.017724722623825073, 0.028403889387845993, -0.0334610715508461, -0.0430135540664196, -0.020740749314427376], [0.014196503907442093, 0.0454394556581974, 0.05988895520567894, 0.07575057446956635, 0.003019129391759634, 0.011303068138659, -0.10754568874835968, 0.06786011159420013, -0.08565650880336761, 0.021464215591549873, -0.030639788135886192, -0.11074105650186539, -0.11121499538421631, 0.004646774381399155, -0.07955519109964371, 0.015475582331418991, 0.0911007896065712, 0.06021374464035034, -0.09011335670948029, 0.03984489664435387, 0.05929526314139366, -0.055000074207782745, -0.02811901830136776, -0.07096496969461441, 0.08651694655418396, -0.042692944407463074, 0.013309210538864136, -0.08047303557395935, -0.0027636440936475992, -0.0775069072842598, 0.2921801805496216, 0.0649217814207077, 0.0198387298732996, -0.025762299075722694, 0.05650068074464798, 0.04854096844792366, -0.061520788818597794, 0.02218382991850376, -0.04940230771899223, 0.037851326167583466, -0.08334459364414215, 0.029163742437958717, -0.05008333548903465, 0.01802275888621807, -0.02257682941854, 0.2652703821659088, -0.051595233380794525, 0.02042413502931595, -0.062075596302747726, -0.018333684653043747, 0.012328330427408218, 0.13506022095680237, 0.02226213738322258, 0.06670752167701721, 0.12017849832773209, 0.012307646684348583, -0.023368418216705322, -0.051351532340049744, -0.07953310012817383, 0.049170367419719696, 0.06925791501998901, 0.12070818245410919, 0.09266126900911331, -0.01265524048358202, 0.05081148445606232, 0.05769425630569458, -0.0283544659614563, 0.09683108329772949, -0.1712886095046997, -0.04693382978439331, -0.0545407198369503, -0.21390852332115173, -0.10960041731595993, 0.05017475783824921, 0.12612783908843994, 0.0015486094634979963, 0.050432898104190826, -0.018002605065703392, 0.05748510733246803, 0.061426158994436264, -0.01008383184671402, 0.054765839129686356, 0.011065181344747543, -0.2468460649251938, 0.029030514881014824, -0.06646260619163513, 0.026796959340572357, -0.0015135364374145865, 0.0020693971309810877, -0.041514117270708084, 0.012646880000829697, 0.0836048498749733, 0.04978395998477936, 0.022107664495706558, 0.02103041484951973, 0.025723088532686234, -0.04249875992536545, 0.07751927524805069, -0.032420266419649124, 0.11260776221752167, 0.15652987360954285, -0.02051590383052826, -0.0007720388239249587, 0.013918542303144932, 0.018095852807164192, 0.06684789061546326, -0.010840068571269512, -0.058570824563503265, 0.03564877063035965, 0.022837838158011436, 0.07833343744277954, 0.022844726219773293, -0.04959220811724663, -0.06578578054904938, 0.03611602261662483, -0.019154535606503487, -0.0559970997273922, -0.08737325668334961, 0.019219139590859413, -0.07681670039892197, 0.08576656132936478, 0.04219282045960426, 0.15909820795059204, 0.046811025589704514, 0.07153424620628357, 0.01935548149049282, 0.04916765168309212, 0.011456914246082306, 0.14333052933216095, 0.10427017509937286, 0.09599771350622177, 0.08538667857646942, 0.04252413660287857], [0.1244499683380127, -0.011456782929599285, 0.13304100930690765, -0.02337852492928505, -0.04082656279206276, 0.049684908241033554, 0.0597158819437027, -0.053855106234550476, -0.013796488754451275, -0.06983325630426407, 0.001232327427715063, 0.05753331258893013, -0.08328588306903839, -0.05842271447181702, 0.014375257305800915, 0.14867649972438812, -0.019095176830887794, -0.041137926280498505, -0.021629560738801956, 0.0283815860748291, 0.05437873676419258, -0.04449084401130676, 0.007775178179144859, -0.04836729168891907, 0.023768024519085884, 0.047121562063694, 0.050881702452898026, 0.09249832481145859, 0.01876820996403694, -0.06803501397371292, 0.09244352579116821, 0.053697310388088226, 0.0067787268199026585, -0.05377903953194618, 0.07439064234495163, -0.019490953534841537, -0.03184090927243233, -0.07070327550172806, 0.0752042904496193, 0.05016128718852997, 0.12070456892251968, -0.07895898073911667, -0.06705675274133682, -0.023301849141716957, -0.0800323635339737, 0.17470259964466095, 0.17672495543956757, -0.00808855053037405, 0.24395745992660522, -0.021815234795212746, -0.1210184320807457, -0.03757750988006592, 0.09482037276029587, -0.016460763290524483, -0.021249867975711823, -0.09512645751237869, -0.05197859928011894, 0.07313556969165802, 0.05813084915280342, 0.03628095984458923, 0.08304324746131897, 0.149274080991745, 0.15506285429000854, 0.14102451503276825, 0.074369877576828, 0.18595226109027863, 0.04043329879641533, -0.056545451283454895, -0.040641751140356064, 0.031011095270514488, -0.011030725203454494, 0.03428070992231369, -0.07418903708457947, -0.03965545818209648, 0.06943724304437637, 0.10248888283967972, 0.01045710314065218, -0.03713894262909889, 0.008052350021898746, 0.04442204535007477, -0.18054744601249695, 0.0038394327275455, 0.03993529453873634, 0.012249816209077835, -0.05349866673350334, 0.012349730357527733, -0.04674946144223213, -0.04749945178627968, 0.055510830134153366, -0.030557667836546898, 0.17130056023597717, 0.1075606569647789, 0.12416329234838486, 0.052910640835762024, 0.019311444833874702, 0.01651832088828087, 0.09971706569194794, -0.10248422622680664, 0.008931095711886883, -0.04494905471801758, -0.06096702441573143, -0.09050153940916061, -0.03503049165010452, -0.0700702965259552, -0.04251324385404587, 0.007948540151119232, 0.11309997737407684, 0.12381289899349213, 0.016014594584703445, 0.11875060945749283, -0.07572866231203079, 0.04280572757124901, -0.03256017714738846, -0.05068086460232735, -0.013839268125593662, 0.008141962811350822, 0.045624740421772, 0.03138064593076706, -0.07299504429101944, -0.09785536676645279, 0.03781423717737198, 0.1279008984565735, 0.03940887004137039, 0.006394251715391874, -0.013846727088093758, 0.06396036595106125, 0.07914676517248154, 0.10053656250238419, -0.05300256982445717, 0.010201952420175076, -0.03850515931844711, 0.07112011313438416, 0.08822136372327805], [0.10379194468259811, -0.025308772921562195, 0.09356480836868286, -0.0387016199529171, -0.01714097522199154, 0.025405066087841988, -0.10775139927864075, 0.040839649736881256, -0.016873540356755257, -0.016235116869211197, -0.026073351502418518, -0.05599871650338173, 0.01671580597758293, -0.04310235008597374, 0.10660562664270401, 0.10993247479200363, -0.0334814190864563, -0.043831877410411835, 0.030741214752197266, -0.08011404424905777, -0.003913235384970903, -0.047348979860544205, -0.03713763877749443, 0.009234770201146603, 0.1885865479707718, -0.048356298357248306, -0.019251294434070587, -0.036138880997896194, -0.08620256185531616, 0.04852236434817314, 0.059761203825473785, 0.06616605073213577, 0.10502798110246658, 0.00926887895911932, -0.01590680703520775, 0.050224971026182175, 0.10547564923763275, 0.05143189802765846, 0.007564330007880926, 0.05511791259050369, -0.09064193069934845, -0.0031988355331122875, -0.025728940963745117, 0.016295121982693672, 0.07021825015544891, 0.06838422268629074, 0.08782271295785904, -0.03191404789686203, 0.030854620039463043, -0.06306131184101105, 0.00763219827786088, 0.05622733384370804, 0.12566795945167542, 0.09394468367099762, 0.12065588682889938, 0.019319266080856323, 0.05952170491218567, -0.02913666144013405, -0.03167711943387985, 0.10028126090765, 0.07199621200561523, 0.06712653487920761, 0.02608579583466053, 0.09476281702518463, 0.14645232260227203, 0.07095947116613388, -0.006043286994099617, -0.0043913209810853004, 0.016989724710583687, -0.047842901200056076, -0.07682503759860992, -0.03124398924410343, -0.04734629765152931, -0.0343877412378788, 0.03541899472475052, 0.08283061534166336, -0.06997426599264145, -0.017963062971830368, -0.01737450249493122, -0.019037602469325066, -0.05776255950331688, 0.1452808976173401, 0.09893232583999634, 0.06387030333280563, 0.16334106028079987, 0.012660038657486439, -0.023816905915737152, -0.018224330618977547, 0.0021205099765211344, 0.10270442813634872, 0.17868471145629883, 0.0781647115945816, 0.02871125377714634, 0.09011261910200119, -0.038600727915763855, 0.050291627645492554, 0.0038073668256402016, -0.006803433410823345, 0.02466350607573986, -0.018085619434714317, -0.0753360241651535, -0.05022285133600235, 0.03081025555729866, 0.036419060081243515, 0.102801114320755, -0.025347381830215454, -0.010523445904254913, 0.08065749704837799, 0.08978104591369629, -0.04734206944704056, -0.025290334597229958, -0.04004701226949692, 0.015489419922232628, -0.014443687163293362, -0.07291131466627121, -0.05835730955004692, 0.0018582275370135903, -0.08458681404590607, 0.0035805990919470787, 0.0896153673529625, 0.08197499066591263, 0.10904537886381149, 0.12186957895755768, -0.01638706773519516, -0.037252139300107956, 0.03144944831728935, -0.27387672662734985, 0.1268552839756012, 0.10816134512424469, 0.08046090602874756, 0.0644887387752533, 0.023530859500169754, 0.06721990555524826], [-0.055226702243089676, -0.14390480518341064, 0.006818735972046852, -0.04993799328804016, -0.09551913291215897, 0.10344161838293076, -0.1532391607761383, 0.009132231585681438, -0.10019035637378693, 0.0662783682346344, -0.06272393465042114, 0.01225096546113491, -0.007572701666504145, 0.04438277333974838, -0.05094572901725769, -0.10673265159130096, -0.11696469038724899, -0.03989706560969353, 0.011369067244231701, 0.026495127007365227, -0.04559481143951416, -0.016246462240815163, -0.08805211633443832, -0.021196598187088966, 0.07344429939985275, 0.013023031875491142, 0.021172070875763893, 0.05037806183099747, -0.07739916443824768, 0.04909656569361687, -0.03297043219208717, -0.08536465466022491, -0.1025526374578476, -0.026214273646473885, -0.014546523801982403, 0.05151720345020294, 0.003075557528063655, 0.027147024869918823, -0.0034423985052853823, 0.0915282592177391, -0.02152545191347599, 0.062440890818834305, -0.11021345853805542, -0.03334951400756836, 0.015387136489152908, -0.04987557232379913, -0.1036316528916359, -0.13976727426052094, 0.003040538402274251, -0.09843022376298904, 0.010731924325227737, 0.06083378940820694, 0.09552261233329773, -0.2063734084367752, 0.117579385638237, -0.04999285936355591, -0.039304714649915695, -0.0449911393225193, -0.008851606398820877, 0.00037631424493156374, -0.07272886484861374, -0.055367860943078995, -0.0534561425447464, -0.1307375729084015, 0.0009699195506982505, 0.008980118669569492, -0.06932424008846283, 0.020823804661631584, -0.04120101034641266, -0.042932964861392975, -0.02942759357392788, -0.13372504711151123, -0.09134019911289215, -0.07356622815132141, -0.08593723922967911, -0.015083733946084976, -0.0209945198148489, 0.008579451590776443, -0.009176517836749554, -0.1050901710987091, 0.002071449998766184, -0.25503993034362793, 0.053595054894685745, -0.027098223567008972, 0.08536019921302795, -0.11334329098463058, -0.052569955587387085, -0.10111604630947113, 0.021785113960504532, -0.060129813849925995, -0.17001621425151825, -0.054948966950178146, -0.042131207883358, -0.0591367743909359, -0.010371042415499687, 0.01396096684038639, -0.01771947741508484, 0.08252217620611191, -0.017126943916082382, 0.09643786400556564, -0.08422304689884186, -0.0018230637069791555, 0.05967088043689728, 0.0163856353610754, -0.004176744259893894, -0.031317565590143204, 0.12369634956121445, -0.013607800006866455, 0.024520011618733406, -0.07210709154605865, 0.09401236474514008, -0.32137250900268555, 0.009488498792052269, 0.027776729315519333, -0.24117609858512878, 0.03679199144244194, -0.06999921053647995, 0.011715668253600597, 0.02065536007285118, -0.07011580467224121, -0.012433267198503017, 0.08724416792392731, 0.12098568677902222, -0.09408195316791534, -0.08733700960874557, -0.01658305898308754, 0.06675507128238678, 0.02254139818251133, 0.1817914992570877, 0.03129782900214195, 0.018425606191158295, -0.09607275575399399, -0.1424875408411026], [0.015627210959792137, -0.014140795916318893, 0.016729751601815224, -0.03480469435453415, -0.02418980933725834, -0.0862341821193695, 0.04635445028543472, -0.06867216527462006, 0.057972878217697144, 0.07373054325580597, 0.028064200654625893, 0.05496026575565338, -0.026956699788570404, 0.08053823560476303, -0.012668721377849579, 0.07124046981334686, 0.001223654835484922, 0.011372726410627365, -0.013643587939441204, -0.08547589182853699, 0.04378117620944977, -0.09919726848602295, -0.06004655733704567, -0.0060338713228702545, -0.005087182857096195, -0.07526938617229462, 0.003181794425472617, 0.062144070863723755, -0.0035366385709494352, -0.07175184041261673, 0.029924506321549416, 0.0778876319527626, -0.061027009040117264, -0.028482094407081604, -0.07808041572570801, -0.0007544488180428743, -0.014592749066650867, 0.05379438027739525, -0.16954480111598969, 0.025010082870721817, 0.04670952633023262, 0.03514498472213745, 0.07660415768623352, 0.05247361212968826, -0.03890427201986313, 0.0844130739569664, -0.05366180092096329, -0.010918633081018925, 0.0032006422989070415, 0.02820858359336853, 0.02866426482796669, -0.0931808203458786, 0.029310761019587517, 0.010186090134084225, -0.025930361822247505, 0.008321285247802734, -0.05479263886809349, -0.008604936301708221, 0.018055491149425507, -0.06647711247205734, -0.00630043912678957, 0.019008558243513107, 0.06972620636224747, 0.017831990495324135, 0.011361077427864075, -0.057670075446367264, -0.03926322981715202, 0.07059482485055923, 0.04012300819158554, 0.05275344476103783, -0.06411460041999817, 0.007473962847143412, -0.02957204356789589, -0.07943151146173477, 0.0675668939948082, 0.05778617784380913, -0.05945207178592682, 0.03201362118124962, 0.05783829838037491, -0.0346514955163002, 0.04393649101257324, 0.07776939123868942, -0.025633811950683594, 0.0029545174911618233, -0.07188989222049713, -0.08206117153167725, 0.08238007128238678, -0.04350655525922775, -0.08253766596317291, -0.0046964674256742, -0.04713543504476547, 0.022707290947437286, 0.06618326157331467, -0.030458224937319756, -0.07671741396188736, 0.05482247471809387, -0.06851669400930405, -0.03808451443910599, -0.03471327945590019, -0.034574754536151886, 0.03995303064584732, -0.08115324378013611, -0.0781407430768013, -0.06520714610815048, -0.07442934811115265, -0.08519930392503738, 0.2684743106365204, -0.06431195884943008, -0.06718353927135468, -0.006300718057900667, 0.014575242064893246, 0.05924062058329582, -0.05070536583662033, -0.01646713726222515, -0.03955163061618805, -0.020403733476996422, 0.03125558793544769, -0.00038831058191135526, 0.043766289949417114, 0.020795093849301338, -0.05011490359902382, -0.06879889219999313, 0.005801626481115818, -0.04992285743355751, -0.024625269696116447, 0.0065264212898910046, -0.05506671220064163, -0.10404108464717865, 0.0439913384616375, 0.059042803943157196, 0.017853477969765663, -0.07236214727163315, -0.026252392679452896], [0.10353665798902512, -0.09913172572851181, -0.0837700143456459, -0.04759637266397476, -0.0005262487102299929, -0.019970430061221123, -0.05358085036277771, -0.11252601444721222, 0.07149003446102142, 0.08711667358875275, -0.11219888925552368, 0.04184257239103317, 0.05276390537619591, -0.09015274792909622, -0.048027154058218, -0.0029671660158783197, -0.02978900633752346, 0.03998234122991562, 0.028887607157230377, -0.10913549363613129, -0.07727563381195068, -0.03712477907538414, -0.021552924066781998, -0.04828165844082832, 0.0639938935637474, 0.043064285069704056, 0.1247219517827034, -0.14847375452518463, -0.027996117249131203, 0.03520574793219566, -0.0063585443422198296, -0.07248608022928238, -0.11023329943418503, -0.02800615504384041, -0.07514641433954239, -0.06606243550777435, 0.03884979337453842, -0.03606697916984558, 0.03363867849111557, 0.10439929366111755, 0.044285859912633896, -0.04163501784205437, -0.006172017194330692, -0.0894245132803917, 0.05553709343075752, -0.12499801069498062, -0.01912708207964897, 0.052801672369241714, -0.06894666701555252, 0.08452296257019043, -0.02305479161441326, 0.11848893761634827, -0.018464723601937294, -0.033471543341875076, 0.0507226437330246, -0.03585042804479599, 0.08042849600315094, 0.04204278066754341, 0.0255172997713089, 0.03970097750425339, -0.14201472699642181, -0.08349864184856415, -0.1256020963191986, -0.11091212183237076, -0.030388370156288147, 0.07233547419309616, -0.007292021997272968, -0.013278788886964321, 0.011874859221279621, -0.004919171798974276, 0.014502563513815403, 0.11135566234588623, -0.061795834451913834, -0.049537837505340576, 0.09874731302261353, -0.12320992350578308, -0.042758021503686905, 0.015043421648442745, -0.08129148930311203, -0.1317395567893982, -0.035550057888031006, -0.017151620239019394, -0.010582968592643738, -0.0023457284551113844, -0.012742036953568459, -0.005704691167920828, 0.0819360762834549, -0.110011525452137, -0.08039229363203049, 0.07307877391576767, -0.015584942884743214, -0.016100963577628136, -0.051556531339883804, -0.0025166484992951155, -0.058169182389974594, 0.0047243451699614525, -0.09391634911298752, -0.06085076555609703, -0.085726298391819, 0.07278689742088318, -0.09893228858709335, -0.0436113215982914, -0.07217593491077423, -0.05637146905064583, 0.007566171232610941, -0.0320916622877121, -0.0014689797535538673, -0.0751844048500061, -0.08987747132778168, 0.039339181035757065, 0.1073143258690834, -0.07555384933948517, 0.05257068946957588, 0.10559550672769547, 0.11950700730085373, -0.055326756089925766, -0.0024956052657216787, -0.012863941490650177, -0.059448499232530594, -0.030292032286524773, -0.05217472091317177, -0.16406452655792236, 0.0008778386400081217, -0.03182750567793846, -0.1359013170003891, -0.044569313526153564, -0.022518133744597435, 0.0004647346504498273, -0.0027772176545113325, -0.062220945954322815, 0.01944861002266407, -0.04886820539832115, 0.08252674341201782], [-0.05852346867322922, -0.14174991846084595, -0.06594701111316681, -0.1823505163192749, -0.075761578977108, 0.20428739488124847, 0.01852395199239254, -0.10811447352170944, 0.05138477310538292, 0.02292565256357193, -0.005260861944407225, -0.03596539422869682, -0.026391396299004555, 0.005051661282777786, -0.05130399018526077, -0.1320224553346634, -0.1413392573595047, -0.07228894531726837, -0.04887508600950241, -0.048848364502191544, -0.026123730465769768, 0.07233032584190369, -0.08242093026638031, -0.03693506494164467, 0.04213514178991318, -0.1263824701309204, 0.13188403844833374, 0.03629525750875473, 0.02747572585940361, 0.0642368495464325, -0.13446936011314392, -0.1437683403491974, 0.054698534309864044, -0.0003838580450974405, -0.007073503918945789, 0.08523248881101608, 0.055302318185567856, -0.09975511580705643, 0.06059651076793671, -0.02349209040403366, -0.03455513343214989, -0.05379640311002731, -0.10916395485401154, 0.035073280334472656, 0.05191724747419357, -0.09922441840171814, -0.07292931526899338, -0.06274636089801788, -0.11485996842384338, 0.0014028978766873479, 0.02781536430120468, -0.004603822249919176, 0.018162459135055542, 0.04202664643526077, 0.08390694111585617, -0.0558600053191185, -0.0014642608584836125, 0.03474726155400276, -0.10772591084241867, 0.05003282427787781, -0.14569178223609924, -0.014118404127657413, -0.21201692521572113, -0.15498340129852295, -0.11758347600698471, 0.01823912002146244, -0.03243456035852432, 0.005224602296948433, 0.04494554549455643, 0.2911222577095032, -0.019770683720707893, 0.10203345865011215, -0.060484275221824646, 0.020516738295555115, -0.029509438201785088, -0.066504567861557, -0.11674334108829498, -0.023228146135807037, -0.18558910489082336, -0.05275426805019379, 0.050154849886894226, -0.019261926412582397, -0.04658246785402298, 0.04617168381810188, 0.041479092091321945, -0.03708026930689812, 0.009306307882070541, -0.05766983702778816, -0.01754016987979412, -0.00765783479437232, -0.026392163708806038, 0.01642603799700737, 0.015556246973574162, -0.019315505400300026, -0.0022754694800823927, 0.04317764192819595, -0.09329390525817871, -0.07697462290525436, -0.03727904334664345, 0.06717076152563095, -0.06777744740247726, 0.19060450792312622, 0.0004969579167664051, -0.09116838872432709, -0.07977915555238724, -0.11230070888996124, -0.12513941526412964, -0.0037747551687061787, 0.006749216932803392, 0.013658407144248486, -0.017001844942569733, -0.04514063149690628, -0.10713396966457367, 0.002953368704766035, 0.06597444415092468, -0.06797461211681366, -0.0030388503801077604, -0.12333257496356964, -0.09056656807661057, 0.04936932399868965, -0.01138817798346281, -0.014801512472331524, 0.041792936623096466, 0.07215751707553864, -0.0600467175245285, -0.11052370071411133, -0.12335597723722458, 0.06618352234363556, 0.11561539024114609, -0.04112103953957558, -0.03795718029141426, 0.06509682536125183, 0.02906264364719391], [0.15021076798439026, -0.03789959475398064, 0.07569169998168945, -0.06236637383699417, 0.016431057825684547, -0.05830908566713333, -0.10565250366926193, 0.06319067627191544, -0.021032312884926796, -0.015736311674118042, -0.026053113862872124, -0.013176541775465012, 0.01109246350824833, -0.10201949626207352, -0.044015660881996155, 0.007372329477220774, 0.0757032185792923, 0.06721999496221542, -0.02779957465827465, -0.07812090963125229, 0.055721960961818695, 0.03967776894569397, -0.040178485214710236, -0.06443418562412262, -0.1206858828663826, -0.04012191668152809, -0.0030352938920259476, 0.13243651390075684, -0.03340346738696098, -0.03801959380507469, 0.08377780020236969, 0.0664922222495079, 0.06683100759983063, -0.12116831541061401, 0.03356284275650978, -0.06168534606695175, -0.007370369974523783, 0.13668227195739746, -0.002559010172262788, 0.0017789080739021301, -0.03747137263417244, 0.02433953806757927, 0.05738469585776329, 0.02057402767241001, -0.09177090972661972, 0.08846055716276169, 0.07154038548469543, -0.05254629626870155, 0.07195696979761124, -0.04162297397851944, 0.004572347737848759, 0.03575662896037102, 0.139958456158638, 0.04560345783829689, 0.04656367003917694, -0.014140119776129723, 0.04509632661938667, 0.05011805146932602, -0.08985816687345505, 0.029283728450536728, 0.12176478654146194, 0.14334110915660858, 0.09594328701496124, -0.028268752619624138, -0.02508547157049179, 0.05260869488120079, 0.018177691847085953, -0.02343100868165493, -0.035834282636642456, 0.012205337174236774, -0.15637192130088806, 0.14229591190814972, -0.04800644516944885, 0.02978932112455368, 0.16851377487182617, 0.1912180334329605, 0.07237478345632553, -0.05368667468428612, 0.02081177942454815, -0.03467756137251854, 0.05532945320010185, 0.1748805195093155, 0.05856531858444214, -0.03946703299880028, -0.23821735382080078, 0.061873890459537506, 0.08882153779268265, 0.016579262912273407, -0.04702829197049141, -0.027981938794255257, 0.15067477524280548, -0.015270787291228771, 0.09519720822572708, -0.028696896508336067, 0.06764394789934158, -0.06742410361766815, 0.2200927734375, 0.148473858833313, 0.08435018360614777, 0.004916966427117586, -0.08126921951770782, 0.05118561163544655, -0.058555275201797485, -0.04763586446642876, 0.06634321063756943, 0.04612494260072708, -0.08332833647727966, 0.09473346918821335, 0.25247514247894287, 0.105846107006073, 0.08115914463996887, 0.07626646757125854, 0.017050674185156822, -0.0032915016636252403, 0.09032996743917465, -0.04465357959270477, -0.08095838874578476, 0.05326336622238159, 0.008217508904635906, -0.01677880808711052, 0.0525335855782032, 0.06731928139925003, -0.12070348113775253, 0.021715648472309113, 0.017961634323000908, 0.025575317442417145, -0.012885981239378452, 0.13142965734004974, 0.11398211866617203, 0.027071256190538406, 0.03727094456553459, 0.15152432024478912, 0.11171718686819077], [0.028824178501963615, 0.07126611471176147, 0.0969502255320549, -0.13966943323612213, -0.09520968049764633, 0.02922314591705799, 0.06682590395212173, 0.11732791364192963, -0.09745709598064423, 0.09429854899644852, -0.08040538430213928, -0.1313779354095459, -0.11818495392799377, -0.01139712892472744, 0.03009534813463688, -0.047737035900354385, 0.09098972380161285, 0.1035957857966423, 0.022966306656599045, 0.010832040570676327, 0.10464764386415482, -0.08774937689304352, -0.06839175522327423, -0.02581934630870819, -0.021535266190767288, -0.0563870444893837, 0.08961588889360428, -0.12182185053825378, -0.08027227222919464, -0.11691087484359741, -0.04858097434043884, 0.1809188276529312, -0.0532197467982769, 0.033148571848869324, 0.02511700429022312, -0.038682159036397934, -0.014509341679513454, 0.05938331037759781, 0.031813591718673706, 0.07675518095493317, -0.09156863391399384, 0.042948056012392044, 0.003381083020940423, -0.08004969358444214, 0.0026684412732720375, 0.06071779131889343, 0.09238465130329132, 0.06337510794401169, -0.0008012054022401571, 0.019657792523503304, 0.03318050131201744, 0.10607711970806122, -0.09460622072219849, 0.019576117396354675, 0.05016782507300377, -0.037359874695539474, 0.12244713306427002, -0.12219175696372986, 0.1544659584760666, 0.05213746055960655, 0.01737182028591633, 0.04054258391261101, 0.01319991797208786, 0.019049661234021187, 0.07641880214214325, 0.002378863515332341, 0.08809958398342133, -0.07675305008888245, 0.035495273768901825, -0.048205647617578506, -0.04440287500619888, 0.06680866330862045, -0.05351867899298668, -0.07642042636871338, 0.031523238867521286, 0.10487906634807587, -0.028547007590532303, -0.03750436380505562, 0.025896139442920685, -0.003127667121589184, 0.05734621360898018, 0.09810114651918411, -0.02517884038388729, -0.0612768679857254, -0.014490535482764244, -0.03288883715867996, -0.020481791347265244, 0.004855083767324686, 0.016148049384355545, -0.046057138592004776, 0.07189834862947464, -0.06858036667108536, 0.0748610720038414, 0.033073507249355316, -0.09435662627220154, 0.02105472981929779, -0.03240060806274414, 0.07509646564722061, 0.03604878485202789, 0.10269809514284134, -0.07720568776130676, 0.07639741152524948, -0.007670327555388212, -0.07729300856590271, -0.04487179219722748, 0.10624575614929199, -0.02685241773724556, -0.0636172965168953, -0.06827045232057571, -0.07731231302022934, -0.06596124172210693, -0.0015307290013879538, -0.05204777792096138, -0.07395793497562408, 0.0525786355137825, 0.038820259273052216, -0.02818197011947632, -0.020773693919181824, -0.04787697643041611, 0.02281838096678257, -0.01665988191962242, 0.0907047912478447, 0.03111988678574562, -0.07724069058895111, 0.0048356251791119576, -0.05728289112448692, 0.15080273151397705, 0.12558414041996002, 0.08965834230184555, -0.027959708124399185, 0.01585054211318493, 0.026204338297247887, -0.08810993283987045], [0.1817432940006256, 0.00965763721615076, 0.10499808192253113, 0.10507722944021225, 0.03737350553274155, -0.02858072891831398, 0.20384997129440308, -0.05618385598063469, 0.06480332463979721, -0.012820950709283352, 0.2659870386123657, -0.09754308313131332, -0.07599443942308426, -0.08303209394216537, 0.11635395139455795, 0.06373465061187744, 0.017916463315486908, 0.18691596388816833, 0.004438046365976334, -0.030908608809113503, -0.049212612211704254, -0.024432703852653503, 0.069261334836483, 0.0586451031267643, 0.0765078216791153, -0.011973085813224316, -0.026761725544929504, 0.0007078817579895258, 0.07652419805526733, 0.05662115663290024, 0.1215827465057373, 0.027862470597028732, -0.020435310900211334, -0.0034125016536563635, 0.040945183485746384, -0.02923441305756569, 0.022939013317227364, 0.08168348670005798, 0.04129350930452347, 0.06023893132805824, -0.07419202476739883, -0.04141632840037346, -0.055757373571395874, -0.062181875109672546, -0.08867369592189789, 0.02105334773659706, 0.13034594058990479, -0.02514619566500187, 0.10334242880344391, -0.041164055466651917, -0.05848514288663864, -0.03957949951291084, 0.04909791052341461, -0.01859048753976822, 0.4055255949497223, 0.07325954735279083, -0.09485118091106415, 0.0023519531823694706, -0.029237059876322746, 0.01908712647855282, 0.2138393223285675, 0.14327701926231384, 0.01797334849834442, 0.12531302869319916, 0.1366422474384308, 0.09984873235225677, 0.055501196533441544, -0.0011175507679581642, 0.03627342730760574, -0.060625799000263214, -0.08290114998817444, 0.007376052439212799, 0.023046273738145828, -0.0672864019870758, 0.1332024484872818, 0.16666918992996216, 0.04027944803237915, 0.0566411018371582, 0.053618405014276505, 0.09928279370069504, 0.007191349286586046, 0.08602006733417511, 0.04246668145060539, 0.06944020837545395, 0.0750604048371315, 0.08334286510944366, -0.08351142704486847, 0.07654042541980743, -0.0023720995523035526, 0.015115154907107353, 0.1107437014579773, 0.0810973271727562, 0.12093694508075714, 0.11627130955457687, -0.014234851114451885, 0.05834488198161125, 0.041097838431596756, -0.06580428779125214, 0.05191949009895325, 0.0053140269592404366, -0.008926729671657085, 0.051455236971378326, 0.060896869748830795, 0.002142365090548992, -0.008732282556593418, 0.04596998170018196, 0.08546210080385208, 0.09795141965150833, -0.03966211527585983, 0.05287240818142891, -0.04202839732170105, -0.013623440638184547, -0.016513096168637276, 0.05759671702980995, 0.06597096472978592, 0.040100257843732834, 0.035324327647686005, -0.06021652743220329, 0.023514291271567345, 0.18929846584796906, 0.06332094222307205, 0.014943595975637436, -4.945536784362048e-05, -0.006517126224935055, 0.132431760430336, -0.01934257335960865, -0.031841106712818146, 0.022108331322669983, -0.04155047610402107, 0.01264310721307993, 0.366056352853775, -0.0022082929499447346, -0.01624048873782158], [0.007637730799615383, -0.07036792486906052, -0.12381593137979507, -0.11088883876800537, 0.055275335907936096, -0.07681239396333694, -0.043697040528059006, 0.05188964679837227, 0.03180193156003952, 0.13881051540374756, -0.03499878942966461, -0.00203784485347569, -0.06424380838871002, -0.04694826528429985, 0.09811434894800186, 0.0034068687818944454, -0.04355096071958542, 0.006072049494832754, -0.02507750689983368, 0.0164851825684309, 0.06269987672567368, -0.005595982540398836, -0.0169256292283535, -0.022486170753836632, 0.02472914196550846, -0.09926129877567291, 0.14656592905521393, -0.037370212376117706, -0.0790589451789856, 0.06612983345985413, -0.06486323475837708, -0.05386139452457428, -0.16295161843299866, 0.04634037986397743, -0.046724047511816025, 0.029481198638677597, -0.010188048705458641, 0.08288516849279404, -0.1338973492383957, 0.028926465660333633, -0.06701181828975677, -0.04478945955634117, 0.056294459849596024, 0.03782098367810249, -0.12174583226442337, -0.012461225502192974, 0.01968025043606758, -0.08900051563978195, -0.0741662010550499, -0.025564899668097496, 0.03971467912197113, -0.08658252656459808, 0.03646641969680786, -0.004664877895265818, -0.01199624128639698, -0.040972642600536346, -0.03202198073267937, -0.2026115208864212, 0.05611236020922661, 0.054451096802949905, -0.10080032795667648, -0.10548829287290573, -0.10730357468128204, -0.035180334001779556, -0.03745676204562187, 0.017415089532732964, -0.009402032941579819, -0.016827955842018127, 0.05233101174235344, -0.06141860783100128, -0.09268371760845184, 0.012608570978045464, -0.1105179563164711, -0.07006809115409851, -0.04831891134381294, -0.107579305768013, 0.0030916989780962467, -0.025601089000701904, -0.10639449208974838, -0.008552392944693565, 0.03401309624314308, 0.18959014117717743, 0.021656814962625504, 0.0026916854549199343, 0.0606546625494957, 0.0624566376209259, 0.025132782757282257, 0.006492453161627054, 0.01479247584939003, 0.03318436071276665, -0.12408561259508133, 0.04183382913470268, -0.09197109937667847, -0.1659197062253952, -0.017050880938768387, -0.00972475204616785, 0.04711255431175232, 0.12361576408147812, -0.03272470086812973, -0.04115016385912895, -0.05306018516421318, 0.1136540099978447, -0.10897724330425262, -0.0204794742166996, 0.11268159747123718, 0.0574662908911705, -0.06675614416599274, -0.1145005151629448, -0.06013735383749008, 0.04202231764793396, 0.06895148754119873, -0.04540148749947548, 0.019322983920574188, 0.008502110838890076, 0.10458257794380188, -0.0058494145050644875, -0.09941631555557251, -0.03295961022377014, -0.024902695789933205, -0.02771579660475254, 0.0483366884291172, 0.07719580829143524, 0.12069210410118103, -0.09966718405485153, 0.01195185910910368, 0.06513852626085281, -0.0554911307990551, 0.10857368260622025, -0.030715662986040115, 0.013667033985257149, 0.1421222984790802, 0.11642218381166458, -0.021399736404418945], [-0.06033332273364067, -0.09012694656848907, -0.051315099000930786, -0.023330120369791985, 0.03221779689192772, 0.027511339634656906, -0.013944926671683788, -0.04966279864311218, -0.04875646531581879, -8.330697164637968e-05, 0.014626020565629005, -0.05285339429974556, -0.09479932487010956, 0.015023943968117237, -0.07647454738616943, -0.13755595684051514, -0.1067299097776413, -0.07740283012390137, -0.049211904406547546, 0.035622503608465195, 0.26188960671424866, -0.01840454712510109, -0.0896371603012085, -0.11814465373754501, 0.07954471558332443, -0.099402517080307, 0.15321029722690582, -0.007575163617730141, -0.10254528373479843, 0.025452135130763054, -0.07481075823307037, -0.1113443598151207, -0.07557395100593567, -0.018209926784038544, -0.002834151266142726, -0.007778265047818422, 0.06216594949364662, 0.021803751587867737, 0.06545104086399078, 0.030235400423407555, -0.08984765410423279, 0.0718783438205719, -0.1176452487707138, 0.014111206866800785, 0.026215456426143646, -0.035570427775382996, -0.08129505068063736, 0.029376117512583733, -0.12458830326795578, -0.048477962613105774, 0.042639005929231644, 0.07073035836219788, 0.07086025178432465, -0.040007155388593674, 0.02127019688487053, -0.03587022423744202, 0.03180832788348198, -0.08675151318311691, -0.08206846565008163, -0.02329213172197342, -0.0334690697491169, -0.02905341051518917, -0.05256710201501846, -0.02373051829636097, 0.024393238127231598, -0.06600505858659744, 0.00714632123708725, 0.003532490925863385, -0.04043126106262207, -0.004666225053369999, -0.006199293304234743, -0.0052750748582184315, -0.023443659767508507, -0.09709136188030243, 0.03219274431467056, -0.045658476650714874, -0.07863118499517441, -0.0012566054938361049, -0.05317603051662445, -0.0771472156047821, -0.08810004591941833, 0.03074447438120842, 0.08026891946792603, 0.04546394571661949, -0.009286410175263882, -0.09164582192897797, -0.05688309669494629, -0.09147655963897705, -0.07091046124696732, -0.018827736377716064, -0.022211512550711632, -0.015150084160268307, -0.024372117593884468, -0.05630965903401375, 0.028440892696380615, -0.08882759511470795, 0.12272991985082626, 0.06489507108926773, -0.025864068418741226, -0.005793559364974499, -0.10835953801870346, 0.09418772906064987, -0.04927724599838257, 0.02301054820418358, 0.05434117466211319, 0.036395907402038574, -0.03156062960624695, -0.10556454956531525, -0.054743025451898575, -0.020986469462513924, -0.06055156886577606, -0.0408935509622097, -0.015951916575431824, 0.11963760852813721, 0.005317795556038618, -0.004957901313900948, -0.022957589477300644, 0.03142638877034187, 0.023657124489545822, 0.02953847125172615, -0.08142893016338348, 0.050457339733839035, 0.04285668954253197, -0.1972934752702713, -0.0071171848103404045, -0.04121313989162445, -0.05418045446276665, 0.06697773188352585, -0.0441947765648365, 0.059057146310806274, -0.039329979568719864, 0.0449560321867466, -0.06445614248514175], [0.10060708224773407, -0.026255177333950996, -0.0233177300542593, 0.046293098479509354, -0.05660256743431091, -0.05060049518942833, -0.08110347390174866, 0.05166969820857048, 0.07900107651948929, 0.08552120625972748, -0.08604716509580612, -0.025444751605391502, -0.01747923344373703, -0.039107780903577805, 0.05583931878209114, 0.08313567191362381, -0.032216627150774, -0.000885005749296397, -0.13323238492012024, 0.05580143630504608, 0.1026853546500206, -0.025077609345316887, -0.06049811840057373, 0.0028241947293281555, 0.08384433388710022, -0.0185539647936821, 0.11610054224729538, -0.10008291155099869, -0.025996927171945572, -0.08987480401992798, 0.11062246561050415, 0.011402214877307415, 0.0451921746134758, 0.047551076859235764, 0.07111736387014389, -0.03641655668616295, 0.008087435737252235, 0.05867798253893852, -0.08268135786056519, 0.027622638270258904, 0.05684574320912361, 0.01946498639881611, 0.0134042389690876, -0.0932115688920021, -0.04771887883543968, 0.036536574363708496, -0.07309221476316452, 0.01431805919855833, -0.04282626137137413, -0.05502714589238167, -0.13942959904670715, 0.09977678954601288, 0.09121004492044449, 0.012427333742380142, 0.0787697285413742, -0.015241500921547413, 0.11234812438488007, -0.06087440624833107, -0.08612138032913208, -0.0025745825842022896, 0.1288151741027832, 0.034342728555202484, 0.007630256470292807, 0.0709083154797554, -0.01525445468723774, -0.02871953696012497, 0.02115161530673504, 0.001461770269088447, -0.009555533528327942, -0.04258723556995392, -0.08806858956813812, -0.1079658716917038, -0.08068545162677765, -0.01630370505154133, -0.116612009704113, 0.015102948993444443, -0.017070872709155083, -0.026683181524276733, -0.012537314556539059, 0.05722424015402794, -0.008967790752649307, 0.0953323021531105, -0.02485795132815838, -0.05527973547577858, 0.108558788895607, 0.027270453050732613, -0.038040827959775925, -0.10946185141801834, -0.11291257292032242, -0.028998706489801407, 0.10147562623023987, 0.02527284435927868, -0.015217266976833344, -0.06492585688829422, 0.05061691999435425, 0.08378437906503677, -0.0021424340084195137, 0.1297311633825302, 0.07074536383152008, -0.012131545692682266, 0.019094020128250122, 0.019053811207413673, -0.11663461476564407, -0.038417916744947433, 0.05949251353740692, -0.061795834451913834, 0.05510120466351509, 0.08589089661836624, -0.2450644075870514, 0.03944406658411026, -0.020141726359725, -0.1392403542995453, -0.02613797038793564, 0.11475317180156708, -0.02307490073144436, -0.09082559496164322, -0.008519230410456657, 0.05096573010087013, -0.10910867899656296, 0.01836565136909485, 0.026112094521522522, 0.13715948164463043, 0.16953213512897491, 0.030500108376145363, -0.07189617305994034, -0.04060875624418259, -0.03560137748718262, 0.11251144856214523, 0.11046018451452255, 0.04188114032149315, -0.007919765077531338, 0.14210902154445648, -0.06219057738780975], [0.1245051696896553, 0.09913145750761032, 0.09072098881006241, 0.01547180861234665, -0.12224596738815308, 0.05397668108344078, 0.09112504869699478, 0.10721714049577713, -0.05292162671685219, -0.07003752142190933, -0.013278111815452576, 0.05001389607787132, 0.049791958183050156, 0.04608963802456856, 0.04736253246665001, 0.059409480541944504, -0.0387783907353878, 0.023688357323408127, -0.09314283728599548, -0.029084425419569016, 0.04538780823349953, 0.03315415978431702, 0.07689610868692398, -0.016102682799100876, 0.07114224880933762, -0.04198130592703819, 0.016251519322395325, -0.0366450659930706, -0.02821040153503418, -0.004636473022401333, -0.024277111515402794, 0.09821142256259918, 0.04469762742519379, -0.036535777151584625, 0.050224315375089645, 0.02423490211367607, 0.1065971702337265, 0.020841438323259354, 0.04840753600001335, 0.09691061079502106, -0.022795069962739944, 0.06414148211479187, 0.007004798389971256, -0.040152303874492645, 0.00670904666185379, 0.057234860956668854, 0.038934748619794846, 0.05810536816716194, 0.08036517351865768, 0.005741708911955357, -0.013019654899835587, 0.06458599120378494, -0.04179507493972778, 0.060743845999240875, -0.019773393869400024, -0.09683385491371155, -0.020583776757121086, -0.04045279324054718, 0.02341909520328045, -0.04953338950872421, 0.12084534019231796, 0.14011748135089874, 0.005577111151069403, 0.20980633795261383, -0.029050514101982117, 0.05402791500091553, -0.0222404096275568, 0.0109688900411129, -0.012067890726029873, -0.064661905169487, -0.05801424756646156, 0.06964431703090668, -0.14954549074172974, -0.03410821035504341, 0.11612054705619812, 0.0499853640794754, -0.0365978367626667, 0.04286140576004982, 0.047578319907188416, 0.08553671836853027, 0.038656625896692276, -0.0774519294500351, 0.0019957313779741526, 0.00982174463570118, 0.009355666115880013, -0.05359760671854019, 0.021437983959913254, 0.0026272654067724943, -0.09862759709358215, -0.043966591358184814, 0.010862896218895912, -0.05246712267398834, 0.039252784103155136, 0.10354810208082199, -0.027172351256012917, 0.059316083788871765, 0.056736912578344345, 0.03624052181839943, -0.011823133565485477, -0.025378333404660225, -0.0724162757396698, -0.04415809363126755, 0.04758540913462639, 0.021290479227900505, 0.04972977563738823, 0.015864113345742226, -0.10819699615240097, -0.06667091697454453, 0.05089838430285454, 0.0935489609837532, -0.031024746596813202, -0.041474368423223495, -0.039376966655254364, -0.011665845289826393, -0.042525529861450195, -0.10749807953834534, 0.03606434538960457, -0.06848873198032379, 0.018407296389341354, -0.014767025597393513, 0.0644906684756279, 0.12949493527412415, -0.0058378917165100574, 0.12045420706272125, -0.05666539445519447, 0.12765109539031982, 0.018453067168593407, 0.13264894485473633, 0.020990736782550812, 0.016643861308693886, -0.0456046424806118, 0.0665232241153717, 0.022835897281765938], [0.0030035239178687334, 0.10474374145269394, 0.05500904098153114, 0.06410042196512222, -0.07841499149799347, 0.04668688401579857, -0.05214019864797592, 0.17011778056621552, -0.05123336613178253, 0.11234049499034882, 0.028900248929858208, -0.06710837036371231, -0.08292727917432785, 0.016391364857554436, -0.01688714511692524, 0.006203798111528158, 0.04156925156712532, 0.016652988269925117, -0.06920934468507767, 0.07057692855596542, 0.05509695038199425, -0.08332765102386475, -0.013773673214018345, 0.03252961486577988, -0.00040109368273988366, -0.07038310170173645, 0.13312342762947083, -0.06077117100358009, 0.05248689278960228, -0.06103556603193283, 0.04592636600136757, 0.007597849238663912, 0.03896542266011238, -0.024996502324938774, 0.02797665074467659, -0.06456301361322403, 0.12550365924835205, 0.07383068650960922, -0.07924660295248032, 0.04990697279572487, -0.081012062728405, 0.1026802808046341, -0.10449836403131485, -0.06953311711549759, -0.06703326106071472, 0.008060197345912457, 0.089104063808918, -0.017721783369779587, 0.021814757958054543, 0.016127288341522217, 0.05800999328494072, 0.08062548190355301, 0.10801234841346741, -0.045042794197797775, 0.12660439312458038, -0.02987978793680668, -0.015018162317574024, -0.08940241485834122, -0.037205036729574203, -0.026207879185676575, 0.18167445063591003, 0.0844188779592514, 0.03964509069919586, 0.023594163358211517, 0.05417797341942787, 0.1111680194735527, 0.06856561452150345, -0.016430439427495003, 0.024915337562561035, 0.09690443426370621, -0.02693205326795578, -0.012086634524166584, -0.036907557398080826, -0.1217542365193367, 0.12933169305324554, -0.013338658027350903, -0.07090598344802856, -0.04792254418134689, 0.023070361465215683, -0.041895631700754166, 0.08853297680616379, 0.06980565190315247, -0.04156693071126938, -0.012968127615749836, 0.006095284130424261, -0.06196722760796547, 0.02779189683496952, 0.038883719593286514, 0.1263376921415329, -0.049492064863443375, 0.160251647233963, 0.020267579704523087, -0.0012132714036852121, 0.054542385041713715, -0.005363794043660164, -0.020876972004771233, 0.04219815135002136, 0.26799264550209045, 0.10132265836000443, 0.01121470332145691, 0.09178326278924942, 0.004119353834539652, -0.041892651468515396, -0.06797946244478226, -0.044425901025533676, 0.0037173947785049677, -0.0897948145866394, 0.04506444185972214, -0.030579738318920135, -0.03286125883460045, 0.031376563012599945, 0.0547846183180809, 0.0914815217256546, 0.05066189169883728, 0.01967500150203705, -0.08312952518463135, 0.12559828162193298, -0.052398450672626495, 0.012665700167417526, -0.05915433168411255, -0.02107185684144497, 0.038963351398706436, 0.11046595126390457, -0.053149715065956116, 0.018618715927004814, -0.06987407058477402, -0.03642146661877632, 0.16056455671787262, 0.07574330270290375, 0.09033172577619553, -0.018813813105225563, 0.18143916130065918, 0.01220781821757555], [0.1008409857749939, 0.12627924978733063, 0.01928398571908474, -0.002157354261726141, -0.05908350646495819, 0.03199275955557823, -0.08646897226572037, 0.14836567640304565, -0.030882053077220917, 0.01749306730926037, 0.012556669302284718, 0.007005311548709869, -0.05032435804605484, -0.07665909081697464, 0.022370819002389908, 0.07145693153142929, 0.028122825548052788, -0.0011615653056651354, -0.0379750020802021, 0.07853201776742935, 0.026618395000696182, -0.08699889481067657, -0.04054446890950203, -0.10127389430999756, 0.004965431056916714, -0.07702556252479553, -0.03915213793516159, 0.010223613120615482, 0.023797128349542618, -0.030220061540603638, -0.0060627516359090805, 0.026635240763425827, -0.011720199137926102, -0.022675713524222374, -0.06204059720039368, -0.004031788092106581, -0.25259503722190857, 0.1328950822353363, 0.023623235523700714, -0.06851264089345932, 0.011675295419991016, -0.04732173681259155, 0.034003160893917084, -0.068714939057827, -0.04072410240769386, 0.11468986421823502, 0.05060289800167084, -0.04870174452662468, -0.045145466923713684, 0.08632688224315643, 0.011710305698215961, 0.011798777617514133, 0.050467655062675476, 0.04470191150903702, -0.02648087590932846, -0.03916524723172188, 0.03604888543486595, -0.010697835125029087, -0.048170529305934906, 0.08435762673616409, 0.06676355749368668, 0.08529805392026901, 0.05310095474123955, 0.1210428923368454, 0.1031409204006195, -0.01646454632282257, 0.08022581785917282, -0.012383854016661644, 0.07772702723741531, -0.03703144192695618, -0.09597480297088623, -0.08987297862768173, -0.08610957860946655, 0.060276150703430176, -0.031419914215803146, -0.17366226017475128, -0.05267232283949852, -0.009754425846040249, 0.014924227260053158, 0.022627530619502068, 0.09043246507644653, 0.009901084937155247, 0.10845911502838135, 0.06998271495103836, 0.11229551583528519, 0.005491402931511402, -0.017115967348217964, -0.03357566520571709, -0.05843869224190712, 0.023150421679019928, 0.15379303693771362, 0.019555874168872833, 0.09878633171319962, 0.08746337890625, 0.03514339402318001, 0.09430743008852005, 0.053232647478580475, 0.04927772283554077, -0.012830125167965889, -0.02354687824845314, 0.05886589363217354, -0.018786685541272163, 0.04892968386411667, 0.0316445454955101, 0.030216798186302185, 0.019512271508574486, -0.10231978446245193, -0.05820464342832565, 0.020510608330368996, -0.011344474740326405, -0.010688644833862782, 0.07334142178297043, 0.059145525097846985, 0.09761251509189606, 0.007491369266062975, 0.057517386972904205, -0.022193679586052895, -0.0859253779053688, -0.04904508218169212, 0.09067104756832123, 0.1164688840508461, 0.07689262926578522, 0.02784106880426407, -0.08620136231184006, -0.024858618155121803, -0.0829303190112114, -0.03364229574799538, 0.12667551636695862, 0.12669174373149872, 0.09278041869401932, -0.05729950964450836, 0.1115647405385971, -0.022534530609846115], [0.037825196981430054, -0.09455104172229767, -0.020916862413287163, 0.04968562349677086, -0.050726935267448425, 0.06456197798252106, 0.010410482995212078, -0.061749596148729324, -0.028339097276329994, 0.13419951498508453, 0.044105734676122665, -0.10105987638235092, 0.07348332554101944, -0.04806048050522804, 0.02189561352133751, -0.09997016936540604, -0.0894295871257782, -0.014603949151933193, -0.08077070116996765, -0.06928936392068863, 0.07753530144691467, -0.10698799788951874, -0.08876670151948929, -0.018999522551894188, 0.0007922013755887747, -0.07304590940475464, 0.03150113672018051, 0.05237014964222908, 0.054957982152700424, 0.0011880530510097742, 0.005617426708340645, 0.02722536399960518, -0.06093375384807587, 0.07391975820064545, -0.031218888238072395, 0.04536426439881325, -0.09918997436761856, -0.04922106862068176, -0.07530947029590607, 0.05918267369270325, -0.03274805471301079, -0.061966054141521454, 0.06846253573894501, -0.32229083776474, -0.0839989110827446, 0.04270631819963455, -0.01096557080745697, -0.0840316191315651, 0.02840006723999977, 0.019435258582234383, 0.05431682616472244, 0.07656823843717575, 0.026864835992455482, -0.05047434940934181, 0.10145475715398788, -0.08501908928155899, 0.07191897928714752, -0.026005709543824196, 0.002867299597710371, -0.08324339240789413, -0.046152472496032715, 0.025517703965306282, -0.030804065987467766, 0.013631816953420639, 0.030416715890169144, -0.04100479930639267, 0.070475734770298, 0.041152313351631165, 0.011367453262209892, 0.08226632326841354, -0.04224170371890068, -0.01893708109855652, -0.0638442113995552, 0.04943377524614334, -0.10953574627637863, -0.07567065954208374, 0.008200466632843018, 0.003716054605320096, -0.02152841165661812, -0.02886785939335823, -0.11669977009296417, -0.00833734031766653, 0.03223007172346115, 0.08990451693534851, -0.06007600203156471, -0.010688245296478271, -0.04023658484220505, -0.09993941336870193, -0.01323775015771389, -0.015336107462644577, -0.045047011226415634, -0.026525553315877914, -0.07772329449653625, 0.04993453994393349, 0.043969713151454926, 0.00019090167188551277, 0.07749688625335693, 0.06582364439964294, -0.05796293541789055, 0.06615518778562546, -0.08586891740560532, 0.027631748467683792, 0.06362403929233551, 0.03142023831605911, -0.0799744501709938, -0.08638934046030045, 0.004088846035301685, 0.02441553771495819, 0.052875813096761703, -0.04567289352416992, -0.0364706888794899, -0.023884465917944908, -0.0105892987921834, -0.031250178813934326, -0.024471061304211617, -0.05707210674881935, -0.08872455358505249, 0.044218678027391434, -0.06309115886688232, -0.048665378242731094, -0.08346617966890335, 0.028632644563913345, 0.03784175217151642, -0.025694232434034348, -0.12468890845775604, 0.04582635685801506, -0.024165384471416473, 0.07234156131744385, 0.0851370170712471, -0.09809590131044388, -0.06963283568620682, 0.04622136801481247, -0.14887337386608124], [0.043274976313114166, 0.024656934663653374, 0.10532279312610626, -0.0038011071737855673, -0.0073463707230985165, -0.08150755614042282, 0.1535879671573639, -0.08786437660455704, 0.00350092607550323, -0.08346956968307495, -0.03978047892451286, 0.06692269444465637, 0.09631478041410446, -0.24698171019554138, 0.020742269232869148, -0.002692202804610133, -0.04164985567331314, 0.024924034252762794, 0.04416532814502716, -0.01264587789773941, -0.07605800777673721, 0.16255693137645721, -0.02807970717549324, -0.004561298526823521, -0.12796537578105927, -0.07740690559148788, -0.1997852623462677, -0.04714607074856758, -0.03475194796919823, 0.0166634488850832, -0.02563702128827572, 0.04423945024609566, 0.09460685402154922, 0.03210338205099106, 0.08503740280866623, -0.06697332859039307, -0.10356063395738602, -0.1800852119922638, -0.08478690683841705, -0.2037843018770218, -0.04865681752562523, -0.03618919849395752, -0.029147595167160034, 0.03545445576310158, -0.1518820971250534, 0.08741772174835205, -0.035545650869607925, 0.018351662904024124, -0.0072456286288797855, -0.01616980880498886, -0.14311331510543823, -0.026299960911273956, -0.08565427362918854, -0.01823464408516884, -0.18814684450626373, 0.0562041811645031, -0.12916845083236694, -0.06749394536018372, 0.014955632388591766, -0.05889144912362099, 0.018548646941781044, -0.1516636162996292, -0.050386738032102585, -0.04860880598425865, -0.03641286864876747, 0.14846214652061462, -0.010809780098497868, -0.01919448934495449, -0.007399444468319416, -0.10144378989934921, 0.009285807609558105, -0.13965681195259094, -0.25696250796318054, -0.017946768552064896, 0.0857921615242958, 0.022220369428396225, 0.035467520356178284, 0.07924886792898178, -0.028281349688768387, -0.0005057498347014189, 0.07058557868003845, -0.07699447870254517, -0.028650842607021332, -0.10309699922800064, -0.09955429285764694, 0.06450223922729492, 0.005870407447218895, -0.08407169580459595, 0.06207280978560448, 0.10802014917135239, 0.047369662672281265, 0.07101406157016754, 0.06783029437065125, 0.002202071947976947, -0.031142298132181168, -0.11280626058578491, -0.1918170005083084, -0.13135848939418793, -0.07053996622562408, -0.14867188036441803, -0.0445396862924099, -0.052508387714624405, -0.08251762390136719, 0.0017925542779266834, 0.04720597341656685, 0.001973942620679736, 0.01719345524907112, 0.12252218276262283, 0.03842389956116676, 0.022005444392561913, -0.04659082740545273, 0.09658423811197281, 0.0013165518175810575, -0.025852607563138008, -0.04309670627117157, -0.010134321637451649, 0.15062561631202698, -0.014039858244359493, 0.03620203956961632, 0.020270563662052155, 0.01760571077466011, -0.040599118918180466, -0.1536136269569397, 0.19657927751541138, 0.07746008038520813, 0.04617105424404144, 0.01118595153093338, -0.001579361967742443, -0.04580754414200783, 0.08493120968341827, 0.1939363181591034, -0.1842697262763977, 0.1299188733100891], [-0.027199989184737206, -0.058602720499038696, 0.07646600157022476, -0.13609664142131805, -0.026249300688505173, -0.006350134499371052, -0.0009499000734649599, 0.005467279348522425, 0.06629835069179535, 0.12586985528469086, -0.050516411662101746, 0.06095315143465996, -0.016781888902187347, 0.004751702304929495, 0.09940390288829803, -0.018157586455345154, 0.010175307281315327, -0.08912823349237442, -0.07756509631872177, -0.012021206319332123, -0.013893366791307926, -0.05604866147041321, -0.021238306537270546, 0.02717372588813305, 0.12229043990373611, -0.12642036378383636, 0.14268779754638672, -0.04022877290844917, -0.046433646231889725, 0.02301003411412239, 0.01952696219086647, 0.012912041507661343, 0.013200935907661915, 0.027694670483469963, -0.017720866948366165, -0.057559214532375336, -0.058975424617528915, -0.11314273625612259, -0.01010126993060112, -0.057553730905056, 0.021116144955158234, 0.03793470188975334, -0.015009746886789799, -0.017153091728687286, 0.06275319308042526, 0.05569368600845337, 0.0430542454123497, 0.054580118507146835, -0.0968795195221901, -0.035170599818229675, 0.0647997036576271, -0.005691229365766048, 0.08804838359355927, -0.1018359363079071, 0.12685997784137726, -0.00769761623814702, -0.024119384586811066, -0.06418721377849579, 0.2272355556488037, -0.08257134258747101, -0.04993012547492981, 0.03255879506468773, -0.01219138503074646, -0.11689917743206024, 0.02687894180417061, -0.0029104684945195913, 0.0713101327419281, -0.07667345553636551, -0.07124205678701401, 0.05178345739841461, 0.0012248398270457983, -0.06097066029906273, 0.011683429591357708, -0.0611993707716465, 0.024145467206835747, -0.0766403004527092, 0.022138845175504684, -0.03981922194361687, -0.0011559942504391074, -0.05617760121822357, 0.10547047108411789, 0.03615541383624077, 0.006934578530490398, -0.008903509005904198, 0.10649992525577545, 0.038104791194200516, 0.09094005078077316, 0.0022390217054635286, -0.07237895578145981, 0.06298339366912842, 0.024957258254289627, 0.0128240454941988, 0.054442353546619415, -0.08298556506633759, -0.1326136440038681, 0.06855487078428268, 0.11185325682163239, 0.016247503459453583, -0.0444331020116806, 0.09108851850032806, -0.01786939799785614, 0.07963854819536209, -0.05219355970621109, -0.031543973833322525, -0.009024227038025856, 0.0062296101823449135, -0.08642858266830444, -0.05906291306018829, -0.06407113373279572, -0.018742408603429794, -0.017915673553943634, -0.05687188357114792, -0.06354716420173645, 0.08481036871671677, 0.003483637236058712, -0.1547076255083084, -0.015007111243903637, -0.006821097806096077, -0.02116997167468071, -0.015326631255447865, -0.03153655678033829, 0.07220271229743958, 0.14442841708660126, 0.02877386473119259, -0.03483956679701805, -0.012194891460239887, -0.09788832068443298, 0.1072150468826294, -0.000565883528906852, 0.1738743931055069, 0.08013801276683807, -0.012050945311784744, 0.051621537655591965], [-0.04681103304028511, -0.22618837654590607, -0.13729406893253326, 0.010203899815678596, 0.026627730578184128, -0.08996830135583878, -0.07769103348255157, -0.022474784404039383, -0.03302300348877907, 0.1060803011059761, -0.05078894644975662, -0.05180276557803154, -0.09586761146783829, -0.04453282058238983, -0.05694139376282692, -0.034345097839832306, -0.014508252032101154, 0.03644132614135742, -0.0755489319562912, -0.055005867034196854, -0.010907711461186409, -0.10539592057466507, 0.023311737924814224, -0.09402023255825043, 0.11785304546356201, -0.04207868129014969, 0.08100080490112305, -0.2726425528526306, 0.03823525458574295, -0.03591761365532875, -0.10200803726911545, -0.062176212668418884, -0.07970011979341507, -0.003644634038209915, 0.05526654049754143, -0.10756412893533707, 0.016633013263344765, -0.019764455035328865, -0.058588963001966476, 0.06164770945906639, -0.013369479216635227, 0.04605986922979355, -0.08858621120452881, -0.016268029808998108, -0.0420977883040905, -0.08864226937294006, 0.0030234463047236204, -0.08239296078681946, -0.020666882395744324, 0.018744222819805145, 0.05290156975388527, 0.016604837030172348, 0.08318953216075897, 0.024272123351693153, 0.06582286953926086, -0.03597690910100937, 0.019363634288311005, -0.061258308589458466, -0.11519565433263779, 0.10709422081708908, 0.003423907794058323, 0.04704824462532997, -0.053620483726263046, 0.06491155922412872, 0.04474571347236633, -0.020766329020261765, 0.0459781140089035, -0.16386087238788605, -0.08365922421216965, -0.0648546889424324, -0.11325465887784958, -0.05699695646762848, -0.05232361704111099, 0.024834327399730682, 0.08593367785215378, 0.035706695169210434, 0.0071596852503716946, -0.02336200699210167, -0.12580904364585876, -0.08135700225830078, -0.05092717334628105, 0.0733647271990776, -0.03999821096658707, 0.03119542822241783, 0.06994308531284332, -0.08723185956478119, -0.027585675939917564, -0.023096568882465363, -0.013770163990557194, 0.029017431661486626, -0.02622061036527157, -0.033569347113370895, 0.005357812158763409, -0.07773805409669876, 0.043263714760541916, 0.03502751141786575, 0.09930258244276047, 0.09410247206687927, 0.028584592044353485, 0.06800922006368637, -0.04553581774234772, -0.01754745841026306, -0.016614466905593872, -0.05541994422674179, 0.26046571135520935, 0.026892168447375298, -0.017702771350741386, -0.07131590694189072, -0.10500049591064453, -0.003517526900395751, -0.002290629781782627, 0.06481985002756119, -0.007990404963493347, -0.041481517255306244, -0.02151026949286461, -0.11375520378351212, -0.09006720036268234, 0.009080505929887295, 0.012011044658720493, 0.06241365894675255, 0.08906111866235733, 0.05196944624185562, 0.08791637420654297, -0.10411268472671509, -0.16997556388378143, 0.03330035135149956, -0.020509518682956696, -0.002796676242724061, 0.015350895933806896, 0.02207285538315773, 0.08895103633403778, 0.16252082586288452, -0.03275062143802643], [0.096783846616745, 0.02376035787165165, 0.07234801352024078, -0.010505706071853638, -0.1169564351439476, -0.09372500330209732, 0.006516887340694666, 0.04375695437192917, -0.006635259836912155, -0.024050306528806686, -0.06133342534303665, -0.04155170917510986, -0.025516711175441742, -0.10996974259614944, -0.023838192224502563, 0.12586334347724915, 0.035064566880464554, 0.08174920827150345, 0.05265926942229271, 0.04924674704670906, 0.07990656048059464, -0.17955799400806427, -0.01988852024078369, -0.10133697092533112, 0.0771980881690979, -0.07379691302776337, 0.07162562012672424, -0.10009538382291794, -0.10035024583339691, -0.0540694035589695, 0.08345267921686172, 0.07780338823795319, -0.05473671481013298, -0.017802061513066292, -0.03401663154363632, -0.02717708982527256, -0.0280825886875391, 0.12224093079566956, 0.05332685261964798, 0.04292481020092964, -0.10708911716938019, -0.018503500148653984, -0.058772481977939606, -0.10276274383068085, 0.09660439938306808, 0.03454884514212608, 0.02763231098651886, 0.04667363315820694, -0.0024490628857165575, -0.014655121602118015, 0.007386162877082825, 0.054735392332077026, 0.13539710640907288, 0.07982348650693893, 0.10402827709913254, 0.012858168222010136, 0.007703830022364855, 0.0638468787074089, -0.04292048141360283, -0.005455882288515568, 0.12084998190402985, 0.006248789373785257, 0.02169167436659336, 0.06280309706926346, 0.03875720873475075, 0.0746062695980072, 0.11844808608293533, 0.008712799288332462, -0.05266079679131508, 0.09244292229413986, -0.006052172277122736, -0.14611315727233887, 0.032968536019325256, 0.03831961005926132, 0.06024734675884247, 0.06857334822416306, -0.016919972375035286, 0.007953974418342113, 0.07266286015510559, -0.007815275341272354, -0.004188418388366699, 0.037568796426057816, 0.0373600497841835, 0.059426333755254745, 0.07755833864212036, -0.07827311754226685, 0.047467075288295746, 0.09159411489963531, -0.02245558798313141, 0.22546197474002838, 0.08583121001720428, 0.10196013003587723, 0.008982716128230095, 0.006659429054707289, 0.030598649755120277, 0.018635861575603485, -0.013013441115617752, -0.035875894129276276, -0.07405713200569153, -0.028797410428524017, -0.051553256809711456, 0.02403833158314228, -0.06843408197164536, 0.048642441630363464, 0.057768482714891434, 0.15559567511081696, 0.00679227476939559, 0.06885791569948196, 0.08182787895202637, 0.10146674513816833, -0.02280791848897934, -0.031973954290151596, -0.05299021303653717, -0.015829645097255707, -0.0425138920545578, -0.15133458375930786, -0.020907070487737656, -0.03898363560438156, 0.02552129700779915, 0.05046626925468445, 0.11069869250059128, 0.1089526042342186, 0.1443287879228592, 0.09598233550786972, 0.11208357661962509, 0.03082718327641487, 0.05254882946610451, 0.025700654834508896, 0.21485371887683868, 0.023217007517814636, 0.1280534565448761, 0.12561294436454773, 0.0547785609960556], [0.06092549487948418, 0.014662208035588264, -0.03810960799455643, 0.01878911815583706, 0.04182683676481247, 0.008409461006522179, -0.019686076790094376, 0.04676048830151558, -0.03632836416363716, -0.0975414291024208, 0.06345940381288528, -0.06594423204660416, -0.06883887201547623, -0.06379127502441406, 0.06554894149303436, 0.07363402843475342, -0.05789581313729286, -0.05012118071317673, 0.032902542501688004, 0.02915341779589653, 0.005665895063430071, -0.01762278750538826, 0.08704715222120285, -0.02382381446659565, -0.18825916945934296, -0.050624214112758636, 0.05473020672798157, 0.059269100427627563, -0.006067376118153334, 0.0896577313542366, -0.03213866800069809, 0.045110829174518585, 0.056200701743364334, 0.022126127034425735, 0.005503247957676649, 0.043948590755462646, 0.058847859501838684, -0.02582922764122486, -0.0353570431470871, -0.014795323833823204, 0.049615614116191864, -0.09775562584400177, 0.07970806211233139, 0.08070969581604004, 0.10087867081165314, 0.14045098423957825, -0.010875916108489037, -0.11885949224233627, 0.09018459171056747, 0.09423013031482697, 0.0016922523500397801, -0.05543070286512375, -0.05988815426826477, 0.05304953083395958, -0.00795982126146555, 0.06035365164279938, -0.03461659327149391, 0.011528429575264454, 0.06187169626355171, 0.018573390319943428, 0.016067110002040863, -0.05247361958026886, -0.042700447142124176, 0.015848897397518158, -0.03386373445391655, 0.011852714233100414, -0.012046411633491516, 0.015245933085680008, -0.09206413477659225, 0.06183429807424545, 0.07109104096889496, 0.0672188401222229, -0.08295232802629471, 0.02228456921875477, 0.04780484735965729, 0.17507191002368927, 0.0005312114953994751, -0.06531520187854767, 0.08656595647335052, 0.0687425509095192, 0.04826679825782776, -0.09402072429656982, 0.05533740296959877, -0.09265140444040298, -0.014751210808753967, 0.03078349120914936, 0.0350479856133461, -0.016827795654535294, -0.037141960114240646, -0.010934902355074883, -0.01765732280910015, 0.09740317612886429, -0.06106790155172348, -0.03161751106381416, -0.0530347116291523, -0.06162213906645775, -0.002761387499049306, 0.014244284480810165, -0.0534396730363369, -0.0018996773287653923, -0.05152420327067375, -0.12642203271389008, 0.0005762327928096056, -0.04191254824399948, 0.08741524815559387, 0.004819890949875116, 0.0036144705954939127, -0.010481532663106918, 0.04492734745144844, -0.022539492696523666, -0.08967529237270355, 0.03702438250184059, 0.0429764986038208, -0.007104107644408941, 0.02108326368033886, 0.059496354311704636, -0.08705975115299225, -0.03934132307767868, -0.037431854754686356, -0.04322246462106705, 0.03668123111128807, -0.08958066254854202, -0.16559910774230957, 0.08962632715702057, -0.06603626906871796, -0.020716875791549683, 0.052800409495830536, 0.03004143387079239, -0.01004688162356615, 0.03421183302998543, -0.031638458371162415, 0.058756954967975616, -0.08432531356811523], [0.1759360432624817, 0.10526423901319504, -0.007101449649780989, 0.015490207821130753, -0.07000555098056793, 0.07540269941091537, 0.06955668330192566, 0.13669124245643616, -0.06333386152982712, 0.11393636465072632, -0.02232418768107891, 9.997693268815055e-05, 0.029279252514243126, -0.02304898016154766, -0.03337054327130318, 0.0050244140438735485, 0.06423112750053406, -0.026653757318854332, 0.02240925095975399, -0.03739761561155319, -0.00729783158749342, -0.04101429507136345, 0.08219186216592789, 0.03297625854611397, 0.11371691524982452, -0.04294438287615776, -0.013682577759027481, 0.004767879843711853, 0.012756203301250935, -0.0215163491666317, 0.10964878648519516, -0.043763432651758194, 0.10208428651094437, -0.054569415748119354, -0.06836547702550888, 0.12380324304103851, -0.027758147567510605, 0.012349522672593594, -0.05525464564561844, 0.07258951663970947, -0.07113214582204819, -0.05841706320643425, 0.019471589475870132, 0.03286588564515114, -0.026307938620448112, 0.10729694366455078, -0.016712578013539314, 0.044375911355018616, -0.028823120519518852, 0.05733972787857056, 0.110523521900177, 0.044804852455854416, 0.15350835025310516, -0.029382867738604546, -0.049305509775877, -0.06930806487798691, -0.053409744054079056, -0.012006079778075218, -0.0034026531502604485, 0.05920889601111412, 0.1287919580936432, 0.11047335714101791, 0.06324857473373413, -0.009263980202376842, 0.033918410539627075, 0.010841143317520618, -0.050637029111385345, -0.07436957955360413, 0.018637001514434814, -0.05532566457986832, -0.014507545158267021, 0.12582862377166748, 0.03540291637182236, 0.004854884929955006, 0.0369349829852581, 0.08278919011354446, -0.19743561744689941, 0.07326272875070572, -0.05433056876063347, 0.04355406388640404, 0.05310341343283653, -0.030581237748265266, -0.019071031361818314, 0.09741636365652084, 0.03523602336645126, -0.07836436480283737, 0.0045834556221961975, 0.043789513409137726, -0.04691655933856964, 0.05865754559636116, 0.038378458470106125, 0.061497099697589874, 0.06471379101276398, 0.014078409411013126, -0.05591757968068123, 0.05826050415635109, 0.062207065522670746, -0.06623037159442902, -0.04890218749642372, 0.07433699816465378, -0.0008523646392859519, 0.09355627745389938, 0.004754181951284409, 0.008662979118525982, 0.03520781919360161, -0.019599981606006622, -0.06817817687988281, -0.008015811443328857, -0.0795278400182724, -0.08781648427248001, 0.00953245535492897, 0.10086056590080261, 0.049610886722803116, -0.035562220960855484, 0.09006659686565399, -0.053126804530620575, 0.00883289985358715, -0.04055027663707733, -0.0307018905878067, -0.04342089593410492, 0.08548561483621597, 0.11641191691160202, 0.11713721603155136, -0.024841152131557465, -0.06402567774057388, -0.10632967948913574, 0.04005219042301178, 0.1486956924200058, -0.0399230532348156, 0.03399587795138359, -0.019774194806814194, -0.006318920757621527, 0.1290627419948578], [0.021704165264964104, 0.051878832280635834, 0.03706137090921402, 0.03687041997909546, -0.04254477098584175, 0.0630917176604271, -0.10663647204637527, 0.12137600034475327, -0.0022709439508616924, 0.013764536939561367, -0.12467852979898453, -0.047927360981702805, 0.02434137463569641, -0.09026551991701126, -0.011639080941677094, 0.06470184028148651, 0.1270919144153595, 0.027337027713656425, -0.0070902081206440926, -0.07766257226467133, 0.16980436444282532, -0.07225124537944794, 0.04126235842704773, -0.08992813527584076, 0.08932406455278397, 0.015356633812189102, 0.0996561348438263, 0.00855208095163107, 0.023186273872852325, -0.029505588114261627, 0.07538119703531265, 0.1126137301325798, -0.04717504233121872, 0.014668547548353672, -0.07475600391626358, 0.061541859060525894, 0.035821620374917984, 0.12266562134027481, 0.02246515080332756, 0.04761391505599022, -0.007266710978001356, 0.030712980777025223, -0.0984797328710556, 0.052946045994758606, -0.022728197276592255, 0.1211375743150711, -0.016821710392832756, -0.01731490157544613, -0.0435166098177433, -0.017103251069784164, -0.021309901028871536, 0.07280966639518738, 0.05804133415222168, 0.03275005891919136, 0.07821997255086899, -0.024314746260643005, -0.0200212299823761, -0.026583323255181313, -0.0013953193556517363, -0.044950440526008606, 0.09833458811044693, 0.025513697415590286, 0.031477171927690506, 0.08601750433444977, 0.0352499820291996, -0.013495433144271374, 0.04790155217051506, -0.05828800052404404, -0.028236640617251396, -0.05711320787668228, -0.08357594907283783, -0.12980695068836212, 0.006047980859875679, 0.02851730026304722, -0.029878078028559685, -0.014974038116633892, -0.07112301886081696, -0.010330881923437119, -0.0690828263759613, 0.057321012020111084, 0.08324550837278366, 0.1572640985250473, -0.01232166774570942, 0.11579044163227081, 0.10145492106676102, -0.07277213782072067, 0.015359503217041492, 0.025147659704089165, 0.05126827955245972, -0.023807760328054428, 0.03582017123699188, -0.03917473554611206, 0.046034764498472214, -0.012754629366099834, -0.08361547440290451, 0.053512606769800186, 0.07992031425237656, 0.06873704493045807, 0.01039667334407568, 0.09155791252851486, -0.048896968364715576, 1.3213912097853608e-05, 0.008058024570345879, 0.05236722528934479, 0.046928200870752335, 0.08210587501525879, -0.09771417826414108, -0.08835983276367188, 0.05818114057183266, -0.09637690335512161, -0.03621627762913704, -0.06925142556428909, -0.06726778298616409, -0.06508447229862213, 0.056004155427217484, -0.07332980632781982, -0.04428950324654579, 0.08612164109945297, 0.04513239115476608, -0.005845124367624521, 0.12356507778167725, 0.0784951001405716, 0.12630461156368256, -0.005577086471021175, 0.01711069792509079, 0.01840032823383808, -0.020374244078993797, 0.1331895887851715, 0.008585112169384956, 0.13143490254878998, 0.09892314672470093, 0.06970112770795822, -0.0686524510383606], [0.03643587604165077, -0.06749673932790756, -0.155314102768898, -0.07030877470970154, -0.03024645708501339, 0.018101338297128677, -0.11109153926372528, 0.10578326135873795, 0.17065997421741486, -0.05506172403693199, -0.0076825800351798534, -0.08102993667125702, -0.09803540259599686, 0.04345807805657387, 0.0071554421447217464, 0.006555504165589809, -0.023808768019080162, 0.05636106804013252, -0.0625310018658638, -0.013020437210798264, 0.0305631086230278, 0.014636545442044735, -0.0238957479596138, 0.02572541870176792, 0.0650290921330452, -0.06275439262390137, -0.12482218444347382, -0.030430369079113007, -0.06193770095705986, -0.21368099749088287, 0.04591811075806618, 0.011013858951628208, 0.04493411257863045, -0.07380437850952148, -0.04129013419151306, 0.015351328998804092, 0.01619873382151127, 0.05992625281214714, 0.04900219291448593, 0.1716328114271164, -0.02387862838804722, 0.13261748850345612, -0.011606286279857159, -0.07260607182979584, 0.051288753747940063, 0.009872714057564735, -0.08457377552986145, -0.10312021523714066, -0.0850258469581604, -0.04402311146259308, 0.12515975534915924, 0.05837123095989227, 0.0115884467959404, -0.050476156175136566, 0.06757201999425888, -0.07342074811458588, 0.08664965629577637, -0.0798134058713913, 0.013129672035574913, -0.06676945835351944, 0.01540787611156702, 0.032775867730379105, -0.08785159885883331, -0.031284481287002563, 0.007741560228168964, 0.050288379192352295, 0.0812663733959198, -0.005395274143666029, -0.07430525869131088, -0.05233839526772499, -0.10651737451553345, -0.06878986209630966, -0.0010991344461217523, -0.06027054414153099, -0.018657445907592773, -0.015608829446136951, 0.018211960792541504, 0.08086619526147842, -0.09495618939399719, 0.003919871058315039, 0.05272650718688965, 0.11188001185655594, 0.08789660781621933, 0.05033612251281738, -0.028198854997754097, -0.034778859466314316, -0.01958461105823517, -0.08380500972270966, -0.1043931171298027, -0.055845461785793304, -0.07829512655735016, 0.00947653315961361, -0.02545798197388649, -0.029170554131269455, -0.046582773327827454, -0.14404647052288055, 0.13042856752872467, 0.03447088226675987, -0.11681735515594482, 0.03698999807238579, -0.09568671137094498, 0.09495925158262253, -0.05498200282454491, 0.050210509449243546, -0.030881136655807495, -0.028189321979880333, 0.013284081593155861, -0.10855226218700409, 0.061823077499866486, -0.023310013115406036, 0.10326641798019409, -0.024844415485858917, 0.0894683450460434, 0.06986074149608612, -0.05176757648587227, -0.07318115234375, -0.07851748168468475, -0.055936459451913834, 0.016161542385816574, -0.080024853348732, 0.19874481856822968, 0.04814264923334122, 0.04054282233119011, -0.09475605934858322, 0.0035977682564407587, -0.07946666330099106, 0.027932889759540558, -0.001660433947108686, 0.05348765850067139, -0.005483034532517195, 0.035211287438869476, 0.17185133695602417, -0.000802238064352423], [0.05827156454324722, 0.06743469089269638, -0.11054502427577972, -0.028686439618468285, 0.025474853813648224, 0.05828912556171417, -0.11374171823263168, 0.12479793280363083, -0.049462899565696716, -0.10735171288251877, -0.08096487820148468, -0.08478052169084549, -0.05868479609489441, -0.037785567343235016, -0.039032284170389175, 0.06595151126384735, 0.09972536563873291, 0.053280528634786606, -0.07851726561784744, -0.010870947502553463, 0.012069279327988625, -0.0510547049343586, 0.0018837368115782738, 0.0038828591350466013, 0.06542708724737167, -0.07236558943986893, -0.0016201336402446032, 0.010058620013296604, 0.007310694549232721, -0.04457872360944748, 0.11898891627788544, 0.13818520307540894, -0.033327922224998474, 0.02057577855885029, -0.04390938580036163, -0.08467946201562881, 0.04287820681929588, 0.001860976219177246, 0.0951862782239914, 0.021700778976082802, -0.02041890285909176, -0.04193931818008423, 0.057511065155267715, -0.05932436138391495, 0.006119248922914267, 0.09422067552804947, -0.020354079082608223, -0.19851717352867126, 0.09737230837345123, -0.04869319498538971, 0.08285143226385117, 0.04403187707066536, 0.023119259625673294, 0.0109817860648036, -0.030763858929276466, -0.02196287363767624, 0.08890058845281601, -0.08795662969350815, -0.0017870190786197782, -0.02792765572667122, 0.0786980614066124, 0.02652469277381897, -0.021686173975467682, 0.055210813879966736, 0.11788402497768402, 0.15051600337028503, 0.08202922344207764, 0.06540852040052414, -0.0469040684401989, -0.05379311367869377, -0.0980762466788292, -0.08244980871677399, -0.002677817130461335, -0.07073593139648438, -0.0036168729420751333, 0.018618492409586906, -0.017263535410165787, -0.07491422444581985, -0.04358880966901779, -0.0072181629948318005, 0.01458182092756033, 0.004043624736368656, -0.026668189093470573, 2.6880637960857712e-05, 0.0344107523560524, -0.0159581508487463, -0.0388694629073143, -0.06240202486515045, -0.0818701907992363, -0.026911573484539986, 0.022696813568472862, -0.057383161038160324, -0.007237001787871122, 0.03823278471827507, 0.002414101967588067, -0.02418529987335205, 0.09690415859222412, 0.010801605880260468, -0.04099051281809807, 0.05264643207192421, -0.009110935032367706, -0.02625436522066593, 0.040949746966362, 0.039316873997449875, -0.03229159861803055, 0.27983665466308594, -0.007457812316715717, 0.014805890619754791, 0.062447838485240936, -0.06725087761878967, -0.08109553158283234, -0.05348764732480049, -0.06534267961978912, -0.14275987446308136, 0.07895640283823013, -0.08423573523759842, -0.022353515028953552, 0.002077204640954733, -0.05987074226140976, 0.03278639540076256, -0.02986745536327362, 0.14509376883506775, 0.016012752428650856, -0.012285022996366024, -0.04716074839234352, 0.0035781138576567173, -0.04216744750738144, 0.150239497423172, 0.013619563542306423, 0.02268291264772415, 0.02218889631330967, 0.14724361896514893, -0.07980889081954956], [-0.031018715351819992, -0.027930231764912605, 0.08067139983177185, -0.01918671652674675, -0.01874278485774994, -0.06494098156690598, 0.06658357381820679, 0.0609552264213562, 0.07207965105772018, 0.0653243437409401, -0.11352141946554184, 0.0007167516741901636, 0.015395399183034897, 0.050482358783483505, 0.01667262241244316, -0.027186105027794838, -0.030536489561200142, 0.05436950549483299, 0.0137481065467, -0.11911938339471817, 0.07651844620704651, 0.08305451273918152, -0.018339481204748154, 0.05482650548219681, 0.03598233684897423, -0.02885350026190281, -0.019392723217606544, -0.05204441398382187, -0.05992322787642479, 0.13025295734405518, -0.09695025533437729, 0.05293333902955055, -0.080238938331604, -0.06448876857757568, -0.04848637804389, 0.1356198638677597, 0.00552000105381012, 0.0008502951241098344, -0.06730758398771286, 0.06699438393115997, 0.04163293167948723, -0.08509001135826111, -0.03292926028370857, 0.05622902140021324, 0.039642587304115295, -0.02089601941406727, 0.08844907581806183, -0.0521264486014843, -0.09692554920911789, -0.05743703246116638, -0.0026580416597425938, -0.07324543595314026, -0.1127614825963974, -0.05086708813905716, -0.2418476790189743, 0.009638413786888123, 0.04791845753788948, -0.00855868961662054, -0.02145053818821907, 0.03284536302089691, 0.020092805847525597, -0.011707351543009281, -0.37895405292510986, -0.11888568848371506, -0.09846366196870804, 0.06587442755699158, -0.010855529457330704, 0.015558799728751183, -0.09927207976579666, -0.021484583616256714, 0.24703927338123322, 0.06497375667095184, -0.05371002107858658, 0.0033656172454357147, 0.02582329884171486, -0.048866208642721176, -0.0021132687106728554, 0.060723401606082916, -0.07191162556409836, 0.026152437552809715, -0.0005556546384468675, -0.07403279095888138, 0.053819552063941956, -0.008433439768850803, 0.013002820312976837, 0.05169585719704628, 0.034600839018821716, -0.051232777535915375, -0.04806670919060707, -0.029097409918904305, 0.0005488619208335876, -0.03811706230044365, 0.07787826657295227, -0.02462569996714592, 0.02552942931652069, 0.004920965526252985, -0.0023918154183775187, 0.0537349171936512, -0.049059245735406876, -0.03880961239337921, 0.08158323913812637, 0.08611695468425751, 0.131883442401886, -0.007600205950438976, -0.07898435741662979, 0.05613608658313751, -0.10109367966651917, -0.061907343566417694, 0.01867668144404888, 0.0283296387642622, -0.05239686369895935, 0.08349676430225372, 0.10727885365486145, 0.03213009983301163, 0.10275400429964066, -0.09767469018697739, 0.13936395943164825, -0.032602228224277496, 0.03590492531657219, 0.08469326794147491, -0.02282174676656723, -0.04533961042761803, -0.024173172190785408, 0.14400991797447205, -0.1062980592250824, -0.016546815633773804, -0.10747670382261276, 0.07344278693199158, -0.009932002983987331, 0.07929849624633789, -0.0434102863073349, -0.00184144068043679, -0.023090925067663193], [0.05776415020227432, 0.030429501086473465, 0.12956339120864868, 0.008346802555024624, -0.11724366992712021, 0.03795730322599411, -0.06822045892477036, -0.006497102323919535, -0.09281029552221298, -0.050013281404972076, 0.042433831840753555, -0.04043358936905861, -0.06054830178618431, 0.05086514353752136, -0.06506754457950592, 0.0020192537922412157, 0.1269511580467224, 0.09794410318136215, 0.0404837429523468, -0.011257804930210114, -0.04428917542099953, 0.05839350074529648, -0.018307704478502274, -0.09723781049251556, -0.03208409622311592, 0.04073034226894379, 0.057771679013967514, -0.11096605658531189, -0.09928402304649353, -0.10535436868667603, 0.129978209733963, -0.0348547026515007, 0.10545151680707932, 0.051484156399965286, 0.05180880427360535, -0.0799177959561348, 0.09131497144699097, 0.06088624894618988, 0.021736985072493553, 0.10273755341768265, -0.09346948564052582, 0.003634104272350669, -0.07572554051876068, -0.08987829834222794, -0.04602591320872307, 0.029543165117502213, 0.06956145167350769, 0.07632103562355042, -0.01399167813360691, 0.06080421432852745, -0.04689319059252739, -0.010406501591205597, 0.04454021900892258, -0.0661710575222969, 0.046153582632541656, -0.05265923589468002, 0.10098792612552643, 0.009800669737160206, 0.0420365072786808, 0.05258229002356529, 0.09030294418334961, 0.1674807220697403, 0.032909974455833435, 0.07442595809698105, -0.002448449609801173, 0.11781232059001923, 0.019479120150208473, 0.034832119941711426, 0.06922654062509537, -0.02205134741961956, -0.01586088538169861, 0.03454658389091492, -0.11285747587680817, 0.0449615903198719, -0.0006425058236345649, 0.044252246618270874, 0.08561280369758606, -0.0608958899974823, -0.055431243032217026, 0.0001358804147457704, 0.025240710005164146, 0.01692918874323368, -0.03870154544711113, -0.03775662183761597, -0.05135875940322876, 0.03690427169203758, -0.08432640135288239, 0.02813641168177128, -0.0971042737364769, -0.0038608398754149675, 0.16768698394298553, -0.02962484024465084, 0.05586810037493706, 0.06941935420036316, 0.04999222606420517, -0.09823254495859146, -0.12962189316749573, -0.11437373608350754, -0.06936892122030258, -0.01404640730470419, -0.02140622027218342, -0.028877589851617813, -0.02848934195935726, -0.06463842839002609, 0.04855898767709732, 0.08299975097179413, -0.0846715122461319, -0.005513862706720829, 0.05727565288543701, -0.04770682379603386, 0.056591060012578964, -0.1981535106897354, 0.06895336508750916, 0.018515782430768013, -0.037354327738285065, 0.033112481236457825, 0.03972650691866875, -0.04079321399331093, 0.053457111120224, -0.11904644221067429, 0.07448463141918182, 0.05587902292609215, 0.11970347911119461, -0.023502200841903687, 0.01560433954000473, 0.05228456109762192, 0.007636686321347952, 0.05366967245936394, -0.01941719464957714, 0.05059391260147095, 0.09610743820667267, 0.11349409818649292, 0.016528666019439697], [-0.12377643585205078, -0.08311927318572998, -0.10871835052967072, -0.1868029683828354, -0.050598904490470886, 0.020313190296292305, -0.08002500236034393, -0.11215253174304962, -0.03826691955327988, -0.03155114874243736, -0.033230703324079514, 0.04215551167726517, -0.11005562543869019, -0.02973075956106186, -0.058488428592681885, -0.05465250462293625, 0.013718643225729465, -0.014560136012732983, 0.005513758864253759, -0.2924557626247406, 0.04594824090600014, 0.07332874089479446, -0.034111831337213516, 0.10114294290542603, 0.1282205432653427, 0.001511070760898292, 0.06281477957963943, 0.026854073628783226, 0.07079765200614929, 0.11681421846151352, -0.1682853400707245, -0.06960179656744003, -0.0003732647164724767, -0.08582433313131332, 0.0005496760131791234, 0.016728244721889496, 0.010583750903606415, -0.03150572255253792, 0.015336956828832626, 0.017270050942897797, -0.05797877907752991, 0.026413245126605034, 0.036278560757637024, 0.042991653084754944, -0.02195616438984871, -0.07380558550357819, -0.08972248435020447, -0.0066222320310771465, -0.07876607775688171, -0.0258167777210474, -0.13287517428398132, 0.10044346749782562, 0.020141031593084335, 0.21677806973457336, 0.11765319854021072, -0.0018020112765952945, 0.06045757234096527, -0.026339085772633553, 0.011528543196618557, -0.029853882268071175, -0.23824025690555573, -0.0770355761051178, -0.051254309713840485, -0.1688016951084137, -0.10842040181159973, -0.02186272293329239, -0.0348215289413929, -0.08161740005016327, -0.001260635326616466, -0.05813281238079071, -0.05276551842689514, 0.035820379853248596, -0.034085918217897415, 0.003274240531027317, 0.02024497464299202, -0.13518233597278595, -0.13178907334804535, -0.015039731748402119, -0.1422061175107956, -0.03625965863466263, 0.03645983710885048, -0.10180780291557312, -0.08118557929992676, -0.044749531894922256, 0.08164060115814209, 0.04965607076883316, 0.01695839874446392, -0.01583898440003395, -0.11142724007368088, 0.05718372017145157, -0.08551902323961258, -0.0880928635597229, -0.09499155730009079, -0.07458493858575821, -0.039531461894512177, 0.058661796152591705, -0.07173412293195724, 0.07917936891317368, -0.038475800305604935, 0.09251662343740463, -0.025701336562633514, 0.07276897132396698, -0.0957895889878273, -0.18814866244792938, -0.05307311192154884, -0.0013234923826530576, 0.08694099634885788, 0.002810044912621379, -0.08530108630657196, -0.033948302268981934, 0.1058586910367012, -0.09286759048700333, -0.11097148060798645, -0.00870028417557478, -0.0038031626027077436, -0.07615654170513153, -0.065818652510643, -0.09523254632949829, 0.020167609676718712, -0.024218374863266945, 0.030624087899923325, 0.02811996452510357, 0.012392624281346798, 0.04212702438235283, 0.01169590000063181, -0.08438669890165329, -0.05760037899017334, -0.04951377958059311, -0.011247475631535053, -0.05737760663032532, 0.046339251101017, -0.002662770915776491, 0.06810227781534195], [0.028002804145216942, 0.10766784846782684, -0.017563650384545326, -0.06822841614484787, -0.09693373739719391, -0.0640554204583168, -0.1577686071395874, -0.0030815035570412874, 0.027283480390906334, -0.043842166662216187, 0.015706656500697136, -0.10229457914829254, -0.09266723692417145, -0.12186022102832794, -0.05520468205213547, 0.012202801182866096, -0.023107238113880157, -0.03045732155442238, 0.028036167845129967, 0.04622387886047363, 0.018006809055805206, 0.0286239106208086, 0.08141603320837021, -0.1118897870182991, 0.09922505170106888, -0.028805097565054893, 0.0695488229393959, 0.11442406475543976, -0.11123895645141602, 0.003970055840909481, 0.04222681745886803, -0.031355299055576324, -0.0642775446176529, 0.05999011918902397, -0.06259513646364212, 0.18317200243473053, -0.06630031019449234, 0.025143831968307495, -0.06168955937027931, 0.12474674731492996, -0.10860757529735565, 0.09665964543819427, -0.07115432620048523, -0.11691152304410934, 0.04923567920923233, 0.0689554288983345, 0.08981297165155411, -0.15064272284507751, 0.0065419627353549, 0.05520092695951462, 0.022587107494473457, 0.09225492924451828, 0.0907222181558609, -0.0035418816842138767, 0.03424147143959999, -0.018657857552170753, -0.12090505659580231, -0.022191422060132027, 0.022188102826476097, 0.17480768263339996, 0.03756977990269661, 0.07398415356874466, 0.05907704681158066, 0.07734797149896622, 0.04416777938604355, 0.14084768295288086, 0.09877434372901917, 0.17229735851287842, 0.0147464070469141, 0.0009680373477749527, -0.048479095101356506, -0.10257790982723236, -0.06986812502145767, 0.03104703314602375, 0.06208406761288643, -0.02200017310678959, 0.06031953915953636, -0.023592634126544, -0.014207824133336544, 0.0795886293053627, -0.07240228354930878, 0.1538163721561432, 0.09666475653648376, 0.14364133775234222, 0.0034498036839067936, 0.04262804612517357, 0.2133607566356659, -0.027761517092585564, -0.11310213804244995, -0.03364979475736618, 0.04726564884185791, -0.06369505077600479, 0.04561617970466614, -0.06226271390914917, -0.03431158512830734, 0.015651727095246315, 0.06639492511749268, -0.1260111927986145, -0.01430890429764986, 0.033262256532907486, -0.08682959526777267, 0.07840573042631149, -0.08639054000377655, -0.06271883100271225, -0.20219549536705017, -0.03409011289477348, 0.02733766846358776, -0.040692344307899475, -0.06452848017215729, 0.0715387612581253, 0.04783952981233597, -0.03181167319417, -0.06226222217082977, 0.08221444487571716, 0.007810419425368309, -0.06275906413793564, -0.02372579276561737, 0.07000800967216492, 0.025586044415831566, -0.07232442498207092, -0.007231834810227156, 0.135746568441391, 0.11915971338748932, 0.0010112014133483171, -0.04588745906949043, -0.04792008921504021, -0.05477374047040939, 0.11918419599533081, 0.07615421712398529, 0.1700090914964676, 0.0821649506688118, 0.10133916139602661, 0.013231375254690647], [0.12927298247814178, -0.014672273769974709, -0.0642145648598671, -0.02846457064151764, -0.07165724039077759, 0.041351769119501114, -0.11153668165206909, 0.07750577479600906, 0.060686610639095306, -0.044834304600954056, -0.07883363962173462, -0.0684863030910492, 0.00857385341078043, 0.019093617796897888, -0.04049670323729515, -0.004303210414946079, -0.06577148288488388, -0.04280911013484001, -0.047363005578517914, -0.052418824285268784, -0.008489223197102547, 0.011190100573003292, 0.06518177688121796, 0.008355571888387203, 0.08068609237670898, -0.08529046177864075, -0.029730288311839104, 0.07754437625408173, -0.16735203564167023, -0.013118578121066093, 0.03245376795530319, 0.1038256287574768, 0.0033952202647924423, -0.06574194878339767, -0.04407097026705742, -0.004055050667375326, 0.1361178159713745, -0.013271764852106571, -0.021382339298725128, -0.03796137124300003, 0.05124027654528618, 0.03885997459292412, 0.030767956748604774, -0.06984025985002518, -0.010490573942661285, 0.012551511637866497, 0.0939333513379097, -0.0074411253444850445, -0.022106364369392395, -0.00836535170674324, -0.08069650828838348, -0.018107032403349876, 0.12170343101024628, 0.023968683555722237, 0.004510648548603058, 0.05794461816549301, -0.03522723913192749, -0.10183810442686081, -0.03746220842003822, 0.05849524959921837, 0.10151490569114685, 0.060243867337703705, 0.1140395849943161, 0.017504816874861717, 0.03408798202872276, 0.07089316844940186, -0.03240185230970383, -0.0488058440387249, -0.11664452403783798, -0.07792443037033081, 0.2795048952102661, 0.07657763361930847, -0.08542647957801819, -0.08674260973930359, 0.033257558941841125, -0.038061752915382385, -0.0885004922747612, -0.06596498936414719, 0.11907007545232773, 0.0014569682534784079, -0.06656956672668457, 0.03748343139886856, 0.09282717853784561, -0.06359004229307175, 0.09403326362371445, -0.0680941790342331, 0.07783406972885132, -0.025411289185285568, -0.04421092942357063, 0.04997104033827782, -0.10937513411045074, -0.10301523655653, -0.014679928310215473, 0.02629368007183075, -0.0020616729743778706, -0.02623038925230503, -0.02457880601286888, -0.05708526447415352, 0.06356912851333618, 0.02492213062942028, -0.03946875408291817, 0.12015238404273987, -0.10181944072246552, 0.062432609498500824, 0.006386768072843552, 0.28236424922943115, -0.07035365700721741, -0.04990210756659508, -0.001062526716850698, 0.07727737724781036, 0.07877425849437714, -0.1765623241662979, -0.017192160710692406, -0.06393450498580933, -0.05689214915037155, 0.019266687333583832, 0.012305357493460178, 0.022273357957601547, -0.1395937204360962, -0.06261153519153595, 0.07324768602848053, 0.022669170051813126, 0.08482532948255539, -0.06584834307432175, -0.029362505301833153, 0.03690114617347717, -0.07597413659095764, 0.001040478702634573, -0.05509504675865173, 0.05065777897834778, -0.07236170023679733, -0.011207220144569874, -0.0505032055079937], [-0.1142473965883255, 0.020293977111577988, 0.0013159826630726457, -0.04046742618083954, 0.05695558711886406, 0.07108461856842041, -0.06545000523328781, 0.026341374963521957, 0.05917297303676605, 0.0961763933300972, -0.07586349546909332, -0.05726711079478264, -0.09538362175226212, 0.058009661734104156, -0.01870930939912796, -0.03749570995569229, 0.0545942448079586, -0.03601108863949776, 0.05314351245760918, -0.06081544980406761, 0.09602314233779907, -0.06817016750574112, -0.03433026000857353, -0.04267267510294914, -0.014175052754580975, -0.08377214521169662, 0.07951350510120392, 0.04471181333065033, -0.08322519809007645, -0.037558313459157944, 0.05024983361363411, 0.027334000915288925, -0.051343586295843124, -0.004448412451893091, -0.058882806450128555, -0.07655411958694458, -0.04183710739016533, 0.010167070664465427, -0.13279582560062408, -0.037237364798784256, -0.09730250388383865, 0.034671757370233536, 0.02543070539832115, 0.04445628821849823, 0.012491857632994652, -0.057248011231422424, -0.06331291049718857, 0.06444305181503296, -0.06703872978687286, 0.026700979098677635, -0.0068497792817652225, -0.02910980023443699, -0.01612411066889763, 0.03602258116006851, 0.011715678498148918, 0.001997194951400161, -0.0334056057035923, -0.12169149518013, -0.029131973162293434, -0.007606842555105686, 0.0806414857506752, 0.041199974715709686, -0.1215830072760582, 0.011076235212385654, 0.035429030656814575, 0.11470307409763336, 0.08246670663356781, 0.03775351122021675, 0.023376217111945152, -0.03635826334357262, 0.037365976721048355, -0.027903061360120773, -0.018468409776687622, -0.042307049036026, 0.05740535631775856, 0.06720691174268723, 0.06607723236083984, -0.02595728449523449, -0.0919097363948822, 0.05326108634471893, 0.15794241428375244, 0.07462740689516068, 0.061689626425504684, 0.021928369998931885, 0.09909610450267792, -0.06061561405658722, 0.03903689607977867, 0.02710718661546707, -0.01851763390004635, -0.06361568719148636, 0.02371995709836483, -0.07381787151098251, -0.03700431063771248, -0.1131674125790596, -0.068177729845047, -0.011542159132659435, 0.0831390917301178, 0.011697660200297832, -0.062222518026828766, 0.01351379044353962, 0.04675625264644623, 0.043933190405368805, -0.03319983556866646, -0.07216252386569977, 0.1561477780342102, -0.015949200838804245, -0.05533156171441078, -0.09956369549036026, -0.10702502727508545, -0.07165412604808807, 0.00774390297010541, 0.051458023488521576, 0.01858343929052353, -0.023859495297074318, 0.13554278016090393, -0.09347213804721832, -0.04833284020423889, 0.05125652626156807, -0.09477818757295609, 0.033717285841703415, 0.01674545183777809, 0.07131558656692505, 0.1890900880098343, -0.18838270008563995, 0.07273834198713303, -0.012089540250599384, -0.05923972651362419, 0.014827615581452847, 0.09726443886756897, -4.0527247620048e-05, 0.023542560636997223, -0.051782965660095215, -0.019322330132126808], [0.06429079920053482, 0.1751394122838974, 0.26775580644607544, -0.06874804198741913, -0.05802540108561516, 0.06445472687482834, -0.06336350739002228, 0.01690451242029667, -0.005356354173272848, 0.01913628913462162, 0.0506221279501915, 0.08398684859275818, -0.026211172342300415, 0.012221863493323326, 0.10455220192670822, -0.006506218574941158, 0.0658988431096077, -0.013390226289629936, 0.030822934582829475, 0.014535939320921898, 0.028715090826153755, -0.05471194535493851, 0.04570050910115242, -0.0013395077548921108, -0.07434816658496857, -0.017312828451395035, 0.09655079245567322, -0.06322041153907776, 0.15576164424419403, -0.011897486634552479, 0.10973696410655975, -0.06809554249048233, 0.03647494688630104, -0.0534968264400959, -0.061504900455474854, -0.1122991293668747, 0.017565220594406128, -0.010442380793392658, 0.05432527884840965, -0.0563792884349823, -0.04236526042222977, 0.02964240498840809, 0.03220713138580322, -0.02939319796860218, -0.09773611277341843, 0.10810746997594833, 0.08708307892084122, 0.045890726149082184, 0.02592100203037262, 0.026204612106084824, 0.05433374270796776, 0.06973051279783249, 0.05663532763719559, -0.030854299664497375, -0.03926694765686989, -0.0007561302045360208, -0.05980396270751953, -0.046748146414756775, -0.0710851326584816, -0.07792539149522781, 0.19267039000988007, 0.3751682937145233, -0.016787992790341377, -0.04000891372561455, -0.014365372247993946, 0.03209526464343071, 0.052528634667396545, 0.05347537621855736, 0.0062518250197172165, 0.007666904479265213, -0.012058008462190628, -0.01850413903594017, 0.004439685959368944, -0.07891259342432022, 0.02902079187333584, 0.044091589748859406, 0.05158506706357002, 0.08186227828264236, 0.04158468171954155, 0.07366818934679031, 0.04299749433994293, 0.024950740858912468, -0.05025949329137802, 0.09504339843988419, 0.038346484303474426, -0.018481425940990448, 0.01140422560274601, 0.056811001151800156, -0.03311837837100029, -0.005602662917226553, 0.16259998083114624, 0.03205933794379234, 0.10299867391586304, 0.005249013192951679, -0.0612652488052845, 0.0256918016821146, -0.04496528208255768, -0.023557012900710106, 0.057865433394908905, 0.00482772383838892, 0.028242547065019608, -0.0065155234187841415, -0.07015509158372879, -0.006537518929690123, -0.06109309196472168, 0.11305223405361176, 0.029932254925370216, 0.07041701674461365, -0.15128129720687866, -0.0013188055017963052, -0.08827463537454605, 0.008133280090987682, 0.026262445375323296, 0.06496035307645798, 0.07612655311822891, -0.06338265538215637, 0.11876846104860306, -0.01607302948832512, 0.08129821717739105, -0.16895361244678497, 0.1613803654909134, 0.07704606652259827, -0.022559791803359985, 0.1539391428232193, 0.04035203903913498, 0.05192911624908447, -0.10589120537042618, 0.004813415464013815, 0.13632546365261078, 0.07095548510551453, 0.027358021587133408, 0.08985626697540283, 0.10336078703403473], [-0.01249791495501995, -0.04487631469964981, 0.050910964608192444, -0.05821656063199043, -0.0796458050608635, 0.04982376471161842, -0.03227348253130913, -0.029624169692397118, -0.0731901302933693, 0.030055928975343704, -0.04039565846323967, -0.020260637626051903, -0.08017964661121368, 0.053671594709157944, 0.0213621836155653, 0.0866585299372673, -0.03728151693940163, 0.06436106562614441, 0.04295707121491432, -0.02243322692811489, -0.036991480737924576, -0.0016889317193999887, -0.04265577718615532, 0.026381053030490875, 0.058824196457862854, 0.03901732340455055, -0.0534922257065773, 0.034685660153627396, -0.042491938918828964, -0.07806847244501114, 0.0419025644659996, -0.037382643669843674, 0.03582368791103363, 0.07306277006864548, -0.06482751667499542, 0.03982234746217728, 0.061733946204185486, 0.022137824445962906, -0.010763012804090977, -0.01961139403283596, 0.0008112487266771495, -0.04225461930036545, -0.08276232331991196, -0.07382569462060928, -0.04761809483170509, 0.12669122219085693, 0.09912674129009247, -0.044448673725128174, 0.05690021812915802, 0.048669248819351196, 0.11387095600366592, 0.014460036531090736, 0.18625161051750183, 0.023065771907567978, 0.09037899225950241, -0.034334033727645874, 0.08195611834526062, -0.10078877955675125, -0.05323655530810356, -0.052846092730760574, 0.14894640445709229, 0.06870857626199722, 0.11237122863531113, -0.020932253450155258, 0.09492657333612442, 0.142505943775177, -0.03077348694205284, 0.0578949972987175, -0.07973560690879822, -0.006348561029881239, 