{"net.0.weight": [[0.027820564806461334, -0.018378812819719315, 0.004833909682929516, -0.0579611137509346, -0.11369015276432037, -0.045005928725004196, -0.0761311799287796, -0.04368071258068085, 0.12664543092250824, 0.04151938110589981, -0.06094516068696976, -0.1369059979915619, -0.19017550349235535, -0.021109197288751602, 0.020805761218070984, -0.11671537160873413, -0.060427166521549225, -0.000978035619482398, -0.10039932280778885, -0.10287845134735107, -0.12519711256027222, 0.10244016349315643, -0.005694087129086256, 0.10242655873298645, -0.009785258211195469, 0.03379438817501068, -0.0365091934800148, 0.006524431984871626, -0.000129968102555722, 0.048851706087589264, -0.053810667246580124, -0.17994914948940277, -0.003412773599848151, -0.09757261723279953, -0.02358432114124298, -0.03060799650847912, -0.04100329056382179, -0.018407005816698074, -0.012412717565894127, 0.006920728366822004, -0.1887197196483612, 0.09345965087413788, -0.12671124935150146, 0.056966353207826614, -0.08797527104616165, 0.026950174942612648, -0.08819685131311417, -0.005200124345719814, 0.016203492879867554, -0.05486099421977997, -0.003286845749244094, 0.12218835204839706, -0.042075835168361664, 0.015471342951059341, 0.03420451283454895, 0.0012624319642782211, 0.07230126112699509, -0.10479075461626053, -0.09314281493425369, -0.07231660187244415, -0.12773992121219635, -0.1648370772600174, -0.04723263904452324, -0.016342774033546448, -0.11558390408754349, 0.07052295655012131, 0.04652253910899162, 0.008767195977270603, 0.039151258766651154, -0.02653518319129944, -0.09321985393762589, -0.09394066780805588, 0.05206133425235748, 0.23090995848178864, -0.07555706053972244, -0.05078503489494324, -0.16284358501434326, -0.06629209220409393, -0.04215603321790695, 0.04246430844068527, 0.05114170163869858, -0.1531846523284912, 0.06552758067846298, 0.0420447513461113, 0.014248293824493885, -0.05882347375154495, 0.00772887235507369, -0.055569663643836975, -0.025672588497400284, 0.03560544550418854, -0.08226434886455536, 0.045393865555524826, 0.04264340549707413, -0.04201186075806618, -0.13984820246696472, 0.04323677718639374, -0.03787066042423248, 0.08388853073120117, -0.033501140773296356, -0.08429842442274094, -0.05892535299062729, 0.1066327840089798, -0.028257213532924652, -0.058389075100421906, -0.019736865535378456, -0.09985501319169998, -0.09756052494049072, -0.09781018644571304, -0.030053796246647835, 0.024046113714575768, -0.01840890944004059, -0.06610722094774246, -0.012165971100330353, 0.13065242767333984, -0.0330442413687706, 0.0020816007163375616, 0.008935694582760334, -0.0857323706150055, 0.030201813206076622, -0.04749435931444168, 0.039254575967788696, -0.05703034624457359, -0.048049960285425186, 0.07506116479635239, -0.04385530203580856, -0.035663899034261703, 0.02672453410923481, 0.09598863869905472, 0.09595805406570435, 0.05442417040467262, 0.03119911439716816, -0.008501813746988773, 0.028702883049845695], [-0.19395005702972412, -0.1530638486146927, -0.07232874631881714, -0.09925273805856705, -0.24632054567337036, -0.024399295449256897, -0.032261986285448074, 0.034945275634527206, -0.10318142175674438, -0.03473193198442459, -0.045052070170640945, -0.08667745441198349, -0.05184709653258324, -0.1156689003109932, 0.09582075476646423, -0.14716343581676483, 0.03019055724143982, -0.05998777225613594, -0.007922535762190819, -0.14302866160869598, 0.0667545348405838, -0.07191441208124161, -0.038415633141994476, -0.08211918920278549, 0.04015693441033363, 0.0035317675210535526, 0.0774136558175087, 0.04130681976675987, -0.06455016881227493, -0.13021226227283478, -0.12671707570552826, -0.17735236883163452, -0.02125142514705658, -0.02195281721651554, -0.007802426815032959, 0.10290323942899704, -0.023416860029101372, -0.030345022678375244, -0.025545230135321617, 0.0022251547779887915, -0.0795111432671547, -0.06829734146595001, -0.0760565772652626, -0.10581473261117935, 0.09086249768733978, -0.03790152072906494, -0.025183958932757378, -0.07285649329423904, -0.15855586528778076, -0.01897195354104042, -0.034912630915641785, 0.007743357215076685, 0.16794271767139435, 0.07005607336759567, -0.009191291406750679, -0.0052561829797923565, 0.023566458374261856, -0.0786232203245163, -0.08084585517644882, 0.09030859917402267, -0.19522547721862793, -0.01344498060643673, 0.003366681281477213, -0.11254921555519104, -0.01245127897709608, 0.05995273217558861, -0.029510492458939552, -0.06658769398927689, 0.015765538439154625, 0.09275536984205246, -0.04789750277996063, 0.17305836081504822, -0.01849440112709999, -0.06635422259569168, 0.0721050575375557, -0.08995595574378967, -0.15983940660953522, 0.013401583768427372, 0.013018837198615074, -0.05474844202399254, -0.017140133306384087, 0.1539536714553833, -0.02477218583226204, 0.09639576822519302, 0.11809884011745453, 0.00812475848942995, 0.16749736666679382, -0.08459866046905518, 0.005855222698301077, -0.007989058271050453, -0.0309359822422266, -0.01828892156481743, -0.09419617056846619, -0.12672217190265656, -0.004690252244472504, -0.008846018463373184, -0.004098494537174702, 0.05747081711888313, 0.12989777326583862, 0.1589960902929306, 0.04673248529434204, 0.08157657086849213, 0.025284985080361366, 0.0005196069250814617, -0.009369829669594765, -0.06070642173290253, -0.05017934739589691, 0.09357982873916626, -0.15593497455120087, -0.09578567743301392, 0.04105772823095322, -0.12447579205036163, 0.043615736067295074, 0.08186589926481247, 0.11035817861557007, -0.034056857228279114, -0.13743071258068085, -0.07710437476634979, -0.0029257016722112894, 0.05430077761411667, 0.056546565145254135, 0.02861672453582287, 0.0012400998966768384, 0.01305113174021244, -0.13190166652202606, -0.08524249494075775, -0.06873971223831177, -0.06158819794654846, -0.04555731266736984, -0.012467773631215096, -0.04035747051239014, 0.16937406361103058, -0.05210922658443451], [0.07922227680683136, 0.12485909461975098, -0.06723079830408096, -0.0441807322204113, -0.15260787308216095, -0.006543021183460951, -0.013727751560509205, -0.07741347700357437, -0.03977101296186447, 0.0018395469523966312, -0.04169372841715813, -0.05919380113482475, 0.015262624248862267, -0.006848958786576986, 0.0018418495310470462, 0.15020537376403809, 0.10040213912725449, 0.005370673257857561, 0.07757697254419327, 0.07490047812461853, 0.029169537127017975, -0.003167456714436412, -0.04373301938176155, 0.009152650833129883, 0.043758325278759, 0.002753248903900385, -0.022785132750868797, 0.04860393702983856, 0.0653238520026207, -0.0528460256755352, 0.0022930114064365625, 0.11517895013093948, 0.07703809440135956, -0.03977811336517334, 0.06439163535833359, 0.056248802691698074, -0.03432237356901169, -0.007243801839649677, 0.03517979383468628, 0.03821201249957085, -0.020508132874965668, -0.04003873094916344, 0.07432262599468231, -0.07092632353305817, 0.0431048609316349, -0.023891370743513107, -0.051035888493061066, 0.019490884616971016, -0.02871965803205967, 0.10967731475830078, -0.0013051038840785623, 0.03890811279416084, -0.09207025915384293, 0.02194773219525814, 0.019656889140605927, 0.02437073551118374, -0.024940485134720802, 0.023183051496744156, -0.08404596894979477, 0.12092602252960205, 0.07663565874099731, 0.12015292048454285, 0.09621279686689377, 0.04257658123970032, 0.00882392842322588, 0.03657706081867218, 0.07799234986305237, -0.06548872590065002, 0.04521184042096138, 0.049395523965358734, -0.06774142384529114, 0.07898756861686707, -0.01883375272154808, -0.049797527492046356, 0.09303735941648483, -0.060194313526153564, -0.04401784390211105, -0.09941599518060684, -0.022190826013684273, 0.02691415511071682, 0.02950913831591606, 0.034395165741443634, 0.05326720327138901, -0.009220743551850319, 0.09411163628101349, -0.04171308875083923, 0.061441224068403244, 0.004610246513038874, 0.031244438141584396, 0.03100091964006424, -0.030198905616998672, 0.0679236501455307, 0.03689349815249443, 0.0971362516283989, 0.08587345480918884, -0.09331885725259781, 0.13794489204883575, -0.0715523213148117, 0.03977423161268234, -0.0008321853820234537, 0.017106352373957634, -0.1703716665506363, -0.003734275698661804, 0.01838657073676586, -0.02318376861512661, -0.09241069853305817, 0.0010794600239023566, -0.0739477127790451, -0.03007214330136776, -0.008021002635359764, 0.01467683631926775, 0.06823627650737762, -0.01139043178409338, 0.04420928657054901, -0.0521194227039814, -0.09009978175163269, -0.05567716062068939, -0.006065597292035818, -0.0875549465417862, -0.15459147095680237, -0.1173001378774643, -0.041617583483457565, -0.0023289292585104704, 0.023375915363430977, 0.08786923438310623, 0.036068689078092575, -0.08906790614128113, -0.04782465845346451, -0.046423811465501785, 0.01102522760629654, 0.04763856530189514, 0.038974229246377945, 0.02471715584397316], [0.14286097884178162, -0.043179817497730255, 0.04498010128736496, 0.10063785314559937, 0.0021273859310895205, 0.025405066087841988, -0.10232869535684586, 0.0356701985001564, 0.01914925128221512, 0.0020941123366355896, -0.026073351502418518, -0.0313485711812973, 0.01671580597758293, -0.04310235008597374, 0.09988436847925186, 0.20244519412517548, -0.020496293902397156, -0.03479178994894028, 0.13627895712852478, 0.05582953616976738, -0.032069217413663864, -0.05445488542318344, 0.03507952392101288, 0.0063288770616054535, 0.06656192243099213, -0.048356298357248306, -0.011669471859931946, -0.036138880997896194, -0.08620256185531616, 0.07346099615097046, 0.1461392343044281, 0.21264337003231049, 0.1146504133939743, 0.09911734610795975, 0.014024797827005386, -0.07664597779512405, 0.09732414782047272, 0.07106222957372665, 0.0055573428981006145, 0.03115680254995823, -0.09064193069934845, 0.09410922229290009, -0.025728940963745117, 0.10690584033727646, 0.09483052790164948, 0.1353071630001068, 0.06991475075483322, -0.04416817054152489, 0.10096599906682968, -0.02022818848490715, 0.03242342919111252, 0.05588790029287338, 0.09861882030963898, 0.11747509241104126, 0.06370603293180466, 0.019319266080856323, 0.18234306573867798, -0.02913666144013405, 0.0735432356595993, 0.09360365569591522, 0.1287517100572586, 0.08150115609169006, 0.05958716943860054, 0.1050204262137413, 0.16546723246574402, 0.0897335633635521, 0.05693388357758522, 0.021449681371450424, 0.036110080778598785, -0.036018699407577515, -0.07682503759860992, -0.04118525609374046, -0.04734629765152931, -0.0343877412378788, 0.04319151118397713, 0.14273613691329956, -0.016088014468550682, -0.004412816371768713, 0.024645285680890083, 0.029583103954792023, -0.06314333528280258, 0.12193693220615387, 0.11826726794242859, 0.06436338275671005, 0.06717491149902344, 0.012660038657486439, 0.014055407606065273, -0.018224330618977547, -0.11799221485853195, 0.08849255740642548, 0.2736584544181824, -0.07490218430757523, 0.05607100948691368, 0.17925724387168884, 0.0032111203763633966, 0.05841761827468872, -0.023159904405474663, 0.029607092961668968, -0.0828365609049797, -0.017658665776252747, -0.0753360241651535, -0.00231081061065197, 0.03081025555729866, 0.036419060081243515, 0.11804721504449844, -0.004189548082649708, 0.04076031967997551, 0.07390734553337097, 0.16601599752902985, -0.027600949630141258, 0.15454824268817902, -0.038909412920475006, 0.023486101999878883, -0.011438467539846897, -0.06700194627046585, -0.05835730955004692, -0.017748793587088585, -0.08458681404590607, 0.0035805990919470787, 0.11834670603275299, -0.0328037329018116, 0.10380762815475464, 0.11407583206892014, 0.26780471205711365, -0.018478311598300934, 0.03144944831728935, -0.05185949429869652, 0.14562945067882538, 0.0574309341609478, 0.07360335439443588, 0.06160488352179527, 0.023530859500169754, 0.08599386364221573], [0.006802982650697231, -0.006336201447993517, 0.010751286521553993, 0.06810048222541809, -0.014417937956750393, 0.025872083380818367, 0.11969184130430222, 0.10547401756048203, 0.10446617007255554, 0.08408037573099136, -0.02983846887946129, -0.04270210862159729, 0.1316225379705429, 0.08312933892011642, -0.04899115860462189, -0.040781427174806595, 0.008230145089328289, 0.07370186597108841, -0.03322093188762665, 0.025764193385839462, -0.05043330788612366, 0.06043296679854393, 0.034400999546051025, 0.07379830628633499, 0.07371403276920319, 0.03656965494155884, 0.05476435646414757, 0.03596760332584381, 0.10679928958415985, 0.08941392600536346, -0.03368673846125603, -0.05977271497249603, -0.01226121000945568, 0.06408092379570007, -0.0355500802397728, 0.032572757452726364, 0.01060416642576456, 0.08224807679653168, -0.07099456340074539, -0.07302456349134445, 0.12779957056045532, 0.03901536390185356, 0.07644901424646378, 0.0005470018368214369, 0.11017058789730072, -0.02642497979104519, -0.06891165673732758, -0.03462037071585655, -0.03752704709768295, 0.058979298919439316, 0.05213875696063042, -0.0680694505572319, 0.1521594375371933, -0.0012129150563850999, 0.06313377618789673, 0.12068431079387665, 0.07017987221479416, 0.041666705161333084, 0.05802047625184059, -0.05307498201727867, -0.08829082548618317, -0.09607376903295517, -0.05327281355857849, 0.04721032455563545, -0.06637237221002579, 0.025149276480078697, 0.0038791829720139503, 0.06867439299821854, 0.03219787776470184, -0.0475880429148674, 0.16223357617855072, 0.025771725922822952, 0.086286261677742, 0.10665880143642426, -0.10047371685504913, 0.03467998281121254, -0.06135093793272972, 0.05626366659998894, 0.05484737828373909, 0.03234970197081566, -0.039561428129673004, 0.09448468685150146, -0.004570506978780031, -0.009525245986878872, 0.03136716037988663, 0.06555996835231781, 0.038767289370298386, 0.03507714346051216, 0.10528849810361862, -0.014309938997030258, -0.030587036162614822, 0.032736603170633316, -0.058279383927583694, -0.019382374361157417, 0.01827431656420231, -0.004645718261599541, -0.010019169189035892, -0.023991836234927177, -0.009850244037806988, 0.04077102616429329, 0.05801411718130112, -0.036211047321558, 0.10490526258945465, -0.020782554522156715, -0.013868664391338825, 0.05860026180744171, -0.032459426671266556, -0.009644929319620132, -0.03730678930878639, 0.031174546107649803, 0.03645901754498482, 0.024133924394845963, 0.04119519144296646, 0.0722309947013855, -0.030479565262794495, -0.02442185766994953, 0.08537372201681137, 0.02559329755604267, 0.010033449158072472, 0.07879505306482315, -0.11092977970838547, -0.1551692932844162, -0.09628412127494812, -0.07270068675279617, 0.08871858566999435, 0.0714108869433403, 0.014301699586212635, -0.14083868265151978, -0.031590092927217484, -0.043436240404844284, -0.017561238259077072, -0.030770227313041687, -0.014306725934147835], [-0.015714537352323532, 0.059960413724184036, -0.07410867512226105, 0.028821192681789398, -0.03650254011154175, 0.00739927776157856, 0.03014184534549713, -0.07949448376893997, -0.07815131545066833, -0.03911101818084717, 0.1464233547449112, 0.04826028645038605, 0.0012046662159264088, -0.018801990896463394, 0.012340185232460499, -0.06387359648942947, -0.003555048257112503, -0.03677031397819519, -0.028980709612369537, -0.05124221742153168, 0.03547750040888786, -0.04735834524035454, 0.027618059888482094, 0.047734975814819336, 0.04569164291024208, 0.0613386444747448, 0.05022171139717102, -0.040581114590168, -0.040048904716968536, 0.005922449287027121, -0.006674443371593952, -0.04308145120739937, 0.06618671864271164, 0.007700418122112751, -0.03644535690546036, 0.034315794706344604, 0.056665677577257156, 0.03142792731523514, 0.05511381849646568, -0.06366033107042313, -0.020718352869153023, 0.058726027607917786, 0.06907296925783157, -0.05018430948257446, -0.04483642429113388, 0.017039377242326736, -0.03669709712266922, -0.01792982779443264, -0.014492390677332878, -0.03696269914507866, -0.07217127829790115, 0.04844018444418907, -0.03413849323987961, -0.013404044322669506, 0.039333976805210114, 0.08365986496210098, 0.06320390105247498, -0.08140169829130173, 0.001966433599591255, -0.054217953234910965, -0.04654863476753235, -0.03701252490282059, -0.028836024925112724, 0.03754763677716255, -0.03140741586685181, -0.08292277902364731, -0.02513251081109047, -0.061389755457639694, -0.07056387513875961, -0.04356976971030235, -0.04122618958353996, -0.02469923533499241, 0.11941369622945786, 0.0017021639505401254, -0.07434870302677155, -0.003816981567069888, 0.031097201630473137, 0.06460383534431458, -0.01211581565439701, 0.03876607120037079, 0.04773638769984245, 0.022301381453871727, -0.0869341716170311, 0.02630821242928505, -0.13083522021770477, -0.005550414323806763, 0.0513034351170063, -0.0852852463722229, 0.05117078870534897, 0.03398459032177925, 0.04758438095450401, 0.08289219439029694, 0.0725688561797142, -0.06731744110584259, -0.008706246502697468, -0.05880691483616829, -0.022895697504281998, 0.05961236357688904, 0.03483549878001213, -0.07969006150960922, 0.08119845390319824, -0.015828434377908707, -0.06582695245742798, -0.060361478477716446, -0.05322534590959549, -0.05122264847159386, -0.15126840770244598, 0.06605957448482513, -0.050770364701747894, 0.014580977149307728, -0.07667768746614456, -0.018368491902947426, -0.07495925575494766, 0.05287035554647446, -0.035639334470033646, 0.008923545479774475, 0.041283491998910904, -0.005625707097351551, 0.06642857193946838, 0.02872023731470108, -0.06964553147554398, -0.02623945288360119, 0.06009743735194206, 0.021805623546242714, -0.05271663889288902, -0.0014806266408413649, -0.08332446962594986, 0.03730654716491699, 0.047974713146686554, -0.09607264399528503, -0.0721815675497055, -0.018187060952186584, -0.06181025877594948], [0.13556651771068573, -0.01663333922624588, -0.10188411176204681, 0.009521817788481712, 0.027412503957748413, 0.057633113116025925, -0.08688411116600037, -0.05214175209403038, 0.02666020579636097, 0.02947338856756687, -0.11219888925552368, -0.13751818239688873, 0.05276390537619591, -0.09015274792909622, -0.09987468272447586, 0.02198660559952259, 0.034575093537569046, 0.059545885771512985, 0.026411496102809906, -0.08322185277938843, -0.06866391003131866, -0.0906291976571083, 0.03809357061982155, -0.07969938963651657, 0.05490824952721596, 0.043064285069704056, 0.0803629532456398, -0.094985730946064, 0.07291430234909058, 0.008057174272835255, 0.1468469798564911, 0.06582187116146088, -0.052181508392095566, 0.051795896142721176, 0.009946595877408981, -0.06598750501871109, -0.025024250149726868, 0.020399732515215874, 0.0674309954047203, 0.13355697691440582, 0.044285859912633896, -0.03847998008131981, -0.030728301033377647, 0.01462134812027216, 0.08211811631917953, -0.07305893301963806, 0.017122341319918633, 0.07772316783666611, 0.0018553026020526886, 0.016898388043045998, 0.006920733489096165, -0.058446645736694336, 0.002740762894973159, -0.041415758430957794, 0.02054835669696331, -0.03585042804479599, 0.09118445962667465, 0.011189197190105915, 0.0255172997713089, 0.04310767352581024, 0.045938700437545776, 0.09404614567756653, -0.03406833857297897, -0.03552737087011337, 0.0544513575732708, 0.009181064553558826, -0.07056409120559692, 0.051239289343357086, -0.011839495971798897, -0.08700287342071533, 0.014502563513815403, 0.04464000090956688, -0.061795834451913834, -0.049537837505340576, 0.0434437021613121, -0.017567234113812447, 0.04317370057106018, -0.0710655152797699, -0.02094441093504429, -0.09323899447917938, -0.07227829843759537, -0.03706044703722, -0.006792059633880854, 0.04520982503890991, -0.030825341120362282, 0.152690127491951, 0.05221150815486908, -0.110011525452137, -0.08039229363203049, 0.04346637800335884, 0.08059144020080566, 0.07444794476032257, 0.017030654475092888, 0.1019580140709877, -0.020698657259345055, -0.0015872772783041, -0.07015857100486755, -0.03172378987073898, -0.13427670300006866, 0.03074680082499981, -0.07735583931207657, -0.09362534433603287, -0.07217593491077423, -0.05637146905064583, -0.026689546182751656, 0.14265751838684082, 0.035620275884866714, -0.00554219726473093, 0.006333466619253159, 0.08143080025911331, 0.12292105704545975, -0.08739298582077026, 0.09064542502164841, -0.0007770765805616975, 0.016029443591833115, -0.055326756089925766, 0.023086870089173317, -0.012863941490650177, -0.059448499232530594, -0.12161276489496231, -0.0840996503829956, -0.029052909463644028, -0.0970648005604744, -0.1053750291466713, -0.15830834209918976, -0.044569313526153564, -0.022518133744597435, -0.021944399923086166, -0.0990089550614357, -0.08186755329370499, -0.00955601129680872, -0.04886820539832115, 0.06011837348341942], [0.07211470603942871, -0.05276302993297577, -0.045791953802108765, 0.01129288412630558, -0.043784238398075104, 0.021841078996658325, 0.05464332550764084, -0.10383594781160355, 0.032888635993003845, -0.03426017239689827, -0.005260861944407225, -0.07592770457267761, -0.026391396299004555, 0.005051661282777786, -0.05991332605481148, -0.05221503600478172, -0.09699362516403198, -0.029404589906334877, -0.0583992563188076, -0.03822435811161995, 0.008892917074263096, 0.11801523715257645, 0.01480161678045988, 0.04553963989019394, 0.012616622261703014, -0.1263824701309204, 0.11413870006799698, 0.03629525750875473, -0.022872989997267723, 0.06652819365262985, 0.02014508657157421, -0.02497868612408638, 0.04670639708638191, 0.06651497632265091, 0.052613504230976105, 0.11201260983943939, 0.07846259325742722, -0.08159875124692917, 0.12784640491008759, 0.017902273684740067, -0.03455513343214989, -0.08767963200807571, -0.10916395485401154, 0.035073280334472656, 0.07648739218711853, -0.027950482442975044, -0.039991240948438644, -0.01435239240527153, 0.0550270602107048, 0.02113788016140461, 0.17252281308174133, 0.10581698268651962, 0.022408220916986465, 0.07970520108938217, 0.10383353382349014, -0.0558600053191185, 0.08485604077577591, 0.03474726155400276, -0.10772591084241867, 0.018047112971544266, 0.06967901438474655, 0.14046916365623474, -0.013125167228281498, 0.07796413451433182, -0.04299569129943848, 0.06526658684015274, -0.03522391989827156, 0.02373948134481907, -0.09507298469543457, -0.00882574450224638, -0.04872851446270943, 0.05187106877565384, -0.060484275221824646, 0.08650646358728409, -0.001471641706302762, 0.09477013349533081, -0.012508155778050423, 0.032226793467998505, 0.10362433642148972, 0.06359963864088058, 0.039024125784635544, -0.007099850568920374, -0.04649980366230011, 0.07809127867221832, 0.03275206685066223, -0.03708026930689812, 0.0026741984765976667, -0.05766983702778816, -0.01754016987979412, -0.17864592373371124, 0.15735158324241638, 0.08707255870103836, 0.12882910668849945, 0.13505902886390686, 0.039246220141649246, 0.04308871179819107, -0.07101378589868546, 0.04421186074614525, -0.11652886122465134, -0.005245111417025328, -0.06777744740247726, -0.07271117717027664, 0.0004969579167664051, -0.09116838872432709, -0.106264129281044, 0.006594647653400898, -0.10311627388000488, 0.05993739515542984, 0.12990392744541168, 0.00886034220457077, -0.049306560307741165, -0.004760607611387968, -0.003562942147254944, -0.07367448508739471, -0.22420081496238708, -0.06797461211681366, 0.023746926337480545, -0.12333257496356964, -0.09056656807661057, -0.02515937015414238, 0.02258361130952835, -0.002542668953537941, -0.029129205271601677, 0.1363644152879715, 0.011080640368163586, -0.11052370071411133, -0.12335597723722458, 0.1132110133767128, 0.11059600114822388, -0.028542838990688324, -0.03156129643321037, 0.06509682536125183, 0.11240319907665253], [0.1544112265110016, -0.0672924667596817, 0.040802810341119766, -0.045845188200473785, 0.04327119141817093, -0.05830908566713333, -0.12222365289926529, 0.06631390005350113, -0.01749849133193493, -0.03827210143208504, -0.026053113862872124, -0.02292151376605034, 0.01109246350824833, -0.10201949626207352, -0.07566637545824051, 0.060607265681028366, -0.021021151915192604, 0.07134159654378891, -0.02371014468371868, -0.07684279978275299, 0.042970623821020126, -0.01606622338294983, 0.0008473381749354303, -0.023412905633449554, -0.13208261132240295, -0.04012191668152809, -0.014677035622298717, -0.06848405301570892, -0.09855147451162338, -0.018761640414595604, 0.15429088473320007, 0.08483599871397018, 0.08946345746517181, 0.03593422845005989, 0.07310298830270767, -0.0603567399084568, -0.08298841118812561, 0.1487668752670288, 0.010304179042577744, -0.02283591590821743, -0.03747137263417244, 0.05269364267587662, 0.05738469585776329, 0.029075128957629204, -0.09917937964200974, 0.09594934433698654, 0.06498401612043381, -0.1576484888792038, 0.0948462188243866, -0.011985961347818375, 0.007383938413113356, -0.037513408809900284, 0.11353303492069244, 0.061749450862407684, -0.0015759204979985952, -0.014140119776129723, 0.09645579010248184, 0.05011805146932602, -0.08985816687345505, -0.0049894205294549465, 0.16350027918815613, 0.20032629370689392, 0.1311657875776291, -0.0297836996614933, -0.005934686865657568, -0.03660089895129204, -0.04956746846437454, 0.00226616021245718, -0.05808310583233833, 0.0009234413737431169, -0.056103408336639404, -0.051041003316640854, -0.04800644516944885, -0.07849482446908951, 0.0922999456524849, 0.16244511306285858, 0.1184881404042244, -0.0297307800501585, 0.05409299582242966, -0.013904551975429058, -0.004830554593354464, 0.11799779534339905, 0.07574847340583801, -0.03464122116565704, -0.030767912045121193, 0.061873890459537506, 0.13119661808013916, 0.016579262912273407, -0.0004897565231658518, -0.08514126390218735, 0.48070529103279114, 0.01726037636399269, 0.13214756548404694, 0.058748118579387665, 0.10711298137903214, -0.10529465228319168, 0.025455962866544724, 0.00988853070884943, 0.11276739090681076, 0.015503596514463425, -0.08126921951770782, 0.08143965154886246, -0.058555275201797485, -0.04763586446642876, 0.07312392443418503, -0.05778947100043297, -0.04681801423430443, 0.1098504588007927, 0.15649662911891937, 0.10856136679649353, 0.17349287867546082, -0.040887925773859024, 0.018557414412498474, -0.04383539780974388, 0.015232076868414879, -0.04465357959270477, -0.07040484994649887, 0.05326336622238159, 0.008217508904635906, -0.03866833075881004, -0.03760557249188423, -0.07187391072511673, 0.10429014265537262, -0.007237563841044903, -0.048247043043375015, 0.025575317442417145, -0.012885981239378452, 0.0652201920747757, 0.00657278299331665, -0.05658044293522835, -0.01321183331310749, 0.15152432024478912, 0.045508068054914474], [0.046669915318489075, -0.024536799639463425, 0.022186443209648132, -0.011113367043435574, -0.1587953418493271, 0.054719798266887665, -0.058048002421855927, -0.038218479603528976, 0.011450585909187794, 0.052649300545454025, -0.009832128882408142, 0.010577348060905933, 0.033040132373571396, -0.00038497443892993033, 0.10487882792949677, 0.03744690865278244, -0.06966693699359894, -0.014244444668293, 0.03402819484472275, 0.028838686645030975, 0.045301735401153564, 0.018829045817255974, 0.06711703538894653, -0.02970411814749241, 0.028958959504961967, 0.06015711650252342, 0.0531422421336174, 0.032814934849739075, 0.02448798343539238, 0.01266498863697052, 0.149192675948143, 0.003666739212349057, -0.049407605081796646, 0.0890234112739563, -0.019620420411229134, -0.102454274892807, 0.07807274162769318, 0.0388760082423687, 0.0854155570268631, 0.06589803099632263, -0.16637475788593292, 0.08075753599405289, -0.0768623948097229, 0.047616202384233475, -0.015665732324123383, 0.12277472019195557, 0.07255810499191284, 0.006839606910943985, 0.022656047716736794, 0.10121090710163116, 0.10046734660863876, -0.0016653069760650396, 0.0777321457862854, 0.03754672780632973, 0.12333345413208008, -0.07003733515739441, 0.035770609974861145, 0.04881645739078522, -0.0738048180937767, 0.013072261586785316, 0.10296276956796646, 0.04678162932395935, 0.008630737662315369, 0.08430352061986923, -0.011572301387786865, 0.14071908593177795, -0.1398390233516693, -0.07617870718240738, 0.011052923277020454, -0.018425870686769485, -0.030131004750728607, 0.05301376432180405, -0.03234976902604103, -0.0002814003673847765, 0.10908550769090652, 0.15467147529125214, -0.054004840552806854, -0.0023245341144502163, 0.05883396416902542, -0.008983440697193146, 0.09865100681781769, -0.018113508820533752, 0.042165357619524, -0.061978112906217575, -0.04061202332377434, 0.05787397548556328, 0.001716150902211666, -0.062372833490371704, -0.1084207221865654, 0.03274080529808998, 0.15481694042682648, 0.08678372949361801, -0.009245363064110279, 0.0031494121067225933, 0.02529486082494259, -0.003710035467520356, 0.014102320186793804, -0.010978100821375847, -0.01352328434586525, 0.05969054996967316, 0.030061811208724976, -0.01210811734199524, -0.05976035073399544, -0.06746681034564972, -0.016639795154333115, 0.04322398826479912, 0.19109885394573212, -0.03182925283908844, -0.060323312878608704, 0.0011689267121255398, 0.09642235189676285, 0.015946336090564728, 0.017097074538469315, 0.03632412105798721, 0.0029020451474934816, -0.04757646098732948, 0.020185744389891624, 0.045153405517339706, -0.06231139227747917, 0.024886690080165863, 0.08687905222177505, 0.07996565848588943, 0.12880326807498932, 0.1756054013967514, 0.042630307376384735, -0.05026431009173393, 0.02207351103425026, 0.0632445365190506, 0.11775226145982742, -0.0049928477965295315, 0.10930783301591873, 0.09092172235250473, 0.07874612510204315], [-0.0034952086862176657, -0.061483126133680344, 0.03893832489848137, 0.05110602080821991, 0.04622490704059601, -0.02858072891831398, 0.07712500542402267, -0.0743701234459877, 0.03539235144853592, -0.02255130000412464, 0.08544300496578217, 0.032577626407146454, -0.07599443942308426, -0.08303209394216537, 0.07054582983255386, -0.018453199416399002, -0.023602087050676346, 0.05280064046382904, 0.0036396344657987356, -0.04391033202409744, -0.0531458742916584, -0.05482446029782295, 0.052701011300086975, 0.1030459925532341, 0.07464266568422318, -0.011973085813224316, -0.03615963086485863, 0.0007078817579895258, 0.1543973982334137, 0.04918932169675827, 0.008050729520618916, -0.07414615154266357, -0.07130781561136246, -0.025512468069791794, -0.0012124008499085903, -0.1163756251335144, 0.05232078209519386, 0.03323281928896904, 0.09184986352920532, 0.009019535966217518, 0.04516814276576042, -0.03815558925271034, -0.055757373571395874, 0.036469146609306335, -0.06826485693454742, -0.07526349276304245, 0.07151428610086441, -0.07280115783214569, 0.06205693259835243, -0.07378672063350677, -0.10050641000270844, 0.047203179448843, 0.04366074129939079, -0.06443039327859879, 0.09744320064783096, 0.07325954735279083, -0.1161544993519783, 0.0023519531823694706, -0.029237059876322746, -0.03413429111242294, -0.0022503396030515432, 0.059786129742860794, -0.05126653239130974, 0.04175816848874092, 0.05316883325576782, 0.05203411355614662, 0.021275917068123817, -0.023011956363916397, -0.03733224421739578, -0.1276802122592926, -0.08290114998817444, -0.022291073575615883, 0.023046273738145828, -0.0672864019870758, 0.0767374262213707, 0.024582521989941597, -0.004180579911917448, 0.018862076103687286, 0.0013957804767414927, 0.047430917620658875, -0.023784592747688293, 0.08051448315382004, 0.04734307900071144, -0.010957950726151466, 0.04917827248573303, 0.08334286510944366, -0.06557672470808029, 0.07654042541980743, -0.0023720995523035526, -0.0183892659842968, -0.013035261072218418, 0.164154052734375, 0.040275782346725464, 0.06611909717321396, -0.031002067029476166, 0.044704943895339966, 0.0440686009824276, -0.06421229988336563, -0.005970737896859646, -0.011254153214395046, -0.008926729671657085, 0.03259580582380295, 0.060896869748830795, 0.002142365090548992, -0.023542581126093864, -0.02287205122411251, -0.22243793308734894, 0.04095442220568657, -0.07752601057291031, 0.01742427609860897, -0.022777900099754333, -0.06150251626968384, -0.039358120411634445, 0.06590516865253448, 0.05485959351062775, 0.040100257843732834, 0.024597087875008583, -0.06021652743220329, 0.023514291271567345, -0.022327737882733345, 0.020874885842204094, 0.18559226393699646, -0.16099168360233307, -0.12242355197668076, 0.01613079197704792, 0.04984544590115547, -0.031841106712818146, -0.025706300511956215, -0.0823230966925621, -0.10817599296569824, 0.05529407039284706, -0.0022082929499447346, -0.06411286443471909], [-0.07253964245319366, 0.026886222884058952, 0.11041484028100967, -0.0032077585346996784, -0.13265863060951233, -0.008745736442506313, -0.14110395312309265, -0.05582069978117943, 0.017241405323147774, -0.01874805986881256, 0.015741484239697456, -0.04154141992330551, -0.03299793601036072, -0.03594871610403061, 0.04972326010465622, 0.0027482917066663504, 0.10192277282476425, -0.008045395836234093, -0.18912048637866974, 0.06580279767513275, 0.14156442880630493, -0.10581096261739731, 0.06077200174331665, -0.03016979992389679, 0.06689359247684479, -0.0450478233397007, -0.01769471913576126, 0.02642858400940895, -0.027117768302559853, -0.02835194766521454, 0.13716451823711395, -0.03939039632678032, -0.015525279566645622, -0.06354551017284393, 0.1224474087357521, -0.06897784024477005, -0.022744541987776756, 0.13465386629104614, 0.06853484362363815, 0.10686122626066208, -0.060758572071790695, -0.022245798259973526, -0.010925155133008957, 0.056090958416461945, 0.010082813911139965, 0.014575432054698467, -0.04021202772855759, 0.06564593315124512, -0.014498569071292877, -0.04820071905851364, 0.013075153343379498, -0.0096585089340806, 0.12786689400672913, 0.1232195571064949, 0.14390315115451813, 0.04304566606879234, 0.058738138526678085, 0.004739542491734028, -0.051380958408117294, -0.0063186632469296455, 0.13499729335308075, 0.0583052858710289, 0.04865370690822601, -0.22035987675189972, -0.0471639521420002, 0.10182152688503265, 0.011426907032728195, -0.04772762581706047, -0.06668062508106232, 0.1274217665195465, -0.03881930187344551, 0.026966536417603493, -0.01675594039261341, -0.02087511122226715, 0.04014092683792114, -0.05591081455349922, 0.0120011605322361, -0.057580649852752686, -0.022392328828573227, 0.01718071848154068, 0.07173795253038406, 0.13905251026153564, 0.05890469253063202, 0.008858822286128998, 0.0918324738740921, 0.05086420103907585, 0.005408491473644972, 0.14062084257602692, -0.031177207827568054, 0.08912506699562073, 0.01525115966796875, -0.032381605356931686, 0.07421015202999115, -0.0774073451757431, 0.01881430298089981, -0.03286795690655708, -0.010771731846034527, 0.02502528578042984, 0.22306346893310547, 0.010461249388754368, -0.044941242784261703, -0.22604593634605408, -0.030332250520586967, -0.04131658747792244, 0.007169205695390701, 0.09031063318252563, 0.051679763942956924, -0.05534009635448456, -0.2821783423423767, -0.08513211458921432, 0.1221732571721077, -0.03566279634833336, 0.019098224118351936, 0.04180512577295303, 0.037627141922712326, -0.07935337722301483, -0.09045009315013885, -0.026211639866232872, 0.023536518216133118, -0.03743665665388107, 0.08199235796928406, 0.18425306677818298, 0.15719985961914062, 0.047817278653383255, -0.0325162447988987, 0.007727427873760462, -0.06810855865478516, 0.08606688678264618, 0.12712664902210236, 0.08249820023775101, 0.09498251974582672, 0.06681487709283829, -0.06502962857484818], [-0.15529872477054596, -0.09756769239902496, -0.10211768001317978, -0.09519758820533752, 0.032622333616018295, 0.027511339634656906, 0.08878474682569504, -0.07335218787193298, -0.025827817618846893, -0.04886171966791153, 0.014626020565629005, 0.05142363905906677, -0.09479932487010956, -0.0716894268989563, -0.0752108097076416, -0.1195785328745842, -0.02331905998289585, -0.11349885910749435, -0.04606172814965248, 0.03913703188300133, 0.06423879414796829, 0.04101036116480827, -0.12279533594846725, -0.048254963010549545, 0.03500555083155632, -0.099402517080307, 0.09268501400947571, -0.007575163617730141, -0.10254528373479843, 0.04840270057320595, -0.2058441936969757, -0.16284699738025665, -0.09726377576589584, -0.05932440981268883, -0.056530654430389404, -0.023407073691487312, 0.17623484134674072, 0.003638590918853879, 0.06344160437583923, 0.004147384315729141, -0.08984765410423279, 0.030256500467658043, -0.1176452487707138, 0.014111206866800785, -0.013651770539581776, -0.01757870987057686, -0.0598505474627018, 0.011088388971984386, -0.1047653928399086, -0.006400478072464466, 0.01770028844475746, 0.06548153609037399, 0.013964085839688778, 0.006362459156662226, 0.04097897931933403, -0.03587022423744202, 0.0932687520980835, -0.08675151318311691, -0.08206846565008163, -0.017121583223342896, 0.009227187372744083, 0.012623892165720463, 0.0023603097070008516, -0.027561696246266365, 0.047535691410303116, -0.03291837126016617, 0.03590688109397888, -0.029783088713884354, 0.021330660209059715, 0.045116178691387177, -0.006199293304234743, 0.05656386911869049, -0.17818257212638855, -0.09709136188030243, 0.07449077069759369, -0.049290526658296585, -0.09528926014900208, -0.0339435450732708, -0.0940842479467392, -0.02166106551885605, -0.06255248188972473, 0.016694318503141403, 0.0658663660287857, 0.19201990962028503, 0.01804373599588871, -0.09164582192897797, 0.032142724841833115, -0.09147655963897705, -0.12531524896621704, 0.01062492374330759, -0.00914353784173727, 0.04623039811849594, -0.11976756155490875, -0.03426293283700943, -0.03763490170240402, -0.06725294888019562, 0.08975181728601456, 0.021701447665691376, 0.07088455557823181, -0.00982164777815342, -0.10835953801870346, 0.055631645023822784, -0.04927724599838257, 0.012638809159398079, 0.036987777799367905, -0.025877416133880615, 0.0016892283456400037, -0.10586801171302795, -0.08305437862873077, -0.08039534837007523, -0.01303747110068798, 0.09455104172229767, -0.01794501207768917, 0.06336842477321625, -0.03266674280166626, -0.004957901313900948, 0.02346280962228775, 0.05451181158423424, 0.023657124489545822, 0.02511376142501831, -0.05868067964911461, 0.05949956923723221, 0.1559475213289261, -0.19963833689689636, 0.025969957932829857, -0.04121313989162445, -0.05418045446276665, 0.1000642254948616, -0.007876617833971977, 0.07452575117349625, -0.04901225119829178, 0.0449560321867466, -0.03136932849884033], [0.08099471777677536, -0.04242315888404846, -0.0635857954621315, 0.01733177714049816, -0.006598278414458036, 0.0462816022336483, -0.0730757787823677, 0.10194893181324005, 0.0007555040647275746, -0.024243298918008804, -0.06335284560918808, -0.037156540900468826, -0.011592639610171318, 0.04616773501038551, 0.08732756972312927, 0.03138863295316696, 0.037040144205093384, 0.06470285356044769, -0.07636220753192902, -0.06765079498291016, 0.08738213777542114, 0.00021391778136603534, 0.0314190648496151, -0.07390730082988739, -0.025020994246006012, -0.08744042366743088, -0.017539948225021362, -0.0875268280506134, -0.06915280222892761, 0.07989679276943207, 0.11603934317827225, 0.06028757989406586, 0.10419821739196777, -0.020938022062182426, 0.013446742668747902, 0.0481596477329731, -0.008053180761635303, 0.02698986791074276, -0.019239796325564384, 0.046452898532152176, -0.047113414853811264, -0.017090415582060814, -0.09141130745410919, 0.0330624021589756, -0.04352056607604027, -0.011340075172483921, -0.028132084757089615, 0.01275128498673439, -0.09152361750602722, 0.04381656274199486, 0.021209685131907463, 0.10240308195352554, 0.032701440155506134, 0.017830243334174156, 0.15074510872364044, 0.04913106560707092, 0.030477331951260567, -0.08034303784370422, -0.06469573825597763, 0.1028854176402092, 0.08277763426303864, 0.09516672044992447, -0.007606866769492626, -0.002276442712172866, 0.03674541413784027, 0.17879174649715424, 0.038060832768678665, -0.04466736316680908, -0.07934923470020294, -0.06220325827598572, 0.020823054015636444, 0.06946054846048355, -0.09238819032907486, -0.06211808696389198, 0.029908034950494766, 0.10913271456956863, -0.040639739483594894, -0.03109736181795597, 0.09518803656101227, 0.07393437623977661, -0.001095283660106361, -0.011721636168658733, 0.06426343321800232, 0.0879862979054451, 0.07059643417596817, -0.054427869617938995, -0.019014770165085793, 0.023713288828730583, -0.08031990379095078, -0.02576596662402153, 0.11295320093631744, -0.0715351402759552, -0.0037527773529291153, -0.05914272367954254, -0.09503617882728577, -0.0446261465549469, 0.08666656911373138, 0.08049985766410828, 0.04272093623876572, -0.026427175849676132, 0.04974835366010666, 0.08074628561735153, 0.014806516468524933, 0.016725007444620132, 0.08560500293970108, 0.007496967911720276, -0.06709475070238113, 0.0262141115963459, -0.11020668596029282, 0.0683521181344986, -0.0283417496830225, -0.002323606051504612, -0.0019776923581957817, 0.08580752462148666, -0.0008536852546967566, -0.020393986254930496, -0.017015855759382248, -0.024318242445588112, 0.023778731003403664, -0.032769545912742615, 0.029491974040865898, 0.06563270092010498, 0.12427890300750732, 0.12277460098266602, 0.12649452686309814, 0.051194075495004654, 0.04657193273305893, 0.14827533066272736, 0.10619232058525085, 0.1251187026500702, 0.03524504974484444, 0.10866767168045044, 0.07700631767511368], [0.1626778393983841, 0.08610530942678452, 0.0574197880923748, 0.07328824698925018, -0.09051792323589325, 0.0236838199198246, 0.04483015462756157, 0.1283007115125656, -0.04621187224984169, -0.0425383634865284, -0.013278111815452576, 0.05623333528637886, 0.049791958183050156, 0.04608963802456856, 0.04453570023179054, -0.009905325248837471, -0.024695273488759995, 0.032207295298576355, -0.0442253015935421, 0.03647056221961975, 0.06304783374071121, -0.00015722206444479525, 0.12051630020141602, -0.02714131399989128, 0.0687493160367012, -0.04198130592703819, 0.019482659175992012, -0.0366450659930706, -0.02821040153503418, 0.0363578274846077, 0.11424173414707184, 0.1308366060256958, 0.05538218840956688, 0.052537254989147186, 0.07702616602182388, 0.0278355460613966, 0.08071324974298477, 0.04102965071797371, -0.03056052327156067, 0.10199487209320068, -0.022795069962739944, 0.09442611038684845, 0.007004798389971256, -0.040152303874492645, 0.03621562570333481, 0.10140927881002426, 0.027718158438801765, 0.04151992127299309, 0.16163894534111023, 0.05158527195453644, 0.00032370758708566427, 0.050080448389053345, -0.06451039761304855, 0.009005840867757797, -0.052668727934360504, -0.09683385491371155, 0.037736210972070694, -0.04045279324054718, 0.02341909520328045, 0.15922309458255768, 0.2617299556732178, 0.1986534744501114, 0.07768476754426956, 0.19390493631362915, -0.006512211635708809, 0.08616446703672409, -0.027796991169452667, 0.1850539594888687, 0.018994588404893875, -0.09574008733034134, -0.05801424756646156, 0.020022105425596237, -0.09142906218767166, -0.03026057407259941, 0.12731318175792694, 0.13229988515377045, -0.013810000382363796, -0.008886304683983326, 0.3072434663772583, 0.14230026304721832, 0.0198887400329113, -0.05949680134654045, 0.13388091325759888, -0.0043404302559792995, -0.022581424564123154, -0.019579781219363213, 0.05534341186285019, 0.10730157047510147, -0.09862759709358215, -0.056589335203170776, 0.12480588257312775, -0.31648531556129456, 0.06384258717298508, 0.21761095523834229, 0.008707914501428604, 0.053322892636060715, 0.08225397020578384, 0.08678942918777466, -0.03980879858136177, -0.05820631980895996, -0.0724162757396698, -0.015820294618606567, 0.04758540913462639, 0.021290479227900505, 0.06306511163711548, 0.1116047203540802, -0.06863801181316376, -0.04502171650528908, 0.14102336764335632, 0.09023208916187286, 0.053441524505615234, -0.05456786975264549, -0.034759897738695145, -0.028154313564300537, -0.03716122731566429, -0.10749807953834534, 0.028426000848412514, -0.06848873198032379, -0.03492197021842003, 0.018991438671946526, 0.0726470798254013, 0.14093901216983795, -0.06460293382406235, 0.19277212023735046, -0.024541914463043213, -0.01197991892695427, 0.018453067168593407, 0.16478562355041504, 0.0014699806924909353, -0.012102458626031876, -0.13070416450500488, 0.0044592805206775665, 0.05496799945831299], [-0.07329316437244415, -0.09807644039392471, -0.11415603756904602, -0.16955497860908508, -0.1666465401649475, -0.06160859763622284, -0.08194027096033096, -0.06777460873126984, -0.025531593710184097, 0.060259297490119934, -0.014353342354297638, 0.07341739535331726, 0.014041810296475887, -0.03123185783624649, 0.1056230366230011, -0.18735133111476898, -0.006487359758466482, -0.13424263894557953, -0.01887739636003971, -0.11377260088920593, -0.06326006352901459, 0.065963514149189, -0.010577813722193241, 0.04557286202907562, 0.032696813344955444, -0.026043124496936798, 0.15194082260131836, -0.15167999267578125, 0.14788596332073212, 0.05058325454592705, -0.2750445306301117, -0.10364288836717606, -1.7472824538344867e-06, -0.2651403248310089, -0.07730250060558319, 0.0005057305097579956, 0.11323456466197968, -0.01690687984228134, 0.03790530189871788, 0.10960916429758072, -0.12278544157743454, -0.038510512560606, -0.012312442995607853, 0.0424799881875515, 0.07495825737714767, -0.08188425004482269, -0.026206960901618004, -0.08516602963209152, -0.12289096415042877, -0.1842295080423355, -0.05799543485045433, -0.003958416171371937, 0.005248485133051872, -0.010331469587981701, 0.18456456065177917, -0.12036056816577911, 0.06734336912631989, -0.021334299817681313, -0.003192489268258214, -0.01144409365952015, -0.1409047245979309, -0.0655839666724205, -0.0630396157503128, -0.025479847565293312, -0.19703400135040283, 0.06062547117471695, 0.09990029036998749, -0.01855008862912655, 0.034210965037345886, -0.022378437221050262, -0.08426547050476074, -0.07006505131721497, -0.0949508398771286, -0.08469803631305695, -0.04854486510157585, -0.10451298952102661, -0.1259121298789978, -0.15349341928958893, -0.06166337803006172, -0.0803455114364624, 0.1038946881890297, 0.08888024836778641, 0.09861160814762115, 0.05689109116792679, 0.11660804599523544, -0.08110146969556808, -0.04261886328458786, 0.0149402916431427, -0.07225070148706436, 0.010862032882869244, -0.09368554502725601, 0.009848466143012047, -0.09076796472072601, -0.045878488570451736, -0.132231205701828, -0.0014445745619013906, -0.03685794398188591, -0.04275335744023323, -0.04380958154797554, 0.03450494632124901, -0.056859515607357025, 0.01239018514752388, 0.04987716302275658, -0.09686238318681717, 0.030007462948560715, -0.05771591141819954, -0.01852114498615265, 0.029852984473109245, -0.27596771717071533, -0.15189076960086823, -0.04907378926873207, 0.055483628064394, -0.016110099852085114, -0.02762315236032009, -0.12152395397424698, -0.05621041730046272, 0.03200589865446091, -0.022262414917349815, -0.015710270032286644, -0.028746746480464935, 0.008062206208705902, 0.0633692741394043, -0.02012665942311287, 0.008222481235861778, -0.08819833397865295, -0.04982660338282585, -0.002373727271333337, -0.020935019478201866, 0.060570839792490005, -0.008508925326168537, -0.042215745896101, -0.01535920612514019, -0.009380344301462173], [-0.11361519247293472, 0.015543782152235508, -0.07341166585683823, -0.12270379811525345, -0.1296888142824173, 0.035934533923864365, -0.1049695611000061, 0.13468439877033234, 0.08048049360513687, 0.014056800864636898, 0.012556669302284718, 0.07354391366243362, -0.05032435804605484, -0.24586017429828644, -0.02437499351799488, -0.035995014011859894, 0.0762651264667511, -0.05167645215988159, -0.07291813939809799, 0.1076020747423172, -0.005889632739126682, -0.1105312630534172, -0.1919989436864853, -0.04551928862929344, -0.018035149201750755, -0.07702556252479553, 0.04749789834022522, 0.010223613120615482, 0.023797128349542618, 0.007037819363176823, -0.027784118428826332, -0.13421161472797394, -0.1323772519826889, -0.0636390671133995, -0.14013677835464478, -0.014468525536358356, 0.04099659621715546, 0.0778297558426857, 0.04928116872906685, -0.046401042491197586, 0.045793015509843826, -0.016183387488126755, 0.034003160893917084, -0.06948739290237427, -0.04954167455434799, 0.05297291278839111, 0.011637073941528797, -0.10308288037776947, -0.09065721929073334, 0.05502832308411598, 0.017243973910808563, -0.019963610917329788, 0.014464613981544971, 0.10253875702619553, 0.08826486766338348, -0.03916524723172188, 0.0641377866268158, -0.010697835125029087, -0.048170529305934906, 0.08097271621227264, 0.020786922425031662, 0.08829227089881897, 0.05852169170975685, 0.0449465736746788, 0.06787047535181046, -0.042893171310424805, 0.053925372660160065, 0.05596313625574112, 0.08793918043375015, 0.000700125761795789, -0.09597480297088623, -0.0888528972864151, -0.08610957860946655, 0.060276150703430176, -0.021875610575079918, -0.0824221670627594, -0.05796533450484276, -0.09814959764480591, 0.0025998461060225964, -0.029374727979302406, 0.07235460728406906, -0.02289562113583088, 0.10842498391866684, 0.10869622975587845, 0.11210563033819199, 0.005491402931511402, 0.046577129513025284, -0.03357566520571709, -0.05843869224190712, 0.008113210089504719, 0.08885382115840912, 0.0020896040368825197, -0.021668566390872, 0.07279043644666672, 0.025220515206456184, 0.09818587452173233, 0.015597586520016193, 0.0678408220410347, 0.04026682302355766, -0.009333665482699871, 0.05886589363217354, 0.004510077647864819, 0.1933344304561615, 0.0316445454955101, 0.05120466277003288, -0.09234824031591415, -0.0883130133152008, -0.028909049928188324, -0.03271809220314026, -0.08406208455562592, 0.11296533048152924, 0.051945265382528305, 0.017707504332065582, 0.07871749997138977, 0.004592683631926775, -0.021464742720127106, -0.009380042552947998, -0.0859253779053688, -0.04904508218169212, 0.1340455859899521, 0.07888070493936539, 0.04904811456799507, 0.09560815244913101, -0.1243702694773674, -0.051284682005643845, -0.0829303190112114, -0.03364229574799538, 0.100246861577034, 0.09318947792053223, 0.050606146454811096, -0.10960545390844345, 0.15149934589862823, -0.04896228015422821], [0.0710471048951149, -0.08006113767623901, -0.043163001537323, 0.01625227741897106, -0.03449606895446777, 0.06456197798252106, 0.007196326740086079, -0.03966907411813736, 0.017403345555067062, 0.12189985066652298, 0.044105734676122665, -0.04352419078350067, 0.07348332554101944, -0.04806048050522804, 0.05422690883278847, 0.017776019871234894, -0.14797869324684143, 0.004572492092847824, -0.05106662958860397, -0.03753916174173355, 0.055768586695194244, -0.07746382802724838, -0.07212239503860474, -0.018285192549228668, -0.07481850683689117, -0.07304590940475464, 0.0525004081428051, 0.05237014964222908, 0.054957982152700424, -0.0741356834769249, -0.022698024287819862, 0.02076488919556141, -0.09765535593032837, 0.1262797713279724, -0.06556150317192078, 0.03348245471715927, -0.08991187065839767, -0.005445914342999458, -0.10226112604141235, 0.03630303218960762, -0.03274805471301079, 0.008912310004234314, 0.06846253573894501, -0.0934528037905693, -0.06939871609210968, 0.14432033896446228, 0.013408591970801353, -0.06995896250009537, 0.10533007234334946, 0.08512526750564575, 0.059624336659908295, 0.10791248828172684, -0.02448432147502899, 0.006564327981323004, 0.0459599569439888, 0.04617408663034439, 0.07515163719654083, -0.026005709543824196, 0.002867299597710371, -0.08113544434309006, -0.02300853282213211, 0.024309121072292328, 0.08573213219642639, -0.02949378825724125, 0.05657251551747322, 0.028370680287480354, 0.10247427225112915, 0.06448385864496231, 0.05948755145072937, 0.15291757881641388, -0.04224170371890068, 0.0008531276835128665, 0.08037631213665009, 0.04943377524614334, -0.037661999464035034, -0.033843137323856354, -0.015160155482590199, -0.00029278185684233904, -0.025441499426960945, 0.033545129001140594, -0.12555471062660217, -0.013374467380344868, 0.0380769744515419, 0.13292363286018372, -0.06302981823682785, 0.0064177666790783405, -0.01428259164094925, -0.04810429736971855, -0.01323775015771389, -0.04041920602321625, 0.11833696067333221, 0.00950686912983656, -0.11203422397375107, 0.14945097267627716, 0.07595738023519516, -0.04541825130581856, 0.08514559268951416, 0.09620650112628937, 0.01100087445229292, 0.0877506285905838, -0.08586891740560532, 0.04212305694818497, 0.06362403929233551, 0.03142023831605911, -0.07688556611537933, -0.04592017084360123, 0.03406838700175285, -0.011513281613588333, 0.05375426262617111, -0.08770717680454254, -0.0364706888794899, -0.03253266587853432, -0.00740297045558691, -0.060276858508586884, -0.07868745177984238, -0.05707210674881935, -0.08202797174453735, 0.03638624772429466, -0.08264846354722977, -0.07332537323236465, -0.049935366958379745, 0.08315908908843994, 0.09098301082849503, 0.061140768229961395, -0.05531539022922516, 0.005367488134652376, -0.024165384471416473, 0.1417171061038971, 0.11069048196077347, -0.07833825796842575, -0.04766720160841942, 0.04622136801481247, -0.07949844002723694], [0.09938840568065643, 0.05287184566259384, 0.061260536313056946, 0.07375968247652054, 0.011953530833125114, -0.08150755614042282, 0.03114154003560543, -0.06309294700622559, -0.015855416655540466, -0.06689396500587463, -0.03978047892451286, 0.03572620078921318, 0.08118275552988052, -0.058843400329351425, -0.09639383852481842, 0.07419730722904205, -0.05135683715343475, 0.04892132058739662, 0.11521769315004349, -0.027988504618406296, -0.09082789719104767, 0.09523957222700119, 0.029564766213297844, 0.09141858667135239, -0.09658554941415787, -0.07740690559148788, -0.12068473547697067, -0.04714607074856758, -0.03475194796919823, 0.0005790448049083352, 0.11118123680353165, 0.019052227959036827, 0.1368052065372467, 0.10938087105751038, 0.14412818849086761, -0.022916048765182495, -0.13117551803588867, -0.12331735342741013, -0.09070989489555359, -0.14534634351730347, -0.04865681752562523, -0.006129749119281769, -0.029147595167160034, 0.03545445576310158, -0.08722411841154099, 0.11812447756528854, -0.03722147271037102, 0.03673267364501953, -0.0028038322925567627, 0.020052267238497734, -0.10242733359336853, -0.03908124566078186, -0.13511380553245544, -0.03312116488814354, -0.07316406071186066, 0.0562041811645031, -0.15269535779953003, -0.06749394536018372, 0.014955632388591766, -0.02781599573791027, 0.13354791700839996, -0.010037858039140701, -0.02188417688012123, 0.012754669412970543, -0.006342042703181505, 0.14037515223026276, -0.013901225291192532, 0.024942055344581604, -0.025791259482502937, -0.13432499766349792, 0.009285807609558105, 0.0036577980499714613, -0.07959581166505814, -0.017946768552064896, 0.16424517333507538, 0.08116874098777771, 0.08551719039678574, 0.11183790862560272, 0.0038299846928566694, -0.03370736166834831, 0.03727222606539726, -0.04188010096549988, -0.20122207701206207, -0.19211456179618835, -0.09097425639629364, 0.06450223922729492, -0.05191553756594658, -0.010358494706451893, 0.06207280978560448, 0.0827079638838768, 0.10661105811595917, 0.06447063386440277, 0.11042100936174393, 0.03834262117743492, 0.0015343010891228914, -0.11520760506391525, -0.14671224355697632, -0.10467945039272308, -0.07988783717155457, -0.15647782385349274, -0.0445396862924099, -0.03357177600264549, -0.08251762390136719, -0.010717717930674553, -0.12129870057106018, 0.08386581391096115, 0.05444846674799919, 0.001258249394595623, 0.11007750034332275, 0.06691963225603104, 0.007895169779658318, 0.054482683539390564, -0.002280118875205517, -0.019398681819438934, -0.03617168590426445, -0.010134321637451649, 0.1427420675754547, 0.05856970697641373, 0.03620203956961632, 0.03701060637831688, 0.06859105080366135, -0.02124093286693096, -0.2222440540790558, 0.22345668077468872, 0.06937352567911148, 0.04617105424404144, 0.01118595153093338, 0.08662652969360352, -0.021846164017915726, 0.09478242695331573, 0.10679532587528229, -0.1842697262763977, 0.12183216959238052], [0.0031771904323250055, 0.05153032764792442, -0.07460251450538635, -0.004337434656918049, -0.0009066666243597865, -0.005386958830058575, -0.10467266291379929, 0.033566512167453766, -0.023259291425347328, 0.048634208738803864, -0.0978638157248497, 0.057495519518852234, -0.03419402241706848, 0.02469867840409279, -0.010259058326482773, 0.027976693585515022, 0.011121013201773167, 0.015700306743383408, 0.06176719069480896, 0.08183269202709198, 0.013218272477388382, -0.019547434523701668, -0.028496786952018738, -0.010201722383499146, -0.02423553727567196, 0.04588202387094498, 0.12220807373523712, -0.019628338515758514, -0.07740473002195358, -0.03755028545856476, 0.07329609245061874, 0.08513347059488297, -0.028300203382968903, 0.11602585017681122, 0.011470275931060314, 0.069378562271595, 0.043520886451005936, -0.03778311610221863, 0.05854059010744095, -0.012865022756159306, 0.007646734826266766, 0.05869409441947937, -0.04393778741359711, -0.10049506276845932, 0.027083922177553177, 0.1912095844745636, -0.04156322777271271, 0.013968595303595066, 0.04142705723643303, 0.06067032366991043, 0.13678483664989471, 0.06507626175880432, -0.008480091579258442, 0.08307826519012451, 0.1053185984492302, 0.023403948172926903, 0.26294243335723877, -0.08292496204376221, -0.027035057544708252, 0.12145792692899704, 0.06638788431882858, 0.04162992164492607, 0.03730252385139465, -0.04839876666665077, -0.043505240231752396, 0.037611670792102814, 0.030376682057976723, -0.036261990666389465, -0.06725103408098221, 0.027675172314047813, 0.04371364414691925, 0.09144420921802521, 0.02623904123902321, -0.0007490398129448295, 0.12413386255502701, 0.1089600920677185, -0.05448472127318382, 0.0650084912776947, -0.004244945477694273, -0.0273958258330822, 0.019115857779979706, 0.004518122877925634, -0.06605730950832367, 0.07321453839540482, 0.08537951856851578, -0.0672365203499794, 0.04702186584472656, -0.04140906780958176, -0.09207331389188766, 0.09239847958087921, 0.1531710922718048, -0.08751881122589111, 0.012948631308972836, -0.04177844524383545, 0.004795067477971315, -0.026497352868318558, -0.16234244406223297, 0.08914097398519516, -0.05733780562877655, 0.01742331124842167, -0.014747164212167263, 0.10423724353313446, 0.012243907898664474, 0.10321339964866638, -0.010987401008605957, 0.04534318670630455, -0.008053436875343323, -0.07791099697351456, 0.026118338108062744, 0.08706846088171005, 0.018142424523830414, -0.08481164276599884, -0.057119037955999374, 0.06008097901940346, 0.13646359741687775, -0.005885872524231672, -0.003119355533272028, -0.07716185599565506, 0.01284409873187542, 0.028151502832770348, 0.05784333497285843, 0.01534253265708685, 0.03162388503551483, 0.08580770343542099, -0.07387551665306091, -0.08824978023767471, -0.09010506421327591, 0.09038817137479782, 0.05683048814535141, -0.013757767155766487, 0.08709654211997986, 0.03808495029807091, 0.06241248920559883], [-0.11962222307920456, 0.03959072381258011, 0.038209520280361176, -0.1650724560022354, 0.009977810084819794, 0.03356366604566574, -0.09677264839410782, 0.07286340743303299, -0.06970234960317612, -0.0320984423160553, 0.010186311788856983, -0.09648411720991135, 0.013679875060915947, 0.042559023946523666, -0.02235102280974388, 0.04902025684714317, 0.09958156943321228, -0.03940640389919281, 0.008977903053164482, 0.05264728143811226, -0.018748853355646133, -0.0050773341208696365, -0.04568244144320488, 0.051378946751356125, -0.03934298828244209, -0.09606622159481049, 0.08622517436742783, -0.05586085096001625, -0.004466985817998648, -0.02685481682419777, 0.00047932835877873003, 0.014191108755767345, 0.09013211727142334, -0.11014938354492188, 0.034134648740291595, -0.056002646684646606, 0.09815990924835205, -0.02277178317308426, 0.06012396886944771, 0.04132555052638054, -0.04913045093417168, 0.04939290136098862, -0.11110393702983856, 0.04814669489860535, 0.007884051650762558, -0.009596263989806175, -0.025406839326024055, 0.016888493672013283, -0.015495633706450462, 0.16329796612262726, -0.02173313871026039, 0.05660666152834892, 0.07573463767766953, 0.11290502548217773, -0.005449158605188131, 0.11893733590841293, 0.026962490752339363, -0.041857559233903885, -0.020869147032499313, 0.0508858747780323, -0.040714263916015625, 0.04273553192615509, 0.03132743015885353, -0.0019586372654885054, -0.017932580783963203, -0.012088436633348465, -0.06656592339277267, -0.013283912092447281, 0.03684437647461891, 0.08844117820262909, -0.14448775351047516, 0.11273664981126785, -0.08422113955020905, 0.03573695197701454, 0.060600005090236664, -0.07294077426195145, 0.07110616564750671, 0.07385186851024628, -0.005921404808759689, -0.012216206640005112, 0.03847789764404297, -0.01912885718047619, 0.044105298817157745, -0.01759123057126999, -0.011525310575962067, 0.03704818710684776, -0.02694021165370941, 0.019147489219903946, -0.010818631388247013, 0.025891849771142006, -0.004132937639951706, 0.04005815461277962, 0.016005588695406914, 0.011982911266386509, 0.11195573955774307, -0.02409147098660469, 0.11069129407405853, 0.049312230199575424, 0.025125250220298767, 0.052539341151714325, -0.11568321287631989, -0.07413099706172943, -0.11250802874565125, -0.09129441529512405, 0.000109718537714798, 0.016270902007818222, 0.023412227630615234, -0.0912574902176857, -0.04829905182123184, -0.05280124023556709, 0.0020428060088306665, -0.09752486646175385, 0.049232855439186096, -0.0520462766289711, -0.007680840790271759, -0.03978545963764191, -0.04109496250748634, -0.0881224051117897, 0.021763108670711517, -0.06095869094133377, 0.11158166825771332, 0.14886826276779175, 0.0636793002486229, -0.12563911080360413, -0.06477931886911392, 0.013042015954852104, 0.05248594284057617, 0.043663110584020615, 0.06392686814069748, 0.02303488552570343, -0.020738869905471802, 0.02755437046289444, -0.017699606716632843], [-0.07909861952066422, -0.022556332871317863, -0.025579754263162613, 0.05428130179643631, -0.07168588787317276, 0.028572961688041687, -0.0437011756002903, 0.05207495763897896, -0.07259427756071091, -0.016097215935587883, -0.01849956624209881, 0.06162531301379204, -0.06894173473119736, 0.05783367529511452, 0.05850080028176308, -0.09067784249782562, -0.0034309562761336565, -0.02281506359577179, -0.07942468672990799, -0.013368029147386551, 0.19635355472564697, -0.11715426295995712, 0.04504823312163353, -0.048511795699596405, 0.06563135236501694, -0.09456858783960342, 0.022214876487851143, 0.022464413195848465, -0.053502097725868225, -0.01854231394827366, 0.08962520956993103, -0.11625833064317703, -0.04471633955836296, 0.09714784473180771, 0.09694485366344452, 0.07832620292901993, 0.08588836342096329, 0.11838025599718094, 0.14074982702732086, 0.05393579229712486, 0.05165495723485947, 0.08616314083337784, 0.004484217148274183, 0.019411012530326843, 0.19549815356731415, 0.04068639129400253, -0.09719323366880417, 0.0797126516699791, 0.07004766911268234, -0.04668677970767021, 0.09860412031412125, 0.12126010656356812, 0.13199752569198608, -0.13224442303180695, 0.027367567643523216, -0.06550360471010208, 0.08625374734401703, -0.01874840073287487, -0.04774545133113861, -0.06883091479539871, 0.05886198207736015, -0.03558287397027016, -0.00822039507329464, 0.030188007280230522, -0.08681242167949677, -0.08564317226409912, 0.01765730418264866, -0.017916293814778328, -0.08473531901836395, 0.015980493277311325, -0.03712255880236626, -0.04264071211218834, 0.031831905245780945, -0.06536151468753815, -0.01879613846540451, -0.11370479315519333, -0.037802331149578094, -0.029188457876443863, -0.11468300223350525, -0.10950877517461777, 0.06712713092565536, 0.0636206641793251, -0.004864846356213093, 0.02142835594713688, 0.008545063436031342, 0.05916861072182655, 0.016814548522233963, -0.07387572526931763, -0.03858524188399315, -0.06361600011587143, 0.0947539359331131, -0.057362571358680725, -0.03592130169272423, 0.068870909512043, -0.07865213602781296, -0.04352196678519249, 0.0761033147573471, -0.03979237377643585, -0.0733037069439888, 0.03006945550441742, 0.020230013877153397, 0.11540788412094116, -0.08120695501565933, -0.09001122415065765, -0.07678371667861938, -0.010903345420956612, -0.06399931013584137, -0.07234425842761993, -0.11273239552974701, -0.020175136625766754, 0.06966009736061096, -0.14886315166950226, -0.0724954605102539, -0.06291039288043976, -0.09978412836790085, -0.10404972732067108, -0.07570067793130875, -0.09560409933328629, -0.007998150773346424, 0.03961307555437088, 0.03642119839787483, -0.11504330486059189, -0.03967570140957832, -0.12949754297733307, -0.04875196889042854, 0.026430534198880196, -0.005814708303660154, -0.0355573408305645, 0.09406061470508575, 0.07191044837236404, -0.05596921965479851, 0.07528924196958542, -0.052664875984191895], [0.061368994414806366, -0.028194529935717583, -0.10918397456407547, 0.06524999439716339, -0.032460857182741165, 0.039344873279333115, -0.036441370844841, -0.0014305957593023777, -0.08843857049942017, 0.1204785406589508, -0.06587602198123932, 0.05150165036320686, 0.013529959134757519, 0.051893558353185654, -0.016666114330291748, -0.15111060440540314, 0.06481865793466568, 0.049195535480976105, -0.019908176735043526, 0.07807910442352295, 0.1086602434515953, 0.02552487887442112, 0.04670769348740578, 0.02944652922451496, 0.09668483585119247, -0.06731296330690384, 0.11566241085529327, -0.05448593944311142, -0.07160987704992294, 0.045817941427230835, 0.12477467954158783, 0.10198814421892166, -0.04951345548033714, 0.10986272245645523, 0.13143883645534515, 0.05999961495399475, 0.06187376752495766, 0.14874060451984406, 0.0907771959900856, -0.01978086493909359, -0.005173573270440102, -0.06573154032230377, -0.04027007892727852, -0.042377371340990067, -0.006499833427369595, 0.08605825155973434, 0.07885599136352539, 0.031966179609298706, 0.06936579942703247, 0.04122557491064072, 0.020401546731591225, -0.024867692962288857, 0.13255807757377625, 0.03292219340801239, 0.10920558869838715, 0.0506758987903595, 0.0018855039961636066, -0.03595219925045967, 0.03235331550240517, -0.015153462998569012, 0.1620548963546753, 0.011743799783289433, 0.040672607719898224, 0.16233272850513458, -0.02379334159195423, 0.09595918655395508, 0.06509248167276382, -0.0172178503125906, -0.025903245434165, 0.06499101221561432, 0.04695817828178406, -0.04802485927939415, -0.007562574930489063, 0.03341730684041977, 0.06079041212797165, -0.002487804275006056, 0.05637214332818985, 0.06649396568536758, 0.054550133645534515, -0.03639916330575943, 0.11003643274307251, -0.020331833511590958, 0.053867001086473465, 0.03263511136174202, 0.04908508062362671, 0.00273110275156796, 0.022553730756044388, -0.04109497368335724, -0.0004559141234494746, -0.05911964178085327, 0.13161222636699677, -0.05265617370605469, 0.10567975044250488, -0.048366647213697433, 0.09763394296169281, 0.1087741106748581, -0.0025517873000353575, 0.061689864844083786, 0.1027139201760292, 0.024669397622346878, 0.024921312928199768, -0.012661243788897991, 0.04825621098279953, -0.010331305675208569, -0.06090715900063515, 0.084902323782444, 0.026952572166919708, 0.0226784348487854, -0.05099029839038849, -0.002077182289212942, -0.00022975151659920812, -0.0901465117931366, 0.029657064005732536, 0.02941896952688694, 0.06951428204774857, 0.02959674410521984, -0.17348840832710266, -0.07427726686000824, -0.10902900248765945, 0.013514811173081398, 0.11437207460403442, 0.19563329219818115, 0.1870749592781067, 0.10226563364267349, 0.05179738625884056, -0.08143315464258194, -0.07164757698774338, 0.10092397034168243, 0.1349448561668396, 0.036976370960474014, 0.009039857424795628, 0.03583209589123726, 0.13028506934642792], [-0.19209447503089905, -0.07219986617565155, -0.11607473343610764, -0.1498357653617859, -0.0699319988489151, 0.00351406866684556, -0.02678617276251316, 0.013348408043384552, 0.059227608144283295, 0.14098168909549713, -0.05309343710541725, -0.061136383563280106, -0.062117915600538254, -0.1029326319694519, 0.08304865658283234, -0.06692934036254883, -0.02657214179635048, -0.09622309356927872, -0.014930091798305511, -0.046736638993024826, -0.02980079874396324, -0.0468573123216629, -0.03687601909041405, -0.1800731122493744, 0.0411444827914238, -0.09501414746046066, 0.005113169085234404, 0.02313832938671112, -0.0913095697760582, 0.052218738943338394, -0.21625232696533203, -0.09230614453554153, -0.10884460061788559, -0.03159412369132042, -0.1518445909023285, -0.17685197293758392, -0.04531653970479965, -0.021896909922361374, -0.08227434009313583, 0.06294618546962738, -0.019432246685028076, 0.02736046351492405, 0.00037462578620761633, 0.17646871507167816, -0.0451604500412941, 0.10342756658792496, -0.046203918755054474, -0.10678066313266754, -0.016104474663734436, -0.07974609732627869, 0.06379920989274979, 0.08412817865610123, 0.05991005152463913, -0.04433406889438629, 0.09401623904705048, -0.08025714755058289, 0.11648285388946533, -0.09402412921190262, -0.07250845432281494, 0.03003772906959057, -0.14301852881908417, 0.0024155392311513424, -0.10710529237985611, -0.029451267793774605, -0.16612565517425537, -0.013134077191352844, 0.08876287192106247, 0.011131435632705688, -0.025390854105353355, -0.003185486188158393, -0.03138872981071472, -0.04595261067152023, -0.008979469537734985, -0.035300206393003464, 0.019970709457993507, -0.1577773541212082, -0.06050899252295494, -0.026740787550807, -0.03203484043478966, 0.018808605149388313, -0.059218987822532654, -0.06439308077096939, -0.008355147205293179, -0.0597856231033802, 0.01314571127295494, -0.08827295154333115, 0.01673218049108982, 0.04784717783331871, -0.03773854300379753, 0.004640686791390181, -0.05403922125697136, -0.043111830949783325, -0.11445491015911102, -0.11990214884281158, -0.05454819276928902, 0.05402376875281334, 0.01050704624503851, 0.010259835049510002, 0.05413933843374252, 0.011434783227741718, 0.01043942105025053, 0.05866895243525505, -0.09727519005537033, -0.004264180548489094, -0.040971606969833374, -0.1076708510518074, -0.04371852055191994, -0.1053319126367569, -0.07026731967926025, -0.15568771958351135, 0.05972900241613388, -0.06753364205360413, 0.03693939745426178, 0.018653418868780136, 0.10612303018569946, -0.04855266585946083, -0.055091742426157, -0.10666152089834213, -0.029177598655223846, 0.11301186680793762, -0.049802761524915695, -0.007117487955838442, 0.11620251089334488, -0.07989393174648285, -0.2581380605697632, 0.005645086523145437, 0.006673886906355619, 0.0008370522991754115, -0.035489004105329514, -0.019046692177653313, -0.039632659405469894, -0.0020203273743391037, 0.040723979473114014], [-0.09587778151035309, -0.03934665396809578, 0.03789202496409416, -0.007341708522289991, -0.05402449518442154, 0.0630917176604271, -0.11815384775400162, 0.11024384945631027, 0.023850714787840843, 0.012891427613794804, -0.05995938181877136, 0.0012256547342985868, 0.02434137463569641, -0.09026551991701126, -0.01661026105284691, 0.10267776995897293, 0.09236034750938416, -0.0002005059941438958, 0.0032197050750255585, -0.012776297517120838, -0.003953034058213234, -0.10038184374570847, 0.007033892907202244, -0.05214359983801842, -0.011188034899532795, 0.015356633812189102, 0.11223840713500977, 0.00855208095163107, 0.023186273872852325, 0.0031927756499499083, -0.11497800052165985, 0.0005922615528106689, -0.1423225998878479, 0.003771945834159851, -0.12007113546133041, 0.03616320341825485, 0.017054211348295212, 0.1381625086069107, 0.040934812277555466, 0.015218881890177727, -0.007266710978001356, -0.02331368252635002, -0.0984797328710556, 0.052946045994758606, -0.02568923309445381, 0.10038312524557114, 0.10436670482158661, -0.06634245067834854, -0.03385632485151291, 0.010607982985675335, 0.10728046298027039, 0.04500177130103111, 0.021696144714951515, 0.10283797234296799, 0.05672710761427879, -0.024314746260643005, -0.010711339302361012, -0.026583323255181313, -0.0013953193556517363, -0.03556250035762787, 0.016227420419454575, -0.04963401332497597, 0.02921758033335209, -0.007406099699437618, -0.016315612941980362, -0.04125985503196716, 0.021398525685071945, -0.07678716629743576, 0.006062917411327362, 0.029463857412338257, -0.08357594907283783, 0.014695827849209309, 0.006047980859875679, 0.02851730026304722, -0.04190763086080551, -0.08305716514587402, -0.13968946039676666, -0.0692046731710434, -0.07253342866897583, -0.03698175027966499, 0.0834902673959732, 0.1086612343788147, -0.011844766326248646, 0.1582185924053192, 0.09101402759552002, -0.07277213782072067, 0.10186810791492462, 0.025147659704089165, 0.05126827955245972, -0.022995488718152046, 0.06367727369070053, -0.06009618565440178, -0.027566978707909584, 0.019769014790654182, -0.11913999170064926, 0.07904370129108429, 0.03048870712518692, 0.08620811253786087, 0.08011335134506226, 0.1197395920753479, -0.048896968364715576, 0.04859035462141037, -0.06869468837976456, 0.05236722528934479, 0.08768319338560104, -0.007527127396315336, -0.10392343252897263, -0.12099350243806839, 0.02204049751162529, -0.13712149858474731, 0.13778634369373322, -0.09706456959247589, -0.10724736750125885, -0.06165120750665665, 0.05375180020928383, 0.14056822657585144, -0.043765950947999954, 0.017665240913629532, 0.04513239115476608, 0.042813777923583984, 0.08368654549121857, 0.11084643006324768, 0.21710488200187683, -0.04686994478106499, -0.010652273893356323, 0.01840032823383808, -0.1164504811167717, 0.10542496293783188, -0.020389316603541374, 0.09832703322172165, 0.058578524738550186, 0.06970112770795822, -0.09641660749912262], [-0.10437170416116714, -0.1383853703737259, -0.13509216904640198, -0.17159010469913483, -0.04490091651678085, 0.018101338297128677, 0.001749460119754076, 0.03219329193234444, -0.09228749573230743, -0.10596431791782379, -0.0076825800351798534, -0.011541088111698627, -0.09803540259599686, 0.04345807805657387, -0.014184718951582909, -0.02152068540453911, 0.07784252613782883, 0.011776136234402657, -0.11004149168729782, -0.0007856442825868726, -0.0435037799179554, 0.0630609393119812, -0.07146185636520386, 0.09601310640573502, 0.030922511592507362, -0.06275439262390137, 0.012181646190583706, -0.030430369079113007, -0.15185698866844177, -0.04296933859586716, -0.17218609154224396, -0.11613533645868301, -0.048614658415317535, -0.1530430167913437, -0.09453324228525162, 0.019009096547961235, 0.03778955712914467, 0.01590028777718544, 0.0935053676366806, 0.015400808304548264, -0.02387862838804722, 0.1263265311717987, -0.011606286279857159, -0.07260607182979584, 0.03876093775033951, -0.05918949469923973, -0.10895205289125443, -0.13849151134490967, -0.13854341208934784, -0.07996523380279541, 0.10462266951799393, 0.06379556655883789, -0.03912739455699921, 0.014489603228867054, 0.07529880106449127, -0.07342074811458588, 0.10611580312252045, -0.01906256563961506, 0.013129672035574913, -0.06217803806066513, -0.04566330090165138, 0.025383690372109413, -0.058040548115968704, -0.14464177191257477, -0.035035308450460434, 0.03758353367447853, 0.06721654534339905, -0.06500321626663208, -0.045895230025053024, -0.004338789265602827, -0.08102434128522873, -0.056777287274599075, -0.0010991344461217523, -0.06027054414153099, -0.018979232758283615, -0.08759210258722305, -0.0008251325925812125, -0.06412556767463684, -0.11746098846197128, -5.122890433995053e-05, 0.05844605714082718, 0.070694200694561, 0.0852702185511589, 0.13151714205741882, -0.026205571368336678, -0.034778859466314316, 0.05238257721066475, -0.08380500972270966, -0.0432710163295269, -0.0487012080848217, -0.12389219552278519, 0.0005696862353943288, -0.12734799087047577, -0.052222225815057755, -0.08313954621553421, 0.021334176883101463, 0.046993255615234375, 0.012607177719473839, 0.2695746123790741, 0.054148364812135696, -0.09568671137094498, -0.039152272045612335, -0.05498200282454491, 0.050210509449243546, -0.016358831897377968, -0.11729442328214645, -0.013081041164696217, -0.1090032234787941, 0.01558111421763897, -0.08563560992479324, 0.18053190410137177, 0.0001545278646517545, 0.04631216451525688, 0.03420356288552284, -0.07315291464328766, -0.07318115234375, -0.07116741687059402, -0.055936459451913834, 0.016161542385816574, -0.057749710977077484, 0.06050939857959747, 0.03331883251667023, 0.1353377252817154, -0.13948535919189453, -0.1633371263742447, -0.07946666330099106, 0.027932889759540558, -0.014365260489284992, 0.03107389807701111, -0.0240387674421072, 0.012876623310148716, 0.17185133695602417, -0.013506822288036346], [-0.10065799206495285, -0.039090197533369064, -0.13000866770744324, -0.14103129506111145, -0.25305408239364624, 0.05828912556171417, -0.12820881605148315, 0.11475599557161331, -0.045211050659418106, -0.06574510037899017, -0.08096487820148468, 0.0009471394005231559, -0.05868479609489441, -0.037785567343235016, -0.06638417392969131, 0.0712367370724678, 0.1441141813993454, 0.006966791115701199, -0.11332196742296219, 0.1537988781929016, -0.02027020789682865, -0.05081748589873314, -0.03231444209814072, 0.05524590238928795, 0.03233041241765022, -0.08458326756954193, -0.00047597027150914073, 0.010058620013296604, 0.007310694549232721, -0.005474514793604612, -0.08394327759742737, -0.19293087720870972, -0.15120235085487366, -0.03329463675618172, -0.023496270179748535, -0.088093101978302, 0.040558211505413055, 0.014102039858698845, 0.05479121953248978, 0.004255978390574455, -0.02041890285909176, -0.021732671186327934, 0.057511065155267715, -0.05932436138391495, 0.012472134083509445, 0.022741278633475304, -0.0525260791182518, -0.12170148640871048, 0.03755193576216698, -0.08248672634363174, 0.08125249296426773, 0.02760595642030239, -0.00866580381989479, 0.08532243967056274, -0.035982850939035416, -0.02196287363767624, 0.10956855863332748, -0.08795662969350815, -0.0017870190786197782, -0.015270987525582314, 0.05419855937361717, 0.04000573232769966, 0.007601605262607336, -0.03288073465228081, 0.05094703659415245, 0.1373577117919922, 0.01948816142976284, 0.050202179700136185, -0.04932224005460739, -0.011198545806109905, -0.0980762466788292, -0.07307028770446777, -0.002677817130461335, -0.07073593139648438, -0.029066244140267372, 0.05436232313513756, -0.012419028207659721, -0.11612625420093536, -0.04419806972146034, -0.06108412891626358, 0.0017476044595241547, -0.05287809297442436, -0.02450362592935562, 0.04678851738572121, 0.03737863153219223, -0.0159581508487463, 0.03469810262322426, -0.06240202486515045, 0.03346315026283264, -0.06883866339921951, -0.0158014427870512, -0.07712230086326599, -0.12899617850780487, -0.10724682360887527, -0.012406211346387863, -0.008034978993237019, 0.04924217611551285, 0.031448446214199066, 0.02935715764760971, 0.07846489548683167, -0.009110935032367706, -0.021129745990037918, 0.040949746966362, 0.039316873997449875, -0.07367154955863953, -0.010373996570706367, -0.02835550345480442, 0.0063498481176793575, 0.024598179385066032, -0.13779252767562866, 0.048678770661354065, -0.08160532265901566, -0.3121184706687927, -0.007826512679457664, 0.010346895083785057, -0.008047964423894882, -0.01678447052836418, 0.002077204640954733, -0.05987074226140976, 0.06043808162212372, -0.07293043285608292, 0.11481529474258423, 0.09469295293092728, -0.045932263135910034, -0.07730171829462051, 0.0035781138576567173, -0.05178399011492729, 0.12009528279304504, -0.028060447424650192, -0.009954242035746574, -0.024501405656337738, 0.10010510683059692, -0.10995184630155563], [0.019658632576465607, -0.004691814072430134, 0.0050819795578718185, -0.005719922948628664, 0.09194451570510864, -0.08190302550792694, -0.04835202172398567, 0.05469861254096031, -0.0018353908089920878, 0.036572281271219254, 0.046965330839157104, -0.053261276334524155, -0.03516184166073799, -0.043773353099823, -0.035179801285266876, 0.19904571771621704, 0.09228624403476715, 0.042053960263729095, 0.13559585809707642, 0.013586344197392464, 0.018832916393876076, 0.0121717294678092, -0.018772829324007034, -0.004766060970723629, 0.009299247525632381, -0.033678825944662094, -0.07213647663593292, -0.05078115686774254, 0.04691389575600624, 0.0587569996714592, 0.09177272766828537, 0.1795528382062912, 0.1304595172405243, 0.16229592263698578, 0.06067424267530441, -0.15009494125843048, 0.05216285586357117, 0.04190916568040848, 0.02918367087841034, 0.07985135912895203, 0.02050280198454857, -0.11354108899831772, 0.03803982213139534, -0.04059504717588425, -0.13730531930923462, 0.13552583754062653, 0.1476392298936844, 0.023838920518755913, 0.12889781594276428, 0.07557081431150436, -0.046776752918958664, -0.02851625345647335, 0.04427411034703255, -0.019177906215190887, 0.0060001565143466, -0.029261332005262375, -0.016904396936297417, 0.0836063101887703, -0.06145557388663292, -0.15918809175491333, 0.32685771584510803, -0.01547988411039114, 0.15164849162101746, -0.02692973054945469, 0.07929672300815582, 0.15737299621105194, 0.05450142174959183, -0.028226396068930626, -0.01162904966622591, -0.0661434605717659, -0.05742907524108887, -0.057266902178525925, 0.02305174246430397, 0.005629904102534056, 0.07627948373556137, 0.18670466542243958, 0.22957704961299896, 0.004247262608259916, 0.04229525104165077, -0.008217851631343365, -0.07582049071788788, -0.018913960084319115, 0.0165831558406353, 0.03934943675994873, -0.03570067137479782, -0.21796049177646637, 0.055149469524621964, -0.032458119094371796, 0.0260073933750391, 0.07547261565923691, 0.1884065568447113, 0.1264141947031021, 0.02734113298356533, 0.08759146928787231, 0.05022668093442917, 0.04086390510201454, -0.06906827539205551, -0.0029410438146442175, 0.030902406200766563, -0.06521749496459961, 0.006981796585023403, -0.011568374000489712, -0.051177166402339935, -0.08326277881860733, -0.09943103790283203, 0.06692074239253998, 0.07387135922908783, -0.03150194510817528, 0.04381943866610527, -0.003439247841015458, 0.010882564820349216, 0.027483107522130013, 0.06290198862552643, -0.05874783173203468, 0.06665118038654327, -0.03806205466389656, 0.022800462320446968, 0.07492692768573761, -0.03151002898812294, 0.05346493050456047, 0.10697953402996063, 0.04049183055758476, 0.03312128782272339, 0.10241078585386276, 0.037578314542770386, -0.06890454888343811, -0.060502782464027405, 0.06465271860361099, 0.021625056862831116, 0.015568939968943596, -0.036460358649492264, 0.03634149208664894, 0.03643902391195297], [0.016861604526638985, 0.010598902590572834, 0.06429977715015411, -0.02489067055284977, -0.07967188954353333, 0.03795730322599411, -0.06594084203243256, -0.012763590551912785, -0.09151408821344376, -0.07887019217014313, 0.042433831840753555, 0.03232680633664131, -0.06054830178618431, 0.05086514353752136, -0.09413176029920578, -0.005841098725795746, 0.1549137681722641, -0.05675678700208664, 0.04221653938293457, 0.01775161363184452, -0.0655270516872406, 0.021663419902324677, 0.020989060401916504, -0.07007181644439697, -0.1302914023399353, 0.04073034226894379, 0.06394341588020325, -0.11096605658531189, -0.09928402304649353, -0.0884832814335823, 0.11876987665891647, -0.031843919306993484, 0.11247116327285767, 0.0655687004327774, -0.026415729895234108, -0.09018707275390625, 0.04561799392104149, 0.06496210396289825, 0.04681314527988434, 0.0757346898317337, -0.09346948564052582, 0.020879190415143967, -0.07572554051876068, -0.08987829834222794, -0.05153815448284149, -0.03576921671628952, 0.026959793642163277, 0.05966978147625923, -0.0463813915848732, -0.09710849076509476, -0.06571064889431, -0.054826412349939346, 0.022518588230013847, -0.017187537625432014, 0.01793687231838703, -0.05265923589468002, 0.13939960300922394, 0.009800669737160206, 0.0420365072786808, 0.022827135398983955, 0.08031018823385239, 0.21586067974567413, 0.05373409762978554, 0.0412270650267601, -0.021218618378043175, 0.09996452927589417, -0.03188752382993698, 0.060203805565834045, 0.05145064741373062, 0.018331637606024742, -0.0757758617401123, 0.019622424617409706, -0.11285747587680817, 0.0449615903198719, -0.027550499886274338, 0.04585123434662819, 0.1807580292224884, -0.05329088121652603, -0.049976497888565063, 0.01539490558207035, 0.00788680650293827, 0.06011536717414856, -0.019091222435235977, 0.0015319155063480139, -0.05874938890337944, 0.03690427169203758, -0.03838270530104637, 0.02813641168177128, 0.025034254416823387, -0.047005072236061096, 0.09395594149827957, -0.006311292294412851, 0.016633501276373863, 0.09242913126945496, 0.08568387478590012, -0.10418539494276047, 0.0194679107517004, 0.057047173380851746, -0.04251152276992798, -0.026360411196947098, -0.012693754397332668, -0.0069045741111040115, -0.02848934195935726, -0.24556249380111694, 0.06633874028921127, 0.10187709331512451, -0.048353634774684906, -0.004826128017157316, 0.09655733406543732, -0.06864350289106369, 0.14652414619922638, -0.018471991643309593, 0.0651940330862999, -0.025713510811328888, -0.0848272368311882, 0.033112481236457825, 0.028361281380057335, -0.04079321399331093, 0.053457111120224, -0.12400657683610916, 0.03778211772441864, 0.024388322606682777, 0.13347765803337097, -0.008658142760396004, -0.0022409434895962477, 0.14605532586574554, 0.007636686321347952, 0.03582186624407768, -0.025153301656246185, 0.005787742789834738, 0.06722460687160492, 0.08341914415359497, -0.09829383343458176], [0.03900924324989319, 0.016104377806186676, 0.024565137922763824, -0.05707137659192085, 0.0009606721578165889, 0.017368344590067863, 0.03860429301857948, 0.07566684484481812, -0.00659938994795084, 0.02885986492037773, 0.033529169857501984, 0.04178566858172417, 0.07365494966506958, 0.015354813076555729, -0.1026494950056076, 0.01928500458598137, 0.02677784487605095, 0.0030640007462352514, -0.06147091090679169, 0.036210834980010986, -0.05981583148241043, 0.06868670135736465, 0.046574849635362625, 0.06937360018491745, -0.010648566298186779, 0.024185476824641228, 0.06877029687166214, -0.06126418709754944, -0.0012992268893867731, 0.0011486402945593, 0.04622560366988182, -0.03018980845808983, 0.08221417665481567, -0.08136307448148727, 0.020153330639004707, 0.07544109225273132, -0.015579194761812687, -0.05592615157365799, -0.03706566244363785, -0.00266999751329422, 0.07379300892353058, -0.07246332615613937, -0.02390158921480179, 0.07370973378419876, -0.06560060381889343, -0.08866811543703079, -0.03178729489445686, 0.055334195494651794, -0.04560524597764015, 0.03675602748990059, -0.2033414989709854, -0.05056183785200119, -0.08062532544136047, -0.040235672146081924, -0.06690125167369843, -0.06646762043237686, -0.08458224684000015, 0.04259636625647545, 0.04941006749868393, -0.008782832883298397, 0.02604418620467186, 0.07664806395769119, 0.02706221491098404, 0.006939157377928495, 0.06540869921445847, -0.08047512918710709, -0.048932529985904694, 0.07968976348638535, -0.025758756324648857, -0.13755568861961365, -0.025295479223132133, -0.0842791274189949, 0.020189283415675163, 0.0384838692843914, -0.059905532747507095, -0.01261228695511818, 0.029329687356948853, -0.03912537917494774, -0.02604442834854126, 0.03421546146273613, -0.044471416622400284, 0.03780357912182808, -0.12790434062480927, 0.04887168109416962, 0.0359087735414505, -0.067311130464077, -0.07179447263479233, -0.09115626662969589, 0.07692030817270279, -0.022313769906759262, 0.061950620263814926, 0.09270896762609482, -0.033692698925733566, 0.07058654725551605, -0.006760093849152327, -0.0005948761245235801, -0.022844223305583, -0.009189510717988014, 0.0008685648790560663, 0.018749387934803963, 0.03749849647283554, 0.035042356699705124, 0.08538852632045746, 0.024335360154509544, 0.05153178423643112, 0.026671072468161583, 0.019412728026509285, -0.1277594119310379, -0.003422357141971588, -0.033650875091552734, 0.011458097957074642, -0.005389827769249678, 0.0020653356332331896, 0.2075236588716507, -0.015279563143849373, -0.05077074468135834, 0.008902420289814472, 0.07360661774873734, 0.00659380666911602, -0.10231560468673706, -0.06985849142074585, -0.05603950098156929, -0.027589131146669388, -0.030655421316623688, 0.04437340795993805, 0.0064102462492883205, -0.06558910012245178, -0.09839387983083725, -0.09924430400133133, -0.07189087569713593, -0.08021661639213562, -0.008931256830692291, -0.01695828139781952], [-0.013826759532094002, 0.015673846006393433, -0.08784065395593643, -0.09670989215373993, -0.07697876542806625, -0.0640554204583168, -0.12020881474018097, 0.01650327816605568, 0.04958946257829666, -0.033200863748788834, 0.015706656500697136, 0.0001615238143131137, -0.09266723692417145, -0.12186022102832794, -0.030281029641628265, 0.0984027162194252, -0.004367331974208355, -0.06589631736278534, 0.05662696063518524, 0.12558415532112122, 0.03237437084317207, -0.10097501426935196, 0.09576039761304855, -0.06955404579639435, 0.05784508213400841, -0.028805097565054893, 0.07331764698028564, -0.015383289195597172, -0.009765676222741604, 0.02804269641637802, 0.05335569009184837, -0.12860526144504547, -0.12877599895000458, 0.10340496897697449, -0.10407110303640366, -0.057131577283144, -0.057632915675640106, 0.044249434024095535, -0.08642300963401794, -0.017349062487483025, -0.10860757529735565, 0.11317192763090134, -0.07115432620048523, -0.11691152304410934, 0.043691132217645645, 0.12635712325572968, 0.07600238174200058, -0.0412696897983551, 0.0626855194568634, 0.2699293792247772, -0.01786651648581028, 0.09717494994401932, 0.05724169686436653, -0.006306194234639406, -0.01592095196247101, -0.018657857552170753, 0.17229107022285461, -0.022191422060132027, 0.022188102826476097, 0.029222728684544563, 0.06121149659156799, 0.036718811839818954, 0.08506887406110764, 0.025929104536771774, 0.03124270588159561, 0.08285187184810638, 0.10028675943613052, 0.08973879367113113, 0.018426256254315376, 0.0251694917678833, -0.048479095101356506, -0.08180131763219833, -0.06986812502145767, 0.03104703314602375, 0.09430687874555588, -0.03753885254263878, 0.003959738649427891, -0.0466800257563591, 0.018264872953295708, 0.06962735205888748, -0.06408806145191193, 0.14455093443393707, 0.11052130162715912, -0.022357286885380745, 0.007867861539125443, 0.04262804612517357, 0.06042644754052162, -0.028412753716111183, -0.11394822597503662, -0.036684535443782806, 0.11681296676397324, -0.06091632321476936, -0.026992354542016983, -0.010598564520478249, -0.02235903963446617, 0.04486682638525963, 0.03433912992477417, 0.06075112894177437, -0.036125656217336655, 0.04256727918982506, -0.08682959526777267, 0.1324983686208725, -0.08639054000377655, -0.06271883100271225, 0.020751124247908592, -0.0811697393655777, 0.036723457276821136, -0.08892589807510376, -0.013744127005338669, -0.10159894824028015, 0.15870589017868042, -0.00466615054756403, -0.07227734476327896, 0.07156506925821304, 0.014182635582983494, -0.06275906413793564, -0.04103076085448265, -0.046783000230789185, -0.03236362710595131, -0.03693121299147606, 0.007828767411410809, 0.14133287966251373, 0.10804513841867447, 0.06769290566444397, -0.02197706699371338, -0.04792008921504021, -0.05477374047040939, 0.16161364316940308, 0.05588046461343765, -0.0046569970436394215, 0.07925984263420105, 0.10133916139602661, 0.055660348385572433], [-0.11036159843206406, -0.10509120672941208, 0.07027598470449448, 0.028722712770104408, -0.10979635268449783, -0.045625295490026474, -0.029297208413481712, 0.05077395215630531, -0.01184897217899561, 0.08370636403560638, -0.07118353247642517, 0.03660830110311508, -0.01783520169556141, -0.010067004710435867, -0.031446054577827454, -0.17641688883304596, 0.009707733988761902, -0.06666765362024307, 0.003260006895288825, -0.047664158046245575, -0.028622757643461227, 0.03307634964585304, -0.05660081282258034, -0.05284116789698601, 0.0291519146412611, -0.030037207528948784, 0.0992773175239563, -0.08453819155693054, -0.0872209295630455, -0.06193562597036362, -0.1573123037815094, -0.05211838334798813, -0.03830438852310181, -0.13805295526981354, -0.09303173422813416, -0.0490439347922802, 0.0666041374206543, -0.06220615655183792, -0.07501693814992905, 0.11503776162862778, -0.10837569087743759, 0.2565104067325592, 0.025823144242167473, 0.08661578595638275, -0.04998903349041939, -0.12971556186676025, -0.003558361902832985, -0.0008137573604471982, 0.007726727053523064, -0.13018111884593964, -0.036771371960639954, 0.03856617957353592, 0.03315647691488266, 0.032762207090854645, 0.059985075145959854, -0.07127173990011215, 0.06559808552265167, -0.08745384961366653, 0.004096666816622019, -0.013112044893205166, -0.11963963508605957, -0.04132387787103653, -0.11459062993526459, 0.02116570994257927, -0.13266503810882568, 0.07726118713617325, -0.014824309386312962, 0.1952877789735794, -0.023009633645415306, -0.05306747555732727, 0.021544108167290688, 0.06031664460897446, -0.11979406327009201, 0.028637709096074104, 0.0544743649661541, 0.018321575596928596, -0.06211667135357857, -0.028552217409014702, -0.018227972090244293, -0.010073438286781311, 0.0877421647310257, 0.0425521545112133, -0.022455254569649696, 0.03187680244445801, 0.06511987000703812, -0.05963541194796562, -0.034920889884233475, 0.01727163977921009, 0.021689223125576973, 0.06097367778420448, -0.09745819866657257, -0.03533029556274414, -0.06696692109107971, -0.040079936385154724, -0.05632822588086128, -0.053693436086177826, -0.00936209224164486, 0.08750659972429276, -0.0050040255300700665, 0.006201295647770166, -0.10301932692527771, -0.0074196383357048035, -0.05829528719186783, -0.02845376916229725, -0.028314225375652313, -0.14529328048229218, -0.1317821890115738, -0.014723565429449081, -0.013308224268257618, -0.2392629235982895, 0.06945931911468506, -0.09869439154863358, -0.08438244462013245, -0.011469434946775436, 0.0523589663207531, -0.024064907804131508, -0.009969744831323624, -0.015115629881620407, -0.038655802607536316, 0.02730213664472103, -0.07631784677505493, 0.09732821583747864, -0.02323819138109684, -0.0038141170516610146, -0.015515592880547047, -0.055230654776096344, -0.06566950678825378, -0.07930932193994522, 0.11175582557916641, -0.01795330084860325, 0.08216644078493118, 0.013485944829881191, -0.08890971541404724], [-0.0962430015206337, 0.08499811589717865, -0.002116856863722205, 0.08699094504117966, 0.0017175913089886308, 0.04880755394697189, -0.011748125776648521, -0.08149836212396622, 0.09323596954345703, -0.08369167894124985, -0.050626736134290695, -0.1429659128189087, -0.0258058849722147, 0.03571328520774841, -0.08271021395921707, 0.012971554882824421, -0.05907515436410904, -0.04656427726149559, 0.07169684767723083, -0.10587643831968307, 0.004205315373837948, -0.09366288036108017, -0.07310120016336441, -0.0007030345732346177, 0.013461180031299591, 0.022239962592720985, -0.06884544342756271, 0.008802958764135838, 0.20569364726543427, 0.01647000201046467, -0.06858830899000168, -0.07521455734968185, 0.045042913407087326, -0.07550130784511566, -0.11116701364517212, -0.08572429418563843, -0.07049763947725296, -0.10061761736869812, 0.0030568521469831467, 0.004361740313470364, 0.06380507349967957, -0.07025580108165741, -0.033538803458213806, 0.04627836123108864, -0.09230649471282959, -0.018882937729358673, -0.034039564430713654, 0.04225786775350571, -0.05529490113258362, 0.011513500474393368, -0.006397933699190617, -0.1016976609826088, -0.03171006962656975, -0.04234936833381653, 0.02369106374680996, -0.045250825583934784, 0.03246767446398735, -0.01318533718585968, -0.07246753573417664, -0.04981488361954689, -0.05265950411558151, -0.07316450774669647, -0.07014387845993042, -0.011235376819968224, -0.11437318474054337, 0.008726737461984158, -0.10125881433486938, 0.07175542414188385, 0.03761230409145355, -0.013103102333843708, -0.03160586208105087, -0.0896432176232338, -0.08075962215662003, 0.0641922876238823, -0.21962609887123108, 0.024153972044587135, -0.031212924048304558, -0.03825386241078377, -0.046546708792448044, -0.06544352322816849, -0.061781685799360275, -0.022648166865110397, -0.030091192573308945, -0.03742760047316551, -0.023768017068505287, 0.03547833114862442, -0.030088406056165695, -0.04805833101272583, -0.030680961906909943, 0.05730399861931801, -0.12117050588130951, 0.06478137522935867, -0.05226762965321541, 0.007309690583497286, -0.0003598822804633528, -0.08337277919054031, 0.004830630961805582, -0.04210449010133743, -0.04798176884651184, 0.0325113870203495, -0.008242371492087841, -0.09190431237220764, 0.0765717551112175, 0.028657812625169754, -0.0693177729845047, 0.02374606765806675, 0.04603619873523712, -0.056931719183921814, -0.06917989999055862, 0.061828017234802246, 0.03685959428548813, -0.036303889006376266, 0.019763553515076637, 0.02871514856815338, -0.002446258906275034, -0.00943224597722292, -0.00760144367814064, -0.024988049641251564, -0.0791645497083664, 0.05461841821670532, -0.10837215930223465, -0.13700082898139954, -0.09131631255149841, -0.02038569748401642, -0.09901300072669983, -0.19336499273777008, 0.06892433762550354, -0.08332859724760056, 0.038015540689229965, 0.031200755387544632, -0.1032075360417366, 0.07567466795444489, 0.005270303692668676], [0.08829523622989655, 0.09205863624811172, 0.06236124411225319, -0.17768095433712006, -0.04987812787294388, 0.06445472687482834, -0.10317634046077728, 0.03688779100775719, 0.00447482243180275, 0.06578067690134048, 0.0506221279501915, 0.043180473148822784, -0.14887626469135284, 0.012221863493323326, 0.08755990862846375, 0.1263105869293213, 0.0682726576924324, -0.007266386412084103, 0.07908328622579575, 0.0804707258939743, 0.051981620490550995, -0.09789146482944489, 0.08889885991811752, 0.01597517542541027, -0.07506250590085983, -0.017312828451395035, 0.10182203352451324, -0.06322041153907776, 0.01746051385998726, -0.008228697814047337, 0.186224102973938, 0.005224955268204212, 0.030601300299167633, 0.03550785779953003, -0.0401732474565506, -0.025724368169903755, -0.009318841621279716, 0.010281146503984928, 0.056769974529743195, -0.04454511031508446, -0.04236526042222977, 0.07528653740882874, 0.03220713138580322, -0.02939319796860218, -0.14043715596199036, 0.1550990492105484, 0.0690762847661972, 0.025700420141220093, 0.11119601875543594, 0.08034691214561462, 0.07009851932525635, 0.06816694140434265, 0.03533639386296272, -0.004816018510609865, -0.08015913516283035, -0.0007561302045360208, -0.024114713072776794, -0.046748146414756775, -0.0986088365316391, -0.09764916449785233, 0.22671538591384888, 0.15591426193714142, 0.02960881032049656, -0.01723967306315899, 0.0005957288667559624, 0.03279763087630272, 0.03197246417403221, 0.06224586069583893, -0.022022053599357605, -0.04840869829058647, -0.012058008462190628, -0.028883537277579308, 0.004439685959368944, -0.07891259342432022, 0.01696659065783024, 0.11407209187746048, 0.06608524918556213, 0.10965141654014587, 0.07773926854133606, 0.19516946375370026, 0.040356289595365524, 0.04127255827188492, -0.035513732582330704, 0.054142288863658905, 0.006726331543177366, -0.018481425940990448, 0.02441711537539959, 0.056811001151800156, -0.03311837837100029, -0.05012497305870056, 0.26343968510627747, 0.042509615421295166, 0.12652570009231567, 0.11762681603431702, -0.03755214065313339, 0.0050987363792955875, -0.017053980380296707, 0.024861684069037437, 0.03707486763596535, -0.019238384440541267, 0.028242547065019608, 0.0356503427028656, -0.07015509158372879, -0.006537518929690123, -0.08492432534694672, 0.19709931313991547, 0.06385070085525513, 0.07500350475311279, 0.08943096548318863, 0.015981685370206833, -0.012595509178936481, -0.0011108542094007134, 0.03052615374326706, 0.05185304582118988, 0.08598306030035019, -0.06338265538215637, 0.020642055198550224, -0.17409460246562958, 0.03433334082365036, 0.18355345726013184, 0.1401377022266388, 0.07128062844276428, -0.10429266840219498, 0.19157695770263672, 0.041053999215364456, 0.05192911624908447, -0.10589120537042618, 0.005515777040272951, 0.12896275520324707, 0.043624550104141235, 0.01864820346236229, 0.08985626697540283, 0.1040629968047142], [0.009111860767006874, 0.14648102223873138, -0.05493674799799919, -0.02731563337147236, 0.009366165846586227, 0.05700111389160156, 0.009123476222157478, 0.026974305510520935, -0.07254897058010101, -0.019504766911268234, 0.01715634949505329, 0.06900429725646973, 0.0031483382917940617, 0.004083649255335331, 0.007748751435428858, 0.06222785264253616, 0.007301636505872011, -0.05414741486310959, -0.03429865092039108, -0.04268527403473854, 0.002087425207719207, -0.030109096318483353, 0.050988972187042236, -0.0512147918343544, -0.08671818673610687, 0.13584765791893005, -0.08397973328828812, 0.041619088500738144, -0.06263566017150879, 0.03198254108428955, 0.05530926585197449, -0.012076680548489094, -0.0664558932185173, -0.030422965064644814, 0.0828799456357956, 0.0009462680318392813, 0.051392145454883575, 0.26562872529029846, 0.17123724520206451, -0.027032187208533287, 0.038174498826265335, -0.011147416196763515, 0.030991507694125175, 0.019895361736416817, 0.07723324000835419, 0.06740105897188187, 0.07017721980810165, -0.0716041699051857, 0.010041259229183197, -0.0700913667678833, -0.024093566462397575, 0.020456615835428238, -0.03362731635570526, -0.06366293132305145, -0.07414087653160095, -0.026800470426678658, -0.07201763242483139, 0.04097965732216835, 0.00463188998401165, 0.09586149454116821, -0.009566358290612698, 0.045939140021800995, 0.07997430860996246, 0.0843343585729599, 0.011386030353605747, 0.016104694455862045, -0.07639088481664658, -0.005299313925206661, 0.08065818250179291, 